solver_type L2R_L2LOSS_SVC
nr_class 26
label 1 11 5 15 13 14 4 9 7 18 24 16 3 20 12 23 2 21 26 25 19 6 22 17 8 10
nr_feature 128
bias -1
w
-0.1489022810329044 0.06242583469799509 -0.1225452537184336 -0.08599236408256371 -0.08622988497806863 -0.08202980673520886 -0.1126463237049664 -0.02039051005886332 -0.1270393088146317 -0.0695724341571783 -0.1084128517326576 -0.05083615106583687 -0.1490412262069968 -0.06987000928979611 -0.05925462811547862 -0.09223442724021436 0.245157487603046 -0.09103111564242629 -0.09933601770192281 0.05070606839719473 -0.1661931968591902 -0.1231293898377024 -0.09556498071558626 -0.1503426807301064 0.1561793166386832 -0.04609840771232062 
-0.2427704282370526 -0.08945252904841031 -0.1960205815352468 -0.1234333781909625 -0.1891577701776576 -0.1496796136453046 -0.2059339672032695 0.0380870128006249 -0.1075404077763261 -0.1410827045740486 -0.1928643810793078 0.02170248287602727 -0.2018949767137792 -0.138779939528523 -0.1360249951124302 -0.2023951307472244 -0.01372095233954998 -0.1691948989179132 -0.2055187117427281 -0.07585079919555167 -0.2157037516737872 -0.1559580564629127 -0.1877526535763845 -0.176879748690541 -0.07711004517587028 -0.1170365126939043 
-0.3215911302518581 -0.2309227542416181 -0.2744438579069907 -0.2073427165156811 -0.2869427775132369 -0.2479976442062347 -0.2949212750953449 0.195549561811952 -0.05688408347371477 -0.2158098903639282 -0.2987005870565908 -0.06208186777120898 -0.274845376504645 -0.2314332913890057 -0.05118499333586191 -0.3366726684338386 -0.2106079259446638 -0.2729364467095329 -0.3220465160840775 -0.2131719963998316 -0.2417931555160769 -0.1917127095635095 -0.3150430057399226 -0.08422256012880493 -0.2422026353126336 -0.2266492439946868 
-0.4197882934694698 -0.3734800798597921 -0.3283745011450883 -0.2932663074773885 -0.3374089350190996 -0.3420272419852925 -0.3729140005207677 0.1468887868093876 -0.1098006403352761 -0.2909936526524942 -0.3943833692688614 -0.1126881434086296 -0.3821852641227553 -0.3025306283312393 -0.09739881060838053 -0.3779994425757739 -0.3674122949990369 -0.4044680291873381 -0.4283810687717419 -0.3988518657220118 -0.2644702194977769 -0.2434404922164081 -0.4195411829936365 -0.2554671137186985 -0.3774984550062744 -0.2954878595730666 
-0.5162804289235574 -0.6063749809823394 -0.3462448995813498 -0.3561908162307692 -0.403678598154907 -0.4026224542613066 -0.4457384146529944 0.0184227550125854 -0.1858816893505376 -0.331192069906494 -0.5260762126508259 -0.1955209167806337 -0.4049935451207718 -0.3654375027812982 -0.1966587926743072 -0.398602835424306 -0.5249882770568604 -0.4670404422883561 -0.5614938768860528 -0.5366925231606773 -0.3871379250927723 -0.3141224765414316 -0.4734655181657166 -0.4176459699061298 -0.5992836562449764 -0.2537429081479015 
-0.422597924166364 -0.5517586889973372 -0.2306667666840465 -0.2968078415570541 -0.3215104357262288 -0.3086746899289617 -0.2372476915553757 -0.09722341788322821 -0.07700792231688325 -0.175640767815852 -0.3551642334065769 0.03192925763792649 -0.3036805710785238 -0.2791824258477354 -0.2062079565689248 -0.3917090055705968 -0.5169655678394329 -0.3984550313619533 -0.461657230963249 -0.394859943981917 -0.2543549992855623 -0.1407057330835512 -0.4648299035676762 -0.3216857977229846 -0.4961452686933268 -0.1639848677113196 
-0.2965352130210989 -0.4274547958582591 -0.1169080126525413 -0.2272623376358714 -0.2132173812021117 -0.2149214152646719 -0.1500204427382531 -0.1693350956538597 -0.01583369051544131 -0.02814260076181152 -0.2576491134656633 0.001612106045141816 -0.1589071049672727 -0.1852744647230114 -0.2684439206848451 -0.2360974576867806 -0.3979878095111655 -0.2404854719270615 -0.3580209653281289 -0.1311823234358893 -0.1401434953696912 -0.02827592878699634 -0.271032571341357 -0.253967812216391 -0.3623568878183185 -0.129107793278141 
-0.1896122412874032 -0.3493858885422489 -0.07496063441818956 -0.1944142719353684 -0.1263672152239295 -0.145478283231939 -0.07196798199729354 -0.1154537276754061 -0.08071174473588522 0.04147572700583527 -0.1198935499161967 -0.198526578781131 -0.09675555866137825 -0.09333258656839613 -0.1500698942963523 -0.1446684341335578 -0.3032846366567286 -0.1361586138294061 -0.2176621828631498 0.05743734768400803 -0.1229401477600762 -0.002146745436383094 -0.02288614710431795 -0.2243712693544109 -0.2665691982168457 -0.07315474541733194 
0.003577497516256109 0.003032961714067502 -6.615973159066602e-05 -0.001471483398843706 -0.1022032982649188 -0.004060248262327055 0.004884541037027433 0.0008519991344335376 0.001826537592488679 -0.003502427693898205 -0.0003411900797693414 -0.0100448530637676 -0.00850439228108291 -0.001856978992193344 -0.006998354919409355 -0.07450259746736707 0.002973831624480526 -0.01751671498732756 0.004257203646399606 0.01078204613815993 0.002184060343357129 -0.0008468824821700648 -0.009784833082901756 0.003571046667701869 -0.003817366888468578 -0.05522467812962403 
-0.003323178663957441 -0.01195083739350852 -0.0005162603685962431 0.001215451216504308 0.03228697649513068 0.004939611037959156 -0.007156002893490829 -0.0005848472501981097 -0.0007054129889936243 0.002702860665803241 -0.01189720348362459 0.00948937249533119 0.01381676446909391 -0.00099408788006744 0.002129314800071499 -0.08208725977685909 -0.002558715076395384 0.01274204515437019 -0.005581094389615436 -0.007580291036790808 -0.001013448117751282 0.003704580591765277 0.02138952148642244 -0.00271416929273822 -0.0005180193219308576 -0.0285550759589801 
0.002854686383869476 0.01369761409612847 0.0001564979852240315 -9.807537804121442e-05 -0.03431690596507055 -0.006517687931357172 0.00681467099780012 0.002320711199653084 0.001464537241308311 -0.0001062017536060888 0.07335105847360046 -0.007710557386031997 -0.01021126698675735 0.0005992415098904903 -0.001010106278259191 -0.121875882985861 -0.0002550979850723845 -0.013888691117879 0.004088054335538526 0.009030773135025745 -0.0009250709370563184 0.0003299784828688471 -0.09386345073677027 0.005384562615493688 -0.003249896172803616 0.006402523852261946 
-0.003413068988788231 -0.01401028800025049 9.392661513443366e-05 0.001238493899814035 -0.1384044569004792 0.001862012602581322 -0.006154170179815488 -0.0004260763445595729 -0.00143316283487736 0.0001615131320704057 -0.2796062551463047 0.01139058212845853 0.006947855358220127 -0.0007152215419147401 0.002028512071208741 -0.159339771990699 -0.0007586601821408306 0.01054205952264023 -0.004797619578264411 -0.01341103126686008 -0.00146781456918563 -2.803328892200005e-05 -0.1737564390390327 -0.0004104948632727643 0.005423954515564328 -0.04274714944526448 
0.002581912794296015 0.004667254925708695 -0.0007397353895606729 -0.0008140378933323484 0.04504386451705245 -0.0002840100292386875 0.004587935822950734 0.003707889374708704 0.000513306892315718 -0.001297226746521791 0.1851933374962414 -0.007936693165794637 -0.011478299354842 0.000226786080415358 -0.004359220427371344 -0.08269068776616648 -0.001378382677066597 -0.00256333457247977 0.004293199911178976 0.009205191767152858 0.004351166092750706 0.01056938607398334 -0.01507537829878973 -0.0002635632457943248 -0.004593955491560608 -0.1577260193107653 
-0.001299110352886893 -0.002144589292972263 0.0006354958002321246 -0.0001336519786965476 -0.02143506916603166 -0.0005348782720062831 -0.001502353679669141 -8.948731822371709e-05 0.0005582366982883774 0.001679607941287925 -0.1001780316731574 0.002363376704019116 0.00365144396414381 0.0005186397332922628 0.002389931473077833 0.03767380593626792 0.003752593017135113 0.001474286889181328 -0.002274026049349637 -0.004167136293734279 -0.000922526601433275 -0.007531655270742827 0.01437957091645387 0.002255348970687274 0.004931522501848329 0.05195750044070956 
0.00128274821033555 0.0001863884475598254 -0.0012569634315811 0.0003815587568999258 0.01672423405431838 0.0001244374491059439 0.0001691040778261758 -0.0004007032930126047 -0.0005785441457075072 -0.0009301444886956036 0.05481903181582639 0.0002620360257914121 -0.003368668924789024 -0.001278968378713423 -0.006480941197889449 -0.02580592424251712 -0.003869583542249999 -0.001639281600258034 0.002274125353131539 0.003439537326790817 0.004141984425131225 0.008146517400899785 -0.007993305080366086 -0.004637302185943285 -0.008078464379476905 0.05541381133220002 
-0.0006085705518910434 -0.006665686063399775 0.001662512793572956 -0.00168029863015006 -0.01085459858391054 0.0009357749791780092 0.0007779576038692193 0.004345367261172722 0.00143625452187431 -0.001006995457007714 -0.02998119642277214 0.00286492714689981 0.0001510088263120851 -0.0008035804224138115 0.002053449498162 0.01487890212629287 0.006095767768229536 0.003050196037753643 -0.002125273025841883 -3.55714120047528e-05 -0.002876757550522346 -0.006577088003074669 0.00786104127957178 0.00579474461158193 0.009257679556359491 0.06280958188980339 
-0.1971406160109757 0.1586875473465171 -0.1891493216505332 -0.1064874469055345 -0.1393290760751413 -0.07800698471611331 -0.1829891568041045 -0.20714829846782 0.04119046496641258 0.0006354922620280153 -0.0847126140894586 0.1272781511612944 -0.187887898665844 -0.1798447948559581 -0.1620278010110454 -0.09046765824981542 0.1621110089935413 -0.05116071585370538 -0.1576337779903422 -0.01198823935461256 -0.09298666080745288 -0.1207900812296638 -0.02579709863366513 -0.007264310023974929 0.2053806597254868 -0.05226410531090511 
-0.1359206066562388 -0.139774251669518 -0.03129148639456959 -0.01932125180726361 -0.1055016464340236 -0.1511729311385683 -0.2862409943286147 -0.3736723512387654 0.1181152898463891 -0.08673677961190503 -0.1966558938153034 0.06086304318913254 -0.122206037072226 -0.2040986873221919 -0.2340407321915956 -0.07297812068901119 -0.1321923299435446 -0.2000828226475533 -0.1151811075084785 -0.0439469217668679 0.001853503070435438 -0.1851231580589046 -0.09314226728808578 0.01091392460472764 -0.2136917298141111 -0.07726347675032569 
-0.1685677046976838 -0.2819643588515907 -0.01399381905565177 0.0002958154652436991 -0.1432944686486741 -0.1865915375105472 -0.3218555220564081 -0.3926287016366484 -0.02403439351972683 -0.1363986336417561 -0.2037516881253626 -0.05055808836468093 -0.07723216128695655 -0.1819437875643564 -0.1044264363723288 -0.1020584585160788 -0.253380308122428 -0.287869880000098 -0.1668138875328282 -0.07449534066518315 -0.03518102498886161 -0.1667521705560044 -0.1708984567603815 -0.1985636598263001 -0.286184649374223 -0.1242502083063942 
-0.2723420474302048 -0.4794984308461162 -0.1674500187764358 -0.1571403455930189 -0.1579985098760592 -0.2906703040087129 -0.4029719530303738 -0.4761911002011763 -0.2600361304494985 -0.281442671111342 -0.2244774536908177 -0.3624387097034294 -0.1935335558310828 -0.2513990553792845 -0.05462757514082153 -0.1048253233209685 -0.407661278932698 -0.4091437822631967 -0.3228755659474629 -0.3202634346989233 -0.2572505812013378 -0.2869362890510395 -0.2765530351262549 -0.3784786032348114 -0.4690286111933403 -0.2040594632999513 
0.003192789959087009 0.01797131235426202 0.003623012512356705 0.006599827573256443 -0.2844469016141681 0.006394349783645176 0.005182024022675627 0.01392153211681714 0.004120828415153411 0.01338560181346265 -0.2472655128988461 0.014376633758934 -0.0465404847584728 0.004671875547709307 -0.003813147714764018 -0.1493686622654213 0.006780212898366623 -0.1771706269626063 0.007677087143550242 0.0164036947647445 0.01318750050339954 0.01689197104546275 -0.04315314508964242 0.02493044521625551 0.03258766278234837 -0.05073949597988362 
-0.002377687422392707 -0.01620910167759883 -0.001995302602716155 -0.00474111080521988 -0.2718872195817377 -0.001601906775024198 -0.003489014961233912 -0.00558962214124177 -0.002045825954239035 -0.007518275816239028 0.1584780728747398 -0.003581029957535165 0.02314094402933729 -0.001774356508278478 0.0008740363162574956 -0.2314435027508159 -0.008849988437450386 0.1172862725425976 -0.006441323754132493 -0.009645765553413385 -0.007223250387884041 -0.00634031429402594 0.06841199050893995 -0.009476633762355165 -0.02274268714120007 -0.07153787946731194 
0.004031393766354766 0.00464082120755712 0.002224696673832926 0.004703830222944972 -0.175193574353887 0.000498956494402509 0.0007114894367575967 0.005339651573953465 0.001844393909146733 0.005096175677692284 -0.02566571608684777 0.002139160431705206 -0.01203839039056014 0.002789357711738621 -0.003870356353367117 -0.1924661698834128 0.004854444021696856 -0.07667772508620518 0.002939935023632991 0.006211088694828916 0.002978727431061995 0.009664800859421473 -0.04929878268422024 0.00901143255070678 0.003155939261424585 0.04468968979122632 
-0.005464249388096326 -0.01829192782064837 -0.0003151293746944067 -0.006336366125823573 0.02315842763931589 -0.001511442912978391 -0.003118130812092748 -0.003372132311393964 -0.001781817894176989 -0.001617702539337546 -0.009287932259953276 8.629430110493569e-05 0.002729288101596659 0.002521506044411842 0.001282545260390761 -0.1265597342891517 -0.009497863494011128 0.05006431364516628 -0.006262660626596259 -0.006892367526737053 0.004463182102357933 0.003267996090600171 0.0471661434047142 -0.005421862307911427 -0.01225707852373226 0.01889693851584573 
0.001242567810770375 0.01592830403900833 0.0006720144607700843 0.006203508836929827 0.01557620410871299 0.00433971964408732 0.001994451556542329 0.0209193998094086 0.001712923066811987 0.00992636352201832 -0.04180327626723466 0.0237372276290505 0.009183098348795786 0.007431628429586746 0.027764763216832 0.06087414303233099 0.005848445003451742 -0.004944041049197508 0.006954907860886191 -0.009383610520996628 0.006711822939420149 0.01337920787423375 -0.01147464006956874 0.01381273604396829 0.01639239200646161 -0.06875538794873381 
-3.648667571994688e-05 -0.006787580102622932 0.0002722808703926051 -0.0004016235256800103 -0.007171423882746878 -0.0004169598914546147 -0.002712199526605965 -0.006157603449434111 -2.980561305280419e-05 -0.003512512532147957 0.02507814997120777 -0.00481487907248537 -0.007630192625808443 -0.002634697494920164 -0.004802897771298189 -0.1229031045053675 -0.002622487368789398 -0.0007979204011878335 -0.00133340067959602 0.003896761296687552 -0.004816024657550646 -0.006294027339451628 -0.0005230779931238499 -0.00672772007041993 -0.004619564093652647 -0.09060221364760053 
0.0001323962062403738 -0.001574485406568033 7.13287242429418e-05 0.0002230370850526392 0.006865476523797216 0.0001257306790606061 0.0006087868784179913 -0.001946746496964507 0.0004807789226987541 0.00245104630139526 -0.003419129320659773 0.005355367118079211 0.003944716697674079 0.0007626827741137106 0.00292217793532075 0.04937256695660993 -0.0005388111152321099 -0.002290954607422981 -0.0001192707596011999 -0.00186978542156858 0.003340986869106803 0.001927642853945288 0.01561463373378163 0.004928886400185882 -0.002053724836104762 -0.09976017501581629 
0.001086004165500617 0.006501262253088428 6.666692168227838e-05 0.0003844333055273857 0.06139843852484304 9.415272885901374e-05 0.001050236088480786 -0.00487161042658738 0.0004872103443652326 -0.001138779221162954 0.04447676088084303 -0.008027834481119838 -0.002948158063812647 -0.0002733332546632937 0.0009156832971926916 0.008870149777347267 0.002744492900007135 -0.002790085584757724 0.0009248388407619748 0.008330068078777749 -0.0001493585889433752 0.0006834181799943728 0.1079962360293829 4.667487685959018e-05 0.002551365680355236 0.06514523316434542 
-0.001092230436297731 -0.002517822905788737 -0.0004606389689326849 0.0007431581971202819 -0.002820583558402604 -0.001561981094534204 -0.001641180868552935 -0.003747051205648944 0.0005161548872466592 0.001548014356059267 0.01801919297513793 0.01064578160336583 0.01099349855952055 0.001584405928684202 0.005219790577128303 -0.01362822361537925 -0.003782017093858199 -0.002293762465024622 -0.00291489382832179 -0.004044205464277772 -0.00475310721156159 -0.009378502996581219 -0.01083087224962551 -0.001628403358135617 -0.007078464337753199 0.06466475050125006 
-0.0004834701891243638 -0.001333075377584146 -0.0002505723589750855 0.0004666126226945094 6.37361563770901e-05 0.0003057064699942939 0.0007485452792514248 -0.001429825504184501 0.001059351106758012 -0.001167962555439237 0.007572420191581554 -0.0009265391820852733 -0.00161586381142841 -0.0003573047501928008 -0.001496580428366876 -0.002339531775715996 -3.092100264782911e-05 0.0004870120060623158 -0.0003973949351718186 0.001393247403244051 0.0006149879289966653 -0.005037844603882255 -0.004263590108578174 0.00173191918878999 0.0005215279423735557 -0.03738903675511968 
-4.163029730913782e-05 0.001986549933490426 0.0003630428117622088 -0.0009695098182110378 -0.001567657092249049 -0.0007209552744369052 -0.0003003545442273678 -0.0009610647125388633 0.0004565792415487785 0.000690314816086476 -0.05190361099316228 0.001425558635046145 0.001198380953929611 0.0002286224323414855 0.003188493268134081 0.003573631355174725 0.003679098432860742 -0.0002638186338576901 0.0002297307679493274 0.0006648264718344111 -0.005474241965635274 -0.002990433120444432 0.001586353289987799 -0.0009487051987618273 0.0003696720162255352 -0.03535074781204002 
-0.0003449741475833161 0.0008425459637826033 -0.00102466801266945 0.001530972805400869 0.005739970913332845 -0.0005348933242325171 -1.034187533776293e-05 -0.0007493820170124629 0.0002670689444950603 0.0003075083755290338 -0.02801567406899897 0.001969300791250491 -0.003501887596773294 0.001113780498292722 -0.02262202709650097 -0.008318929593811725 -0.009743231948905518 -0.001172273242957048 0.001092961735980073 -0.001242095977279015 -0.006261015397702508 0.002803918372492041 0.003665299269739469 -0.001495339715289959 -0.01081996715218437 -0.02996003768145536 
-0.6769166067461697 -0.7032104734617387 -0.5010617263628996 -0.5325066503283783 -0.4534074199748379 -0.2884247376418808 -0.8530595184900082 -0.8090839617076215 -0.6594624131100055 -0.4424794418793295 -0.4927518024921362 -0.4999654255695103 -0.6014842920396835 -0.7227488711938449 -0.786133013084949 -0.1865651799450267 -0.7327658679975106 -0.3358077058603875 -0.6446808753661555 -0.7935691979532304 -0.61181683718964 -0.7840703354366116 -0.471459189856308 -0.7886073043343466 -0.7132795044949336 -0.1157455446771777 
-0.0009626395162078805 -0.00235335176951859 -0.001419829107613726 0.001854570914129188 -0.2602312095232891 -0.000764472295323535 -0.0003350752105931076 0.004007725567534703 -0.0003089881925776156 0.0012967305535149 0.009329579260386108 -0.0001585411346614278 -0.01073419758349303 -0.0005562147597711584 0.0003722635255486152 -0.1904077310104167 -0.0006230629617554595 -0.001292977095931669 0.00100764037420059 0.0008250783589087997 0.002104774027820482 0.002165414751953624 -0.3598894028759048 0.001651226125077806 -0.002793222603162311 -0.008600845058418205 
0.001499771645375876 -0.003699318158727208 0.0003603446564882663 -0.0006799888242580353 -0.3563860274481077 -0.0005556172265466585 -0.00275134518055003 -0.0003976667579473145 7.170257439395646e-05 -0.0005842417434350938 0.0181823123841225 0.003307804680582655 0.0006212826456656608 -0.001467884901886485 -0.002197258038992649 -0.2065329922144249 -0.001366466827321926 -0.03631302390054954 -0.000302206480559063 -0.001165818108661021 0.001222380872887686 -0.001356891092728651 -0.4829386454509419 0.0004539118694445757 -0.003193020848507512 -0.06973805498069952 
0.0009219253418475658 -0.006253922393347894 0.0007711646199073011 -7.151772604292813e-05 -0.3407393298442827 0.002311064588933592 -0.001535910038474177 0.0003193339791668355 0.000552392045335352 0.0006779655233573311 -0.3197035574335381 0.0008751378247393427 -0.003006041524369194 1.101686865810169e-05 -0.0009582292910194904 -0.215426802132219 -0.002994872169970178 -0.04102895330174918 0.0003438532633617054 -0.002671634331249135 -0.0007240833333847548 0.001693807493958436 -0.4891254949786215 0.001247928550680935 -0.007365511919713323 -0.0494185220052003 
-0.000341054631012847 -0.02907119108793819 -0.00351530706710023 -0.006192106465543148 0.005746162557145463 -0.006215148589185713 -0.007235566904452108 -0.01823093710027324 -0.003120899749534541 -0.01705011482116804 -0.001645471520439747 -0.0161988570747191 0.076236288189712 -0.006246070014735833 0.00466376539113399 -0.2477795997028663 -0.01100967367628414 -0.02303033623430611 -0.008292070204941016 -0.01937775878371397 -0.01241750937596601 -0.01900150210570883 -0.4737107433524869 -0.03074873592846606 -0.04221354210119008 -0.0549363885785319 
0.0005583092894496653 0.004507311398139727 0.0005276084287919824 0.001934261340545998 -0.002835005929477996 0.0008622915867961862 -0.0006230586505179828 0.001404141745478199 0.0003397939043673546 0.004344169408770217 -0.07783608404604636 0.006032713281035979 -0.003663469829410432 0.00131088864406765 -0.001906477728271217 0.003466087438806885 0.001488842504335745 0.0009350692725846941 0.002455989853175886 0.00390007127411478 0.004027046725252815 0.004425052436671034 0.05372904386119434 0.005360215701997584 0.003714456834848179 -0.01691132545572538 
-0.0005841387480805163 -0.007759734771845044 -0.0003806904775162885 -0.001356319337793059 0.01011358557083794 -0.001296935942315816 -0.0009190615935177411 -0.001630097563512327 1.761694100028613e-05 -0.001835065811238164 0.03856084321673166 0.0007957633614531894 0.001288582133791606 -0.0001053831230198647 -0.00155871946145014 -0.005457632123942614 -0.001809493293057822 0.004822522447821941 0.0001671513132967008 -0.0008328962420481999 -0.002227549614017286 0.00216119150221644 -0.001777232832476357 0.0009231886151924834 -0.004212400648566706 -0.03332716852337479 
0.001488795063965558 -0.005259228789828733 0.0003691959713006061 0.0005549405667634139 -0.0147546168022172 0.0005827033227120285 -0.001621188523624179 -0.003285240246280732 0.0005300977601305822 0.0001326778545624638 -0.05184613722106948 0.0009092650732336583 -0.001039707530568759 -0.00185501106708742 -0.002942910072720755 -0.1704645992500254 0.002228150290723963 -0.0169854595650845 4.352210448382987e-05 0.003597679435752448 0.0008237652979578682 0.007957292225144586 -0.003845675426077304 -0.001993595124986592 0.0007641185488362706 -0.1664444761670906 
0.0007850642379343184 -0.003761153328242645 -0.0007826667573760963 -0.002809148958770446 -0.01309699339116375 -0.003668439349687564 0.0005256869880497791 0.0002184599646183863 0.003236369762707307 -0.005433841206614587 0.1530517845517211 -0.01767296447087339 -0.002802114713760171 -0.005357053407318604 -0.02181478756459438 -0.01348337495196138 0.003738502503333494 -0.001431552584176858 -0.002142879061483194 0.0204721810806891 -0.0001207762353644764 0.007593726914621983 0.007245609779480693 0.003969359109778291 -0.005452196560705723 -0.1341176469739009 
-0.0001717030305705047 -0.000631764568321916 0.0004405074538266794 5.854997587439076e-06 0.00123066929095684 -3.672730081342429e-05 -0.0002086267508829442 -0.008317113334773318 -0.001248248124010399 0.001131969309734126 -0.04790271950999261 0.0004132516505186584 -0.0007505513399363541 -0.00051379717513317 0.002419926244500051 0.001499110646746793 -0.004174006625178121 -0.000359558522556479 -0.0007217381763675279 -0.002812659063511964 -0.0005576045420122341 -0.002965058200443513 -0.001051890265110916 -0.001001809427583851 -0.001097886363703244 -0.1230013194161466 
0.0001119244248363029 0.0008298783230756657 0.0003541700671156482 -0.0005370869198510231 0.002278096880094909 -0.0001177588094480864 0.000157645149715187 0.0004440220988094934 -0.0003715662094252398 -0.0007034680337399334 -0.008562537584582927 -0.0001674205351310972 0.0006953335102052046 0.0002814456493907588 0.0009437397561384688 -0.009676272218393961 -0.0004046111908711407 -0.004724573520168762 -0.001112956277616313 0.001126123941668627 0.0004538422962858146 0.002273888375642284 -0.003288621016526176 0.0009827019514532223 0.00021898905012043 -0.1103712483368574 
-0.0006852998920258518 -0.005505392731964883 -0.0007994466981932529 0.001015500738825869 -0.0325784446444663 -4.56961401548554e-05 -0.001214238783737244 0.001070129750464286 -0.0008440899394652235 0.0003393391030885962 -0.0556861049756481 0.004581911262388498 0.001057636299052722 0.000986410077225352 0.0002090736195541995 -0.01024042333178296 -0.003390842697537025 0.003108862284036251 -0.0001621865461948416 -0.006760208664647668 -0.001717487982057341 -0.004055524621187792 -0.0585055032965854 -0.001962267384911952 -0.004459485745061449 0.08476764825542876 
0.001525972652328055 0.0002448289486492669 -0.000301146739097858 -0.001989271411854474 -0.007460686768499388 0.0009139149442173014 0.0001600652880570094 0.006066569165100066 -0.000673945640056275 -0.002285170161717019 -0.004625225335854253 -0.01893795879673286 -0.01526701801200526 -0.001413257150827817 -0.005497729990421652 0.01038047263027841 0.0007870111735914509 -0.001210522567771695 0.003428053565951198 0.005837663890258597 0.002705525937237468 0.009748805858134516 -0.01337407717231864 0.000945891733488138 0.001741434710560007 0.01379564660927936 
7.968174896381303e-05 -0.002801667766420957 0.0003293225516599297 -0.002680703014593283 0.0008560278634232807 -0.0009514037812061219 0.0006400378535970539 -0.001420697553383027 0.0003636273777089795 0.0002296215636682872 0.006352102954399755 0.005664358750674132 -0.005598968981742816 0.0008722080096587692 0.004852702961107297 0.0006333678429767024 0.000253119546680538 0.0005954633274580174 -0.0005746934118233378 -0.0009714952783682485 5.125574947830264e-05 0.0004168150922012398 0.001313822702352157 -0.001835019169389672 -0.0002299798186479485 -0.04790155288791396 
0.0002775879486070665 0.001539217708592541 0.0008359224136007156 0.001108801621246018 0.0004343240182083328 0.0007946737832565201 5.658568153404086e-05 0.0004934111574928738 -0.001053303397944247 0.0005374339156107635 -0.08402909472970628 0.0002283157123779826 -0.005006711925780413 -0.0003856497262778034 -0.04059080178916067 -0.005811379772611459 -0.004544594447247186 0.000310149940694809 0.0006507570568125642 -0.0008521043369402198 -0.006365434571651939 -0.002851602723515585 -0.00465671986748749 -0.003332418590248321 -0.001598210547831988 -0.005287919395393661 
-0.0005166665145688418 -0.004391722163476323 -0.001057696374257359 0.002480225732125064 -0.00091035578356665 0.001978687052876769 -0.0005409421913742048 -0.007540270967938323 0.001417256268048205 -0.009700516380908457 -0.01306617639104258 0.001087977976353277 -0.005212993279616742 0.0003706846602562705 0.01762938479509304 0.01117891350745087 0.009186142924699487 -0.0009830665939328975 -0.0001607825966679864 0.004917305830564661 0.003392036086200078 -0.005532485195200942 0.001456678489162767 0.008256544831483493 0.007333557266770392 -0.01011939527469897 
-0.01829692389504977 -0.002839460666030201 -0.003383509610376765 -0.003921402452287722 -0.03448188954254195 0.001083299073849047 -0.003414581861584407 0.0003243107443199767 -0.002951890618729126 8.391313908071734e-05 -0.1076561386451898 -0.004058697947228507 -0.1066519806586038 -0.003700223314168413 -0.001477508523022929 -0.3662149874081314 -0.002202868350552575 -0.009322820328266068 -0.005506030178911943 0.004372084819583047 -0.02916645146511224 -0.01974546220907243 0.006479294231517881 -0.01388005294561477 -0.004620662614225765 -0.1742104800337639 
0.0008256207353683824 -8.300348180464531e-05 0.0007860395737611346 -0.0006691213900638887 0.008272677750201589 -0.0008492076534304046 -0.0009543835317906597 -0.004456669584349314 -0.001720134181996319 0.0007233570881254245 0.06014700695342869 -0.003845541290839188 0.006345397764041424 -0.0007428258076253504 -0.002727230477606583 -0.3898184222174473 -0.001241227669945145 0.00194766344848656 -0.002013140900351178 -0.0004428653192630817 -0.001886263324000061 -0.003672205068903895 -0.0155916723227691 -0.0007354597680991681 -0.003909471237534297 -0.1141487219406124 
0.0005004883843440606 -0.0005383412686743757 9.879845431378308e-05 -2.292173205259985e-05 0.003162850119603061 0.001691092130194561 0.001423577163847083 0.001350043414619646 0.0001572050593050208 -0.0002678870215205934 -0.04656544676896232 0.0002655379376353768 5.982143987015692e-05 0.001085293933280526 -1.384087723279269e-06 -0.3169691830310249 0.001570980263546141 -0.005030030522097162 0.0009878777885698065 0.0008573507604409233 2.528034359757011e-05 0.0009185831423896241 0.04192122171028331 -0.0001415220093130301 0.000149046027150696 -0.1549293038377355 
0.001467354044736854 0.0001351594868829742 -4.397177131242283e-05 0.001623780831730094 0.09197310261477987 0.0005247600237596043 0.002331500945392396 -0.001102953079814877 0.001208064017668327 -0.0001979330888107628 0.1162453749866976 0.001325669419659586 0.008719325440898092 0.001811470906479926 0.001685713896425274 -0.1354362606175797 0.0008667768117352115 0.01271556795874353 0.0005189949731643742 0.001973171292746967 0.001323802068176137 -0.0004495364021818466 -0.4896270112606236 -0.003257190906863497 -0.002809907650063667 -0.1384410820024619 
-0.0002121276368897728 0.01908920760035689 0.002595121520034837 0.004604795304769238 0.0138091086854095 0.005128741506292859 0.005468302358914327 0.01391050478269954 0.002991116114503211 0.01785360949188944 -0.06123378715693989 0.01334208602910977 -0.07743785065826912 0.005676538386726647 -0.004449528121940365 -0.0271881947499727 0.008328139081948212 0.00514595342191299 0.00719779973256103 0.01710861737701104 0.007697259759415886 0.01341563838078335 -0.03661341482845073 0.03177449462077451 0.02703720567169874 -0.03485687732189529 
-6.030723403787482e-05 -0.008018202695613461 -0.0005976046482553741 -0.001822937950852409 -0.004994128488130326 -0.002161739260197049 -0.002461654053264086 -0.005516337888192312 -7.195536044554502e-06 -0.006843323364642773 -0.007119753278890252 -0.003190664809459065 -0.01104985227565602 -0.0004974524879432975 0.0004818182578517312 0.01098946557137593 -0.007487339504847865 -0.002782885078623759 -0.002190696337282738 -0.003735562482264801 -0.003199669772274739 -0.002999168633315999 0.006673595068067931 -0.007495358283044108 -0.01078436282177801 0.05501067944227147 
-0.0004993367730965848 0.001931642675920797 6.747187119106915e-05 1.315353965818011e-05 -0.0009426377869911925 0.0003677583516812879 0.0004346986206554437 0.0002150153957294569 0.0002923360575403137 0.00108736883800989 0.01117636301955758 0.002656834104533109 -0.002267844396711556 0.0005158868163971565 0.006193449137558047 -0.01608380927009217 -0.00411302398813979 -0.001690632648604892 -0.0007596227877686684 0.0007709280467166894 0.0001559993918286914 -0.004458395723229544 0.001412436662002162 0.000443040398369983 -0.001475773954956843 -0.02521949876777087 
0.0002881680514708136 -0.01901980500160482 -0.0003618900221870388 -0.001958249740923277 0.002832338233683362 -0.002674297772379902 -0.001544431559748126 -0.003961190788318684 0.0002468679009349131 -0.002276538621805726 0.06828200009622339 -0.005117071831514973 9.114953005785173e-05 -0.002457621843314289 -0.03065774489278425 0.08058322182102305 -0.005634313221493541 0.006893288432776371 -0.002084846324964332 0.0002769063734166533 0.0007778357751048106 -0.0009134785477658595 0.003311920320452287 -0.006511326493511584 -0.008289382158765733 -0.08616210672434335 
-0.004904537184680121 -0.0003082232861770172 0.001104963275925849 0.002228696554775103 0.02315456981697837 0.006399111255599928 -0.005795131988793605 -0.01200765728057382 -0.005647259592983071 0.008245321693738955 -0.2124126969361591 0.02579277330687048 0.0006574573978779003 0.007838983999580284 0.03414514878296953 0.02876147690008471 -0.007486878728790274 0.004984360319819537 0.003965816032793557 -0.02701347793795403 -0.000684954054647118 -0.01467166752804046 -0.006050103169687225 0.003266056006603043 0.0002724642383428646 -0.1813707033310045 
-0.0004389480622226669 -0.0002401737578506741 -0.0006532833919619301 -0.001272962058699774 -0.008909155376751661 -0.0006545771302749071 -0.001408816051995452 0.002467683458474917 -0.0002995653941736226 -0.00188307485269617 0.04892827234615525 -0.005220935987072274 -0.006665767408458796 -0.002977306012375498 -0.01386827923142951 -0.004004356301220737 0.001774823243201539 -0.0001652379715398441 -0.001445023072331323 0.0003051545929345008 0.009417857633474375 0.004322888613968227 0.009384034671447493 -0.007076249879075348 0.002874064744516324 -0.1435633583573682 
-0.001479154643916061 -0.000877842058517141 0.0004882519475563086 9.466661033717767e-05 -0.004278693716205728 -0.0002728766739333796 -0.002497238904054511 -0.001885016480524629 -0.001574092292756133 0.001501243641095091 -0.02697126554734942 0.003329648008609098 0.00146823885554893 6.592542689363352e-05 0.001350812855977696 -0.001350320785024869 -0.00315278570065308 -0.003003817095194837 0.0001494480970160766 -0.006279836593033034 -0.0002719536119548516 -0.002803634965811555 -0.0155403341273258 0.002710403189978851 -0.002629877941202581 -0.1536920277824756 
-0.0007121952773519495 0.001950112331604745 -0.0001126874394124563 -0.0005577309989966616 0.01777867752831898 0.002062452138573295 0.001321636853142748 0.0009588149553797868 0.001139396182556023 -0.002914130895701125 0.04626960835135491 -0.01187218553898621 -0.00928293707029167 -0.000823429684794145 -0.002449386075998289 0.009742115478419586 0.004028555790568362 -0.003710467283268255 0.0007656937270426543 0.0100285063670889 0.002859046458074267 0.009259827712670305 0.04220395957627438 -0.005857899592301161 0.004913397075251739 -0.02611455222038144 
-0.001523233303195453 0.0009275011235164449 0.002122275961743626 -0.007683103162325967 0.02008300930427102 -0.007421573316687041 -0.001583831723034703 -0.0107415347724886 -0.002467778343194284 0.004207583689471687 0.06650116398639166 0.03482615604124503 -0.003195702815408863 0.001836243670770406 0.009799448039114471 -0.01298870857653109 -0.006205061076202334 0.0004543945966860611 -0.005822380997805642 -0.01175526735834271 -0.005965571100637524 -0.0154304617439318 -0.0006086095545487837 0.01110153416850766 -0.003509731928071576 -0.1669449805686025 
0.0008222132234330853 -0.003210148082422132 -0.002826824881209302 0.003065359078470156 -0.002377841451040145 0.001987347530463097 0.000456553391574765 0.003287905097115277 0.00107224869032495 -0.008273804373865724 -0.03112421576606196 -0.03318419733295837 0.0006156402413695109 9.3956962517116e-05 0.001052429921414656 -0.01057202757812545 0.002810710594432788 0.00100332035085411 0.003370993012908946 0.006323245877787655 -0.002833271358936138 -0.002442010348300133 0.002475008268228055 -0.01321935403283774 -0.0004366577911220762 -0.06838109344701288 
0.001170312974975047 0.00413823403838817 -0.0008632966844783005 -0.003133576248989169 -0.004046453000532125 -0.001094611040863141 -0.0001615162610774531 -0.001618704398543719 0.0005737894265223908 0.01359134274013266 -0.001457168282231974 0.04302466530830823 -0.0007182702563112708 0.0003772235048324557 0.004125743139742269 0.003295162328666057 -0.00143206539506115 -0.0007433296301641167 -0.004051949097817159 -0.00708193356235254 0.003949810540972469 0.006131754418205549 -0.0009192090218621187 0.01346189851829246 0.0005851877813627235 0.01725828394275712 
-0.0005845878425342851 -0.0112087388680885 -0.002771144474781919 -0.0001748861089372328 0.001726229682883577 0.0008045932087416224 -0.000465727907486545 0.0009486494136899852 -0.003195123722618037 -0.01987457904258291 -0.008676126000989324 -0.09745167505947476 0.001390642139178586 -0.002642137719766427 -0.01916920931972059 -0.01282257855192057 -0.002421880902058952 0.002669285243019299 0.0009830926636565788 0.00335778268481824 0.0001524181865322906 -0.00986527634482222 -0.002798622606048505 -0.01781660955963813 -0.006201700709411564 0.03153696782038822 
0.0100280523517902 -0.007951446802421942 0.001470876267926404 0.002080103294937971 0.01646303842448596 -6.354059654184712e-05 -0.004957552536718891 -0.01899669066439677 -0.001206087988863215 -0.003533097461948339 -0.05813951494323016 -0.002196080726446986 0.06840068678394498 -0.003699031275602823 -0.00913610454755083 -0.004979671809662256 -0.004881398792048804 0.002226381752314834 -0.001347611271283482 -0.004804226622600638 0.009463965900415802 -0.003231714486497953 -0.01862038902806623 -0.006521563187808853 -0.008315698902952107 -0.1509782977350638 
-0.0003634871839920004 0.008397226313042912 0.001999388958576117 0.001414118414681811 -0.01051798434287739 0.001695570840425911 0.003933434111176256 0.00789785124559365 0.002880385910463748 0.002879093024353385 -0.008578994443009641 0.007248953133718556 -0.01725288614211297 0.00468699343410641 0.003590881492275693 -0.1300283500223372 0.006545854700421554 0.004216369248396755 0.005179704369763125 0.004817545355138064 0.004480121670285247 0.009047068514526619 0.03118243332048414 0.01768652357204411 0.008500797640101886 -0.02595189472572722 
0.0003994534849729502 -0.0042311279741668 -0.0007087921408544684 -3.250177740585747e-05 0.01463257220528534 -0.0007831782408164218 -0.00360413765850504 -0.008489365872797859 -0.0002117988630777798 -0.003857785648560291 -0.03270620250830985 -0.003588857645717593 0.01051255492415858 -0.0007530170021917289 0.001547607564470501 -0.01201899546664967 -0.000802233936380611 -0.002828758193629688 -0.001402932259599299 -0.003553806595944729 -0.001015489769698292 -0.00305568868795241 -0.04486180561359085 -0.008198307548049108 -0.003012063222901339 0.05389977735483371 
-0.000456575086187396 0.005021703022726244 0.0009174463395346243 0.0005381208738676221 -0.03161163175336959 0.001813323683873689 -0.001469455047270781 0.006391385282412867 0.001368719453025293 0.008035585322112753 -0.02848305381932019 0.006083312448892783 -0.02854832983295528 0.002464493414113562 -0.004757653670376312 0.05556277998075417 -0.001044541535473358 -0.007267158573895892 0.004319413746710482 0.008761888473778321 0.001319031931120667 0.004359575199939625 0.1286030256048116 0.01233852821254377 0.003912731307858692 -0.09922505437233747 
0.001928275648932548 -0.02480413967319137 -0.00343381986518297 -0.00670380090693676 -0.02491038394664906 -0.009110099916128638 -0.008097766843226033 -0.02276333760686549 -0.003044561084545358 -0.02581017472831092 0.05227266540931515 -0.02648274666595289 0.09086522985283499 -0.009554095687706437 0.01513145003360793 0.01052992502984004 -0.009903330312028086 -0.004810372627645417 -0.01256401157813175 -0.02803109323403073 -0.003019513728118099 -0.01824774832084458 0.02376518871899404 -0.03606663653230193 -0.03310903507074247 0.01140407489479803 
-0.002301619353307889 0.01411398681355188 0.002243725854624845 0.007461798465309018 0.01990523215610166 0.007785148832563688 0.005647669020183497 0.008655894890626034 0.0008705455665347436 0.0197680142124289 -0.03110382791650715 0.01887771031523304 0.04396522646623456 0.00580547943291917 -0.01606374649241369 -0.01325622409474996 0.005342549127633238 0.005901511072005794 0.01122377028921447 0.02397552413822658 -0.002988527472912545 0.01272215675745751 -0.01434673274379547 0.02081667269303461 0.01684985880717471 0.03009708436759594 
0.002261817001637779 -0.009898066090372772 -0.0012788961196576 -0.007275077020503996 -0.01795413341716198 -0.00736857891596214 -0.006243579408393539 -0.004383681808540929 -0.0008448754249154482 -0.01677505523976619 0.08855653523162126 -0.01848810697907365 -0.006464281899432062 -0.00540397086309697 0.01923531788883636 -0.004362324515813193 -0.003637545945160747 -0.006723037056770216 -0.006785340053134699 -0.02235272807457751 0.000718009247432387 -0.01744384328937828 0.007877324441662392 -0.01651042999982461 -0.01600155055232508 0.01041592897493485 
-0.004284436562145512 0.0178491804984363 0.002428652190531851 0.0112495881991565 0.02867604078885745 0.01199284725703057 0.01192930451861744 -0.001533497044834421 0.002772272847620173 0.01468511398405357 -0.08020589267953764 0.03395913332827822 0.003247596382247187 0.01002879950447614 -0.02662397289689576 -0.00964769091911195 0.0009340099312428947 0.01048870377795475 0.01021188549536604 0.03725915724524357 -0.007366996874752741 0.01510373246016522 -0.005397590389361083 0.02445034892976015 0.02348312264068162 -0.0172386181697516 
0.00654651888878663 -0.02905537286034155 -0.001926636788897042 -0.008521864822111511 -0.06105221507962409 -0.0167100021672443 -0.01470170919896362 0.001111419082322957 -0.003512445751441978 -0.02221360676080475 -0.2804383544924218 -0.05893847623991334 -0.009190592465984356 -0.01829402625501641 -0.09739041610053062 -0.05326447265285983 -0.009669546940475209 -0.02041423861428491 -0.01844690807816719 -0.04179954551714764 -0.01450778964703397 -0.01424626020334548 -0.008113019344556837 -0.05191404356593238 -0.02797274148736423 -0.1139556835438893 
-0.001716637100983291 0.01781649938379969 0.003563562078207687 0.002966264607367253 0.05411261692342503 0.006913729790544697 0.006202247468109433 -0.004150490708006562 0.0003398701660581051 0.0158184209159969 0.01185282772493833 0.02675568420800289 0.01780102271920735 0.00756777839462585 0.05792017962258423 0.01213572311076786 0.004196631683398316 0.01109257321510868 0.007687025486990535 0.02032281227727975 -0.0213365639387512 0.00284464805693591 0.008294702920259474 0.02101499738047445 0.007369938117769032 -0.1424636376499457 
0.0005594290051450452 -0.007143678125869561 -0.002782409559246947 -0.003017063533532525 -0.03172893636865124 -0.004261864591446797 -0.00211652472262745 0.005816552895205329 -0.003699742923353974 -0.008259117111561716 -0.07143435088824127 -0.01523019979032082 -0.008868171707521565 -0.004933924507487412 -0.03524052465832747 -0.0112127049981066 0.001032338522028903 -0.005885365266583039 -0.003233867320035403 -0.01257836015858987 0.001711422889620369 0.006521161482203613 -0.00343516918481629 -0.01652375027648531 -0.002996479495304032 -0.07298250752089916 
-0.0005935659897997021 0.008992848028894964 0.001288790340399864 0.0003292955017736245 0.02232996568729039 0.003262736539910135 -0.0005365676349438889 -0.008496769242282532 0.000588718986048707 0.007659344068954705 -0.02300937663257898 0.01613475284866857 0.008541035255019355 0.004363888325329545 0.03382011416136722 0.008180209632856554 -0.003249200199249477 0.002909573087600578 0.002719491504167421 0.001639707223820162 -0.007024091702480951 -0.009904955498252488 -0.009905127870686228 0.01681324443956262 0.000389779756266572 0.02843402970732468 
0.002871592535635561 -0.007141924752112227 -0.005423246131573027 0.003225997676694627 -0.04887469668392465 0.0009172405976933069 0.0002455783705086733 0.01906490796243009 0.0004693901541404005 -0.004875636941171328 0.04577030567630845 -0.02990357564379528 -0.007403487254738584 -0.005063423286979341 -0.0359711090996975 0.004010844495368069 0.007331486616560783 -0.00416781080706597 0.001356205314313301 0.006118875836362675 0.005731489316548618 0.02415527542324485 -0.01654096596044946 -0.01479600727212989 0.003138110108729994 -0.05552865147832419 
-0.0009316982134735449 0.005329064589140394 0.001916551468975493 -0.002917762404134598 0.02207667505297078 -0.00260929403308777 0.0003786606808040668 -0.006518303013761441 -0.002352264671344872 0.0008050150615223765 0.04242352786961849 0.01026414944628511 0.001948794296015026 0.002078775588579553 0.01044806889723805 0.05259433283218101 -0.002035073175039564 0.003213758747268691 -0.0009884648582280202 -0.003894386540823437 0.0002673062636703581 -0.006559018303920435 0.0009646697227377898 0.008472912718662936 -0.00228278210370913 0.05648359780833009 
-0.0002929911777568326 -0.004443894485778228 -0.000585383041228028 0.003024034345677188 -0.00937204368705841 0.0002077132870978182 0.001255437902605192 0.002314963678101997 0.001020108570911052 -0.001108403444754338 -0.02794776838327775 -0.01085452893894998 -0.0006680489022817869 -0.001511785590327695 -9.220618836560323e-05 -0.01769636591611829 0.0004408485555870892 -0.001352606181027904 5.143181494014738e-05 0.003942163938556059 -0.0007022226639925129 0.004822162335037841 0.00331142292332892 -0.007129609792712269 0.0006019918943690035 -0.04568967746862977 
0.001178638959356008 0.0003379846326587119 0.001317502297300564 -0.002071647587360897 1.555172250169951e-05 0.0005379951916035302 -0.001456884064632668 -0.0006878885763091959 0.0003504352843413386 0.0009578965980165384 0.04292524988977549 -0.7584421346136671 -0.002049412110373846 -0.0008395775633463479 -0.001094004704728041 0.01423777645588436 0.003905691713092415 -0.0007483964237421734 0.0003046722846626609 -0.008601492316107556 0.002694085512695296 -0.01900775947750172 -0.008641295499355146 0.01091659324786218 0.003800919550406534 0.005781130438195144 
-0.005629342362307449 0.01138712968710176 0.0009525834847002872 0.001173178078062668 -0.0101266811692804 0.002694092970353285 0.007559735013211562 0.009521235894252203 0.005238730258090246 0.006495742282371573 -0.01906581033271476 0.006419776504270541 -0.05974327153028884 0.004133874164193869 0.01367814629293486 0.05975776235255938 0.005615089844520761 0.0006110180919987882 0.004589679061471747 0.007376513502556582 -0.006057338638560257 -0.01107227598327507 0.01147895779377474 0.007227841426544613 0.01325746472257672 -0.0701103891888385 
0.003321004725722227 -0.01141556377367446 -0.00228241982359056 -0.003625347201457576 0.01223074546003824 -0.003481267228705305 -0.006264096157670899 -0.01320235677235786 -0.0062563218794889 -0.003483119496340074 0.129238122401323 -0.013331662490925 0.05708434528049765 -0.005150357888576658 -0.01488171857447716 -0.0614507377829556 -0.008603487074456444 -0.004263029008640088 -0.008156070673332322 -0.009789081704103392 0.004138354530699087 0.003351328719895003 -0.01522960688035908 -0.01604449539090327 -0.02234224172673341 -0.07947374181736191 
-0.002727106820311462 0.002365153538265287 0.0009292583462785424 0.002658806469893769 -0.008257938509736013 0.00152455046073118 0.003743795820148719 0.009224525724255238 0.004740513837139548 0.002456575450716346 -0.04363550014583058 0.005915551632585088 -0.03825174725910994 0.003667197888284068 0.00823782275565554 0.03508550340100412 0.002021244724770268 0.001274173688140501 0.00334047685925268 0.001010521525054395 -0.003390932318462128 -0.007670318715998253 0.008890530455591648 0.007804239344267034 0.009420939683083286 -0.1576375670894373 
0.002371246571892205 -0.002325403181333997 -0.001657857460063391 -0.003789247070633664 0.0111775485535655 -0.002343246397060928 -0.004430547022969653 -0.009714787724561863 -0.005220479914299629 -0.003912740275154696 0.0356130974966259 -0.004963308536971605 0.02916680882796717 -0.00381055546075672 -0.006683309007852565 -0.03335961232680006 -0.001303694106706734 -0.0047118737486984 -0.003294799484680776 -0.0002702874057531682 0.003890550654103508 0.004130073434713171 -0.02753458738374836 -0.0123190330568211 -0.009327776836309131 -0.1398850611307482 
-0.003178652687302365 0.01269224090567977 0.003789153585170668 0.003497538071954394 0.01120105000390813 0.005166277671459689 0.007097486034644011 0.0168472771074139 0.005057015357977745 0.01342093561283049 0.008418233846924687 0.01367127154329727 -0.05757292139414603 0.00653539592368925 0.002462190736622635 0.008032643445637833 0.004651797606432037 0.004129317385950283 0.00748293899315446 0.0113325733732844 -0.003766829734646445 0.001912681925953385 -0.03025671354229325 0.03087077693578071 0.0259873281896283 0.04372334292628206 
0.001112403454296839 -0.004130927620541531 -0.001968553361008975 -0.003125283957955371 -0.004397001898073212 -0.005053507647272601 -0.003425583419666231 -0.005504735100907307 -0.002275257708125995 -0.007039364857520302 -0.04866522641352531 -0.00298233548639713 -0.1498890224966689 -0.001768104390787703 -0.0006940598102842623 0.0007506731209833586 -0.003039027703766027 -0.0006619962739313068 -0.004060399780273419 -0.003089131013042876 0.0003775886584917496 -0.0005482723101154517 0.00846861961735808 -0.01733262663682977 -0.01087260555536697 -0.01742360440390817 
0.0004853106457179449 0.002368532745094875 0.0009577048925359236 -0.00100245541830098 0.000842328483964603 0.0009693007682805425 0.002311364619261945 0.0008800782094588804 0.0005688661334934193 -0.0006137392160711461 0.06175015234432699 -0.005342575923641285 0.04971077828914772 0.0006536094253824587 -0.004987753756134778 -0.001195745637320296 -0.001048328964147642 0.0004506462413608778 0.001073244241516386 0.0001154441039434264 -0.002615234600072491 0.002669294249246986 -0.005755402571489672 0.006522971901063804 0.002975556363036016 0.06031057936794912 
0.001298464979020415 -0.005763605595276454 -0.003362638793614702 -0.002600770370162014 -0.004190044170535632 -0.0009418777289820343 -0.004362170694201238 -0.002601098962920911 0.001578042877875728 -0.02107166203093575 -0.01439806380607617 0.000467242007898975 -0.02507267776130719 -0.001209635941132568 0.01161143711720138 0.001517399976646835 0.0005370264969605244 -0.001806920768559442 -0.003624972227515281 -0.004565507042153581 0.003332449930139652 -0.00810408894038828 0.0004164687254471787 -0.01088479101060354 -0.004928486136250484 0.03378553814074411 
-0.004361817710909629 0.003773058872551498 -0.002521844627498138 0.005013257727893325 0.02971459361898488 0.006233140072750874 0.007628216864282875 2.586950911740787e-05 0.0008487337083488276 -0.01672038740300455 0.1224276074097354 0.02172472442041799 0.01301608667388062 0.007320748872195734 -0.0002507733239491127 0.03210528298303724 0.002618977090654917 0.01000763338653977 -0.0004057553515943962 0.003307798725237217 0.01706145251013256 -0.002271271949982737 -0.005617139094173621 0.02968856166622587 0.008249800022440232 -0.03135050469195128 
0.001446063561558193 -0.003086800805538016 0.0003000059398741777 -0.0006158637821812333 -0.04837754632055954 -5.786424745860913e-05 -0.0006432872853150112 -0.003638312784460921 -0.001963704042629231 0.0009782307870871095 -0.05152345741617772 -0.003459648701141403 -0.00273110451515748 -0.002784014051552301 0.0009855077558262185 0.01760970514031894 -0.002733747189611714 -0.001173040242094751 -0.0021467105471296 0.003992442907349463 -0.003524479956117951 -0.002443253521911967 -0.008072777177895342 -0.007900266315557404 -0.002618537601294738 0.001804281016016862 
-0.0006827045267046244 0.00156664407074752 -0.001158797235783264 -0.0006290085159552681 0.01333051342945638 -0.0006919617095645144 0.0008295020272256656 0.001769123759065662 0.0008773825345386615 -0.0005562453617733684 0.02577608428765329 -0.0003961038492146418 -0.000244921482810133 1.122955643797772e-05 -0.0003803122278751058 -0.005254584853796836 0.000792883645191351 -0.00173861776174783 0.0008774980114997419 -0.001526568697359009 -0.0003252787015710745 -0.0005764315133353927 0.00151523472608315 -0.001097644936588264 0.002275880916344535 0.005872135426621762 
-0.0006211807718134916 -0.002847367478833378 4.31279183321705e-05 0.0004561306082275513 -0.01218953870580184 -0.001184567775393908 -0.0005884167598064869 0.001427301697647515 -0.0005481147765977837 -0.003219248586245952 -0.04187754577516263 -0.006805393580433508 -0.002349852440179797 -0.00141441945482532 -0.009448123410156372 -0.002467919775374617 0.0005233253257895725 0.000460742725639041 -0.0009038110086210687 -0.003769430327096225 -0.000116393252410917 -0.0001422839611537869 0.004845568975275839 -0.002505296422338231 -0.0006303055070032855 0.03367082785191466 
-0.003734109180167242 0.0038669000636888 0.003086111631388867 -0.003480344259985415 0.02836121168916463 -0.005338591947129085 -0.0007195144606393831 -0.01161308783317703 -0.003081141583853408 0.002920120168904437 -0.01958047427007408 0.01614415066036536 0.004061747296369044 0.002321740765821614 0.02291882308281899 -0.004724987875489622 -0.005239825262919164 -0.001139083318938883 -0.001907500348190702 -0.005783359597387816 -0.008717251809718832 -0.01136505981848157 0.01808223363735026 -0.002676046886914367 -0.0026752112681063 -0.1533255441513889 
5.090139856074209e-05 0.0007662833573205559 8.739188211765258e-05 -2.246988970341171e-05 -0.01137894987251723 -0.002135919694207557 0.0006242211431247014 0.001558568546183118 0.0002843227696660145 -0.000351669761478173 -0.2531332021899831 -0.01157912098723385 -0.000729049297192132 0.0005353083227600279 -0.003417284045858237 -0.1316219552926342 -0.0001987364110865072 0.0001407386337833967 -7.920918891808519e-05 -0.000107748138858504 -0.000267542941576114 -0.004225885350754162 -0.002037394893684865 -0.001434345844616494 0.0002641288179670817 -0.05972280446512577 
-0.002091105664179288 -0.0005844087018235778 -0.0002443532123856445 -6.027535158784962e-05 0.00367504032750891 -0.001279018182768197 0.001158263935628578 4.760446829990198e-05 -0.000931866543079371 -0.0006154925893888338 0.0743384333396596 0.001281178379538338 0.0001246073336403497 0.0003206378137776243 -0.001091562050980376 -0.09855397710761196 0.0014098720604546 0.0003572544910438924 0.0002307237099020466 -0.001981076424451257 1.490637922780749e-05 -0.001654979271575753 -0.0009529425374040593 -0.0004879427936384474 -0.0005898112635265685 -0.1012863207921503 
-0.0007235431867035996 -0.001118238988876681 0.0005768465705847254 -0.00116524315584117 -0.01952985207883697 -0.001696712125776165 0.0001343983720877887 -0.0004525922042576892 -0.0007015150285063602 -0.007293447481693776 -0.0628484860382386 -0.4796699247735364 0.0007436489494664234 0.000548927487943231 -0.002603699513609781 -0.1865183704762904 -0.001540453817974848 -0.0007391636384772123 -0.0004374188586408926 -0.0007629629957576648 -0.001614074847872504 -0.007749880675767134 0.001792287362616623 -0.006546883017096617 0.001257852957053754 0.006355733490888897 
-0.4236149939840275 -0.64145134225886 -0.4074381894376911 -0.2822629465590712 -0.3655376911248867 -0.3182909730616712 -0.4913303818363373 -0.7427212738587511 -0.631131260451778 -0.4453103755838135 -0.3009723610150155 -0.4552641379246442 -0.4445973116192839 -0.7485423601286706 -0.7167919133907631 -0.2519126042835277 -0.7282377638641138 -0.4986454771218836 -0.736190158688307 -0.7213159868245158 -0.6951578737157401 -0.7846881180069966 -0.4980417299613389 -0.8492380506272256 -0.6937806281243942 -0.1269611728045706 
0.0005864833449106636 0.004959782564636333 0.0007946415936749469 -0.0003341928966338098 -0.0005548006946799413 0.0006127741554031535 -0.001416153877608455 0.005874536655439445 -0.001619677226814088 0.0005755880958452242 -0.2442301914636393 0.003075554132552979 0.005867623317774094 -0.0009423244594497285 0.002608909038743764 -0.002818543261510991 0.0008675412324938165 0.004758062546283946 -0.0003714698280691402 0.0006091201210091533 0.009519143023744743 0.01164441603620557 0.004681631880287321 0.006193687432506895 0.009146807734025184 -0.1210368348645033 
-0.001339960505919396 -0.00230848218081506 -8.126391301243176e-05 -0.001775156785693416 -0.0002966785038355477 0.0003235193903964099 -0.001977724417474405 -0.006615596598799291 -0.001511497314433046 0.00117934505258419 0.02487527991995021 -0.003293252368937017 -0.003891470344930294 0.0004627561936877605 -0.001541884420138839 -0.0001475417734129317 -0.0008773276272400204 -0.001907028349753261 -0.00169740624477375 -0.007505987353965173 -0.006069341025602205 -0.006465105752160746 -0.003372762366363785 -0.001138047505308575 -0.005541263493924972 -0.1515172678904089 
-0.0002455455500433324 0.002543197892309275 0.0005908017781516232 -0.0009175377834082034 -0.002962120168841885 0.0007960541076836862 0.001231816529256014 0.005053434784406612 0.001726418165650725 0.001052029618102392 0.06390137629156319 0.001863233542111529 -0.01060120438042964 0.0009063809196728763 -0.0003536091724314834 0.005080724880014004 0.001096137723799718 -0.001548074232595593 0.0001553572048090334 0.003099378250074917 -0.0007287810668691473 0.001726484874988261 0.006289067373187781 -0.0006040382963356059 0.003934845718188298 -0.1881993295259604 
0.001124536360121877 -0.007519039623956733 -0.002129880603823599 -0.004465831920130507 -0.004461803397484091 -0.003450092316952625 -0.003311943426446561 -0.008699673410976355 -0.003559769280380972 -0.006963115854709696 0.008145161727477427 -0.00825706370017034 -0.0137822687591419 -0.003239318392021717 0.0003472692355372315 0.00259064853918672 -0.002530116080961825 -0.002745832193705184 -0.00341972997974611 -0.01139962698910307 -0.001254416176512079 -0.002921568754346981 0.01797982912668102 -0.0171190786674691 -0.01454370023371135 0.1176017009692884 
0.001165889577699585 0.000251082382719119 0.0003830089163014189 0.001566942056499003 0.00523416120331978 0.000446821926006502 0.000697440017070269 0.002286893072934335 0.0009906641981935055 0.004467850881736819 0.08083993734444241 0.002846398498997676 0.001916589855826456 0.0001579974947477395 -0.000473309451500131 -0.0009555444670643474 0.0006241060234680778 0.001566463638951568 0.001911464144292775 0.001197034432865616 7.215819560115144e-05 0.003264943326780117 -0.0008759537704961432 0.004632863466396318 0.004029942121460626 0.09582421126825469 
0.0006102191498580625 0.0009926980072829494 -0.0003285020269930802 -0.0002982152783022556 -0.003428823094129707 -0.0003313276147162321 -0.0004440786100273667 -0.0003190146383713033 -0.001173229099147464 -0.002020897617821398 0.01345183267380423 -0.005079381715424176 -0.000858872210230894 -9.007907325120186e-05 -0.001468119087033199 -0.001392227986158775 -0.00130515800208392 -0.0002493192720724916 -0.001404153212021929 -0.001909289784006045 0.002100251978407825 0.0006585214691351077 -0.0008590473480715982 0.001073090101148138 -0.001115746222053999 0.09569182589456186 
-0.0001252877743264496 0.0002915571151120463 0.0004504953717240124 0.001069483944150332 0.001000431138387015 0.001088538681894359 0.002285315055153329 -0.0007033489739682431 0.0001140429993620348 0.004096356955311077 0.003626096132913429 -0.3597427290874703 0.006273646394042247 0.0006775433078428498 -0.008660177708038383 -0.0004947069690256035 -0.000240239758471821 0.00130356001751002 0.001646712580996835 0.002316667244013103 0.001345452323268507 0.002299025802737626 -7.585532778060454e-05 0.002811199000213416 0.002985506518401199 -0.04533822102497657 
0.003571192033407133 -0.009692287996451915 0.001147111005852189 -0.00544291057425404 -0.02298167895185424 -0.001796177026737201 -0.006192958230841727 8.611546441133778e-05 0.0006631954308097714 0.001531364242099115 -0.07177154962370831 -0.2301816344669318 -0.007073883589812134 -0.007476853841192321 0.0007152049336249632 -0.0227183689733457 0.003652958706590244 -0.005943853466803179 0.0006249860502548269 -0.002939952355430436 -0.004505753194424509 -0.01297821221453879 0.003893825652004441 -0.01535543067585688 -0.004014823469445625 -0.0013529589109596 
-0.0004270088084973439 0.004227240437380458 0.0001997499027048163 0.001675401919118318 0.09191365953024204 0.003039451601038324 0.003008812925528298 0.002208935304116491 0.003431364250322737 0.00399991494498005 0.02025703510406681 -0.001616733784194504 0.0001508939262978648 -0.002443003740433044 0.005064760229630526 -0.04794115594758624 0.002136852436693836 0.001127942762217041 0.003098842335917656 -0.001225159015313898 0.00441784672772436 -0.004398710776060691 0.008241350958628242 0.00340088591886253 0.004576650737083914 -0.04672874157256351 
0.0001729748954811137 0.001534195688520733 0.0001840573266294687 3.201756024059652e-06 -0.112792022392943 -0.001230030028362942 0.001150699846542101 -0.0005939790814528465 -0.0009459649607885491 -0.001783242262205201 0.01370794361548163 -0.001881464714472347 0.0003030000115857342 0.0002818278495308874 -0.001769178481932559 0.05742618059501291 -0.0005461123648917347 -0.0005641033173718563 -0.0008838186556933488 -0.000676481521533972 -0.0005410587807627947 -0.004946589574658724 -0.003820760030750603 0.0001551362271718584 0.002653294597398069 -0.09834546608680934 
-0.0002583429659908524 0.002182564034467037 0.0001157082098964833 0.0003927696050028986 -0.1877605283542736 -0.001467727545757708 0.0009632508169899892 -0.00068873663821765 -3.285904803068706e-05 0.001097870680739498 0.02716182882667052 0.003858978880831795 0.001163396680926644 -0.0002752530933102178 0.005246433360298227 0.004946956183169437 0.001897311825354728 0.0001768799660212382 0.0003652671710521078 0.001427765641651225 0.001489541422520383 -0.006027422845455994 -0.0006758670354337228 -0.001371939631721727 0.0003214976179490114 -0.01822336255527975 
0.002891748689458829 -0.003852505006746312 -0.003850482905941735 0.002757210755107642 -0.1437786065462229 -0.001467831952286885 -0.0005446536633624047 0.01250886561975087 0.002978932742813317 -0.006315847348716023 -0.01808602293471635 -0.02168487988303321 -0.004445154122469983 -0.003021181224652206 -0.02325984989867406 -0.2153392050454396 0.003923973483177252 -0.0006209181075923618 -0.0007279599948229812 0.003886474854963891 0.0106338633291633 0.004610297143446221 -0.01550369326891167 0.000224683609950354 0.005307619943978258 -0.03395565015884622 
-0.003210977255813306 -0.002620049340496748 -0.000866701282600289 -0.0005080664135861633 0.01383759014339019 -0.002560750449102689 -0.0009110092855140411 0.0003247753934571561 -0.0006514544731263666 -0.002300337756731257 -0.1646158077588383 0.02012659678013965 0.001797229439918854 -0.002093612407830401 -0.001240954525424518 -0.06718368559731321 0.001800040511527252 -0.0008408018423572658 -0.0006223636204940017 0.000809851267804644 -0.001013536637509161 -0.003512170353586316 0.004889034706482745 -0.001699806925664743 -0.02299029006855473 0.03122237633573575 
0.001029885846318353 0.0005617931061626022 0.0005602459005072681 0.001826639013932804 -0.03947382938500307 -0.003946152342426304 -9.493718705312919e-05 0.0008209787768177676 0.0005458459002562184 0.0002197947859908071 -0.168672783605233 -0.06200936946050537 -0.0008186220875702346 0.001016853358840335 0.003171482847402421 0.01858566851608488 0.0005686537171117155 0.004520699447097364 0.0008485225366243566 0.001421218509877643 -5.070570184975779e-05 -0.001990355824154284 -0.004251310374550925 0.000617522780250047 0.007360332448143782 0.1131294955234761 
-0.0009441591343261527 0.0006595185970904747 0.002288753161356376 0.0009489770235016473 -0.03199153277703645 0.004142414886213325 0.001593543681965098 0.002387672187603686 0.002815862179196461 0.001357913153909881 -0.2036655694697077 0.1764200522842904 0.008565385582963226 0.002088137784242106 0.003070692139886999 -0.1228384395289276 0.001312151586416641 -0.0007809709794359069 0.001494102363310321 0.002506537581984653 -0.001816670555903914 0.000245163757250649 -8.957507322766649e-05 0.002382749054361077 0.005788530968819502 0.008594512094946482 
-0.07277452914780594 0.1917085696252375 -0.1956815664452926 -0.0431146645364127 -0.1415945326361454 -0.08197313262503833 0.2224375500877923 -0.1838895064269335 0.00896213120028065 -0.02280227164886399 -0.1209450159680722 0.1063121653202852 -0.1183660035344432 -0.2010352767369301 -0.1112123380337816 -0.1276487858407098 0.1929054537952043 -0.1707604552500941 -0.1916364900098152 0.04145901054472663 -0.04493322752984754 -0.20037099799793 -0.2053941303659436 -0.2390981838347591 0.06972079073081636 -0.08135756799300005 
0.0006894883124467161 0.0001243284610239934 -4.636571253799975e-05 0.001604293579465226 -0.0006717895957519223 -0.000248174250130441 0.002035607690296736 0.002534087149383982 0.0006763861571760998 0.002591027317993586 0.0608221359717027 -0.003656663755153794 0.002889931620887189 -0.0004827273195346988 0.002347990339846255 -0.0002573714539117108 0.002841693509508821 0.0003595489933862166 0.0007896594665925947 -0.001081330811366511 -0.003389378241240462 0.002090798292184743 -0.0009883762364288381 0.0008544423088689912 0.001806475769018503 0.007121031519389382 
-0.0002463190897509463 0.001798677411819133 0.0004027784085337114 0.0005257029184697765 -0.0002894139079402489 0.000809438731327965 0.0001482819957577281 -0.000273772129969378 0.0003294708404512771 -0.000258675239982467 -0.009231262409135613 -0.0004416125606227944 -0.001234491888724316 -0.0001384976568728983 -0.002331700927002328 0.0005117570896876811 -0.0009210587650046874 -0.001032157844365444 -0.0008077534371238134 -9.97660650065146e-05 -0.0006269201841880726 -8.617669135626443e-05 -0.004127659564454276 -0.002471579490861173 -0.0004573547893553589 0.03200876037864255 
-0.0003929746418610099 0.0006454177103856935 -0.000317473537793467 -0.0002694057871958828 -0.004242137010380647 -0.0007046857508765074 -0.0001926428620286377 0.0006495060469292033 -0.001812582049112708 9.434258286353463e-05 -0.05232646065734559 -0.001496337242131486 0.003536671900549369 -0.0007872528947912117 0.0007936557554439011 0.0006873594554077695 0.001154493272994675 0.0001159797621109565 0.0007238995255898594 0.001395890880070402 -0.004198812194399242 0.003815183192686211 0.0004262908790252531 -0.005908041826283092 0.00222754075655518 -0.07864810017741022 
-0.001050734464904982 0.005867285234008045 0.0009026279025306043 0.0006424036419114469 0.005581899296397953 0.001484727037152795 0.0006854053071995502 0.003732877140782624 -0.0007735082811957849 0.002257528235519852 -0.04935902408637333 0.002464912867742445 0.004754669029871729 0.00157863308285275 -0.002616833853524517 -0.001421269181913054 0.0006971523188819389 0.001461125261250424 0.001528574705394618 0.0004604777071211046 -0.0004751157567701267 -0.003608334265264493 -0.008113830148388209 0.009290357037679244 0.007013131306107921 -0.1250662713994239 
-0.00153681197331433 0.001085596183849282 -0.001423965842172851 0.0002436647955359664 -0.009099891292063711 -0.007222578519621364 0.0001917496757602904 0.0006647811026628146 -0.0009989355628981956 -0.002209349693164332 -0.1226006049141516 -0.003680578762499344 -0.001314227767797879 -0.001349184461796612 0.003192281980092358 0.001477271165021786 -0.001491384539225505 -0.003386459834979855 -0.001497716623330901 -0.0009924835390076156 -0.0006963814872523787 0.003199135924826128 0.002065607127815998 -0.005040434548229854 -0.00289513221111499 -0.04639309018697264 
-0.001519716028200015 -0.0004522539012684979 0.0004052475075596597 -0.001660437169878245 0.00473157192366219 0.0004377416002853575 0.0002169942350822153 0.0002433372069871515 -0.001053543571854967 0.0003925953470559537 -0.004706607968439316 0.008633607683197507 0.002700902387493995 0.0002292425233454735 -0.003686425056820102 0.0007878619855459631 -0.0001633615704717701 0.001031834316625628 -0.0004673877912686247 -0.004379266214541512 -0.0008844901176659921 -0.006080456455363667 -0.002944070264855449 0.0002571781748288938 -0.0002318221486071605 -0.03547325650004204 
0.001335245504693934 -0.00249085918110954 -8.493235796160339e-05 0.0009298360890549934 -0.01600454616453307 -0.001685604671260857 -0.0004514441084661689 0.001316555926688336 -0.0006014042486731336 -0.002309636870478999 -0.01439160046955602 -0.02025632301917179 -0.002739184450017058 -0.001816497517228257 -0.002677686178890148 -0.01230517921035717 0.001088600321946564 -0.0006385884974985974 0.001202949689949336 0.002403320433364638 0.001312116563578841 0.01466477407409453 0.002106610109680911 -0.005983891856719521 -0.0008557535319959225 -0.005898127735320109 
-0.003008527996972293 0.004305436526888131 -0.0006892203111995672 0.002169857673177877 0.06454612212692183 0.003702045343898785 0.005990021166366963 -0.004307725586138443 0.000853982030602469 -0.006836097674905382 0.03389409964792894 -0.08155504897825767 0.004704110817329713 0.005426215735009326 0.0006307400961017117 0.0428556940635898 -0.002083119856952482 0.005329465031609624 -0.0009383052141661826 -0.004112937750556765 0.002682490427940733 -0.01299021797300349 -0.007218387906638497 0.009167777931053825 0.006784221215871529 0.02031989316932799 
0.004878781848534039 0.005459795580766395 -0.0003111460259138649 -0.003735498855533534 -0.2120509778169196 -0.003103825245434515 0.0002736178176876618 0.006334168072129397 -0.002148447456993237 -0.00443114035494823 0.03459961452814955 0.001792692100728102 0.0006058928650528978 0.002359693565257419 -0.007649502434566913 -0.07372441743344729 0.001360274587691244 -0.001376529169370921 0.001530706700046184 0.003093733180372481 -0.001564923740053063 -0.00878328969507255 -0.02478704770529273 -0.007459616007825167 0.001895823714289214 -0.04697427815689841 
-0.002193718132165994 0.005658914330466119 1.674096277090148e-05 0.002425061023668731 0.06955401763501816 0.004321785966995323 0.001637987696102559 -0.002539569678305327 0.0004290244856817539 0.002540345717921904 -0.1921121056456069 0.0001774104477310238 -0.002048695236607342 -0.01239804832329108 0.01017263181527855 -0.08436167264629707 0.003879318447500371 0.001371382763514678 -0.001964076783997393 0.001517940830236667 0.004066020168888903 -0.005259428046874978 0.004018110958723542 -0.001774367128697471 0.001444781957021394 -0.1196969199526458 
0.001382005047325718 -0.003748337975828881 -0.001908721448792993 -0.0001656477845234027 -0.09494788702736223 -0.005654793175212308 -0.00142439245200213 0.003674833464757512 0.0001867931110738708 -0.004407976150894838 -0.1307731693211884 -0.007205667666438714 0.0006149412016413933 -0.003745301296776239 -0.008941556782207859 -0.1436806919124988 -0.001452765790508675 -0.005813084750599096 -0.001412368316311629 -0.00153609920350648 0.000362720901469171 0.0007645075715632338 -0.008222718552259098 -0.001365069729601463 0.003728426492590717 0.06244321801447154 
-0.003677681493622435 0.001745894600736009 0.002551236537970767 -0.001026643118451686 -0.1726850175197286 0.002089444096610652 0.002894029162916241 -0.009541650634548281 -0.001005831370941617 0.002951689884648235 0.04064485505055445 0.005851205334887023 0.001803805229599373 0.002110933091282075 0.01588280213872985 -0.0746689929523716 0.001265731842886842 0.006175929519600421 0.0008017990559025802 -0.001505386811212484 -0.007112367909020205 -0.007269522769685095 0.002612096593105114 -0.002530262686597443 -0.004415515282937904 0.1406296201739959 
-0.3048383820214988 -0.3842042277763845 -0.2501307957120373 -0.4975304820880617 -0.2582186861387821 -0.2866990911311464 -0.2938788567936145 -0.3039130609542487 -0.3396641220032102 -0.3441364558784171 -0.1870506753748453 -0.3702154167980857 -0.3905448030208966 -0.3244837306859516 -0.3840788725500237 -0.002818649079578252 -0.2149510630451862 -0.4224035939368885 -0.3529800505092038 -0.4562620057526219 -0.4953098882115257 -0.41158096839171 -0.3111830537986189 -0.5291195115934628 -0.405187192872038 -0.2000514034834869 
-0.1729084209638927 -0.3214369838397051 -0.3019835020322401 -0.4633095007750737 -0.1197577855682826 -0.3549003904414579 -0.3058989671952943 -0.2626175943504463 -0.3362281898548294 -0.4207687954327961 -0.1889386683290856 -0.3689131450890623 -0.3783467721651264 -0.2829562885266514 -0.1833767328800811 -0.08005260242303333 -0.3008135682255283 -0.3360658633067201 -0.3428496022649407 -0.3536107871886946 -0.4194803030200699 -0.3693734587562372 -0.3226844318478087 -0.3666756722146067 -0.3195313627041795 -0.1704561026127802 
-0.05531431047125132 -0.3505500542883567 -0.3394328857943387 -0.5141582480159607 -0.1224724781382179 -0.3911419481720164 -0.254435588794819 -0.2433518508609032 -0.4154806892655239 -0.5055856394871641 -0.2099197297785536 -0.4130757138865024 -0.4367978993494915 -0.2769520305733916 -0.325114970443221 -0.06106971057869755 -0.4386568401721295 -0.2398940307264707 -0.4217504729425305 -0.4748483059399433 -0.4478553923511107 -0.4397007059287953 -0.3723708934889974 -0.4823353990468096 -0.285687725799727 -0.1982271066052892 
