solver_type L2R_L2LOSS_SVC
nr_class 26
label 1 11 5 15 13 14 4 9 7 18 24 16 3 20 12 23 2 21 26 25 19 6 22 17 8 10
nr_feature 128
bias -1
w
-0.4184977882788575 -0.1019711484821588 -0.3776663805405758 -0.01557468544745341 -0.1253560518107848 -0.07801204920769192 -0.5282597757270384 0.09084870134622335 -0.3341700523123864 0.06108775132762492 -0.1384284769184449 -0.05573258554887026 -0.4792091159250925 -0.1754325273520078 0.1381471759574699 -0.09283266097595673 0.08045685379292231 -0.1272602614423688 -0.1292861909113939 0.2583977705636882 -0.309855461356884 -0.2132660765398837 -0.1237947692829788 -0.1485299625722426 -0.1450344655686939 -0.08507638860658642 
-0.3821591062825778 -0.1767735381998293 -0.4170620043292329 0.007190667885903137 -0.1705787665590811 -0.2028074837297271 -0.6008393139422511 0.3572362900567796 -0.1883699226005307 -0.003491668715494488 -0.1388370775340922 0.1249746147615412 -0.5156582235420192 -0.328769697431638 -0.1210888890485482 -0.1343897023301293 -0.1766257226778183 -0.2379924468543131 -0.1384839951409404 0.007534331694370888 -0.2194104172015662 -0.01558399950246965 -0.207746925262725 -0.1219961473269048 -0.2078276197485858 -0.258431720372457 
-0.1251887384035918 -0.2145326936881736 -0.2838153560075561 -0.2415180426446087 -0.1696087138649575 -0.187744386293686 -0.6734329976643372 0.2719993976847311 -0.03928506256104639 -0.03518802256583179 -0.2053660110582464 0.2543517230786699 -0.4315473587307277 -0.4804712794169129 -0.1152158569076921 -0.2138002515118051 -0.3491166926733922 -0.4524461536218345 -0.2681804336345908 -0.1282641475785528 -0.1787121899853675 -0.02895828188888455 -0.4487661413711914 0.001804197616655546 -0.2381067422129895 -0.3004521141685564 
-0.08571406089902643 -0.2136213476548728 -0.1747561746036861 -0.1324784150176153 -0.1875831108411333 0.04346240271493567 -0.4930997290180706 0.1884702242227261 -0.01276752453434501 -0.05587538881147219 -0.1628426050636348 0.1814336430396875 -0.2286990908379994 -0.2981112443290142 -0.2418686727787959 -0.250316431640255 -0.5215613208238742 -0.4151348414034078 -0.2225941078400778 -0.2737257466932276 -0.06333383383630051 -0.05655635470589449 -0.4939438867157476 -0.01054232586975578 -0.03974459683118836 -0.1581160464570182 
-0.05427908995419612 -0.3041382764860653 -0.1561190927543659 -0.07881607783016452 -0.204154917774741 -0.04637542465686911 -0.3811757329739381 0.2081148906983047 0.03906465346008678 0.006797908373256762 -0.1740380519778683 0.1880001167135363 -0.1077642360096756 -0.2757934473570392 -0.2746917332388114 -0.2684389775771369 -0.5451657582716307 -0.3620713148003588 -0.2392774199544046 -0.2492337026409367 -0.03852362511782777 0.07137883136649373 -0.4463023981343164 -0.03540307771611936 -0.1556745084521446 -0.1888132258817652 
-0.2274197537053388 -0.569605159269616 -0.1580908510749966 -0.2531439913075571 -0.119699885510843 -0.1041933446959343 -0.3777396559965 0.1489192751422411 -0.02756633068689265 -0.09151855199888427 -0.1908589011473198 0.2175250319727591 -0.1869979683809394 -0.06959377210615236 -0.1832397194776228 -0.2952921918279959 -0.8782479266320864 -0.2395425487387074 -0.4524316008466581 -0.2253115359484078 -0.05425894539691032 0.208837585934511 -0.3013980341462349 0.008078188866289485 -0.5352156582331929 -0.2237018301712939 
-0.1254096392988289 -0.5638618262633663 0.03318326625470928 -0.1168286646724285 -0.1684870957255982 -0.22225303300295 -0.283190620822933 0.1100523654678531 -0.001977730055083227 0.05862515371740697 -0.1237075430032046 0.09434832289206228 0.07264641011659229 -0.02871192171700999 -0.329634457592849 -0.2454064999470365 -0.5733414476913924 -0.04755468230039972 -0.4138945104005231 0.04056502320145659 0.0229146455815652 0.3460484442353776 -0.0007275829907045844 0.02003506611319087 -0.3764211309231609 -0.1157741662292354 
-0.1297623208510866 -0.5493149735604841 0.03835085029407806 -0.2410904027299322 -0.1913034730059744 -0.1891411018414629 -0.23829498102706 0.08814194569245351 -0.08866818000047415 0.2291093912980303 -0.06569648331870218 -0.1947132911369877 0.01170999231456852 0.2053175629066019 -0.1761261351059807 -0.1990955799937297 -0.453443389565955 -0.05788327389276458 -0.2505463170224604 -0.01357566332047413 0.01429444240999282 0.2814871193476239 0.2000932650174002 -0.01121698266160657 -0.08476950410611099 -0.000826672453343827 
-0.1592604206513364 -0.0590631656648498 -0.2495321531053568 -0.08523775583788734 -0.1026631403872824 -0.1047631987661271 -0.2437519542964908 0.06057995645318938 -0.007200799590174122 0.0004775127470548878 -0.02421554565668168 0.02853536498995095 -0.2349364537988717 -0.09863254924512839 -0.009472042381143155 -0.01586074013414644 -0.01699920831664612 -0.1689651303295089 0.05555728050284275 0.1680621869176328 -0.05434918620502362 -0.03710179206883461 0.03720058195025129 0.003900882746035627 0.0006842881599933783 -0.109069255199504 
0.02217613745440412 0.006954212747749518 -0.02798453679641959 0.01158538501738134 -0.147307551924376 0.05639399253364531 -0.1643264564663585 -0.09573999033878164 0.09984210039473454 -0.0547956942552698 -0.1101009548499386 0.1099898196919601 0.1075526746618178 -0.1604886325437453 -0.06135916100337652 -0.07676603835307048 0.03407311435927236 -0.005071968314595228 -0.004455886679471567 0.1991928191319835 0.03880928722052177 0.04164805489792316 -0.1354348917958451 0.07317461644329196 -0.009765576504002163 -0.1209497149306015 
0.03806389278417361 -0.0273676097278666 -0.01326048240557227 0.140330418127277 -0.05010539613935758 -0.1591268944243154 -0.0950771181386192 0.08696564536146512 0.05817949007584188 -0.0759700242117869 -0.09350891962848121 0.1266990889324389 0.04306076815852191 -0.04882647608391537 -0.008827399756312825 -0.09823144949238506 -0.182296250368064 -0.2579940024058645 -0.0595269829841944 0.07157765136958037 -0.03597620549808686 0.1062218493769585 -0.2323759358213664 0.06754034263162417 -0.02997075829865084 -0.1664655207962071 
0.03190030728154592 -0.0553139817553947 0.007031177845147533 0.03972362384248422 -0.04075202554213531 -0.08706382339746987 -0.08354122544042297 0.05070624892159321 0.009002086019677925 0.03123443512887271 -0.03108327743411701 0.1312021383509489 -0.0723105224542996 -0.01382976900551403 0.08509552078206914 -0.08569512815633927 -0.09184287066214068 -0.2335536056787637 -0.02851097059731597 -0.1037080208871415 -0.01584653469614111 0.02760018762377317 -0.154371862096391 -0.005913679297157802 -0.07503944534331354 -0.2177267084476673 
-0.029151512449007 -0.1478097615438816 -0.05584156093404555 -0.01729990840357138 -0.1181978183924278 0.05238280419432145 -0.1203735604779777 0.05889984547667519 -0.03175454697172624 -0.003953881588630829 0.03228773938150811 0.07682234868622032 -0.09425334526051736 -0.006750731011636522 -0.01066968636968276 -0.08761309033630459 -0.2020978721018085 -0.2592176453611854 -0.05404761796786877 -0.06199747489999541 -0.04431450350307498 0.03002647346378874 -0.2741954314371998 0.01173054225486903 -0.1560854029775964 -0.1898973776099548 
0.03728766132161483 -0.1982524185924022 -0.04781589781075989 -0.06811620012292145 -0.1860082192175546 -0.08225882030913068 0.01828610087882055 0.04844102884047204 -0.05223039844613143 0.03936641449209943 -0.001888202877121159 0.09787171456585207 0.01560622319684693 -0.04584402227647852 -0.05297210195620059 -0.08567299775796614 -0.1438453870043745 -0.07220116166267457 0.07729794499245102 -0.01355804310997569 -0.004437169778504968 0.1824244417172837 0.026064626928964 -0.009660851551434773 -0.03596953739117578 -0.1552541778553007 
0.04666835246255249 -0.183907141936872 -0.1073700223167132 -0.02952369028147576 -0.1816698708970597 -0.06903770480036962 -0.1806198697431182 0.01476653586759362 0.03061582006381919 -0.05399227283687591 -0.02481801957593367 0.1570816919109514 0.0249524884801394 0.02558446703804761 -0.129758222366604 -0.1526560750188739 -0.2143938625470992 0.03880250801184429 -0.07782934298725792 -0.01980123464371653 -0.001152081403198978 0.2450888617058028 -0.07521777313232977 0.07303037267709883 -0.2325357682715993 -0.1602738381730398 
-0.09151199760266092 -0.2648922680745856 0.06518060188812962 -0.2465945918909088 -0.1559513175763153 -0.002079606721327171 -0.07241468795264577 -0.1628432242190547 0.07643831455516316 -0.06274588286112205 -0.1027740102387929 0.04287462239664769 0.02718297624263344 0.04091515824680981 -0.1954091319999772 -0.08628290613417133 -0.2081936773369861 -0.02947116131743211 -0.2013029080177151 0.1655193301090339 0.1421663364707188 0.4597736863944717 0.2241584719066211 0.01618023211623619 -0.1450709785878993 -0.09624109950311946 
-0.2060259581640525 0.1402152663519088 -0.1331299232629507 0.003411160993171028 -0.132954579376891 0.07562031267925358 -0.02059767435679479 -0.1549049571785693 0.04207894487816263 0.1371201643542591 0.02538645140438052 0.166301110069685 -0.1921764567452506 -0.06413545129038282 0.09466147677589513 -0.03230591990194965 -0.004135908078838617 -0.01957769910327081 -0.07907161289407154 0.1342207660253658 -0.06641636093429945 -0.07352317350114131 0.009983350799215661 0.1109562938036864 0.04918606061837266 -0.2138266407222055 
0.02367029372826116 0.0211209548465196 0.09457380339862781 0.01970160142416496 0.0771145400274124 -0.06186915837332311 -0.08893482180040731 -0.1338733583920595 0.09166570988174895 0.1537481129179991 -0.04357642882907868 0.03838031202240551 -0.01163799514077172 -0.06945452077505643 0.04525314322209641 -0.04083853755041532 -0.006219391283898526 0.05413213413643304 0.06261752314834065 0.1372499469319412 0.01134677764717163 -0.008448049239412281 0.03528931756943934 0.1657737559304225 0.06929515928267854 -0.1864542841778187 
-0.02443982718592202 -0.05549298665604942 0.009791544303564822 0.06225772428400456 -0.03752978061512245 0.08667637658144742 0.003115174272483787 -0.1721679125745436 0.08206602425231783 -0.05634423328358543 -0.0528037814639003 0.0954959767086814 0.07563748250540085 0.03925181823671364 0.1364401516522936 -0.0772765949680629 -0.06150120162916956 -0.2404067555224698 0.0222150361061634 0.1260307809871217 0.03318044323368522 0.04297072063855983 -0.05549252597268734 0.02215672883823181 -0.1084976814794884 -0.1384340383057025 
0.01564637346535421 -0.1086924932626082 -0.003349241675666617 0.1139763236056892 -0.1484003359916466 -0.09386875918146714 0.01276328550110743 -0.26688481465293 0.03190817700339171 -0.01723698105554667 -0.1362537516037282 0.02388425538808698 0.03671192102636759 0.1035177978022015 0.1495633539472334 -0.08361041850221493 -0.129497294992839 -0.3014492283101955 -0.005278863683132545 -0.03090960022168226 0.05133745083513413 0.06187689871060126 -0.3266837203076086 0.02516653252573687 0.003110242791150607 -0.1871180599232319 
0.01139500879008798 -0.159758252117654 -0.03674253477052167 -0.06691474349125041 -0.1069841786992741 0.008655191913321425 -0.06429907592973785 -0.06017719681601971 0.006354581085497302 0.04012251410173479 0.003907961064899453 -0.03803296824343676 -0.04245359172825623 0.02151834601581297 0.1180855276077299 -0.1016331451889304 -0.05963133922629382 -0.2587870783455847 0.0006814399889099208 -0.05690680228183405 -0.02411791915770869 0.03362437626222188 -0.2432753553843684 0.000110969212616444 -0.171296207806368 -0.1515664726230249 
0.01519327777104202 -0.1330138287081903 -0.04275061608335945 0.05256440730109347 -0.1305053023744668 -0.01988249959659922 -0.08437273451066069 -0.06612031113972344 0.08056963527628863 0.01127701248228816 0.0512739544802736 0.1538147667096518 0.08078204447558969 0.05874691756852887 -0.01084013300207105 0.005816242422098786 -0.06559747570661069 -0.05538957084271149 0.05232203849966939 0.0473037909503803 0.05498163457547118 0.07014473234666516 -0.09660084190405192 0.05393073375695468 -0.0623754013343043 -0.1756244966278226 
-0.03358298887923921 -0.1076344006208419 0.004763029660377812 -0.06169540018655079 -0.01927059080165826 -0.08449889269544325 -0.06986399645846503 -0.120816417827913 0.01845253388428073 -0.03057797741742082 0.005331229283189611 0.1418029702816162 -0.0225544539520186 0.02878836046230672 -0.1268467266796256 -0.08382429201345033 -0.1961908310025918 -0.01633848988647835 -0.01431792328823171 0.03318185665246397 -0.000131563510538077 0.2524173493560281 0.08100971836433482 0.06952137927491911 -0.08696807779916722 -0.1521515404806464 
0.0002034782732241677 -0.2805284674375563 0.02262643157020409 -0.1886913926740206 -0.01554504987689142 -0.07204309111879165 -0.1277102902016162 -0.1594526839812488 -0.009865433426435696 -0.09583944188639999 -0.06185951351387291 0.0195283235098784 -0.003209602158919961 -0.1332941691704623 -0.2793748601869847 -0.02550281347181624 -0.1222275429664655 0.05762150349851787 -0.1457358754763535 0.04671758584536023 0.08158895486803562 0.1614727415877627 0.2800514133039081 -0.1132836530960061 -0.1013489643417425 -0.104159738500731 
-0.136731619561691 0.03961700448733157 -0.1013668773109412 0.03639980867765628 0.01264272731735831 -0.03302496545447369 -0.1905417853202049 -0.2052467252602867 0.1350010285460687 0.01234701110456788 0.07887088618802246 0.09249942060665946 -0.1626567775880215 -0.1534690853886037 -0.01086328376749228 0.04431570617331067 0.09807338301229473 0.01886808356300721 0.02082121836211565 0.1512595584604781 0.02100636357271861 -0.003430638489674164 0.02500729105698357 0.09701139301036978 0.09082480438048476 -0.08467470204794633 
0.01062997370723188 -0.01295706144598437 0.04608376370904364 0.1115173193218627 -0.06265552034682038 0.03038897820059662 -0.08108654640201435 -0.2239269259509134 0.06794552890023271 0.03604652050894924 0.1214519798357482 0.1631125941800031 -0.02477497080885041 -0.04969935239795373 -0.02548978110979418 -0.1608333141632524 -0.04281935033851425 -0.06045782391553999 0.06927547254726343 0.02512049013803947 0.07506207150433218 -0.02512668141016304 -0.04577693080086784 0.08569325209183733 -0.07365675492549581 -0.07652971155932277 
0.01001085895202852 -0.03292975459254332 0.02053226878904356 0.007378114768754697 -0.1095124995063062 -0.03563836556884403 -0.1308192402847022 -0.4672029509760697 0.0757312454067173 0.1127205839652808 -0.0809841569545556 0.05703825274554887 0.0584375536424388 0.02405196113689242 0.08950650799307885 -0.06526746665760147 -0.1047488453260613 -0.2353842288476001 -0.007087370248738721 0.04018376093791964 0.04204482573210791 -0.00244158250051277 -0.08032975404666394 0.07957406428284358 -0.02361518071066459 -0.09774486454717779 
0.0274452180315891 -0.1309449893144525 -0.03790198478121296 0.06943127019836756 -0.1386995398958122 -0.031631636022952 -0.1093118470026541 -0.5839493147993307 0.07286306388380343 -0.01338259886403065 -0.05949294824701208 0.0196530367872671 -0.0352399992256721 -0.03260310552862272 0.1702369716755202 -0.1256271872981946 -0.04616256170945368 -0.3453905031931345 -0.04147475954196753 0.1264269122266125 -0.06428391907763789 0.03286869603486112 -0.3751957743010194 0.005878658015684439 -0.09845159624227505 0.005569644471266571 
0.0220065176093796 -0.1434705015498268 -0.03568480943153397 0.03110734348109968 -0.1878952247710065 -0.07743619247284977 -0.02671491764063896 -0.5029440538899201 0.03569305951988194 0.03882977842371492 -0.149825215686318 -0.04394099396281915 0.0466277777068316 0.06963357418096562 0.1354443602242857 -0.1508761659191171 -0.156472124758792 -0.1238039543859005 -0.02330668124158526 0.0175774061483232 0.04196828623589301 -0.06259649397029608 -0.2111083358186312 0.01114245140988408 -0.08862283605785587 -0.03453670417067728 
0.006590966074172788 -0.01596571637452448 0.03239611969213492 -0.03295738197864328 -0.1596869655041537 -0.005121195514724118 -0.0182964768507098 -0.3093383034819881 0.03831504410483524 0.06092553196309554 0.03440843653664517 -0.04910076369000592 -0.06929473112421836 0.05460724975658024 -0.03403348388986468 -0.09661714341164847 -0.08134985824602353 -0.1120477248586076 -0.02781316776342509 0.07853893940071435 -0.02549245061732133 0.0222376492523112 0.0003632037525470456 0.02974121105695048 -0.03794405715029728 0.05881451380962621 
0.02000934503374964 -0.1177101790812268 -0.04935423836040886 0.01843639367920945 0.1140350479792568 -0.1026913699201828 -0.02588123660652925 -0.2174109428757846 -0.004678547865553206 -0.02556098243391323 0.06851559789322503 0.163627845509429 -0.03735710665478371 -0.005908339145814893 -0.1692592092354617 -0.04148520179584608 -0.009725837714845444 -0.08700693991399949 0.0008841095775322825 0.02085319321763409 0.01696033415635722 0.08746532846952113 0.1041134848617205 -0.04236013419008041 -0.1163467775771344 0.05743582068762147 
-0.0975709643198541 -0.3071727123754748 0.03199354393183684 -0.2208345058895084 -0.08914011162150309 0.08145498441854826 -0.1485398752041773 -0.1574721456544947 -0.02217591047391486 -0.0941386443603635 -0.0715178489400185 0.1720597282795897 -0.05959610995299508 -0.1629172684509014 -0.253644063588104 -0.05506076098744622 -0.1139686699099476 0.1062171810465138 -0.1139295769239161 0.05947457263501463 0.0858811925454903 0.1146385329581305 0.1502426709065938 -0.0954636425663531 -0.04818865187757194 -0.09502817034647848 
-0.3358301363362398 0.04948070954850983 -0.1812754800548489 -0.1048590442451509 0.004666519710224412 0.03622225412859843 -0.1611045049813952 -0.2721627921272513 -0.01396590878330634 0.1779269810417246 0.03502782250830243 -0.03612265401582749 -0.2328993643698362 -0.08599214522892615 -0.05913305415793102 -0.03687006806963719 -0.1132999945548675 0.1002518423486687 0.06357893113092852 -0.03768859233520549 6.827182874427802e-05 -0.1434572066732567 0.01979630838330233 0.001551965081384434 -0.01385074402185922 -0.1069646113517899 
0.0642015857966427 -0.03448218423580251 0.05884792951630382 0.06474978816254021 0.02434357596650325 -0.06089058655423298 -0.1847886836027854 -0.4582482359257881 0.04612375765574605 -0.01579894162812253 0.0439973778777245 0.01382933582144776 -0.07082499235141039 0.02531099003575501 -0.05303282139833458 -0.2758014238605678 -0.1074689662111284 -0.1303535974623999 0.08485505420038117 -0.002849306014548204 0.05935042420213567 -0.04106237740037137 0.01755507875559394 0.08316188645425712 -0.06829048054196714 -0.0951949201318108 
0.01100642436078244 -0.1670398845830153 -0.01687325190538151 0.05307722390597402 0.07334916788551182 -0.01592583504841333 -0.1828155749348243 -0.4354114214989298 0.06794370236420734 -0.0570267365255895 -0.1065457246603656 0.09709797622025287 0.03588637824616728 0.06615764774375263 0.02840120460538444 -0.09143774539446375 -0.06780294525764556 -0.2373753957098313 0.05416122695618578 -0.01100386203387195 0.04466376391232845 -0.002831695883175389 -0.05612745279391215 -0.01285153284920724 -0.07445914901256312 -0.1478578672760424 
0.02137285925003565 -0.107767600988041 -0.01563846518130236 0.001068691972017987 -0.233042893795658 -0.04431278113523043 -0.1439286504282414 -0.2134014435814833 0.04837747710799289 0.049552379240906 -0.09907155079720113 -0.09670794731635232 0.0386170576582077 0.0829759711518344 0.04544297217272056 -0.1525454862134289 -0.06687429190183367 -0.4403524508881677 -0.02807212600906365 0.01578791314257558 -0.0003180535505888041 -0.03164705880047723 -0.3773873912560025 -0.01235792541319978 -0.1584065906312699 0.03650051265331614 
0.04026686138077398 -0.0167134825832165 -0.02252977665711824 0.008796569342826854 -0.1798534883313332 -0.03393808451823434 -0.1205884980822894 -0.2961277106441563 0.06361373995478692 0.06178315223364064 -0.06893154491308949 -0.1762821867828055 -0.007138769710797085 -0.061420949121202 0.1132090368373422 -0.3309734644977633 -0.09163684976632006 -0.1331546473809938 -0.01485869473624763 0.04390678908802429 -0.05238423353670298 -0.04580034248259184 -0.1618894721121878 0.04754088811592547 -0.08755908254343599 0.02026150708605795 
-0.07587345760096147 -0.05488334299485387 -0.05383147853913382 -0.002568282758114021 -0.05317289567355261 -0.0287111663054199 -0.0512212244709531 -0.2894459750141314 0.06653124279192676 0.0309329724990548 0.007596733199446789 0.02463470333940957 -0.0393362219068079 0.05151440945552672 -0.04756303364105539 -0.2131643525742002 -0.2422299307194345 -0.06183821387915697 -0.01601653178656157 0.08429356968912415 -0.1253637587717188 -0.2252057768760458 -0.1040433190829372 -0.03644083506378538 -0.1702183267458093 0.06653000594914901 
-0.05918949899564083 -0.134077899002523 -0.04786262651546311 -0.07198372944694462 -0.04749587235719272 -0.05757242341017565 -0.08796838035107435 -0.1135224079801048 -0.0398095490235735 -0.02940777887020241 0.1198208644178319 0.1218441757119113 -0.116861521183535 0.02414225774216737 0.008153019546393836 -0.1539281859411223 -0.1405960740741756 -0.07296781373058454 -0.08532723380017089 0.09405141256121254 0.03102426132877961 -0.05688513504940944 0.03256482788924075 -0.05008621640365183 -0.1542110831687364 -0.06874523683522454 
-0.0384492453158644 -0.3853091258942473 0.05185509159978229 -0.1251447117653811 -0.06872085118972976 -0.06774429213132697 -0.1792269187313567 0.04850665023791782 0.00554059923099647 -0.01586982140775825 -0.1556217733106645 0.151605487337227 -0.07569274946835791 -0.1554533725087581 -0.5397820307750969 0.03671996743987689 -0.1278116283535148 0.03702212062446381 -0.1100584399789921 -0.1227279229706385 0.03038981289184657 0.02403808453629384 0.143091142263581 -0.1713022586252223 -0.1001320915043849 -0.2060916933036976 
-0.2616821884923639 -0.0529855946553091 -0.01923097841487621 -0.1862684959135616 -0.03565400510017941 0.04204637502996881 -0.2114020316554549 -0.5200217788548198 -0.1019605088331175 0.0896862863162137 -0.0641144453092493 -0.07662838807663945 -0.2716039779331033 -0.04642994932622956 -0.06958160004087779 -0.08503329220487138 -0.09506276511298778 0.1202050437399051 -0.07127615008575842 -0.01604014614241239 0.04079256995281087 -0.05446665953278939 0.103457578067178 0.03860943148979031 -0.1000241595675296 -0.09780033312633205 
-0.002971908176776472 -0.03856818156866763 0.02532069283395883 -0.0443727494272103 0.03181025050647311 -0.02594573327005682 -0.08868925304354604 -0.4808618019417406 -0.0445353051634975 0.03844722704769851 0.03733966566808253 0.0137996107059218 -0.0692695059757546 -0.06893218575193111 -0.06808196686575509 -0.2001152441411978 -0.1261710838426917 -0.1298982501454984 -0.05270444524982894 -0.04548393455263727 0.1583509618866057 -0.03072549023251392 -0.04950815186257902 0.02915764930277829 -0.02421281820703963 -0.1024628675432062 
0.006207207298203331 -0.05430493669516323 0.01539554886237566 -0.01405662622099936 0.03173682206069914 -0.0453795635249907 -0.1410796582752718 -0.07095823363300585 -0.007256014848710939 -0.006649397834973838 -0.03316761404221626 0.002227642518958043 0.01075421867408807 0.02383526853205419 -0.02190289883215751 -0.2784075399802965 -0.1310744524980205 -0.2448574345959773 -0.1155568357999871 0.05077621002557581 0.009918854883304818 -0.04453694216370237 -0.1206090368210603 -0.03763608257967965 -0.06827842811407758 -0.04150743737335949 
0.0356823742518898 -0.09554764407169369 -0.07390628204286318 0.0449385602184967 -0.0663840475659097 -0.02192867823398236 -0.1104330952743815 -0.07622173928054198 -0.02448318039165967 -0.06336913550908185 -0.1640021551705861 -0.03301652243519551 0.08208879440060075 0.02976164034724378 0.142965168727618 -0.171076892487221 -0.07326047616419473 -0.3270481414567202 -0.008959093661494945 -0.03077065050626606 -0.1071282518752334 -0.07461198185028765 -0.2305834626113674 0.02180907926271203 -0.1321534075059515 0.002911568538354055 
-0.02566864226153828 -0.09425070470426036 -0.06533877498812768 -0.002024681359541498 -0.08011037653988604 -0.02358021773054584 -0.1151534832379331 -0.07229603347465774 0.02780254734634961 -0.04323601689053933 -0.02748550118435278 -0.05313184060411607 -0.02309474189769611 0.07735470607103527 0.09861325117608673 -0.1297631546573917 -0.1585635137428662 -0.1810800078825868 -0.06396545472771731 -0.01559180128283053 -0.1715041009871477 -0.08449226308908442 -0.1858227415144162 -0.03231329848082082 -0.09034559981041355 0.01646451564550902 
-0.07376259345431632 -0.05836926863527461 -0.01625113273170588 0.02299128542189404 -0.1043852665198901 0.03767787684482775 -0.02869926704707888 -0.1593479353996352 0.07422292150518706 0.0144205621290082 -0.02176268558375088 -0.007635733542149938 -0.09775358415790132 0.01035263982874827 -0.04070412096834207 -0.4083746311078418 -0.03655408489338002 -0.004729089767244473 0.04501691791204476 0.1013563260830496 -0.1429270525135545 -0.3075835839337352 -0.04789599683840453 0.006778392461802097 -0.09547621972208159 -0.04785705593929221 
-0.004240612611185567 -0.01608219101715598 0.02858338443415425 -0.05325749558187905 0.1143682649381842 -0.08173321118005909 0.02763988786772603 -0.2002021663194542 0.1323488882143846 -0.000767826043889956 -0.02278049601994261 0.1498511784472604 -0.1304713427927193 0.04152012767130637 0.01495676830045782 -0.1112489504711986 -0.1031779157776792 -0.06014480295799303 0.02304080021696734 0.0545006512305603 -0.3379506531878753 -0.2122883100953583 0.0293632626151514 -0.1117111808440148 -0.1351798872255648 -0.06435241307365841 
-0.079794338138353 -0.1875780118306132 0.0954487123232455 0.07636140049595869 -0.04455199882650596 -0.009009103739064212 -0.04449092116213176 -0.1966678711922418 0.04759451873924087 -0.06709503581157286 -0.2422322548156125 0.1786705588356398 -0.06193692202913061 -0.08730614146026763 -0.6570505922449745 0.1085869415770179 -0.3707341436320237 0.1513680225089445 -0.0910512039344956 -0.02768937791680009 -0.3078930661750802 -0.02775727785128638 0.07770483728849356 -0.06158328975792503 -0.1443324408782908 -0.01374169214657194 
-0.2313980319922765 -0.07827980012807714 -0.0606005791240563 -0.2222031369312489 0.02699952843654435 -0.039001244385641 -0.2587293621579173 -0.1064793148797929 -0.1080160049997633 0.1713341237984403 -0.1457888959373555 -0.2228962030195458 -0.1912552945208444 -0.1586227456200505 -0.199590506195292 -0.09580404554442455 -0.1973370118808242 -0.01490939750208402 -0.2054129524952535 -0.1589043561103067 0.1351685553352822 -0.1777967244053144 0.09115610992513913 -0.04813288618151203 -0.1328973505910179 -0.2047698276931062 
-0.09885705098223278 -0.03317553993022551 0.0401169913868738 -0.0594026978974317 -0.00857275500275578 -0.07881754062696597 -0.1894801383207342 -0.0344124422966765 0.003395281459275284 0.02538193585289292 0.02323800649470867 -0.04275061686309153 -0.2069229960204514 0.0274623539281679 -0.09419650932701679 -0.3476849672558641 -0.1160424239782386 -0.08870581779147986 -0.1827485437837419 -0.08288957503836221 0.01398516858099066 -0.1063410531373918 0.0768030484614307 -0.04886417310891746 -0.07525084335820653 -0.179406049947732 
-0.03845246169307836 -0.006441381817040554 -0.03709598705919844 -0.0589949204796655 0.06459829353573179 -0.01551329204151629 -0.1586796626314773 -0.07164458731539204 -0.09898333343777109 -0.01777996088034949 0.008621709888822522 0.01874761819784528 -0.1008870726370382 -0.02034101048084576 0.001632328061877801 -0.1484076100596772 -0.03165359694879634 -0.2790332707838323 -0.1281286658089351 -0.07684630913336572 0.07086066429595436 -0.03808076519530106 -0.1145480651892946 -0.03294905937393097 -0.05921933814832994 -0.1067074742998191 
-0.0293147064957548 0.002035775618058295 -0.004390638206967853 -0.1065259065366296 -0.01575294314807105 -0.0853769780475102 -0.09329873087133142 -0.06738532572665304 -0.09904925556401631 -0.09895083455137858 0.07429180183145707 -0.0006479684799076289 -0.1714779557932681 -0.02216615816867502 0.04454706066016999 -0.009042471139457501 -0.1129835395091791 -0.2574570938245694 -0.03721922606480687 -0.03922005017501864 -0.08253133706376004 -0.08446328409020562 -0.1909100513331359 -0.01538499049646906 -0.04389153080628172 0.04835989193810079 
-0.06047733605644222 -0.01636197799522963 0.04361099634774178 -0.1633776839424428 0.06600403077793829 -0.03010900313252682 -0.01348109726819295 -0.1127804461464378 -0.04986768875159604 -0.1092889746166514 -0.007646061264754097 -0.02016302849244613 -0.1996510860627922 -0.01796598119997976 0.1202889447588094 -0.09305898005130001 -0.03222422401358808 0.01600016649375675 0.07749306609232136 0.04328307736805095 -0.1066944183576956 -0.07120652215045616 -0.2185639215834117 0.009810874111128021 -0.1427314978211456 0.01624930376027166 
-0.03455715102659723 0.0185826594112301 0.03326235315379456 -0.09894170465395244 0.1105375128987871 -0.05266099837621846 -0.0643105691244036 -0.000808282733344691 0.06073309406881387 -0.1605022227886134 -0.02503503203756288 0.0351655331800873 -0.1617854337313908 0.04107848317995578 -0.09104681285866457 -0.393441144319282 -0.1255229268409128 -0.02158413001267542 0.1040086290719214 0.10193424913014 -0.2301087928719522 -0.1819592094924313 -0.0666281393561734 -0.06518665940394044 -0.1698392898015789 0.03523104580165425 
-0.04534847081271728 0.03398387217214504 0.03508878932905845 -0.002201655555043073 0.03501362218197604 -0.02741492949438344 0.06665296641409767 -0.2504963321054978 0.07555090561090871 -0.3391861324949336 -0.08914704329137967 0.09428846307429083 -0.1038804799596477 0.06649881895124035 -0.2038574786271705 -0.08039078449072114 -0.1483317335280328 0.02711165637926464 0.008376058858176973 0.08208808088816295 -0.3669140074326138 -0.2529078544086833 0.1057774160172251 -0.1406096284966947 -0.08254103059985438 -0.03512236613557219 
-0.09316252919381254 -0.2230446939402694 0.09515035952902114 0.2170241665014974 0.0351630029537413 0.1060432530912029 0.02769142543130554 -0.2154049244270284 0.06195010128246281 0.0228452898336793 -0.2957601771454815 0.1312908386059118 -0.2780860174671831 0.04533813875049154 -0.4668456445469989 0.3873224908241804 -0.3955815314891402 0.08040820676827549 -0.03863383257440759 0.1392814708138912 -0.7519450480459209 -0.1815282378593793 -0.09836718084614521 0.00152302964990126 -0.1181464877740015 0.01262638719830303 
-0.09308746318645357 -0.1369433644857559 0.03968939915287523 -0.09467051358205139 -0.1759024913492184 -0.06727508149668603 -0.3292422797814057 -0.03439457420793367 -0.3041990558567993 0.08378575436094206 -0.3761244600425128 -0.1765332406845415 0.1089991826699537 -0.06558946994839834 -0.14042572264296 0.005144826965684916 -0.1343015227002168 -0.01716193011487642 -0.1359216492621478 -0.3255360745318129 -0.04374571593281816 -0.1852997263947875 0.009609177870183852 -0.1708635622814118 -0.05537658523361613 -0.2188849502333847 
-0.1704781081090711 -0.04096848731523304 0.02791966518428626 -0.1411648668968855 -0.03526133927340239 0.06241775969638091 -0.07435593533487005 -0.02369057829051264 -0.1506516960372829 0.1540548821768426 -0.1489434506670341 -0.02668346011583428 -0.2141129708181198 -0.1337026836809377 -0.08073634738631184 -0.2733173642606271 -0.04405717785454333 -0.1171741785107056 -0.1169679299281994 -0.1577794349575857 -0.07287443481336896 -0.0478281121623385 0.02152937872570017 -0.06836838281737737 -0.06088156549375197 -0.16206576627406 
-0.1257215006807277 0.004590177831141433 0.07010055364064773 -0.1628081066195306 0.04655863528599326 0.009339568800811483 -0.1453779978171556 -0.05481864273929152 -0.1130075642816786 0.01397654215713835 0.156059173202884 0.09733145852404063 -0.3193654047341681 0.005843606176820083 -0.03910916250336356 -0.04504530812179913 -0.01040457692941973 -0.2497177851117287 0.01565833228081129 -0.09606306998612757 0.1038447580937483 0.03360696616162458 -0.0507698872341855 0.02258153404431496 -0.01911454251154211 -0.1124865162925224 
-0.1103573293588006 -0.06257171398951127 0.02898968567381924 -0.1629378095267886 0.09247419409733963 -0.006167215885217408 -0.02041779880482677 -0.005550277268083662 -0.06434747181675868 -0.06628632322807343 0.02596780650298192 -0.01260013977240063 -0.2787501422352466 0.009061522956275134 0.02494785935794248 0.1311975700246874 -0.05759861414453044 -0.2330204944136798 -0.0003974710356702109 0.03915736517379145 0.03979943060822109 0.03322944186032406 -0.1582584476942237 -0.05783950230833294 -0.07746735681927235 -0.04122040260012542 
0.04732920668344634 -0.0713998788528802 0.07482018723278233 -0.2297649075440734 0.2468531321452502 -0.3267194891136184 -0.04635502738375355 0.05558854804578666 -0.1603399720106841 -0.1328252947427132 0.0004834390124112824 -0.07864507565462571 -0.09303214911235566 -0.02599066330752133 0.04690255489510564 0.04434821328027135 -0.149673496015945 0.02502009864281789 0.002956422065088673 0.0167254185136518 -0.1049227243861336 -0.02904824122197365 -0.2299306663505373 -0.008930180027545611 -0.04431530802468649 -0.007852198348016336 
0.08084951972918182 -0.02882819877438736 0.04677483985200506 -0.1055126696569459 0.100493483893817 -0.1267012458992987 0.08077405178371359 -0.06273156528573259 -0.04347436221754762 -0.1348743967930448 0.01912561131942842 0.01610572177730828 -0.1696308719736424 0.0703782720033008 -0.161947841202903 -0.3003135937448692 -0.01948412027022307 0.06611127127914718 0.1189020169879381 0.01909350417757167 -0.08343561636540904 0.01930198519218066 0.006930554899348622 -0.1334914317346987 -0.05654755482635436 0.01963134865249137 
0.05425921973133737 0.01660892801362494 0.03952056787579784 -0.05743182188565966 0.09076510450089542 0.1238490765748606 -0.00657483248754809 -0.1389170574517742 0.05649577891827057 -0.3998710628027615 -0.1977206138102889 0.06707524804809537 -0.2169117843650039 -0.0078355808609753 -0.2804028575364734 -0.1591115694012884 -0.1305614613849513 0.04124968231782537 0.004300407680824334 0.05164983121599903 -0.23932760265163 -0.1330246793540398 0.03458678094453707 -0.08986427516443821 -0.01763521612178163 -0.003207335722384093 
-0.09048485664312175 -0.09224054328359567 -0.2684595450966219 0.3447820745501763 0.191836505340829 0.2251973064933641 0.0139651436379123 -0.2109069841929284 0.05187375608981834 -0.3064086868741049 -0.1002290588740158 0.1047808716490947 -0.6544396170797577 0.06076857065639635 -0.2249556363741348 0.2464908540440921 -0.1136458334443126 -0.01027066432985213 -0.09705478842404523 0.05402165118751649 -0.1036257801504018 -0.05378745429518231 -0.01019605366606075 0.1133327738082274 -0.08012424827859382 -0.04254638820708521 
0.07554975042107097 -0.1326619376100171 0.1306398033075598 -0.021527712070307 -0.1793238415550266 -0.1296968478844402 -0.271824773814954 -0.1618822324244469 -0.4039948472662364 -0.01095395731038004 -0.3935645438998429 -0.1532705789188653 0.2912324412529013 -0.14391649941403 -0.09300052166926397 -0.2426989898269638 -0.1609022617534207 0.1487042921965888 -0.2245906432957923 -0.4286779543017898 -0.5236226663759849 -0.02930584006719389 -0.1512488984836099 -0.2518125522966395 -0.1419234733943512 -0.1972800007802328 
-0.2367537161402664 0.03255055096430035 0.03199081436382641 -0.2421521657589191 -0.06571533022693533 0.1344189940412284 -0.1084644053118259 -0.1638223716996674 -0.2472959438358098 0.1508313821077475 -0.1666912350431142 -0.1009316283084117 -0.2179072115183034 0.004794296064723026 -0.10604821317111 -0.1532042077475523 -0.05126193186435826 -0.08983521727653791 -0.1622326092930529 -0.3308326562045377 -0.1964512396460264 0.05357947075804205 -0.1315298785492079 -0.108038276822066 -0.05455616288732229 -0.2359348081125102 
-0.0990986060953806 0.08264030858359075 0.04741524498752474 -0.1804158651838073 -0.1787459915114838 0.08639311084797829 0.04282297512702724 0.02538094154940477 0.05333782529440461 0.08813891496505105 -0.002716597147451367 0.01400038658018085 -0.4500935523684605 0.02627976838135328 -0.09358211259228137 0.1325147782906508 0.007948150118303882 -0.3702430445604699 0.03438077445903669 -0.116106305922729 -0.05421906355975208 0.01648381861288525 0.03867420551355152 -0.08953921984211019 -0.007387829423255644 -0.2145743121961959 
-0.002156214892188067 -0.08280045342048226 -0.05835986738606848 -0.3730301935169787 0.1799967886583259 -0.1261499167334942 -0.09302379499710965 -0.02512895962203411 -0.1688643182633657 -0.06750376138771745 0.08262843102090461 -0.03389391464320313 -0.3134260826249725 -0.02177139464619999 0.07839818016888875 0.09176346254682179 -0.004183567066740293 -0.1559526935414489 -0.01444559304332072 -0.1536444967718291 -0.0551700850830773 -0.02831352960982671 -0.09818415475799967 -0.05280301535228898 -0.02820323505335839 -0.09108899714790486 
0.08557199815908055 -0.04786754085368303 -0.05178100594905954 -0.2281579024026497 0.1904090411457634 -0.3455807437345065 -0.03207004567360938 0.008671927724665931 -0.09941080585646148 -0.04630501391245632 0.02412959029032062 -0.07170554072677522 -0.3390994812943119 -0.04645868478251605 -0.04932570034691047 0.09199659514678191 -0.09626431392943911 0.007647708223753589 -0.01795276659895191 -0.03597724156928332 0.008357179583561233 -0.01772032510805583 -0.1128466112772014 -0.1248078416161269 -0.07374097999507177 -0.008950059271121654 
0.1655385523810909 -0.02220792623876687 -0.01410495548483054 -0.2390876313255542 0.0127750854821139 -0.135839004345808 0.095235926173135 -0.07322581036893804 0.02121847775689147 -0.1718134083639493 0.003939698301345877 -0.1577480712348036 -0.3082989241204494 0.09645768710816384 -0.1903140147026516 -0.06014645441538598 -0.08390693370919722 0.131522328274086 -0.05447461819948463 0.07925048019518088 -0.02185651849568003 0.01381561958674885 -0.09638386664999825 0.008671510337486008 -0.09138212966919923 0.002155026728255714 
0.1077457969892558 -0.06169160008168049 -0.2714082155559499 -0.06657561188655264 -0.006520807051441546 0.2042387729488736 -0.06204446689034474 -0.1001687887470184 0.07156976910167988 -0.3194036052658166 -0.02151087391795779 -0.01325375002644141 -0.366066993097738 0.06931547368663163 -0.2504321058984332 -0.1139511575849042 -0.09221490005317612 0.008004253079585045 -0.1524042462481256 -0.02703198763161034 0.06457190442015574 0.03022352885826027 -0.08910609095585871 0.05167827200491906 0.03939186554158011 0.05020645798915734 
-0.1523040889464388 -0.3007122679774508 -0.5078431315505654 0.3970817501056987 0.05256045334298531 0.02651598855312661 -0.02388625299888197 -0.006681761910765668 0.05384843272664631 -0.4266744213991864 -0.2010722976854267 -0.1638043896043756 -0.2049124934908782 -0.09505902418152672 -0.1763208572745165 -0.07592774079646619 0.1440185178784848 -0.03090751832380093 -0.1942468425521862 -0.0642462712428975 0.2677421291622816 -0.1890682910339241 -0.1201814166333561 0.03978413374966545 -0.04792136982448299 -0.08681995289929896 
0.1522632741954672 -0.04810675972001541 0.1073552485353857 0.03066777326924494 0.01137591498747026 -0.0581328205565517 -0.08751209821331735 -0.1099574662159805 -0.2544195623888347 -0.06575820329387953 -0.2412533074054188 -0.2494710693056942 0.5641781624725092 -0.1758893038674363 -0.08025017791708493 -0.03894459233026193 -0.1498245231850573 0.07593064360156333 -0.2992599410767517 -0.1959468661103254 -0.5414035571539518 -0.02469811110514061 -0.1207363681628483 -0.1627392048389496 -0.07622784080140969 -0.2497814685069364 
-0.1036877060491199 0.08096171510343024 -0.04563775855663766 -0.1736050889202539 -0.1668568328712974 0.003803460299210527 0.01250465287253218 -0.1289497832723225 -0.2686383063759336 0.11136965806383 -0.07590357246314891 0.01702140151249303 0.03956847478842941 -0.08508421292850915 -0.1384515192537768 -0.1302589092868887 0.02938870959399327 -0.08352904685816367 -0.04364825079668814 -0.2467859756748595 -0.3477176905519854 0.0005606359638689849 -0.04574056771020669 -0.1581164512393496 -0.05133639837534382 -0.2071761719124987 
-0.04259795628155032 0.01650683421546306 -0.1250486823708156 -0.2615799475403951 -0.42437124410175 -0.001429088246930566 -0.0713191071940082 -0.01487901405123297 -0.1661773177400762 0.07447443822559166 -0.07596670599101607 -0.1278355257438626 -0.1655399808128367 0.03631058839310436 -0.1205152953742602 0.125495868602499 -0.007670614673742996 -0.2020810424124924 0.02221690443661252 -0.2028696181441055 -0.3200283372168437 -0.02495502253616837 -0.09102798758745639 -0.08352061491507684 0.03110200298424619 -0.25328142147135 
0.03680339964476963 0.003870305489701666 -0.2112617069793347 -0.2557573153598131 -0.007929612564775618 -0.07972289615881534 -0.007515800291073955 -0.001636107583227369 -0.02037729222177454 -0.004414927612686757 0.04227187683990016 -0.09086100300380942 -0.2958614742104103 -0.06493627661682998 -0.02201158131948261 0.200807839124556 -0.0332343495460834 -0.189016175041802 -0.04627952947584623 -0.03824523772130462 -0.1363485767425014 0.062592304880493 -0.007831860331576476 -0.04754618692485588 -0.02090889330186234 -0.0786365817656491 
0.1054563093335322 -0.07294857086843277 -0.2467742909045089 -0.2005959785361184 0.1251677478839404 -0.4041158168636573 -0.03016297327858418 0.02156876621485802 -0.07966655826647677 -0.05356833804607268 0.1276991291746936 -0.1051901379994182 -0.2674356022713525 0.02998093474019693 -0.009293316784977872 0.06174816653358021 0.03035792947469446 -0.029528345701177 -0.08096815491847104 -0.08590828636466735 -0.1484440042229113 0.00858402598028489 -0.04833445775071287 -0.05791711705177011 -0.05073666428896926 -0.08793654501348902 
0.2010448066834766 -0.09220223185601746 -0.3334420276797929 -0.07298380709683144 -0.2597052435893971 -0.01491443720359033 0.02779731268307236 0.02307985251426025 0.04389096498243245 -0.1461533562094098 0.04652895166288192 -0.1487272037862473 -0.2078796670942828 -0.002912365722496998 -0.1442075640389825 -0.04148825757676274 -0.1082869884203176 0.083848525083617 -0.1820171076061707 -0.09717001603072536 -0.07168177083053941 -0.008009372192965911 -0.1252534505271085 -0.07680236407976396 -0.05707262626583606 -0.0504681377088445 
0.03915787393456914 -0.1276512699607891 -0.327907055290632 -0.07767085412363335 -0.3286898393821891 0.1065853021352258 0.02351816339581085 -0.09860120613559488 0.02613163190512164 -0.1970371992960664 -0.04896377008815329 -0.2769491041318276 -0.00557437684783466 -0.08296796163465793 -0.2809477357073835 -0.1398403977568022 -0.06760060159805621 0.10336546681791 -0.0749003907356566 -0.01850643001596475 0.1532010357757897 -0.1225832988040947 -0.09393297446638146 0.04996873069549821 -0.03092753774295288 0.01793051000332865 
-0.07496111916706939 -0.284333719843001 -0.1752237662658594 0.06008171831484062 0.01461565751596923 0.1352348534777509 -0.04512874265156679 -0.1112252044165887 0.0004709711707162344 -0.4997810049577147 -0.135905906951045 -0.3473937841431067 -0.04520731654464702 -0.2400609703864248 0.01777996230412727 -0.1384285365074716 0.1496139414072692 -0.0221398810776145 -0.08583911207523202 -0.01401910543216984 0.2019661074275319 -0.2622973688012357 -0.1531428464661962 -0.07872981302912932 -0.02646421034130355 -0.03880990345033215 
0.04908834855019362 0.05708291857008299 0.01255861851603821 0.03328334326079966 0.02322875015144724 0.005105622295136596 0.05638820844733709 -0.04643228295314214 0.01458709584736599 0.1071887913474137 0.1063763851454406 -0.2418274872500007 0.0568738532849826 -0.1474811099853418 -0.009065572789472535 -0.08404233170085501 0.02246253696552401 -0.02014985339001187 -0.02520353452731936 -0.02587971752987836 -0.4547988449793586 -0.05839585581871387 -0.1448335751678874 -0.05064104697347498 -0.09946623789465264 -0.001959148341192019 
-0.06430522180985306 0.02913878579138766 0.004712226890697753 -0.03295310051791114 -0.1742372297955427 0.006513916560244327 -0.02647092790137105 0.03486132523270589 -0.1766439758079676 -0.03265563461130615 -0.02075197334573108 -0.1172912625897464 -0.1069661200765191 -0.1092096491764754 -0.1642370701286939 -0.001652032940927286 0.007153594195239033 -0.03737783250972491 0.03990028936595091 0.01453958872788438 -0.2916707379505479 0.03368255355655977 -0.1158703626800375 -0.1451023852208763 0.003351299852904491 -0.1071736617605635 
-0.09937815553001961 0.05163540179622652 -0.006411581274060128 -0.06358034013532106 -0.4328135998464293 -0.1196400823447936 -0.08430146789610654 0.05217747908051557 -0.206104639537561 -0.01594304733415916 -0.1309341849655993 -0.1702580342862917 -0.02003557131998128 -0.1019092940049449 -0.1890084944099473 -0.001256406460108662 0.06643192342934942 -0.03388360885308128 0.005822531694875326 -0.04337357171540496 -0.3456125125970044 0.05337218776194137 -0.03526933769273465 -0.1717840190585474 0.05382987354127836 -0.1925285562577813 
-0.07190755513239998 0.02422070235923491 -0.0754551960149894 -0.03837818501014188 0.003641181706260242 -0.1978177600695586 -0.06180449076796899 0.03769581975739011 -0.2204162742412549 -0.01665092688192951 -0.1113074490968842 -0.1470516093487899 -0.02911889083600724 -0.0542577136744962 -0.01732246295266638 0.0675267381974269 -0.06068027401361404 -0.0100702842361896 0.04301327493567661 -0.168267789178612 -0.2870673944902218 -0.04177286305810823 0.07128352829816742 -0.1028888807435966 -0.008848404871396175 -0.20835647432403 
0.02031176079875431 -0.008683474359498861 -0.1048069567482426 -0.07686405055935355 -0.01298203117085269 -0.4049812544735837 0.05260431205250723 0.07560759228636282 -0.1159171736049227 -0.00190661917735615 -0.09494107337983276 -0.1806817742302017 -0.04741153286145024 -0.06409813320440923 -0.07785795103967384 -0.08835059928041697 -0.1250779310593748 -0.1033742370288944 -0.07409225013161141 -0.1249089002060553 -0.1253418684897029 -0.0006696529995381052 -0.06289417850892977 -0.1166642059263935 -0.03135040834801209 -0.136521400415392 
0.04063612959717459 -0.02752852850473743 -0.04516150652859264 0.02322841714085343 -0.3854078319127577 -0.004978925819015406 0.050106590290661 -0.02096870625298911 -0.0790846106912839 -0.08256676814156684 -0.009308391554250655 -0.2748197409646683 0.0212958186573478 -0.0112481451324704 -0.1739822546764481 0.03444063088003319 -0.08783795297353336 0.01848110006924583 -0.00315626639845685 -0.1805189516659993 0.1968781922806866 0.01247847319946478 -0.05229104693760973 -0.003259445204817783 -0.03908602827740149 -0.05095085575202298 
0.04981755095202744 -0.1952659663019493 -0.03695344348869082 -0.0722067306986698 -0.1043502894566392 0.04252692275881655 0.08303809190656058 -0.1757381297280529 -0.02505353192756784 -0.2376383913828948 -0.006368657730610684 -0.451701924633944 0.003037750777505267 -0.1331738347871576 -0.1129397669784261 0.009319944788074104 0.05554391639069702 0.06456990031415349 -0.02172986009574001 -0.06629092687087552 0.1845507679465318 -0.02950870075203996 -0.05741380615764818 -0.02202441324988712 0.02401086227307263 -0.08944653841588839 
0.08080696599704869 -0.21925346907934 -0.08090694387744521 -0.1604518433196035 -0.1420604244710857 0.2314384604675806 -0.1075398471501239 -0.1003152856992416 -0.05091143249737241 -0.6419335307102152 0.03772312779655928 -0.3833856282398678 0.02617970535099075 -0.3382374869489688 -0.1273812584090754 -0.1470890692103931 0.2093784894647591 0.03799506179558186 -0.00317926530396248 -0.1789367573929768 0.1530904558920146 -0.2453966121407834 -0.1444930426421769 -0.1683866254186756 0.01180803237338321 -0.07213432083111686 
0.009823972288573485 -0.03975485767219737 -0.1246018949096035 0.04248943542707211 0.09904870951608812 0.0926496067375925 0.1734782328550824 0.04128025735764052 0.005004311838552853 0.04106303851892988 0.07497634070578356 -0.07991364337265393 -0.0414360247402856 -0.1502996151017107 0.06607064296843562 -0.01207906340937308 -0.04831182661380313 0.02523776557343657 -0.06013042977120538 -0.09347946555759543 0.1245140609758031 -0.03977953158256163 -0.1303819140853636 -0.08626322281672585 -0.002058216935390854 0.08280598351767682 
-0.01579616619265041 0.09322603938850148 -0.07405340820535823 -0.01800741794011193 -0.1472611016133229 -0.04678923450798465 0.06904520700510741 0.06031064927073444 0.006470729941066176 0.03291521529726224 -0.02875852327398078 -0.1395793249328464 -0.06342585978914977 -0.09349744625617003 -0.06493298538618414 0.06292439240901312 0.04490590098609933 -0.1167621223265016 0.01540251079282401 -0.07961238878314192 -0.09186932117345099 -0.03676658342223697 -0.06281061965764101 -0.03173544613408157 0.1179415094580075 -0.08579164677247511 
-0.1173114096077599 0.05920279645056955 0.0002480174309177846 0.02262071313766596 -0.3772293705070999 -0.09388522805830446 -0.02291743825615422 0.02815429788643752 -0.1838194531253756 -0.05862967229409556 -0.09268966939319172 -0.1527083371092234 0.005672830656751129 -0.08216995276855434 -0.01482675463878182 -0.09936827108652353 0.03403472016198138 -0.0004958653530275706 0.03939643394354483 -0.09027054272551352 -0.1106801337037477 0.01724569641895885 0.01070994888885777 -0.07009416843707014 0.04209799983843353 -0.2388393592808364 
-0.1278469494793453 0.02806123981597974 -0.01978929696394047 -0.06572156207079827 -0.1565052200758135 -0.4193715689618577 -0.04908063452969085 0.04961129124629887 -0.1930835689618737 -0.1127533651262364 -0.2523094094487063 -0.2469565528136155 -0.04024489702754143 -0.05722849093511665 -0.04163986883275615 -0.1598430319877046 -0.03105588151719793 -0.07854419099839352 -0.0489703276917265 -0.1772067615058154 -0.1016149154390502 -0.02065321830675615 -0.008049635986528803 -0.1735055737092974 0.01201887516027981 -0.2600360215946693 
-0.08262424096265983 0.02317165583364174 -0.01520862930668044 -0.04950488938037455 -0.2397955969183148 -0.4544534806330515 0.02647719592638909 0.04873347977530079 -0.1857855262557008 -0.08754270641107274 -0.1010028119563679 -0.2542659817781533 0.005603690516126704 -0.04532467311593106 -0.1054415488726975 -0.1728118852363138 -0.1084962061269454 0.01452504102020002 -0.006333223975301307 -0.1359535933387882 0.008679665866691423 -0.1116890008549969 0.02115052073748321 -0.08373493985393803 -0.06487209869907759 -0.1816230977797193 
-0.06974028470452151 -0.01455926028366301 -0.004931404331513166 0.04403880597619524 -0.2701438411218765 -0.02238452963617013 0.159371866820967 0.03550299827536292 -0.04753426276329189 -0.1732236768332056 -0.04470194927467669 -0.2685381497630823 0.01112971177850064 -0.07038902523108759 -0.1448528737621713 -0.0472920064916477 -0.06698859745106772 -0.03107984578872504 -0.04744709416773675 -0.1050391140692484 0.001664059657256923 -0.09189027592319553 -0.01955298674922874 -0.08741648923544679 -0.1116663682003847 -0.04248003984608555 
0.02690798828710331 -0.1251297667534754 0.0213035876768119 0.08928152882809809 -0.1358945370770717 0.04068826869252031 0.03890901402364703 -0.09600391638976885 0.01600909995918967 -0.1397285674227011 0.0005307443090084565 -0.4065868903176748 0.02130464678917719 -0.1188720582450807 -0.1910812940571825 0.003655514004190905 0.158282249835818 0.08648995144047963 0.07059409005594175 -0.08115057813076389 0.08721022361231687 -0.05398352383000058 -0.1144740624390402 0.03930586262627992 0.07133775743403668 0.03958546379369206 
0.1184457665603692 -0.2696169371962072 -0.04242730823989328 -0.248090121205861 -0.0034871350270677 0.2371414907490212 -0.1182008369688836 -0.07264851359194976 -0.06420599138301468 -0.6303621661431855 -0.05211910419742997 -0.3605528140678671 -0.007333344717726776 -0.1636653339235994 -0.03600363233023797 0.04238988706265327 0.1836536424363145 0.05883277071224712 0.01669258040455699 -0.13310814655798 0.2763685255235857 -0.1238146027876317 -0.09497855744364041 -0.1273314882748642 0.0486001421138114 0.04601402910600894 
-0.04457288475546772 0.0969063892473303 -0.1253020059148386 0.0525883272202111 -0.007015213809673276 0.06422449413415424 0.1311037974180852 0.05234512883498856 -0.02832924866530857 -0.008821359712389681 0.06235676577604272 -0.1530214298867645 -0.147435102995072 -0.1960575954481281 -0.06415637778292944 -0.0959908728610584 -0.1177507487749638 -0.07493490385008816 0.002466761346555942 0.02098568614511187 0.06104528543322418 -0.3727497233484919 -0.1800231278151531 -0.06440261054281392 0.01847257679688802 -0.02507611592750032 
-0.133997491109807 0.04877406153708556 -0.004789495249047374 -0.02776810712209311 -0.05426252877714049 -0.07216167187339531 0.08239673177220744 0.01540662872062682 -0.0008692840514042148 -0.1114174808080718 -0.04101345869321722 -0.05552085494399948 0.02141875948777198 -0.08763933854490749 -0.006403601783752768 0.002354703361008302 0.05848131547371665 0.01451185769230093 -0.003767386716483471 -0.01554930237169998 0.0330308788997154 -0.2008864274830079 -0.07681110462496583 -0.09961682093119703 0.09872685747841342 -0.01434545316570568 
-0.01582103811137438 0.02143102209270716 -0.03314379272037124 0.02215102930811212 -0.2966599664219154 -0.1194206543128777 -0.06769522513513467 0.1288027125312665 -0.04803729973158496 -0.1250432578761385 -0.1458628139819166 -0.1805322017611136 0.03645397309012711 -0.03499191517989526 -0.04565020721656742 -0.09507741657083825 0.0275213309213919 0.004970341835499201 -0.05741057250974593 -0.1306744845335243 -0.04705271301596275 -0.2264474075895797 -0.05450934197146256 -0.07657358921462011 0.04063851887527958 -0.07048643844484044 
-0.1935194182900239 0.00687208675263178 -0.03574277665244686 -0.04535038219097422 -0.3788028466578946 -0.4949100712796808 -0.07047546931029022 0.10549380665357 -0.1129456163901576 -0.1127873985860206 -0.1699085314163233 -0.1719079848858755 -0.0514023027742012 -0.06021144383989501 -0.01799697230264848 -0.1732595981034512 0.01368081551784963 -0.1303921650134759 -0.1272845653152589 -0.1540250180167171 -0.1485478262447434 -0.1124778827773779 -0.02540223207906028 -0.08639112423516435 -0.03291007291296139 -0.3344173486292589 
-0.1312990064372299 -0.02465021012409967 -0.05710202668905767 -0.0358563162769282 -0.3425923220094089 -0.2963230435850732 -0.01451220045023234 0.0830724773572134 -0.1520672997235153 -0.1348710001924892 -0.2016027862292013 -0.1046272829357337 -0.02369425907398003 -0.03710787633840571 -0.06782126982295004 -0.08355023794569626 -0.127544886261867 -0.1120226044288738 -0.07867502225438784 -0.1640286437101049 -0.06336800675916066 -0.04344288053757227 -0.0442215739170116 -0.1272259868726068 -0.09462116376892622 -0.2655220323927968 
-0.172419935385587 -0.0182715351695877 0.03743584383310326 -0.04206369954565194 -0.09054562238165019 -0.165563259076335 0.04078633314078521 0.0632618347103196 -0.08583630944469212 -0.1698941466044493 -0.09855717514733023 -0.157133312676672 0.08072620692533825 -0.01657345836897111 -0.1053624529962572 -0.1086242878542289 0.02579948864533109 0.03636344452884587 0.03196590372140057 -0.1615855753823056 -0.0305794119326723 -0.08635206105895944 0.002182989795686174 -0.113250470827338 -0.1922662607290421 -0.04365710641779513 
0.04019223092513211 -0.08834836410138033 0.01162765843011128 0.03112919094107099 -0.0433597315031635 0.05906879659346004 0.06548706363043198 0.08288456296452376 -0.1087310349515004 -0.2559635841889243 -0.06659761818501657 -0.1432670326587723 0.03059706998066782 -0.106552466319274 -0.1330884913456745 -0.08589816602109936 0.04616627060806632 0.03460572789960012 0.03078687228465095 -0.1027008274343447 0.06890814941286304 -0.22416118685602 -0.02242171360640218 -0.2225829541653477 0.05972037728430233 0.0007779018709994359 
0.1318420315700569 -0.04315350978774452 0.03018372123332386 -0.1872642471268507 -0.08884029158096944 0.1403815519097356 0.066110567221004 -0.02948015355059956 0.03113790024441946 -0.3708726332411188 -0.06266153464557757 -0.318632744744508 -0.005626140261353583 0.0002972233581509526 -0.2059850446620427 -0.1572435973692654 0.09267843496416887 0.08800894151758941 0.04916804072389219 -0.09007364157836832 0.006910603469686336 -0.1197209113529666 -0.1203545031238948 0.01551448877135441 0.0923080102029631 0.00156518781576015 
0.03767957401002402 0.09817531065174429 -0.1750972744765044 -0.03416065755922048 -0.04289393121483208 0.05835925776720181 0.1781852057513452 -0.04572645220752189 -0.0004780512899073901 -0.01526906137432057 0.01683154910300406 -0.1670159717805581 -0.09698205193385261 -0.2504726987612226 0.01735866202421893 -0.09665436226292144 0.03664052347590726 -0.02407546000823771 -0.1091108934613497 0.002321772640033799 0.05407571104166812 -0.2746552837198608 -0.05816618473270466 -0.1337343153718922 0.1220781927154323 -0.01075730004027976 
0.0250521814019666 0.1065422648019335 0.0337383558652958 0.103933852316979 -0.1088119056224402 -0.08189248844277199 0.06999489926074444 0.06566422549037239 -0.01462276661599726 -0.1031008648175672 -0.07328208262384446 -0.1091491231957404 -0.01042568140450132 -0.1329621955460272 -0.02429752521202207 -0.03901635230193503 0.04923923511840371 -0.01706860822055791 -0.01841187431646066 -0.06554072488328359 0.01985881474111482 -0.3022716394365019 -0.1297963860655592 -0.09102830206492421 0.08889017445177438 0.01570269750886721 
-0.05990502579703095 -0.001388633246692247 -0.09195156798533702 -0.02897229935613637 -0.2807499946371223 -0.08051673144661062 -0.01168285028501359 0.07623735963126908 -0.08237594308464466 -0.04852291403404322 -0.131407371151753 -0.08823389126014458 0.03080695561113335 -0.05966602465721499 -0.1230645529948299 -0.1010712610972627 0.1257655064331177 -0.07719215642644561 -0.08191620514315186 -0.04852856776757179 -0.02371417190153196 -0.2290593469988801 -0.03896590076905451 -0.1510396831235188 0.05524083369024968 -0.01823456962656567 
-0.1969377764255636 -0.08066823855669626 -0.04438532796431049 0.001142363670405667 -0.254035506053258 -0.754321318007112 -0.1114377561885359 0.08925704522692103 -0.09910361295928796 -0.1530074750345052 -0.125069953030975 -0.1477636328193411 0.01058367724052147 -0.029727118379377 -0.04474075485973016 -0.2102474275657346 -0.08465159211872428 -0.003907463249746678 -0.04892105820433144 -0.06532736656261559 -0.01469773399389822 -0.1038532264963513 -0.05979542580290978 -0.1092991850783989 0.01592271449047272 -0.1736750922216085 
-0.2110824332716011 0.02849238909430457 0.009272362330290312 -0.05723309551104688 -0.1932792151946894 -0.322367439962517 0.01123305785484485 0.1113716178473965 -0.04489190156448343 -0.1999303360950541 -0.2402877018271886 -0.1787858487929644 -0.05406446991117168 -0.02294870711917004 -0.06934796329715197 -0.1657552868160139 -0.01466963332135494 -0.1235079249066789 -0.05949855355313963 -0.145754100921033 -0.2162398959845134 -0.1445644355828346 -0.02047791891842687 -0.163333569202679 -0.3182383153894911 -0.2984853155725324 
-0.2432925915213808 -0.002595184979226771 -0.0170737112584675 -0.04972244517335524 -0.09006615043407085 -0.05825272897307851 0.1545772323499002 0.0767391786694458 -0.1264593009072246 -0.1235535629937703 -0.09296829135358106 -0.3249555638354122 0.002625011428851231 0.008590374595224172 -0.1431246252790633 -0.1277425833843271 0.01271344484935692 -0.1111388317081809 -0.03248085148370065 -0.1824144882771346 -0.04360600715131541 -0.1807779715571098 0.004279870234294706 -0.02256196552984258 -0.1957583299933998 -0.1408166363915904 
0.03269532260897642 -0.03615653788914105 0.08587345343608256 -0.01512049167501935 -0.1234207423633609 -0.08279510616032505 0.04391960249652362 -0.07317197668014004 0.008167278698384248 -0.2384727145309261 -0.0225458875744603 -0.1396491052263112 0.03659634242785095 -0.001278846309156418 -0.1162340710498827 -0.2078488740989709 0.05820689042340806 0.07369036607991554 0.04843689031716812 -0.1650900957296867 -0.1277772812321547 -0.1462514565647612 0.03950282201363706 -0.09998443748464506 0.11613026728272 -0.04938884284576023 
0.1234853669487546 -0.01379545994713023 0.02117242453215817 -0.241124980239787 0.001828820985249863 0.1171586927801758 0.01506261998208647 0.06946352194185454 0.01674077760172051 -0.388160687239392 -0.0577117733478027 -0.2020986273651057 0.1046675226738702 -0.01152787300421245 -0.2120165444010315 -0.278286357446663 0.0204813712948319 -0.1390162687970172 -0.08790475316128916 -0.139394191992256 -0.1191702591731051 -0.195912602543086 -0.1373063700368861 -0.05350068595079491 0.05778008682664513 0.006385676083591002 
0.08078754342553583 0.3105700440510237 -0.1123690702313829 0.1346235099266799 0.02010395251803869 0.0138407634157745 0.1243285765185137 -0.04536303249191969 -0.03162957663819598 -0.1075488179024965 -0.2086182192510457 -0.03888274632755763 -0.1006283808689871 -0.2117318737454338 0.09410261979433725 -0.02318018859233352 0.161429239715236 -0.1443453679459039 -0.03615400573857724 -0.01373305605581813 -0.004313929550329908 -0.3796140353596096 -0.135285807566277 -0.1264163047865508 0.08803932171921382 -0.05165175306846052 
-0.08232250744078293 -0.03661464248591642 -0.01521609474850449 0.04075933100342831 -0.07888668823868179 -0.009740299555812147 0.1168780551730631 -0.06789552999361932 0.02917080279254852 -0.08019223924915415 -0.05508558188022437 -0.09480569678799634 0.0468067499291222 -0.09942849652521245 -0.08125433634174077 -0.2042267384136211 0.02677561074743709 -0.0882970195266648 0.0245015122455622 -0.03786612394189008 -0.01632847301900452 -0.2486424716211142 -0.1048475197793013 -0.1248056011504181 0.07378223730474087 0.01304145930693783 
-0.07355488372292779 -0.02438615899126657 0.04035129070303143 0.04210874298817512 -0.1393108906922708 -0.1579900904459425 0.01981536401286446 -0.02153773169125458 -0.005005493838345144 -0.1105561453490162 -0.0773734646788108 -0.06983407767459958 -0.02392253797149329 -0.1183973401112101 0.125435394518488 -0.2122944850952307 0.1129574328875964 -0.08600353869222246 -0.01143616992063897 -0.05796776090166905 0.005671451365581276 -0.3384208059489582 -0.0781204500831518 -0.09882924319198941 0.05642732855859676 0.09122718951035959 
-0.1330403965713274 -0.03161850287751401 -0.07860648364377032 -0.06101370868197659 -0.2433266755454437 -0.6342659022524343 -0.01565278691844658 0.09723268982915868 -0.02985052722635989 -0.2027648570103469 -0.1231642481709406 -0.1316707987833001 0.01581940478188987 -0.02323587751506846 -0.05063375190408243 -0.2393573388939627 0.02263809967381567 -0.0590065825535535 -0.2034849416044211 -0.05193712697832895 -0.0531999979519894 -0.1933027613677434 -0.008838117715753394 -0.1012053358593674 -0.06177075539046216 0.1593716844491159 
-0.3672915946284297 -0.08877224399313186 -0.1364373547056527 -0.05256931737092401 -0.158604682888947 -0.4800422035414674 -0.04041478771551625 0.04808002036996926 -0.05268571890286282 -0.1058387758616402 -0.1687857790638639 -0.2399362873050873 -0.02971200149055508 0.01229806354996769 -0.03159980042990413 -0.2310290686785128 0.06802632097097482 -0.05948921692841913 -0.2254110683933911 -0.05902740444095444 -0.04423839709964791 -0.2381686483717922 -0.00586352121559661 -0.01635603474982203 -0.5496370846373132 0.09510316377325302 
-0.205941941035392 -0.1204436583950662 0.03447661083184642 0.01089948490420157 -0.2611282620533854 -0.09943695184300477 -0.01676767780222785 0.05956551337207219 -0.1266247028338155 -0.118066255718433 -0.1507539827393427 -0.07890488779692496 0.01704834240927997 -0.05607959890830549 -0.01124745624693944 -0.1959702757270529 0.03924415912251884 -0.0889328921421674 -0.1199611036181547 -0.1213696029837825 -0.1567362812239659 -0.1461962059977376 -0.02955106179148998 -0.2292259338066251 -0.01775243834906837 -0.07619267907936146 
-0.2355050867175462 -0.001540711902453661 0.02097021688024857 -0.1375523860311157 -0.05593015501134294 0.006337028129291981 0.1199133885532158 -0.03244909410318997 -0.009915430697118149 -0.1870537895056105 -0.1615407070235469 -0.2908801887946035 0.03193140543547418 0.03468709872255239 -0.1039759883257162 -0.176797920246746 0.05067192112321846 -0.05502158166798565 -0.2046344626482734 -0.191850321072317 -0.04676865369542163 -0.2047484823175876 0.0004952144579344975 -0.04921578718354441 0.0435159940533347 0.06389828816658408 
0.04175402403798897 0.08842158144844273 0.1141234947002254 -0.09779796993703813 -0.1858545205824153 -0.08148415253375849 0.143970818497864 0.06246243306443885 -0.05142559456299807 -0.3052508134601863 -0.01908170800734844 -0.1734597796900954 0.002423792991999692 0.2482207845463742 -0.06699826186376147 -0.1224520537020449 -0.1611154360155959 -0.1358752470334425 -0.08431742252138279 -0.1811456646706391 -0.0531967544733262 -0.2176886764484302 -0.04608308374758555 0.07440458499396119 0.1621693391571757 -0.007193795436541334 
-0.0481449622887035 0.2157798274270323 -0.1271688053984991 -0.004037127658412906 0.01044391457958161 0.03703390214434501 0.07729234266205659 0.06128387728378552 -0.007972599682001903 -0.1684310113869691 -0.05458780500918157 -0.01215770681866914 -0.1987677607429688 -0.1552121161417581 0.07403594638580566 -0.1788273989352993 0.1854596651396895 -0.1192866729064766 -0.06364344897400244 0.05035792338269023 0.1803282961999018 -0.4547460106407531 -0.3407702084100184 -0.1057434651001365 0.0005204715443503484 -0.09724143764116608 
-0.00110895287894916 0.2723549259952685 -0.1799112637536481 0.1483444093288395 -0.09851380917383412 -0.03922129682611625 0.1847727190900781 -0.01904322921255899 0.02456099506886291 -0.1661293551199979 -0.1440822917753339 -0.1865956652598629 -0.06921307397592613 -0.2867409314788951 0.2125177931371031 -0.2311252972461906 0.3283311643969653 -0.1650053066019597 -0.09310169618987744 0.01558157157506272 0.05949077516448931 -0.4092489984325254 -0.1632728311661095 -0.08949157712324995 0.1496483483771629 -0.04189271926942227 
-0.1991354814091433 -0.04842667660962229 -0.1026764689892447 0.01397237832516328 -0.09323693242936987 -0.1681138292025708 0.1732752806575791 0.006323751644587766 0.05810084326185536 -0.2679037071505364 -0.1497148751349187 -0.1868208110616497 -0.04211983109930911 -0.2714800208797477 0.01546994081528917 -0.2169618407623823 0.2122541695149928 -0.07193178796279484 -0.1481174055431917 -0.02609029402373892 0.0332704636502075 -0.2515137313269835 -0.1959290529383012 -0.0965990698193418 -0.1039549079306765 0.1606401041883424 
-0.2585575122295479 -0.2591327841943702 -0.02168449712684958 0.03606328501431238 -0.167256526951679 -0.409292393380773 0.1285522118967244 -0.09951740432453234 0.08755765965245191 -0.1573998611004756 -0.1207958916107473 -0.2345088849946578 0.003659723556161293 -0.07252347783626394 -0.02701696496997547 -0.2189896314276628 0.226351961020835 0.02556902858053108 -0.05292636317455156 0.06425201865080207 0.0004901813920063752 -0.3342599520340914 -0.1213577112018756 -0.10677815832788 -0.5218683829648019 0.2153799713504442 
-0.2847289588024911 -0.3441042349063288 -0.03519659868396978 -0.004211034202284837 -0.2949771697021897 -0.4594099737989769 -0.06205069065549522 0.02262124108996978 -0.02978943547112122 -0.1988161951068662 -0.179130253021399 -0.2334605423831689 0.02987591693874847 -0.2294363939200238 0.04160174794286874 -0.2240992860773018 0.1353635860638797 0.02973185362873499 -0.06672238762843138 0.02057980633378005 -0.08164582484416527 -0.2564765075547403 -0.06659608144943974 -0.1766789007902348 -0.6654475673756137 0.1983185495485478 
-0.2817525173375293 -0.1623023417866322 -0.03079172004939319 -0.1366775002701677 -0.1463579919524538 -0.2905877009777111 -0.09371494960225661 -0.0232915155495572 -0.07711217688546662 -0.101442246877332 -0.2835679438734692 -0.3114552968898989 0.1032949508943453 0.07189533651013685 0.107486936934687 -0.1818973195272394 0.02498434271082697 -0.0388783285331749 -0.08691826430710081 -0.09699165912011445 -0.1666991267469629 -0.2989840790465504 -0.06512557217517632 -0.09960815258469266 0.1906343890595296 0.1061617191681197 
-0.1882388167262709 -0.07526411489386274 0.06146896488520637 -0.1570970657402308 -0.1751608036614395 -0.1762326834269578 0.007120944448295968 0.0560781611256782 -0.02823297364516164 -0.1680431196870511 -0.1838859487127555 -0.3892350333225456 0.2131452268484422 0.1511733905134977 0.1218044893529406 -0.1372434362372346 -0.08987465293890717 -0.2760835505220995 -0.1610499472840809 -0.05667075824839803 -0.1751991796613354 -0.1581234631720855 -0.1504151898802599 -0.06109640589198573 0.1934163902359975 0.007183922500749718 
0.06472445796920902 -0.008572540393907115 0.321788915870548 -0.1557518999709123 -0.1520475787215657 -0.09219809547686954 0.2838221517542962 0.05011917809607506 -0.02015094424601369 -0.2524091635879805 -0.214596419346987 -0.1487117196241526 0.1843645283718169 0.1415818795461701 -0.05337988868684682 -0.0929931004200146 -0.4872422978978077 -0.1492652534659263 -0.008561702003044912 -0.1792178495781234 -0.1957040512715593 -0.1097017978496622 -0.2857611701520197 -0.0977392586362186 0.2410161630443486 -0.1924594625694034 
