solver_type L2R_L2LOSS_SVC
nr_class 26
label 1 11 5 15 13 14 4 9 7 18 24 16 3 20 12 23 2 21 26 25 19 6 22 17 8 10
nr_feature 128
bias -1
w
-0.6626281518263006 -0.158909783393498 -0.4670932401721682 -0.004309496853701317 -0.9700933476379157 -0.1018642637246708 -0.83569095551936 0.0639925912510429 -0.3977044686517709 0.102617943223726 -0.0893780241057625 -0.07400892895951547 -1.071042434309999 -0.2506738728450573 0.2508657604368207 -0.4630791427080003 0.08203863360689073 -0.1567519705750268 -0.2244065405052795 0.3333574011577494 -0.4901093007297349 -0.3996394418511909 -0.1382702100373236 -0.1856525709635934 -0.245846954173021 0.6080649897362649 
-0.4483615592708628 -0.2105978775496133 -0.4754460668451534 0.02792250774000619 -0.5382816761346765 -0.2893897390854703 -0.7114090581459077 0.4334740657730065 -0.195191354930417 -0.002706320380371376 -0.01903002704586362 0.1212407371004462 -0.7778530254350345 -0.3487106699831991 -0.1574855676845215 -0.212923972981792 -0.2413421706754083 -0.3120583721299258 -0.1439747615205112 -0.003182518131235154 -0.2359444663621907 0.04658794990417314 -0.4492848176341332 -0.1315502271578612 -0.3086966470984852 -0.5968553389322127 
-0.107647839554203 -0.261937466079274 -0.2945978167777381 -0.2722284170935385 -0.612304653046805 -0.2958692499466952 -0.7918930862151431 0.2851179966642224 -0.03623067157642359 -0.03219258650727257 -0.155241840053413 0.2959311366184176 -0.5532743383744317 -0.5232884425571233 -0.1299103725869186 -0.3922935255769582 -0.4187301892240421 -0.6302067315936267 -0.3038420974698353 -0.1300226563271585 -0.1906096174860385 -0.001173221026815872 -1.198988698752458 0.01292206535194622 -0.371826568795918 -0.4993361310386161 
-0.09177047463148807 -0.2403331216698403 -0.1830942075877544 -0.1357879937447071 0.1294072602080971 0.1237203230261049 -0.5817347403510081 0.1909358146227965 -0.01565552858964953 -0.05525929517151169 -0.2332907952523819 0.2147743927622975 -0.2442521414556794 -0.3099695733671619 -0.2682669359941326 -0.5726418432579018 -0.686773490608059 -0.6609892797760303 -0.2477666459406829 -0.3108390807809775 -0.03990487711190761 -0.04272096720042661 -1.528526979858671 -0.0008154951745654757 -0.06743101462415715 -0.1243288671114905 
-0.03969636924004522 -0.3777231476614924 -0.1589957107454985 -0.07671006905709495 -0.9212212621621351 -0.07989561286646277 -0.4503323604498905 0.219755490787131 0.04066735194317771 0.0157050428352066 -0.2117755784565004 0.2151840696044789 -0.09480500778361796 -0.299221340852431 -0.2997950870710843 -0.5678776568279765 -0.7054784735796772 -0.6076867856896218 -0.2592181332087059 -0.2631868448879293 -0.02711656829776793 0.109727659871149 -1.242493808238434 -0.032940535643968 -0.1770815271039394 -0.2761301342773863 
-0.2549502772439178 -0.7806072726289037 -0.1735920202713451 -0.2748396122303859 -0.1253215129117269 -0.1135619866067984 -0.4625613053522379 0.1458964548444238 -0.02924759866673811 -0.09866380906954321 -0.172419285438853 0.2715807401868681 -0.2586204068820934 -0.06875446506726936 -0.2068129187416605 -0.6281376446729364 -1.222806671802509 -0.3746689439911918 -0.587255258228277 -0.2454912968323106 -0.05638920208730343 0.2352708646338594 -0.5793787779332489 0.02170170118717257 -0.7505914446378051 -0.454907493135324 
-0.1450952598964513 -0.8443970121062145 0.04390806326125631 -0.1180693790784785 -0.8535281434434183 -0.2699651150648925 -0.3169408899808877 0.1215866010516543 -0.002557088650064679 0.05011515895169149 -0.07255774062098133 0.1186998499061193 0.1088496811571687 -0.05534386206485736 -0.4217270646732738 -1.238069763389759 -0.8397423322028024 -0.08537778299585561 -0.610017926629843 0.06480010229306168 0.03602728689282818 0.4202011579563819 0.03259271169610198 0.02853334483561005 -0.5254087411408296 -0.06590662589106772 
-0.1422854239777125 -0.9812271330746032 0.04219125536896827 -0.284248523056881 -0.7959901735672853 -0.2569430047892192 -0.3139271641572713 0.1501647359624944 -0.09659390200316664 0.244019181044639 -0.04645997456362922 -0.220708487325299 -0.01912965424293686 0.2898305030023585 -0.2140440961720926 -1.434461997134327 -0.7681666118108984 -0.1095836866030906 -0.357317566933744 -0.05227148040238758 0.01859558325973288 0.3681155272233201 0.284388054788548 -0.007199643760800481 -0.06800572164186887 0.6197099411105496 
-0.1526287921304769 -0.09660911891244255 -0.2781531536654826 -0.1072009089472555 -0.2011363164255357 -0.1409182042591199 -0.2367242274474928 0.1229233319959422 0.01159135847648926 0.01623498545473657 -0.0182205909896419 0.0209352066964237 -0.2089453145855562 -0.1159461583434028 -0.05548690260702124 0.9126381762990068 -0.03992930838665353 -0.2280306209018483 0.1051308906171111 0.1666593479113395 -0.006929215254256396 -0.007255073813036463 0.03622951216642229 0.01223340387111395 -0.02035847146769391 0.0597854776399456 
0.0599001958552683 -0.01585889125824072 -0.01153280038574651 0.007135180101930347 -0.48305156738371 0.1193906561246312 -0.1610617928859399 -0.1271763663170921 0.1046637566949457 -0.0722957626093484 -0.1752360622835798 0.1333711627521906 0.2155705781043796 -0.1831542052513815 -0.07983659385790709 -0.423063894533014 0.04130253654094931 0.0709581757995755 -6.153270742094083e-05 0.2239233224082345 0.05884723189277492 0.03162797420667435 -0.2316823613431327 0.0763520006824063 -0.03405304839396413 -0.0839327639687197 
0.02914129417112959 -0.02807304721786159 -0.01700686961217543 0.1620356547242556 0.08287555755043159 -0.2041364353504143 -0.08858592836103776 0.1195724643736998 0.05660819888503087 -0.08560296953069309 -0.09787781988709154 0.1266384212588864 0.06455829172697489 -0.0357360337036897 -0.02366729418873796 -0.3635845587406917 -0.2442823294154381 -0.3291800929901872 -0.06025948719554667 0.08374597396278886 -0.04629192562307231 0.1384011658529519 -0.5292482750656815 0.06895314908900706 -0.01279846267292962 -0.148341462482765 
0.0500028654951871 -0.0733001808993321 0.01277094179919078 0.03530597263916536 0.01445200655187687 -0.1329667364046878 -0.08326439498233104 0.06306304812337302 0.01182267348817421 0.04060498217084326 0.02604503741915881 0.1634034048856647 -0.1100964067350158 -0.02519870029525576 0.08757816753166864 -0.3833743540097675 -0.05968611898092857 -0.2653598910298599 -0.01845474430127338 -0.1071133357852583 -0.02321280884762004 0.04037676342566816 0.5268858234183684 -0.006011295406813223 -0.1247416619926017 -0.4312633175960928 
-0.03256438532102934 -0.178315034344899 -0.06371406847943933 -0.01560022703407975 -0.1613068103149112 0.08847873510397311 -0.1353984432561989 0.05069180484812584 -0.03260227732119567 -0.006571262005618278 0.1719977284638901 0.1138261481483597 -0.1127827688171394 -0.004330746379034471 -0.01567256347060113 -0.3038606461566806 -0.2797389804308977 -0.3826070795243998 -0.0765095641545132 -0.06475857907344501 -0.05191949712321382 0.04513197400585765 -1.784596656705278 0.02049023180605187 -0.2217170644480934 -0.5977988529229976 
0.04618461181959721 -0.2344325171522728 -0.04556257768379495 -0.07540327975131003 -0.9032261496890791 -0.1135551097863572 0.03973270770166799 0.07016435953487954 -0.05635518478257795 0.04461697489229038 -0.01497893297304756 0.09821484019118004 0.02390219188845214 -0.06424895951078893 -0.07356047657833775 -0.1160907431167977 -0.07537352009593111 -0.01584661757149808 0.1396340672305648 -5.735097968211404e-05 0.005803275563946557 0.2205175144611179 0.1933630282294142 -0.01321564843881155 0.03856487254786224 -0.4016150769177432 
0.05932543562852963 -0.1365667725359082 -0.1235370176144754 -0.01745868210140399 -0.323760192672731 -0.06995876561673788 -0.2128592190201818 0.03921886017136749 0.03051382981138735 -0.06176482809556636 -0.01823239043437401 0.1770720017501839 -0.007612850169532867 0.03362423587703207 -0.1432048896254028 -0.868759681747977 -0.1810495593771857 0.0351569144935362 -0.05594063954304523 -0.03674105177104006 -0.005298465217362145 0.2684836037397154 -0.1801687958807878 0.07505183535625265 -0.2968296867952983 -0.657044028183102 
-0.1045469154663862 -0.3271025725325072 0.07614441079360953 -0.2782730426901315 -0.4261187753089681 -0.006298716030807008 -0.06780173517247302 -0.2207955690113042 0.08753017223754191 -0.08611152420463435 -0.08273849597277341 0.06774971269173645 0.04287715479290054 0.03244883024219158 -0.2522554394959971 -0.6710710774601985 -0.2336680416240225 -0.04298982465287246 -0.2728315652039466 0.2014787621607349 0.190594866092694 0.5343764912256431 0.1886740768882087 0.04221470923337957 -0.2241767821495597 -0.3011267488408565 
-0.22489788945889 0.1638894176727018 -0.1314964239160323 0.01048313675733743 -0.2513596585483824 0.09357454676216112 0.07541320805376206 -0.1958443084109716 0.03750629722207134 0.1588496841183187 0.04599113873356265 0.2127966445603256 -0.204291419108512 -0.06035406320301299 0.1408743804815478 -0.3521978094432698 -0.02473639597185969 -0.01029599717699465 -0.1035111200946876 0.1390263814208448 -0.07510932890671584 -0.1066308947770743 -0.008863431914487676 0.1257917644487857 0.02476162836624269 -3.712739256578732 
0.01622857177179483 0.01841169839780741 0.09927963257082208 0.0124816651708724 0.250046358986849 -0.09593450880303232 -0.1528811191345111 -0.09415985956595144 0.09519544294460329 0.1909687077832825 -0.07219889969906436 0.01798850177490196 -0.03497304612668245 -0.06277851942657153 0.05382856711699428 -0.3835717213576846 -0.02905718090356899 0.08865174479118605 0.07155689443991783 0.1504909311503409 0.008040148593237035 2.362340732892099e-07 0.09777363530421274 0.1883608258403472 0.1218521836117763 -2.345027642438088 
-0.01964542798853094 -0.08237207479243314 0.01173640674258338 0.0608454333950471 -0.1202795113151612 0.123798171383761 0.02836315229972425 -0.1488222395068879 0.08432918514226687 -0.06722435014663043 -0.0001677140705309433 0.1124901330246907 0.1040336348707202 0.02900752957025982 0.1567427086175232 -0.4075372074620481 -0.04347670168304028 -0.2458459997161093 0.03074438543140404 0.1360508429434732 0.04469988336554419 0.04574412826992277 0.1784382468038239 0.02103193735041827 -0.1684453397104456 -1.08929070612703 
0.01377629297681677 -0.1301526500888172 -0.005782594944746252 0.1286645343158736 -0.2588169135940199 -0.1226021602823943 0.01646069463804335 -0.2663084183784786 0.03324684234431728 -0.013051324794241 -0.3328504352332289 0.01530062686070134 0.05721784421034919 0.1228791520201164 0.1548754271863762 -0.4944686748571324 -0.2087745192798632 -0.3589026821934755 -0.01537414039397707 -0.03277981756912207 0.05993381533192872 0.06179229742220476 -1.410962770302317 0.0327881102934454 0.04390122855911457 -1.133234519586817 
0.01676661713984065 -0.1926662074330923 -0.03698968032549135 -0.07893929943713146 -0.1405895415720284 0.01427770304202639 -0.06254798379014502 -0.02961411823538558 0.007563071214333172 0.03972083540130027 0.05212528435910922 -0.0348657176943987 -0.06762423692203928 0.01335665856290866 0.1328807949174624 -0.5316220161714702 -0.01708272625107211 -0.2898352128881041 0.009117179317439071 -0.05380449361877949 -0.01632879363347338 0.05553858831353017 0.0202783225156618 0.001329819748925869 -0.2345982334286062 -0.2655164915933616 
0.01732358765387848 -0.1393052629993927 -0.05063885563973368 0.06397738227030665 -0.1747542704853861 -0.02737756152181466 -0.09976984412649034 -0.05786761918014137 0.08528433424358402 0.008404166138528728 0.09754182451229763 0.2121018998450349 0.1034607426815795 0.06834646305362962 -0.01725989711052612 0.4608434032806579 -0.06571198585373214 -0.04507776409052382 0.05801023015370371 0.04921045807775062 0.06245129624275535 0.07033129679054764 -0.1155447312954025 0.06030920655537818 -0.08475654820585062 -0.4827492496529471 
-0.03985710864605109 -0.1173673688819279 0.01434807240365467 -0.07296824250889022 0.04605690043173755 -0.09778271623510552 -0.06757228998504554 -0.1296699689576929 0.01789744012889299 -0.04225438363678768 0.003075709760087547 0.1511663489743567 -0.04090204988699259 0.03020272983112738 -0.1486981769873214 -0.6038326767694585 -0.2531295274285766 -0.02052107267893336 -0.004215093615834224 0.04652219076939547 0.005675746252963686 0.2916041576207297 0.1420160780795056 0.09301085300272173 -0.04539144773967319 -0.7912379491592636 
0.009910690612165275 -0.3254269475228895 0.02181288606351894 -0.1853812104553098 0.04121095848850269 -0.08238702397650682 -0.1484736022861763 -0.1614834272053658 -0.01305272120394876 -0.12060476853825 -0.05581855373301579 0.02139094550331463 -0.002838571008839383 -0.1506343250150155 -0.357887438804001 -0.06299365021219223 -0.06961001136646473 0.04628747936159219 -0.1501174841206254 0.03074372187207782 0.097735878785256 0.1483337424920578 0.3137778061217462 -0.1507348452194076 -0.1417668743982349 -0.5536958616917194 
-0.1355407166357012 0.02347363783705976 -0.1043415096412476 0.0430030248477774 0.05026683703845867 -0.03939779454996729 -0.3012707682330668 -0.112581399557147 0.1466093490660713 -0.01236267510780995 0.06927142372480198 0.0919573879826589 -0.1902179553311866 -0.1805246572411963 -0.02807389584752767 0.1731873374052663 0.1287633166602263 0.01071024497813797 0.02531956931747667 0.1921022985237318 0.03465411626214728 0.01320014583408702 0.02213530278647178 0.106340374706253 0.1218563492434183 1.345700340889223 
0.009606931365227611 -0.01853028685285078 0.04630004981867791 0.1184565974347906 -0.07035227941360633 0.04738678201656064 -0.01633329091671306 -0.1236795643156703 0.06693691869333225 0.04149619435258483 0.2137131231750006 0.200663338517586 -0.03468832686115852 -0.05735450486025336 -0.01747475478611115 -1.343849507698975 -0.06278192016222017 -0.06467824289669366 0.06939215261864384 0.01755846938105236 0.09070192904662577 -0.04582884483682335 -0.06580114919760077 0.08536155920192366 -0.1077667477653763 -1.170329587388768 
0.006114000080340959 -0.02559438996908993 0.02350037901345807 0.004922569724776556 -0.1164911777120117 -0.05434020976081672 -0.1664842869670479 -0.5312496490747236 0.08060079342752856 0.1369352545280354 -0.1584876443490864 0.05430366346129172 0.0699246716811816 0.03758264261153615 0.08408876338354426 0.1768003120258429 -0.1557723636483795 -0.2030892686025103 -0.01337459512752555 0.04552664434591568 0.04727005844710246 -0.004251969271001635 0.05582395136311406 0.09612924024758258 -0.000588716192640882 -0.008485952342364447 
0.03028460678503022 -0.1612503907613884 -0.03994733220569113 0.07281751540532809 -0.132412652891074 -0.02947712616218296 -0.1228775268148105 -0.6898895058493483 0.0752135313228081 -0.02734882929615462 0.008209385080091277 0.03449959031586589 -0.03192622968434335 -0.04892218336661924 0.1921961437171032 -0.4522247636190135 -0.01232040274771982 -0.4476531647747171 -0.04105629962327607 0.14651861075842 -0.07643562848557069 0.03428886753238122 -1.036067441802823 0.007721926861034282 -0.1407688925950559 0.3905635566846038 
0.0225069496493085 -0.1713972960569821 -0.03353860614178908 0.03828895255009036 -0.2383962594726922 -0.08485721057216315 -0.0297880003041234 -0.5795170642243376 0.03637021342678183 0.04658683515251386 -0.2642302651805485 -0.02808467981575492 0.06377252060347888 0.08971527176051668 0.1380832773312525 -0.4614761072799272 -0.2154115651207144 -0.0856348019109289 -0.02235699918772311 0.02163347996853424 0.05419131695584405 -0.08217295059263548 -0.2164815693721374 0.01019956946727163 -0.09584333069521217 -0.342373486113738 
0.008147424884739298 0.005602190519783266 0.03378671592636089 -0.04072975752044325 -0.2051241970664973 -0.006566740446013253 -0.01072736538084254 -0.3231033271789649 0.03731537541270236 0.05491050729618922 0.0748137179643526 -0.05213317110924331 -0.09267905718137621 0.05090039278781375 -0.02596886507041603 -0.07046441015169902 -0.0631232718674328 -0.1308638248438531 -0.02995622171270416 0.09016039103020818 -0.02202047119002099 0.05310410890713314 0.1006185740707377 0.03981249462743231 -0.004087539489930351 0.2081067624693398 
0.02465313790749339 -0.130397839775917 -0.0533282613399057 0.02533312852791558 0.1886332996621872 -0.1090659058099299 -0.03705915880017429 -0.2141044393204432 -0.004449183998571035 -0.03489800886530328 0.08573150173217658 0.1981836534523215 -0.02991918023077577 -0.0009008483195473349 -0.232678069311846 -0.03111497391566585 0.03902854954240974 -0.08665109243365483 0.01026628888317855 -0.001493203655343364 0.02088155798050687 0.09569262596745726 0.159718668781578 -0.06076264851870212 -0.164770447763944 0.4210414048786519 
-0.106985429993957 -0.3878878440751029 0.02896897119870373 -0.2296797999602646 -0.116264615679033 0.100310823912884 -0.1548836178966062 -0.2306248227417774 -0.02504351604735765 -0.1163034721665402 -0.1215681788895048 0.1880507776910372 -0.07918696054179364 -0.1797730290249746 -0.326675704241289 -0.03688200200074666 -0.1598038038232434 0.1071781385747788 -0.1303536750852805 0.08200104227524202 0.1154143898471162 0.1331403848653192 0.1718467961441485 -0.09650115686734112 -0.02477585833007394 -0.2734446282661566 
-0.349330692061979 0.06378688909195844 -0.1902476319231313 -0.10828251383006 0.005460201648638738 0.03355120835312925 -0.1187081863997937 -0.1858548484651149 -0.01777245271179527 0.197545161405039 0.07737185839889474 -0.03540158177701477 -0.2546756992508573 -0.0949894435748589 -0.02589674710149146 -0.002973041947374666 -0.1428933033469579 0.1033208128557206 0.06030081429508093 -0.0556474814640991 -0.006969993662582483 -0.1945013467680702 0.01481310611558533 -0.004189785245685052 -0.01636935524882072 -1.314376424497638 
0.06872479059235577 -0.03246244468211612 0.06293452569969343 0.0665787810456263 0.03704102394027124 -0.06255506028532157 -0.2475883294804032 -0.6168347918412607 0.05182126667403451 -0.02415186937422266 0.02014856264390126 0.00132676075432528 -0.0955746647137647 0.03298982591188918 -0.06045629678768531 -0.6966745395538781 -0.1166206961174286 -0.143978450025496 0.08800490477056416 0.02122211406417231 0.05506809094309312 -0.04420978031440549 0.0716994442211495 0.1024196019055364 -0.07208794765603635 0.9738003511706785 
0.01171133779509307 -0.2005579799787653 -0.02211429484343913 0.05785247610114849 0.09534908154564838 -0.01762509203326326 -0.1836227213533524 -0.5217071344018644 0.06864104437373178 -0.06557558907488607 -0.1396235162464704 0.1208261708055557 0.05049979953155947 0.0635839778536354 0.04751092558076517 -0.02410844787027666 -0.07680213280959416 -0.2252986465639063 0.06027721012610582 -0.01913418449852202 0.05965638463031612 -0.02778957614366254 -0.05517472727458833 -0.01604412370170426 -0.08163416345645437 -0.6988488420522297 
0.02138326394747431 -0.1181669115611998 -0.01274849539179635 0.001487801097583961 -0.2708923857212622 -0.05132894441065731 -0.1657305209258534 -0.1561456359212027 0.05177213867913798 0.05800433205567299 -0.1054441821903832 -0.1045822015501328 0.05041562350493797 0.09963649854756307 0.03917978683645173 -0.1987662747116879 -0.08836087012919487 -0.4826814921592533 -0.03553123939481899 0.01566250300805108 0.0003854442940556279 -0.03529885642254726 -0.6652308937715382 -0.01338721347770163 -0.2026460682977473 0.1261576462104629 
0.04578577800172321 -0.01165691636340323 -0.02223108165634105 0.01010930738520992 -0.199146922775231 -0.03162647279744033 -0.1299747595287809 -0.301634786291755 0.06562208039366546 0.05435000063509829 -0.06280722717805512 -0.1901041689796644 -0.01503229126906697 -0.07518444728539017 0.1320912478835308 -0.9629913083688662 -0.0808499784342363 -0.134867500117623 -0.01152838126937259 0.04987431240948492 -0.05528551261876465 -0.05000603071756671 -0.1606470762144826 0.06167277010915456 -0.09839105348658568 0.1863535684485153 
-0.07942175507062751 -0.06983234485400401 -0.05558951337053157 0.00121735675104046 -0.03861952645817537 -0.03418116373580006 -0.06416467732841695 -0.3564769282390383 0.06897531063692854 0.03401987584362661 -0.02562374263958778 0.06431926980106416 -0.03509887775301657 0.0615617659225175 -0.05283626852222483 -0.2492186547721597 -0.3029228984053297 -0.06333646025392567 -0.01351279432134369 0.09180984311414624 -0.1748301410930142 -0.2808459410507188 -0.152175148369462 -0.05236064511342337 -0.2345240437520216 0.2477832349238661 
-0.06229277467097353 -0.114734424528562 -0.0468625994953349 -0.08009408123562474 -0.06500625468454704 -0.05273204231325329 -0.09150245677487154 -0.1498946047871018 -0.04429841403623021 -0.05894475489576195 0.1891260934530057 0.1437455148790415 -0.1494365052592918 0.02435826698160645 0.083927316853864 -0.2139409566436561 -0.1939543757846655 -0.0758658344754131 -0.100745815097307 0.105104647902168 0.09129644071266815 -0.02660106982293704 0.06219430284748852 -0.0349736821719349 -0.1735838990143072 -0.04545545869006463 
-0.03401030717908472 -0.4974407226580245 0.0501562805642056 -0.1320298068694791 -0.05502977348982168 -0.07046914387236747 -0.2068455720843327 0.1645833312962811 0.005740949624916258 -0.03390023151705113 -0.2067353934697779 0.1639363737738678 -0.06966912501646945 -0.167078594225584 -0.8865430619215394 0.06479425605115388 -0.03219579149333976 0.02995179656521819 -0.1160760319830359 -0.1488003793782748 0.03317408115001375 0.01658151157098905 0.1673252606675594 -0.2162974633593985 -0.1103123220627565 -1.086713234174821 
-0.268046050220288 -0.06645330839063274 -0.01656777452927708 -0.1914099078102966 -0.03578950048096981 0.04499082041187385 -0.2529221476422447 -0.9469759982297241 -0.1046563516684836 0.07850336126809933 -0.07922480977674519 -0.06424010997317668 -0.3295312844040917 -0.04227830268090268 -0.0433091719759814 -0.1331161190140167 -0.1005759392567951 0.128346473426026 -0.07396806097336618 0.02037635817062936 0.03193871614098706 -0.04071214668885598 0.1435403167336062 0.05737958711850956 -0.1135951523491974 0.4860383436378275 
-0.00575548815846167 -0.04631563315424771 0.02351263691835522 -0.04662831525735286 0.03699756739179682 -0.02436956448839049 -0.06223814380894317 -0.6826406067581198 -0.04625057969581434 0.05888587962294786 0.03110366764422662 0.01262558267415754 -0.1043788051466044 -0.07977431671631974 -0.04096634072402712 -0.2373067318112639 -0.1479594872109288 -0.1360476247405375 -0.05434243773567287 -0.06547305401931132 0.1871229595746528 -0.03059848390723913 -0.0658901850621272 0.029192001722486 -0.01930554921986124 -0.9442588346313993 
0.0069880314289619 -0.05028840178373706 0.01894572943986562 -0.01513600022983852 0.03192275422363842 -0.05189928478165508 -0.158405037394164 -0.02205419528319236 -0.004389737733935555 -0.008285323173961346 -0.02679653308658295 -0.007448793700937675 -0.004761848910082308 0.03311231415000406 -0.03962846964757839 -0.545361143111277 -0.1552663375752755 -0.2618472639485344 -0.130501876365768 0.06857891072773675 0.005858909482499158 -0.03889244261517122 -0.1429244504116891 -0.04297610205844079 -0.06385634731153642 0.07981430804571196 
0.03604368642878186 -0.1035685279080183 -0.07836928221113004 0.04993487652214384 -0.06851796063448307 -0.02054178176206742 -0.1048672206067436 -0.09623604526650201 -0.02419673210726352 -0.0671057046008494 -0.2106798216031707 -0.03398685772364549 0.1032417979361204 0.02962816805154195 0.1811856354411638 -0.1992031336321254 -0.07070874750134969 -0.3376518172742504 -0.0004946461446534106 -0.03715370572125808 -0.1111777367026735 -0.08493175819242751 -0.2916691420407875 0.03156746504209011 -0.1605371942700546 -0.02904251903064144 
-0.0257047481828046 -0.1098749178047212 -0.06377056289452381 0.0003322704254712606 -0.08324368103452529 -0.02868287309936905 -0.1253150001257158 -0.05193788159566605 0.02913215959065031 -0.05455420396247888 -0.04330991228451958 -0.05640411802112577 -0.02418901038294377 0.09258546460690102 0.1015193819321759 -0.113372811906839 -0.1855611979215895 -0.201622241987638 -0.06658826530748303 -0.01285712998634168 -0.1917653236615783 -0.07889465575887848 -0.2939152934243494 -0.03914094489244983 -0.09688624215580532 0.1012212683648713 
-0.07434804049242216 -0.05730792429816422 -0.01456057347661132 0.02262756714976331 -0.1316059740640046 0.04274430216515165 -0.02814483730889795 -0.1799444753631005 0.0739579138879583 0.01452444047242421 -0.00917395144101546 0.002388099856948099 -0.105278090973064 0.005111005974339099 -0.01967327302816926 -0.8448018786401997 -0.002752841212585086 0.005104829142704987 0.04579423670816692 0.1062367412857885 -0.1128695130226524 -0.3931560666941589 -0.02991387932162921 0.01891917671434677 -0.08313124262913953 -0.2886222265230032 
-0.002765340090043139 -0.02332707064078221 0.0308382108975172 -0.06077711648941859 0.146993151636112 -0.08803897801447591 0.023969331213336 -0.2413508838190895 0.1394175346799768 -0.002138478170689052 -0.07086560149179694 0.1974888748205753 -0.1341239655808094 0.0479913192225478 0.1483299506710285 -0.1182143730926807 -0.1075857591906548 -0.07131773506228944 0.03209421585913396 0.06364633959585141 -0.4187161746520994 -0.2581813463248182 -0.007886042887428071 -0.1335675856872752 -0.1482606765125855 -0.2010001788895356 
-0.08191146120966643 -0.2171249972275539 0.09474043477710566 0.07983072740107404 -0.05607799170234355 -0.01271073941525269 -0.04390199304237926 -0.2610740840598004 0.04725587307095338 -0.1037710250020458 -0.3106726988114626 0.2023861849844421 -0.04814037695492852 -0.09696259501213572 -1.555592948907085 0.1425601596810881 -0.5234596134981885 0.1593360073487608 -0.1038074359344752 -0.03413433770891132 -0.2706308705023235 -0.002540143530398007 0.1398483079410142 -0.06798825034983857 -0.1680923673413698 0.1822434172943974 
-0.2389471726854949 -0.07051954801609339 -0.06324508562783508 -0.2318544855403127 0.03904034709912266 -0.04215056568078215 -0.2584519259845823 -0.04926385559502049 -0.1025679883923485 0.1936808541308346 -0.1809317316940539 -0.2621086260664105 -0.2374037407497452 -0.1715763841899537 -0.2313615652432528 -0.1610236525488074 -0.2180881440912056 -0.02134814342704184 -0.2099276274122287 -0.1566369196462765 0.1772789836373202 -0.1882416357436551 0.1273289754623296 -0.04069348075644016 -0.1538957235323576 -1.339617434254314 
-0.1048559273830902 -0.03806681985858711 0.04454884264735814 -0.06187376743090208 0.003731886635394231 -0.08464003666876199 -0.2209331885516506 0.0105611075763361 0.01070944734622071 0.02242430066289876 0.02822199561907217 -0.04120267854092904 -0.2523058294557294 0.03803065732987571 -0.07897133999104453 -0.5224346678068263 -0.13132949189155 -0.08048685615662161 -0.1966532326553256 -0.08051006967288779 0.00933872650491825 -0.1027888251047056 0.1408863147253835 -0.05185247872437999 -0.06668717949739185 -1.526726044860567 
-0.03827349174895536 0.004299847286209498 -0.04118060872403833 -0.0587252337818658 0.06812161910983769 -0.01480487385833528 -0.1509443301598478 -0.1129670375841069 -0.1025481645272742 -0.01393155196592326 -0.01944094654565932 0.01858061632290489 -0.1274453925576531 -0.02210445578722578 0.03435081270603699 -0.15949375595287 -0.02274825005974188 -0.3064844837451381 -0.1361123421195493 -0.08484132981332597 0.08052979247228004 -0.03823859052220022 -0.1502705500657782 -0.03753157441853158 -0.07193516355781701 0.1825082143856179 
-0.02712360367871581 0.01154407244612968 -0.0001323918336317564 -0.1065875259217472 -0.02722428324627278 -0.09589196343119574 -0.1028020046328087 -0.06020121787255753 -0.1043975837343149 -0.09194935687551224 0.1260948693265193 -0.003227232710530011 -0.1588321662322849 -0.02086152005126523 0.03359660836691059 0.01118407917623341 -0.1315912087925569 -0.2714528681859915 -0.03836208098247194 -0.04043605611223722 -0.09631102462273702 -0.08246332532504463 -0.2330794320901173 -0.0124810296706402 -0.025942633867334 0.504237446612715 
-0.06176037028247428 -0.002896333275159507 0.04510069369019096 -0.1650329819824391 0.07388933783409211 -0.0195877626426512 0.003405437342901144 -0.1342560212903744 -0.04792322425123898 -0.09538824362540785 -0.01282574168255089 -0.02551604138486121 -0.2306526310776886 -0.02111093408178415 0.1435981725190915 -0.04314464866026856 -0.0100570787044894 0.02816827673400156 0.09126808712828914 0.05514151694748481 -0.1061484833888074 -0.06912814508873109 -0.2767183571346405 0.01736934497767274 -0.1589444451869776 -0.04641087484828633 
-0.03710023969610986 0.01317580656869216 0.03218250935321267 -0.1067521165007693 0.1193624558991883 -0.05618383719792699 -0.07923615715793665 0.03683930001448318 0.06340594877075478 -0.1860676936414925 -0.02936593158651086 0.03917113455818925 -0.1707878815108991 0.04740951628740318 -0.1119111841215003 -0.7346402938159102 -0.1600308578082336 -0.02906179414765413 0.110500220620691 0.1135843555130665 -0.2570800526027421 -0.1953286483242491 -0.1128775470968655 -0.0667548761447094 -0.2076906668293256 0.08024875649774039 
-0.04756118765371994 0.05533468197936632 0.03237200436559373 -0.000787137852892892 0.03673187545685099 -0.03209659231258569 0.07815244394655047 -0.3084291983140741 0.07562644574406227 -0.3920529632189423 -0.05101136566782574 0.1250347733265976 -0.1133453208187558 0.07096798117018877 -0.09157080588037927 -0.02007164040571273 -0.1431594357802516 0.03037109471392057 0.005050063362542417 0.09207084272046784 -0.4001627239352729 -0.3319303692085082 0.1568400979381889 -0.1658990974555015 -0.1015387076552812 -0.04380187894987655 
-0.09484080385692197 -0.3120395079055281 0.1067038141504633 0.2241860266951493 0.02785209111782041 0.1093680164375708 0.0359015800847496 -0.2928777257936887 0.06525153749485461 0.05588696134760048 -0.5994642558778679 0.1585164365888856 -0.2535166345147535 0.0488933205640315 -1.109455602949066 0.5638803694281975 -0.5044198389173549 0.08196703154661671 -0.03330659758958067 0.1714884256766121 -1.180444930080419 -0.2109889647426886 -0.1613933682547271 0.001863479809757617 -0.1297944061486297 0.389786596946725 
-0.09497518308887759 -0.1409265356342991 0.03837204446876003 -0.09735289721787968 -0.2045952189362567 -0.06644927198218099 -0.3664968849362118 -0.007770442182889737 -0.3115886640968096 0.11122640416641 -0.5241078242722506 -0.1953043425798388 0.1568687041297508 -0.06238045750252864 -0.1504753355987052 0.04110690550492473 -0.1447406340792385 -0.01958716479904159 -0.1386932662371151 -0.3600702612692602 -0.008126601994026383 -0.1903019142331784 0.08137385551575477 -0.1792734210240286 -0.02584037970687938 -3.322605854924054 
-0.1755266986671946 -0.03372513179274714 0.02546109432336852 -0.1463340318722033 -0.04968338761954895 0.06426913380811788 -0.04892667818975806 0.005763641694495517 -0.1472834088960339 0.1710910990497082 -0.1605224151658252 -0.03581037816033671 -0.2610036821240845 -0.1456731221476665 -0.08288382634631154 -0.4202414168720477 -0.05275016098944926 -0.1264992889587005 -0.1254509769363172 -0.1411326903222388 -0.103351517437467 -0.05655168571164299 0.0114380203009119 -0.07550301798717893 -0.07217980462791151 -2.706689105218806 
-0.1272807672179332 0.006639602096881998 0.07027097120557273 -0.1714645955724431 0.07492379605046535 0.002165230904514288 -0.1734909174223331 -0.0462820286784255 -0.1255220695960835 0.01049245838989955 0.2342582308889897 0.1082377111984011 -0.3561884539456908 0.007263183826550789 -0.0381354385123743 0.02160660462104922 -0.01137970411852054 -0.2497995580648234 0.01882406103301358 -0.115292373662649 0.1112723058884045 0.04522138133360852 -0.07576261630703904 0.03719288526933365 -0.01575113780554133 -0.1820486727216313 
-0.1113052198816357 -0.0548951126480992 0.02928951409709114 -0.1510422768791638 0.08764706873362464 -0.002760044277239083 -0.001639215632455476 -0.01682305180289759 -0.05669894504922333 -0.05938085929053183 0.05468193039823735 -0.01648555824624201 -0.3399689665275396 0.01332026620157742 0.03475806687109814 0.2615498418759811 -0.0534342377135352 -0.2524649371339564 0.001890323950631141 0.06686248903543381 0.03579863194710974 0.05590400811314431 -0.1594033546262272 -0.06481307257915737 -0.08482227736526843 -0.468426640432389 
0.05234870796832437 -0.07241136893049493 0.07872685906978875 -0.2555436921112 0.2880235190475149 -0.3429533907964002 -0.04786876604736363 0.0651625395482671 -0.1667782464984403 -0.1250461204868193 0.0164681905277763 -0.09865435793742698 -0.03097296460633324 -0.02154396730204753 0.05050610147978646 0.1444620106404106 -0.1704812496578612 0.04669056162738987 0.005356751594687969 0.02174056482369853 -0.1367964794257076 -0.02266344616092106 -0.3508451092306639 0.00407981299589633 -0.03705319829656015 0.07609053987664952 
0.08227248283773272 -0.0384287843735499 0.0453504666419829 -0.09579725762619989 0.1006766610380671 -0.1258801383806915 0.08748398446784227 -0.09302023828034461 -0.0434684980638704 -0.1123534565230489 0.01853339596501262 0.01359253138266352 -0.1902767622545497 0.07239166385739509 -0.156127382748739 -0.4899336076890048 0.000768399512865464 0.0642459991322019 0.1274588548903461 0.01771468825429021 -0.0893601289698681 0.04276574682255734 0.00946139797030135 -0.1680780799302814 -0.05541165889220506 -0.01857945075998857 
0.055466397997338 0.03160118003657052 0.04721683914186221 -0.04973789364871006 0.09854805696476168 0.1277373704085371 -0.01649030547991298 -0.1110565387909909 0.05539616172208238 -0.5177643655677313 -0.3078285442400734 0.08830665919089806 -0.193344787981626 -0.009453976399571745 -0.3609747705809683 -0.3322917536706023 -0.1760223903110605 0.04547406992873834 0.01296434578555767 0.06009459542375146 -0.3852604537225714 -0.1858689997736331 0.03754431928353744 -0.09254260866732972 -0.01378091009977651 0.4170611479406015 
-0.09104251781735923 -0.1318491648126369 -0.2757416511030208 0.3542180837033069 0.2259634552672829 0.2465349338769181 0.0218440364737543 -0.2913513847489507 0.05503804807425387 -0.3502924423514351 -0.05885356034208695 0.1576614960022767 -0.894574474614562 0.06946714181384035 -0.357075177232206 0.4284542502151137 -0.1048421059656839 -0.01721713629766502 -0.1162164330983457 0.07076804570380531 0.0005773416311233986 -0.05684101256346535 -0.004516020340623697 0.1477913373922116 -0.08216840587153337 0.1862349947833388 
0.07958736288961692 -0.1352598723198131 0.1327014777354571 -0.02111715039395567 -0.2003215619097158 -0.1373297225306007 -0.2895899393543286 -0.2094252022694068 -0.4460234970886059 -0.002573529643482429 -0.539555926660281 -0.1549525419706492 0.2805899966126262 -0.1545404557085042 -0.06726075431822096 -0.4190624552598232 -0.1625417054183597 0.1622307282478065 -0.2333882016265465 -0.6674243579887877 -0.6153706947572503 -0.02613713504331297 -0.1796772598970073 -0.3080577372725311 -0.1593860078881383 2.42587052426352 
-0.2416934906852173 0.03428868444527321 0.03257535463724008 -0.2496736114728991 -0.07447566354946725 0.1346318397248771 -0.1271808169446274 -0.1763915918915926 -0.2610392070440089 0.1581876238220938 -0.177876393259312 -0.1306407264876125 -0.1827433386435939 0.01167037717713519 -0.1023208539250968 -0.1690605441648816 -0.06642406122300427 -0.07520971256106687 -0.1747591213941866 -0.4442447137059457 -0.2052402941467464 0.06050726948719876 -0.1745869587965903 -0.1001969776241607 -0.05687093297399303 -2.758950784903085 
-0.1025182325092733 0.1077598920388803 0.04688156391529961 -0.1781493503046251 -0.1946722645218287 0.08571053226364178 0.06581616488618483 0.03648875111266701 0.07810574588056379 0.1082058128007117 -0.004917156944853156 0.01413035342431827 -0.6046102114309594 0.02444332997273645 -0.09795106936747859 0.2110786148048665 0.01870992290607971 -0.4238568739367009 0.03603440639722181 -0.09193446497307282 -0.05066384800533941 0.01431020772044424 0.05783462594048062 -0.1055581103439921 -0.003882540616211127 -1.40226624163978 
-0.001093599775027667 -0.08253043742684044 -0.05852158836116313 -0.421852695899721 0.2130773721124639 -0.1372313783539147 -0.1088188923982189 -0.02396610416498119 -0.1839458523445428 -0.06827591781688071 0.1465324883008857 -0.02859273626628966 -0.3968686287337704 -0.01928398716705105 0.09558977570160397 0.1975597919061841 0.01279486673699799 -0.1389998110000776 -0.009910904462913504 -0.1845443556201458 -0.07837164418247791 -0.02373274292985893 -0.08252098286946372 -0.04268025762893866 -0.02616058418596687 0.1653846748331608 
0.09030118851085893 -0.04224669346515202 -0.05070590209565962 -0.2309143952323061 0.2169545087828276 -0.3477215280169001 -0.02203396918758617 0.00266459402282649 -0.092036063241502 -0.03142455580013154 0.03765630946716215 -0.08827806065091594 -0.5071621757965985 -0.04844672823538337 -0.05691459783025985 0.1227882953534954 -0.1013500148811201 0.005505207491009426 -0.01913904962022392 -0.02607516055048555 0.02995307593746756 -0.006577009463543945 -0.1137158217981668 -0.147410699346242 -0.0768300682209966 0.006779248195895008 
0.1668638496242165 -0.0176654727266598 -0.005223681161987398 -0.2609315852985641 0.004279886529525208 -0.1445020616202937 0.0971732258743843 -0.07309226974330002 0.01898665720451463 -0.1595197716311998 0.03958927909060569 -0.2075602965405562 -0.3794648434691072 0.1033569935906096 -0.1905481224788108 -0.04022760629668439 -0.1042459466123029 0.15237320539589 -0.05086817733689134 0.0930262822152287 -0.08547988818412658 0.01297721457297029 -0.2072129673127309 0.0353195944147216 -0.1196939632133593 0.09014841822616838 
0.1122253457771202 -0.05134118068047344 -0.2789947927223553 -0.06344576644957327 0.02548396436987023 0.2158788533937756 -0.07161911524524397 -0.1253221613194106 0.07907228055886047 -0.4038054199079965 0.03700284639858301 0.05421051516591196 -0.4986277496428965 0.07903927458193015 -0.2869322494530201 -0.2097817205367961 -0.09936323295942813 7.17159499105573e-05 -0.1729823222070918 -0.02307801755821098 0.09985881731098439 0.05567201059339702 -0.1287947718644137 0.06109632544635413 0.06405038120131509 0.1285919626307409 
-0.1578806102161051 -0.3902568491737713 -0.5318780136036294 0.4242190602754767 0.01144062577044133 0.02007286641446587 -0.0264952279667742 0.0398955488309795 0.05755640002183989 -0.5612286491885813 -0.3334431410336308 -0.1376152567531972 -0.1263944967992003 -0.1029982099880071 -0.2905443533881922 -0.2072133312946405 0.1852469065007878 -0.02458901854086124 -0.2008001255679212 -0.0911031279702436 0.3572919273788433 -0.2602662845727862 -0.1448786491115894 0.05860654065237986 -0.05985494341800242 -0.648574854668047 
0.160178686468226 -0.05510600341354702 0.1131506575351563 0.03774433982652754 0.01681968041987517 -0.05695039326579777 -0.09022906753995835 -0.1195344950325617 -0.2665096990689593 -0.05762744360805884 -0.3463434050340108 -0.2942515332344157 0.7501095955493833 -0.1838372448165192 -0.1068338199430547 0.01452332141616704 -0.1839310294202679 0.09447217109964468 -0.3323822744552835 -0.1395637603577092 -0.6302105377626602 -0.0220142314181776 -0.1255227602727924 -0.190316219842348 -0.0648315474191436 -2.767781800514077 
-0.1061500264753386 0.1013734028765766 -0.04202138558503056 -0.1731654559434964 -0.170032318630295 0.0009551209202622334 0.01656643317362837 -0.1299014502679909 -0.2934861655282215 0.1290598062376712 -0.1005324325022838 0.03122349954989741 0.04328003721089205 -0.08976005265439729 -0.1459875388628998 -0.1743226155348047 0.04626256856289605 -0.1001290504924267 -0.04166399892993462 -0.3113852770503899 -0.3766343063828925 0.002224939561845561 -0.02815118541207418 -0.1960405565295646 -0.05430283976823962 -0.4815099184423144 
-0.0446714730405122 0.02136459178715824 -0.1219353030359874 -0.2813549166001009 -0.4619269463596269 -0.005466294839309124 -0.0860117519902051 -0.02592141977016481 -0.1803712446321592 0.07716910754412799 -0.07672217405515794 -0.1552677582506667 -0.1313644564356842 0.04997708637622081 -0.1216017501860237 0.1692303938256321 -0.01540320212140154 -0.197813300260476 0.02505694391949422 -0.2756776295051227 -0.3571790855298429 -0.02997063921526446 -0.1202766454333351 -0.06349694049217547 0.0442391165162488 -0.9892481142668571 
0.03712889409610343 0.02849900185940019 -0.2131766468177249 -0.2617221891188927 -0.01455227614392071 -0.08029849449091364 0.009484161395696564 0.00131509773886803 -0.001191505332276507 0.005753080208312993 0.08311164241000758 -0.09124148749903171 -0.3539365188621144 -0.06683958341977002 -0.0194140842818853 0.3565629743336667 -0.02743441207234751 -0.218056134231157 -0.04704332401420204 -0.01681837693013531 -0.1199384534453655 0.08017199321719279 0.04942670244052015 -0.05216950592477754 -0.01376387558317824 -0.1634021760387837 
0.1090557470469654 -0.07188521983325934 -0.2513828488975193 -0.2017009597196614 0.1546164596076026 -0.4272193637334012 -0.03408873500290005 0.01299422690736463 -0.08558448805340628 -0.0653063801019389 0.1897857309948092 -0.1056031447021197 -0.2853296350227889 0.03666252611390817 0.00582540465898125 0.06147789831479923 0.05161584519951243 -0.01105811113610529 -0.07387334121174589 -0.09417001043829865 -0.1849661481380437 0.01222435992770145 -0.01225504710839374 -0.03762765907500751 -0.06926035069973091 -0.01329509838190061 
0.2069370445575941 -0.09324633987077738 -0.347989853388753 -0.07417505528836754 -0.2656114249165085 -0.002165652874447033 0.03729996398341101 0.02789192410425795 0.05470261963256721 -0.120965325304183 0.07898631346962927 -0.2046745437310168 -0.2319708558042309 -0.002354521077979892 -0.1042723940351919 -0.07428543711847914 -0.1242733827827123 0.07827903828889661 -0.2011595535028248 -0.09660291402162939 -0.07675458258957313 -0.001355952081531044 -0.180747303020936 -0.1009256465926311 -0.05859230470299106 -0.1302492671960574 
0.0374566838531838 -0.1360363112874107 -0.3422230861728676 -0.0993042475929018 -0.3909480668572978 0.1073438407954005 0.02019504352117762 -0.0794330560625906 0.02485931325442169 -0.1457626529097991 -0.06985271409375567 -0.275665373341663 0.02307750939182393 -0.08179388136670968 -0.4678820228195908 -0.2528009323901233 -0.07333314655158914 0.1173307500844217 -0.0625854955021741 -0.03523389595351485 0.188930546986553 -0.1306359435397365 -0.1578703886188872 0.07441169242250822 -0.04664190907619106 0.1067352738669656 
-0.07333909136502462 -0.3505947423684955 -0.1683567043389611 0.05673708089496562 0.03059412691153544 0.1551756745229575 -0.04056144364996282 -0.1529281758867829 0.001446899277603785 -0.7537819531679664 -0.1719321062858169 -0.3815111936062581 -0.0714665180575684 -0.2512689915541224 0.09742416400942301 -0.2170511676710276 0.1748478461770311 -0.03171978649718457 -0.08920444102795798 0.0239919509154792 0.2193346719119945 -0.3251073718509895 -0.1861767159496529 -0.09205086558417358 -0.02231388928578329 -0.1214212387948913 
0.04948467408360387 0.0882204865739738 0.01303864959216479 0.03506173518216101 0.02482980551832553 0.00816102785161865 0.06389135780150045 -0.02552773936472493 0.04747400121359176 0.1382512157184901 0.2143875656702519 -0.2812601111360448 0.03186648370189069 -0.1571572663882742 -0.011931204727956 -0.1503242066016263 0.06079388427771641 -0.03247286952117918 -0.0100839967687478 0.02117394393011759 -0.5603655650192557 -0.07884600939940989 -0.1680035580999878 0.01582051646504543 -0.127949187936816 0.4635531422205055 
-0.06755169167145973 0.01807130353593699 0.005134083892796533 -0.03446681615079854 -0.1923491353613729 0.006273228466339809 -0.03457306840239683 0.03625924800280986 -0.1889445503432002 -0.04028268503540287 -0.06288809724907166 -0.1483006752459675 -0.1334193722760599 -0.1102407108916327 -0.1860219360711111 -0.02059043810283458 -0.009367182700267577 -0.02855928124120669 0.04054501315976158 0.05292492133207335 -0.3333449255588888 0.03893697534066118 -0.1589492658039312 -0.1806208309604519 0.01147374590623232 -0.3448280201490939 
-0.1012133206280037 0.07235148484712728 -0.007672263720664776 -0.06022194258041487 -0.4793230352024887 -0.1302325037306131 -0.08611858008676612 0.06042768931275806 -0.2157825024477599 0.002264211661345727 -0.1830807362577331 -0.1863209965605278 -0.04431598633952222 -0.1078239862454371 -0.194982879937907 0.04074618397270816 0.09197595129070169 -0.05867345428150696 0.01147718514175564 -0.05159896332155422 -0.3925242390195043 0.06011293667473357 -0.01348497064912056 -0.2109213207460716 0.07649162393791344 -0.2545362661312053 
-0.07448260849954909 0.02817521377244241 -0.07543095057868161 -0.0317790835868263 0.03053025070215092 -0.1960480997280911 -0.07099968371892076 0.03669406685945155 -0.2365123693876251 -0.01096789406545194 -0.102236686554801 -0.1614894481249959 0.007013831732094493 -0.05272926594820772 -0.01312885022590247 0.1828891704845223 -0.07204969424002036 0.01630172885268106 0.05653706907863961 -0.2164812236485469 -0.3255256929028981 -0.04051709236281207 0.130283511965511 -0.08983264066624094 -0.01190959363506436 -0.4175416093866439 
0.02679548636032951 0.003616677701524681 -0.1054841705059197 -0.08200529767593913 0.03267947570877817 -0.4179410879748099 0.0732699217145944 0.09063466743633303 -0.1050570834522446 0.02181090753717466 -0.1151951515120256 -0.1809525968144585 -0.04605267020817744 -0.06669509884395027 -0.06461832242107245 -0.1012217509652185 -0.1289361995958799 -0.1208733642814757 -0.08286007008910506 -0.126115220106943 -0.1202668601941824 0.01838730413931563 -0.03809711460177036 -0.1404325219570221 -0.02910410327318939 -0.2535621826540555 
0.04117447030249202 -0.01311488604383104 -0.04522767751692659 0.03174699017013222 -0.5057054412323809 -0.01030706885325854 0.04967754866724624 -0.03136242713996322 -0.08643224998823651 -0.06911936813028409 0.005082403716317808 -0.3299956059487146 0.03544562560068038 -0.006226512810377772 -0.2191605426768079 -0.009136369530421042 -0.09762202206385112 0.038895849040583 0.01192902504265864 -0.2170251340826254 0.2490212981020998 0.01648932889337584 -0.08091339569867401 0.02097542033215915 -0.05617548099239966 0.1035944654958188 
0.05135362984406603 -0.2342816735495356 -0.03454211343389357 -0.08423907378260156 -0.07672233570943027 0.05101381274580265 0.09133485975319246 -0.2028688956977963 -0.03055160132683283 -0.1565508647569291 -0.04958480273992025 -0.7350524315830917 -0.001795168323503316 -0.1423953896397804 -0.09472046326133693 0.0246669247149542 0.07078236037422056 0.05573147095656537 -0.03385148308747422 -0.05090497942022592 0.2066109266447179 0.001400109934666869 -0.08459147222388001 -0.05447781108388162 0.03110506671885496 -0.5470635120675613 
0.08421823478649021 -0.2539709762607227 -0.08102540510271541 -0.1799342395019375 -0.1613726933115209 0.2468935931243412 -0.1182124618576851 -0.0958086612847472 -0.05198654304906703 -0.957862650727062 0.09638052014832947 -0.639839216156758 0.04776146145170171 -0.3660614775316491 -0.2227254107400652 -0.2389260324533802 0.2273933172548859 0.04971078425507328 0.003790520570237903 -0.2397399407294487 0.1622691823102815 -0.3523513624179851 -0.1931633057964649 -0.1743746164554859 0.01409537241779373 -0.1008650451637481 
0.006360729160750559 -0.06964796969549625 -0.1270645484474879 0.0452142793412643 0.129259417618265 0.09560176448803141 0.1907348549986756 0.04675279885302003 0.004630331791930009 0.03069928414816879 0.07242945530557643 -0.05995055205413671 -0.05360065242935342 -0.1600821788978553 0.1177858842000732 -0.04361857605125401 -0.06454912762184975 0.04791802196343115 -0.07569009490454373 -0.09410409688488548 0.2037792670579758 0.003333663430700959 -0.1534293657970316 -0.122278139710133 0.0161823328296941 0.9693789705229728 
-0.01294533835060442 0.1191596715027404 -0.07945610361625481 -0.01551202830263972 -0.1667572220880722 -0.05172815080177577 0.07570487732172866 0.09562176091370458 0.02295235440753449 0.04828184562267541 -0.007133747348961255 -0.1651342666456246 -0.09329450541775475 -0.09516662443097468 -0.08801800549925866 0.1415220415195433 0.05855271161639919 -0.1533117111185294 0.02223913093646544 -0.08612107504129481 -0.1209546168546542 -0.04713393212920634 -0.07480027815618938 0.01147146693242871 0.1425888705099475 -0.5042277887216761 
-0.1245420180941142 0.06893506740498272 0.0007593162707024697 0.02466290705934302 -0.5029935544063767 -0.09756900058867747 -0.02108577046422545 0.02464440153218676 -0.1924537881866939 -0.06129151424936104 -0.07978514067748906 -0.1678099512907882 0.02952275599986971 -0.08422854932599987 -0.009489835230489406 -0.06760357559206015 0.03745930039815311 0.009659761521942856 0.04406386577869192 -0.07627220118171986 -0.1179314564563204 0.04487474809123995 0.04801984907064365 -0.06730509420979472 0.04580965073036763 -0.5309610595044812 
-0.1294863117091754 0.03806627729922599 -0.02077197538511026 -0.07016040440092221 -0.1059057488651587 -0.4285276447224129 -0.04082951925508101 0.05742176744778685 -0.1959821730143207 -0.1112046592582038 -0.3508813404769942 -0.2765305147229583 -0.05645969873655796 -0.05519307845283602 -0.03012644037050782 -0.08667779762440939 -0.02021298916667352 -0.09602347577967654 -0.05211191756572374 -0.1968250086001131 -0.09476327024943859 -0.00410430632949468 -0.00947171914068351 -0.2038684090896551 0.02912064361682309 -0.4052790100305993 
-0.0816617642159521 0.03627574130440434 -0.01589637695399477 -0.04702128616201839 -0.2718461577193896 -0.5023767564970838 0.03120058348778367 0.04970401806343485 -0.1968179821772902 -0.08045629934144559 -0.09460314664458966 -0.3270786224399246 0.03161262706847964 -0.04593636012510617 -0.1223860012855269 -0.2494418303744334 -0.1078633936791043 0.04732093897458781 0.008975079698839861 -0.162789367839384 0.01602384556929853 -0.1139914691061114 0.0649142480444459 -0.06851803677448998 -0.08117261352195033 -0.2147493848695916 
-0.06739631036949474 -0.005773214691448071 -0.00701560520373126 0.04559597811900513 -0.3324315522227066 0.001479710841781135 0.1815130378971826 0.04288263151659937 -0.04649640771885205 -0.1801468360643415 -0.05064043438277177 -0.3318326131875015 0.01172929964268783 -0.07485272346433937 -0.1377710787386287 -0.0326147052934124 -0.05348459350190495 -0.04629856000767607 -0.06433572957557761 -0.08989079628771304 0.009773469102184421 -0.08821775143184304 -0.0194465880483188 -0.1122363622201968 -0.1109262548111776 -0.3573653522157628 
0.02660714954884376 -0.1496974562768698 0.02116881349386027 0.09899804232057476 -0.1866556368048077 0.0384353853356837 0.03873492793421022 -0.1081479462315662 0.02224182274308713 -0.02323981661153095 0.03654375750762852 -0.7964201113359581 0.02965121191109002 -0.1231568757021315 -0.2845639974141708 -0.1106414641140846 0.1784081963492304 0.1064414182369165 0.09012763905742288 -0.1053031449710935 0.08454663314401921 0.002414996640749269 -0.1834101324585845 0.09193748155846139 0.06168957590446981 -0.08126896937645313 
0.1222154629996252 -0.3247538156539047 -0.04155711322036685 -0.2607559161261139 0.02007251698664462 0.2480953352478498 -0.1350673805346419 -0.05123327448330346 -0.07464465550731285 -0.9346139335107173 -0.122107133200267 -0.6183289911189968 -0.01446575851371291 -0.1797652777162215 -0.04085207041282606 0.1504489342225316 0.197737044102879 0.04779035173798866 0.006413270965514201 -0.1234380662258148 0.3498833240160052 -0.2264914052515125 -0.1163761297838761 -0.1939035492909205 0.07006043230847299 0.311682535200803 
-0.04577847880462681 0.1257630803443361 -0.1280054452948439 0.05727980017451439 -0.0120415177315614 0.06786196381613861 0.1288701209214848 0.1153860585503169 -0.02569341599236259 -0.01069465297133484 0.07036357716422563 -0.1828118337172523 -0.1859729139577515 -0.2019442472476514 -0.08812880844284549 -0.132211225592119 -0.1401684696477792 -0.1016317570352722 0.01358037945439156 0.03469468474804853 0.06225967745713375 -0.4719645054736197 -0.2455484808501557 -0.03383696943879478 0.01645383682615915 -0.3493083455089835 
-0.1412296480000075 0.05078820921445369 -0.005363278463467651 -0.03945793985419727 -0.01977469556633398 -0.07052933025146478 0.09963259912481799 0.00993427238741916 -0.00120500249173266 -0.1173104479790293 -0.02722373782312731 -0.04278070856616412 0.02177829726672063 -0.0863917021222389 0.01461368917524401 -0.002206996957406537 0.06909895084532661 0.0311639369764137 -0.01054876777398717 -0.005705658214544941 0.05994566546101635 -0.1779333122570561 -0.071691816542785 -0.1295244965187328 0.1113596490853499 0.1656090771694687 
-0.009974573823760409 0.03761430425392691 -0.03204519431685171 0.03310369429072667 -0.4122131555073452 -0.125147657916182 -0.07678145789161923 0.1583789775338632 -0.04303493757400335 -0.1333047399865757 -0.2061607816001974 -0.2277403419641872 0.04702696117851463 -0.03099894599760912 -0.05112973962111313 -0.0431598602271895 0.02707096565672882 -0.01239409854880089 -0.05590551490036006 -0.1499861328964336 -0.06397201328537611 -0.2732210011716935 -0.07103686874354806 -0.06596322505306981 0.05328368985815216 0.02108259932415588 
-0.2027110214439924 0.01776088177993933 -0.03386157601825462 -0.04955019102059947 -0.5464050435560917 -0.5267116980016507 -0.06985595889507826 0.1148405941752565 -0.1153763852400491 -0.1095140624318116 -0.1932855043010649 -0.1888922289052532 -0.04810625487248894 -0.06142001546215252 -0.02501201241795552 -0.1380699954853248 0.04946592093904681 -0.1234822676285223 -0.1243470990585714 -0.1558301261942197 -0.1945518101078064 -0.1194645245808338 0.00833697080485769 -0.08487670324464089 -0.04343083730322678 -1.168351525614261 
-0.1294091693628736 -0.03081184538261985 -0.05820667064665057 -0.03987354961960419 -0.5248652193170023 -0.349669711673632 -0.001913851239153761 0.09490881584356688 -0.1615847761476201 -0.1493664399813207 -0.247187439098049 -0.1154147796489509 -0.03670594828670078 -0.03320157318217243 -0.05674956125366969 -0.03084910446551086 -0.146325490282297 -0.1234786421514098 -0.09065851606136958 -0.188089895159882 -0.04510454350221839 -0.03634096153096007 -0.03537298106866379 -0.1376841798637254 -0.1015867411106614 -0.7357725838505126 
-0.1771769487873441 -0.007370007589185246 0.04775727141630402 -0.04127277797632064 -0.02396184152581414 -0.1684601154683448 0.0442769847610447 0.05697274194508668 -0.08712591650119345 -0.1402629917464638 -0.07953991277784876 -0.1491362414522035 0.1236508699788317 -0.01729052876731526 -0.1172089202695198 -0.2308100944151682 0.05777634863157719 0.07848755961643768 0.05873805483673281 -0.191361715818422 -0.04606239353820805 -0.05420571946180935 0.01200719076222066 -0.1189001347690334 -0.2315857442301556 0.02202553943068915 
0.04210217185216498 -0.1272492981636024 0.006401667726729643 0.02686529377134459 -0.00861716553677516 0.09322758496819655 0.07368502132301311 0.1308264092148902 -0.1190609147404313 -0.3057872613425557 -0.09559419772135119 0.07975591440844058 0.02869476784983052 -0.1297018947836956 -0.1339818512199745 -0.04914112391432415 0.03676682436297765 0.01616695927289962 0.01005893502913072 -0.09252302508862817 0.08916617612660216 -0.3794033258363539 -0.0353065023722882 -0.3000358334832327 0.04654499478131309 0.3733471315048996 
0.1385398437914522 -0.05222224733877844 0.03351519418611152 -0.1859024090080789 -0.09715484572869423 0.1410347695600172 0.07735408911818613 -0.0797622590287277 0.03901087610626593 -0.4903351476018877 -0.08477628430461803 -0.5709607844349408 -0.003757012649087114 0.0154881182315696 -0.2955930279347897 -0.3181360846319515 0.09754345184449778 0.11021190577113 0.0668233985686344 -0.1042294830359661 -0.01866804583270884 -0.01891957076119778 -0.2137428127166363 0.07388337129094036 0.11556912452508 -0.4817631171990127 
0.03556753919830655 0.05974209068672215 -0.1850932289039204 -0.05074781732424316 -0.06329720167964042 0.08083828389490585 0.1857637590686035 -0.07105452575737775 -0.0006245720979181774 -0.007762317830262684 0.05361317881310093 -0.2132826023874466 -0.1064717573001217 -0.2825728656915339 0.03120733860694041 -0.439271297104541 0.04045409705950745 -0.01196512452720414 -0.1412987088320079 0.006293465662405541 0.07882451145541003 -0.225459585360757 -0.04105767595368313 -0.1682700624578385 0.1498989690372998 0.1890824806847223 
0.03165633343282815 0.1523298640033766 0.03796870713215927 0.1221963312115215 -0.08655470932067325 -0.08684770515838562 0.07154093258257897 0.09656192965693046 -0.01477605500890942 -0.1115145471151438 -0.1308824279897929 -0.1450227572049874 0.0007670914043653456 -0.144560405620086 -0.01037910074793455 0.3814681634295882 0.05394581012824051 -0.03876040177286116 -0.005196428663327847 -0.0821110051602518 0.007794104646890624 -0.3730575009010615 -0.1272318130728862 -0.07492766236055132 0.09667479465291544 -0.1612328092990728 
-0.0593454760959844 0.004015106694921344 -0.09785347742831585 -0.04151096061177811 -1.019356909231935 -0.01992209544935075 0.007003010254712828 0.08269624273149723 -0.08358813273667753 -0.03215214152407387 -0.1596377466423282 -0.08553628822641739 0.03022374245885412 -0.05497383401702607 -0.148961847124803 -0.1476913688192505 0.169512656488002 -0.08490585756620656 -0.08862860881684025 -0.03101594768634219 -0.01873629351411901 -0.2106188052985845 -0.03499337645316954 -0.180106695113164 0.08521313989956857 -0.07413079498842023 
-0.2119842575552828 -0.09123119232518573 -0.04436864458196374 0.009003967549529309 -0.2095331709737457 -1.154447547993849 -0.1249251171738888 0.09970038915539915 -0.09928630961313127 -0.1631154133553497 -0.08320294977692178 -0.1754647910954624 0.01664004218284091 -0.02567439929752324 -0.03638396871827807 -0.3107592564401189 -0.1023711396762269 0.01944119256754678 -0.04842685570528958 -0.0718330782984201 0.003428513073885398 -0.1148907848852906 -0.07188255451434059 -0.107144533695067 0.02285345146873564 -0.3850214141811516 
-0.2073798804024603 0.07046385056631087 0.01441195618989844 -0.05899097490384534 -0.1003323187795205 -0.07786781224794023 0.01450549556674488 0.1127561375484589 -0.04351246649328287 -0.2231172969218631 -0.4998845634296405 -0.1712154358792942 -0.05955131667071965 -0.02797730692206112 -0.08580496132846517 -0.06905010468691815 0.03468445710058413 -0.137865818639725 -0.04394148651741287 -0.1461929949989732 -0.2937489473369191 -0.1393504182541949 0.02405649125139959 -0.1893590462085914 -0.3821300078215535 -0.733294757424516 
-0.2656841222628312 -0.005011156620060117 -0.02372457699980874 -0.05449640120656066 0.09066228035121288 -0.08930706986883032 0.1878032703967827 0.08430964750589671 -0.1348079933259507 -0.104173592015885 0.02180043963521632 -0.4833822892659075 0.01074101976882061 0.01846314872905053 -0.1688781092618423 -0.169704930021932 -9.601094006767182e-05 -0.1089736576405733 -0.05703910477552587 -0.2240715977326483 -0.009610367011720808 -0.2375606931809193 0.02401115527159205 0.002810221955162264 -0.2770595568746018 -0.4613035425759007 
0.05419694506329385 -0.07408913614542553 0.09674051536058989 -0.007977580297716657 -0.3652514348649569 -0.07389312373990536 0.03295230821055916 -0.09515470455326537 0.009508212101320721 -0.2552510740032407 0.05043643948878886 -0.0415276856991092 0.04690071076836418 0.01945306524596385 -0.1182813814909524 -0.1354248902532498 0.07561779787906828 0.1082347644678421 0.0828033378509502 -0.19917754688048 -0.1627686880304818 -0.05035026058319655 0.03017653597715626 -0.09394261160650733 0.145636275074945 -0.3278472918728131 
0.1244811302712831 -0.02968576306407813 0.01837902293984692 -0.2576183079900947 0.08061019944253131 0.1388050920073206 0.003192148464253679 0.1099711867763879 0.008830989174220415 -0.5417115328262697 -0.1284494475521291 -0.1748717669509997 0.1235368714065427 -0.06070800163105267 -0.275549153787129 -1.358272554521462 -0.002450524908001912 -0.1750961325907266 -0.1199646930858553 -0.1465126529930645 -0.1542469037063832 -0.3571852070941397 -0.2258957489363223 -0.1106408439880827 0.07366521354029676 0.5946952040644485 
0.09514928512730997 0.4113311011659743 -0.1086803150026898 0.1645216602686949 0.2306549163642657 0.02520892580180521 0.1234759835048321 -0.04840148950025477 -0.03576955120476703 -0.1104598287480208 -0.4131565733928501 -0.03725299175885698 -0.09288284142366708 -0.2657245715234684 0.1366180875060823 1.195848314895434 0.1900839724227742 -0.1835535587962109 -0.01517290948122399 -0.02461644635126719 -0.04304067131243773 -0.4601810194098168 -0.06599929564155517 -0.1461475310845147 0.1248994437873566 -0.4833150813660468 
-0.1019238195140933 -0.06825663020389189 -0.01525261383962435 0.02828902060799977 0.08990583359423521 0.05668099320743077 0.1215179956268799 -0.08968653891062925 0.03227511647835152 -0.07887310691419182 0.0286478417466742 -0.1106717054870771 0.04509741086968537 -0.05128685929770055 -0.1252584660066949 -0.05368557018886885 0.01682864491788627 -0.074540038535742 0.01459251708168788 -0.02897538389734318 -0.006841000945831615 -0.2267910494220891 -0.1726314736092529 -0.1625483457346215 0.07380606303965892 0.2987600397712784 
-0.06462113411144341 0.0002165146557195075 0.04642225277089389 0.06155002037211803 -0.6221502952766644 -0.07283961818881185 0.02854485462810863 -0.02815700721345023 -0.00321250834767726 -0.1075907268918279 -0.08055010207636212 -0.08497395309163228 -0.0317929183737245 -0.1235355596005271 0.1878048253117345 -0.6140263201744912 0.1307577893221797 -0.08700823801116993 0.03631046804501156 -0.06871234204538697 0.01440154319946477 -0.4568015019280935 -0.06717675816339398 -0.09103454933931107 0.06999965120901064 -0.07675556348108939 
-0.1231977546371144 0.002386679635264584 -0.08335658322558354 -0.06484104166280727 -0.6395345734128911 -1.174518977030956 -0.003836886422367074 0.102586443183634 -0.02998457638314329 -0.2341808037002794 -0.3082387627572927 -0.1420081790421545 0.01295629789789445 -0.02794972287983834 -0.07665650022016889 -0.5741969643110384 0.06892222305331457 -0.05256762262706978 -0.2456998634682316 -0.04351964968398448 -0.06294999007573629 -0.1907624277860524 0.03751404071457555 -0.1175060993929463 0.07517793308407676 0.6952697598133534 
-0.4264913475322124 -0.08042583912657078 -0.145647183943436 -0.05591721387154933 0.09902837407558424 -0.4887680573241006 -0.03106398071060633 0.04808982155475038 -0.05145593729015496 -0.07374080544804687 -0.3196664534988433 -0.3245766672191412 -0.04001562595127531 0.0308426893159932 -0.04076639947620594 -0.6375686708444626 0.07339973754451379 -0.006848152973269024 -0.2621278093954278 -0.06267226805564349 -0.01956211659109193 -0.3060814437991358 0.02126047607048888 0.01504655596796639 -0.9256600198668415 0.5776166522188125 
-0.1826607680241277 -0.1719144877698923 0.05062963196018183 0.01682493732231039 -0.8053231259948013 0.08794041567124886 -0.01575076553179953 0.06942975803714892 -0.1322703496540662 -0.1553819924383337 -0.02821418357500954 0.07249594506109294 0.05424920150242555 -0.06388828875638235 -0.007570928659505904 -0.4478828438951273 0.05615238349373419 -0.1490323011159359 -0.1008749890245423 -0.1041759931883232 -0.213789220881229 -0.1297867975928171 -0.02052079983357686 -0.2745824944612521 -0.03435713427625847 -0.05881768712635244 
-0.2629251927402778 0.01368069346157284 0.02002734448722673 -0.1516616827892885 0.5584784780727655 0.03188446946241414 0.1488979169028975 -0.05102442266571303 -0.01045495576364941 -0.1739512975188456 -0.2454599661781873 -0.4729593096672625 0.07914499792277829 0.01331405760278432 -0.1180844867701216 -0.5597603467183103 0.02028019181372293 -0.0184327460533513 -0.2409727951229024 -0.2492902484090271 -0.004767121367584139 -0.3368787167094389 0.06914679807698686 -0.04744186134254989 0.1359290219684096 0.08632328851206296 
0.02687140794896586 0.09995491399248996 0.1218921557085288 -0.09549937442759525 -0.3045507920946288 -0.09364355897655786 0.135549267723768 0.06995716661034355 -0.05827339408434309 -0.458301344863522 0.04132451734556052 -0.1367997810128094 -0.03467199040313796 0.3339799060983895 -0.0839676167093131 -0.4681343819130409 -0.1747376200381766 -0.1309717994690442 -0.1159935782170936 -0.2230489791572195 -0.05965257171903071 -0.6404652211785368 -0.01361464683122121 0.1269141023594023 0.1837003121672366 -0.1828307418043626 
-0.05560685647131539 0.3045683824930345 -0.1417203250524653 -0.01021522168943141 0.6814988678902294 0.1002451291863575 0.1101535230697427 0.06841134258843097 -0.006009435461575977 -0.1999023157612108 -0.04465660291060822 -0.0188006811157266 -0.2570482356040908 -0.2288092790375733 0.1007286987448022 -1.392591968535065 0.269730426839087 -0.1077833867894638 0.02285051379910301 0.07295069835058583 0.2217213376723073 -0.6813753776243929 -0.6927479912335029 -0.1490406177407802 -0.01984977837951381 -0.4962685089614673 
0.02983807044688389 0.3655120399311366 -0.1888513019487282 0.1790110617448519 -0.3639508617837229 0.01062814152152113 0.1954028718783432 -0.02346095358989125 0.02483793452988082 -0.1971243774037073 -0.3135030936470614 -0.2184222479511352 -0.05995932976019724 -0.3619176207107671 0.3030832029475707 -1.093522612417456 0.4145272873246983 -0.1868112156530476 -0.03916579778318871 0.01171624071871511 0.05629565009144084 -0.5813395487073381 -0.1473122211130315 -0.09283804659579618 0.249891392468527 -0.2066577876568464 
-0.2126208654920969 -0.02848973070782432 -0.1005933764242433 0.006425111587576002 -0.1450044933494397 -0.1989831512445516 0.2021899007104791 0.0101260258024037 0.06210761815629847 -0.3199002177380655 -0.2349722141974752 -0.2167076812900319 -0.04717400467435579 -0.2895012765683642 -0.02119289308467454 -0.4344101714689695 0.263034446984461 -0.0560990053712 -0.1701251578363087 -0.02577104709236588 0.04603288638646035 -0.2766314138966991 -0.2347799344114527 -0.1087056051753579 -0.03326501816959031 0.7677408052819283 
-0.2915442060263168 -0.301467087692643 -0.01606079413561197 0.04409086183765658 -0.3531463384229998 -0.6244863264210591 0.1498973985184919 -0.1106164959749355 0.09262784098338975 -0.15701465903591 -0.1078762188463207 -0.2624697787093122 0.0005533782243280763 -0.06367345911490893 -0.02160751427822265 -0.4409806955862028 0.2785933685940123 0.06325825790023219 -0.01920858248704508 0.07870871572318702 0.01819752680643312 -0.4581575877181461 -0.1515069709407767 -0.1055494363445108 -0.6553058924409101 0.4597820410673642 
-0.2809716880429121 -0.4337595563814699 -0.02536459023929103 0.007829170388985176 -1.079340017427496 -0.6720451962377614 -0.05402599257576557 0.03020224976251654 -0.02862238502198289 -0.2352741682879137 -0.470774543288456 -0.2142706569571959 0.05663159685295505 -0.2480579567684107 0.03813408421151293 -0.5398865883742188 0.1810087057567811 0.08525238486418515 -0.04103205926234617 0.04431625790693457 -0.08157390987168282 -0.3101572576214923 0.07070142179907174 -0.2071083654502923 -1.229250074487889 0.396429899949535 
-0.3300800419746663 -0.1394539897641874 -0.03490329833370757 -0.1376782329263293 0.2577009640868116 -0.3556696369831523 -0.08612294685416984 -0.03501071224939029 -0.08086244146408067 -0.09919309896638054 -0.9970108773061589 -0.3738482159180379 0.1308307424583009 0.08541663188644223 0.1158311768225455 -0.3276468592971042 0.01503731283937271 0.06218968325177297 -0.08142212948423616 -0.1083977743045541 -0.1745124040874245 -0.41243766802725 -0.06062913818152658 -0.09461502970087195 0.5107058367726347 0.4325123330592674 
-0.189344134976456 -0.08823969668854545 0.06923656528475328 -0.1612788253641216 -0.8507124596466181 -0.1575067816708931 0.004314704803144701 0.04983501079612013 -0.03091728442361572 -0.1984342156535636 -0.5119358058652362 -0.5790545888454242 0.2911654521459078 0.1764927128981503 0.1603016512275073 -0.438331062604492 -0.05303658745703804 -0.3907801131669727 -0.180172815964341 -0.009429171465531251 -0.227333706518331 -0.206731080695082 -0.1401196028709768 -0.06384085799565535 0.2663519920252129 0.3744194891089408 
0.1550568875641586 -0.0209547027913836 0.3900232584189498 -0.1970019104906444 -0.5090324599548207 -0.08367492147026444 0.4307093545073866 0.07096380003279197 -0.009258939605073069 -0.3709485728147757 -0.6404753570555486 -0.07066253733733283 0.3489143660062146 0.179170273351992 -0.1503939717219258 -0.4646046491651409 -0.6197598893058207 -0.1339964055961755 0.08024605191234406 -0.2565645272306331 -0.1999306449014791 -0.04171247475190809 -0.6920054817431219 -0.1334371751327915 0.3092192093680924 -1.126884559273766 
