solver_type L2R_L2LOSS_SVC
nr_class 26
label 1 11 5 15 13 14 4 9 7 18 24 16 3 20 12 23 2 21 26 25 19 6 22 17 8 10
nr_feature 128
bias -1
w
-0.3623567043112967 -0.05133622316254321 -0.3764477587347724 -0.1589902676280032 -0.1496034218972803 -0.134879777365396 -0.2696617390315023 -0.05232437881992518 -0.1765727274111398 -0.09323308051001376 -0.1064607326175288 -0.08114179859925591 -0.1607772180327373 -0.09141019194680039 -0.06328184177548189 -0.1134251227328152 0.1607741539014535 -0.1354746897008462 -0.1137996642898024 0.03290925211619106 -0.185952253892001 -0.2552271720409701 -0.1161960129942768 -0.1654226090480623 -0.003572694964658447 -0.1173372991993402 
-0.3878411695573976 -0.1720212385486596 -0.4751788327577286 -0.2066538548492681 -0.2977749780269878 -0.2351242032527772 -0.2446514920308629 0.03913201600993101 -0.2064400816253569 -0.1272682190051461 -0.1975500291215626 0.02575685422912856 -0.2478702667845787 -0.2753772855692009 -0.1455653816839288 -0.2143312056809508 -0.09159975771726997 -0.1582029660796921 -0.2337042291346176 -0.06879398568056624 -0.2531457543284625 -0.1915092414723318 -0.2140008382036495 -0.2283569494796501 -0.1183509481715943 -0.2922331806694515 
-0.3252897463294945 -0.3371510641099953 -0.4078330789325006 -0.2588296208337912 -0.3696188244549339 -0.2975488369970287 -0.4384720368721371 0.1650399653028024 -0.1119498316264566 -0.243659234721374 -0.3271723568533688 0.07370510074156955 -0.2838745552575946 -0.4121046343245277 -0.1282822589001976 -0.3550622712408688 -0.3252031449653718 -0.2995469234648286 -0.3428768234222498 -0.1844639624109137 -0.2340416739219749 -0.1506227219428327 -0.3457741055707454 -0.1325803558000865 -0.2602054743708179 -0.3477423627355215 
-0.4846110123746932 -0.5538278726193827 -0.3762910120125786 -0.3477445226738724 -0.3706260259588571 -0.2882654473302974 -0.567192058370859 0.1515307089608853 -0.1434399767414321 -0.3822107926924696 -0.3470815166978303 -0.06647146310359882 -0.3390423916137483 -0.4355060054875695 -0.1494534776229686 -0.3937852123780867 -0.5262252342674054 -0.453871382126085 -0.4569241504273574 -0.540335806287923 -0.2848802390356683 -0.2809573867198427 -0.4121567200951518 -0.2174335848096609 -0.4271703864562615 -0.2027876033049946 
-0.7105596357165792 -0.7399358710058976 -0.4441046072918426 -0.3980794531682676 -0.4331888673477161 -0.4913486620193208 -0.483334087952917 0.03098466170237706 -0.2134330130669639 -0.3199733310014245 -0.3126955756310589 -0.1052294360003739 -0.2910109925202962 -0.4838966183433219 -0.2496422165695457 -0.3963195194164377 -0.4484609762456414 -0.4004790975613235 -0.4968720164362956 -0.5070366365390798 -0.2840773939664143 -0.2572753014823632 -0.383658621838155 -0.1855368302768125 -0.5920269265582432 -0.2610156217379943 
-0.5527536760019393 -0.5931477197667304 -0.3046422575115297 -0.3294783688746769 -0.3589505655119864 -0.4622560946410993 -0.2907881062528872 -0.09237189329852584 -0.0952665493464252 -0.1744632868046513 -0.2921511358851492 0.04993074513914872 -0.1968593373604236 -0.1956587294735484 -0.2553136784478451 -0.3397140658277371 -0.4736193941364711 -0.3150574385156192 -0.3152466458099812 -0.4531655292934124 -0.2807912412748746 0.004846552222881255 -0.3068419388836567 -0.3138181165794133 -0.4348493664642292 -0.2591376016532433 
-0.404535739172596 -0.3182270791776347 -0.1290108943536816 -0.288864797963592 -0.28437046291145 -0.2984700818825667 -0.25443109705213 -0.1745521550735937 -0.02240996601845509 0.02713172633157486 -0.2227857453206513 -0.08639152813638319 -0.1333476870969144 -0.2126531078543867 -0.2006249672435874 -0.2465271825341626 -0.3008324398369251 -0.1846496256809762 -0.2612803163597375 -0.07017755973754644 -0.0767194700702394 0.1944516693684659 -0.124414520216663 -0.3932838067660388 -0.2886802001068016 -0.1423857471190781 
-0.3544818742517226 -0.2113663442403957 -0.05692884352185372 -0.379756024030475 -0.1318439558748996 -0.258827427933427 -0.05880670121454119 -0.1459370057397133 -0.1047134040164196 0.0719663644407799 -0.1446286218264494 -0.2546648818212817 -0.07411467110616135 -0.07015752586307683 -0.08409357637654538 -0.1461272231957177 -0.1966771798294062 -0.09937169406049166 -0.1614608060942059 0.1211939334799884 -0.0061241352441614 0.06169131388393589 0.01596743407765518 -0.1463802680112253 -0.1377045638136291 -0.0501318893064368 
0.04516512628266139 -0.01909175036518518 -0.005264030559924988 -0.02676451091532422 -0.1575985027577851 -0.02306985397753212 0.3221443743870155 0.06761239670908674 -0.03356976975944301 0.05700389904098371 -0.06841931336176259 0.03317947894127072 0.1078179869555497 -0.01554562070463069 -0.01292224843304656 -0.1168191284765538 -0.01928671867018131 -0.00377238582936961 0.0008442602346498466 -0.05909428435241128 -0.05366780435270928 0.2947392550758912 0.04030492898804329 -0.05496235885239364 -0.02104833618918286 -0.06906954638692381 
-0.01181956589655738 -0.02629134980540389 0.008094988297200945 0.0332405222564262 -0.2141588117749578 0.02352490770787931 -0.2055796535199316 -0.02805810252220058 0.06362189620171944 -0.08548028778591303 -0.05520703795626934 0.01629142458223839 0.1435507375430608 -0.0007939333762291182 0.01584546979367955 -0.1055073158369833 0.1199236164594191 -0.1702696920529359 0.01705133223849758 0.1752136998918966 0.2125585131765969 0.1359909783084766 -0.1232496647675477 0.04091092937854914 0.0211425292962454 -0.1446925129302573 
0.01235459830619734 0.05289433811560876 -0.004926490533669097 -0.009909012982320897 -0.1926268470001616 -0.02156546680256107 -0.05266238501990116 0.02781059912404099 -0.04564613389635259 -0.02373751840300646 -0.09558664794045409 -0.07392620860724715 -0.1051742975707291 -0.013265443705667 -0.007825744303915144 -0.1662934107528009 -0.01974869930326251 0.1240723957707961 -0.01219891171470029 -0.1143520702076278 -0.1267382040097424 -0.01253163467274299 -0.1254099902331923 0.1630518561829189 0.01823603911074577 -0.1838228763809598 
-0.00856820810336139 -0.2358937473393795 -2.682619515570798e-05 0.0179168252567497 -0.2044570447160713 -0.002043054648916013 0.2200400028680542 0.01380578672152255 0.04280413887242172 0.1393222574336347 -0.06031898961584529 0.2216362458026903 -0.05202263251186714 0.02127766518939379 -0.03336632466997838 -0.1664626560880449 -0.04849260950549788 0.005826170571561993 -0.007932545591302891 0.1206452895505779 0.1743280313626346 0.2932470126852724 -0.135349838690993 0.1606271483051364 -0.06763082293068592 -0.2042893832862004 
0.007548137647826011 0.06991126816166023 -0.002727965731426599 -0.02116677057444454 0.1131027519062013 0.01786579180167479 0.01247006118172416 0.02457882538794683 -0.01029813985296164 -0.04588360769600266 -0.04709593224631285 0.08132469169371238 -0.1386682142708298 -0.01889383779782093 -0.00475967947762797 -0.1785896027871794 -0.09761052130890578 0.06338354223847976 0.1433784075309556 -0.1556826953326044 -0.003925771344275374 -0.02079306520429709 -0.1024463163200758 0.1149530224173298 0.03767320011168955 -0.1701079159010455 
-0.002688619297154677 0.05962983683771232 0.001369799479743399 0.01042926440311506 -0.07982210077999585 -0.01783896000232543 0.007541617470483652 0.006777130891773641 0.006449671571708748 0.01420670240019807 0.01918344094209386 0.06266278284889044 -0.02292157865757524 0.0006549045857658649 0.06179203040284198 -0.1595957311615696 0.174794926696163 0.0324678256450895 0.02957659009797788 0.1084743069207603 -0.1327755799283142 -0.0009388093899481202 0.05304792352298873 0.008401175738902448 -0.2329662802673585 -0.1318992639709846 
0.003877715855502866 -0.1803094937601362 -0.003091552489065197 -0.01867503356886904 0.1058162870221796 0.01570027160417809 -0.02787770322814079 -0.008897664939086083 -0.007665397669363381 -0.1584993928702005 0.1085517021231447 0.1367082516988985 0.06363804468403443 0.02763702295530863 -0.00386966383274643 -0.02602664558042234 0.1114608850897097 -0.06782612586472185 0.04749049336272786 -0.07043919250291353 0.1402028986833722 -0.0307613397911343 -0.1006557713639805 0.3634259559331995 0.1005098782348358 -0.1787289537670417 
0.000741236419763069 -0.1038510814477119 0.003767927133322103 0.01046336893384001 -0.1039707728736655 -0.006803638098124083 0.0374265451871054 0.09964635098899081 0.02446238942764464 0.07409801799565884 -0.04986010864005397 0.1783840116324872 -0.1279270538790997 -0.01615590720321892 -0.1533829444881294 -0.003828865553777738 0.1711719515221532 0.05170001459143729 -0.1243048439174727 -0.04396735679031499 -0.103757298740583 0.08589140554970467 0.211172184515196 -0.2975193449279609 -0.07867896222934347 -0.1119039623579698 
-0.2899446737329989 0.05655018666791079 -0.2671241762538265 -0.1722251618589641 -0.1791066453989991 -0.01635307343958847 -0.3964582102257534 -0.2736420926048044 -0.06810842221581838 -0.04385543796078437 0.03698583742943327 0.1064031883211307 -0.2038454031249418 -0.2994480635855963 -0.1436101018834047 -0.1387956585820002 0.06567818554516451 -0.1365689307570775 -0.2050465280316822 -0.06781594024552696 -0.1562877452845495 -0.238371308347928 -0.04413758676715603 -0.08615995755558808 -0.0006296805836030267 -0.1429972116227672 
-0.04163651482148703 -0.02013654631581818 0.08852956244217261 0.02126667384512643 -0.08874994261371877 -0.1046394631327771 -0.2393372186199944 -0.4103217558893683 0.114044407786677 -0.03521501988687104 -0.07247901956118172 0.006778134804973993 -0.09113521719376332 -0.2639149843938298 -0.1763739995136394 -0.07197614738634242 -0.0476392252205145 -0.09036740623543239 -0.1248015736339568 -0.04288253761778642 -0.0607015865956928 -0.1089615758408952 -0.0803853713060176 0.09945156323094595 -0.15341570334048 -0.1700952797752305 
-0.07028661600786749 -0.203186186339808 0.04536066358644417 0.02991352953785573 -0.1513457868957098 -0.07926759043701331 -0.2239350399979204 -0.4549094431942864 -0.02266009706995785 -0.1594733854682475 -0.1072602132426422 -0.1028583997102408 -0.02871469125239623 -0.1011174574403567 -0.08779286059500607 -0.1005228082429327 -0.1527569858576056 -0.1734027441720375 -0.1241652989416446 0.02903963201493344 0.03125309022522379 -0.02238411440097956 -0.1699300686463983 -0.1108301133904436 -0.1915766612477117 -0.1268925600307158 
-0.1400472944185395 -0.1707025169621722 -0.2116260801868499 -0.1901358266302926 -0.11861614752621 -0.1996753406003217 -0.3519968247708559 -0.5282989702119509 -0.2941928401866609 -0.2574369216612384 -0.1397666885125792 -0.3929244017415869 -0.07926948463674244 -0.2007629311354411 0.04085696732622571 -0.108338892741052 -0.2822836528557595 -0.3181985834800216 -0.2565169846406751 -0.35981156759249 -0.1252918903381269 -0.2249131700249873 -0.2431854186904361 -0.3397999466643465 -0.2354238770085208 -0.1746487449995772 
0.0210825880870655 -0.3139956408759518 0.01470910352189891 0.0378524267773163 -0.1899549243215882 0.09291225564650465 -0.06362346565401203 0.04976233414839887 0.03045876902534092 0.01794578367603172 -0.1083667102401733 0.05844713190334945 0.009363542747987702 0.01527804221481931 -0.006357524274190967 -0.1258039259435877 -0.2705094469462023 -0.2914155326739944 -0.110037054026519 0.06906039441025461 -0.006615347206015991 0.2574859951849084 -0.05814601121639225 0.0240897742038629 0.01437150087838692 -0.2030726666332411 
-0.0358322879390521 -0.4075476946649445 -0.007643790136111168 -0.05492853161159402 -0.1775136344496998 -0.07924082124891056 0.05925189863439514 -0.03403060684224538 0.02978748098649629 -0.03116445040570065 -0.1033931110346153 0.08005897385737268 -0.1511669824818775 -0.00901639088451358 -0.05884282712414858 -0.09889062653438467 -0.3218719367035696 -0.07967182795812063 -0.1487680585725825 -0.1520606991180849 -0.2059316167991594 0.001844073809262357 -0.03143393811528429 0.07726741095572537 0.004291009962283081 -0.1500392249974333 
0.03966013818243774 -0.2467223399617781 0.006876579305854251 0.0659676224855536 -0.1405241840957176 0.02216936533165094 -0.02627310965426271 0.005466112371313149 -0.005000731170518473 0.01243500268797318 -0.1076136383174612 0.2425769911429613 0.01614047340477229 0.006962794080010333 0.02249219251124309 -0.1173799278922057 -0.2971640778403749 0.03620711069109301 -0.2058294099659894 0.05815563555627385 0.0281770204339158 0.1247180769696559 -0.006476919033912503 -0.05293680417701763 -0.5156132705256171 -0.09270369991207689 
-0.001837045572976801 -0.4144840927268061 -0.005399402133765336 -0.04477986997559939 -0.08029044760281778 -0.01859847654998644 -0.3707961341645696 0.07327483316066262 -0.0458321391753769 -0.04458204529326169 -0.07728886234238082 -0.03517286208719202 0.07776394469814106 0.03242007108312673 -0.05766883904207278 0.003167122284987396 -0.4112789174706435 -0.09983547870962983 -0.231062955227323 -0.1373506529815748 0.101024700866372 0.2470450199564224 0.2852782768034593 -0.1501130012681524 -0.3183743836076951 -0.08364234563599879 
-0.02885688292400763 0.285972497680783 0.005900623055847547 0.07037450066329594 0.05587423736035033 0.05245548776299822 0.1470482384036732 0.08811517615890173 0.1219231488542695 0.152573006251366 0.07455420739589685 0.09204298313961441 0.03864142909822008 0.1194428947579619 0.1165489118576811 0.2650553977124983 0.04375619059606366 0.1335710616296321 0.1266444336561575 0.2788549269251017 0.1491519747475258 0.02769115351783503 0.02457826554749837 0.3456326034598906 0.1922773108067334 -0.08181755667835806 
0.01223895607000397 -0.1123479936704501 -0.0007141916663503537 -0.003283626689320425 0.03608030327658022 -0.01811721505068747 -0.1402762468445566 -0.01383197681365926 -0.05130715948464876 0.05238557421442831 0.06545347165882379 0.1072770254438182 -0.05452279692140365 -0.04442950512916212 -0.04187704875553479 -0.2008808206808037 -0.03160508076272717 -0.03174457240728924 0.03660527011556159 -0.03918997795627918 -0.05134482000061817 -0.03089869792928305 0.07502072341648236 -0.02306100130701292 0.0403055641608966 -0.09893391389767087 
-0.007560050476608174 0.01686691145880191 0.001181676348085954 -0.005040175031160507 0.1045914219114596 0.003428407756021855 -0.072465127383141 -0.008044981802367962 0.03807523017253441 0.07637932624918475 -0.1343232383497165 0.1549665893625104 0.05082476441342927 0.008629232044329175 0.05899778394492457 -0.09228853780177028 -0.07480610139313475 -0.3098029564272762 -0.03966313764655897 -0.04608104999486529 -0.009425750820930636 0.02457935052387046 -0.03042145414867203 -0.08965806122907351 -0.004828220482356594 -0.1129951423122591 
0.01052331418769 -0.1806844400369919 0.002033495398487524 0.001199628942291235 -0.1088234690185117 0.00269120197291266 0.1367001292085872 0.004716881765093783 -0.03023271875492736 -0.0008861219054316635 -0.02103913171741319 -0.03575429053379026 0.05829957614751234 -0.009161650389506558 0.01027008479697667 -0.04975077714255426 0.1760406000515987 0.1014952111014666 0.147492618044303 0.1566215577024749 -0.05403790267017713 -0.005939368267053844 -0.007847258806021152 0.1493099084558283 -0.1253373359263856 -0.01520540461496977 
-0.004692802903774181 0.1054088029848433 0.001213913269359328 0.01172694716679894 0.0356625342510407 -0.02135776502899549 -0.06464820844010399 -0.02792429275604268 -0.01083498362689789 -0.1675550273270803 -0.04795462982824183 -0.1328315743357045 0.1213791506842565 0.001825516993813173 0.0427462786414264 -0.06642313010703348 -0.08351093867446065 -0.02219538387011135 -0.1913979944826427 -0.145438994562955 0.02340475152870642 0.01316912705330286 -0.1906813006365667 -0.3067028418720225 -0.1464111534118792 0.08415863068929227 
-0.001844844985536601 -0.009486952616489783 -0.001011695292204637 0.007028269972908851 0.002758076734100111 0.002264735405076144 -0.02682179296203424 -0.03814638348110599 0.02013666977652518 -0.003888942382529693 0.1108254263284545 0.1477468216729758 0.02122027648102182 0.001624152361979023 0.02245922166233294 -0.01918102979440164 -0.3844481898366082 0.0003261177576217066 -0.1262770312165037 0.04814027943569933 0.0357186388372484 -0.2917870128908088 0.05196675920157938 0.1935611485090286 0.001787673646420383 -0.02278806943477815 
0.0006734293970117157 -0.05682420918945831 0.0002974939805336914 -0.007548918129301908 -0.006660928331982591 -0.0063847132751946 -0.05007219410890901 0.02941548059049814 -0.007925050956836405 -0.09374879685384303 -0.05782292859808355 0.1286282410558366 0.008538342799841638 -0.005227875364866641 -0.2459087843521512 0.04238944442994727 -7.571441600948825e-05 -0.004012488892148555 0.1215090359090783 0.1637821880934723 -0.261689505429404 -0.00352021912214346 -0.005005219026670477 -0.07581374392881293 0.05937923745167887 0.008732759349862671 
-0.001698524572679904 0.1211083332377377 0.0007078683865098659 -0.02442613181416399 0.06372271280486183 0.009712648012604515 -0.08664511653747528 -0.0159049463331372 0.01807438870485543 0.01643794613596476 -0.03651772375072804 0.1155764401740223 0.03422531894390476 0.04019401033808671 -0.2179993465923323 -0.05780330152776067 0.140654118469846 -0.007959614205910093 0.1006080892130216 0.07296544484897935 -0.03795210804959791 0.02904582088520684 0.01992458409824275 -0.05907254957971999 -0.09556824903174453 -0.09766928141225381 
-0.5304715560910496 -0.3267030598682605 -0.558719415342812 -0.49473208615307 -0.3037185121245952 -0.2508931503450883 -0.7171013725306685 -0.6702233876499266 -0.5773733289300591 0.08665807032188715 -0.07652933107933435 -0.3015447592028407 -0.1975295825335378 -0.791203441371536 -0.3218722098227484 -0.1622155527684399 -0.3178941277950073 -0.02670882141384155 -0.4277124935737879 -0.7835115086048724 -0.2577933285668059 -0.3506643350249976 -0.1236966881519325 -0.3658429146136168 -0.3444276913078774 -0.1196172416533224 
-0.08314300852558416 0.1167115638539507 0.0007273830456503122 0.003868324839410743 -0.2052891740614112 0.001822937941640111 0.009165695283835724 0.02573393180801709 0.008011884119026444 -0.07899226337841701 0.04052056758167377 0.1953640668780022 0.04879842059253398 -0.0002153827521115858 0.06737704291094676 -0.2131384374700955 -0.1195064154321098 -0.2678595600054669 0.1894661366276424 -0.06148062289425146 0.144196234372926 0.05084399440155431 -0.240152312172687 0.02250091809464275 -0.1146456489759275 -0.120002801703123 
-0.2450196783750177 -0.1635392795342041 -0.002967814594524271 -0.005440858567145828 -0.1244461791204747 -0.06817583969727729 -0.003188798345767756 0.01159636881688478 -0.01293421593260787 0.06276118432183934 -0.1263811721740286 0.1123203901288202 -0.08329829802488603 -0.01164139352336698 -0.0497671739007918 -0.1961860808713038 -0.1008107118063938 -0.3411585085136104 -0.07031727352524918 -0.08630840576793046 -0.1157902874491897 -0.08189097455174918 -0.2031584424333442 0.07822772174501487 -0.07786251027748992 -0.08859521850552898 
-0.1405749557410915 -0.0288272610346799 0.0005708891488582586 -0.00308059548851953 -0.249037547423029 0.0003087316046402592 -0.1073468160347503 -0.003904188307451427 0.02404220334249095 -0.08557569276006258 -0.1626832364247016 0.01165421982466406 -0.02710100698095497 -0.00198409372833325 0.01205565889858513 -0.1797185863812958 -0.2527582939541275 -0.04857324606207043 -0.03990130939341917 -0.0315388732489778 0.02502161213045076 -0.02666516434252128 -0.3177611315701632 -0.01865537217638539 0.002654982533672546 -0.00323127128903833 
0.03710285283465502 -0.3971351889226277 -0.01782619868022194 -0.05568284161936221 -0.3033947563074961 -0.0541184635355178 0.01724082899140113 -0.08940305131803167 -0.03151807145129924 0.01709783769022662 -0.1885911697386803 -0.1251356261013798 0.02364025436592108 -0.02255803851988176 -0.01552622240063827 -0.2172131720662898 -0.01254907791578926 -0.2021591179503661 0.03084128320829006 -0.09198169083275029 -0.09058582260549264 -0.04426926392223136 -0.2443019804264215 0.00963304500812286 -0.228962090127209 -0.02605595269371061 
-0.005597274492505811 0.1269591021892098 0.0005392321402957639 0.01831298414950969 -0.194669709329273 0.01647389310052914 -0.2102181147649809 0.0313742744886683 -0.02422951093408048 -0.01846099294068813 -0.0863969540440675 -0.02728594566978292 -0.0198763651264384 0.02334536246436179 -0.07294239489370401 -0.2724230709235763 0.1550473611767015 -0.08618443321874633 0.06844882645584152 0.02101878350854659 0.1769226658607199 -0.05298690570035989 -0.04113518336408772 -0.07950084764086626 -0.3877199342911865 0.05566059663527084 
-0.006960697900178918 -0.06956184340474894 -0.001444894077165413 -0.006099312870677621 -0.1186228989729115 -0.007027624176587095 0.1558499507086272 -0.02199915738965983 0.005207673391129079 0.05270488772976641 0.1325489682424388 0.07062467212766266 0.01945857847138197 -0.01209846481247675 -0.08188793732905844 -0.1620441195349123 -0.4285248079342879 0.0562937433869144 0.02292551513260576 -0.03567343492817511 -0.1869410239455863 0.05049386252416418 0.08867127053484383 0.06812812966836554 -0.05717605755574128 -0.03965674200119502 
0.000803552639173164 -0.4328815583062848 0.001919373832444123 -0.00575036471621225 -0.2515774351678141 0.0035533593495251 -0.05630056522676694 -0.3394600476885676 0.01525549357449855 -0.09400557845116755 -0.09388626158054822 0.2051313430095446 -0.0186769634432176 -0.03528418243750166 -0.05981956211069542 -0.1020333442699621 -0.2145092481209088 0.01467236506855845 -0.2057452575067804 -0.009171036257463832 0.2119119693270295 0.05931331765889486 0.1782588060085593 -0.4642870129041744 0.1395566942278249 -0.1892949224587258 
0.02463435600361482 -0.02174141585504599 0.0001941534360622828 -0.0346786070406122 -0.03058974854935228 -0.03964182677803611 0.1152588030831925 0.02173596479022356 -0.06863202263194727 -0.06473192691357511 0.08546234798065384 0.03793726947761113 -0.09435749508367115 -0.08584881754221665 0.06511238653685272 -0.023724539672656 0.09482805970713298 0.03918636187643253 0.1356917132457561 0.1067136839644378 0.1720020521303814 -0.001810606135383873 0.1893116340794208 -0.008506412365484998 0.06792613551821558 -0.1262838415861339 
0.0003834526395069764 -0.07105459292009358 0.00022805574121262 -0.0006093961603403751 0.01610257039363421 0.001623726133112127 0.02826050286904102 -0.04692589042606968 -0.00231397024126365 0.02060387694657635 -0.009180574799920961 -0.05123761756833674 0.02068963363651366 -0.01281803817659027 0.08397237389551993 -0.1121203955276314 -0.1383788767079748 0.05050445484824081 -0.06373474499779704 -0.04112074307775648 0.02362481625888231 -0.01862575191785074 0.1790676560772329 0.0744556746641913 0.02126645084006223 -0.1228471261937143 
0.0004251600186046268 -0.07401885064399472 0.0008226239811572477 -0.007142881411520366 -0.03046142117886805 -0.001752487926223464 0.04528284519477999 0.01283424338259629 -0.01297857852358349 -0.05179591791291782 -0.06170776420553471 0.03098886232978487 0.04794593246769084 0.006876835667269854 -0.02424327323558811 -0.01059289007286499 0.009805158843515236 -0.08474829476565454 -0.0721284503489734 0.05509200418176817 0.09262131435769141 -0.004887405665801301 -0.3519615987963446 -0.01156719933544164 -0.2263945002189429 -0.0858979382535319 
-0.006021935244604926 -0.001802516281405733 -0.004275803653500408 0.01386848559837485 0.03227251441281769 0.0001117227054297856 -0.05016442464325205 -0.003869578003538723 -0.0061293777449091 0.1045301376516806 -0.07184858669093547 -0.1330726035176862 -0.04775531514106065 0.01080908238770493 0.02243214982313054 -0.1466196201411803 -0.08368989252446285 -0.02330061913334965 0.05768491821483852 -0.1789454158372885 -0.1641464700870067 0.03152476162449646 0.06873567431679392 0.1861877531200647 0.1552055236587815 0.01784950819062572 
0.005782733528783834 0.03760801556862636 -0.004359266286824788 -0.02155050210958142 -0.005751095142059362 0.02174340609660056 -0.04627452303598429 -0.04642773745852488 0.03132302825458168 -0.05993122349118683 0.1616295024127411 0.04447045395393907 -0.09855382635681777 0.00154720213178365 0.01748835388718527 0.01027300913381296 -0.1428466713543291 -0.03639298318046242 -0.1187917566122599 0.09650705653244376 -0.1416520265021907 -0.1358166625824976 -0.2689701248515778 0.08259589591973619 -0.2117745007129756 0.02189983319377279 
-0.002903438130910731 -0.09090986164191305 5.769117493375074e-05 -0.05864856989229255 0.006205501949192904 -0.001723209178840313 0.1073959018996133 0.02494121201464421 0.003906487275839904 0.07050545580247806 0.0400888916264003 -0.02813961001350571 0.04781182541208775 0.01174372746060499 -0.0100760423149201 -0.06565406989369015 0.00933915584102315 -0.04440558100508839 0.1483639673490899 0.009705843307841328 -0.07906492721333951 -0.01690286186802976 0.02630614102948885 0.04119438857610813 0.08542363433534948 0.00524141259577341 
0.001885884644392749 -0.2020046130979429 0.002273789887643881 0.01317665977236358 0.0004409521075398916 -0.0005312184289293501 -0.0002053219169729925 -0.02819063154200193 -0.02782165663191833 -0.03768324989515612 -0.08630213100104404 -0.009850003953200015 -0.3048448502612643 0.006752134267345147 -0.1875621371656697 -0.1381301974493839 0.07551027253564931 0.04266993478153708 -0.1458523445670142 -0.02498507811151055 -0.1418270921748626 0.01778231105598617 -0.03896716254718785 -0.08953859271137052 -0.02168555009752014 -0.07549730138235916 
-0.001372993157083894 -0.05129234441453604 -0.00472114279044493 0.02067356771969646 -0.05306904045475067 0.00158603160108142 0.1192004583205899 -0.03307578607072659 0.02866399237478403 -0.139117262898521 -0.1519128857632007 0.07647385314900504 -0.1706414393658142 -0.02852395367944759 0.008784860247136058 0.1455727329695181 -0.06434887929723028 -0.03697764813535841 -0.06702448329786222 -0.009712033857200562 -0.0005195890141560171 -0.008142610045434351 -0.02589193364651421 -0.06320170063052129 0.1391104150480578 -0.07584642307335296 
-0.206169636830536 -0.110570112824901 -0.01584918602997105 -0.1236482107039 -0.1016251790081514 -0.04162699389824604 -0.1279274950056338 -0.02758921709611204 -0.04355534851166256 -0.07952163676138237 -0.332872938093857 -0.2189170101009586 -0.3159003979768437 -0.07136004100013155 -0.2785529010326746 -0.2160806721803187 -0.0326122704163337 -0.1985582644410659 -0.1670424186927175 0.01426263953910314 -0.2412135198851457 -0.2460562993511894 -0.1724176429339439 -0.1068236904368814 -0.1877842080168441 -0.2088751887216786 
-0.01744379797774431 -0.1402596037668151 -0.004216679901194596 0.0006441558026360749 -0.1329606966181578 -0.01486213743748292 -0.1168146969686145 -0.006347819010835707 -0.02554046535032342 0.004086833694381529 -0.04469803048545986 -0.1029739063239351 -0.1016218876198735 -0.01077141878501825 -0.06465273153023464 -0.4117991548016569 0.003346349951574604 -0.04262956858150929 -0.01234714710927529 0.1493300531215939 -0.1680606059782551 -0.2788983803483492 -0.1603952333157809 -0.001201562425711822 -0.1003279046503336 -0.1841168096477057 
0.001529060178090532 -0.09845217935673206 -0.0009306647334474404 -0.005793492279284934 0.1395667321734937 0.002812155158015012 -0.01150428159178054 0.01225666103609735 0.008250458015681693 -0.07569289437082001 -0.01956626523114851 -0.06864913549241887 0.02904699321557562 0.006279697975505453 -0.0004106629802595224 -0.2764200956967702 -0.1091847497389513 -0.6038722523099473 -0.07370176039560539 0.03606524590411054 0.03364263183709094 0.05412887276236543 0.195401277453638 0.005627640888980887 -0.1141194109510778 -0.1130957078141259 
0.04341707681782844 0.05086917045203297 0.001372827258040675 0.01107211992693883 -0.1694029433068163 -0.0003966443752407725 -0.2405327333562703 -0.04308178972335446 -0.002942733331734537 -0.1449833963831398 0.0277168727121955 0.08717578028384024 0.00756932395727357 0.007904777409444425 0.01551866531906133 -0.08325405989472791 0.09472209379309368 0.04314867962513388 -0.094944960295317 0.07974515597460474 0.1060854637130955 -0.08844231420683482 -0.3581917233901948 -0.2356521021826109 -0.1817440929215431 -0.0008270678505558503 
-0.02300331620747241 -0.1332756231739759 0.01082164811391028 0.04682744303467903 -0.03927419934378537 0.03343453971639113 -0.1561906379336734 0.06101748398377868 0.01026304377276936 0.03503458263445076 -0.1058765635679495 -0.1657987499120092 0.002787248700900355 0.03809084123791957 0.01326067310244038 -0.2875084808049453 -0.07515714628410604 -0.06028459047493284 0.0468451450375907 0.04798526537807077 -0.00146937042804455 0.04328098474899319 -0.3783077952795164 0.1352723023138086 0.06271990490788029 0.03456450635680117 
0.007572006712516986 -0.08845504059724166 0.0002119439969077607 -0.03015144534765989 0.004040107572188648 -0.01329387366680353 0.00402683045116263 -0.05211636305611006 0.01535538446817679 -0.09747011210412929 -0.08136294664553273 0.1982269005307722 -0.1001269121911429 -0.0185288692828669 0.03085673535101741 -0.06039390166443916 -0.04833764871418317 0.02251403550084706 0.1329063001248634 0.01501788928885528 -0.07411950588935892 -0.06509004909609627 0.08537821409073358 -0.1154402947881971 -0.2111969173421024 -0.0003066034328369866 
-0.003283253062940871 -0.0990244722624526 2.949590323770161e-05 0.01005987956713187 -0.004820394311989807 0.00419055235676716 -0.02861069510804084 -0.0506567752965232 0.00221546680901757 0.04330204786420398 0.06844600075951565 0.08509354333020143 0.005969115491694846 -0.001547860701912181 -0.1810839058234446 -0.02490249935931354 -0.2855136658783257 0.002780548889715757 -0.1313671195141417 -0.04055023884889206 0.0602222962357935 0.17603833947714 0.02913375308924297 -0.1519957628024811 -0.04926941455247843 -0.06329448481480449 
0.005675199584333429 0.05036405004491659 -0.002121572576667433 -0.01202974595628292 0.09176094053534972 -0.02082574151125507 -0.03460392662360716 0.1465216790986964 -0.02975331829803877 -0.05103695163280015 -0.08670709250006708 -0.199475066238661 -0.09131541695570031 -0.01488293814211755 -0.3208586869083055 0.1850266769699656 -0.1562023017284254 -0.01746456942008624 0.082475541912937 0.1262203763840629 -0.2441139688437653 -0.1042639633640931 -0.05445007191899065 0.003575711228449958 -0.1501976008342835 -0.03518654695664097 
-0.04876412146468734 -0.243438584302999 -0.0003405314462522269 0.03733639732684584 0.05021216796411806 0.06763516405759804 -0.1522281162317726 -0.06906785138155044 -0.02156813645828612 0.1089932666162324 -0.2612882380235197 -0.2107827895660932 0.06750324566141133 0.1103890632347374 -0.1611468087414434 -0.07520430926069051 -0.2523430967348506 -0.005826727169606514 -0.2271134586941127 -0.1219786396855495 -0.02444942098381771 -0.2184716469550698 -0.004721977541872552 -0.3586301745749089 -0.2846268139531206 -0.2206885497591632 
0.006040399702403558 -0.06784895293052995 0.0008836525537027562 -0.009734626535717623 0.01461815966536365 -0.008352081471955259 -0.2757886610858544 0.08589320685662927 0.0147951835619833 -0.01732807695159025 -0.1207760208582022 0.1809590241932919 -0.2248387331869043 -0.02543985720436347 0.0670943441515255 0.04630710291314091 0.09115667955804257 -0.01374675440608663 -0.0316311796720971 -0.02894833009102599 0.113193745518639 -0.02038803624470513 0.06855322073765036 -0.0181017423741467 0.04585974684300922 -0.1660714087672416 
-0.003625988903378563 0.201441736250972 0.0005128261212753193 -0.008009211058655588 -0.01398546299923222 -0.004459068706869863 -0.1017774650949271 -0.05068539905069451 -0.01394297524305307 0.06597656767608 0.1466005395474605 0.007642711540171074 -0.001164653442066546 0.005829349832253485 0.03020451199155103 -0.06233835555062269 -0.02721736262926215 -0.02898397178468473 0.1514483255167238 -0.1133710949491482 0.1679972656885436 0.1047146327130915 -0.04053262946827976 -0.2015290185865975 0.08706253836676901 -0.1358380675760854 
-0.002017445111922451 -0.1345213112285047 0.001266740134232082 0.01458205708108251 0.01069347282488697 0.01533173573814618 0.08698175916485344 0.03852952549664283 0.03174127393151047 -0.006438505713842208 0.07221575305624647 -0.03387555860410323 -0.2471931400429175 -0.008271922975557039 0.004816941708783675 0.1137753085418382 0.04283612259075616 -0.03239643910830254 -0.05978273600130655 0.1857596348954362 -0.02135281639376636 0.04421870521425082 -0.01172419165836817 0.050036716450563 -0.1165458516735014 -0.06982423781425878 
0.002981970020970994 0.05537902580423082 0.01297942810593195 -0.1015281650022189 -0.003299759535089662 -0.06199134027826204 -0.01492585336965122 -0.06896923771588555 -0.09954406669450691 -0.0639415130732368 0.01116787713064427 -0.0696018998057308 -0.2404914655421523 -0.01221637670131297 0.01823782787384366 0.03035279898476534 0.009924640150792691 0.02452952098932195 0.02976535576336331 -0.02921914442244241 -0.02289748950368994 -0.178448948563769 -0.01951945546138005 -0.1476813260987198 -0.02489032115500598 -0.1273499377048715 
-0.007110436046548391 -0.09840761159063219 -0.008394087057469392 0.019338299136491 0.06519295718408941 0.01759845633426676 0.01761711137842782 0.06564110431598114 0.01661375288134777 -0.09098728944664661 -0.04440102459418981 -0.04729195977448981 0.04306260337967659 0.01909753256540159 0.04252286468334023 -0.09125998099645154 0.00322914436946756 0.008524130177184794 -0.05711574670887746 -0.03134584718005636 -0.000107200129808746 0.09684867723085047 -0.01713859137516841 0.1344572862224028 -0.1708151805015035 0.05427637416461479 
0.006650969895576249 -0.02459604137663357 0.003641475734829529 -0.01485763056386853 -0.09108836161999741 -0.01138847767829348 0.0270912541754405 -0.04250282088917347 0.01942451214080182 -0.4488147009782691 -0.1453029128346252 0.03512221070145946 -0.02605461704715425 -0.01802624415903329 -0.07902932259928921 0.02457736022286626 -0.07023088506669334 -0.01613958793254826 -0.3288006161023472 -0.005770086790259643 0.06794361554004308 -0.1135802609544756 -0.04147489268124608 -0.04630826150934018 0.1447531773135948 0.005780164381358779 
-0.003652742580065471 -0.1562391625993643 -0.007433251668419153 0.006495389590629054 0.06839575548502615 0.01073488080517756 -0.2050846377546085 0.05748239029979138 -0.02246849051703785 -0.3582503888602005 -0.03663280776133528 -0.2031399141822167 -0.00755777671278739 0.007918602029425542 0.1503523128892908 -0.01774861031900599 -0.1275653235715524 0.02595050803115571 0.04023967339015205 -0.007774242450952849 0.09952683382393299 -0.09048841646025738 -0.1029161730997944 -0.2222880692834077 -0.1059450482966509 -0.04250547122823572 
0.02954135200881941 -0.1058828372475038 -0.005739280077442293 0.06803573449578966 -0.03239329533991655 0.01562853851681738 -0.3076311594608083 -0.05634096637523362 -0.001629753406624403 -0.01495182340240939 -0.3537607929927605 0.05114748090087345 -0.04413855433630454 -0.05312169286633203 0.0375799819402424 -0.08322955823373177 -0.02866265063659788 -0.05265076870300842 -0.08032430208560529 -0.1261702570562146 -0.1825058217205021 -0.03652223527628463 -0.1588214129455502 -0.1133359358119543 0.1142742398393056 -0.2489336577078968 
-0.01024822298674936 -0.01532025110471639 0.007032841662603546 -0.01913957363843954 -0.004218347575999678 0.01218521345784467 0.0704240758669646 -0.07390469463063543 0.01224426575813662 0.10697743107953 -0.1712611506356954 -0.02238579425083901 -0.09824164024640891 0.03077317663894187 -0.02960806461732867 -0.3430621114700946 -0.1441288318153735 0.017181590465809 -0.1573007102443292 -0.07247400048951025 0.01096551251786072 0.03794189934732895 -0.01440417631232211 0.01454379137580024 -0.09916253317645436 -0.2091559132297333 
0.01228891964219724 -0.1880682202151162 -0.002600954681236152 0.006999190675035968 -0.006383708964398222 -0.004635064670668237 -0.1386773698975962 -0.1148719524125289 0.001784507320884472 -0.01944084518022562 -0.04364080549018185 0.03547069514575517 0.01755438295948016 0.001306317751309273 0.01288176447375387 0.1725110227971584 0.04119695871056588 -0.1027332131045701 0.1477537668785378 0.05998515500161 0.007480116684945241 0.09675022308231356 -0.1006458887848668 0.1685787092751576 -0.07332558592189731 -0.2125238892886078 
-0.02824060387292284 0.1194860858822723 0.003858121720454474 0.01746763137137163 0.06292847687647367 0.008142712172916287 -0.1886720869801542 0.004381014374107764 0.00126703230843771 -0.009758091984711814 0.1286720897611047 -0.1361041601559151 -0.04200297168537553 0.008117523113014736 0.01428040360569856 0.06006348050678945 -0.2485098359896371 -0.08334491940922015 -0.05799669918994609 -0.08458902438481229 0.04029408897886998 -0.09502866709268795 -0.1711849677221624 -0.0958927925529913 -0.06202956578205642 -0.1450189118865988 
0.03738213452347262 -0.1013705779788021 -0.01354505875609728 -0.08173854443185778 0.02134894006683343 -0.05330265446400546 0.07053625028892356 -0.05938526071085094 -0.0009535101123896786 0.05935346346688521 0.04868550193619189 -0.1535413899852923 0.05506162534808442 -0.06836223098852734 -0.04713111873477132 -0.01079063883026357 -0.05329771036740747 0.01462868870010773 0.0516694727523714 0.03774329626474924 0.1483900049668121 -0.02848181312997537 -0.2422729935787057 0.08786770671966659 0.09203859059346253 0.06346173142305075 
-0.02589946457719114 0.04598513192831863 0.005526626764567224 0.09548925726756627 0.04491550834427573 0.04801442394431227 -0.02174962031433806 0.05664800764499589 -0.001728206180218746 0.08686526034445009 0.1006639591176132 -0.1086457158630137 -0.1096034257077109 0.05446700150756368 -0.01343849864748424 0.0112326496811703 0.08952839426436834 -0.06066602362915411 0.1784804557987867 0.1268439802441575 -0.01370341941882173 -0.1239119374016682 -0.06655272596434884 -0.03397941509679161 -0.04932186187224316 0.0229726189279414 
0.02932056596104362 0.1156711850221975 -0.002649617875168432 -0.09340209946706389 -0.03299652578580836 -0.05589724610673676 -0.02584717194943853 -0.06435071260920455 -0.03154566756496694 -0.1845369508943841 0.01388971474354874 -0.01083495697089589 -0.003879453165335677 -0.0561669798308606 -0.105096155617516 -0.1504040312513069 0.01244294640662367 0.05200862787095663 -0.005982602987327073 -0.1527323219695421 -0.0930801764972012 -0.2029031620989254 0.09208606867912965 -0.02469181492950187 -0.01290172829683528 -0.01334830882178 
-0.0483785947942453 -0.09630972668713536 0.002653007923705216 0.1208080816973295 0.02638970327818431 0.101377575663526 0.1529177291679736 -0.1038877411704512 0.1005808944915357 -0.05091110049685271 -0.1863891121825771 0.3834516806175492 -0.1621842506914068 0.08963433307805783 -0.2238521466176457 0.1022626566971074 -0.1226405138735548 -0.04252260747374711 -0.2364057099039914 0.1995757727291682 0.04107265777518235 0.005842744060628858 0.07488847222596509 0.1333053236612813 0.01476902367248265 -0.1151960104714189 
0.09062400445016858 -0.1838404054929157 -0.002444821665740799 -0.1233034990643023 -0.1311290172913277 -0.1765686262309524 -0.1923076890189885 -0.1970649108036587 -0.2520402030510214 -0.007258485805627022 -0.2675358487152716 -0.2018072081023544 0.132099486246583 -0.2574350372912407 -0.2691793916104181 -0.1171767858060234 -0.2325471310577983 0.047382540959528 -0.4198538024082442 -0.3444304824681773 -0.3691987073415099 -0.132803976910608 -0.1622350548355204 -0.4073784779344836 -0.2255895075818672 -0.2078385779433577 
-0.04612428764997276 0.1446413556505082 -0.000443845671450496 0.03714012838829064 0.04599784865868063 0.08673939682524326 0.04758404690071538 -0.120919539649657 0.05012122625532358 -0.03336747636254898 -0.1021985641430371 -0.03520676053817268 0.1091956111511035 0.1007803129785259 -0.1269551431669669 0.005681215557394395 0.1030193323100555 0.01878015043046003 0.11647796603272 -0.2315708096409616 -0.6315992613495531 0.04880369501145682 -0.01686252971730235 -0.2502378057358938 -0.08496429155938355 -0.1411723220954215 
0.02819276985744925 0.149549582800647 0.001626225294725309 -0.01032390999860626 -0.05436300946620101 -0.04524941373201768 0.01171572873349073 0.08047538988954418 -0.05907092864785509 0.08103639006568011 -0.05526202103272667 -0.00619490212989468 0.04955228956356745 -0.05100057123555533 -0.1398281231125002 -0.02963135480944392 -0.09260290211957407 -0.06759005653862515 0.05408644521237131 0.2425870490465005 -0.4110923542419387 0.1174888062870407 0.06289225783919393 -0.01351180384914203 0.02092330001068261 -0.2364277137825669 
-0.02615938876852102 -0.172026107466498 -0.00570610284060671 0.004756392308218115 -0.00388635774066622 0.03292290797610626 -0.03457982640286778 -0.04831381083750566 0.07138647197001753 -0.009055069535046804 -0.03753075779802026 0.06238688203128889 0.03418102600375937 0.03814593125309251 0.1043955102886402 0.09688008294344552 0.04912085780226977 0.01175639433724439 0.09846394817105199 -0.2558027114047116 -0.2183645467395234 0.09206697626551173 -0.02557974718705267 0.02408789801359563 0.1074679769574837 -0.03119569866927949 
0.02986278375384212 0.0863677095749875 -0.008680859862714257 0.02895398751761131 0.01549406760973622 0.02566953459123687 -0.014277033977886 0.04860594920484519 0.03671898864006706 0.03992941026433604 0.02346093904600462 -0.02453356929335828 -0.1025285912191106 -0.01262178460587985 -0.03593256632136376 0.007252981569239954 -0.06946586331900187 -0.05079629645583691 -0.07523340322162957 -0.07520020579412523 -0.110363380446398 0.1221226196967677 -0.005624513765789912 -0.1553241592616937 -0.03060802256666347 -0.0585582279967976 
-0.01055481508704353 -0.004205421191107219 0.001724407446654816 -0.007977934541727618 -0.06980172464864613 0.00451493978362656 0.03627126158660603 -0.0162611805621897 0.002780718841739973 -0.02617489747348715 -0.06190524423161907 -0.161114614171359 0.07576844750145706 -0.003755709626532748 0.04219438716771795 0.003706925814857611 -0.001738881446592179 0.07602731775008346 -0.118537531525141 0.08380736526079867 0.04954962331225382 0.07006587322200973 -0.08450365762901151 0.04013499267479666 -0.07205332763266736 -0.06884500713412464 
0.001096106297470268 -0.07755213594126122 -0.000169053447517787 0.01084968917964585 -0.08280601042178044 -0.007602786412664953 0.02225414038311991 0.03117628603638266 0.002336048239415977 -0.1341469132557098 0.05484404919061931 -0.3948873583046628 -0.04483918755252825 0.009734106519824422 -0.005181514413442061 0.08447033176436482 -0.07610523722749067 -0.04472147444786156 0.09709094098013767 -0.03460195936286391 0.1076458704981798 -0.01835373646647459 0.02102921166536671 -0.0578468359699044 0.01707808178613057 0.07741825642294421 
0.002075211773714794 0.08521146042010845 0.0001157205076551036 -0.0100309240226325 -0.0665186778681158 0.0008885977953811486 0.04954750960671457 -0.07351890314320715 0.02242548892424544 -0.3921322681654452 -0.09695370808371473 -0.5624168050481019 0.01455428679841368 -0.01987806155472286 -0.1267564766972213 -0.08540736317349586 0.04593882202243812 -0.001454715566908306 -0.0814509817581167 -0.1939923755261173 -0.1265415423788589 -0.3901139437732559 -0.06930699955582184 0.07732003023430142 0.06305205918207081 0.09974922976587909 
-0.01797305945420755 0.3011640689855545 0.003342251418757513 -0.06071093253663554 0.06224082194720583 -0.01710299639480693 0.006435827093899398 -0.1272409503848133 0.03008899365538472 -0.01422071423350598 0.08630111689454904 -0.02888568038191682 -0.004008921735277483 0.004848251337482986 0.1711131939711801 0.1057235174837969 0.03744310795792078 -0.01302352329491244 -0.03434347921444644 -0.01671274987821853 -0.1270789964845144 -0.1563764001101905 0.0262581402171299 0.153597784720065 -0.1103755482301831 -0.09296426363672274 
0.008070421620064409 -0.156483804904173 -0.007084479899964452 0.04517776406936162 -0.08786574852251258 0.008850560392443869 -0.06284322995600383 0.05109121640789027 -0.0037188373669955 0.02599066624696391 0.02334095968603766 -0.1503314475651046 -0.2436537158263191 0.00236581129499654 -0.09803300481455007 -0.05243744251192588 -0.08989512990639721 0.1016006879837272 -0.09656415858630096 -0.0276543665485682 0.09494975740430732 -0.05488053666453416 -0.00318761230185375 0.1682693376289361 -0.01554725386663744 -0.1467585382940408 
-0.009719351652033597 -0.04281650684167355 0.003895101021390093 -0.02756375916297651 0.03281929607994501 -0.004802650610046227 0.1600653805601702 -0.033629425329818 -0.01870738752101031 0.02391542323538835 -0.0615750501905358 0.05116434749813374 0.02204826239090157 -0.0287549424293349 -0.02456683951774514 -0.0865293903456044 -0.03729873904638834 -0.0421596685056569 -0.06417690061723434 -0.08632529128260989 0.07647139261483531 -0.1443622251006306 -0.07880663245448699 -0.2127888109165342 -0.04902821978001567 -0.2190238963858117 
0.01353192601818495 0.07419721667898874 -0.006348874852807029 0.003599464973949311 -0.0237973895693953 -0.00115367537524506 -0.08024399953968785 0.03733134261509929 -0.01158304026727798 -0.07228347661787018 -0.1012653623851918 0.1288717585109047 -0.01169364633271798 0.01481219135460673 -0.004279430993597112 -0.002605271073141679 -0.01884172330037696 -0.0795071376949765 0.01241068976205007 -0.01505948231277365 0.02899534261546617 0.01244873832733639 -0.0009058135003180122 -0.1403786723743481 -0.07841270279496203 -0.2283449327676262 
-0.02089209358973847 -0.221350752045316 0.01229885778132381 0.01331252005095075 -0.02145412375607922 0.01729588480525569 0.09964516276611279 -0.03842823183385938 0.007518418061571754 0.04599884924261442 0.0008519679001496903 -0.07208643086657314 0.09123781278982693 0.0230889166408391 -0.007916540951521308 0.04613673223870167 -0.03917439352783686 0.07268967835877728 -0.06254375801283292 -0.01827844557369616 -0.1672155979514847 -0.1384872018637074 0.007075529004954053 -0.01422152009978675 0.1277285800390072 -0.1418240283912452 
0.002208293367314533 0.05771850061074511 -0.003529551220185654 -0.02232897744152593 -0.04476259049739597 -0.01091810149063088 -0.02346093543739837 0.05372155133286803 0.005461063195086263 0.02295981069564935 0.1705778752733822 0.03209512168324927 -0.1422116045081144 -0.0106312951247191 0.04562270292533267 0.04838022595630567 -0.05252955076213078 0.01530088886815722 0.1778386093161184 -0.04515510608629485 0.01430835532528665 -0.01978346388832902 -0.07554743502723468 -0.1667162744228368 0.1014698047190379 0.05878686040869763 
0.002446518287701785 -0.08258587459519671 0.001692051899872991 0.003026535765773517 0.02657849067274133 -0.001872989858238402 0.02843143088710235 -0.0446804635504043 -0.02247477734679153 -0.334758609659172 -0.05917325749051709 -0.294149128119129 0.01015707400509278 0.002431023383834313 -0.3362960814375536 0.009168039308741585 0.03995680795836414 0.03324551823055945 -0.0788634440372301 0.01036072462936451 -0.05809450106956632 0.08260723615770564 -0.1026347484920321 -0.0940767703064373 -0.1776491530559783 0.03874833751476557 
0.006785884992604047 -0.0533287901357362 -0.004930046829029264 -0.02422863181075656 0.02261977365240736 -0.01034109067032567 0.001539802030353508 -0.04729482232379725 0.01481621887214929 -0.1352146912879751 -0.03551601022495116 -0.1275165433196479 0.1189270354634859 -0.01025593926841263 -0.1927230844512459 -0.003973775224276378 0.06925971006121016 -0.04139649939220994 -0.01416435252936813 0.08150849919264884 0.1945238011894319 -0.2815087734138218 -0.2111779425779577 -0.1599517659457906 -0.07449613274726673 -0.1331109257283181 
-0.04145334529573618 -0.05019188714952157 0.001265281299186054 0.07061856132911072 0.06632734953857448 0.07448844069156137 -0.0006173784734769518 0.2887672814172287 0.09789365973223804 0.05972580734331499 0.0545797524353734 -0.3303872935913577 -0.1130297633690317 0.1322535718305099 -0.150902004521814 -0.03823058319271513 0.128951086081789 0.09833447284208928 0.0927419933659709 -0.09050897246032449 0.2333894245073586 -0.002964732027502678 -0.05008099197515075 0.2626481264842196 0.171024369155213 0.02845484735054214 
0.01373984546175562 0.05594561959263365 -0.001912580163810223 -0.02303457032471811 -0.04598702599158561 -0.03511654746352382 0.07186674228281723 -0.06190393827104135 -0.06199541983811544 -0.0402589185621731 0.06004587419959802 -0.1536354630340837 0.04557641577734931 -0.06057427247647019 0.1692394004562253 -0.009689095960817859 -0.188093420394216 0.02642125689372529 -0.04755784161414432 -0.08403738621593816 -0.1061543203851495 -0.2096734705078985 -0.148621429360249 -0.1260434179080133 -0.007061741026259942 -0.0707985722064549 
-0.003328910602349869 0.02735760962319819 -0.001183161975371106 0.003852604539719798 -0.005589396728945438 0.005945939712420543 -0.09105453547890424 0.02548275306431679 0.01393940048643375 0.02888163988176197 -0.07880857526159529 0.01863116567169764 -0.1100303921778566 -0.001031783418570801 -0.08093549570944955 0.02561035233917359 0.08748319262493205 -0.002641301851745697 0.01459799506933332 0.03917814667105318 0.05091903239644495 0.007605422812747023 0.05642289086350138 0.06776505495863114 0.05657679460711344 -0.1246240279776122 
0.006041560974492955 0.07720035310174227 0.002056206553523276 -0.003713436639821107 -0.03822789648536481 -0.01192357135927963 0.06468238337975867 -0.02868973160228266 -0.07753420840060815 -0.04340943364603674 -0.2260550789891152 -0.1628434939691596 0.1692806335738163 0.006471941890514995 -0.03426038679367398 -0.1183530634339164 -0.01420003838450795 -0.02673996231855292 -0.004381521622038471 -0.006098328638050174 -0.08810838536287058 -0.188147197731021 -0.05783028148859308 -0.03754561616150669 0.06033592551021255 -0.256406008196513 
-0.02052228299224262 -0.01298099146705282 0.006960258042993979 -0.03549118835725928 -0.05692517252385471 -0.0424849035944838 0.0616879186337233 -0.01900077025279309 -0.02844297628272481 -0.03078110186078356 -0.2260374115165729 0.0161142856549262 -0.0641495588031937 0.000955833846000348 -0.02441889865438094 -0.1782978454730982 -0.07286233621160518 -0.01272127780135916 -0.04163611859372736 0.002544079369818372 -0.02620673544923813 -0.001404997544543509 0.02743517381064088 -0.02643827048819558 -0.1823703501790166 -0.1309837932285931 
0.01411799825615607 0.02586687642938787 -0.0003852936479503256 -0.0154583133645206 0.1976971849664164 -0.03361110814214216 -0.07348515024172585 -0.01905882848651915 -0.002524522719412818 -0.02658840296328946 -0.1770091306384846 -0.3694245829467469 -0.006620629777581835 0.009135338897666483 -0.04482944916569609 -0.05180566754564487 -0.02885563125168868 0.02814362777850256 -0.05881510184556471 -0.008709773557431952 -0.1412843581346633 -0.07273563650424099 -0.02657713910174067 -0.1741127102286138 0.008863775508363569 -0.1160276634483309 
-0.0004324754004359175 0.0261694886334053 0.001005428762044196 0.007657499924711207 -0.1018570682328534 0.008940475635925418 0.02104343352854902 0.01856361776509472 0.01385939354330415 -0.2946870300356321 -0.0748097305976258 0.2196335760521644 0.04350281598732569 -0.006396959693863443 -0.01941981227574147 -0.04828199145366644 0.02762785786666625 0.01953060212322712 0.04164022677884472 -0.08833039146913192 0.04527296204088998 -0.1467219920706517 -0.06378449306329208 -0.1152945659862544 0.09479072422505241 -0.06416905128701632 
-0.001337551496165638 -0.04780057740298249 0.00237685450052425 -0.004828155175993723 -0.1475016053553913 -0.01893922730185798 -0.1384485272090025 -0.009223725242493529 -0.01972982327451074 -0.3426253400479318 -0.1183865274582895 -0.3966386959524311 -0.05451599060296185 -0.004457413907158334 -0.1989643790941336 -0.08225155151331778 0.05668542776590443 0.0760586474243167 -0.05011485165694877 0.02146585335482413 0.02352728563482537 0.138537765320504 -0.1458230859178529 -0.4642944341313822 0.1019973097580142 0.1649968109640703 
-0.3246305418352251 -0.07711338220994725 -0.4635233156866998 -0.2704989594683158 -0.268495494909322 -0.2529564134111513 0.1063904758910378 -0.5996300404938855 -0.6397548741584461 -0.006539927270701757 -0.0554928596022702 -0.2343332564569588 -0.07821911847814125 -1.008428428937564 -0.2105599285277045 -0.2251134919362475 -0.3056995183510813 -0.1760553655666493 -0.4632805008242752 -0.5295075437245577 -0.3560608146846224 -0.484282556283437 -0.3658205940222784 -0.6794263787689369 -0.2875031320827809 0.02845446733570844 
0.005165144290038377 0.09174903643510143 0.004426850039044911 0.0150114142582359 -0.001166383319406796 0.01557135469458297 -0.09217794802141817 0.1717984747190965 0.04247764531479483 0.06604917974439148 -0.1409674189110263 0.0799781230934573 0.1636580247472676 0.02208603978589365 -0.04622233921842624 -0.001546699094081708 0.1274326496504059 0.001315435108099141 0.3402191493345495 0.1301250023937105 0.1348204457264259 0.1859327315238272 0.06822531357855312 -0.0635574623895029 0.1184896955240203 -0.05332855309898171 
-0.001676855049435157 -0.09288830794004498 -0.001251604009713606 -0.002204770137831783 -0.01861446226543679 -0.00598294886367039 -0.0523213814116156 -0.095652003475306 -0.03379887457772788 0.06031585881823857 -0.1190018761867527 -0.08129748080483921 -0.1164121711713967 -0.01552474595499905 -0.004920388798253918 -0.02064542926777859 -0.000949733897222556 0.01023430153923231 -0.1786275447238992 -0.2087968184931421 -0.1767516871636752 -0.06567328589680786 -0.1441665513604743 0.2686653819193893 -0.1352193087035607 -0.1150674025929468 
-0.002470948592422146 0.02661706065004748 0.001128162456067474 -0.007925453426816881 -0.005550099347348867 0.005698937903544832 0.01108039283139961 0.03954065343883915 -0.01398643738785582 0.03259225001628911 -0.045386331169946 -0.221450395805046 -0.3627400944312186 0.002632796808027712 0.0195007228667036 -0.0117466737639588 -0.03212227924038116 -0.01429118455478462 -0.06307890351517481 -0.01659515853901082 0.01949213916409449 0.01766611449937195 0.0487561858206436 -0.06475762998208595 -0.009155600277857454 -0.3150220425649622 
0.008454223303164952 0.2092756278196432 -0.004956530965310805 -0.008076982342513432 0.04219344465868846 -0.01718793761883688 -0.06601632116030089 -0.003424850575325755 -0.04487487552370594 -0.1290370593859499 0.095646955173026 0.009929975816374625 -0.0502555365954794 -0.0227277150133562 -0.03505625653832951 0.06375928910908678 0.04879133801002982 -0.07129205594842598 0.171037824461368 -0.04452573856508641 -0.1403492635396514 0.1298119959459335 0.1152700937199224 -0.1677613533691758 -0.005718941043682978 -0.3089003615417646 
0.001777861372023174 -0.05913469480036265 -0.001566307015539768 0.01686059113890144 0.1104618331542837 -0.002417273046418529 -0.05036095311500077 0.008729999287725823 -0.01328318108739322 0.05578759029160046 0.04096504145542831 0.01724967475892677 -0.001625599503874337 0.01625278837064126 -0.06469297100266364 -0.09205629622316018 -0.004430940481133757 -0.01140487326225407 -0.04521021196496019 0.0539498269323021 0.02363126784498321 -0.02115178603670772 0.04415704026972121 0.107078393792275 -0.04702337847607287 -0.04823630135853086 
0.003818730102455569 -0.0531232302441126 0.0007456705769046598 -0.006187756580424017 -0.05389046051506949 -0.0004994975719296387 -0.007618991667430241 -0.01155512551011876 -0.01916472576743691 -0.280201466097355 -0.02657095471349541 -0.3828347470568214 -0.09761715156479274 -0.003636248409867341 -0.01182325183864813 0.0780760795142713 0.05245853784218842 0.003125957267741655 -0.08599317396751546 -0.005279654287364961 0.07412432638073777 0.1073402203485629 0.0867197742319023 0.07253533125931332 0.0467380846607805 -0.02191922667290321 
-0.003744653720450271 0.007990429654469711 -0.0004021093218081829 0.006615467286813311 0.02828656593176374 0.006988258493215933 0.1224444608986406 0.02156697189745501 -0.00295555961934696 -0.2618492403776935 0.1212644309017089 -0.2525240996907211 0.0305258835696418 0.01908904255533102 -0.04343608012450431 -0.04625312106642785 -0.02738053368706024 0.01878345776233388 0.2219965066390018 -0.0565690584032796 0.04956948346806164 -0.1074099207838511 -0.07078324687438724 0.08624018234511746 0.01160547554359349 -0.1080800391590928 
0.02929398510300252 -0.1164071580397623 0.0003759378004802891 -0.04839689337801538 -0.05559151350143673 -0.04687419766567362 -0.06843259247338393 -0.1574404315452954 -0.01636743308495534 -0.03988810943883866 0.06832655677044139 -0.1388652505221018 -0.009174452905208913 -0.1088277621304707 0.02634713155251088 -0.09329346658463487 0.1483015329965264 -0.07246525036573263 -0.002578685440724217 0.1360580309755986 0.1213226560307895 -0.06910790001117417 -0.08912889090718326 0.1628449330713599 0.0455347498152784 -0.02987872310664657 
-0.009561385135311795 0.01419114773151115 0.001491164678743228 0.0009207849737172761 0.09480740608588259 0.04823210248464341 0.1283636946613178 -0.0671331608120677 0.04548446023141895 0.0775311014015615 -0.04511014122041502 -0.004612139194961007 0.02767176612204168 0.05681358976316695 -0.0322701458286409 -0.1150255177745929 0.1691325564027846 0.0008983839937923302 -0.05064920252751805 -0.1205141659333088 -0.08505415636740789 -0.1701987523136818 -0.0936607786574445 -0.02770677962363528 0.1787973766810263 0.02724025618018325 
0.002723555101781077 0.159525380257238 0.002466876874498485 0.0006463042625514463 -0.1514788968357159 -0.01890130966511803 0.07528674938493554 -0.03222162022082245 -0.01115884038175119 -0.05587744466629318 0.03268785341939446 -0.08714050390817038 -0.02546111644141125 0.03454026755975073 0.02061578674854092 -0.09640688589137551 0.02116900250284168 0.002251230357887901 0.006794196034338475 -0.06587103785897282 -0.06098558027683597 -0.3620887336138828 -0.1278084187798008 -0.05566885732030379 0.002243410560341478 -0.07091564828155388 
-0.001132453162903971 -0.01935984680694261 6.436625607691054e-05 -0.003313957532801086 -0.2199273730488855 0.04093650282114602 -0.05592043892388109 0.03788601312236686 0.02533190649679886 0.01593194344978694 -0.1963825796337234 0.07561319273974765 0.03872247450851218 -0.002989461031165102 0.03862716812120245 -0.1718917943562141 0.1288076306333854 0.0155653947141696 0.07431369569188291 0.01711625804348823 0.08035206887745652 -0.2020087271656894 -0.04307427230422927 -0.1766842361424788 -0.01020011213685136 -0.1380429841902626 
0.01594722238915208 0.00526325313728354 -0.007087197354485037 0.05109310898069734 -0.2685317923575206 -0.4527121939243172 0.01312671765170295 0.024396030862847 0.02267341827223594 -0.1888492200641831 -0.2481000550345189 -0.1049803385529479 -0.09355902568125102 0.00427141214418404 0.0004082875482382294 -0.3466637430018817 0.06613193970862159 -0.1790615629638132 -0.01202862061135375 0.0569789362286594 -0.02833932171396099 -0.1270706303801614 -0.003303093957143365 -0.08179859502003972 0.02267171898612982 -0.1385984630697802 
-0.03770474613248768 -0.02534357076916288 -0.0006601235094877448 0.01725100308973295 0.1030778740934523 0.07861324077160012 0.0223176900088539 0.0128116877109208 0.0006083102564764574 -0.03702875881418209 -0.1454090305464269 0.05599708013753111 0.09916491332504841 -0.01523456093185989 -0.01390579265219645 -0.1448937972904889 0.08319414455938888 0.04793358466064824 0.02812697463553496 -0.1197271592615292 -0.02544131644614077 -0.1252966734673275 0.1240474263334829 0.06478677838492275 -0.2389019942551487 -0.04952871073344622 
-0.02115169536792083 -0.06427664549678226 0.002056724604546675 -0.01312890735377361 -0.1185961808292539 -0.2670326156153672 -0.08503566655428223 -0.01148596716743357 -0.01449972333004301 0.02116868591239025 -0.03490061284623856 -0.01284346549482584 0.03112394567654536 0.01007421534073309 -0.003124131608507253 -0.1775776710349449 -0.0005709094704130489 -0.02075207955986171 0.05903592988683525 0.1431557899717845 -0.006855389331040924 -0.07289549004783323 -0.009647815173865606 -0.1378343130765528 0.1606411659101675 0.1166161362094586 
-0.01389892633663997 -0.06080721303540682 0.0008192848690936798 0.004624636683297389 0.05086271729532997 0.01823293954416434 0.05678602362676288 0.005960757958789024 0.02721867577627596 -0.1794733900232255 -0.114877095193462 -0.3240803141672191 -0.003260576576322354 -0.00505840392046136 0.06067964245653606 -0.1855672005143859 0.04463801710578775 -0.01356052009868895 -0.2189597924560447 -0.05477587733497425 -0.2391927246032971 -0.1492511681076664 -0.1582728296710255 0.1876571134949859 0.05560413961098997 0.1095108292274079 
-0.0524525161689525 0.3965378759696752 -0.2803003296462508 0.01141035006402884 -0.09199166902297939 0.004929390623688829 0.2686034244014499 -0.2140563912827445 -0.009887455956556511 0.03885893914907177 -0.1781093412712638 0.02715396806903086 -0.166325364364924 -0.4854227465247851 -0.06958318278573027 -0.1124329572437697 0.2004635358533256 -0.1535705540734273 -0.1771975802358157 0.01789838154731247 -0.01263854137054666 -0.3240726490315392 -0.1524273602240144 -0.3259957209882936 0.01196755475785549 -0.03310653988700449 
0.0007254171618464589 0.05028475775835592 0.001379590044596359 0.02484234077467481 0.01047991385974674 0.004004532434949949 0.1747866324768686 -0.02036991652386549 0.02576467229993613 0.02574130030090344 0.04389343196016573 -0.07169627611978155 0.1549191919190443 -0.00142017824050597 0.09566431615980624 0.06181659096516517 0.03318074742655414 -0.0461739099463723 -0.2725101306635334 -0.06360766988859873 -0.04881205367164738 0.07098148660275756 0.0146107195769509 0.2552983403375496 0.1111473967569285 0.006833226407925761 
0.0004648182223518214 -0.05123637996761863 1.850596382553182e-06 -0.005242474929707447 0.02217463858236178 0.002571501742623083 -0.06639771393549407 0.04071647912010801 0.01081407331206994 0.01093879020744105 0.04605546080383658 -0.1025067003509309 -0.03802363598111669 0.003902362646022408 0.08194395789280598 0.01033807452025883 -0.05792586647243687 0.01574571894890326 -0.07021064422713251 0.02580599784757986 -0.0003617589606952272 0.1031274676011228 -0.05651635530918988 -0.2095986749099119 -0.005247647599915791 0.1312058254004241 
-0.0008059405900482235 0.1760196057399626 -2.565354619224494e-05 0.0001827495972407563 -0.0658705439290824 -0.001853169086640516 0.05713277341448719 -0.02959992424340431 -0.0001803056742711008 -0.06995304859621451 -0.01012308937888124 0.02179065374887577 -0.08151461406182549 -0.01126067813674574 -0.01559075848818981 0.002658185517010478 0.06097283801227403 0.007087718299074178 -0.004401986024427766 0.1023654856684594 -0.01883209277165885 0.1380386854740543 0.01520138738517457 -0.2867662645560502 0.03816308018522358 0.0954729445771903 
-0.004452196840999837 -0.06603325213169355 0.0007056225741106071 -0.006514281742953603 0.01376266820354427 0.01091174766924535 -0.06804373018288253 0.03633688799574684 -0.02004642622750691 0.1586968751514077 -0.06841721137413782 -0.147315706904562 0.1614098359437138 0.01162590825375636 0.01701173245251618 0.09427021287566482 0.04933016853450424 0.02054945586668398 -0.04694002280538482 -0.04207524968024254 -0.02832977678206954 -0.1605463284353198 0.03453033102636603 0.2043700361674954 0.1926914388523543 -0.01508960073779186 
-0.002899441937946366 0.05297103123676287 -0.0002361800789254451 0.006750468629574488 -0.2639686033932286 -0.01080136991898173 0.06717338551278428 0.03042199602067565 0.0232210186269926 0.01618542755805802 -0.08653162018397489 0.0666739345986655 -0.07257172414938468 -0.01168204749808254 0.06643277786757727 0.08413928591276984 0.05238796795295664 -0.07069382089141252 -0.0508838035655575 -0.1975499872713644 0.1961359084289311 -0.1578938898445596 -0.07420045832236848 -0.1681436133184723 -0.0950309715853957 -0.0543901556488045 
-0.007438640133028785 0.1540738779187686 -0.001308828428552165 -0.009453717416271948 0.174042085827835 0.0009112473359855255 -0.09692462006558582 0.01762643172052642 -0.02644930826361395 -0.04997577927219313 -0.141782852413024 -0.05131524954766043 0.02432287687315112 0.01030720755376197 -0.02025983101847689 -0.2252461741919205 -0.01062454838912819 0.03296046917846971 -0.02296380576242387 -0.06146914244828291 -0.240090702108932 0.01234173082563741 0.1333947628841774 -0.02730098883149164 -0.2519861378755328 -0.02524495519684275 
0.01673119246332731 -0.1825594289405187 0.0003656829506814634 0.004434259016236024 -0.02595867074616875 -0.02491532618403878 0.1311909857924296 -0.01202251396844491 -0.003604536879309386 -0.2741060778771141 0.08245244240916381 -0.2019577516346896 -0.0375317032409344 -0.04931905236872691 -0.08337034463491197 0.1084800045212995 0.07004327422977567 -0.01836185693101617 0.01998718920348914 0.1963061849533627 0.2905948750541212 0.02139191770516539 0.04838646648166119 0.07063397321695 0.2862758252894411 0.006512922291512058 
-0.04109248365578563 0.009673103309997771 -0.0003925476807300626 0.01728287274964338 -0.03489016004068248 0.08168980653012654 -0.1294004956719795 0.08728257631847369 0.0304617986128863 -0.2252488114531473 0.1258595347111588 -0.1399824882728433 0.04861210974946999 0.1723506138107281 -0.02559191091624006 0.107982848413563 -0.06336764605656901 0.02865657555380954 0.0193993471489969 -0.327096675015086 -0.3802063171520193 -0.1646957239025903 -0.1850193913756162 -0.1182257830919563 -0.1457003723898102 -0.09704981921899691 
0.04246086861533736 -0.0009108207597018258 -0.00269093596072599 -0.002139111659235846 -0.1372014706885577 -0.1117574542184507 0.1785286127709159 -0.008173993136364568 -0.05870793678176971 -0.0829669437404188 -0.204656087056429 0.01882821194580219 -0.07258227738493131 -0.2367963877220277 -0.02215146517480491 -0.1266892621965059 0.004310234237653702 0.0182231853435183 -0.04389390541918992 0.08834024418995812 0.06755212029053236 -0.2786779361541453 -0.1578643862428972 -0.2884933511900722 0.02666993861247462 -0.03940839214021626 
-0.09457789382742868 -0.09551590644941081 0.0003259328927060386 -0.01470392691355493 0.03081131255824875 0.1713787374738432 0.04443251401481227 0.03303248464427603 -0.0138591827769797 -0.08701912640474394 -0.2674960076567869 -0.1173409045548988 0.06186601116118946 -0.5124958385313969 0.02590085509635342 -0.1252499728357859 -0.05725173240360684 -0.08363306682032796 -0.2839738034470861 0.1737328769449525 0.4624763876138437 0.04118496287896037 -0.1286910859010107 -0.04842462859649317 0.2602804458929226 0.1367374518047066 
0.130660960137245 0.1420222972872771 -0.002967631791226017 0.02750216732811817 -0.006997671586823852 -0.2530407668911658 0.0164339177345659 -0.007619518417502186 0.02169037215693601 -0.04682171218158986 -0.1543688393647644 -0.09836872346200244 -0.009393348786195166 -0.01971921661841883 0.01145549746308913 -0.1389261708205621 0.06161947363898254 -0.07836146750161127 -0.1460344731292059 -0.1134467919692378 -0.1914326497246162 -0.1376166270744302 -0.09316414088763583 0.1430718124074748 0.05006795308577904 0.2818120061393288 
-0.2030558882197478 -0.009402599848590732 0.004960540858069873 -0.0462384491220567 -0.1697757958625903 -0.1471299468314505 -0.0003228383128031254 -0.03468386514840807 -0.03616527172699775 0.06213980983480276 -0.1468103962005089 -0.05813778912779879 -0.008759056612890179 -0.008730558166286401 0.005410565511896127 -0.2487333847167439 0.111191033169684 0.1065454975325931 -0.1953152145183997 -0.01187998696380127 -0.09951364257984463 -0.115468436045394 -0.1634879483493743 -0.2611730026963393 -0.3562389749563506 0.2007416206507502 
-0.2863078560426623 -0.3277934009150684 -0.1903169208347284 -0.3584255603126195 -0.2467103564636166 -0.2324835903519941 -0.1075895055302112 -0.1031724601485918 -0.1895352963521088 -0.310307936911763 -0.155682989309186 -0.4909456936138204 -0.1814180168863744 -0.09799354603608243 -0.1235627177583498 -0.1329545751514367 -0.02585390705726896 -0.2581930245843418 -0.2714911938764429 -0.2505100713879884 -0.3533929064029157 -0.2276786892834875 -0.2099087902426637 -0.2260645515884452 -0.2081602223088534 0.03915081291398059 
-0.1137529043729034 -0.2192009222867282 -0.1180378960225365 -0.3679468896688342 -0.1983890703441132 -0.2132045047762182 0.03198913276083298 -0.1340424745620869 -0.09391307594344724 -0.2159158942292423 -0.1316681823454328 -0.3061980522611618 -0.1094920164664543 -0.12828687333699 -0.0891532448320546 -0.1022037357252757 -0.09286324616599501 -0.1899784269211232 -0.2268001319777733 -0.2436182030625476 -0.1922991126124465 -0.2556777602457153 -0.2508067352957101 -0.02216969799870874 0.03387151662248696 -0.01779160730831237 
0.2067699196364418 0.0826942324965001 -0.03966488890909972 -0.4359955970803795 -0.08141412220306636 -0.1023509718614895 0.02940364198322019 -0.07476946664853119 -0.1363629130302869 -0.1287775444772359 -0.1724909294721266 -0.1725372085300486 -0.06535702929594435 -0.09529674955932366 -0.06133456463904419 -0.07045626664254209 -0.3339516837996935 -0.1041952596210611 -0.1358681881249627 -0.2956134294182285 -0.2510420010783115 -0.18029119614093 -0.1947956565288358 -0.1930260333886117 0.01593593252983809 -0.3476249801436151 
