solver_type L2R_L2LOSS_SVC
nr_class 26
label 1 11 5 15 13 14 4 9 7 18 24 16 3 20 12 23 2 21 26 25 19 6 22 17 8 10
nr_feature 128
bias -1
w
-0.5023297193559404 -0.1197706379855735 -0.4252826959976483 -0.01138858246124977 -0.1606652459154175 -0.08402480627768112 -0.6257415215335675 0.08359665965350702 -0.362372779689036 0.07708139435422061 -0.1564179255941357 -0.06311322535925713 -0.5924443267234476 -0.1975232430830305 0.1757985785463954 -0.1105113953871966 0.08543498402333695 -0.1382061781801408 -0.1586900002775906 0.2842063025837936 -0.3669389817147921 -0.2769234238029765 -0.1325315028294707 -0.1649688968067127 -0.1805326402738523 -0.0570274302033351 
-0.4115720713189013 -0.1919437868041384 -0.4440685621877773 0.01579408797261464 -0.218471092967979 -0.2343957763191493 -0.657205396848668 0.3914204142501461 -0.1921988630288715 -0.003131716215279996 -0.1334579517965552 0.1259102620763611 -0.6134237168441651 -0.3421526744871459 -0.1314925749931638 -0.1272623439388153 -0.1971968724374213 -0.2679011245319425 -0.1413580072249429 0.005894385415708241 -0.2292884695692856 0.004463298244906292 -0.2407984486711569 -0.1249425359252152 -0.2440653863028258 -0.2988961127804792 
-0.1179131800930981 -0.2287923288431425 -0.2878603128590732 -0.2553312369086649 -0.1759560208098526 -0.2165470412034005 -0.7256242078385541 0.2759816942161105 -0.03786449127297895 -0.03440714007526466 -0.2174392454060243 0.272788515514556 -0.4832292439704961 -0.4994717612701794 -0.1237280190560605 -0.233009258176982 -0.3770797127350666 -0.5243714429152173 -0.2820037904095067 -0.1307233563107825 -0.183208604254016 -0.01730524573705027 -0.5551845825198307 0.00567179478360386 -0.2840071945869256 -0.3460039601850456 
-0.08547430085003212 -0.2248766709755504 -0.1801035113381166 -0.1344052129605048 -0.1810019756624032 0.06783430334786335 -0.52968649180823 0.1905507159410822 -0.01417105475524292 -0.05457192923077989 -0.1795220806046076 0.1932263646625103 -0.2302581002567259 -0.3043181008134 -0.2509113360427792 -0.29408828516276 -0.5836379984403567 -0.5179895434900531 -0.2323342837527737 -0.2878065131736499 -0.05508852472651182 -0.05220908521918095 -0.6456423643902656 -0.006232712227718947 -0.04663771272497212 -0.1658457800855316 
-0.04704256906288475 -0.3296522287732063 -0.1575027700460206 -0.07736650712190986 -0.2200245927348286 -0.05087722473264171 -0.4112632882881784 0.2155536348593782 0.04001293065416009 0.0106688333877088 -0.1947111212812606 0.1996816493347396 -0.1010918419635366 -0.2869691357270215 -0.2811746363270851 -0.3245393393928402 -0.6037487348085124 -0.4606179337176629 -0.2468105458936759 -0.256398149439536 -0.03349820435723681 0.08588000355230353 -0.571086526696827 -0.03471925683142398 -0.1647260522135134 -0.210257909811041 
-0.2394176617819059 -0.6433779498896421 -0.1662302787040562 -0.2633692103147097 -0.115494905556766 -0.1097404260224492 -0.4147840382975401 0.1476625075139499 -0.02842468150521229 -0.09547093439651878 -0.2047787142349306 0.2378401968668794 -0.213891302845888 -0.07058537978182412 -0.1916285972706028 -0.3606324153017022 -0.9949379360926313 -0.2970051649750619 -0.5040526512310253 -0.2322659986335432 -0.05502826767287161 0.22012725665834 -0.3724269008091824 0.01293230622660494 -0.6133531286731196 -0.2561292955860111 
-0.1328117042759074 -0.6510803285526028 0.03957281222742982 -0.1174774004795513 -0.2150525918414091 -0.2420601101381683 -0.2970990079456284 0.1149400380762338 -0.002476118548905764 0.05553528947376674 -0.1296684977310683 0.104953452352799 0.08347087046812687 -0.03613343233230153 -0.3663819907034049 -0.3214335342939966 -0.6594312143383426 -0.06524016905248384 -0.4831697197268848 0.04857253194485276 0.02829620481379112 0.3736904382462294 0.02129891296734188 0.02291865951687886 -0.4327883468939656 -0.1218107783070502 
-0.1363993064899499 -0.661171929598499 0.04029228491432402 -0.2602797474727979 -0.2505562714607841 -0.2098034934694377 -0.2722013837718301 0.1110665040429494 -0.09248373662684778 0.2371525237353867 -0.06867129167906066 -0.2057946703003604 0.007587126346463965 0.2345684454083735 -0.1899139765005261 -0.306142815158859 -0.5488569869325383 -0.07933897367071049 -0.2878280281954305 -0.02699563819942217 0.01350039884479005 0.3149196499333397 0.2334959758535887 -0.008413544489575514 -0.08192289958747007 0.02674947816169898 
-0.1608629378596463 -0.07322560632614156 -0.2603873737357875 -0.09445948731349604 -0.1110086316563164 -0.1179488679269154 -0.2598266851326343 0.08273528584946227 0.000541138048773343 0.009495106609636424 -0.01984899790242342 0.02502035456580476 -0.2613943278566906 -0.1075073324302027 -0.0218909991780411 0.06137859240586227 -0.02877550869840338 -0.1985252255794277 0.07334126366587332 0.1689960523062318 -0.03866684407132248 -0.02372562700551967 0.04337703138281073 0.007491248864678859 -0.008184681690551962 -0.1182304933196323 
0.0354739167746671 0.001146594155931532 -0.01944582763368022 0.009611009544758898 -0.1962891151613309 0.08273167671358728 -0.1607724761638372 -0.1051115935424099 0.1024739452492675 -0.06049282587337793 -0.1322536545627711 0.1188725260895405 0.1488080621166802 -0.1689645033984706 -0.06989054801297356 -0.09172472793064472 0.03497587677042716 0.03062868007916791 -0.001536002542838697 0.2095323843641686 0.04865897886762222 0.03999144123445152 -0.1757481207073157 0.07416023139755078 -0.01800348424924068 -0.1318003206815614 
0.03514932690788202 -0.02868313918914474 -0.01638259592385284 0.1507295663097666 -0.030956239334131 -0.1778788448925135 -0.08759309994296269 0.1008156547280696 0.05732799058142622 -0.07975374784861997 -0.08692191780422646 0.1283136517121594 0.05551853157873229 -0.0454369312315166 -0.01365223090844356 -0.1078968450689195 -0.203409980045916 -0.2871827385774191 -0.05936892778643047 0.07616990328405884 -0.04142953691607208 0.1184441877343332 -0.2766502007705242 0.06857528429855644 -0.02472042250254146 -0.1738646960048761 
0.03904045567544853 -0.05953653576730543 0.01186811688609409 0.03786045573175665 -0.01516780130141262 -0.09944950837529286 -0.08494533796007463 0.0566601490095096 0.01033164259714344 0.03414373443578563 -0.01868484735251193 0.1444179685345949 -0.09210068346390241 -0.01780031833428453 0.08643508234532031 -0.1029844934119869 -0.08571263142098949 -0.2428352262046137 -0.02478044914028781 -0.1069064913225495 -0.01802451792540963 0.03170463616359969 -0.1540378723649589 -0.006024525251115586 -0.09173929666096282 -0.26428125560036 
-0.02951157343340971 -0.1557983692252184 -0.06032532576072031 -0.01619664720635579 -0.129839719166458 0.06476217466246126 -0.1269853500582718 0.05242479986079814 -0.03206902942821666 -0.004444874053562252 0.06797131226919152 0.09037647145227856 -0.1006911502755116 -0.006054752552024129 -0.01584144313156895 -0.09213426523822618 -0.2228274771944921 -0.3139030134313232 -0.0622082134723939 -0.06241869362404255 -0.04746174848449852 0.03633591748504273 -0.3463009674187172 0.01562988678471598 -0.1765034824322933 -0.2300468606958133 
0.04128914432170563 -0.2100730862748289 -0.04796429486297289 -0.07087298494535103 -0.2562626096906136 -0.0929742822315161 0.02669386743239307 0.05750088751834265 -0.05407812013724304 0.04126469822516461 0.003454567730583231 0.09789774216468639 0.02031790542464405 -0.05149951773392317 -0.05636262334384937 -0.1013830952465796 -0.1196030299717857 -0.04977319299552861 0.1017934063323541 -0.01004362161081187 -0.000764292934436027 0.1971620179436268 0.06715773567827668 -0.01134122541453799 -0.0129323457918151 -0.1870210141525414 
0.05225026219993586 -0.1819934366721571 -0.1159123995262802 -0.02417498501101595 -0.2226078721387894 -0.07225164400937627 -0.1951244708837797 0.02561051340372376 0.03053123275200474 -0.05788805367899024 -0.01827326571890537 0.1659153112305792 0.01416642509447091 0.02736078564984851 -0.1332272431558895 -0.2051584922281088 -0.2136151821970781 0.03625957571156846 -0.07248950778982738 -0.02506278824602241 -0.002230524370021812 0.2547775729594747 -0.1037205335482014 0.0752457909854177 -0.257623504986949 -0.2112537408727992 
-0.09682158722236514 -0.2899145249617119 0.07169846815029521 -0.2608225998878186 -0.1908054927719459 0.0006325762914943973 -0.0721279182682642 -0.1840419810526089 0.08148140623862535 -0.07283950644771099 -0.1083222570501965 0.05155447836803782 0.03075471502735626 0.04452864708475157 -0.2182999446608076 -0.1161007532487072 -0.2290685593339432 -0.0360685756597293 -0.2275464979917867 0.1791666803961418 0.1606030259176329 0.4920060921268186 0.2219099491501921 0.02527903890235697 -0.1715616218773236 -0.1189681565815815 
-0.2141317020238571 0.149963121312409 -0.132188795567537 0.005969078171969089 -0.1555890654271398 0.08392522495297158 0.006011138551763232 -0.1665586293287889 0.04037966209033372 0.1446833270467963 0.02872607280415681 0.1851299235668632 -0.1985221296708051 -0.06509617520179074 0.1136814603624988 -0.02025179496627647 -0.01271507887324583 -0.0177467745340435 -0.08870673541700336 0.1372265021193312 -0.06982212141247339 -0.08935093918719519 -0.0006165155087444422 0.1160940894506305 0.04123308146560384 -0.3012557643694506 
0.02117519518212227 0.01916423729539861 0.09560841545725429 0.01581200876358492 0.1075580896898792 -0.07202531474695625 -0.09971561067014426 -0.1143244657687604 0.09296433979595922 0.1702720308418343 -0.05352592929745083 0.0306903014565115 -0.01610027319556707 -0.07022467037972915 0.05111427778559999 -0.05622362837762681 -0.0112832651038919 0.06751792873877312 0.06619723727879254 0.1416350974067768 0.01038217526651521 -0.004478556601345687 0.05296389079009876 0.1756389139023468 0.08720794509714806 -0.2653571184998181 
-0.02347302796812752 -0.06385556500846826 0.01210790369391244 0.06186360734619595 -0.04473615040867573 0.1052448612487938 0.007600333979785387 -0.1629855416789741 0.08319325469020686 -0.05936823283843814 -0.044655129386517 0.1027469349549962 0.08439842187819535 0.03795880071189451 0.1441626659730751 -0.1184039088473768 -0.05971326740704318 -0.2417736643976693 0.0254444438323335 0.1314080692887513 0.03661556393126754 0.04502127806542995 -0.01700991012039177 0.02118767609943296 -0.1292581333371928 -0.1956722660821858 
0.01297610082917766 -0.1200631033204784 -0.005235221554865869 0.1199833407044835 -0.1759507332481727 -0.104818648828839 0.0150522434781074 -0.269253253141264 0.03253987034978219 -0.01539707777110303 -0.1832179253339359 0.02158974302929594 0.04609095832677307 0.1100850956376355 0.150965369333019 -0.1277199496731537 -0.1484134487810799 -0.3276199516568966 -0.008566704906487772 -0.03295348783068645 0.05516050451443582 0.06308512651713505 -0.4459808871440027 0.0288050736181289 0.01581004029459701 -0.2705504133931668 
0.01297993395776381 -0.1727373374707399 -0.03771897130727117 -0.07217368595427603 -0.1090456622813082 0.01341928866883253 -0.0634123236778216 -0.04813625854349644 0.006806352920450853 0.03935424237602437 0.01753458077144993 -0.03650039666647902 -0.05400205468978801 0.02005775501598959 0.1261565215461623 -0.1500821666773511 -0.05213231255393316 -0.2699970253201398 0.003772616213354842 -0.05645536426877804 -0.0217544482924931 0.04302895866390444 -0.2859404762928016 0.0008495068268114972 -0.1926195080246569 -0.1806582793190824 
0.01727658630700182 -0.1358263258502728 -0.04671105408407247 0.05752639276938459 -0.1547325183176027 -0.02183656370284972 -0.08872580824962346 -0.06190401699773047 0.08277022734338033 0.01205645926353561 0.06616957597888787 0.1775114119764265 0.0923977470868038 0.06083746206822041 -0.01485393284805955 0.05942217574233925 -0.06232558705189009 -0.04881999168730857 0.05468934547804982 0.04941336267331082 0.05780188331620459 0.07066069326045958 -0.09645122040293422 0.05741908308712865 -0.06916259360959855 -0.2245284803953512 
-0.03660230573422927 -0.1076461877031318 0.01011094760893531 -0.06634140743592754 -0.00555713030221155 -0.08972039417757346 -0.06975981973145637 -0.1208166056313874 0.01820677309859137 -0.03528578028933162 0.00590315566600056 0.1457814514557942 -0.02922763981562375 0.03041944587409121 -0.131694569197394 -0.1241698128909247 -0.2163861296115332 -0.01990279891602063 -0.009954670116035548 0.03697680317750786 0.001141181483403127 0.2716298890444176 0.09179620166000878 0.07785047150557727 -0.07600735541287676 -0.2229388059685223 
0.002925201387246124 -0.3071029237301182 0.02346169725778471 -0.1871966938622004 0.00208529200493662 -0.07832818213921931 -0.1357679589065357 -0.1657761253021586 -0.01145771458090377 -0.1072625735796218 -0.06334425718113111 0.02045243720433008 -0.002776780075712373 -0.143017479048721 -0.3070425780032224 -0.008476091409638958 -0.111887427773022 0.0517626008895889 -0.149638558545951 0.04131298938321605 0.08769000509438141 0.155750550444802 0.2910184334629824 -0.1273182380387686 -0.1162259369201808 -0.1226510155895525 
-0.1371196275248529 0.03379356243780017 -0.1048861001141007 0.03971098075396771 0.02407242280238331 -0.03743792469098966 -0.2140614242874313 -0.1883886250203628 0.1404245257649639 0.0009383702444931539 0.0809217137771024 0.09209412997154799 -0.1668140853781104 -0.1639937117509835 -0.01789452946064193 0.07247170074780207 0.1099208689425114 0.0151126742501524 0.02186719155899232 0.1662015467576336 0.0262818869345888 0.0051327549185916 0.0254240188632004 0.1019581445914862 0.1023480457665827 -0.09899805841849085 
0.01071872581479213 -0.01617284824148683 0.04775645198971379 0.1145876249015523 -0.06493630946749179 0.03658846981150006 -0.07223351142399788 -0.198534627435669 0.06766605844865548 0.03680490899004291 0.152467965045328 0.178222501120768 -0.03236754409906449 -0.0523240136974169 -0.02676112147037514 -0.2597009532687657 -0.05193176911472787 -0.0673076245943556 0.07005704253043646 0.0220666453683469 0.08085164495009445 -0.03322132648247081 -0.05115430682859838 0.08503248450559417 -0.08621989122654458 -0.08461794444513097 
0.009063459497909158 -0.03059904434985415 0.02132515965501616 0.00633791048897227 -0.1143960460194545 -0.04229643864191683 -0.1404020572056015 -0.4995680506564549 0.07770885132921171 0.121519212890942 -0.09680171502482113 0.05469259430446576 0.06729928816796622 0.02778457369142154 0.0905745140274139 -0.06944658950925948 -0.1197183412544656 -0.2147521123191941 -0.009052079758301013 0.04035587580576731 0.04450105406165072 -0.003216243181891481 -0.05736917663634312 0.08672104500513556 -0.01696712179951391 -0.1090254147724549 
0.02961932537726759 -0.1430735606987744 -0.03900878911899153 0.07149955065427493 -0.1340264727399316 -0.02979399186562558 -0.1140567715416421 -0.6294631991452143 0.07415517469427418 -0.01762094943380456 -0.04962569032919886 0.02634891741367386 -0.03907945392847302 -0.03779767122529968 0.1794405992361435 -0.168413303107076 -0.03998913461116885 -0.3988624205461677 -0.04162563248267288 0.1350212212093958 -0.0690752616510236 0.03489572978870679 -0.5088264178214383 0.006615065971873078 -0.1131491983349291 0.03788536703174123 
0.02294005298253728 -0.1537337378710977 -0.03326054336373854 0.0340325559778461 -0.2044397754850016 -0.08155297375619587 -0.02583882261068216 -0.5358874218512644 0.03610043233056785 0.04259284997343622 -0.1803016743718609 -0.03748051694020396 0.055013720010899 0.0779535815801333 0.1369473677784104 -0.2076781581225502 -0.1712516635207272 -0.1044376195174222 -0.02334513396478763 0.01839941526929898 0.0463732607115775 -0.07017816915673457 -0.2150699619871953 0.0110593274144174 -0.09077926092038451 -0.0446792267723644 
0.005638271820050468 -0.0100242191273948 0.03253478844569958 -0.03647459065734576 -0.1734675291089474 -0.004539661632181754 -0.01457838739204159 -0.3208799379359273 0.03777210727096696 0.05885056752827758 0.04411527844941 -0.05026529629576809 -0.07912920976823051 0.05532457508172682 -0.03329331858471306 -0.09277120108432198 -0.0785699188465447 -0.1225832103861312 -0.02920824860239831 0.08331296186518974 -0.0251211110329346 0.03651723949424265 0.02752930583468532 0.03301773093713654 -0.02652870642844023 0.08530971385283215 
0.02198677658770028 -0.1225584763364468 -0.05138021394939396 0.02190058825237443 0.1397340018842738 -0.109094999218619 -0.02889659630148122 -0.2229473212214295 -0.004692146661173311 -0.03005474758435823 0.07572906202219616 0.1767095455064832 -0.03514229318155898 -0.005237946818810104 -0.1917300004424081 -0.04789100871294687 0.002094453097115843 -0.08597318425378403 0.004404912203146889 0.01304691790756285 0.02033668824847146 0.08903299200686145 0.1210491269113054 -0.04879936426850253 -0.1325459389076327 0.10504587088252 
-0.1004045811551318 -0.338423721932488 0.02950855710234357 -0.224943675128797 -0.09797381378592661 0.09222376826510038 -0.1532511799394566 -0.1791179551458084 -0.02365512739739713 -0.1032426253280781 -0.08906070063920099 0.1798812799718064 -0.0648702189193255 -0.1687046887715218 -0.2820215866194362 -0.05634133680992458 -0.11186346122001 0.1059050928870026 -0.1202794438549855 0.06822140407452386 0.09442296471205211 0.1225815797496607 0.1524404761487759 -0.0961923715328013 -0.03930695252495148 -0.1251401679935403 
-0.3419943878340386 0.05540476079889771 -0.1868107895388148 -0.1070186305201554 0.00654340118211726 0.03579484503530067 -0.1577216653806686 -0.2656806446684674 -0.01538649777333879 0.1855214240167547 0.0463795703169284 -0.03750337120980392 -0.2429243275125598 -0.08836767103861556 -0.05068399485505402 -0.03333787875079761 -0.1246193515515156 0.1038655067307068 0.06244485545232129 -0.04353789526383668 -0.001949986351213641 -0.1641122622697789 0.01414686154731364 -0.002004025884035527 -0.01492157404598988 -0.1341927362743864 
0.06566275747740863 -0.033119229615128 0.06065883242404442 0.06668011646820345 0.02760036636859393 -0.0630395152382739 -0.1988742984221244 -0.5180409248364464 0.04885622271062353 -0.01861636618861091 0.04158318810374177 0.008568868859006424 -0.07966108562452942 0.0285292207508206 -0.05280822188390231 -0.3563676780880544 -0.1123840137184893 -0.1409381476943735 0.08628296266298277 0.004074484524637323 0.05830213198714496 -0.04163394224365943 0.03024009476091285 0.09059696538911147 -0.07069651559648397 -0.1017379084951734 
0.010941770092127 -0.1794635902369426 -0.02003244823410454 0.05539589916498731 0.08460513636320369 -0.01619895507715405 -0.1870754247313504 -0.4742899148638758 0.0682821310831304 -0.06134340806926548 -0.1220606925874935 0.1071293914385535 0.03924885525232422 0.06643783204411896 0.03348018905236959 -0.08156147889380054 -0.07264817099540043 -0.229827574431796 0.05674469401781832 -0.0140849746025585 0.0501748383914014 -0.01127462038608421 -0.04533326556536493 -0.01416706427831301 -0.07760560050376734 -0.1984240375338213 
0.02080751821626386 -0.1100908817249148 -0.01371558497698896 0.0004803634777031049 -0.2488366331679541 -0.04870199578334654 -0.1526988235138116 -0.1920534805187922 0.04986985443133573 0.05202386331101183 -0.0977670860478909 -0.1008030054472216 0.04388015329074402 0.08965384973363728 0.04337387606942852 -0.1725978133383629 -0.07440415086368589 -0.4608445623695912 -0.03024919912634458 0.01543439219560883 0.0006884090212340155 -0.03377697418588852 -0.4705069803408183 -0.01273009363271573 -0.1754237359696938 0.05125583355126882 
0.04284015186969894 -0.01563540900694615 -0.02209132712637172 0.009660279659685427 -0.1854224500417739 -0.03211960828222462 -0.1270510828161641 -0.2989382200069916 0.06474092277210249 0.05781242694548912 -0.07089128216721595 -0.1826939284962722 -0.0104897419988282 -0.06805481733846726 0.1212912734620701 -0.4496037006048594 -0.08837917665480223 -0.1355611392806042 -0.01383763297419574 0.04665189954309201 -0.05444153612089735 -0.04832280400963065 -0.1547295271916002 0.05353819707723563 -0.09106031392917308 0.02930190430432394 
-0.076829131773481 -0.06044755392583865 -0.05491658663270857 -0.0006033208037166424 -0.04666696358303615 -0.03382376972386412 -0.05556084582374302 -0.3198529501330004 0.06767089815931701 0.03239633574647694 -0.001285786717108753 0.03911983988325226 -0.03704296545737951 0.05448512983876536 -0.04554041934346324 -0.2207802822270055 -0.2685750823627825 -0.06282938657741752 -0.01516077316085921 0.0877921339506426 -0.1429790168582697 -0.2488445982416959 -0.1109418525641934 -0.0425372671005681 -0.1910436323327957 0.08975709082044862 
-0.06056815989400634 -0.1290806634673039 -0.04634309814138823 -0.07594901246372819 -0.05251830848767399 -0.05522625682286288 -0.09042729829442472 -0.1226234467324328 -0.0421854775658428 -0.04335775698989892 0.1415427281588882 0.1316648613999982 -0.1265068206451296 0.02497748329187427 0.03563507934500118 -0.1686855079444521 -0.1530558716640782 -0.07503040482112022 -0.09138895570141421 0.09880620424197249 0.05015614246350113 -0.04336794505601334 0.04272283647376664 -0.04475128918939602 -0.1606139415247785 -0.07948813695794064 
-0.03721886982403142 -0.4291603933486401 0.04979958735118793 -0.1282887015597793 -0.06648109949384476 -0.07014951817069573 -0.1909241588858029 0.08444638734883873 0.005627240939393987 -0.02177559784697792 -0.1741038773463666 0.1570904265129945 -0.07448215661381091 -0.1613670198908503 -0.6580471455064482 0.04224842418509679 -0.1095850873549901 0.03323334935931062 -0.1126991459504049 -0.1346640946267765 0.03634500249231955 0.02085975234327076 0.1494108758496952 -0.1897608451656445 -0.1045131648944938 -0.2880121691399833 
-0.2648265976233452 -0.05788093037147651 -0.0178247926168679 -0.1884816824398305 -0.03624894086537239 0.041677027416439 -0.2189715223683401 -0.6522253946239474 -0.1032547178752295 0.08398643689267098 -0.06846665735049676 -0.07149645532220882 -0.2937149974082423 -0.04435823121303122 -0.06319213475213521 -0.0926282574537252 -0.09695277928905711 0.1237414682244324 -0.0729247576543772 -0.004539880034343921 0.03552394695236532 -0.04971217241885426 0.1189491257818077 0.04644312831229486 -0.104795946439423 -0.1084351973430368 
-0.004040420935374137 -0.04329781991195541 0.02439990637665584 -0.04551639282326393 0.03413837941930916 -0.02448091415661129 -0.08360625953792537 -0.5547724705851281 -0.04534380873758311 0.04650749067840014 0.03531950536590994 0.01242057239025008 -0.08085296184006344 -0.07406805676403032 -0.06422913308319385 -0.2081505170999768 -0.1344103517938693 -0.133748584712422 -0.05254813170066761 -0.05257722989604216 0.1708512494189819 -0.03188103199315599 -0.05845932925840774 0.03040327418095545 -0.02173259957045386 -0.145471583580623 
0.006066684187090553 -0.05099706792310174 0.01687640607516692 -0.01380148725623046 0.03275737421702647 -0.04983782947839833 -0.1462968682640353 -0.05065492251099688 -0.005778973794476743 -0.006582309189091622 -0.03191029651996201 -0.001124021382573983 0.007130113728172877 0.02770832945305411 -0.02487663083412938 -0.3359431676774246 -0.140190056345307 -0.2560170171484072 -0.1215358748774859 0.05959272725407758 0.008154064108851899 -0.04402689758849398 -0.1213120160204576 -0.0401754669707339 -0.06676837227543728 -0.02201034379733275 
0.03648380607600395 -0.09896401727389947 -0.07606186365872633 0.04789276420063904 -0.06640035125423388 -0.01975370451609118 -0.1094266580240803 -0.08211657582057641 -0.02450608028394605 -0.06602217772665005 -0.1815021519198752 -0.03278143567411763 0.08838636003900241 0.030773615345287 0.1544550338260294 -0.1943736879227638 -0.07133751150656575 -0.3283749737597187 -0.005341155150182075 -0.03295810487634274 -0.1096418969020434 -0.07790155348988385 -0.2523379382576945 0.02642133296398829 -0.1440679501994606 0.01342343629475963 
-0.02532498043863825 -0.09773875464026453 -0.06428762423557111 -0.0007592311587762804 -0.0796629102155368 -0.0272689105047276 -0.1187801939128994 -0.06169027638293213 0.0286665885942768 -0.04669137848451444 -0.03074211524457506 -0.05307299095567575 -0.02227714090055345 0.08319029258689994 0.1011610523857772 -0.1266384774994828 -0.1697877144187309 -0.1943636585840798 -0.06552628786386895 -0.01438335324297742 -0.1779971638369692 -0.0834932489683349 -0.2149666808599242 -0.03558185243797118 -0.09306777159878757 0.02740408173334577 
-0.07500445865387595 -0.05958242834845826 -0.01411444671281232 0.02338010847750988 -0.1113576832208545 0.04092524569673878 -0.03010507525736216 -0.1682297082172875 0.07421407331362827 0.01580878474903958 -0.02217054517302287 -0.004889422189957695 -0.0992634344729029 0.007220912502000314 -0.0411204389997565 -0.5027032982396926 -0.02132142769503948 0.0005458698534064354 0.04534851467249343 0.1040503086571048 -0.1340474836990162 -0.342527374537178 -0.04008244970871348 0.01218325260440313 -0.09256685430282659 -0.07071399891823096 
-0.003191838354514309 -0.01633014303487993 0.02903560844141222 -0.05708796487543405 0.1255305693456577 -0.0860490294826599 0.02729395973301676 -0.2177221471659301 0.1359135394603793 -0.002631774849294163 -0.03223999998116968 0.168168024980629 -0.1357222110968492 0.0430921908843841 0.06488346210992432 -0.1147909328560645 -0.101800107025231 -0.06676501666421875 0.02600579824820556 0.0573583189315499 -0.3644857769776681 -0.232888903442905 0.0186741195337325 -0.120652099899908 -0.1429116441953522 -0.08038428353743179 
-0.08091395859561828 -0.2009731922323896 0.09607884186697899 0.07810300055905987 -0.04868722640769296 -0.00819958165170076 -0.0453224902368617 -0.2216175781185964 0.04754359023234268 -0.08022395108618438 -0.2715657889391417 0.1877558648862813 -0.05343964271015056 -0.09046484863404419 -0.8491982505726938 0.1097809784908015 -0.4152520678919236 0.1553838834223078 -0.09652452508096444 -0.03107775392971508 -0.3076834299437308 -0.0183606796381891 0.09507302232681948 -0.06475004295155375 -0.1524658311545351 0.01338054823338899 
-0.2341895975741565 -0.07354907875440117 -0.06200921592812676 -0.2271677000587994 0.03116354278509125 -0.04114963941236127 -0.258673378848793 -0.09034091264772232 -0.1054853596007052 0.1815954048462879 -0.1546639544071535 -0.2381634509410633 -0.2077176102455315 -0.164209047967343 -0.2100893770390159 -0.1119123508633779 -0.2064844067877796 -0.01705645779442301 -0.2076183715647976 -0.1594774837550252 0.1535570493144912 -0.1811049453540229 0.1032895716803806 -0.04472810869461789 -0.1409417914050094 -0.2609142318220332 
-0.1020433418645856 -0.03507336514073938 0.04313574160061263 -0.06070143576688482 -0.007539051155291056 -0.07938722897471658 -0.2016063657357568 -0.01613281609239962 0.006875912866175373 0.02345848858498025 0.02661333067172036 -0.04281923083220152 -0.2250483131113781 0.03263177312204298 -0.08639755204995522 -0.3971380892750753 -0.1206703291891737 -0.08541074091678741 -0.1887455559829129 -0.0784843492455236 0.01069518371989045 -0.1060514157611848 0.09770988440311527 -0.05089432977714566 -0.07412863846671922 -0.2270006117802688 
-0.03860982894853743 -0.002776931390813484 -0.04011358477922752 -0.058438806883684 0.06616833855236273 -0.0142053404004257 -0.1583925112854112 -0.08461928549834238 -0.1007173415671239 -0.01692838235551896 -0.002496703369213538 0.01794836553203921 -0.1106869620997571 -0.01991459912058699 0.009752474937640178 -0.1466735706200117 -0.02706396451592232 -0.2942215082744585 -0.1313451319177247 -0.08281187584508358 0.07453383116091433 -0.03834357520918723 -0.1227157603145221 -0.03375701288771763 -0.06352378795375031 -0.1125465470993103 
-0.02833274362165912 0.006922262688921582 -0.002259603369507352 -0.1069218956513583 -0.01925156293478665 -0.09044389818026102 -0.09642220634191116 -0.06360416884148244 -0.1014034044811957 -0.09660476050043235 0.09571220726692327 -0.003653278844105184 -0.1676190746399643 -0.02130282184031698 0.04415305682552469 0.0003543537158075339 -0.1219218073008204 -0.2645891201846425 -0.03751591663106302 -0.03918081167704413 -0.08699356495603762 -0.08434684313218128 -0.2045157725374264 -0.01475859381039685 -0.0376792724112173 0.08729630171450069 
-0.06138706249685625 -0.01066431449838025 0.04536935525864534 -0.1647478043683935 0.07031818693387422 -0.02435645445832674 -0.007161559329042362 -0.1192437005714508 -0.04929698287561029 -0.103567173710934 -0.007596145318956937 -0.02097281052879355 -0.2106742013314521 -0.01982692403441453 0.1272956712834383 -0.08812562098050353 -0.02413538671814103 0.02155761272408221 0.0832907431113714 0.04798511563557618 -0.1069065768627466 -0.06875368843620085 -0.2399802635835172 0.01332087358477442 -0.1489890587768072 0.0298940850982277 
-0.03513851382950238 0.01694346560893874 0.03151061986589086 -0.103049604723898 0.1130751722442049 -0.05555719136234838 -0.0709860946836684 0.0161343947172137 0.06201102159156056 -0.1692607024270682 -0.03016493017989766 0.03880513822925748 -0.1680729848230579 0.04459179248933451 -0.09193589544145463 -0.4687808510238394 -0.1379077559035758 -0.02483866978767792 0.10703230473044 0.1074441073656686 -0.2384411676671864 -0.1891010849388656 -0.07633336880153957 -0.06621189620292992 -0.1837931079801177 0.04735582474309243 
-0.04674504762088112 0.04097065457620664 0.03429101933415577 -0.001455072102438281 0.03499751381024317 -0.02783856604864722 0.07202959495368379 -0.2739014252497629 0.07583736956394858 -0.3604839475159529 -0.08169339013671861 0.108606033850366 -0.09943514920631935 0.0691459542414062 -0.1911138144606853 -0.06992670422644261 -0.1484444697883105 0.02813092240105989 0.006975510370188438 0.08631766013335464 -0.3880794525628816 -0.2839280681165781 0.1208227303625343 -0.1506558133955916 -0.08773486473096451 -0.02988299500233527 
-0.09327235402823925 -0.2587639965761143 0.1024544940936634 0.2205161532698616 0.03147597403071106 0.1070014407358342 0.03253287429133672 -0.2450624716044264 0.06367429459803017 0.03237238463396939 -0.3725636886226131 0.1397576630809162 -0.2756049404160046 0.04696054325305963 -0.5856958393968609 0.4404131219016727 -0.4407769318364612 0.08103325036920894 -0.03678498829422542 0.1531465283910692 -0.8956808933001702 -0.1929596470629575 -0.1169284873171354 0.001906185162519755 -0.1240529428986713 0.03917383462891818 
-0.09459484579033584 -0.1379270091949678 0.03825888938923525 -0.09597105679475089 -0.1854340786344753 -0.06714688130181883 -0.3440898281287896 -0.02083678646162387 -0.3083822843572633 0.0966165747008947 -0.424105037912417 -0.1841346967640199 0.1188268366327427 -0.06399320006563487 -0.143383495173809 0.01681392277888102 -0.1382680184867615 -0.01570763180642466 -0.1370497397283624 -0.3492439447010642 -0.03171079132126445 -0.1878562097975157 0.03197059394070204 -0.1751002131534706 -0.04545686894493062 -0.2854898252982475 
-0.1726826364664708 -0.03820670266597467 0.02615302621569822 -0.1434354335940966 -0.04058330892335645 0.06171805592566818 -0.06226715735595074 -0.0141714147350374 -0.1495003243793004 0.1611132907341101 -0.1556059737544317 -0.02938810951306228 -0.2291083672681502 -0.1402898883002517 -0.08393043560312759 -0.3086035701708715 -0.04770595317858685 -0.1210026602819921 -0.1201673151146291 -0.1537975071464316 -0.08229513737502543 -0.05094823686470708 0.01882613782606236 -0.06940315133329861 -0.06531026298132692 -0.1994112374117369 
-0.1262316059969268 0.00429647638212538 0.06968152834491435 -0.1673480031215386 0.05552826060891061 0.006854416448437638 -0.157781048537468 -0.05425535611033303 -0.1185304377369004 0.01245954687356096 0.1827634129176913 0.1020726370710275 -0.3351361973037127 0.006452884783233422 -0.03869026013465623 -0.03335279161479537 -0.009850423187763305 -0.2476093079156977 0.01678980047101249 -0.09851118179894369 0.106986073375754 0.03933167462458285 -0.05603129193874833 0.02701048584089179 -0.01761122901228982 -0.09922554310261242 
-0.1108785152487009 -0.05978731059978887 0.0293316871568665 -0.1576308366884008 0.09054596988613245 -0.003695602111401027 -0.01148675966841803 -0.007883038939245909 -0.06100836597911818 -0.06312224514856264 0.03388959886859831 -0.01290743754868581 -0.2962948188781537 0.009987021684840679 0.02482312379354864 0.1650611332580567 -0.05615090337404763 -0.2447360987857786 0.0005858661813431647 0.04924318159466595 0.03752913653419909 0.04170068351242424 -0.1606046599675552 -0.05989333591814215 -0.07997282795696593 -0.05243579173986294 
0.05021769193176861 -0.07192309919821811 0.07563071029427447 -0.2402551247920315 0.2634164375131504 -0.3349952177009616 -0.04749018557526856 0.05769889245298928 -0.1631622622756696 -0.1313049423227856 0.006815170492881151 -0.0898232716538984 -0.07623383128092671 -0.02404189239050351 0.04869902562004222 0.06848238786327147 -0.1570574772814829 0.03582643672428294 0.003865283935090641 0.01899317359516419 -0.117107383903321 -0.02642746647840256 -0.266045758451888 -0.004396371372928289 -0.04078479304462372 -0.009708959340784341 
0.08112206096103909 -0.03152964163338322 0.0472771113670064 -0.1014118168932684 0.1019288742915583 -0.1259454481629086 0.08356078992835324 -0.07234515438900498 -0.04388245744284409 -0.1237081712927055 0.02211524999284548 0.0167854390656848 -0.1703894831555255 0.07316177996657883 -0.1589949263599585 -0.3474854103413615 -0.0125896048613303 0.06380201601423843 0.1225750541029163 0.01914194416539414 -0.08877252972201602 0.02862637512920353 0.007164269893428596 -0.147037130889242 -0.05736519228057722 0.01673410684274856 
0.0551929274073371 0.02402721444597263 0.04383824075945404 -0.05362762703263078 0.09358195957303286 0.1240163784788067 -0.01227376618731842 -0.1294239060009686 0.05609896562840789 -0.4477069620412255 -0.2336722116914519 0.07660038396648904 -0.2251013414140466 -0.01018100984381759 -0.308459008196395 -0.2025562981175174 -0.1477607696402828 0.04343306677170022 0.007559186527848124 0.05860980912330177 -0.2854301486680526 -0.154790944488247 0.03880443795394989 -0.09308021908324424 -0.01524014536621527 0.01690879797123363 
-0.09131121351671527 -0.1091525605370459 -0.2732027495072556 0.3493077242723122 0.202652977043064 0.2368007229039726 0.01764529490427464 -0.24337782794592 0.05342338915668399 -0.326387153692852 -0.0911129957032383 0.1307575784000126 -0.7385694136379153 0.0663373250787867 -0.2571551918868378 0.2899571575586412 -0.1108758006157917 -0.01317486420742462 -0.1047252699133082 0.06145709245029116 -0.07074233042977704 -0.0556290589037131 -0.01021075102383718 0.1287305838590051 -0.08141565298757233 -0.03203595009295354 
0.07758358025117808 -0.136182304995811 0.1321680181892042 -0.02118058544512543 -0.1875067148046588 -0.1344635351696304 -0.2798041211746701 -0.1766422890979573 -0.4229375393165763 -0.009587882054649778 -0.4395452812423684 -0.1542772273257926 0.2968238226863041 -0.1491581928809083 -0.08782462770718497 -0.2879241890376903 -0.1620686584902429 0.1538072441981964 -0.2285150460005204 -0.4793557280870812 -0.5575708288333248 -0.0279375293123735 -0.1609505360270279 -0.27270417490276 -0.1478522267987772 -0.206839960760322 
-0.2394526500719846 0.03408255627048472 0.03182504170896834 -0.2457420519847239 -0.06673864615205494 0.1354932352688015 -0.1170274235816182 -0.1702629403543583 -0.2537553279606968 0.1557931241660243 -0.1712212846856353 -0.1135143600499022 -0.2095960703141786 0.007526956039558171 -0.1028255219767983 -0.1609203881101808 -0.05663136177183058 -0.08271040966306822 -0.1673195261224993 -0.365122798270058 -0.2021633906752091 0.05727349635518899 -0.1488571293334977 -0.1068682619052725 -0.05553332668426551 -0.3269062428640271 
-0.1002554829754585 0.09165897242312282 0.04717884242825177 -0.179661346921895 -0.184254876578326 0.08464615143009432 0.05365189167062097 0.02960215756913087 0.06440677692423437 0.0973948666098427 -0.001713765369347603 0.01450417244131706 -0.5002899262043536 0.02510814942373521 -0.09572980087960056 0.1578396382382651 0.01168157083224344 -0.3957980423984672 0.03523699596368072 -0.1122854733927084 -0.05296539928090167 0.01542147485582649 0.04446876512370427 -0.09487918444526916 -0.005782070014745825 -0.2723723119555566 
-0.001351926583416456 -0.08188176918826914 -0.05885050143333063 -0.3926736159909758 0.1904294236269975 -0.1298856392753 -0.1002658349518191 -0.02484856690580834 -0.1753721358875093 -0.06804870300974769 0.103100714948664 -0.03332648360576401 -0.3453402836146337 -0.02017738203161394 0.08724491851531488 0.1085142985738128 0.003926121799412385 -0.1462650560564222 -0.0127482870939244 -0.1639946852403478 -0.06228656614813486 -0.02588094757583292 -0.09309004906424306 -0.04945774774963525 -0.02655421178373138 -0.09178398800007886 
0.08790558588479599 -0.04498117557459849 -0.05000571070989522 -0.2300762675970447 0.1989807829372043 -0.3469463273938112 -0.02717042484600485 0.005213772907068533 -0.09642730635023898 -0.04064628469705506 0.02888155142477178 -0.07490500055585754 -0.3882889252558373 -0.04741876251007059 -0.05232365813303037 0.1062146039027045 -0.1014893537845881 0.005102181914653966 -0.01866653617014595 -0.03185512413816342 0.01458289882191858 -0.01428767915680772 -0.112548434869512 -0.1327828918729838 -0.07622515921461213 0.007248183759088123 
0.1665560921064443 -0.01951486300541539 -0.009345592314321551 -0.2488200066985519 0.01023616963724108 -0.1395977790299901 0.09879471414141197 -0.07307081987385634 0.02068450597200287 -0.1667382644388901 0.01462029721481894 -0.1816760883204634 -0.343926175184031 0.09971424375263181 -0.1931465136974417 -0.05603745961655027 -0.09005999821684012 0.1430163231633281 -0.0531010900086244 0.086895854717808 -0.04141699382650273 0.01596370685312937 -0.1272824623928651 0.01810074482285431 -0.1020061005921408 0.01257684734766521 
0.1098208246402843 -0.053876731852842 -0.2768375195844724 -0.06425141126908251 0.004316607584506253 0.2117343593343479 -0.06763181659079814 -0.1078718112129356 0.07499456543382708 -0.3548482032056717 -0.001101993473944903 0.01208209217744857 -0.4048078923038108 0.07413951158470497 -0.274201106287778 -0.1386636975460963 -0.09955052811362052 0.003659406392469878 -0.1603460355072401 -0.0302550465983718 0.07534767388945203 0.0368406432011189 -0.1022392809320442 0.05917224428125621 0.04738929513083348 0.07094418326544205 
-0.1540254789148604 -0.339195971509322 -0.520759182771427 0.409330275349729 0.04015729924783655 0.02361383571150739 -0.02499546635549602 0.007762271383001357 0.05563343075988901 -0.4834519205470533 -0.2459633853345869 -0.1515164958449713 -0.1780251441703936 -0.09795304874462073 -0.192983207568389 -0.1079448345262772 0.1639427548992256 -0.02940091454678526 -0.1988442927582172 -0.07173897559513212 0.3033433554379988 -0.2149624376568385 -0.1262834722421897 0.04493077570042318 -0.05093379202308198 -0.1162198113116333 
0.1561771419550781 -0.05098238767675292 0.1108641573426981 0.03378432479586042 0.01431347071168764 -0.056248770577887 -0.0883189617285832 -0.1145850877115154 -0.2600676257655655 -0.06075183261001213 -0.2746746595804918 -0.2652180139632717 0.6284876151308981 -0.178992639200937 -0.08846535418870348 -0.02976261096774955 -0.1634951648783308 0.08675644495511249 -0.3137504540163153 -0.1966786702901923 -0.5758409929441651 -0.02308889001586161 -0.1250961220211453 -0.170056823056328 -0.0721257847498126 -0.345667395646146 
-0.1051594062356772 0.08997351021576336 -0.04244228608220255 -0.1732728703059628 -0.1698122964877969 0.0004348366369717228 0.0143550540775228 -0.130880271727772 -0.2801582100459618 0.1179969524422114 -0.08430876504038734 0.02286708512328504 0.04700037323089841 -0.08801906063367353 -0.1443170971033263 -0.1412865048532458 0.03809066319036721 -0.09163046303456253 -0.04274238908584074 -0.2702736515232824 -0.3600451213473628 0.0004020694398441496 -0.03709739317635282 -0.1733140101819708 -0.05261082013705712 -0.2858419909563773 
-0.0436168790099223 0.01941631255484448 -0.12278522812505 -0.2703805590325872 -0.4399083262614272 -0.002035098775903154 -0.07774618562284015 -0.01902800590103289 -0.1726660886006924 0.07690160339232052 -0.07630963871401479 -0.1386714599567279 -0.1552418392133385 0.04220718402649914 -0.1175713959293975 0.1384242730388822 -0.009507803170031547 -0.1991364040583631 0.02321919374126595 -0.2265537041539371 -0.3337132103184368 -0.02599173060520513 -0.1010557557419595 -0.07598314382632423 0.03691737828636039 -0.3341013781230957 
0.03610344938031075 0.01259717075667107 -0.2119774411109124 -0.2581570154809283 -0.008237297183507608 -0.07817243273343735 -0.0004020826814575031 -0.002304245234910338 -0.01169971644295965 -0.0003528078826465008 0.05597393798129627 -0.0912379174195647 -0.3157212874195134 -0.06562411075457152 -0.02363917993684919 0.2401369061433166 -0.03285721863864184 -0.2037378500370359 -0.04654031248128083 -0.03361204128622691 -0.1316076062140276 0.06985064444746943 0.005294572389978684 -0.04823850168935338 -0.0187635696640652 -0.0580879941635251 
0.1074107537349401 -0.0715658626382335 -0.2502746742325045 -0.2017222989825443 0.1394640839640664 -0.4146506008150337 -0.03258393037642939 0.01815957232981676 -0.08211853663460844 -0.05631899236529504 0.1504728428681642 -0.1073877195775465 -0.2779447537555958 0.0327217212418913 -0.002085726588549035 0.06873734657268037 0.03964282245465714 -0.02078002498610211 -0.07867233251742754 -0.0879394610476823 -0.1592669984816054 0.01172297716421189 -0.03943392599889232 -0.05124583231634681 -0.05693850213023671 -0.09200146946106787 
0.2039192289851462 -0.09385273458479794 -0.342549985698432 -0.07370161457304134 -0.262813505617876 -0.008704455403155318 0.03226457801641629 0.02645407578683254 0.04881295405289846 -0.1392179762953313 0.05665568527932906 -0.1635401141077126 -0.2115317255719097 -0.002394599689660376 -0.1350187611165973 -0.04432076539338942 -0.1183577020199823 0.08018963290258001 -0.1900252554404644 -0.0999610541453147 -0.07617239029884827 -0.004914420329304862 -0.1415710786324085 -0.08436100022483785 -0.05869063802107026 -0.06032077575000632 
0.03857603513292127 -0.1297558672314072 -0.33531363341129 -0.08709185121265212 -0.3506308653138029 0.1082742459747341 0.02011788056436678 -0.09640670049686594 0.02572428485280764 -0.1818544933187265 -0.05642861148574045 -0.298403310430793 0.004935955899735185 -0.08300229111407344 -0.3401688093672584 -0.1686601324651468 -0.06958475082225848 0.1108243805616359 -0.07039966035450311 -0.01748447893676376 0.1692946093472939 -0.130061762903026 -0.11023561166213 0.05658937240166079 -0.03551533699748251 0.03424308650664552 
-0.07472627662196799 -0.3112040252337928 -0.1730039188777496 0.05835606815746024 0.01964698367529769 0.1426824891898658 -0.04431830978454099 -0.1226505406738724 0.000930383829312425 -0.5979284668356051 -0.1470015942947154 -0.3742012820453202 -0.052812136402857 -0.2437922197047894 0.05014749138527726 -0.1599526787225646 0.15810138347409 -0.0284838217129789 -0.08719290631412793 -0.002643580135164445 0.2074957502558946 -0.2859090497892787 -0.1659856962270976 -0.08048535728636222 -0.02515877836825003 -0.04195089775061762 
0.04984044058770242 0.06888297693755485 0.01307602148980864 0.03459239449790578 0.02121489421039751 0.00545756695169002 0.05887787067260475 -0.04090322451104821 0.02924809817957117 0.1192097996307123 0.14277478457004 -0.2601601957535689 0.05342581110227528 -0.1506997691565953 -0.003086449551746969 -0.09854878563878197 0.03441202885307327 -0.02634162477781298 -0.01835605854689146 -0.006938966410655487 -0.4973168596990932 -0.06591136963465438 -0.1487344087975233 -0.03317189062359907 -0.1100909052445978 0.04591274224222392 
-0.06547283569802104 0.02727213548587392 0.005119816815619177 -0.03338621008671256 -0.1790448164747405 0.006535474586643437 -0.02976951380090526 0.03732369208067716 -0.1825671293335904 -0.0352182026438746 -0.03300847184053489 -0.1284296069628835 -0.1218030933824168 -0.1107037984767047 -0.1758548487413957 -0.005268381359654923 0.0007889736146380333 -0.03339344671954191 0.04037104320709154 0.02652623378444947 -0.3091151404411736 0.03655718385673926 -0.1314965552485862 -0.1552897310123397 0.006095402747863543 -0.119278626858448 
-0.1018098344366332 0.05815054543665756 -0.007611341219559416 -0.06265683969999912 -0.4533100922733038 -0.1231836804118947 -0.08574630712712619 0.05626858468747295 -0.210959357021773 -0.007873391950002544 -0.1466132388978192 -0.1757275847464154 -0.02351341754669101 -0.1057737421584811 -0.1955783794985484 0.007872392813178914 0.07620955184591981 -0.04629152993664815 0.008260899179037304 -0.04517830422683224 -0.3658102289101031 0.05610982017615569 -0.03042622665916611 -0.1878010522420284 0.0628147085741033 -0.2229428049333621 
-0.0727462649113827 0.02484573964613005 -0.07622618367223161 -0.03593941877006531 0.01199190035372434 -0.1978196166694595 -0.06392328058449788 0.03874834883391337 -0.2275717387385574 -0.01227173062983787 -0.1088658065584739 -0.1520885259218741 -0.02041837211333741 -0.05212477472867864 -0.01369896176900829 0.09708787317769008 -0.06517380195953679 0.002798141634283314 0.04825089089316165 -0.1829335759599409 -0.3012027488452107 -0.04037185938703133 0.08761550820380233 -0.09873328627191003 -0.00882695846497915 -0.2466173021320739 
0.02288602770674125 -0.002484801500716277 -0.1051004552335688 -0.07948072762773815 0.001509698472344854 -0.4166334283812211 0.06105715029527935 0.08166713544704747 -0.1113384814643163 0.007887662011406031 -0.1036540291328107 -0.1825145234155793 -0.04529499338043184 -0.06672660772266041 -0.07768025379834959 -0.09580585408811172 -0.1299602381730236 -0.1143280757191124 -0.07740719433213238 -0.1287964262891591 -0.1251622133554682 0.007012663715204676 -0.05337433340260844 -0.1244415070236744 -0.03141857719073743 -0.1410228862019394 
0.04108364453335289 -0.02302646233646832 -0.04484117472424166 0.02738276378912574 -0.4254721658260719 -0.0006650035851545714 0.05011317939532806 -0.0231613784971093 -0.08227753562741381 -0.08125099360549033 -0.004254468085421555 -0.3001251352902606 0.02403664386529303 -0.009072728723250642 -0.1868999324465012 0.02792751739720777 -0.08963489854872898 0.03143478842504234 0.003012872639721603 -0.191614053466118 0.2193787600162773 0.01442782451177396 -0.05929608499393143 0.004847741913522906 -0.04515163494122802 -0.03895590625210029 
0.05099322753795532 -0.2103023368833233 -0.03604849269830232 -0.07838102566504071 -0.09782408855981456 0.04504371204025192 0.08747306486316767 -0.1883331171727805 -0.02729290586337645 -0.2020623842997901 -0.01892650714192606 -0.5391523523669806 0.002843066211173233 -0.1353015824692883 -0.1147492239347516 0.01888499056504723 0.06140039504275729 0.05929932178350174 -0.0263535549825456 -0.06612076211634213 0.1923837273019777 -0.0187482328586978 -0.06416861475662632 -0.03036409361168833 0.0255492646886811 -0.1187023283747284 
0.08169203439406084 -0.2341445242736426 -0.07971584883181859 -0.1697441990622963 -0.1505787773541061 0.239127423596587 -0.112922438819843 -0.104590789079346 -0.05163934515642855 -0.7731517029337109 0.05563912687912535 -0.4486782601935833 0.03399006913961981 -0.3520644422060248 -0.1456659493978061 -0.1725366458155168 0.2183320667464759 0.04621962126622799 -0.0004130724172805049 -0.1958702945773925 0.1573291038840637 -0.2872662417285934 -0.1586612574228912 -0.175533398804379 0.0133229908064201 -0.08773674652751154 
0.008507645479468379 -0.04926903357104534 -0.1260975102917571 0.04460490842366408 0.1111258264164506 0.09497186062355294 0.1815224506153058 0.04517542540929813 0.005169997836118184 0.03927332759690137 0.07647817274485388 -0.071397887190339 -0.04966689039164032 -0.1532008802204211 0.0822575125362961 -0.01089819304778052 -0.05116259097673739 0.03754029865565754 -0.06604439915570758 -0.09424795392580308 0.1561675479044776 -0.02264362696886972 -0.1359211715544971 -0.09209169335169244 0.003526969246540728 0.1461208302573138 
-0.01447546144296341 0.1023572020566176 -0.07759455247924257 -0.01757701343635397 -0.1528245323387115 -0.04878746782164023 0.07067135529097253 0.0751306695702209 0.01377676240397178 0.0381276851800838 -0.02102923458206058 -0.150693727412871 -0.07375593760951327 -0.09376771618055793 -0.07057650037262905 0.07794572636069236 0.05051258424430133 -0.1349077025778148 0.01788067045983236 -0.08301155735969291 -0.1011818697688125 -0.03878944914261768 -0.06482593911686936 -0.01805114239970267 0.1273932567378676 -0.1014835851965472 
-0.1198202315930708 0.06365352879756836 6.23017450409615e-05 0.0235306140880488 -0.4212643334002584 -0.09388830773077513 -0.02193564877049901 0.02916395994375061 -0.1878440221946851 -0.0599226594741438 -0.09092439842761973 -0.1590600442447092 0.01265499067397893 -0.08343347876480108 -0.01221711354630008 -0.09423767094131026 0.03507387869482124 0.004767844229006673 0.04164455281035612 -0.08837481328959323 -0.1131491565527993 0.02875059660091373 0.02140342611020407 -0.06746918188691844 0.04518949997052348 -0.2778619189280512 
-0.1295295727406499 0.03140799950646062 -0.02113073749247266 -0.06834183479101189 -0.1380884392004093 -0.4252315322342335 -0.04634109897058512 0.05249886195557475 -0.1949024831225408 -0.112885393871993 -0.284514366592083 -0.2566026864330362 -0.04206410275962594 -0.05661511659079509 -0.04200217241644066 -0.1475281292361863 -0.02600955142082164 -0.08728826359677383 -0.04967812470063931 -0.1841291778236834 -0.09935780121888907 -0.01501161631237353 -0.008405319801496091 -0.1860381176277088 0.01813341863721452 -0.3038842878498956 
-0.08167987120621598 0.02737919187807153 -0.01634849083037117 -0.04846790843260224 -0.2517792575924126 -0.4778241218211494 0.02863834053990838 0.04829360189400411 -0.1907669414728644 -0.08465819971960681 -0.09423413485532332 -0.2802230756458809 0.01105025566163538 -0.04443294006652518 -0.1079052628254541 -0.1896291785040993 -0.1091434673465105 0.03003680527132778 -0.0004609858146666949 -0.1428278659974677 0.01285985831642352 -0.1131426555108817 0.03103369681066679 -0.07998277440886822 -0.06988331432699404 -0.17606114240959 
-0.06917522922641951 -0.01109491060917623 -0.005937926863622141 0.04517326979517646 -0.2940737814260321 -0.01313646974217594 0.1695943103212634 0.03525289528596108 -0.047125590082957 -0.178105090680202 -0.04802830514977849 -0.2918702548740359 0.013208206315227 -0.07273019893290843 -0.147541156944627 -0.03849853031720431 -0.06000327097687654 -0.03942438051990502 -0.05373498193967418 -0.1025474734075507 0.002673186736739332 -0.08966584384537844 -0.01627362838372579 -0.09484337087361275 -0.1130375230713279 -0.04564607393172432 
0.02650927915069516 -0.1348828776298568 0.0211865286259442 0.09339883330044269 -0.1477389582656413 0.04349017524289615 0.03809486603211117 -0.09993872152729896 0.01858893068407439 -0.09242607875379251 0.01288444203930997 -0.4906312111726472 0.02435092534072556 -0.1221746151927506 -0.2217379271595412 -0.01805486738214662 0.1645932812972471 0.09908922021221404 0.07766571245991982 -0.08436978411776534 0.08837702655082624 -0.04064060068601411 -0.1334554226280862 0.0547649840202259 0.06833862672665182 0.0464697352199663 
0.1206741230262471 -0.2929255873802132 -0.04165785338438582 -0.254206050117466 0.003518630860649219 0.2404785075826256 -0.1262756005765406 -0.06881673502314779 -0.06893260390329171 -0.753853202036489 -0.07628457073894754 -0.4296293085991235 -0.009952760526360842 -0.1704085890367683 -0.03089932503624142 0.06802221175442658 0.1912836898659457 0.05176497082297878 0.0126585261796962 -0.13739256539891 0.3021543016533922 -0.1565314391229791 -0.1003476595979968 -0.1458534751487377 0.05770521682439224 0.06983586337786114 
-0.04517586517662497 0.1061484041578634 -0.126650415418668 0.05532726388109256 -0.01114962208600778 0.06560917291007615 0.1312647439662364 0.07361115285690462 -0.02725582834722266 -0.009768924929376135 0.06551412940835084 -0.1640811058701818 -0.1609320786204208 -0.20257880679202 -0.07152712743751027 -0.1077720232281037 -0.1310930793867255 -0.0889636789891929 0.007456007416332906 0.02713076551172332 0.06282357120741951 -0.413428089123981 -0.2021587436156689 -0.05745623345498128 0.01766858272113973 -0.03536814201407041 
-0.1380204954400798 0.05127542291775279 -0.005032144004079871 -0.0333544856414487 -0.04197879260984905 -0.07275993388095459 0.08986655131411056 0.01331280575468625 -0.0006550662416855962 -0.1128072335998475 -0.03626752396747682 -0.05067216397497507 0.01994385176157092 -0.08561519377470467 -0.002878664294848172 0.01118552321613816 0.06382897006631033 0.02293502071480958 -0.005293302677443725 -0.01322829334684692 0.04285983815143442 -0.1949647943248884 -0.07222980915793326 -0.1085496662517473 0.1047918166267365 -0.01251180525737422 
-0.01352693195183713 0.0241912467728886 -0.03257030618658057 0.02616807176095305 -0.33831271361714 -0.1189043969412667 -0.07063876883060351 0.137801915444921 -0.04558770580617256 -0.1292377379738179 -0.1666713305772954 -0.1978079848685922 0.03941294321338885 -0.03313072890857005 -0.04689140907030028 -0.08872596877992142 0.02871326390555571 -0.004926188721505724 -0.05642846497693036 -0.1370731360349111 -0.0509197157427676 -0.2444439246672925 -0.06011178345933921 -0.07469462968165928 0.04508188476766584 -0.0559541088487403 
-0.1974922666164576 0.01201502086007025 -0.03437225709567283 -0.04755629529103133 -0.4261878019894572 -0.5308257646619327 -0.07071317659998834 0.1098846688594469 -0.1139786632774177 -0.1120966049256973 -0.1746045681873721 -0.1804212641821498 -0.0514475090388852 -0.06042065709123336 -0.01788587708667838 -0.1741390236765089 0.02510080444445043 -0.1227009304296751 -0.1268657830475078 -0.1595440222317982 -0.1676790551261575 -0.1149412316746972 -0.01555981998728983 -0.0848970214729048 -0.03650396495292409 -0.4320602068330071 
-0.1294938581421341 -0.02640045629949061 -0.05659263546231784 -0.03776698945578579 -0.3934936294079063 -0.2908876047007711 -0.01003908536843969 0.08742243135717848 -0.156547938648703 -0.1424436305649797 -0.2176078919997834 -0.1042595698382012 -0.02485044820644219 -0.03685387913258632 -0.07005730955359749 -0.06898227796449652 -0.1327161663608343 -0.1182370379096577 -0.08156963001512862 -0.1717070234691604 -0.05809500379901093 -0.04225929265758248 -0.04227498202471106 -0.1303745441634762 -0.09761825880498615 -0.3221715650568415 
-0.1752189766402587 -0.01237830638123003 0.04289219993180902 -0.04263353080181609 -0.0758576667772461 -0.1748551671001937 0.04367060652001754 0.06350499821225324 -0.08654022386815532 -0.1575444233353152 -0.09384059994433436 -0.1452272410223534 0.09444366592911334 -0.01598657375474412 -0.1058911445846822 -0.1281494773808815 0.03602707419845719 0.05519205718258084 0.04234334088127879 -0.1720306180362929 -0.03415696970518075 -0.07577345439994511 0.007693052614959207 -0.1186104546001821 -0.2088004893932811 -0.03054315784929227 
0.04129780476451295 -0.1050607558541894 0.009208084687628756 0.0299179549978763 -0.03188833989564787 0.07085654837076882 0.06976786356387449 0.1040369532375036 -0.1135164776821347 -0.2776928347187233 -0.07940927013160651 -0.1098306422102091 0.03312668458855118 -0.1140588827736251 -0.1399959056672344 -0.0663148371154126 0.04481726200462099 0.02324081214045864 0.02342450660348204 -0.104149076982862 0.07477145996447294 -0.2664396630232034 -0.02596182842393367 -0.2486537815009075 0.0575093209425234 0.009732757689472026 
0.133605437989788 -0.04528266577872089 0.03253431824512048 -0.1862864039547421 -0.09262673955041364 0.1408481364026788 0.06987725893984853 -0.04161293595955526 0.03440116449634339 -0.4178337897086042 -0.07417963080971551 -0.3818567316464538 -0.006739451874385523 0.004580261538745196 -0.2283661422027789 -0.1919264638527782 0.09315445575418543 0.101133376516874 0.05597398470524793 -0.09035743319872837 -0.0007184719847233194 -0.1069218443575131 -0.1409905920722428 0.0305930095535683 0.101559666795576 -0.009284531208471615 
0.03727856004334875 0.09066117010282192 -0.1810899224568901 -0.04166924905877339 -0.04817092216301219 0.06650544892204283 0.1817388594238543 -0.05263546980477184 -0.0002357147220604433 -0.01332515232736677 0.02537415790762401 -0.1849261647129579 -0.1016634894199056 -0.2676365700305673 0.02154316862394656 -0.1272010033833789 0.04071060882356149 -0.02189860678766907 -0.1209626510235857 0.002752919135222055 0.0637267851551824 -0.2598883925088027 -0.04844261166872242 -0.1456189703554156 0.1333730328926278 -0.01215534915014884 
0.02842936065179283 0.1207160565311625 0.03603198077761424 0.1112707484328378 -0.1129961204779646 -0.0813583974134589 0.07141223098032247 0.07584010786703599 -0.01451992856322719 -0.1074532542556049 -0.08337488983871906 -0.1217577385337294 -0.007223135034749162 -0.1347166792291805 -0.01863737864263073 0.01290805007767131 0.05049092586848682 -0.02790846095871045 -0.01349623123241566 -0.06883694941497893 0.0157498594513182 -0.3318106932627667 -0.1366017336007599 -0.08900216225700694 0.09160476587881076 0.01389038507187086 
-0.06072334036995038 0.002773163572822952 -0.09533544283374737 -0.03466537475149036 -0.3426290110488698 -0.05187456353119829 -0.004869628370545756 0.0791085178335573 -0.08286595099421913 -0.04242096779414704 -0.138474351263396 -0.08953048671290144 0.03126341004382571 -0.05796722579810985 -0.1374423448754132 -0.09663137005420835 0.1434901091178226 -0.07991546849372898 -0.08481673153262688 -0.04463556928179209 -0.02300564976543759 -0.2257680384599596 -0.03847225852453331 -0.1596430319009454 0.06636532753761207 -0.01518092682502242 
-0.2034610365574063 -0.08539385148860895 -0.04526638922063759 0.004309926734685167 -0.2615881024952635 -0.8635583946805252 -0.1189755502188848 0.09320239640757964 -0.09922527592967029 -0.1572914397358889 -0.1260389222897255 -0.1578341426830385 0.01252301183611041 -0.0283193494546475 -0.04385609641016378 -0.2538898888629061 -0.08958797396091585 0.004347252813223126 -0.04811645127133382 -0.06531279316845856 -0.006210148588816905 -0.109890920139377 -0.05908581762772239 -0.1095632351282516 0.02324684882583875 -0.1862697114190656 
-0.2109450745398307 0.04256650425593301 0.0120248317380604 -0.05799598619299232 -0.176538271380981 -0.3139278810682519 0.0145860369451165 0.1133834922224797 -0.04427201174550915 -0.2086874078891045 -0.2938722101147149 -0.1796792181925717 -0.05618542769294024 -0.02395838392727642 -0.07301914713140412 -0.1708091794228644 2.09167052192382e-05 -0.1283906069690854 -0.05513282283661324 -0.1508013496851094 -0.2454834889781134 -0.1433133970762519 -0.01002945567411999 -0.1745133782829539 -0.3494884574178014 -0.3799802730695555 
-0.2518749750602467 -0.003894862829459447 -0.02078283100082159 -0.05187740327744605 -0.05935929988182637 -0.02676473117556524 0.1693909819855826 0.07831403237866923 -0.1304834071378925 -0.1156830777110762 -0.06605491054361434 -0.374821999782797 0.006183947348839556 0.01294024573802244 -0.1517875562239021 -0.1108082984888669 0.01208896016332808 -0.1081946746605838 -0.04077556007920086 -0.1957841982580334 -0.03316003494005067 -0.1994845655787959 0.01200218913502216 -0.009090060342138228 -0.221765918634659 -0.1628515744290932 
0.04253649890955511 -0.04911832695325759 0.09056931569495806 -0.01215834899619991 -0.149543837677292 -0.08653555657514422 0.04008029651974592 -0.08233542938937467 0.008974893166025011 -0.2470587539546393 -0.00916233223398028 -0.1145042033459993 0.0412311448273516 -0.0007030579967318724 -0.1146361023158527 -0.256666839867234 0.06075634885569287 0.08846300122525796 0.06160456232360922 -0.1776912498245278 -0.1402903777276109 -0.1315054901002157 0.0439844625390212 -0.1012666913582736 0.1264543453089119 -0.06999313876050223 
0.1266964113072817 -0.02246966342446193 0.02132306792515294 -0.2486469622686103 0.02963635075775007 0.1241605185510715 0.008153084076518324 0.08401723286674397 0.01324722719737706 -0.4470072503198462 -0.07229876128858587 -0.2080425200081215 0.112799006381033 -0.02102532798671682 -0.2333209619861314 -0.3942952169355645 0.01427643741491722 -0.1584406989577873 -0.0996746349157801 -0.1466312013700606 -0.1347338367104588 -0.2322198557255079 -0.1555998956355936 -0.07225139156186403 0.06144648349419616 0.02283644486916938 
0.08755997294140795 0.3482683519301973 -0.1104727406948479 0.1482030458338972 0.05380373143173701 0.01648952567333093 0.125741661993674 -0.04913801158601468 -0.03356767669317953 -0.1091314537304445 -0.2606540859525919 -0.03849059763337916 -0.09627189109234371 -0.2311380013575643 0.1073806949203227 0.05410857715798641 0.1766452964690601 -0.1619198913450659 -0.02833179508463142 -0.01798089660639944 -0.01965483985917584 -0.4150049529585703 -0.1268578006315114 -0.1377145803703284 0.1017450217103778 -0.07099262872035028 
-0.08926030718774863 -0.0503356065916761 -0.01599412886704963 0.03532560651973857 -0.07138820520774876 0.01397617221143332 0.1174303217316724 -0.07537070158683183 0.03066595390245757 -0.07932702739308488 -0.04267537060866558 -0.1014054690187268 0.05016299550946444 -0.0920250434818739 -0.09733053261149696 -0.2450191831165129 0.0223746482396799 -0.07905858388804939 0.02562014291475643 -0.03767750934250071 -0.01214558457401443 -0.2421292773515034 -0.1190606396867846 -0.136917040322109 0.07358652039190046 0.02255690066217019 
-0.06845717821927112 -0.01630002390326526 0.04335935726106922 0.05072948026235255 -0.151972793623126 -0.1494406064009717 0.02530223413234591 -0.02411831971853058 -0.004080949862584888 -0.1083692592097497 -0.0719268791412592 -0.0732256950204756 -0.0300523606665356 -0.1176053798387652 0.1502226137271534 -0.2597964189979113 0.1231857121844974 -0.08478632892928285 0.005616212283989563 -0.0599104233733473 0.009118933483821427 -0.3828285846843775 -0.07322884215338328 -0.09816653062542453 0.06460559522965974 0.0961774821340966 
-0.1300332967113008 -0.01838985306099752 -0.08018556057612182 -0.06345001897939334 -0.2888919735238841 -0.7351386376014781 -0.01226308732418515 0.1003775301074157 -0.02986417416540929 -0.2160516148904391 -0.1489920953205155 -0.1376110209969759 0.01555951039466237 -0.02383400082348514 -0.05884118708177315 -0.2953843800612631 0.03683913974927127 -0.05777044825453676 -0.2213074888600736 -0.04988692316306003 -0.05727360885384092 -0.1938880733885285 0.0003575287027295336 -0.1070966487810628 -0.01797233063521752 0.2354389975628757 
-0.3913983797461825 -0.08643544893380463 -0.1414948800963467 -0.05427520263094417 -0.1331551782154452 -0.5286194782704781 -0.03502895456009066 0.04750614514651393 -0.05227895092182366 -0.09351939935655507 -0.1998038920003947 -0.2687509487800506 -0.03086112870113789 0.02061527179650582 -0.03423561591004919 -0.2845694459481115 0.07431717640042471 -0.03390840621201646 -0.2401707980384521 -0.05723840277395135 -0.03599493965622095 -0.2644598689847547 0.004811948150019691 -0.002274727013350113 -0.6800419892912816 0.1634379022673236 
-0.2004574011099262 -0.1380988730797029 0.0426213964397794 0.01378612653134211 -0.331294351542383 -0.06711697031167566 -0.01268145893113681 0.06693866128790181 -0.1292137044544742 -0.1325234635233268 -0.1596116330398324 -0.04206689269503902 0.0288191991762534 -0.06036523189422396 -0.007591333467433855 -0.2366215153815884 0.04062555805323409 -0.1193273000170587 -0.1150468110989308 -0.1210215430027062 -0.1769988838324169 -0.1470596068880623 -0.02743947538999379 -0.2496117040516838 -0.02178834460296512 -0.09731351156398328 
-0.2485431220747051 -0.0008755696359590177 0.01930127059199013 -0.1438287124490954 -0.01169979943046766 0.03470278368969441 0.1275780721755918 -0.04174865416439229 -0.01039140856333328 -0.1830642718536954 -0.1833213488197993 -0.3316375195235164 0.04174660398766077 0.03136074611497859 -0.1106483385441118 -0.2181122151969396 0.04436216896629053 -0.03681605696522069 -0.2197222796857796 -0.2098639166609397 -0.03528817289698501 -0.247894365834419 0.01817428349802823 -0.04646905924122381 0.07330132584152624 0.07506202684214086 
0.03494377712440674 0.09467476215034804 0.1181405694908911 -0.09720522553957704 -0.2219396541186021 -0.08616911691571326 0.1465933434761404 0.06654845440904129 -0.05461495742453508 -0.3647410599954813 -0.003918066560868894 -0.1791141515363671 0.002055744507622155 0.2805196273610651 -0.06927950090393123 -0.1463777667238096 -0.1678501883143673 -0.1342498952392664 -0.09463839529149545 -0.2020911562193106 -0.05188965805021344 -0.2915479801024496 -0.03755358407960707 0.09397754037134017 0.1708116986614604 -0.004251314105138725 
-0.05197731215796422 0.2404827417563022 -0.1346133189154131 -0.005976014189985954 0.05881917323213758 0.06011313325758207 0.0914298672170171 0.06646828470865339 -0.007093979734799985 -0.1832214969820938 -0.04366324261387493 -0.0146813895405861 -0.2263163112090424 -0.1738674465738747 0.08607205130135012 -0.2781430793404995 0.208312486231037 -0.1124021639262481 -0.03931398752948947 0.05746932877658629 0.1985034103793805 -0.5336605446507626 -0.4460089094782438 -0.1205614432711226 -0.0070740795189888 -0.1512471568862086 
0.010270537018117 0.3101265883116661 -0.1831155934748566 0.1620112746152878 -0.1004151643672447 -0.02318766572248042 0.1898296450098075 -0.01895204414327636 0.02467588195243007 -0.1805447009035973 -0.1728173761181891 -0.2016282036593721 -0.06757552303655036 -0.3123807747223087 0.2475436772736834 -0.3211320955371726 0.3650482819879088 -0.1749620640972047 -0.07895833626012644 0.01558147449679231 0.05844893407586334 -0.4734494212570921 -0.1718743423590841 -0.09246996504247777 0.1875444977243881 -0.05139150657990935 
-0.2072609954289847 -0.04060302704444222 -0.1004080524229123 0.01115390914208819 -0.08865080706813633 -0.1717660958680279 0.18472928926851 0.00773767248103259 0.05989016304401187 -0.2905798472757149 -0.1679334700253711 -0.2013570966852919 -0.04064505755082051 -0.2836171425035454 0.003564249493258875 -0.2645033579988503 0.2267155461118305 -0.06094967767974777 -0.1556693160977086 -0.02777099732759004 0.03885296364463722 -0.2623098255664769 -0.2156488666160079 -0.1000280432298349 -0.08100684554942117 0.2224547651840506 
-0.2740633698498856 -0.2752332211132686 -0.01844611877125442 0.0391174696303312 -0.1868267369479917 -0.4617351176314536 0.1370268103070026 -0.105217842760318 0.09027345887324426 -0.157829760032499 -0.124553366949215 -0.2452340595171016 -0.002148619456736028 -0.06914400610412168 -0.02668449185396555 -0.2599817411738292 0.2463624222370856 0.03925757069369808 -0.0394213238021356 0.07318164484707997 0.007886661584840885 -0.3802738906012907 -0.1168510034937192 -0.1064803060874417 -0.5767456424348252 0.2575332614342036 
-0.2866333914578257 -0.376424855082543 -0.02905520370717474 0.001344050974104595 -0.3751565808276807 -0.5162733388729042 -0.0595560581232361 0.02663100090054341 -0.02940313975619538 -0.2144194257191789 -0.2063443011867654 -0.2324357450683625 0.03889358050006514 -0.238861798586332 0.04149486869431968 -0.2603570439065428 0.1494602561251684 0.05225617960698292 -0.05641127544687383 0.0277057639194119 -0.08097463112210598 -0.2760070207376097 -0.04727577571783031 -0.1900958193134602 -0.8610021220491388 0.2314897613166793 
-0.300142369430115 -0.1574844767151628 -0.03221278732679656 -0.1371759213813911 -0.150550531213777 -0.3137802791239808 -0.09108426475554146 -0.02849268658250599 -0.07881046449206909 -0.09857551491480251 -0.3729823022102198 -0.3289234808828313 0.1195944586295316 0.08052673171671908 0.1125392487166241 -0.2098950073478897 0.02481159103133025 0.009473132379868229 -0.08405576761665313 -0.09789535830054473 -0.1701304687443544 -0.3380758090314702 -0.05879723580323665 -0.09720571971654278 0.300572858532442 0.1419519055909838 
-0.1883016812888804 -0.07672879433640774 0.0651881290879319 -0.159462871798474 -0.2363396835417587 -0.1817715600852167 0.01158704158960811 0.05762768329554675 -0.02945826778208211 -0.1798411932670213 -0.226290904629609 -0.4582949100797193 0.2467675888930968 0.1634256526605366 0.1374911088648915 -0.1621860013392676 -0.07996517377262707 -0.3282902054795643 -0.1687410997840046 -0.04494528223477329 -0.1923474775181356 -0.1727580873932104 -0.1611725167657844 -0.06360051084030315 0.2242239580019172 0.02053684247474571 
0.09798794991469001 -0.01409274380502214 0.3574758187024604 -0.1726051975245957 -0.1912099839379496 -0.09314877876838405 0.3379176111002066 0.05724215104105872 -0.01559026347058138 -0.2993899855039814 -0.2792985779565356 -0.1563774612994886 0.2315381933584654 0.1558047172513634 -0.0848587832645519 -0.1104343841067725 -0.5385317066706931 -0.1417592991038229 0.01562748456565773 -0.201922026611592 -0.2037905311040282 -0.1091883409698498 -0.3730763824182 -0.1110344764082172 0.2675082780798009 -0.2647150098376123 
