solver_type L2R_L2LOSS_SVC
nr_class 26
label 1 11 5 15 13 14 4 9 7 18 24 16 3 20 12 23 2 21 26 25 19 6 22 17 8 10
nr_feature 128
bias -1
w
-0.6203467507278211 -0.147898640299807 -0.5797573653341509 -0.005422525644822339 -0.3402701123773468 -0.09879428627126137 -0.7873322942739167 0.06932940511410712 -0.3886584398030846 0.09653234573518758 -0.1317015121788327 -0.07548606444601992 -0.7688546635156767 -0.2420016814574833 0.2302293679138639 -0.2452449518927238 0.08355428184367565 -0.1521177413879789 -0.2054105615722533 0.3220877203359467 -0.4527289790578686 -0.3660346518436045 -0.1372389561713452 -0.1805395885457775 -0.2302173800621912 0.07030152510568879 
-0.4410208000952901 -0.2058788942760443 -0.444107681216145 0.02544690410153574 -0.3617681168631296 -0.2796244287825697 -0.6961222159260401 0.4233835901068592 -0.1953059728630158 -0.003128772377295967 -0.07753752184509777 0.1242286816720914 -0.7330882730319475 -0.3464179694064853 -0.1507130554975435 -0.1304121744820177 -0.2305590338805 -0.3013406440320768 -0.1429086816504739 -0.001830257848932276 -0.235126192163202 0.03220169454899062 -0.3613822984779326 -0.1305679874162787 -0.291066714623441 -0.3723701025075338 
-0.1094535213532239 -0.2538894204746782 -0.2869526364036624 -0.2683796577949386 -0.2520888945891383 -0.2756073565264051 -0.7758761493290789 0.2810050632459678 -0.03686787594250486 -0.03265806089104699 -0.1764459253308085 0.2917222402747877 -0.5467718919805357 -0.518576556147756 -0.1292588812388484 -0.2761585482052624 -0.4075659884379775 -0.6015233370682957 -0.2981270223146695 -0.1298404983661081 -0.18885242462521 -0.004917673863618232 -0.8239865411179517 0.01151591279869736 -0.3482017036964051 -0.4190277609618218 
-0.08918791177540279 -0.2356740239197671 -0.1901254702388544 -0.1357286441809752 -0.1188280196472282 0.109783001184694 -0.5696030136488244 0.1913575422450697 -0.01528297466214874 -0.05546779480295447 -0.204078668387095 0.2084338420635052 -0.239854333606997 -0.3087469056925659 -0.2638189737740783 -0.3774489586068554 -0.660741310084384 -0.6188094484045106 -0.2444404136650809 -0.3059578103046985 -0.04430412380026658 -0.04410242233909235 -0.9417954378150124 -0.002215813135660364 -0.06376996915863609 -0.1599004646396591 
-0.04079454755676458 -0.3656582964038317 -0.1568507871803086 -0.07709459793534243 -0.2199318840022693 -0.07567096167102479 -0.4406138088658072 0.2223038138330947 0.04100151199003867 0.01467701800586634 -0.2123122107220123 0.2126717629849237 -0.09156968470561769 -0.2964111331415948 -0.2952289476532827 -0.4098513667766668 -0.6776456486380843 -0.5651003084504314 -0.2560210776499522 -0.2613217987301268 -0.02815080504878553 0.1037705084121268 -0.8637228476739257 -0.03326476883925672 -0.1730597273594608 -0.2336791774624245 
-0.2511250355435359 -0.7445571076507117 -0.176336931910186 -0.2722191420791957 -0.08425781178515319 -0.1107573521607322 -0.4511230205547169 0.147871348347709 -0.02946205782769506 -0.09804364776939119 -0.1928633925921129 0.2643931374624945 -0.2476960941583518 -0.0690825609267738 -0.2007631748563315 -0.4967765424139337 -1.163133830094995 -0.3517736787360827 -0.5655265789578257 -0.2431206276849356 -0.05689380447453624 0.2319614022296092 -0.5053592712423349 0.01960675103493585 -0.7143206222478632 -0.3067574407605953 
-0.1420848402124437 -0.7898994691784432 0.04584541349710911 -0.1178445643506691 -0.4271581713736284 -0.2643532783376241 -0.3125339831343039 0.1175744016175679 -0.002614279150438332 0.05191181040614122 -0.1048823772822571 0.1149025588720332 0.1002918731115842 -0.05251706814172574 -0.4100957863590857 -0.5722667225515905 -0.7916454010705318 -0.07942648399470342 -0.5746015809386296 0.06125487914383742 0.035030458585387 0.4081374361053547 0.04517525104802984 0.02721376735853535 -0.5017280833329778 -0.1159660142561589 
-0.1417479959518576 -0.8923032292500787 0.03329065085527724 -0.2791067146593096 -0.449090478324418 -0.2455669646867243 -0.3036950738718704 0.1370564748554022 -0.09542344789107574 0.2429555592842386 -0.06790486675249911 -0.2120215285600119 0.00109562125615313 0.2796326951239129 -0.2091859243335665 -0.6969558340058327 -0.7165663810940103 -0.1017020730316819 -0.3374208798518032 -0.04593792646050198 0.01583063095212332 0.3548735297525907 0.2737317835295411 -0.007935440173607798 -0.07156716701881422 0.161937734015509 
-0.1564233189679823 -0.0913548358795683 -0.2368052277151109 -0.104794840578457 -0.1297976845740903 -0.1358797031349923 -0.2396182355991967 0.1144146624188044 0.008147525446083322 0.01509872337891449 -0.01989990127340407 0.02419548781183602 -0.2828751475120448 -0.1140652753162003 -0.04383650575853745 0.4193070607379947 -0.03612446623890239 -0.2202247882078711 0.09588159807549743 0.1671062721272461 -0.01425147782504549 -0.009394073293121811 0.03676748890982307 0.01101228783329257 -0.01714530584946723 -0.1350346831535926 
0.05367102693264945 -0.01088145355522599 -0.01616946699390689 0.007424067551295283 -0.366608698694694 0.108579846043006 -0.16105262393093 -0.123930945821835 0.1042613588570626 -0.0699377914674245 -0.1581956034777414 0.1296076691837046 0.199281743822903 -0.180383621521077 -0.07757918422487201 -0.2361346495858749 0.04104766311650015 0.05961548877797648 -0.0008955332714132985 0.2209917149659253 0.05664094441028626 0.03565404502273127 -0.2110273760435564 0.07601607534920407 -0.0285539760664941 -0.1190195338442911 
0.03069848233605196 -0.02792278845523956 -0.02782682255344841 0.1594816442753788 0.002023669058680525 -0.1957616836117086 -0.09026845870919697 0.114744292467324 0.0569684613790832 -0.08368828877598733 -0.1014568662467699 0.1250319860229562 0.06372807120984199 -0.037221316458939 -0.01897817014636058 -0.2099338123568493 -0.2348831040196552 -0.3195667761297137 -0.0605368278733736 0.08174887568477082 -0.04751513454071499 0.1339346532265474 -0.3581537494436033 0.06893440246228943 -0.01653321501956924 -0.1558826203453995 
0.04740337054940634 -0.06992688011348176 0.02301385713823269 0.03592767216979856 0.03700619560884071 -0.1252167156062618 -0.08399534183272506 0.06120259341035951 0.01140796535088487 0.03914753049586074 0.003702642804507634 0.1561934860337424 -0.1105731576683336 -0.02393594568372643 0.08781007158109552 -0.1548496056898644 -0.06501073532602272 -0.2604362639420423 -0.02077920215143222 -0.1065694143191366 -0.02057397964672383 0.03702156156447619 0.1063180001899769 -0.005990200737772571 -0.1145902583034308 -0.3380269033847364 
-0.03172685093238339 -0.1722248366628945 -0.06734026480289167 -0.01560651200034481 -0.1395552381316972 0.08305442427962997 -0.1336035083481419 0.04758152463339006 -0.03260840402882814 -0.006114252948376693 0.1293978827628296 0.1095865432016439 -0.1103352251116089 -0.004689214773476307 -0.01624087601433562 -0.1296035481338241 -0.269302871812013 -0.363956417407695 -0.07268121746826833 -0.06461361300514951 -0.05168166362323704 0.04402238901534259 -0.850025719350304 0.01945241889254215 -0.2110864349505421 -0.3355775963730993 
0.0448862624295337 -0.2299994405067417 -0.04144231548239424 -0.07460229741367862 -0.4829738368610393 -0.1085990409478525 0.03601096071660779 0.06860557928311274 -0.05537551624166202 0.04367227812273997 -0.001735564126337791 0.09560518194213034 0.02136172121923269 -0.06198743938711195 -0.06957495424613805 -0.1451321240603429 -0.08803512736451576 -0.02588693110684169 0.1308377208725629 -0.002099216120150724 0.00458691014991573 0.2140205100237476 0.155095151579656 -0.01283668723641394 0.02475511831038841 -0.2590774719788796 
0.05819830209174674 -0.1512869320141752 -0.1245669539812346 -0.01909185801502532 -0.3177862674020496 -0.07017246622446809 -0.208113019782977 0.03871500694703908 0.03059183364675093 -0.06080381621663637 -0.01264448187940546 0.1735270486185442 0.001491757237233854 0.03274780195023766 -0.1396498180528656 -0.3824685229464564 -0.1902379031133263 0.03625533625397555 -0.06132397671964538 -0.03392725387869271 -0.003225653726495201 0.2661448683288562 -0.1637114860332633 0.07551705120664227 -0.2845016244980978 -0.355624077332695 
-0.1025371396391619 -0.3154150738387942 0.0765504793466098 -0.2744708469133287 -0.2709818108077235 -0.006094748119387757 -0.06829869848827867 -0.2092865767900066 0.08573940136126447 -0.08265330252817976 -0.09457381838266166 0.06347377675156876 0.03891745693688189 0.03307799098605326 -0.2445945903076006 -0.2745234146331568 -0.2286159171392557 -0.0410133193252349 -0.2615599612544965 0.1961410764284255 0.1833399063054906 0.5232760855923093 0.2045188399152907 0.03788827743171885 -0.2087218507919493 -0.1717207346185325 
-0.2221826436416768 0.1608573409676239 -0.1281052907695117 0.00978266742778211 -0.2094753501840643 0.09129534593292203 0.06004832563458733 -0.1761732504908462 0.03816546258054711 0.1557508202207717 0.03996935458695779 0.2062731463467004 -0.2062662868923921 -0.06069098136326148 0.134741285148719 -0.02690161704548075 -0.02188207957276756 -0.01191160450459656 -0.1002059107921135 0.1387015094462488 -0.07365034984196402 -0.1050321287443055 -0.007744939526805801 0.1238385794695573 0.03003354360402767 -0.6044183514009345 
0.01828960183705727 0.01771753770356264 0.08672756709350832 0.01337419260685717 0.1918170576724224 -0.09016027565445402 -0.1431591742510288 -0.08719336751917207 0.09475250740068331 0.1863272313121825 -0.06361196892739798 0.0220135351101941 -0.02256072929565016 -0.06398026989590658 0.05376632811781301 -0.1547081833507637 -0.02534969903821079 0.08358673606219424 0.06975530791230014 0.1481199101153808 0.00909645404100983 -0.003591062103113605 0.07585804153035952 0.1855809530909109 0.1122431951039164 -0.5367294809331962 
-0.02072610331763329 -0.07691661747900758 0.0239666360084361 0.06102028920075118 -0.08297005947313833 0.1173661311260114 0.0240642818470966 -0.1505591389023238 0.08411905349795867 -0.06528379266457134 -0.01392763756020987 0.1131398362961257 0.09480232314063411 0.03009604065098754 0.1518918335213412 -0.2100383853110212 -0.04636383913241007 -0.2456410874717271 0.02919781072454534 0.1349221305698288 0.04198830805128623 0.0459071145727949 0.07810567156579971 0.02111169966794748 -0.1563933587866282 -0.4601392257508511 
0.01321896779112329 -0.1278296334804324 -0.01393226780247504 0.1270227500837044 -0.2209292001998238 -0.117622237245463 0.01635248237974541 -0.2699927957955735 0.03314955229472474 -0.01411205631959812 -0.280501343243974 0.01844861873359554 0.0539108167196103 0.1206649101117656 0.152802416562903 -0.2407283110200051 -0.1960522156496997 -0.3512255134468323 -0.01293431962736354 -0.03281694490956005 0.0571104306364035 0.06296363937879379 -0.899668055573089 0.0317425944222307 0.03668015241486058 -0.5110416306379296 
0.01673046892574774 -0.1877394048069009 -0.03137414047305583 -0.07777625335511776 -0.1199599956825738 0.01319989561327651 -0.06227921861999001 -0.03710455766069822 0.007359297150443532 0.03970993502231212 0.04203209114530775 -0.0376535463896497 -0.06636326263583298 0.01431769610783257 0.1300287948305404 -0.2966237027412932 -0.02325642288233701 -0.2852463308186619 0.007852431192248658 -0.0544539212294736 -0.01809651697496932 0.05381846248601507 -0.169425109304205 0.001178024814427015 -0.2217116557084564 -0.224533374858791 
0.01758109552070237 -0.1394966835681026 -0.05068227774065213 0.06274320262830729 -0.1866188745642082 -0.02582988071068397 -0.09744496417515852 -0.05621714024726681 0.08422133724036071 0.00931527203710188 0.08582051453925679 0.2036563935426842 0.1009310778467386 0.06719358105937832 -0.01598600804267357 0.2390012441484435 -0.06563716203941436 -0.0461464216947481 0.05707886602152219 0.04964559135374507 0.0593865851486767 0.07073850942860556 -0.1169718245133355 0.05973915538189924 -0.08233870651120344 -0.3335687356776161 
-0.03987413622741803 -0.1153792352481652 0.01139556980262943 -0.0715811692253399 0.02699915302198863 -0.09603477932139448 -0.06815846253310112 -0.1202507320945441 0.01840651232560006 -0.04081944468521102 0.002519530808856686 0.1488011867676517 -0.04049063245083873 0.02961425946419878 -0.145418920985203 -0.2974899812430656 -0.245149706813894 -0.02064096411705483 -0.005466269448769318 0.04407505984247308 0.005826727556948846 0.2862993116912272 0.1115784684479015 0.08919056141235462 -0.05341723486225647 -0.4350106428895313 
0.00786282216858504 -0.3204952747100701 0.0218627074707653 -0.1859636101170427 0.02404807590260559 -0.08080720037162868 -0.146125785231845 -0.1622359788597422 -0.01234766526864198 -0.1171697581264642 -0.06207261111540704 0.01895558150741268 -0.004136432805727895 -0.1480682152229794 -0.3463684535818818 0.029453599871882 -0.07852668080710126 0.0475177679891156 -0.1508935936816463 0.03335943494405009 0.09317459321399373 0.1505852466227713 0.3026044266085304 -0.1450636346027025 -0.1359329631851922 -0.1963930036093627 
-0.1362083225658551 0.02551364162572072 -0.110623934774075 0.04215096407929021 0.04346631505825561 -0.03871940232473703 -0.2838834935749211 -0.1496035979800405 0.1452461894414348 -0.008816243063304214 0.07589261216232675 0.09039207812352891 -0.1786824888282515 -0.1772932561651537 -0.0249147240987911 0.1191854681828447 0.1233843973258133 0.01200407333139177 0.02453777189059943 0.1863181069973987 0.03130721913241985 0.01680270241076156 0.02389390990959739 0.1051183716082416 0.1164796358232547 -0.06197874223669499 
0.009983604148157068 -0.01747192402252627 0.05565034572546475 0.1175711900264811 -0.06843954703468309 0.04571525369228426 -0.02727991395654435 -0.1505730008193523 0.06721092583702178 0.04043153946211483 0.1956532105067442 0.1945164896034354 -0.03653233560679557 -0.05661898785094147 -0.02086238500027861 -0.6002835580059316 -0.05857716843098094 -0.06481115011038284 0.06955757252003725 0.01851604904947654 0.0892484695167601 -0.04303095703123236 -0.06340372162007167 0.08522596310782198 -0.1016691442274798 -0.1282988129706305 
0.00729463146543741 -0.02656952962956553 0.01390518925658051 0.005220361512599962 -0.1150096944338709 -0.05176694762823033 -0.1604206143595674 -0.5272857888998427 0.07955911402788976 0.133416096939841 -0.141391073258874 0.0500801426042183 0.07593120888510518 0.03623329853048846 0.08760154666286923 0.02039161724916968 -0.1477075408103407 -0.2070691295300432 -0.01219266550686629 0.04460335635654256 0.04499499593850929 -0.005309620708405672 0.03162033878341181 0.09402677184079049 -0.006221545484206857 -0.05372291917731847 
0.02983962339770337 -0.1571342144164344 -0.03212747510086894 0.0725140162724638 -0.1251575908655602 -0.02914735497326559 -0.1214032598096559 -0.6763165804724146 0.07538472483205111 -0.02538525267553178 -0.009868830416071122 0.03616894807199916 -0.03780657707298381 -0.04716627319749318 0.1888995784881302 -0.2876987741472888 -0.01745821807064973 -0.4357076503002101 -0.04102790937182186 0.1435526423814482 -0.07324830348107765 0.03422746769712692 -0.8723411848459535 0.007474980534232824 -0.1324285864277757 0.150085918620673 
0.02207607027049592 -0.1668946710475765 -0.04054734981319112 0.03756400250538719 -0.2329333780444455 -0.08374295763287096 -0.02923319182153406 -0.5704582432137306 0.03601275048541916 0.04532164556263937 -0.2374164048750033 -0.03103857998443333 0.06189345289376822 0.08728750614571568 0.1384644010737267 -0.3006640326930985 -0.2062515905363679 -0.09023449981890544 -0.02284482395970005 0.02066974417605553 0.05126227088558773 -0.07945720997341876 -0.1812409159436977 0.01025441891983853 -0.0944058387515205 -0.1235653039541165 
0.007780597408585273 0.002137308293670091 0.03717218169133528 -0.03992106981698071 -0.1938126414479997 -0.006473472621583114 -0.01170086442794641 -0.3226817802015706 0.03749156224752615 0.05607007884061414 0.06623026667051457 -0.05136691317903491 -0.08916613463356472 0.05144525019119943 -0.02962618762407094 -0.086285383029714 -0.06616244677968633 -0.1288100709603901 -0.02951380760740181 0.08859626266276412 -0.02289850649461438 0.05175403184614226 0.07408231758924652 0.03809397408970264 -0.009871751936041383 0.1791492740341666 
0.02453542066665628 -0.1291639157205432 -0.05432887366767985 0.02457969923212252 0.174720587833224 -0.1084652348995487 -0.0356299103370197 -0.2256895638382939 -0.004638975572102331 -0.0338235360205763 0.0806451464123263 0.1921247833927116 -0.03212356046734197 -0.001578592645042756 -0.2205211980394348 -0.04239971187605424 0.03092816570678183 -0.08638956925048724 0.00925116672628448 0.002022393814266647 0.02087810492932796 0.0921593726307417 0.1449557358144196 -0.05777462115507434 -0.1568200582015911 0.2503053834426442 
-0.1052146974474904 -0.3745626462674593 0.0311751137133374 -0.2285622396076133 -0.1066630799310235 0.09842019006005633 -0.1540240569744329 -0.2107783837720102 -0.02455078528291237 -0.1132621061599003 -0.1078282536661605 0.1846935831112031 -0.07081105676892664 -0.1776764232997156 -0.3176941351379942 -0.05743828356397349 -0.1529767897881498 0.1069865388077015 -0.127205661082823 0.0785855838984664 0.1051598083925383 0.1309110757242211 0.158478873917583 -0.09681140212812303 -0.02919571930345052 -0.1866882594441309 
-0.3476206371832697 0.06198470151373427 -0.1884822512634094 -0.1079437314203712 0.004164185833481276 0.03455338759052327 -0.1280335364079208 -0.2394817618622915 -0.01726439521360057 0.1946661362521457 0.06460082982005953 -0.03724407369189296 -0.2538135825013697 -0.09378233156230456 -0.03489133247076201 -0.02079518545620042 -0.1380146713559281 0.1032428951543022 0.06144824005561136 -0.05327186949656924 -0.006107195912997863 -0.1884965349344719 0.01274180804467203 -0.003558985755949085 -0.01551967859791581 -0.2361461612514458 
0.06751559750922519 -0.03312415321651388 0.05943506253531659 0.06650526484645615 0.0333129820566123 -0.06310560991715081 -0.2375817391884001 -0.5937846996575593 0.05084779207531352 -0.02275939346570699 0.02741154045230161 0.001719371013957484 -0.08994443830315357 0.03193831025447778 -0.05588031806442775 -0.5269365329387271 -0.1157706990394003 -0.1428174597223241 0.0880050271993653 0.01704566229100122 0.05678798514751754 -0.04350344480851349 0.0574215646216476 0.09980446540549393 -0.07160016393254945 -0.07213635859701042 
0.0116863803136302 -0.1966402668433436 -0.01494724579730571 0.05728252520618508 0.09354833084073133 -0.01771983631100323 -0.1845060695264468 -0.5111394111709249 0.06890302763076511 -0.06573734249199489 -0.1311221037686344 0.1200979892578413 0.04821382859742938 0.06390809631092167 0.04168628228347732 -0.0622140820286283 -0.07519903741663719 -0.2270152632996869 0.05937786946570316 -0.01802509054378214 0.05751160159826617 -0.02304722683251511 -0.04394208280725755 -0.0156584437644092 -0.0791581773243802 -0.3652882861096127 
0.02119824308658624 -0.1156548642842652 -0.01974554144660077 0.001309214908783506 -0.263983170359029 -0.04985686517926022 -0.1622433766790286 -0.1629295853500705 0.05106961021887766 0.05573483810740406 -0.1038591678920921 -0.105874167520863 0.0489326208825884 0.09761897509248298 0.0417413612120907 -0.2016581495848621 -0.08582982347331344 -0.4784985630453787 -0.03427300525283862 0.01587652796119979 0.003102653371040159 -0.03555908567756751 -0.6166134063145267 -0.01323681796234914 -0.1958448095231659 0.07613727128873178 
0.04554358129568429 -0.01247587288759542 -0.01791280871020494 0.01009144059636687 -0.1918041621981493 -0.03262519501756178 -0.1286368200247303 -0.2996826173084985 0.06543507765250607 0.05530004833593091 -0.06434183236925659 -0.1913570486166111 -0.01532402909740001 -0.07362806181490433 0.1290507946376254 -0.7187965860374294 -0.08202628707295447 -0.1345441294435851 -0.01164184966844844 0.04891256202381263 -0.05432172589765939 -0.05166331338541621 -0.1552598582635558 0.05975974192528752 -0.09727304683797861 0.04222866657511496 
-0.07851365049737366 -0.06717448225184054 -0.05940993714540151 0.0007205613069149351 -0.03991991845164632 -0.0329789894385487 -0.06241827451475152 -0.3500131444758876 0.06858330571877352 0.03339074008958941 -0.01970352800114153 0.05954286222369049 -0.03431701007566115 0.06008057688210507 -0.04644157053231389 -0.234759517728722 -0.2942076981850937 -0.06325139382452831 -0.01393848959699644 0.09096518600996324 -0.1652117041653699 -0.2708794201758219 -0.1271624533569113 -0.05002738351618503 -0.2212673975225232 0.1303060986714635 
-0.06185988722724874 -0.1175936659600067 -0.04558445675579183 -0.07910982476310932 -0.06056226606991216 -0.05305128975847125 -0.0910054488225286 -0.1396760309286716 -0.04421622439280838 -0.05565660859587036 0.1759390438575679 0.1399724059547554 -0.1433733879272936 0.02462538603736039 0.07197256263006774 -0.1978884961702838 -0.1853531155897682 -0.07571500098738974 -0.09821190886555708 0.1039453035842774 0.07639751581999123 -0.02941786362831095 0.05807987479571888 -0.03747744730339049 -0.1695438880398882 -0.1035966835020302 
-0.03558352713185189 -0.4817075582019629 0.04951729695312613 -0.1312557027704899 -0.06013353561136825 -0.07060350297009901 -0.2031567971585763 0.1376486688962648 0.006077175947092025 -0.03176706116055599 -0.1975468911875774 0.1651316505599348 -0.07108010509910011 -0.1659397778577884 -0.8273038891085449 0.05491439756463176 -0.04661762555985552 0.03067286128847224 -0.1152825225298731 -0.145583099230959 0.04005374957696504 0.01703578520691614 0.1590445654849436 -0.2100734070483067 -0.1085844232455222 -0.5195435673123591 
-0.2677991483370321 -0.06418712604776043 -0.01618734510525676 -0.1909054755886079 -0.0337077440521842 0.04542731594218824 -0.2451266461364434 -0.838658754678741 -0.1044350262931781 0.07936791700435228 -0.07856363648726253 -0.06382946400799841 -0.3283602752955764 -0.04299460437657533 -0.05232581458857623 -0.1145328437497008 -0.09976443456966441 0.1273118194896937 -0.07393063386931277 0.01475992447904162 0.03208026106865328 -0.04480571633001582 0.1375733863710325 0.0551556587716609 -0.111459708267211 -0.08691719813728543 
-0.005410842419377884 -0.04533542303230617 0.02406009428580764 -0.04630970734212912 0.03480886508449463 -0.02463133600898456 -0.06665000639143559 -0.6519028359427785 -0.04547558653058752 0.05502511472240512 0.03457302412252283 0.01339634004044479 -0.1008433286867953 -0.07845432381854343 -0.04921342093072664 -0.2250277582550701 -0.1446625921502332 -0.1354966921955499 -0.053872596793048 -0.06239221167635986 0.1829015204549376 -0.02874954915876881 -0.06696451225060342 0.02919788920216252 -0.02081139126672858 -0.3385587561975357 
0.006519995862023098 -0.04988260723946874 0.01675031825479211 -0.01503987408773209 0.03342755578442207 -0.05121641836926547 -0.1559391730521638 -0.02909309597893923 -0.004667943291604165 -0.008148519043270196 -0.03045379210017508 -0.005679353081541119 0.0005428347264191339 0.03189276935151901 -0.03443655358658647 -0.4452898718966327 -0.1522976378095151 -0.259968148719832 -0.1279025963920628 0.06591938674721447 0.006171216099872156 -0.0413100324195573 -0.1289456529702546 -0.04218016997161918 -0.06622968175585661 0.05047251839540746 
0.03622183459934789 -0.1029457986048929 -0.07315742222151447 0.04937708663244911 -0.06865269870005772 -0.02152903158598226 -0.1062691649487451 -0.0957677017064191 -0.02479960724542402 -0.06652942949530018 -0.2009817801753794 -0.03218327721278385 0.1008152366231748 0.02979011627909453 0.173192577487393 -0.2091737854454663 -0.07062634614730352 -0.3365256514356568 -0.002511443633356428 -0.03650233834871094 -0.1115899221180745 -0.08218311203086601 -0.2872290992870884 0.03033158657138998 -0.1570933226855573 0.02907344259974467 
-0.02565351788806087 -0.107268827798484 -0.06823209038200198 0.0001403316346351743 -0.07991956020395709 -0.0285335641690995 -0.1238605021891199 -0.05286885547820275 0.02977001147143235 -0.05257009923042858 -0.03944076854845945 -0.05375863994363103 -0.0253806976954235 0.09073014262011127 0.1020923595863138 -0.1118039610674524 -0.1818336273455231 -0.2001218646734104 -0.06668539407869309 -0.0130778978506553 -0.1883597728574414 -0.08235495604245081 -0.259933117791369 -0.03828308464662931 -0.09633997870320313 0.06678332309549413 
-0.07393755437364617 -0.05704489112765145 -0.01234029116774005 0.02283176643208188 -0.1271207709880643 0.04181193404077153 -0.02790791857585273 -0.1814604112196629 0.0737709708267295 0.01482952117400022 -0.01255382375302523 0.000708195752264845 -0.10162435034637 0.005781099502898765 -0.02798723714404564 -0.6881848325710673 -0.008346609267682693 0.004040860010908691 0.04538109352363796 0.1058728391970825 -0.1184108058549727 -0.3834145975433909 -0.03677805927121285 0.01731002395841425 -0.08591886856694546 -0.1371676397872012 
-0.002494404261400984 -0.02202449104560334 0.028302321817753 -0.06002130118283356 0.1402558834247216 -0.0861401977502534 0.02460515731981472 -0.2374237321540361 0.1389849229945445 -0.00234537725913978 -0.05911706895050376 0.1863200508662726 -0.1349891584455204 0.04733090058032317 0.1332142050432903 -0.1156635461862907 -0.1065467852615737 -0.07010216535445114 0.03018616265379262 0.06195837506453868 -0.3980645819850189 -0.2495212451974699 0.006532954472610268 -0.1304964417442426 -0.1487792330891655 -0.1286041176126498 
-0.08205783538276147 -0.2129409345845317 0.09649220597702492 0.07933567549169004 -0.05289936899136197 -0.01248037476234977 -0.04395058311209883 -0.2541972857217557 0.04712347336984442 -0.09818396265949453 -0.3002201914129717 0.2005658698193966 -0.04507709429579343 -0.0960501722736514 -1.299384947488364 0.1167138658490963 -0.5015017068104743 0.1585879434014092 -0.1025197174296894 -0.03271153002083753 -0.2824088186901986 -0.006253340381592866 0.1246614466898653 -0.06706386480419335 -0.1639032721796709 0.1192617401053526 
-0.2381569906485042 -0.07171365906616242 -0.06196776715541103 -0.2309279494584071 0.03470330109185501 -0.0425348986724642 -0.2586892306565341 -0.06302229101906831 -0.1032194132038913 0.1912238289380409 -0.1714099648881928 -0.25571116079804 -0.2289013012588992 -0.1700526589522875 -0.2193293891473824 -0.1446751810421101 -0.2159331326600947 -0.02030961435348479 -0.2095498886331786 -0.1580073604723565 0.169610262620462 -0.185344681992684 0.1161868246624571 -0.04163205434908374 -0.1503991333941131 -0.4319179362992627 
-0.1049511289728443 -0.03714179632574768 0.04242771600657751 -0.06163511715287402 -0.001432935463460801 -0.0843890657034165 -0.2163798088438022 0.008390139846750029 0.009641287129453443 0.02253394931307446 0.02840483383475174 -0.0448548991253379 -0.2535701131163752 0.03692315270669484 -0.08098730841514282 -0.4719084612066932 -0.1293842002169895 -0.08151108914138391 -0.1947960947659463 -0.08082072568443288 0.01001917826564788 -0.1048245425024685 0.1281607306725731 -0.05169565198952232 -0.06888330157285763 -0.4319740387892033 
-0.03802816539108064 0.002327805628005122 -0.03706821471908886 -0.05856391880552041 0.06690024859690505 -0.01458639581699837 -0.1523021726350048 -0.1055211859870695 -0.1016662443582557 -0.01448400137847009 -0.01515418263640319 0.01738118428781191 -0.1223540069700495 -0.02180678559967283 0.02754462155762529 -0.1477681616983146 -0.0241702701661515 -0.3037204866086773 -0.1345010894407732 -0.08415993546538977 0.07762164824532822 -0.03879783228629598 -0.1385968948363808 -0.03662747970035513 -0.06954759112496339 -0.05007884748630033 
-0.02718277955011167 0.01103965056862507 -0.004286614892169096 -0.1068964661973355 -0.0206950592219641 -0.09450639556916032 -0.101442778934407 -0.05871240357762853 -0.1035584552669409 -0.09299318201223361 0.1176742201988196 -0.005884718056443396 -0.1663542493093752 -0.02108340913486432 0.03668985016962408 0.01057631158426259 -0.1289592825679859 -0.2698490073794079 -0.03805086435304497 -0.0399594889128287 -0.09161622892922532 -0.08340622967432898 -0.2275701405165844 -0.01293520429185906 -0.02885052477861095 0.1758934814584604 
-0.06103129949473901 -0.005367583400983167 0.046831099159349 -0.1647454262863575 0.07224698959623237 -0.02141205032322244 0.001124329497226475 -0.1267106398720552 -0.0488235771298421 -0.0969395019607931 -0.009500340790511616 -0.02151501187089684 -0.2229373343832976 -0.02073177300046109 0.1375090750262364 -0.06383936338543082 -0.01290231418354869 0.02647066277307111 0.08983267097522174 0.05332031219174976 -0.1069648681640665 -0.06665376344165205 -0.2682584812218623 0.0164174591944329 -0.1554102834791296 0.04392888076601405 
-0.03636231861028039 0.01408359096619163 0.03038780030535275 -0.1059775204716254 0.1185585463991137 -0.05544762935404437 -0.07743893491191889 0.03575913785722577 0.06305946335735288 -0.1813180760858598 -0.03399456034789085 0.03866565108956602 -0.1717879332648773 0.04687309172771175 -0.1066524456663866 -0.6081735762407817 -0.1546144661537225 -0.02788944505849499 0.1095142048023268 0.112549161272324 -0.2491996325587463 -0.195538888331649 -0.09512310452698267 -0.06652925083095559 -0.2018362967250691 0.04695958691177064 
-0.04752393459763852 0.05243698464581087 0.03409664884274323 -0.001014568835202564 0.03606781174869485 -0.03257692128824182 0.07656199030302818 -0.3005210332659104 0.07601879650562103 -0.386419009448185 -0.06098778252528391 0.1256888436677182 -0.09668186433050975 0.07028048011277448 -0.1226280164377055 -0.04989440050787682 -0.1442877936491496 0.0298988984263411 0.005330099047661215 0.09102345391872109 -0.4010298892626427 -0.3187587254969777 0.1427341119063241 -0.1620966891012886 -0.0971110398023837 0.02000515557070762 
-0.09427759008065564 -0.2997397227676457 0.102559812371508 0.223478128153762 0.02758798707440345 0.1096083327038338 0.03479870603725042 -0.2840356336030753 0.06537422246121917 0.0504060358380848 -0.5115521811926226 0.1504533761439543 -0.2716084078510453 0.04871195006700345 -0.9299209279637531 0.5185017055733291 -0.4889050368708605 0.08192085178342523 -0.0343383082957537 0.1670576038386539 -1.101219159233924 -0.207761731075741 -0.1440210669885644 0.001750437141624928 -0.1286993218144432 0.1129340788026089 
-0.09522588242578794 -0.1401525416329697 0.03887141736774834 -0.09697763390022313 -0.1982482602475063 -0.06714738458265547 -0.3617446670073801 -0.006688630088475003 -0.3112433964532089 0.1076265385428132 -0.4935194293190325 -0.1939253724242062 0.1386106826637967 -0.06278786133753309 -0.148671471758847 0.03682423833784524 -0.1423541980699195 -0.01896831172656514 -0.1376798794941774 -0.3589466590782537 -0.0155899913291356 -0.1907421417557167 0.06581814259515843 -0.1787226623691086 -0.03091080191071291 -0.5522829803574095 
-0.1753769122253789 -0.0348988319942159 0.02681009799449628 -0.1458203293697637 -0.04758013233235122 0.06494002604086008 -0.05240208505997391 -0.0003539354974943822 -0.1484257247336459 0.1682913368602456 -0.1583359555620699 -0.0322898126592736 -0.2520435390919791 -0.1441940125205397 -0.08164902199630281 -0.3756620154331454 -0.05145625567588597 -0.1250060517580079 -0.1239685655809064 -0.1446847962515921 -0.09330421050332788 -0.05507165895854869 0.0131313237028265 -0.07390784185707158 -0.07029138683666042 -0.3215771111075371 
-0.1269559080752394 0.005984853144159667 0.06912293698236825 -0.1704284638780111 0.06757910438105585 0.002101959181993941 -0.1695706672644174 -0.05043873006252341 -0.1234672020948309 0.01134050861413686 0.2183584082748178 0.1045702322838033 -0.35531659392513 0.006919669370766563 -0.03857051091005003 -0.00672114203373341 -0.01136500430268373 -0.2499150549942539 0.01787928986357427 -0.1113206945652941 0.109526222933765 0.0450073768768713 -0.07076118711639179 0.03495374654232862 -0.01604300001661122 -0.0875744607677607 
-0.111268960007471 -0.05602933585551771 0.03189150119070457 -0.1521818339796863 0.08722081827480459 -0.002625101130813613 -0.004168979878356308 -0.01059595995083299 -0.0576434409262309 -0.05978510423689408 0.04714329023816 -0.01539179470374162 -0.3264830690139413 0.01289923461305627 0.03199107944488892 0.2242602813905228 -0.05404714522598314 -0.2504814619944189 0.001947945267506273 0.06293736463186522 0.03546723965584659 0.05190117917921992 -0.1591122370079383 -0.063561579250526 -0.08428258651081172 -0.1288400699158066 
0.05185707281645639 -0.07190226150944394 0.07691822176069302 -0.2526196343877674 0.2840701906983115 -0.3416774048667821 -0.04728009339311495 0.06042581256683904 -0.1659897409885862 -0.1263009964351069 0.01327953236982056 -0.1024448365332541 -0.05265452404242199 -0.02221354482358028 0.05015787679869491 0.104474890003075 -0.1675684138788176 0.04399165244441295 0.004932104492912821 0.02144047192706096 -0.1299878541963906 -0.02318822343182792 -0.3190772049796955 0.002144094019583937 -0.03839588409240906 -0.01707351028002262 
0.08137918650131182 -0.03637114039617184 0.04668245643687196 -0.09714535601483165 0.09969732293254263 -0.1266703943907324 0.08679255701122346 -0.08568880371113047 -0.04355746986316116 -0.1143945840318664 0.02414535054524496 0.01764400306739999 -0.173593828380582 0.07231682672699845 -0.1566943318278184 -0.4278496435545486 -0.00216940442264361 0.06417279217905002 0.1257872472375406 0.01764752742570288 -0.09181489543624657 0.03880892468909547 0.006370380452668795 -0.1629745759707059 -0.05645831878740083 0.02603702974152798 
0.05542589938030202 0.02924006141771756 0.04447725900598657 -0.05067375001303762 0.09803699596615342 0.1282521830936539 -0.01540119386567611 -0.1169730992526621 0.05536385620517253 -0.5010076072893367 -0.2867890757095428 0.08462630810090763 -0.2272715007271465 -0.009390455141333069 -0.3492082039851894 -0.2792240239784944 -0.1695815945538601 0.04505699810681733 0.01161146968994172 0.05979301936001903 -0.3573791146790702 -0.1800507819465978 0.04030335142602108 -0.09284038878074573 -0.01424770945586509 0.09038908435577842 
-0.0915978632097917 -0.1255237451674897 -0.2759394100245749 0.3531565271635855 0.2169990067077677 0.2440986519371244 0.02075524968201291 -0.2807966241295938 0.05456875286760249 -0.344771037869055 -0.07019461037592847 0.1557988477002682 -0.8514295199641783 0.06848079351609618 -0.3309068958139658 0.3763614992070257 -0.1065776501188682 -0.01642877955691152 -0.113293380780965 0.06819799316507177 -0.01653134936400283 -0.05450806213155628 -0.006768594765316088 0.1431404200105856 -0.08268251714354245 0.0202684504872424 
0.07937441186005693 -0.1352347045627773 0.1325907662926387 -0.02123599799633341 -0.1969150403244239 -0.1361226743593366 -0.2873346457794634 -0.1968867797791895 -0.4404950713312584 -0.004040237655261885 -0.509626540582823 -0.1543295680016614 0.3004493881810885 -0.1531726171753859 -0.07452966438660993 -0.3687697989379845 -0.1629002241952383 0.1607176518165671 -0.2320994118130738 -0.6195922929458533 -0.5979300161737569 -0.02562784271030279 -0.1730786317594219 -0.2992863853397844 -0.1559038942595831 -0.02377573286294267 
-0.2418186517217663 0.03433399572893593 0.03348675900232212 -0.2487432840564416 -0.07312488430792986 0.1345616194203845 -0.1247306591289456 -0.177379291759487 -0.2597980658996658 0.1572106550623898 -0.1763988982818557 -0.12470703068321 -0.1990303310946302 0.01082612511596172 -0.1018321558366476 -0.1701966997963509 -0.06398376347329657 -0.0772613502353077 -0.1735653003155585 -0.424146136352922 -0.2076940253412089 0.05956665675395387 -0.1704255082166852 -0.1026785178128433 -0.05553073726406604 -0.7794466399662865 
-0.1020526759629965 0.1040470272134934 0.04744792451875644 -0.1783823170725786 -0.1893292094347033 0.08655173819862071 0.06245755540503532 0.03714156918107905 0.07432768766320255 0.1058376226231451 -0.0013300868457414 0.01387594024519026 -0.575697044106245 0.02460071285921548 -0.09667201919832566 0.1924354598240409 0.01712918042888031 -0.4173535836336081 0.03549835067457557 -0.09625034001357248 -0.05145578358464254 0.01334519950245662 0.05507493260288691 -0.1027869191762918 -0.004975849862207953 -0.4651791114814828 
-0.0009332726145557413 -0.08302616064951912 -0.06024436843379231 -0.4159779031083946 0.2028904287149361 -0.1366916067589808 -0.1065555144366704 -0.02609088976168614 -0.1816779458954188 -0.06714570230633621 0.1320375812082948 -0.03071187304309747 -0.3932296555777697 -0.01960903113597509 0.0932444796114465 0.1562727421818402 0.009493919869895289 -0.1410888899934336 -0.01143171582775255 -0.1799383535820649 -0.07415085860691076 -0.02333129163836782 -0.08041198983017438 -0.04442313147135195 -0.02616599211080363 -0.02949740260166731 
0.08946166883091607 -0.04277091540225471 -0.05040153421926605 -0.2304013113113156 0.2109274885371796 -0.3472862888415765 -0.02369641919713805 0.003977964840792337 -0.09267011878276125 -0.03353167472743054 0.03854882700911071 -0.08202271153122739 -0.4574733425264128 -0.04804796021279479 -0.05530917551982587 0.1194687447998991 -0.1007758404185784 0.00537839715677547 -0.01889842455956732 -0.02784283751975253 0.02435623926450551 -0.00867991246249364 -0.1088022271870406 -0.1436546515055161 -0.07703190714642535 0.02729525172936664 
0.1672123236362248 -0.01853144617536758 -0.007908501893998585 -0.258447640984702 0.00731211951137036 -0.1432086392602649 0.09671481677355814 -0.07374035570118606 0.01910235493693584 -0.1606468226654703 0.03178324358059652 -0.2122966078774505 -0.3859217912413908 0.1024149371049218 -0.1897009468270945 -0.04174039747398623 -0.1012655622126007 0.150665035040278 -0.05205511006309321 0.09210299504053292 -0.07132674245633135 0.01566393997309077 -0.1814590245033496 0.0309596213123997 -0.1157135263977973 0.03330126590301927 
0.111806475292918 -0.05250748169515847 -0.2807646458877427 -0.06361208533217311 0.01941408120303883 0.2147963118732813 -0.07045963932863634 -0.1192206832789053 0.07767458958917775 -0.3920686909511298 0.02322669458523857 0.04984766566504881 -0.4628959536548907 0.07818460412959172 -0.2816708165395469 -0.181600868870001 -0.09943850416512348 0.001033204576094645 -0.1698666589347838 -0.02458893811878512 0.09356471298154309 0.04925812151367438 -0.1235283196228625 0.0607520607504112 0.05979894026245099 0.0708105477154469 
-0.1568725363631704 -0.3776067370611021 -0.5241428697485531 0.4212331895322822 0.0251435072433482 0.02150797500879086 -0.02609400478514078 0.03317260404237986 0.05684932765216918 -0.5444375343097975 -0.3041749062395618 -0.1329975302984592 -0.1444165692502277 -0.1022377931410473 -0.2683191040859226 -0.1679058835377425 0.180257286622675 -0.02565353847214388 -0.2010816062664868 -0.08643097567223169 0.3444263596741181 -0.2494606493663665 -0.1362266806976259 0.05599007758573023 -0.05615246507163464 -0.2396368788264598 
0.1599166524789079 -0.0540583698492425 0.1131328725225538 0.03696960641188207 0.01585538406935572 -0.05724799173149796 -0.0903194364419358 -0.1191644399229203 -0.2649852475430398 -0.05796594115955139 -0.322968297345398 -0.288158025603881 0.7136194300462503 -0.1830707319306123 -0.1018598910292685 -0.004385475954732861 -0.1789092852689951 0.09261390493548298 -0.3280059374595086 -0.1531544258673578 -0.6132236823663689 -0.0220872451117297 -0.1280914043066565 -0.1850482106939972 -0.06734243083957932 -0.7618934631201738 
-0.1065136034885396 0.09847732004204598 -0.0442100920458265 -0.1732470488533655 -0.1706581106841422 0.001360479425954947 0.01656451218064669 -0.1312051796393276 -0.2900167619557964 0.126524911331932 -0.09603309765605303 0.03035023877170864 0.05459320199269205 -0.08916620891325186 -0.1465606104915619 -0.1643165018235884 0.04437697618384225 -0.09804397961606726 -0.04209568201371826 -0.3025264269538214 -0.3712716984651069 0.001219249009995355 -0.02998487818076272 -0.1898152531512266 -0.05471385530146988 -0.4701726214128793 
-0.04389250143894668 0.02017711943125819 -0.1234340155171275 -0.2794006031325523 -0.4573754279793659 -0.005192595769092499 -0.08367144797486638 -0.02469569420276859 -0.1786219292957091 0.07736867164361746 -0.07782192549784481 -0.1517934727411186 -0.1409106131815271 0.04849772548032105 -0.1199383304068691 0.1585076173606363 -0.01488327404871618 -0.1986270101110658 0.02491943841320732 -0.2646067288226317 -0.348526738886336 -0.02794536256446406 -0.1151917335267724 -0.06705088655696782 0.0445030684875599 -0.579853505466963 
0.03655463128658171 0.02433739165215001 -0.2117611167490339 -0.2613008934454869 -0.009471274512006075 -0.07926348269126679 0.007033577568000396 -0.002129600026014564 -0.004001640344328925 0.003823255852458209 0.07556499760016998 -0.09044392931301744 -0.3401639268481069 -0.06645855695357782 -0.02112780267686951 0.2995533017240773 -0.02863586698337669 -0.2149183831551021 -0.04721884073947042 -0.02056024913669506 -0.1245785460834136 0.0777644594135936 0.02709596764237673 -0.05084528452464923 -0.01608464744963616 -0.0280189852142874 
0.1090661270891109 -0.07178144629695753 -0.2512947819734443 -0.2017915515619346 0.1502860504229505 -0.4246438313451394 -0.03349229482700769 0.01346468199558331 -0.08495339883367331 -0.06169548934303484 0.1749846666468527 -0.110243907810639 -0.2907665495076412 0.03574519261316925 0.004480342389482757 0.07384312731297347 0.0490980640697773 -0.01383456202803419 -0.07501885401076852 -0.09251018241589483 -0.1764571617112001 0.01337168122782915 -0.02096468816497215 -0.04139117404483379 -0.06536282912984384 -0.07212320633024195 
0.2065279253537608 -0.09319139642486894 -0.3476365164484674 -0.07397981826893919 -0.2642445329918361 -0.002732877995081965 0.03584635413847563 0.02702325481613561 0.05332435219312665 -0.126421547144876 0.07093393501389353 -0.1862312916220358 -0.2228005684426216 -0.002361202728711315 -0.1151048604405584 -0.05621684694860803 -0.1222595615518666 0.07948084818222544 -0.1984130696157032 -0.09716638992786747 -0.081068915190636 -0.003586862682290733 -0.1620131345751224 -0.09654735170699499 -0.05917675722991712 -0.07832215973064734 
0.03758409879707271 -0.1346954202845033 -0.3352608391431104 -0.09695807233332376 -0.3749468679901484 0.1076359169015642 0.02000384242616258 -0.08803045678818867 0.02523107066026803 -0.1543550771982876 -0.06365943586369685 -0.3041680276454687 0.01774578926950072 -0.08196329089329184 -0.4295192658141215 -0.2148738666070568 -0.07236346332289249 0.11578663876113 -0.06445791322245424 -0.03138771249463451 0.1886690562320201 -0.1304158324054858 -0.137949529615919 0.07015723288890634 -0.0423102609060362 0.08201420599011866 
-0.07303652561449295 -0.3406170927375701 -0.1714593469260255 0.05724490681872735 0.02447903494040951 0.1521678004813883 -0.0410149382430922 -0.1412102525944181 0.001500358705155764 -0.7154736032309276 -0.1630505604657847 -0.3905476916283402 -0.05851141032345969 -0.2500712183750119 0.07938073648535104 -0.1966807336388549 0.1718769449150154 -0.03056739345765725 -0.08942774967941672 0.01799386377466559 0.2119144001010163 -0.3158937256777049 -0.1847974254522279 -0.08942800868660412 -0.02411029711041677 -0.06162519323375007 
0.05024577539066445 0.08274394656682067 0.01196434328503965 0.03486371886461104 0.0224366090348107 0.008098711597628075 0.0628204410606603 -0.03404014118539768 0.04356324979468287 0.1338001716991091 0.190989880404224 -0.2760559608463914 0.050712967898979 -0.1560379305877124 -0.007560532482140305 -0.1263280043233855 0.05467597074613661 -0.03090555029730011 -0.01182128163238093 0.01359162271850256 -0.5462100030598782 -0.07580048969627418 -0.1615862889332841 0.003200299787202356 -0.1230852526504061 0.2053862809662068 
-0.06745092157341152 0.01993665077217559 0.005528909609922964 -0.03434308009311959 -0.1868882018099004 0.006483563344783584 -0.03364243190962232 0.04095275232992209 -0.1867028525926499 -0.03875116135212535 -0.05203071634008843 -0.142986992299687 -0.1359566379198451 -0.1101186581950537 -0.1834270624743375 -0.01258985311509268 -0.007145171296043754 -0.0297797288516671 0.04022342803641311 0.04712827826129965 -0.3266471490554274 0.03926077345469538 -0.1516512217379935 -0.1745628769500523 0.01153283298795174 -0.1053045488308719 
-0.1022162223928021 0.06930076856898723 -0.007638792526521272 -0.06058822580096028 -0.474742788114711 -0.1289366366762658 -0.08576696586615797 0.05978154249379788 -0.2149220871649241 -0.0007483759919141852 -0.1717196044448637 -0.1797943724956919 -0.02968805565026355 -0.1072747976013292 -0.1950187096416823 0.02523289243685625 0.08803049392390523 -0.05540221852339605 0.0113892090273258 -0.05016698499301359 -0.3852183552359556 0.05867679062134216 -0.01855917830894372 -0.2052162623918657 0.07239736140876088 -0.2735940004387682 
-0.07414230225014441 0.02738759595134785 -0.07454725961498064 -0.03245706333064681 0.02209182787042672 -0.194782650922097 -0.06985391826381103 0.03727942659878736 -0.2342381021852355 -0.010823381610207 -0.1036757297213984 -0.1602506306555557 -0.008215358421794987 -0.0529550776851036 -0.01210161682863679 0.1468565639209752 -0.0697243545956969 0.01266323747259091 0.05353123968671201 -0.2090279647966701 -0.3169227111812351 -0.040301210509734 0.1136790688868454 -0.09233925625415391 -0.01098628281809285 -0.3429445277277463 
0.02560526527185899 0.001685753689631844 -0.1045845037576571 -0.08148223290669328 0.02328052966380634 -0.4168113493583734 0.07051177210824879 0.08610431104115424 -0.1066284372228474 0.02008411675194642 -0.1131508799582095 -0.1778842749563994 -0.03932840339849802 -0.06637257446742925 -0.06861333218465542 -0.1004810866962011 -0.1287521735523464 -0.1194497161826693 -0.08078649553150098 -0.1263389570626989 -0.1234828521540043 0.01511683976240064 -0.03960602637803415 -0.1360963367896985 -0.03227337634567524 -0.1601638997482349 
0.04167641700426226 -0.01516201977636367 -0.04238290032838894 0.03085452755036714 -0.4771742304877742 -0.008940132431591287 0.04979804247693403 -0.02725230859792472 -0.08476459143853687 -0.07430066291983478 0.004920165192146687 -0.3244639935887924 0.02929808355697426 -0.006635792412471545 -0.2070226175639034 0.008524033706755469 -0.09556970148773081 0.03717284142912498 0.009634790336215468 -0.2111761050811288 0.245504433458676 0.0181399953147776 -0.07488571477482969 0.0166566440423164 -0.05272420030656954 -0.009225915716071816 
0.05096439103336246 -0.2287736397119835 -0.03844422789349831 -0.08290881105206797 -0.08848172629844132 0.05000063695160963 0.09036721917401525 -0.2020837156003393 -0.0291192429123986 -0.1672522326372378 -0.03924023889087646 -0.6791941350966794 -0.0005628034804551086 -0.1416516737295738 -0.1002448089512857 0.02626495140973611 0.06824112629330061 0.05672592691336142 -0.03179742728332991 -0.05438776443612366 0.1977784619006945 -0.005191164413800554 -0.07507026060259329 -0.0483110113273494 0.02854361486427835 -0.2204679682492399 
0.08354531162574173 -0.2490444783773395 -0.08048878814532523 -0.1778399827020762 -0.1562225941047695 0.2444169269876683 -0.1173615777964328 -0.1026174842398237 -0.05172260332418799 -0.9138321725405244 0.08096447903152611 -0.5527443442696921 0.04340566705682567 -0.362625532592777 -0.2049653275072178 -0.2073768480735304 0.2254495570516064 0.04885793679657356 0.003084646012560933 -0.2304149256296515 0.1640435418219168 -0.336823121155078 -0.1774843034639338 -0.1754915243764305 0.01461953759360002 -0.1027209234163957 
0.007257162576708446 -0.0638220313699325 -0.1271308137707662 0.04491205342786815 0.1232409143696708 0.09551714706849798 0.1887640888717875 0.0473080380703146 0.004200630449056157 0.03300864458317779 0.0760144675062879 -0.05814336282234758 -0.05888558534305241 -0.1589473896850414 0.1115038300743623 -0.01943508460307405 -0.06183772267116798 0.04542179683593763 -0.07276157109452021 -0.09455080282624592 0.1926420738613668 -0.002646653716732645 -0.1430535349078054 -0.1147300501226967 0.01357838294202034 0.3343458513513856 
-0.01378093055441539 0.1157454639434812 -0.07965510518975236 -0.01565214106718903 -0.1603912123276168 -0.05076617691815487 0.07469370369526133 0.08987809201055 0.0200898329736309 0.04653062235800796 -0.01165772633759051 -0.1620688404072237 -0.08729236227149313 -0.09527208336534289 -0.08558566137672445 0.1078918098652488 0.05660871595257971 -0.1487272676999569 0.02130741264523967 -0.08531901751073255 -0.1191637732150713 -0.04549342554201376 -0.06939161140635675 0.004134003444507432 0.1382816880875724 -0.1598120708219827 
-0.1238347142966878 0.06754820940761302 0.0008795983774072241 0.02430704616093642 -0.4737415311713324 -0.09580972320922566 -0.02101461474867302 0.02853769401799015 -0.1910463417547414 -0.06111470486574398 -0.08391808784390595 -0.1665089158776628 0.02246943850344203 -0.08377217032027702 -0.009356880357053775 -0.07718305735839184 0.03638942911074665 0.007903821906707322 0.04358580531642194 -0.07894593549653328 -0.1181465051602169 0.04222472486556907 0.03664676175324492 -0.06765366680341263 0.04590033079391821 -0.3452440539312144 
-0.1295630745809019 0.03704294705019191 -0.02154437007988546 -0.06964872267047365 -0.1155921603027223 -0.4288278743304034 -0.04181479622662371 0.05592113507147907 -0.1961342267103044 -0.1114674570516663 -0.3300730126824673 -0.2664444550938257 -0.04715442008319576 -0.05540010970304741 -0.03457314921266157 -0.119069234630649 -0.02141409506168944 -0.09427022797428336 -0.05131355178363507 -0.1935337572386412 -0.09400036770074674 -0.006900325824264255 -0.009409860715493972 -0.1995196542556141 0.02606637326737354 -0.3849950172220717 
-0.08140908274460819 0.03434186139202832 -0.01341725424615584 -0.04733598566958267 -0.2641663949347841 -0.4989765993340644 0.03060764973256091 0.05042224849382189 -0.1950428646276301 -0.08232772664955859 -0.09090153797560295 -0.3141477687705169 0.0162183826258488 -0.04586250052146482 -0.1165822912606847 -0.2196755981396852 -0.1081739137903881 0.04299464702699612 0.0061857073412932 -0.1586230063813965 0.01469133450275802 -0.1150561567152164 0.04824127849828865 -0.07125310601162944 -0.07793480808236027 -0.1670196361506637 
-0.06748158837172712 -0.007516434663141549 -0.008071166846092066 0.04549581949532833 -0.3177608275420887 0.0008756161289461021 0.1788168988189841 0.03723341291997675 -0.04663901957852174 -0.1803675581364315 -0.0534793275850951 -0.3223891976284668 0.01737776551909393 -0.07471477160589464 -0.1418051780546349 -0.02169718860644069 -0.05559468679891221 -0.04444465150739075 -0.06189796941129283 -0.09214097483242469 0.004910633338326423 -0.08755460649222116 -0.01340052077643212 -0.1080206499280756 -0.1123394291426039 -0.08645335609479475 
0.02663844554900816 -0.1458451859019113 0.02510907753668879 0.09784780189958528 -0.1673507108712087 0.03836086062667739 0.03854932366896691 -0.1039229722238885 0.02065428396993102 -0.03888846019207864 0.02755935157426158 -0.6367911923711882 0.02845301124522071 -0.1227511984717777 -0.2656766135360056 -0.07605691140620305 0.176198964553153 0.1043669172246693 0.08715563284453157 -0.1006511442260543 0.0886482178995996 -0.01414713651077735 -0.1660573904524439 0.08256633706812511 0.06470814279329715 0.03243849376840749 
0.1219933260469165 -0.3175135011008368 -0.04415229793524323 -0.2592639954918828 0.01209619597691728 0.2457885744977145 -0.1325175173322484 -0.05997743162012167 -0.07355994745711099 -0.890382273905942 -0.1053683801430462 -0.535691114016514 -0.01421112834351503 -0.1777910582105218 -0.04220006989913735 0.1173162027485021 0.1957431283459031 0.04882359706599902 0.007999834981762703 -0.1256448791688733 0.3321188452108615 -0.2019711514783487 -0.1079813513721991 -0.1816601410209617 0.06701299789161784 0.1521205280315361 
-0.04553221914236746 0.1214408294323752 -0.1288154254395543 0.05696501835808013 -0.01423859803135413 0.06650646708421944 0.1293410770052805 0.1013403527236154 -0.02571381663272948 -0.01058892418974686 0.06719695447575944 -0.1788662614462396 -0.1830885178839024 -0.2009259455759528 -0.08749731595877963 -0.1316913212299332 -0.1375394353449987 -0.09812666481437607 0.01240865861941704 0.03273797858690421 0.06108338842636635 -0.4566586880292243 -0.2327206442133414 -0.03945916743015438 0.01510102990052529 -0.09192324810740113 
-0.1408352326219804 0.05011479115656466 -0.004242019842162402 -0.03826616770745369 -0.02822363268348898 -0.07088728016074679 0.09768996863312161 0.01062063834222874 -0.001052509685030611 -0.1151461838860483 -0.02955225772481137 -0.04376755499987131 0.0178815791894152 -0.08713119064535677 0.01092269188873727 0.007901430144722929 0.06784562357268947 0.02860696970662828 -0.008526388692525821 -0.008095283582749727 0.05870843848209882 -0.1812302574792845 -0.07143591362731357 -0.1241412862874267 0.1088913228793288 0.01113120580937082 
-0.01135745066949027 0.03433419584403673 -0.0345396601612813 0.03184653422568427 -0.3900217020792435 -0.1241926725014201 -0.07587177707977187 0.1529707791803864 -0.04373575331023143 -0.1324856513855221 -0.1943447516301913 -0.2210487357132642 0.04837102715307934 -0.03116809554505941 -0.05041131681366901 -0.06635605420827127 0.02736813542806949 -0.01018663518733115 -0.05552901854049394 -0.1465137587356872 -0.05770950010636672 -0.2650108992572171 -0.06452775271234837 -0.06761669109379563 0.05268351961488243 0.01676865657983335 
-0.2016830026154796 0.01619629562840365 -0.0332072224055515 -0.04915112905624863 -0.4996331898488203 -0.5288183704023998 -0.06973797479231446 0.113846281594539 -0.1151212269652115 -0.1107846376625242 -0.1884663282140884 -0.1882566254747283 -0.04950455748933923 -0.06138018752682379 -0.02134476485248778 -0.1589709397014449 0.0439193943478503 -0.1241316198759952 -0.1250254307501623 -0.1567326333805377 -0.1908767852699469 -0.1180295032584119 -0.0001738414143715045 -0.08488451610526491 -0.04299390974566446 -0.68236879547481 
-0.1293456880193514 -0.0299598438889511 -0.06083446410218209 -0.03932768677910117 -0.4669314986716076 -0.3360427810392825 -0.003937906265861952 0.09285552587691914 -0.1604375108033019 -0.1478936318439392 -0.2347574542081027 -0.1080945057805936 -0.02978043125800338 -0.03345874737741718 -0.06092966429976347 -0.0539871313626088 -0.1437083360665975 -0.1226149018343619 -0.08849282314446597 -0.1839713563911112 -0.0467561443360773 -0.03486138550731341 -0.03478476532597585 -0.1361772113856061 -0.1004299870449392 -0.4756715930209305 
-0.1770710178371325 -0.008832208239059728 0.0471892698826555 -0.04138446812198171 -0.05821605866721762 -0.170686573854773 0.04419706792237517 0.05992518689838947 -0.08706207157024244 -0.1439510105149784 -0.08603256433870643 -0.1245117360181388 0.1097448888321574 -0.0173171491290635 -0.1140978999041995 -0.1552597391986769 0.05354858034177311 0.07329397753605202 0.05481524464026937 -0.1870061551453719 -0.04052610538240946 -0.06265802787716929 0.01070421841904171 -0.1185606690615816 -0.2272928182381075 -0.01410521317261617 
0.04199577590690562 -0.1218237694120396 0.008519423418340564 0.02743088525168874 -0.01585020388195952 0.08938569954752505 0.07276382167621188 0.1256534441856649 -0.1176919061949345 -0.2991548569429677 -0.09218534799605857 -0.02998124816618296 0.03061253881545542 -0.1266699660626172 -0.13634640873636 -0.03543986402660176 0.03819194378367243 0.01802948916436466 0.01379859650209707 -0.09442616859970439 0.08197464926930605 -0.3366295014163415 -0.03154552425552109 -0.287464124173514 0.05066850277396039 0.07228779493639152 
0.136685318035309 -0.0498555634288108 0.03102403055452124 -0.1861352372487964 -0.1021648257436426 0.1403733107944437 0.07563920097219232 -0.06164565417623645 0.03770469860535501 -0.4735785756096629 -0.08652720685950847 -0.4808015714585158 -0.00330353610403702 0.01378225355582273 -0.2804341411459316 -0.2576112029978198 0.09675045797997994 0.1082394354527253 0.06389197105186638 -0.1010148267556527 -0.009903618033660895 -0.06153119910664747 -0.186500075655181 0.06270501595923443 0.1114958543495161 -0.07346904626694904 
0.03704025012625589 0.06800506807090009 -0.1849834250413326 -0.04889221880579317 -0.0539660429830785 0.07860699752007283 0.1853660006611761 -0.06501988476219388 -2.107061617571872e-05 -0.009076975168399466 0.04310439711486117 -0.2056755111358613 -0.105554207959346 -0.2772637232692098 0.03181784278860759 -0.2388709594278835 0.04036931878274701 -0.01418079633505535 -0.1360962181558691 0.005634261954052292 0.07800041895372149 -0.2353334033116901 -0.04187556757230909 -0.1630214840762535 0.1466930074638108 0.01721839135663791 
0.0306997788763106 0.1445147607425301 0.03826846833526922 0.1200466869700448 -0.1181627197370316 -0.0853279962255882 0.07133830484147596 0.08719347006611962 -0.01460602558504427 -0.1103215418548542 -0.1123071193346034 -0.136796654838751 0.002045594243771329 -0.1435957093259387 -0.01239352281179793 0.1308461117490693 0.05321864302945944 -0.0356938531171189 -0.006791818514738781 -0.07913658614357147 0.007359981568932961 -0.3639311517044547 -0.1316906678392865 -0.07838732316694622 0.09536273852631362 0.0109630285148627 
-0.06086725812472915 0.004159879386953265 -0.09460718421872111 -0.04008721475072617 -0.5302955660122419 -0.02993678392628115 0.004418427798813053 0.0815990886736021 -0.08367248426746589 -0.03508291177235773 -0.1505884071957477 -0.08641939510250223 0.03332317460498008 -0.0559316406353958 -0.1465966338991724 -0.07878052243840447 0.1633808426261387 -0.0838176216182437 -0.08702445953988076 -0.03437856291737516 -0.01962132406835067 -0.2165120960484196 -0.03704633031227173 -0.1757629172767428 0.07841967392054916 -0.05057780888654373 
-0.2108024846323062 -0.0898043448517037 -0.04902775312592346 0.008198307301731392 -0.2516626185296101 -1.086799298561897 -0.1238175657281212 0.09722511391073303 -0.09920254822111983 -0.1624186726336274 -0.0998083062442028 -0.1702986231275395 0.01758089929750228 -0.02608239857618898 -0.0393458107654736 -0.3444279119405435 -0.09922742788308982 0.015774574584835 -0.04809580774770572 -0.07044452279820017 0.003287297323694475 -0.113140541062577 -0.06430245417206536 -0.1076279774628672 0.02484965215782381 -0.2520213988971813 
-0.2091553564780101 0.06396447148550403 0.01843678519007595 -0.05873659655255108 -0.1553124058510372 -0.1267927971318041 0.01484144690973954 0.1143833330876373 -0.04354348040173058 -0.2202842174682138 -0.4187909303141938 -0.1730616363773234 -0.05809360356399512 -0.02759527638478189 -0.0815276059864366 -0.1353402496962909 0.02751483716609821 -0.1365294410261642 -0.04665180640342195 -0.1468925640787026 -0.281458898443565 -0.1413841540074955 0.009975521350506925 -0.1855629928056665 -0.3764702616086542 -0.5490491688694018 
-0.2621442868767957 -0.00529694056601279 -0.02274744157418358 -0.05412865026078382 0.02423015346087039 -0.08089247398064513 0.1834123118757892 0.08245157732358152 -0.1341318648702386 -0.1067230058451514 -0.01022729406521026 -0.454987098453506 0.008605052624460057 0.01743382850142415 -0.1650289252422698 -0.1175124928433649 0.002547214079912066 -0.1084583133050774 -0.0529024499388322 -0.2179076363697068 -0.01500463161594185 -0.2269007228625525 0.02387997903687759 -0.0008416642001634811 -0.2587435821048779 -0.2363764791481839 
0.05103530785231705 -0.06736249043536516 0.09393615882167829 -0.008630146176075921 -0.2553287786901257 -0.07867477802813477 0.03438491137081277 -0.09201044419979204 0.009550749917162968 -0.2537738742910646 0.02339448959718901 -0.05907826009762839 0.04754451813043137 0.01717243238526496 -0.1160344373869743 -0.2913003678890093 0.07299433860070458 0.103460644608873 0.0768824665785714 -0.1938377200281786 -0.154817574349284 -0.08228881137700246 0.0435426889595129 -0.09592922179560193 0.1396808719311645 -0.1157619369457809 
0.1262899736151043 -0.02741606411225753 0.01800359918296396 -0.2557919872942843 0.08238940004490641 0.1366827904800438 0.005166305669625284 0.1025303263088731 0.009678392863814996 -0.5183965985327097 -0.1027902301324855 -0.1835027461364284 0.121520883416645 -0.05493036091279517 -0.2679464667594865 -0.7227613751290703 0.001256639368402007 -0.170822210617858 -0.1140145140216135 -0.1466953358860589 -0.1513341670475616 -0.3149234982291951 -0.1983673460861528 -0.1003952916178894 0.07107841923779577 0.1098065825731049 
0.09367243049024468 0.3944759788563266 -0.1064894278223956 0.1611078620535666 0.116529499257253 0.0219533617296703 0.1235733192069891 -0.05217632919451855 -0.0354023822769802 -0.1098378232583479 -0.3569955558188077 -0.03854416192487792 -0.09003120119428662 -0.2584447194782253 0.1284278401887987 0.4476821476835993 0.1857510848158058 -0.1781457482372132 -0.0186492489933299 -0.02292287968490793 -0.04028589664746045 -0.4515879033174969 -0.0856711666911764 -0.1444128176592551 0.1192740535173599 -0.1594269264676635 
-0.09854660129063962 -0.06412897232441159 -0.02003053004692927 0.02956486735751837 -0.06689569175010136 0.04630182342582895 0.121078951539049 -0.08581455820003006 0.03229233673436654 -0.07863445517468137 0.003833996045389467 -0.1111961465404334 0.05055529074836668 -0.05707753590340983 -0.1205329895955853 -0.267782208088599 0.01923899967578611 -0.07567009375500659 0.01797537817688825 -0.03089241367946116 -0.005975595876664084 -0.2313076820008322 -0.146998005265441 -0.1562735879515854 0.07191074958434437 0.04745686026629014 
-0.06472132010036023 -0.002920030214157716 0.04350655335203367 0.05939932113333222 -0.2123587414097005 -0.08876626657076464 0.02747163258410396 -0.0271317145280006 -0.003327308730981865 -0.1076040174064173 -0.07696402069604033 -0.07746744244300298 -0.03685273143130362 -0.1231471624565684 0.1787663232265278 -0.4107996541693363 0.1286301230852181 -0.08653972727311221 0.02839046865358745 -0.06705640662228747 0.01205389935786778 -0.4386785117553828 -0.06302771772478163 -0.09266455480137904 0.06875681962043033 0.04264179855303416 
-0.1252602239404358 -0.002132563563910948 -0.0753054126437981 -0.06461803772325567 -0.4437201081753991 -1.071654473085584 -0.005425299486609181 0.1045571694876479 -0.03011227885149251 -0.2297593283518051 -0.2422649228403062 -0.1438228859274848 0.01648954226474221 -0.02725153909606194 -0.07254213040344031 -0.4054863948436161 0.06128484341852963 -0.05502183843737054 -0.2390376639917045 -0.0448416001655312 -0.06426391206908463 -0.1926565095001358 0.01822954569328565 -0.1150420309633072 0.04953174762101874 0.4141772334353406 
-0.4182721567281935 -0.08179667368138747 -0.1485023086937109 -0.05519566729607157 -0.01305786302373078 -0.493833995077798 -0.03247827457566739 0.04878110814154448 -0.05205966135053499 -0.07950930284859296 -0.2677195707604542 -0.308973090881729 -0.03726971368693009 0.02871243194944812 -0.03999012552965325 -0.4346372864380582 0.07231152827751008 -0.01352324239027113 -0.2554452955333855 -0.06223515435972015 -0.02157947002783873 -0.2981299180397693 0.02246790157185193 0.01074287699023312 -0.8572370302578214 0.3114965668238005 
-0.1883778570170802 -0.1642677763851275 0.05021643205724523 0.01614401291907548 -0.5205324359549887 0.04961817433419186 -0.01539635271053109 0.07305828847598436 -0.1314270760599444 -0.1495680101994041 -0.08999225687085796 0.02540292096212876 0.04498724608633137 -0.06239807072878269 -0.007421194894711549 -0.3364287308307529 0.05285139849023861 -0.1408759577605366 -0.1049997395889766 -0.1077134408696304 -0.2051176567247833 -0.1371310209225138 -0.02927043293391352 -0.2685272444951831 -0.03064489803943538 -0.1270591954403726 
-0.2591689049877427 0.0097418957911556 0.02596368822965326 -0.1501926907059939 0.25055634593786 0.02802902012882869 0.1440444824211738 -0.05138242599655769 -0.01049905650129671 -0.1774832402204623 -0.2235142255181752 -0.3967553427519221 0.06030285565724583 0.01606729501013102 -0.1186949688456028 -0.3550864294943464 0.02517962457772387 -0.02315223157683353 -0.2355141870244856 -0.2408707598678716 -0.01567016465539368 -0.3118753515696157 0.04973463936774568 -0.04738511982160383 0.1200374373747819 0.08046489913152528 
0.02815137288620398 0.09910222260814427 0.1115405414774526 -0.09594089300841528 -0.2684596300586281 -0.0943967860647868 0.1379248258512752 0.06607478290266267 -0.05732133434392095 -0.4339580956957782 0.03008839393719422 -0.1723250968237959 -0.008220062352799644 0.3236478531126287 -0.0783995585777717 -0.3005537099037848 -0.1726475175916365 -0.1322916065747937 -0.1098372107111287 -0.2171661089481993 -0.05412812667859387 -0.4775200329952961 -0.01614173284063487 0.1180910136235213 0.1808091509427358 -0.01603349000916507 
-0.05484535303046583 0.2886839003903126 -0.1439463511891507 -0.009790189911576489 0.2681237659877702 0.09168331282313258 0.105229716251496 0.06904844695885171 -0.006157313645978227 -0.1968103927139803 -0.02820208566546895 -0.01800939283283914 -0.2599435318610506 -0.2198588123012972 0.09750828481135394 -0.6886516677466129 0.256486781944802 -0.1099293094498175 0.005236455733387144 0.06913397695696832 0.217233034053311 -0.6412470553923495 -0.6178334438996991 -0.1419794835784453 -0.0168966616407538 -0.2896037316335998 
0.02471859781730764 0.3521629757237286 -0.1824774024592508 0.1753053452621831 -0.1348025640567307 0.003609426213533135 0.1940036543157682 -0.02160293117364787 0.02464485626803974 -0.1928616551131497 -0.2607149892938666 -0.2142995976779664 -0.06748503982228604 -0.3520270262770308 0.2919815265308955 -0.5480910338155368 0.4014345365581217 -0.1839977064613328 -0.05054829510250198 0.01250245898917658 0.05470562392392193 -0.5555969908745886 -0.169825706918668 -0.09296559835730286 0.2340642356637076 -0.1186332998380841 
-0.2121612144149611 -0.03278111551080892 -0.09607246141535916 0.007404429617525309 -0.05882235609348919 -0.1932499214455186 0.1986973206750188 0.007937232738195868 0.06170262987131569 -0.313544542951287 -0.2043981097801436 -0.2161610516077451 -0.04320094007089035 -0.2869601292612101 -0.01535351351122035 -0.3869114251419119 0.2530933402450767 -0.0582848012288054 -0.1664137176857889 -0.02580537384737515 0.04453462792238507 -0.2732222925070054 -0.2369641303806459 -0.1066223532805698 -0.04446454281302555 0.3799023056448398 
-0.28871710503392 -0.2950623492395083 -0.02054065370454265 0.0434820858678835 -0.2082961301958988 -0.5818638303385713 0.1466607326857821 -0.1115523260605528 0.09231624555466895 -0.1575336543472881 -0.1183768138388895 -0.2571946976753215 -0.003738108405550226 -0.06478082226997518 -0.02263864316231844 -0.3451289956921318 0.270033254523265 0.05608936590939296 -0.02455238357558039 0.07688715671791152 0.01573676155552025 -0.4400467963532094 -0.121834550883475 -0.105984739662652 -0.6352740710804007 0.3313050982637286 
-0.2832291368658786 -0.4202144938701755 -0.02295205397425594 0.006188419254905705 -0.6406100839249241 -0.6277864040447934 -0.05515822853609434 0.03003279386639969 -0.02865075442070458 -0.2304594815493677 -0.314585677714525 -0.2239807863001245 0.05006737880733871 -0.2457197500272585 0.03905936204876984 -0.3787032547863426 0.174140215701063 0.07704503681684735 -0.04536094067067978 0.04108874186103118 -0.08081924921526595 -0.3014214324761554 0.00612111799681189 -0.2032269857568796 -1.134111779605222 0.3124720417459094 
-0.3224932682910796 -0.1436629712499718 -0.04081619079338503 -0.1374591990988793 -0.09160364399881205 -0.3438568367623578 -0.08772252501879317 -0.03520648573749021 -0.08060859001643882 -0.09878121062008884 -0.695513935016543 -0.354848373758223 0.1400847055233294 0.08398507606317759 0.1144909898344611 -0.2654717829786984 0.01667378106320289 0.04806516455356867 -0.08197647357698651 -0.1066449868222249 -0.1713428091049594 -0.391601945723245 -0.04216458922535599 -0.09550670997069266 0.4545012818964982 0.2253535644726142 
-0.1884052152562682 -0.0846532369008874 0.0519510386280096 -0.1607644616402045 -0.4484652724455142 -0.1553954579026175 0.005338467563214204 0.05977538550306729 -0.03096725266982248 -0.1937901053409844 -0.3809482723290719 -0.55426435696275 0.2899756754374537 0.1733690303913233 0.1535919713014022 -0.2093529627578877 -0.06027698503159246 -0.3757715030728818 -0.1775680722518477 -0.01739116067978971 -0.2157853384007073 -0.1960149734098543 -0.1542724980949858 -0.06312220297175128 0.2572256823823831 0.07618581958275328 
0.1402432639025576 -0.02061308786726032 0.4222506608297174 -0.1925153916520573 -0.296467060162895 -0.08312239016311765 0.4086132726114756 0.05996859162343214 -0.0109831025119067 -0.3530645180550541 -0.4832007499646174 -0.141323660996947 0.290143541789382 0.174808705844554 -0.1352755582879489 -0.245303544679394 -0.6005339243511768 -0.1371745401388851 0.06005181082600073 -0.2450233778791717 -0.2077164515551155 -0.08549577137811784 -0.5707725125312836 -0.1277384699144662 0.2992741332232052 -0.4821900468794891 
