solver_type L2R_L2LOSS_SVC
nr_class 26
label 1 11 5 15 13 14 4 9 7 18 24 16 3 20 12 23 2 21 26 25 19 6 22 17 8 10
nr_feature 128
bias -1
w
-0.6625544872711437 -0.1588804184094428 -0.467074093913608 -0.004307616475285703 -0.5344631552146581 -0.09504963284385229 -0.8349793714369911 0.0640073920435722 -0.3976887096547466 0.1026058352378765 -0.08952566986549351 -0.07402015199938568 -1.070691469789886 -0.2506553322763124 0.2507135046561353 -0.4622961551802826 0.08183942004648176 -0.156743500697647 -0.2243733231039041 0.333315013326801 -0.4900359904912566 -0.3995553730563941 -0.1370313332483079 -0.1856418182599177 -0.2458145797437517 0.5969345942584657 
-0.4483430036164092 -0.2105745760409805 -0.4754336541242073 0.02792018374031306 -0.5160493087371785 -0.2952194750620545 -0.7112025855739422 0.4334527600136451 -0.1951903978701504 -0.00270582566206269 -0.0192587316183696 0.1212373571553738 -0.7777381399387207 -0.3487074098067837 -0.1577603465999513 -0.2113625855750933 -0.2415467365437584 -0.3120384509017012 -0.1439739484494713 -0.003174271940835359 -0.2359461664508214 0.04655444855732641 -0.441501094338939 -0.131548487029817 -0.3086602971867623 -0.5935556933169086 
-0.1076535663912645 -0.2619141703165955 -0.2945952996748189 -0.2722196815946711 -0.3433553259261282 -0.293074060005252 -0.7909775552970526 0.2851150466039597 -0.03623182748986348 -0.03219263130110465 -0.1553650935076447 0.2959349628080876 -0.5532400268440518 -0.5232788392259246 -0.1302109522194666 -0.3913657147210731 -0.4186064114070365 -0.630154634736245 -0.3038322097650166 -0.1300026914834136 -0.1906108836641514 -0.001181142999418621 -1.192837122733964 0.01291926930988469 -0.3717784532058854 -0.5016890463434229 
-0.09176743540078652 -0.2403201429420058 -0.183091812418019 -0.1357832011984609 -0.004449320185465039 0.118790564999885 -0.5816401033543304 0.1909339898198238 -0.01565557774357914 -0.05525878297670189 -0.2332536640050792 0.2147568663817342 -0.2442472535422528 -0.3099680734314523 -0.2682654281532943 -0.5701973969775419 -0.6879965932624454 -0.6609199378001105 -0.2477594553143513 -0.3108693782876478 -0.03992083696092694 -0.04273362796303203 -1.494352233100903 -0.0008183278259967348 -0.06742261475516075 -0.1234531331225296 
-0.03969958614253945 -0.3776858951018046 -0.15899451431844 -0.07670765560628735 -0.3895546073351712 -0.07789923874755474 -0.4500069188743239 0.2197527177951578 0.04066620409668113 0.01570428629963897 -0.2118166503176392 0.2151659532951414 -0.09480783935826073 -0.2992159731045579 -0.299890269100924 -0.5660873229925877 -0.7054570362701945 -0.6076158642750613 -0.2592135350830961 -0.2631591785866432 -0.02712899225400286 0.1097065200938819 -1.241994202714636 -0.0329413677011924 -0.1770743340208068 -0.2744443526206424 
-0.2549430775611672 -0.780539826604303 -0.1735881592064457 -0.2748311247979926 -0.1292692385834771 -0.113231685955965 -0.4621618220197349 0.1458979791864662 -0.02924794001702523 -0.09866153108787613 -0.1725303032680554 0.2715788067549523 -0.2585945624632085 -0.06875591770215744 -0.2059365306211397 -0.6270950260807961 -1.222249312568451 -0.3746320470696778 -0.5872132369097851 -0.2454981468980533 -0.05639692921402416 0.23526217559438 -0.5795897747809324 0.02169771244170362 -0.7505221736490263 -0.4492221374655064 
-0.1450896265586572 -0.8442859180387715 0.04390656683063977 -0.1180662313667217 -0.639276699186493 -0.2752857455734477 -0.3165032159566867 0.1215840479115911 -0.002557278693931127 0.0501188069342642 -0.07267040680662407 0.1186736107904589 0.108835330005725 -0.05533713082409675 -0.4213571885066598 -1.233338047057898 -0.8400378327179643 -0.0853676142607975 -0.6099500472028092 0.06478794819520346 0.03601692627085899 0.4201798011302418 0.0354691632630977 0.02853039642555378 -0.5253617846912106 -0.06606536217947448 
-0.1422827825833799 -0.981051052663767 0.04219100670756699 -0.2842396885372763 -0.6320590933824025 -0.2494956389499003 -0.3136110988758899 0.1501443112969527 -0.09659226338374603 0.2440180906501902 -0.04655349949942431 -0.2207003553322303 -0.01911029679172021 0.2898074586945112 -0.2132697106166665 -1.429275377230492 -0.77055514156949 -0.1095693599090519 -0.3572826876954131 -0.0522586330578328 0.0185881360985826 0.3680849945430298 0.2845133902407543 -0.007201076654190649 -0.06801395554335796 0.6108297169078527 
-0.1526323633970568 -0.09659085492855016 -0.2781473100487024 -0.1071985686599837 -0.1416020031080936 -0.1497224581593737 -0.2369509974420105 0.1229020709661807 0.01158593776721408 0.01623269752350532 -0.0182140336238134 0.02093951759284154 -0.208979105090757 -0.1159432305968736 -0.05568204020159906 0.9109321369192264 -0.03999546020621446 -0.2280164353672832 0.1051159675053229 0.1666579160242339 -0.00695178686675915 -0.007267104255760487 0.03603510068386415 0.01223077137411725 -0.02034659950620761 0.0584798255153164 
0.05988763631736554 -0.01585736453468795 -0.01153636789986068 0.007135921671287529 -0.4958378950806487 0.1229152439241602 -0.1603205837632322 -0.1271631787161419 0.1046625689820904 -0.07229025534575403 -0.1751688891506267 0.133367630287937 0.2155184258598135 -0.183147723034045 -0.07928723187643545 -0.4234931944322815 0.04111972710329355 0.07093905748024443 -6.171926522383769e-05 0.2239127731425011 0.05883951131598262 0.03163926634124913 -0.2269446520242664 0.0763512735310346 -0.03403780354821339 -0.08808009110943051 
0.02914589949718745 -0.02808176723896765 -0.01700531069912011 0.1620357850119181 0.03662522670783663 -0.2086159339570047 -0.08868724996712629 0.1195647265571549 0.05660792402416713 -0.08559982771759295 -0.0978141619118334 0.1266246685027702 0.0645597844209506 -0.03573995562155796 -0.0233098703071164 -0.363277550261865 -0.2447323683967727 -0.3291606167734139 -0.06025920022271104 0.08373384755027452 -0.04629790831363362 0.1383884393525831 -0.5200716173850166 0.06895314173560413 -0.01280292452143684 -0.1492392547791713 
0.04999799410344222 -0.07329151357854974 0.01277082023523224 0.03530918544327628 0.08759822243828494 -0.1323343900761464 -0.08325909782747863 0.06305960288634366 0.01182123481525888 0.04060337959101827 0.02597724654734815 0.1633991901018021 -0.1100857119712061 -0.0251958981729638 0.08765202171874149 -0.3820835141866453 -0.05914451430546182 -0.265348324868494 -0.01845734121146302 -0.1070916518557431 -0.02321942700532363 0.04036788851704685 0.4929246152847874 -0.006011284207414394 -0.1247240527643029 -0.4283567576461541 
-0.03256330421538341 -0.178292247315515 -0.06371161278577138 -0.01559482162801619 -0.1115259846015485 0.08487930238604606 -0.1349213347189302 0.05069439376238009 -0.03260289708342727 -0.006569603463220421 0.171863285199032 0.113809096555579 -0.1127753578576571 -0.004332169744052518 -0.01690592910117421 -0.3033506722571136 -0.2800535496783556 -0.3825761265774313 -0.07649941619352257 -0.06478743536712196 -0.05192642205097121 0.04512308439333083 -1.672208728278372 0.02048820208264873 -0.2216886159823825 -0.5949578910475429 
0.04618252375496656 -0.234424558655871 -0.04556264886525542 -0.0753990133361189 -0.7637958612832381 -0.1121130410440739 0.03987855805434479 0.07015811494996087 -0.05635496108265443 0.04461659857168598 -0.01492639175101013 0.09820280622644501 0.02389856079945919 -0.06424464883983613 -0.0730545594557251 -0.1170407436885156 -0.07452558899852733 -0.01586274969519173 0.1396135041067185 -5.393123626736929e-05 0.00579146447548289 0.2205057698440685 0.1958715545190579 -0.01321499851093339 0.03853704101331341 -0.4031429923875895 
0.05932276898770354 -0.1365888257575411 -0.1235330184288155 -0.01745848174186766 -0.4025120423729963 -0.06859791058311507 -0.2127147070886269 0.03921199363494542 0.0305135319452671 -0.06176222869794306 -0.01825115823851017 0.1770777691706794 -0.00759808149873888 0.03361996657674021 -0.1423909183034303 -0.864649125902114 -0.1812562253043925 0.03515830926412023 -0.05595097969039094 -0.03674219906823093 -0.005304928821732584 0.2684773327593346 -0.1848063375514802 0.07505283044492993 -0.2968028170093798 -0.6509411990064942 
-0.1045434244086609 -0.3270813975490254 0.0761427243986157 -0.2782652249106787 -0.3433977603370538 -0.009165152893955319 -0.06757967998416389 -0.2207760473677663 0.08752728631290743 -0.08610465203225005 -0.08274584441713914 0.06772973737043007 0.04287102580107515 0.03245089143322179 -0.252329327678763 -0.6685157631207632 -0.2337523070321892 -0.04298644368518758 -0.2728082306959966 0.2014631551364186 0.1905748280465609 0.5343616155891706 0.1898903497937242 0.04220596501122437 -0.2241452530046514 -0.2940951593847566 
-0.2248941009136378 0.1638846152409651 -0.1314967585447538 0.01048470294244362 -0.2638309858602559 0.09962120484152594 0.07613816739340118 -0.1958297354890541 0.03750740756257342 0.1588437155694567 0.04598727061536242 0.2127954292505785 -0.2042942324894535 -0.06035273405670961 0.141302546704831 -0.3496639460729909 -0.02476041731236985 -0.01029885071198601 -0.1035042892802944 0.1390225846749903 -0.07511050623361576 -0.1066191858846601 -0.005952701257694867 0.1257879961476516 0.02477432161909246 -3.59273656347903 
0.01623163609328156 0.01842182761982833 0.09927951422747447 0.01248604692284052 0.258650419576084 -0.09791360227965014 -0.1527504101364979 -0.09417300918320559 0.0951938455402434 0.1909608228560994 -0.07219448083572937 0.01801219221211477 -0.03495739783100696 -0.06278057447406862 0.05440458735236436 -0.3825816405943613 -0.02912126874078516 0.08864122538840059 0.07155401935154378 0.1504854897739558 0.008033361490154886 -6.798488970257213e-06 0.09902212585948272 0.1883551849841274 0.1218412697370108 -2.264974320078752 
-0.0196474814074855 -0.08234593148244859 0.01173736744825277 0.06084886346052266 -0.1269428106903733 0.1273335639876046 0.02808165258076516 -0.1488297684680168 0.08432813043198077 -0.06722040028481084 -0.0002209607523679883 0.1124868230008687 0.1040175815634606 0.0290086115135916 0.1557217348168779 -0.4066404923840686 -0.04307128458689149 -0.245843881493282 0.03074168890887957 0.1360410703151493 0.04468354681263474 0.0457491509754451 0.1614929133465568 0.02103190007545864 -0.1684204721650432 -1.07986488481583 
0.01377703683411455 -0.1301511821018794 -0.005780820037189635 0.1286687527521139 -0.2535862100885268 -0.1253336098554299 0.01649095764430875 -0.2663103282614224 0.03324573605781529 -0.01305179024556711 -0.3326564808747739 0.01529438401579494 0.05721342399510508 0.122872182174181 0.155078709553878 -0.4928860140011546 -0.2090223359678536 -0.3588887636372881 -0.01537080610694684 -0.03278664201937145 0.05992159486890648 0.06179100671568061 -1.391027786943917 0.03278606635576151 0.04388981453665847 -1.128845646602806 
0.01676558635288043 -0.19266712103725 -0.03698849742619022 -0.0789290011375629 -0.1391770493450727 0.01484822379966521 -0.06244490342450582 -0.02962328181907142 0.00756199007725197 0.03972212221607941 0.05210543059213329 -0.0348784533019624 -0.06761573959076327 0.01335639811149074 0.1330294607699334 -0.5310687230327416 -0.01700012056701136 -0.289826575986449 0.009112985386897286 -0.05380601939531971 -0.0163432440683568 0.05553159694464791 0.01171629375282365 0.00132929044025358 -0.2345736468380323 -0.2623206203841507 
0.01732297013521073 -0.1393061166039929 -0.05063617424857274 0.06398108475024951 -0.2008931154714212 -0.02966500112267331 -0.1001288916925753 -0.05786886822274705 0.08528241794136959 0.00840699356997297 0.09749721011732262 0.2120978858701385 0.1034535234649749 0.06834169662654645 -0.01765771639606876 0.4603577950259489 -0.06549457810874487 -0.04508006904177007 0.05801064450408328 0.04921572999922302 0.0624383224228154 0.07033519209090773 -0.1113521589583702 0.06030833873640979 -0.08475167033140908 -0.4784079165998055 
-0.03985549415276303 -0.1173550286477246 0.01434709038300041 -0.07296102079489064 0.05204746417493976 -0.09520656666047532 -0.06736471755666017 -0.1296664941140541 0.01789707459559667 -0.04225000304557797 0.003089239180611415 0.1511585131229933 -0.04089490567905799 0.03020091557897158 -0.1487748271142416 -0.6023547254268811 -0.2538891574350107 -0.02052063709420852 -0.004218321500334419 0.04651688742223961 0.005664402216143783 0.2916009417527025 0.1412710036335883 0.09300296026315789 -0.04540760130738966 -0.7860548433934608 
0.009908175461557256 -0.3254081681225844 0.02181399714467699 -0.1853777236436089 0.0265448283403324 -0.0857973974469545 -0.1484858091654676 -0.1614875883981332 -0.01305235743793665 -0.1205976154740125 -0.05581296089694029 0.02138491992098633 -0.002838931045510154 -0.1506301345678499 -0.3583202543823701 -0.06229070543896008 -0.06983406157122721 0.04629026288391984 -0.1501187989121143 0.03074234222710518 0.09772394312851487 0.1483402254920688 0.31289445086618 -0.1507232608360363 -0.1417546693372263 -0.5519738518390307 
-0.135541076868902 0.02348339680539776 -0.1043402221299261 0.04300506386440758 0.05548292753577178 -0.04129886447770707 -0.3002480279601245 -0.1126275136391352 0.1466061152303726 -0.0123559577481847 0.06928729615179462 0.09195520394906508 -0.1902063802614755 -0.1805177604294399 -0.02825707890786539 0.1729398650190106 0.1281420042564162 0.01071245884869651 0.02531779573701878 0.1920865274131982 0.0346399836218521 0.01320213133345294 0.01939124361708886 0.1063379049475177 0.121850861778094 1.301264805683366 
0.009607223488055414 -0.01852365280477613 0.0463015390412026 0.118461873791949 -0.07407395948195519 0.04792086412352153 -0.01734533620180603 -0.123724919546301 0.06693661238254539 0.0414949721931526 0.213650811039454 0.200650627375238 -0.03468571332004269 -0.05735444530200447 -0.0175370337463402 -1.339683402924189 -0.0622042612188735 -0.06467868803030585 0.06939279730400622 0.01756056299210757 0.09068410769235376 -0.04581973362454545 -0.07020325578062624 0.08536143317399263 -0.1077501596770207 -1.143835397517806 
0.006115204723333729 -0.02559348611966809 0.02350139579888952 0.004933159055581609 -0.1072197838849639 -0.05466133087709765 -0.1664673957853754 -0.5312349761626676 0.08059894016146035 0.1369293957391833 -0.1584196869490482 0.05431484236375273 0.06992404353163639 0.03757976393167868 0.08481099900488705 0.1757674876335407 -0.1561732281572236 -0.2030953259782224 -0.01337322901071695 0.04552795433432977 0.04725641317954545 -0.004251737032214905 0.05883112722042889 0.09612512985524538 -0.000594001224197907 -0.003681856041752397 
0.03028351276848457 -0.1612425805309858 -0.03994496430145472 0.07282768331719368 -0.1293246762649777 -0.02874127347833347 -0.1233787947034224 -0.6898609249342019 0.07521228701716967 -0.02734296561150714 0.00811253397817454 0.03450426333839372 -0.03193003738004427 -0.04892009417211329 0.1926020483179651 -0.4514948206049519 -0.01201040075369856 -0.4476315477116119 -0.04105665438278583 0.1465060567469814 -0.07644525591347841 0.03428906937402591 -1.026043659101941 0.007721321047145483 -0.1407514998137798 0.3934725594763664 
0.02250697283466402 -0.1713847789764878 -0.03353713668437708 0.03830098092232637 -0.2438819444668221 -0.08505659731411097 -0.02945262931574864 -0.5794961049901103 0.03636903183303111 0.04658554937919164 -0.264136688100361 -0.02808186247989345 0.06376719643689728 0.08970969326878478 0.1377074436548537 -0.4610597195201859 -0.2153314095149104 -0.08564361605063389 -0.02235719849826813 0.02163066608996446 0.05417566051564486 -0.08216954675848555 -0.214343957059026 0.01019996061894192 -0.09584099660242575 -0.3423608595857198 
0.008147153999546429 0.005605424263807944 0.03378774136416973 -0.04071703045157828 -0.2017577371566716 -0.007125460454677451 -0.01050438202567955 -0.3231058375461935 0.03731462846652524 0.05491413618194787 0.07477246829507345 -0.05212533613915368 -0.09266931680856935 0.05089969760195522 -0.02586079850351497 -0.07054039266023965 -0.06311246906310997 -0.1308591788364671 -0.02995658147212836 0.09016008471977931 -0.02203402447337067 0.05310199826690916 0.09846934519268659 0.03980865865340558 -0.004097824457180481 0.2095930673054853 
0.02465201718564583 -0.1304016160576167 -0.05332611755329129 0.02534371629434251 0.1883577701536703 -0.1107533344681904 -0.03710445118014057 -0.2141130682783384 -0.004449775218405729 -0.03489523210930478 0.08573197694595804 0.198175409012435 -0.02992331881490778 -0.000904236215112578 -0.2319467825377206 -0.0311741208748687 0.03941233223988937 -0.08665066227228124 0.01026376123612265 -0.001483724591233159 0.02087314177956767 0.09568736123004276 0.1590052044158387 -0.06075625632833698 -0.1647541382925879 0.4228673662573046 
-0.1069831826047354 -0.3878601280073152 0.02897096389016666 -0.2296701340995229 -0.1089524170530035 0.101874697327837 -0.1546129193120562 -0.230599365833438 -0.02504314464223143 -0.1162961157110453 -0.1215291425236132 0.188039093375633 -0.07918004701169981 -0.1797667643353655 -0.3261421699274838 -0.03691208943273712 -0.1611198124965891 0.1071774932233022 -0.1303492423769569 0.08199811268598391 0.1153957832241826 0.1331404686152586 0.1714277509432085 -0.09650214690499435 -0.02478489313948245 -0.269029376156653 
-0.3493278056553002 0.06378970645607353 -0.1902442918291185 -0.1082720952929506 0.004074895498950704 0.03433506508840213 -0.1199764363770426 -0.185903125666352 -0.01777226829325566 0.1975412142794693 0.07733232837581176 -0.03538502992244266 -0.2546722224065991 -0.09498856983401129 -0.02594888370533489 -0.003038372943710941 -0.1428047210058752 0.1033205478925474 0.06030175818107057 -0.0556531792131703 -0.006981449161314745 -0.1944828624718369 0.01446881686780355 -0.004188442947292741 -0.01636428131247677 -1.27746248690083 
0.06872365268014037 -0.0324694046983583 0.06293609532979376 0.06659097251509891 0.03507514117040703 -0.06344211062156782 -0.2470443599527864 -0.6167832306634775 0.05181921594302751 -0.02414829918589789 0.02020740455007052 0.001331364106169537 -0.0955663494406496 0.03298510616234827 -0.06009832683643226 -0.6961932309875578 -0.1164151109995106 -0.1439764127760645 0.08800407064945839 0.02120210551163364 0.05505525241901366 -0.04420436098609296 0.07341111801486275 0.1024143024015597 -0.0720854433461504 0.9401188117307514 
0.01171116015524494 -0.2005518370260304 -0.02211049889090417 0.05786583373996762 0.09374846332896761 -0.01735191914252268 -0.1840676654677029 -0.5216811206428331 0.06864019346579878 -0.06557241188157421 -0.1396027688352433 0.1208183284501088 0.05049539968825102 0.06358300444459297 0.0474805019615595 -0.02401608971084141 -0.07686753892283148 -0.2253021726437648 0.06027626514661853 -0.01913313998313639 0.05963553902390695 -0.02777517931361395 -0.055974296465663 -0.01604345054677335 -0.0816277816964763 -0.6951275270283237 
0.02138334503719136 -0.1181547107920502 -0.01274642324783212 0.001500942225190341 -0.2671274216204298 -0.05150922442732064 -0.1652338731477314 -0.1561655376731225 0.05177058616757804 0.0580031869195495 -0.1053771981507154 -0.1045695817855562 0.05041194407429532 0.09962878723777126 0.03935439207671502 -0.1988621528104611 -0.08933242579903405 -0.4826717702806426 -0.03552947958636588 0.01567754890640329 0.0003737531586886808 -0.03530042132154838 -0.6737214630093461 -0.01338678688270377 -0.2026288438097525 0.1225088495300908 
0.04578442927314391 -0.01165642653791094 -0.02222859248422802 0.01012051308901163 -0.2005736068778302 -0.03254466395835048 -0.1297347246993316 -0.3016331069142182 0.06562052935000927 0.05435345277401418 -0.06291721002392572 -0.1900779766137955 -0.01502983731595903 -0.07518477308593387 0.1318861421371492 -0.9621348746513787 -0.07977949034175291 -0.1348681171377648 -0.01152900323346236 0.04987002567501499 -0.0552990311183171 -0.05000768020715091 -0.157321481206379 0.06166867658713948 -0.09838659502582781 0.189048485441672 
-0.07942097579704994 -0.06982613332883815 -0.05558702466540984 0.001229931156953373 -0.03554122555263672 -0.03343103556060771 -0.06410553218780547 -0.3564560109888675 0.06897367297480182 0.0340201252825859 -0.02563385768757353 0.06428763175325472 -0.03510093610388249 0.06155594637378409 -0.05338856829476221 -0.2491186525431188 -0.3036061167053056 -0.06333591240024755 -0.01351386313235835 0.09181608235707607 -0.1748223294353885 -0.2808303605056893 -0.1504536759940719 -0.05235567465662463 -0.2344990684407224 0.2430673048469634 
-0.06229192980576398 -0.1147411716268835 -0.04686095374560051 -0.0800791446204667 -0.06394493948009788 -0.05235402386054298 -0.09176451445211889 -0.1498811173663613 -0.04429808160511823 -0.05893621638101533 0.1890545951389622 0.1437491383936025 -0.1494247099189348 0.02435728397983736 0.08357380973828395 -0.2139176552283387 -0.1953265706063917 -0.0758656955899249 -0.100741847909578 0.1051015716537276 0.0912677006604059 -0.02660472419157302 0.06333000143918562 -0.03497911048594315 -0.1735749521430893 -0.04620770351675892 
-0.03401142821618323 -0.4974017440225231 0.05015858489115683 -0.1320141540077412 -0.0581360990947957 -0.07083259859205093 -0.2068153678770367 0.164540776641844 0.005740535139123887 -0.03389294401633098 -0.2067455174425772 0.1639289358870864 -0.06967197933727873 -0.1670760263417729 -0.8854935938989689 0.06490250981150222 -0.03001801954432835 0.02995322043227288 -0.1160752783794359 -0.1487909552426818 0.03316939933113924 0.0165864982597566 0.1667075824685548 -0.2162849253477545 -0.1103100935367245 -1.081784590864924 
-0.2680447646817509 -0.06643840782664114 -0.01656534939229275 -0.1913939109261156 -0.03367064432790241 0.04388515010977625 -0.2518378183875247 -0.9468172669903963 -0.1046565274437247 0.07850875869116836 -0.07911332439712707 -0.06425300055332037 -0.3295149744410841 -0.04228097934794142 -0.04470741727189181 -0.1331184192513231 -0.1007767472998857 0.128344641951347 -0.07396734196285683 0.02035080363635604 0.03192424178082715 -0.04071327612569127 0.1448824218140765 0.05737511683569426 -0.1135892398842456 0.4652389866904446 
-0.005754737773099109 -0.04630452647203399 0.02351644999858806 -0.0466141777166144 0.0362755003337383 -0.02461853236704308 -0.06230929879188537 -0.6825761007782701 -0.04625078797203038 0.05888160792164336 0.03106112325368669 0.01263201514088699 -0.1043663907989693 -0.07977398049655991 -0.04198062748493862 -0.237224395748864 -0.1477731179282414 -0.1360463389170292 -0.05434152275954478 -0.06546015604547073 0.187099293010212 -0.03058990457486453 -0.06595598285859942 0.02919196994090997 -0.01930545978685726 -0.9187982614644719 
0.006987707717247132 -0.05028569996502427 0.01894778366020369 -0.01512272068157429 0.03186594249009321 -0.0521745201212715 -0.1583494438385915 -0.02207008577312344 -0.0043912500974217 -0.008283450071195211 -0.02682757777701935 -0.007430088262962539 -0.00475537681316831 0.03310940587365572 -0.04008801139469392 -0.5450883338824165 -0.1559013134141158 -0.261844355720636 -0.1304984925447694 0.06857476408114332 0.005845310743126072 -0.03889080886655329 -0.1399022976297601 -0.04297441018208521 -0.06385762344497117 0.08139433627423515 
0.03604375218149097 -0.1035613424543212 -0.07836615862005163 0.04994295022233478 -0.07169838529740349 -0.02056195920190459 -0.1050129947217514 -0.09622563495425626 -0.02419741851350276 -0.06710369875647954 -0.2105860158452059 -0.03399803678649477 0.1032350674984532 0.02962693048875823 0.1817450349534676 -0.1992880983236975 -0.07082379101996146 -0.3376488950425788 -0.0004967878772771453 -0.03715177721735222 -0.1111880128142062 -0.08492869827502753 -0.2899043739331231 0.03156466606269922 -0.1605291460911796 -0.02512440083640444 
-0.0257047733240001 -0.1098646116207793 -0.06376854754989773 0.0003381054995892107 -0.08019771427314405 -0.03044653986074047 -0.1253738774679279 -0.05194185147263283 0.02913111971193007 -0.05454910354199369 -0.04320787360707565 -0.05639066212312775 -0.02418776060546242 0.09257801251605557 0.1009908998437674 -0.1132230613778984 -0.1859087534859295 -0.2016187103322074 -0.06658822584016405 -0.01284833764181537 -0.1917673985735429 -0.07890399738953635 -0.2987133801678443 -0.03913926723037887 -0.09688160640243262 0.09897814041094299 
-0.07434781492525533 -0.05730037584650856 -0.01455864329962085 0.02263581884454973 -0.1341262392695275 0.04241941800241003 -0.0278524144140029 -0.1799403114213543 0.07395701641549585 0.01452647169912268 -0.009257791280517628 0.002385752658767528 -0.1052752938247504 0.005110443335354215 -0.01873136817118807 -0.8441878183617272 -0.002867196735286348 0.005102432194248599 0.04579424764093643 0.1062338313219749 -0.1128896662323874 -0.3931342324722211 -0.03047686454369735 0.01891591251910632 -0.08313109042863351 -0.2828755404033387 
-0.002765699349316651 -0.02332273363484179 0.0308397905218516 -0.06076270352771999 0.1472036035654603 -0.08912632622516133 0.02381805372352157 -0.2413392466936377 0.1394150687632091 -0.002138276068001049 -0.07082430414580412 0.1974656653609117 -0.1341243852140978 0.04798856968130876 0.1497779418859431 -0.118132971364844 -0.1068799718425203 -0.07131553593886127 0.03209131709812567 0.0636397810210264 -0.4186946052786457 -0.2581672484500816 -0.007761960738844333 -0.1335613539793672 -0.148258269241165 -0.1995668286591241 
-0.08191094357964857 -0.2171088926749658 0.09474265728215837 0.07984942560671428 -0.05207474164195849 -0.01324208410653863 -0.04442942771313829 -0.2610560056736251 0.0472555125427824 -0.1037592258910903 -0.3106786201466507 0.2023686088817157 -0.04814083980380975 -0.09696013989787713 -1.545185084941887 0.142493538079788 -0.5255344745868923 0.1593345238076953 -0.1038038818567994 -0.03412096635544781 -0.2706648399426237 -0.002544289362418545 0.1424066361625467 -0.06798627497619196 -0.1680814945964255 0.182551615747295 
-0.2389455799988629 -0.07051245543865022 -0.06324027172428989 -0.2318322516557887 0.03857074611324349 -0.04168102518721235 -0.2588259144015116 -0.04928320209148149 -0.1025697567122976 0.1936774596288031 -0.1809229279894992 -0.2620800684416643 -0.2373869056763601 -0.1715748195315427 -0.2282972580214674 -0.1609692596739797 -0.2182808183735509 -0.02134639263537487 -0.2099266933744321 -0.1566454595079002 0.1772544411575138 -0.1882308399130418 0.123162184110668 -0.0406951924798027 -0.1538796736164354 -1.341948177928619 
-0.1048548167302271 -0.03805530438688307 0.04455158748702064 -0.06186115588748055 0.002295856872348795 -0.08419792213064375 -0.220506947213661 0.01054792350110249 0.01070726463499477 0.02242690797466501 0.02822355615477445 -0.04120629764491857 -0.2522936997334846 0.03802608967814734 -0.07777534211542282 -0.5222558459472232 -0.1316001569749428 -0.0804888913169662 -0.1966501269717166 -0.08050797520059076 0.00932404229658711 -0.1027848013268734 0.1426188417914519 -0.05185225854289802 -0.06668987972218507 -1.512859549220919 
-0.03827346870005637 0.004302121759101457 -0.04117735778342588 -0.05871634154622421 0.0696336213253315 -0.0149583920514971 -0.1512017398357435 -0.1129494176844315 -0.1025480879710663 -0.01393097913211223 -0.01942596918249505 0.01858400900914925 -0.127436929799858 -0.02210441995491334 0.03424842642265542 -0.1595809394180066 -0.02274670834185646 -0.3064787054519185 -0.1361101079041166 -0.08484363226860796 0.08051216347508132 -0.03823398303241744 -0.155136127296195 -0.03752998125694038 -0.07192666487289517 0.1800637198170908 
-0.02712413453849752 0.0115474275794584 -0.0001306193176124956 -0.1065859780252049 -0.02588848895359403 -0.09583868422718389 -0.1030825834266328 -0.06020384990922317 -0.1043968298094099 -0.09195029830867497 0.1260961673542398 -0.003215662549643666 -0.1588393595859189 -0.02086556410749511 0.03314376380628409 0.01123985009453824 -0.1312023939640486 -0.2714498472764375 -0.03836242902445747 -0.04043196377331835 -0.09631798387664278 -0.08246817356353052 -0.2310999496465899 -0.01248203192922595 -0.02594392415738556 0.4961922344939894 
-0.061759994845127 -0.002892216033601441 0.04510343910313504 -0.1650308569648688 0.07075695028480997 -0.01932023239881219 0.003603254819660687 -0.1342472176543764 -0.04792452296911338 -0.09539096844516627 -0.01276019020478239 -0.02552182161408228 -0.2306418537242379 -0.02111360976644221 0.1440058033905207 -0.04320480324560769 -0.009711659021036774 0.02816516560499267 0.09126540227391926 0.05514119832976029 -0.1061600467254985 -0.06912804455995374 -0.2723738926136806 0.01736741355593513 -0.1589369827350555 -0.04425268414036707 
-0.0370997138061431 0.01317350021363397 0.0321849181024855 -0.1067487173909335 0.1223071637577858 -0.05629696027954639 -0.07925876159037952 0.03682862885999677 0.06340479592394883 -0.1860588128927158 -0.02937071791580896 0.03915687469741542 -0.1707855816961573 0.0474061894107756 -0.1123549933395126 -0.7341266126799207 -0.1603633173721131 -0.0290594974616186 0.110498312080001 0.1135867361385374 -0.2570800186388866 -0.1953287234042147 -0.1148516187357183 -0.06675469604873713 -0.2076723213080532 0.08043647718248276 
-0.04756059506870838 0.05533263418535286 0.03237478582517082 -0.0007785043284478047 0.03696964074628284 -0.0312967084604367 0.07824036727476025 -0.3084115436376521 0.07562560425857587 -0.3920381871396733 -0.05104302019985991 0.1250344857163821 -0.1133341749513361 0.07096366685136887 -0.09130425549905473 -0.02029681287403374 -0.1434104483269641 0.03037032755223076 0.005051433329687043 0.09206707814852895 -0.4001661130725609 -0.3319051261057747 0.1571373855637408 -0.1658915073131748 -0.1015284646322739 -0.04180902570594244 
-0.09484038945820686 -0.3120034045946306 0.1067034557466918 0.2242069833884121 0.0234360235864048 0.1103242261039678 0.03622340647341775 -0.2928535551139613 0.06525022940175391 0.05587718791341421 -0.5992502363407092 0.1584957371843407 -0.2535327561518205 0.04889259130348503 -1.105181185055944 0.5637416640593563 -0.5041989859263795 0.0819670142082974 -0.03330859330230804 0.1714827932326692 -1.180292166561655 -0.210980039310884 -0.1642965076298214 0.001863394868279032 -0.1297901717827898 0.3860818116489133 
-0.0949747785313276 -0.1409155364818502 0.03837739066995443 -0.09732786206761197 -0.2047774061591148 -0.06591068441570054 -0.3672185457274997 -0.007777205343896341 -0.3115880149204533 0.1112221038877377 -0.5239844073689015 -0.1952966094614495 0.1568436574162899 -0.06238350834806018 -0.1514939651523225 0.04102245105796694 -0.1441018120846454 -0.01958573852496698 -0.1386929468040958 -0.360065275395067 -0.008149010045221403 -0.1902944197107437 0.08492332254809604 -0.1792726899724365 -0.02584605376439645 -3.268123884564202 
-0.1755257212090909 -0.03373132776835121 0.02546479435944661 -0.1463232583696979 -0.05131026519147399 0.06393317838327464 -0.04907696446680827 0.005754402913349305 -0.1472846826926051 0.1710883297609704 -0.1605453302829153 -0.03579899320230774 -0.260986693670162 -0.1456699049944489 -0.08305789221228234 -0.4201338057049194 -0.05280571013747684 -0.1264968330006485 -0.1254485806407512 -0.1411398180150303 -0.103350924898781 -0.05653865757435667 0.009534797666567641 -0.07549971989608026 -0.07217463063255422 -2.638578014255801 
-0.1272804521058305 0.006651801927647876 0.07027349515250514 -0.1714614663928447 0.073124448712312 0.002791563418346121 -0.1733402965224443 -0.04628558241887505 -0.1255192780269554 0.01049513197988132 0.2341551889852305 0.1082293008162051 -0.3561791025546032 0.007260471661309761 -0.03843416009857013 0.02151833969635137 -0.01129470305892191 -0.2497995388408444 0.01882337420830956 -0.1152840285273137 0.1112567623840963 0.04522576192002307 -0.07189408131435757 0.03718834192084292 -0.01574788351441224 -0.201784562017502 
-0.111305105168999 -0.05489179578208688 0.02929236210314352 -0.1510379093665149 0.0846609179482518 -0.002816216477925283 -0.001604700469354265 -0.01681676117272599 -0.05670146224962135 -0.0593807927862532 0.05467198550487237 -0.01649077203375764 -0.3399462871869496 0.01331474162209429 0.03449906025600929 0.2614585691380248 -0.05386870567157577 -0.2524615685984669 0.001890046318167586 0.06686227107730941 0.03578672745585909 0.05589148971535858 -0.1630233369689664 -0.06481051733188757 -0.08481582633328201 -0.4610848757510546 
0.05234754056682472 -0.07240577688559359 0.07872870360461608 -0.2555380803320947 0.2921547973735447 -0.3426816664281923 -0.04777082344026978 0.06515951189257824 -0.1667773046360407 -0.1250482137702432 0.01642263523366204 -0.09863719106021412 -0.03100290709246837 -0.02154818994133297 0.04963834089387539 0.1442644400464508 -0.1702527015237701 0.04668570233753296 0.005355444001698411 0.02173369210111878 -0.1367988771486146 -0.02266955287079125 -0.3487299837785936 0.004075761775604194 -0.03704638761254426 0.07310340783685726 
0.08227216899408656 -0.03841993369191404 0.04535297049716791 -0.09579645393894924 0.09731220490760767 -0.1263215890586654 0.08765762746257261 -0.0930101537317399 -0.04346896015211149 -0.1123586534661558 0.01855638419037735 0.01358855622288028 -0.1902654119305028 0.07239042917933788 -0.1547739381555145 -0.4897732032615419 0.0001635656721434547 0.06424579754098832 0.1274573722224515 0.01771172096895617 -0.08937346038933824 0.04275939735650403 0.009038045324036785 -0.1680674754798062 -0.05540702015917419 -0.01723971874221375 
0.05546615176463244 0.03159795624696954 0.04721709376626836 -0.04973240527872457 0.09741956483296117 0.1290051530341519 -0.0166698394051118 -0.1110687853199875 0.05539590579557013 -0.5177305893550874 -0.3077888779482827 0.08828895324698752 -0.1933711143360357 -0.009456118463310048 -0.359772115700342 -0.3320924970565804 -0.1758380910462216 0.04547342435701122 0.01296149222014939 0.06009351979535105 -0.3852135563123125 -0.1858542618515714 0.03224149085770761 -0.09254343249778807 -0.01377637411673314 0.4091000168595845 
-0.09104242120375412 -0.1318322854996906 -0.2757386263867576 0.3542406695727421 0.2210520465968573 0.2464894506180096 0.02198622374935134 -0.2913250142423771 0.05503663919990318 -0.3502817449702237 -0.05888066059081686 0.1576876141441525 -0.8944958904357706 0.0694637022035955 -0.3553170048561349 0.4282283978592858 -0.1043923314920824 -0.01721565163162164 -0.1162104345549913 0.07076231099439519 0.0005265384556085474 -0.05683879976579916 -0.002739899764757136 0.1477822319428008 -0.08216545166934436 0.185891645602222 
0.07958657961176825 -0.1352524054155955 0.1327063662657225 -0.02109237498215909 -0.1991152425263283 -0.1377602970757947 -0.2892026804485511 -0.2094095343773602 -0.4460138817222685 -0.002574149554357119 -0.5394597916019311 -0.1549498133180413 0.2806052285615618 -0.1545386440055931 -0.06768653368794399 -0.4189196877167864 -0.1622426316443962 0.162227292759225 -0.2333861825665448 -0.6673298701561896 -0.6153498571982008 -0.02612767997750654 -0.1804717259012044 -0.3080397421630153 -0.1593725977191963 2.380005747805279 
-0.2416924857765561 0.0342943518497969 0.03257816048975587 -0.2496664425111376 -0.07335897188334972 0.1347854124754994 -0.1274184097675657 -0.176388807137329 -0.2610364346846254 0.1581888503083685 -0.1779430822136984 -0.1306415666325997 -0.1827616454572048 0.01166702712466532 -0.1031169913641472 -0.169083173148479 -0.06615345885915246 -0.07521303933179216 -0.1747558617420422 -0.4441984475504786 -0.2052458985924558 0.06051342451008354 -0.1734711419192378 -0.1002026300357314 -0.05686677248987725 -2.714578589223925 
-0.1025173755378952 0.1077554580979548 0.04688408068578966 -0.1781466137433913 -0.1940549346307012 0.08604522236712824 0.06563230541539346 0.0364863893678546 0.07809932751598135 0.1082025508981648 -0.004903075584021293 0.01413337179334667 -0.6045526891241796 0.02444171363169626 -0.0982798522923036 0.2111451050559394 0.01840576386267702 -0.4238446166212102 0.0360343206698749 -0.09194634102988872 -0.05067432482491314 0.01431664349360035 0.05750303063067089 -0.1055522954945065 -0.003880849186062463 -1.388148962921232 
-0.001093821799331472 -0.08252265615196867 -0.05851938694923461 -0.4218412161769896 0.2094239545427877 -0.1380694268974028 -0.1088997457642348 -0.02396550094654345 -0.183942670044781 -0.06827464266577027 0.1465239517278577 -0.02860711317674329 -0.3968372550655647 -0.01928816460531271 0.09474998966439699 0.1974106486943615 0.01267937372886437 -0.1390039046360963 -0.009912125505133228 -0.1845317189847537 -0.07837384424573546 -0.02373935363122046 -0.08163628172578137 -0.04268389308763326 -0.02615003295922227 0.1589430187298523 
0.0903001140266185 -0.04224532484167097 -0.0507038272488482 -0.2309091437022319 0.2163651746501755 -0.3479249472825564 -0.02232976631479419 0.002666367361767717 -0.09203850516412126 -0.03142788104499186 0.03765272041575254 -0.08825787054821155 -0.5070835283721218 -0.0484482430957832 -0.056127655226668 0.122687631276008 -0.1015542998474045 0.005505325149972903 -0.01913847755483153 -0.02607826586297447 0.02993189930470212 -0.006587176823666874 -0.1104302288921013 -0.1474028647079969 -0.07682136225732433 0.009816438766769476 
0.1668636329486944 -0.01766236016527272 -0.005223922785584708 -0.260926801816358 0.006992377713843048 -0.1436132950013598 0.09726397145475484 -0.07309369796296654 0.0189869963960291 -0.1595230123439652 0.03956391882012054 -0.2075469319791816 -0.3794454495763143 0.1033539338369929 -0.1904046843368656 -0.04028454011274114 -0.1042012301617254 0.1523688194005377 -0.05086954477916078 0.09301909801190168 -0.08546690873615501 0.0129845067153014 -0.2067815877649627 0.03531040079255885 -0.1196801568009031 0.08795564239097371 
0.1122245323117545 -0.05134836005215218 -0.2789924155656208 -0.06343922825963812 0.02381900188953307 0.2142082482154826 -0.07182485818416486 -0.1253113834610362 0.07906991426363692 -0.4037816569548878 0.03695599826172308 0.05419996622501624 -0.4985801643304478 0.07903610789759613 -0.2868647772902319 -0.2097573323766139 -0.09975188900240831 7.33586897065288e-05 -0.1729761812460269 -0.02309283976037292 0.09982922697980171 0.0556598404936454 -0.1232153321073554 0.06109615107938856 0.06404884889216771 0.1270533002380889 
-0.157879338557649 -0.3902285644932761 -0.5318718641281072 0.4242376219463777 0.01932584258489094 0.02238889896173056 -0.0266846371658464 0.03987860389409599 0.0575549098202544 -0.5611906264117092 -0.3333727659985357 -0.1376314558492846 -0.1264257979608226 -0.1029982719426988 -0.2898752589895346 -0.207056515103071 0.1857051613573314 -0.02459106594634158 -0.2008008414134677 -0.09109519607486566 0.357252288003293 -0.2602434104429153 -0.1492396396894105 0.05860066575403126 -0.05984572847051946 -0.649459885752567 
0.1601769660350389 -0.05509645826557139 0.1131545003205479 0.03776885543693403 0.01676673644086368 -0.05710866614454772 -0.09022193552713606 -0.1195311756198808 -0.2665075633442562 -0.05762706099810684 -0.346227293630631 -0.2942418420858695 0.7500460217137441 -0.1838360532848514 -0.1058250120921084 0.01441201353658661 -0.1845219521049191 0.09446877301069924 -0.3323741634020131 -0.1395898195542807 -0.6301923309110533 -0.02200694675768161 -0.1260407222079586 -0.1903048157210115 -0.06483036826613715 -2.723898064865049 
-0.1061496087443763 0.1013827252875966 -0.04201937216283354 -0.1731594235254178 -0.1697145674383153 -0.0001487233441906661 0.01647297755390651 -0.1299020574966106 -0.2934805996984056 0.1290564261455051 -0.1005305093453206 0.03120544798266981 0.04328500771415238 -0.08976065274967958 -0.1464966859891195 -0.1741443121288642 0.04667619862577501 -0.1001251522860463 -0.04166428912573766 -0.3113826072549124 -0.3766322543232016 0.002232970512427769 -0.02801384631744431 -0.196027248247494 -0.05429963437370704 -0.4772182356437272 
-0.04467109132648057 0.02137164224797715 -0.1219340744622501 -0.2813500368665761 -0.4625878796461469 -0.006066163710785732 -0.08594685595137974 -0.02591747023690628 -0.1803681572731476 0.07717086584228025 -0.07669631730975073 -0.1552671377292263 -0.1313792128772308 0.04997242952064254 -0.1226481301819786 0.1692768262116552 -0.01685046074984439 -0.1978142844329487 0.02505686382717435 -0.2756560687727725 -0.3571740364581998 -0.02995943463217015 -0.1229146416588152 -0.06350472615149513 0.04425002450837407 -0.9849574658303532 
0.03712885794390401 0.028500761383596 -0.2131747798376691 -0.2617158330649891 -0.01151170344513408 -0.08070353970279867 0.009447955801126624 0.00131390961935967 -0.001196777938624495 0.005751004705366039 0.08307037105718705 -0.09123276747341033 -0.3539166660320508 -0.06684192945416569 -0.01934686284450769 0.3562159632418105 -0.02757880862904229 -0.2180501572767401 -0.04704325643726502 -0.01684377551808271 -0.1199531675196138 0.08015959812638004 0.05099907482456943 -0.05216648524220324 -0.01375973461262307 -0.1587445508195431 
0.1090549902266264 -0.07187857920735478 -0.2513804903594078 -0.2017000468302146 0.1508118769240187 -0.4270099801134896 -0.03397098177601252 0.01299639210347926 -0.08558328602396321 -0.06530053932240783 0.1897443710626487 -0.1056216669128217 -0.2853311458753165 0.03665779986417877 0.005874125351726708 0.06147692403381824 0.05206288516435515 -0.01106281266190722 -0.07387530506869945 -0.09417496981701173 -0.1849609756936718 0.01221959487811245 -0.0146455570148755 -0.03763577835855127 -0.06924096885549219 -0.01728341995182541 
0.2069358613832233 -0.09324576039688269 -0.3479862156340339 -0.07417095476557038 -0.264090766647013 -0.005512368265120179 0.03732486129261968 0.0278913868971997 0.05469958530659805 -0.1209742983003146 0.07898186560979094 -0.2046266112763959 -0.2319631430411374 -0.002355500546546747 -0.1040187765754758 -0.07411587490541238 -0.1245437873955768 0.07828052868316041 -0.2011546265140458 -0.09660167948794145 -0.07676736451782097 -0.001357761006491444 -0.1777132412763011 -0.1009164234359507 -0.05858939640877328 -0.129018191624925 
0.03745711339305664 -0.1360315441904194 -0.3422193680734407 -0.09928986198923286 -0.384920542138402 0.1106324826820999 0.02017133817108583 -0.07944285397968845 0.02485901570698489 -0.1457808738454874 -0.06987017623845351 -0.2757123996587217 0.02307089710208293 -0.08179540896583216 -0.4676523212739827 -0.2525654689318282 -0.07303054396433983 0.1173282378765282 -0.06259017938670104 -0.03522254702771328 0.1889052384162091 -0.1306330180908416 -0.1559529890492003 0.07440235012785053 -0.04662354140719874 0.104415121888654 
-0.07333950225316793 -0.350569126476463 -0.1683565803833586 0.05676123818714693 0.02577610577058946 0.1526445959030365 -0.04060559659290502 -0.1529118368037199 0.001445980622778319 -0.7537063593989853 -0.171901616196154 -0.3815188350987604 -0.07145128182362172 -0.2512684733898519 0.09671994922807829 -0.2170361658678269 0.1753037946749114 -0.03171795727682925 -0.08920234511022467 0.02399776459127252 0.2193132452685312 -0.3250942843936498 -0.1837504557623371 -0.09204523455182992 -0.0223138162729355 -0.1187838318216502 
0.04948464274458002 0.08821582616496841 0.01304285515637664 0.0350865425745551 0.02513472585536042 0.007448230441528486 0.06425882138833618 -0.02553705056426422 0.04746528757512293 0.1382454920807436 0.2141846716406926 -0.2812467054071068 0.03188048564777983 -0.157156610682357 -0.01198223384455195 -0.1501523838694864 0.06041876414436978 -0.03246976242367289 -0.01008772712784633 0.02115992275200492 -0.56034086505076 -0.07883320424434863 -0.1668647794774391 0.01579287864959107 -0.1279315611238904 0.4613020701706383 
-0.06755095361489306 0.01808510354635563 0.005136752856573876 -0.034458809930486 -0.1909512111134763 0.007607750907382271 -0.03449485409174695 0.03626160431972639 -0.1889418910425029 -0.04027880674705378 -0.06275524099110104 -0.148302647999497 -0.1334156423756124 -0.1102421151070118 -0.1860492142267977 -0.02049448868486055 -0.009617297188454509 -0.02856152313493517 0.04054559195213919 0.05291396309418799 -0.3333388847534153 0.03894452576755662 -0.1601522602359204 -0.1806080663918901 0.01147657212326996 -0.3320052592850911 
-0.1012131259427466 0.07234991092189681 -0.007670315677774911 -0.06021759673191514 -0.4784791620615792 -0.1304646723899572 -0.08641749143875865 0.06042458599394097 -0.215780880762204 0.002261168442419 -0.1831072918678345 -0.1863135697962371 -0.04430175800488238 -0.1078243130147278 -0.194687476515316 0.04078637340765421 0.09238290722039086 -0.05866759888965441 0.01147534157278867 -0.05158795286699502 -0.3925172507567146 0.06011827762771398 -0.01297464982993105 -0.2109094851563028 0.07648928174223067 -0.2560612156782053 
-0.07448198340466985 0.02817686140292513 -0.07542956723134531 -0.03177715437943378 0.02254334307175043 -0.1922307180691623 -0.07104408902172724 0.03669436966916756 -0.236508902763491 -0.01096675350705312 -0.102266452751526 -0.1614870439207494 0.006996285619253799 -0.0527327705573492 -0.01277277406614348 0.1826045799446583 -0.07110393717046967 0.01629531917642578 0.05653402347180801 -0.2164730212338735 -0.3255176574017702 -0.04052477565621568 0.1295685237186699 -0.08983846600116024 -0.01190453101027251 -0.4166849699620813 
0.02679398525976612 0.003616216801081195 -0.105482392469389 -0.08200167548818676 0.03524401920839978 -0.4238731501187835 0.07346490059156581 0.09062937015563077 -0.1050602986182104 0.02180490411110395 -0.1152197256904307 -0.1809463380419591 -0.04604911155674022 -0.06669597022271663 -0.06462774943979645 -0.1011821068306107 -0.1290225625205307 -0.1208707492369679 -0.08285797041430412 -0.1261131979933101 -0.1202772058508182 0.01837297530681646 -0.03864396833139072 -0.1404232820316813 -0.02910513148903733 -0.2498263089658241 
0.04117439255140351 -0.01311847494313233 -0.04522632036091836 0.03175508697678675 -0.5001465729758299 -0.005232293943452307 0.04958138818377118 -0.03135995670768919 -0.08643085760580449 -0.06912454347736255 0.005077889784281761 -0.329972335198167 0.03543812344376823 -0.006226786997034744 -0.219699039178185 -0.009137478217813196 -0.09677437901599278 0.03889246959411668 0.01192430805814033 -0.2170136676323702 0.2489960312429394 0.01649357576312059 -0.08049229501463322 0.02096603564866594 -0.05616348703445556 0.09557255847973081 
0.05135328956949857 -0.2342636733408003 -0.03454085365929269 -0.0842228014915844 -0.083085671388735 0.04778716200976895 0.09158782194124317 -0.2028610288041993 -0.03055079972993482 -0.156571688718019 -0.04952835548764994 -0.7349544398647235 -0.001793354524215552 -0.1423964931960902 -0.0950350194970581 0.02462676316920715 0.07065204121350954 0.0557332437392412 -0.03384676070698948 -0.0509204487949321 0.2065890620357538 0.00138902345840119 -0.08750081930834316 -0.05446451048706524 0.03110922607881429 -0.5396268560577228 
0.08421747824985577 -0.2539548881903472 -0.08102281360221485 -0.1799115805390661 -0.1564475087596608 0.2485162327105122 -0.1182953110921561 -0.09581182465190086 -0.05198717251791633 -0.9577744827591655 0.09627810840583215 -0.639707185236435 0.04775584248161292 -0.366053801446089 -0.2220755572675316 -0.2387463048311532 0.2274666606913852 0.04970912450551512 0.003787775930777003 -0.2397224440039448 0.1622466384425856 -0.352322879739755 -0.190153246261079 -0.1743772511723013 0.01410177948088422 -0.1050376264693886 
0.006361521947898393 -0.06963585088653772 -0.1270612021376822 0.04523494267095535 0.1282235349587508 0.09771686001666263 0.1909571376094459 0.04675521631799385 0.004630158083008817 0.03070481592229134 0.07252848280665158 -0.05994388001674206 -0.05360106173396434 -0.1600795884152954 0.1173882221549263 -0.04351452295465136 -0.06462035177214799 0.0479131534260035 -0.07568587391606091 -0.09411090611311251 0.2037471921202776 0.003322881134003933 -0.1548738934695219 -0.1222615311513712 0.01618627431421066 0.9575878745691108 
-0.01294595875575495 0.1191549578448143 -0.07945259851256291 -0.01549968240806411 -0.1647834241687712 -0.05304622598858249 0.07563867804009464 0.09561022919740347 0.02294776578912353 0.04827962682961039 -0.007155059740787535 -0.1651375784528614 -0.0932821724354515 -0.09516873879902296 -0.08871461682062302 0.1414126577167505 0.05880680423496056 -0.1533032463692653 0.02223717186007323 -0.08612743830061489 -0.1209489606933578 -0.04711989609252475 -0.07321376998683542 0.01145541309151372 0.142583679375923 -0.4975441202081581 
-0.1245403944351764 0.06894260453122916 0.0007613087993958303 0.0246703908501201 -0.4995550982760129 -0.09422617559275091 -0.02131369594406346 0.024647324117578 -0.1924520594209957 -0.06128950415154215 -0.07975281602662238 -0.1678053200140257 0.02951131567457289 -0.08422792983744218 -0.009643203286119116 -0.06767793652956663 0.03694464927335915 0.009656806454074161 0.04406295217168054 -0.07627748282951632 -0.1179364197365882 0.04487338393890931 0.0470787948602831 -0.06730530442605126 0.04581225516779434 -0.523214648104841 
-0.12948608140318 0.03806890453551913 -0.02076975314496692 -0.07015015780601114 -0.1011780284712492 -0.4341801089235256 -0.04079171077423459 0.05741861744988279 -0.1959820790456388 -0.111204242047616 -0.3508649218468437 -0.2765141239732062 -0.05644921133065644 -0.05519569304681819 -0.02995599638430323 -0.08679627791208654 -0.01971082711871767 -0.09601955301212257 -0.0521107941443768 -0.196810805614398 -0.0947747790833678 -0.004117099176378181 -0.009466746552562688 -0.2038592347745231 0.02911644166087043 -0.4080435007510069 
-0.08166175942334203 0.03627613670903383 -0.01589418794768235 -0.04701005052982501 -0.2679627599010162 -0.4981573184995416 0.03125582376074977 0.04970379687524935 -0.1968156998654225 -0.08045707994740386 -0.09455481985072954 -0.3270533056032253 0.03159759732316253 -0.04593877394125451 -0.1223690266319367 -0.2493246151194155 -0.1081280635235781 0.04731281715830191 0.008970599999026763 -0.1627830544834985 0.01601409216620753 -0.1140027144724506 0.06352903106860504 -0.06852405153251352 -0.08116610337704291 -0.2128831121867273 
-0.06739693800003158 -0.00577526191009283 -0.0070134970071891 0.04560835091885089 -0.3202167042962291 -0.001290283829812992 0.1816950311415173 0.0428796822135222 -0.04649701253487967 -0.1801444023792202 -0.05062194936229214 -0.3318127262775107 0.01173287660686202 -0.07485223749076064 -0.1375263178683021 -0.03250235776681497 -0.05332046726891326 -0.0462956221124499 -0.06432996216529602 -0.08988787612681177 0.009758137044218953 -0.08821641678007734 -0.01991657327862018 -0.1122272015320146 -0.1109267905807875 -0.3447930095010661 
0.02660731665361824 -0.1496915564977709 0.02117043316009465 0.09901032733105801 -0.1774638206570235 0.04075641873989089 0.03877411999746681 -0.1081444460724999 0.02223968717914982 -0.02327182626049418 0.03654102309037566 -0.796236781338918 0.02964751058752118 -0.1231578981122513 -0.2848396140637878 -0.110607113518162 0.1784248044799167 0.106437668527588 0.09012134058449722 -0.1052844164358217 0.0845340185914981 0.002374881711725896 -0.1812813065614232 0.09191740529173432 0.06169899967717479 -0.08082082453328665 
0.1222146686584663 -0.3247231692262929 -0.04155548946333494 -0.2607389229458222 0.01318204046441588 0.247691739987489 -0.1349722546509846 -0.05124332577984742 -0.0746429003974817 -0.9345279300028548 -0.1219970724880813 -0.6182126158485949 -0.01446431894458431 -0.1797602076286196 -0.04029889985231631 0.1503036219919479 0.1975173417284381 0.04779262376111656 0.006416891923613338 -0.1234481429702204 0.3498405796113797 -0.2264384045098531 -0.1151925335260064 -0.1938776408890474 0.07006044134956349 0.3179446518739532 
-0.04577836470781316 0.1257617183965551 -0.128003352215864 0.0572932803359614 -0.01471988946250887 0.06793601434450527 0.1288937120967727 0.1153637417506412 -0.02569479680773917 -0.01069251159538104 0.07030330270907446 -0.1828045282921033 -0.1859602117165755 -0.2019386979543387 -0.08851105323101036 -0.1321895160197067 -0.1401944136278876 -0.1016253625192755 0.01357657840696184 0.03469034927174935 0.06225283999288183 -0.4719254995493309 -0.244913974213771 -0.03384873734105039 0.01645721995936397 -0.3501870136054009 
-0.1412278923934765 0.05078928504569408 -0.005361351687921638 -0.03944588411836771 -0.02013426502550773 -0.06757700509182389 0.09960088515769748 0.009936632165045076 -0.001205369850564806 -0.1173073965128403 -0.02721066723279502 -0.0427839948549286 0.02177679253054656 -0.08639411422811874 0.01366408624193731 -0.00218981183974847 0.06992856274201417 0.03116018113205293 -0.01054604540500151 -0.005707795722319765 0.05992713438160387 -0.1779434312070405 -0.07366024535747476 -0.1295129297879425 0.1113583085298473 0.1597762735878207 
-0.009976030384631818 0.03761671175611866 -0.03204380324462774 0.03311187909989279 -0.4153632643437425 -0.1328653730386535 -0.07682484914417755 0.1583688103939791 -0.04303678926362161 -0.1333015650489461 -0.2061761411635267 -0.2277131428241908 0.04702621455403235 -0.0310000397867722 -0.05045477442343442 -0.04335288850727762 0.02700611983009387 -0.01239046115476926 -0.05590623390431805 -0.1499848745186468 -0.06397321787429923 -0.2731996163665633 -0.06853832072463034 -0.06596750658720149 0.05328510379839094 0.01913959164433776 
-0.2027093145406691 0.01776960727749973 -0.03386035130561173 -0.04954017568764662 -0.5223358995754457 -0.5282519832837184 -0.0701608021900286 0.1148384075552066 -0.1153761406915954 -0.1095146804647096 -0.1932673341109239 -0.1888955098784399 -0.04811044336740831 -0.06142036719995598 -0.02457944622472618 -0.1381611634947463 0.05018740880131443 -0.1234829689526069 -0.1243487809671686 -0.1558234669511036 -0.1945464337917535 -0.1194682366886678 0.007786584411343506 -0.0848765928513512 -0.04342988582591375 -1.154896967218946 
-0.1294093089507037 -0.0308038524552845 -0.05820470173751971 -0.03986124610289407 -0.502676318220814 -0.344230358529023 -0.002126614112201111 0.0949052221790678 -0.1615832451033062 -0.1493623053076397 -0.2471735274856793 -0.1154124053585179 -0.03670018035548555 -0.03320280662710593 -0.05615467520228513 -0.03097396650646084 -0.146127684885682 -0.123476549411694 -0.09065395484424571 -0.188068282225587 -0.04512279495811896 -0.03634882394498549 -0.0320052951126276 -0.1376811158810858 -0.1015819171403788 -0.7355397523069551 
-0.1771760322075012 -0.007368353820343942 0.04775650940320904 -0.04126050160431817 -0.05259791536660857 -0.1682760274122481 0.04415935529987482 0.05697664350459683 -0.08712607672339688 -0.1402722238019164 -0.07954389551910028 -0.1491211249404899 0.1236332925821755 -0.01729319668951287 -0.1169629547955187 -0.2304775949227843 0.05738656033393336 0.07847689147788876 0.05872915949923595 -0.1913549413620785 -0.04606673141384958 -0.05422514624858094 0.01089674631087512 -0.1189003343887586 -0.2315729560691217 0.01972115112720276 
0.04210193946096054 -0.1272363382058286 0.006403933346217958 0.02687572101772267 -0.01097322061517019 0.09094162703095923 0.07379302183641899 0.1308128732499881 -0.1190591146604912 -0.3057737533694717 -0.09556309543779533 0.07964353891003427 0.02870030150031738 -0.1296935791068511 -0.1343731136518619 -0.04885640882497631 0.03687302963466096 0.01617107964626204 0.01006636358725865 -0.09252475856940272 0.08914613522205984 -0.3793061053133648 -0.0352409353552612 -0.3000093410668788 0.04655764154217903 0.3728279080445991 
0.1385382176259158 -0.05221571449201897 0.03351570297801538 -0.1858930764001051 -0.1070685822503735 0.1425071921069084 0.07742212133884341 -0.07974119064409661 0.03900821230235729 -0.4902999858140448 -0.08482717839760402 -0.5708428355170132 -0.003759245632012682 0.01548290018784695 -0.2949766492260109 -0.3179002384383907 0.09712271359846611 0.1102076983423715 0.06681735212604638 -0.1042260330107099 -0.01867274443790409 -0.01902192730828439 -0.2146388457854545 0.07385906204537494 0.1155666570486077 -0.4754465329679496 
0.03556867448216577 0.05976022483859385 -0.185090465504903 -0.05073905918490025 -0.05912798036078289 0.0814353308212567 0.1856594872243068 -0.07104396606848686 -0.0006250705981791188 -0.007763996430936747 0.05360312741703894 -0.2132675732354859 -0.1064710012599074 -0.2825636144257985 0.03172822651998331 -0.4383059452889634 0.04052925327124126 -0.01196922307743104 -0.1412883776182146 0.006296623047933145 0.07880800775451548 -0.2254831576790123 -0.04434844852655052 -0.1682589956276189 0.1499002573876075 0.188152768694977 
0.03165448703343623 0.1523205621740845 0.03796893087225099 0.1222010788204359 -0.1029993796455425 -0.08958420034021691 0.07126546915007106 0.09655199552987806 -0.014776847205198 -0.1115115535826954 -0.1308484732632071 -0.1450125534276398 0.000764104628667662 -0.1445557893905619 -0.009615524507550328 0.380111284499304 0.05436406174708737 -0.0387550652580913 -0.005200882499471791 -0.08210189921279921 0.007790789219681126 -0.373029287645447 -0.1238129600039984 -0.07493512709018385 0.09667516291543704 -0.1588715061688001 
-0.05934588747081221 0.004016432918122549 -0.09785137444046539 -0.04150338966934526 -0.7442955402259748 -0.01454197311860781 0.007390425332366529 0.0826956158338851 -0.08358852139670456 -0.03215600086616504 -0.1595913373040343 -0.08554275592481252 0.0302231719273611 -0.05497735504401838 -0.149003242344746 -0.1472674708998932 0.1704976103893772 -0.08490412960093488 -0.08862807159990203 -0.03102092720420431 -0.01874675334410108 -0.2106333438753172 -0.03789688402882218 -0.1800974467517656 0.08519962769026074 -0.07341525223536317 
-0.2119806231114118 -0.09123095307251261 -0.04436755331219712 0.009011381818822984 -0.2140121286263812 -1.140951212644628 -0.1253871342496404 0.09969690442253379 -0.09928682147331382 -0.163112262183351 -0.08324083856659775 -0.1754556603039275 0.01663734026909885 -0.02567734592537752 -0.03535073682375531 -0.3115017772072652 -0.1022921117609458 0.01943407934735797 -0.04842605518157667 -0.07184339859304269 0.003414592815759763 -0.1148939686897583 -0.06983880935266841 -0.1071460639969894 0.02286632472584325 -0.3868436855789457 
-0.2073818775785339 0.07045509869454791 0.01441204577905878 -0.05898460692966422 -0.1230277769225586 -0.1092999292624191 0.01427482340394919 0.1127568100767685 -0.0435132401578349 -0.2231107939213295 -0.4996804784747662 -0.1712274048657737 -0.05954764941424791 -0.02797958010851881 -0.08649575102137688 -0.06914018047344959 0.03572903286245827 -0.1378619604313857 -0.043947909094116 -0.1461654520753977 -0.2937320724802494 -0.1393665647420802 0.02003386893710065 -0.1893513585441715 -0.3821147155838161 -0.7264887950298627 
-0.2656776618979256 -0.00501857618241887 -0.02372220023389104 -0.05449004891404315 0.09493936299013536 -0.07877845200395985 0.187505667096959 0.08430710396261783 -0.1348066444416268 -0.1041791910688171 0.02174636853163972 -0.4833246520658149 0.01073756226226545 0.01846027274151394 -0.1687440926505297 -0.1695669440636597 0.0001333184949119416 -0.1089739751597721 -0.05702960877562181 -0.2240603644967895 -0.009635763984020631 -0.2375369992994221 0.02716635893362656 0.00280340480775937 -0.2770187047704125 -0.4610614946516672 
0.05419135207296993 -0.07406305349250125 0.09673926259188431 -0.007972993525604988 -0.3350044026625689 -0.07437791506912801 0.03325923253012873 -0.09514766948954584 0.009507344161471667 -0.2552478094348719 0.05037845180715254 -0.04154741157681321 0.04689922890650438 0.01944755399570415 -0.1176278352816357 -0.1368987621649218 0.0758473085602408 0.1082259869180636 0.08279208440026528 -0.1991742630372282 -0.1627689569488813 -0.05043659739312782 0.02897874999689172 -0.09394773401588014 0.1456307439685282 -0.32729202218508 
0.1244814824259442 -0.02967540609501157 0.01838059601484059 -0.2576132505796905 0.1201664984496433 0.137255016945403 0.00321147351456478 0.1099574774459853 0.008832461843816464 -0.5416639896398949 -0.1283672565235619 -0.1748897943461132 0.1235327050472554 -0.06069742889111787 -0.2753174956360225 -1.353142133287443 -0.002762653818863202 -0.1750877685718455 -0.1199551914204627 -0.1465056973125319 -0.1542451886738807 -0.3570776607733069 -0.2189896960417844 -0.1106191886000426 0.07366691298840931 0.5863024662551961 
0.09514523349122522 0.4112947438262933 -0.1086809000652981 0.1645218606044713 0.1617903543490641 0.02947526211915552 0.1235756149100468 -0.04840288194240568 -0.0357690506472722 -0.1104586459508424 -0.4130110400215796 -0.03725976427267325 -0.09288704440616859 -0.2657105770539603 0.1361655915127648 1.191800508232099 0.1898478478154268 -0.183543922558744 -0.01517981044345504 -0.02461680190368635 -0.04303449724769517 -0.4601620763352554 -0.06393158306442621 -0.1461448411957143 0.124890115132834 -0.480490511597824 
-0.1019179010919607 -0.06824656120580218 -0.01525210010109274 0.02829277635211392 0.0006220033028437807 0.05776501078743774 0.1216968620209452 -0.08968058925892401 0.03227365201674113 -0.0788731777299793 0.02854793977907231 -0.1106745656834297 0.04510078581914979 -0.05130207029600005 -0.1249185206694487 -0.05693408169104419 0.01695469258603545 -0.07454278986365497 0.01459904018230304 -0.02898209790099478 -0.00685206486054939 -0.226806820662719 -0.1709718772801016 -0.1625355199018004 0.07379911428114956 0.2946999802354414 
-0.06462363735201603 0.000215548949143528 0.04642156984232656 0.06155268230955097 -0.3024466288817205 -0.06448112135898632 0.02809753908669866 -0.02815740844780574 -0.003213439802509098 -0.1075907143057045 -0.08054432107266293 -0.08495595152060499 -0.03179337620937787 -0.1235332187904552 0.1883151758208255 -0.6126040495100029 0.1302343344731005 -0.08700801103704651 0.03629593823178044 -0.06867791450526756 0.01439160414557221 -0.4567561042626856 -0.06483248733103174 -0.09103841817998926 0.06999723613381292 -0.07657742520126337 
-0.123201554186005 0.002367317887854071 -0.08335484046620796 -0.06483685450381363 -0.5430307897151094 -1.231424417111269 -0.003585358182181749 0.1025853940644351 -0.02998500703800672 -0.2341721443910288 -0.3080062215276133 -0.1420116961502746 0.0129594872337102 -0.02794859138026618 -0.07795971462740277 -0.5733608314414834 0.06879636582290982 -0.05256990074754185 -0.2456883574790343 -0.04354817998732649 -0.06295463772465763 -0.1907735834000232 0.0354446089826877 -0.1175006831249144 0.07512960872702479 0.6924837212603178 
-0.4264757990584195 -0.0804199281897285 -0.1456443751219999 -0.05591076754421059 0.05677767231848069 -0.4462253138258292 -0.03139391927844268 0.04808873477751247 -0.05145666793886019 -0.07375182605223247 -0.3195558467552476 -0.3245553034012322 -0.04000974912692565 0.03083743596411677 -0.04013403668132072 -0.6352066341017369 0.07274334524850506 -0.006860625744746988 -0.2621188881685064 -0.06268070519190255 -0.01957967359576257 -0.3060686355376824 0.02429393269116699 0.01503733334903502 -0.9255205040207359 0.5721792342330094 
-0.1826693506447809 -0.171891156642185 0.05062684725224607 0.01682802857601474 -0.6804413735428723 0.0734275413874316 -0.01602665693204537 0.06942893755056477 -0.1322695728102564 -0.1553703045595274 -0.02842844477664178 0.07243760735102008 0.05423512549382867 -0.06388707484628584 -0.007591289893099307 -0.4476738466529906 0.05619447174971513 -0.149019268352784 -0.1008841778030995 -0.1041603344299896 -0.2137760376975047 -0.1298102776731644 -0.02277839449379782 -0.2745701430917971 -0.03435062514738484 -0.05608949941523735 
-0.2629184029212752 0.013679740365007 0.02002798847851367 -0.1516589618787764 0.4898936293229376 0.03841596211221979 0.1488347046708319 -0.05102132338732356 -0.01045546893741072 -0.1739568108629691 -0.2453498909155622 -0.4728477951023238 0.07912091389626008 0.01331938678048592 -0.1180924129945439 -0.5584888362118472 0.01980698143262649 -0.01844183165131264 -0.2409622994079793 -0.2492608170909369 -0.004793201708471716 -0.3368105156062883 0.06914760468198314 -0.04744134477949927 0.1359016785289228 0.08412075051829887 
0.02687590130611291 0.09995263805218202 0.1218909378187894 -0.0954954501154226 -0.2986148666556533 -0.08778707946325812 0.1351065377271613 0.06995650871858755 -0.0582720244682421 -0.4582529276555197 0.04128396838166691 -0.1368603996035458 -0.03465057846738414 0.3339580856446307 -0.08385510732277573 -0.4683936945466207 -0.1742059472294447 -0.1309743903366277 -0.1159841614532348 -0.2230313895974464 -0.0596546039922959 -0.6401196735704887 -0.01973614828342991 0.1268957833778181 0.1836997042763719 -0.1839158476797384 
-0.05560458209274801 0.304534968453793 -0.1417171691554555 -0.01021579563144578 0.4742855539402737 0.09690014674941103 0.1102679131433993 0.06840998005062747 -0.006010123869023996 -0.1998962131804604 -0.04456284039427068 -0.0187942821040163 -0.2570354135669455 -0.2287884446176455 0.1008448956461165 -1.387741834765013 0.2698508103139281 -0.1077850961178598 0.02281800999748659 0.07295908209987038 0.2217042477493247 -0.6812824505205399 -0.6944471734094098 -0.1490257947435192 -0.01984168539485194 -0.4937498267664319 
0.02982855384026667 0.3654800719628445 -0.1888492906912771 0.179009990439418 -0.1978082416462126 0.0113891692417066 0.1952082350282959 -0.02345987974646893 0.02483735421505907 -0.1971164338477159 -0.3133528844949728 -0.2183997291502043 -0.05996679476460798 -0.3618965006669644 0.3029554154552885 -1.090168603825041 0.4148263023061292 -0.1868057289761515 -0.03918944125275153 0.0117285943284967 0.0562884723335949 -0.5812764491095169 -0.146917600726005 -0.0928383694488274 0.2498613781539768 -0.2093627759682146 
-0.2126176715132112 -0.02849583122551373 -0.1005934721777641 0.006428017577257038 -0.06812732622557781 -0.2042725503809869 0.2021123603486492 0.01012540820262876 0.06210583907830868 -0.3198869773322097 -0.2349050997729754 -0.2167054486222474 -0.04716814950648287 -0.2894977491328408 -0.02099488836337593 -0.4346257158813726 0.2625439694715792 -0.05610182661841507 -0.1701185139668527 -0.02580016314053961 0.04601937389914575 -0.276625921323182 -0.2380722865685323 -0.1087012146559109 -0.03328613330951788 0.7607084542453951 
-0.2915356766305145 -0.301461387238752 -0.01606124889773777 0.04409379620297696 -0.2786261952211893 -0.6191452429966987 0.1498632060031725 -0.1106151431328683 0.09262596207800435 -0.1570152450362309 -0.1079573611073576 -0.2624618330925174 0.0005551980645600724 -0.06367520015466772 -0.0215885364724203 -0.4410555829418406 0.2788424624122708 0.06324659779910317 -0.01921856807096562 0.0787281676066074 0.01818150517827883 -0.4581191875120504 -0.1520412807498911 -0.1055507551791188 -0.6552669371562695 0.4553190945189046 
-0.280974922465038 -0.433737660810391 -0.02536568149352408 0.007829132804343029 -0.9022990427469576 -0.6677097289088498 -0.05366925663149267 0.03019911274124584 -0.02862348182733667 -0.2352632158058744 -0.4702740383321662 -0.2142864213177729 0.05662276120900789 -0.2480537914451211 0.03823684505211695 -0.5367906068785433 0.1813470429591533 0.08523572228131358 -0.04103787824965525 0.04431135667423551 -0.08158170258008221 -0.3101498743822692 0.0664025093240657 -0.2071002382528749 -1.229064262879613 0.3953943538745933 
-0.3300673156494023 -0.1394608174206252 -0.03490151602456572 -0.1376758662544506 -0.003791453067342437 -0.3532140951071682 -0.08641590116657005 -0.03500817830529528 -0.08086217491869857 -0.09919286629405158 -0.9960272929246096 -0.3738279513256619 0.1308260901836894 0.08541313205232053 0.1151962448157045 -0.3272927421556097 0.01480514633415257 0.0621650563506274 -0.08142228069294982 -0.1084235507499297 -0.174518792730804 -0.4123907876674126 -0.05947418926831682 -0.09461707542211673 0.5105987282766807 0.432067097311114 
-0.1893456900618835 -0.08823251753321278 0.06923526883896158 -0.161276067535296 -0.6683383603520271 -0.1585973941299475 0.004073345928978357 0.04983905409808254 -0.03091688794203916 -0.1984260281595981 -0.5114990518478154 -0.5789893855872195 0.2911339365794522 0.1764846913466886 0.1604202540916284 -0.4365495598458062 -0.05359380057289034 -0.3907525970062653 -0.1801671809473542 -0.009434684303537697 -0.2273170892434095 -0.2067085249987568 -0.1419514447432574 -0.0638395120233914 0.2663385900966729 0.3713704865146535 
0.1550285217642007 -0.02095859945913072 0.3900087674757279 -0.1970003969654439 -0.4423786238960999 -0.09120060781873093 0.4303347949732006 0.07095549512401164 -0.009262010522657875 -0.3709121058006279 -0.6399665630335003 -0.07075799402242892 0.3488465803578942 0.1791593429953422 -0.1503907790087093 -0.4638115301752895 -0.620145798418302 -0.1340000173050362 0.0802132350607489 -0.256534232647508 -0.1999350186926867 -0.04180813650311874 -0.6877142659892345 -0.1334253373122023 0.3092046788331753 -1.113590981781587 
