solver_type L2R_L2LOSS_SVC
nr_class 26
label 1 11 5 15 13 14 4 9 7 18 24 16 3 20 12 23 2 21 26 25 19 6 22 17 8 10
nr_feature 128
bias -1
w
-0.2670091537444034 0.03570933149688946 -0.2517329400515003 -0.1398788983670479 -0.1296118629684138 -0.1290519116103713 -0.1929616990559666 -0.03436464467761885 -0.2809400689934353 -0.09472865720940432 -0.09585121585194606 -0.06001677261247226 -0.1706026735179945 -0.09211695413411138 -0.07915372861185642 -0.07182572411542562 0.2882791328486541 -0.2134629957688677 -0.08436726823156791 0.09407909062461726 -0.1612533701728481 -0.1686340253575332 -0.1053412128764861 -0.206060367230742 0.1385024711839374 -0.06862508107163817 
-0.356273052954601 -0.1409138755949386 -0.3536722285252727 -0.1703708854481149 -0.2974001055418332 -0.2142126671936802 -0.2976768639357061 0.01749589884595176 -0.2364950328960286 -0.1676185566060443 -0.1816315711667325 0.009977219189250267 -0.2608152037449464 -0.2479536565532865 -0.1739726493438735 -0.1513161630392737 -0.06999007857304342 -0.2894863608803822 -0.2011031904498982 -0.05251301365159879 -0.2369891664854295 -0.2046215712443503 -0.2503634376167752 -0.1530088637088752 -0.1040684112764942 -0.1828745927379271 
-0.3686322005410344 -0.2816668857136796 -0.3650157083553047 -0.2276136899758238 -0.3805632951436427 -0.3242369249054961 -0.4184980321923016 0.1396038147143516 -0.09858021290124246 -0.2465884573177637 -0.3233346961718497 0.001553541150568302 -0.2841330510541335 -0.374547221862382 -0.0985148842044439 -0.2689484744625668 -0.2957746152719455 -0.4236043415200555 -0.3394690670558637 -0.2587267113805636 -0.2426536624215868 -0.2132429068865532 -0.3884236327913969 -0.1590999687781211 -0.2780567413119404 -0.2708278349757182 
-0.5131350680478683 -0.4870418041351539 -0.3637126097858521 -0.3236177177464687 -0.4095514028923455 -0.4126063675125301 -0.4655121213928093 0.1274881469519359 -0.1167018841525121 -0.3640599874262015 -0.4694454748226812 -0.123741085562303 -0.4493730776860052 -0.4035406831376612 -0.1377602060426943 -0.3225931905191248 -0.488468556426687 -0.718242425877701 -0.4886448515217308 -0.5082243550583138 -0.3281007249457714 -0.3040042724555423 -0.520382449057323 -0.2102369526253325 -0.5102624139166945 -0.2025800207814357 
-0.6563447867971518 -0.6859272092392671 -0.4182708054685583 -0.4118056333627201 -0.4743978119767479 -0.5474161959802487 -0.5969530083047004 0.004358987130854021 -0.251983504035452 -0.3987240207077152 -0.4289804549649149 -0.2164900481846808 -0.4093197436787472 -0.5017390933414827 -0.2362762475422925 -0.3294827391415359 -0.6470314857816938 -0.7632723632106622 -0.6133683440636748 -0.7083858512158699 -0.4051025538792259 -0.3828536998462422 -0.4892258222563303 -0.5623968039221314 -0.8454682466422654 -0.2077861061990464 
-0.5473335870588162 -0.5610536163774497 -0.2790408275639864 -0.3538958432848892 -0.4216370629238116 -0.4365711563569375 -0.2866688262272772 -0.1149167168973573 -0.09915764511445696 -0.2035895551154009 -0.3086359158691606 -0.001256056249947788 -0.3220393393423804 -0.3521702078645215 -0.2450293899532357 -0.2615240040418574 -0.6704927541370547 -0.7108362221648165 -0.3739891789020875 -0.4866160214965667 -0.3155340659483605 -0.1590811187324758 -0.4908166109440034 -0.3835479482631484 -0.5928772795369792 -0.1820649729541162 
-0.3901147494261433 -0.2867317175377636 -0.1219328868755536 -0.2838081485094202 -0.328889118882214 -0.3012467637354989 -0.2471968816873724 -0.1796131283077913 -0.009932966896989049 -0.02764888800767753 -0.2574131555004202 -0.04365876571096489 -0.1710895056603153 -0.3192878619372677 -0.2314300505634085 -0.1666692461912876 -0.4371996814390938 -0.4045445399831868 -0.2845418808944582 -0.1675576436788487 -0.1524327326897061 -0.00293114409955851 -0.2251342589430728 -0.3475668798959075 -0.3976063068330044 -0.1151813731890498 
-0.2800363357896605 -0.1941155681261308 -0.06413504896321187 -0.3090937654119706 -0.2135924718097797 -0.2295571115966899 -0.1510317425352749 -0.1214257323691066 -0.1326039296440817 0.03793136660839676 -0.1248493667808862 -0.1681989898256463 -0.08981091441761437 -0.05461235630376461 -0.110413522654009 -0.09157224085293483 -0.3420853553206498 -0.1778553967234578 -0.1693834684022106 0.06665788337609296 -0.08856537764605502 0.01467294776020307 0.00792568419991525 -0.1940594145323107 -0.307914924588109 -0.05393684871425645 
0.01328039928588405 -0.0481057612194851 -0.001600667854696606 -0.01004232250115381 -0.1744067245532079 -0.01379278015650745 0.02978458858042848 0.002775547860007635 -0.006383322757235457 -0.03467729029847789 0.04575303121751431 0.001105369716859587 -0.01303496961556736 -0.01352939322093069 0.005196134938008949 -0.07123717974243192 -0.001360944634340365 -0.02354138265535506 -0.02121180443961984 0.02924660541443085 -0.07275402961823622 -0.02731482453854801 -0.02717665724665872 0.05759637115078741 -0.02232423169220489 -0.03428195466272422 
-0.006113503790625819 0.04591169322782551 0.002358983176217156 0.006917543013168958 -0.01426550917876679 0.01016394923050902 -0.02363590796871044 -0.002927651651016718 0.005074335945813004 0.02908036109984063 0.02963666006241947 0.01972495360770119 0.1007747777403464 -0.001610820326233603 -0.004583187383239511 -0.07858101332072152 0.02468861862031371 -0.004255801552714357 -0.001621932848705439 -0.0125335468506035 0.0725859496285732 0.03666022258960334 0.1285160666459726 -0.1407257305166933 0.01498468187724748 -0.01905965226726258 
0.004975758653649646 0.002424714685999827 -0.0006716519433294414 -0.00296348953413507 -0.0152599449107063 -0.008506712332420001 0.01703530280458472 0.01046732799025244 -0.001938566849112687 -0.02275006671239584 -0.1611400498683441 -0.03565252561054452 -0.1527744053802847 -0.0001473160458546943 0.004260357057686699 -0.1310246157303846 -0.0307624833472082 -0.006175763583508252 -0.005876456577726528 0.01392897238565813 -0.0808182091278217 -0.009296082962811304 -0.1657992196249346 0.2057057435906841 -0.007020215436970783 -0.09512734154788377 
-0.004621038692384087 -0.04031648848760887 -0.0003415968595248855 0.003897177026197189 -0.1356543583059645 -0.001428639816653727 -0.0008774791918136702 -0.009439000375724878 0.001813981132477389 0.01095814754932637 0.068276888378049 0.06364234712534224 0.0950337005378155 0.0004117879617596009 -0.007525003225769171 -0.1480548786079784 0.03133711270974515 0.02996506211122715 -0.009041862656106783 -0.008365428902437156 0.06179354590858749 0.02888916534627638 -0.1853050580588098 -0.09988423455177775 -0.00994280982580047 -0.1375323677126054 
0.0040407243143644 -0.0312664103027529 -0.001347539971686875 -0.006244342670495304 0.05161156488086877 0.00379162508288112 0.02800899954543246 0.01548754265436685 0.0004499855993697699 -0.008575008558520694 0.08074910923565183 0.01879177952962803 -0.1092414691160459 0.0009484950196493667 -0.002438027365132844 -0.1665960910397408 -0.04488501953687134 -0.01620130007057038 0.01083461021995016 0.008469268816630619 -0.004734261839133961 0.0457683674371397 -0.3555502216879172 0.1060607603680155 0.01596828251277015 -0.1056452873538992 
-0.0004553687643180148 0.06605150240349404 0.0005581631093955769 0.001495311591999103 -0.02864226184257082 -0.002835592340073979 -0.02198304844422329 0.007341779293010183 0.0006986209595353745 0.007789293424758244 -0.03140374067258585 0.0259391275030537 0.04305575518830002 -0.001713786082553932 -0.0002813207436199565 -0.08785250659019531 0.03370262377650881 0.008416045694926095 0.01166373298000973 -0.002835619726348115 0.01326557915294014 0.01225201329678985 0.2025836026288927 -0.003400146825285466 -0.02519287234351542 0.005762987346114809 
0.0006420974571122876 -0.1883527520216121 -0.001521797431562678 -5.804132570591427e-05 0.0244601756397201 0.001814658787318565 0.003990341823919648 0.005210786462653145 -0.002388444670317973 -0.006525750438066516 0.1200843661886331 0.005563921402882656 -0.02711192807111064 0.0009242218230245477 -0.0140403899784312 0.01676042281963946 -0.02265015357188991 -0.008103121741677405 0.0163809136233601 -0.0007605028344662467 0.0009064859712031064 -0.009269611066882611 -0.1198763063921678 -0.002032160132850481 -0.02306659821808606 -0.008589520853902747 
-0.0005662085137667361 -0.01254525913020236 0.002109366645334103 -0.001366018402111223 -0.01651998783920095 -3.031584614296412e-05 -0.00189223047836995 0.003036860032152145 0.005151104108474073 -0.0003851406998575506 0.01061963015601834 0.04188534674448571 -0.007663392330340084 -0.001498338458433471 -0.007150420878828787 -0.02922197486824153 0.05692890547597442 0.007685945169966442 -0.03020500500204654 -0.0016297199164046 0.006581151927685608 -0.01651052338728327 0.05314793830659112 -0.1407004355041696 0.04639153746288371 -0.002770083986490822 
-0.2447641043486542 0.06811680747107569 -0.2584047258864469 -0.1394799580505487 -0.2047409491577502 0.0008795323494054106 -0.2860448532638104 -0.2392781682638952 0.08854789881595378 -0.0308288934506191 -0.01406497493673859 0.07189778758603678 -0.2499086258049243 -0.2610607044459463 -0.1943790300048208 -0.08952705107166822 0.1790339183614156 -0.04230658066574901 -0.2030815527287072 0.02989155223828546 -0.1445925230936105 -0.2054451787907197 -0.06138315897533669 -0.1486873695972756 0.172955770626427 -0.06852425034538892 
-0.0997773486889228 -0.1038166915707617 0.05690782883338609 0.0379020134572047 -0.1254938485574045 -0.1105104497036264 -0.3357787295710937 -0.3674065755034888 0.1715695017007513 -0.05937113867355485 -0.09728910214426434 0.03956241731001502 -0.1310395215326279 -0.3086792010984841 -0.2147423684388048 -0.065591313854197 -0.1107468631404576 -0.1558118104149402 -0.1195789853766979 -0.08577561865774067 -0.01427389036802854 -0.2065164133398654 -0.1176436627065386 0.1143299516860901 -0.2479047856682406 -0.09695876915963685 
-0.1363303563282157 -0.2490850867037663 0.04063286723927947 0.01710272364101923 -0.1585602738034511 -0.1159790764082946 -0.3739202572224476 -0.4051556930884199 -0.01469904179992174 -0.1670287886817657 -0.1054092582586366 -0.02381226877184942 -0.04374135239228056 -0.105263472352532 -0.1028158808138488 -0.09039434541697312 -0.2183719072621864 -0.3005564594083695 -0.1911777997591904 -0.06647254762013755 -0.01952228849010473 -0.1485798990071665 -0.1679021781779705 -0.3023080023701669 -0.2662820078261932 -0.09960975737709261 
-0.2517439474745703 -0.441428948298518 -0.1994501947189206 -0.1854792344043678 -0.1502549804396179 -0.2310568965713806 -0.4280258219910144 -0.4895659977137259 -0.3051752299994479 -0.2666922757256411 -0.1881190221954784 -0.3907398695382679 -0.202935254688346 -0.2050062166207875 0.03283385589622929 -0.1084218919348227 -0.4232736160625251 -0.599648659462563 -0.3452329939008946 -0.3687864539409062 -0.2827939068012872 -0.3134440937918523 -0.2866839638512477 -0.3740566880033658 -0.4839953617093944 -0.1256570391877644 
0.001721069635120384 0.07853259580548531 0.007110447553594523 0.01559168744760511 -0.1844891153819277 0.02700329896378177 0.04063191673886585 0.04383421193076755 0.01887948271366404 0.01711071768241574 -0.1569341050557979 0.04540309563350191 0.01637949659395801 0.01550146356510576 0.04370885344958561 -0.1300141824052328 -0.02221393679149429 -0.1331159603016196 0.02015769536838486 0.05431729711724277 0.008658386257398749 0.047235632097405 -0.03022259670799521 0.09298723204537609 0.1358375314514525 -0.1205452424008434 
-0.005030875492634223 -0.1452903947206715 -0.00419254156780611 -0.0101375222162152 -0.2977507826433206 -0.01565278003832167 -0.02636362769282422 -0.02361259462116669 -0.009366320449821788 -0.0165307573430069 0.07093839902366358 0.006705194923349282 -0.02478225079710802 -0.008274310628444073 -0.03435685279676407 -0.1208767569857711 -0.04704122857669762 0.0917359566094805 -0.05201929582769037 -0.04125141645934263 -0.004032002330647456 0.00345040589902503 -0.05635869786415484 -0.01927550354911528 -0.1309453686988586 -0.1044799832200454 
0.007653365963271458 -0.240553319943507 0.003929402851238741 0.01151754587564837 -0.1828628736270737 0.004519383187024318 0.009298373885288251 0.01667979590754447 0.007032788053488169 0.008948982331588395 0.0429681474289615 0.07217612906092033 0.001785543626988713 0.006980254301702041 0.005046367954287654 -0.1260337296803684 0.01884261563974961 -0.06670678630526185 -0.2788995310915827 0.02735649553456331 -0.02069713015318539 0.01728902250136866 -0.06033169286428811 0.03755458575907937 -0.1701218077878026 -0.06360116283931905 
-0.00716169530882937 -0.1609964820022779 -0.001390759771082274 -0.01229831358128428 0.05853312239727423 -0.002388862968564647 -0.02400384819518906 -0.001149171805296183 -0.005664385806402558 -0.003106973056383467 -0.1341841249337415 -0.05430843653134428 -0.04800160541580143 0.0007347315255185343 0.002805092045250998 -0.05631460864083673 -0.004575903769234662 0.02514453560687215 0.02158978609976625 -0.01245019749588638 0.01437615407011876 0.0449878744210063 0.09062742683689624 -0.1187072908156127 0.04113443452799283 -0.06700872081537276 
-7.753160243028696e-05 0.09370576097544922 0.002737052117639335 0.02240370851951216 0.01521772772748117 0.02286985590728642 0.04786841772046277 0.06975902546041612 0.02870438295567446 0.0445907435796069 0.09528610927237496 0.06167039153223502 0.06587305494849743 0.04857834603143719 0.03914393683961297 0.1445620293721259 0.003242865832676785 0.01906639903826132 0.07664138987912759 -0.06524229295995414 0.09215312446278601 0.08084360152520056 -0.02983877050780261 0.1859771732657587 0.007272708255320686 -0.05112041486875744 
0.0009544772073240245 -0.05855755996221326 -0.001157679248558397 -0.004443497743466738 0.002032301412129968 -0.006276601853451099 -0.04687974396007649 -0.0121099033128999 -0.006870231186809265 -0.0157516170918461 0.007317659604695751 -0.005959165824386693 -0.02088367788951248 -0.01359447829621275 0.006939765796591115 -0.1227475915905794 0.002235130276207578 -0.006512872699457793 -0.01116928576245151 0.03100287129413147 -0.05763213226242601 0.00699493445750766 0.01125799292311845 -0.09085493416194514 0.03043454879071747 -0.05958761266010551 
-0.0008273336719852599 0.00198723565513801 0.0008522930553779499 0.001873632832012714 0.0008451164818857917 0.00191833719303225 0.01397851946365893 0.0005032356638636268 0.002842561332785785 0.01254571044485812 -0.04689065371370475 0.01140868334964753 0.002016936701136477 0.00381306611834187 0.0008373718422352901 -0.06489548657093178 -0.01722247548850427 -0.01372027376312636 -0.002809242486524727 -0.01816166085535986 0.02028346987552418 -0.02586170552031406 0.002468051792128056 0.08288285039827868 -0.05015847690378669 -0.0733182492909896 
0.002336652672567113 0.04820600891855316 0.000405696623606604 -0.001331826266515431 0.05048788203930925 0.0002288970533569975 0.008331023582555355 -0.004377145525860182 -0.0004961426433743531 -0.01317832674954793 -0.02635537861250271 0.01674157449011743 -0.001552569690361188 -0.003400809243453972 0.01053008703451838 0.02199502031948695 0.005192887889966402 0.004021235297789833 0.001041647036416217 0.02350515501865105 -0.003525154817446631 0.02702282189476079 0.1940344042835789 -0.01682566776600301 0.04267732333055973 -0.007019728797610394 
-0.00228138493926653 -0.01395720390660229 0.0003393555334151832 0.007611124707616873 0.0003915599282326609 -0.006056603533907913 -0.003597695421830138 -0.01451650776370025 -0.002130075174486356 -0.006987635266603306 -0.01056066099969147 -0.08120645127894906 0.04948104118161062 0.001981441073350407 0.01134518616504096 -0.03592575194999337 -0.003652216501122483 -0.004215788828339042 -0.02731352273597321 -0.01540924105848894 -0.02099179754747888 -0.05122876250368854 -0.1145836748812935 -0.09238610426151352 -0.03595193211229132 0.08442667770145718 
-0.0006501962956222095 -0.00883097166563389 -0.0002950821460259734 0.0005852772499077289 -0.0006610723528094139 0.0009088769174659312 0.005051566514655132 -0.01465373933694534 0.003416379661859868 0.0009005680112751153 0.108301308840032 0.09225361091777635 -0.003896720208156071 -0.0009383614820146411 -0.003817063208079915 -0.04883479447390653 -0.01047883716674322 0.002433299546701075 -0.01395370529836763 0.007043957584154392 -0.007392042625518184 -0.03228582633958595 -0.0475792257279492 0.0747048144651508 0.002684125276487308 -0.04115411693490231 
0.0005764297786986703 0.02766138174201625 0.0001403371582098878 -0.00222841712288436 -0.001484712443123371 -0.001640052470918337 -0.008861375364386208 -0.001985006229426046 -0.00028650186664644 -0.003458482997655668 -0.1997977201455707 -0.01503529809538281 0.009484730665951364 7.439595890510438e-05 -0.4637224385308802 0.004443051373056023 0.03744252134330593 0.001544416756179357 0.01077908197589419 0.009707568520400977 -0.03641942828232721 0.006512323889946249 0.04294505456417088 -0.01664326058158637 0.01094287568885663 -0.05484773999671651 
-0.0002029569158886156 0.06156487319690254 -0.0006382344986230435 0.0008246922378439573 0.01136842416761474 0.0009639711511497627 0.004133389699459264 0.003942311954674651 0.002439212349241523 -0.003433828729322516 -0.09872913745994617 0.05110896433886634 -0.01598228706558705 0.006602128889370154 0.02321183381114346 0.01708452655656609 -0.07704128489400831 -0.001436178606096366 0.02863718242753915 0.001219627311679704 -0.008131964586108478 0.0328331559998687 0.05339777394302345 0.05155234594343082 -0.107447598755428 -0.09817809285148711 
-0.6899720221236997 -0.5856161564701348 -0.5496537454683244 -0.5746336002566242 -0.5134536706887158 -0.298163163692765 -0.8958036324608664 -0.7706509720445437 -0.7392400095695135 -0.08642608748188034 -0.1933336957582259 -0.3966709971551087 -0.4923693281281819 -0.84120732811725 -0.6697300815654571 -0.1650772117910195 -0.6437893878580409 -0.27803510301964 -0.5929042484073336 -0.8152602419180017 -0.5034971639815358 -0.6788258122808247 -0.411781400158202 -0.7068149168064302 -0.6079021167976911 -0.08158083021956729 
-0.0002447264739372159 0.008408782216554257 -0.0003953501279487057 0.003021093329315964 -0.2759321080963171 -0.002573306439824589 -0.003770137122512812 0.01629663195720359 0.003822772630873848 -0.00109701884012384 -0.07539803636008569 0.06316541575889374 -0.06364773957372714 0.002523846361610236 0.008931636747527161 -0.1800482510869083 -0.02006559192395187 -0.0005363623503820405 0.02704985209409573 -0.000115683732460413 0.0219096469974021 0.03201180257386396 -0.3761641431692537 0.06765639721893087 -0.02318831249618417 -0.0624706235969812 
9.994123564240856e-05 -0.06042290464246183 -0.0007234552943738735 -0.001591600894716132 -0.2287122064004796 -0.001157887135255588 -0.004054923644517723 -0.001329936934880567 -0.002997034510569604 -0.0004696004119906837 -0.1175587476966752 0.02726466358243248 0.003826795010417557 -0.004226394360408901 -0.007934744947268728 -0.1883879824548769 -0.02128449677755228 -0.7533620261692676 -0.01382696460906603 -0.003146361566524447 -0.01263621954286813 -0.01860422280964905 -0.3048713863828473 0.005891841637587349 -0.0331558934560742 -0.06089203634727516 
-0.002786223106147509 -0.02064975195364853 0.0009432955041227611 -0.001914808081661478 -0.3590955967409775 -0.003996867326052531 -0.01411862568189244 0.001142409412908891 0.00228645683838645 0.0004390539679472319 -0.2030365220172673 0.001683935870091479 -0.01637994142289035 0.0006591649507987253 0.0005475030290124591 -0.2077477460952709 -0.04949752935786447 0.2203783316817672 -0.0006285325445229534 -0.009770078261251352 0.00329348961207167 0.00713287083643209 -0.4050280807728445 -0.02139225544102073 -0.03231174794101479 -0.06662986196437796 
0.009846697544230351 -0.135291916183416 -0.007451855099910131 -0.0228159208768368 -0.4599738866091924 -0.02857970169376325 -0.0617749068453992 -0.05617398659246749 -0.02224998608947426 -0.01758427268098154 -0.160008849874693 -0.01983494216232859 -0.03173319808911167 -0.02210321591455841 -0.07004449396104193 -0.2220950566793313 -0.02626528618692311 -0.07932418668724242 -0.03999030525239779 -0.07124949519044876 -0.02498789494527134 -0.05442943321903756 -0.3854473937054466 -0.06111687216200941 -0.173538578891535 -0.07742257984674425 
0.0001990531326205337 -0.0407256180206134 0.00111644000512363 0.004698032765952345 0.03819753289139361 0.005440435413032427 -0.001503805429707497 0.007191980925897441 0.004240864369317901 0.0152051204644179 -0.1107061534831632 0.01034926937601364 0.01978351273737988 0.006152207637853903 0.02188583266875881 -0.254466426030505 0.04406927634471375 0.005047658666070358 0.02383085413844823 0.01426746160860625 0.02740792088053579 -0.003481118543112089 0.1095464150083491 0.03827213582256769 0.026251631721238 -0.009165394964517315 
-0.001867023403501361 0.01093028396438979 -0.0009118339886326013 -0.002559317832967662 0.01032918260656179 -0.002167153631547472 0.0008054871538072368 -0.008207766259202812 -0.0001224891584926229 -0.004210795213679599 0.04018035220406996 0.002775877119967303 0.003854421282829563 0.0009165312598440583 -0.006730575422861236 -0.197036729454716 -0.7989617579960956 0.004416469383472434 0.01085130928089837 -0.001606644399701897 -0.01809735278358416 0.005489023516151826 0.03814359595934357 0.05843165105016868 -0.04000190357066655 -0.05175801441496913 
0.0032863306063689 -0.3846424792784183 0.001145055264649005 0.002096721901885972 -0.03452116729276059 0.0002360443620475485 -0.01298240301889464 0.000240181007978661 0.0002637781270616402 -0.001925368644842089 -0.08399252429821229 0.034684731166673 0.01429194503747181 0.0001276455379972791 -0.009678114123813798 -0.09955528815349536 0.06603953758966205 -0.009090763367342023 0.01584585897439444 0.00607643511361656 0.02445757985161126 0.05140626395295039 0.04786365478514969 0.01276590739367162 -0.007621582847235702 -0.133432765821534 
0.002505401077002712 0.0104109585656856 -0.002011556898144752 -0.01772192334140146 -0.02224018093610869 -0.02113455144384531 0.01467283328900494 -0.005073941263188044 -0.01560869789635266 -0.03022585740858699 0.08774363364780197 -0.02277290786514451 -0.02478592635843257 -0.02668636606349102 0.02342139674267394 -0.01842154776887892 -0.01951551690790282 -0.01418145062679454 -0.04921973788147894 0.0978997661135441 -0.03514614613466036 0.01557592536957556 0.04837979279594977 0.004067696092980872 -0.01686543590504334 -0.1032733653644825 
-7.255588918433705e-05 0.009427328146503221 0.0008251682123489373 0.0003210235263642093 0.003289426316108157 0.0009151917736303524 -0.007438216870171023 -0.0342120083744417 -0.002778285374593926 0.005784749326238494 0.06195234749313719 -0.01985183211748457 -0.01408341308795638 -0.004558434721068188 -0.01064588217071062 0.01734040496254025 -0.01491912031993305 0.004463427942749377 0.005836126731100308 -0.01609663165939914 0.0067029362656286 -0.02417955537487111 0.06118323213608189 0.03771341297706117 0.01070718781950189 -0.09700742447251813 
0.0002683477298443023 -0.01534710999210352 0.0004127867391863654 -0.00140436388832187 0.0007296861605000745 -0.0004240742386096695 0.009325986217684327 -0.002207794797756016 0.0004516677276374933 -0.004151322110649249 -0.1825115020779973 0.02599188834823859 -0.003692498004776372 0.001355672509578358 0.008999192616766695 0.006786681026566229 -0.02284882304263634 -0.01291556845409035 -0.02154225514896662 0.01263895059914262 0.0113914871417075 0.02056393159871754 -0.5540396782770419 -0.005992159568059691 -0.0002201417581620756 -0.08451171980593337 
-0.001480670876205855 -0.04180988521154658 -0.001279424116658708 0.003089510631449812 -0.02524193192145491 -0.0005418725756027828 -0.01357515266450651 0.01019767222475014 -0.002056590917444707 0.02031004822750331 -0.05577131155583216 -0.0642250875925135 -0.009598850810215394 0.003382267630895526 -0.005960035241356344 -0.08968859762487418 -0.003843058547187909 0.002320859340753418 0.01260972343549904 -0.01448190971230992 -0.01468370077958903 -0.03610227025047529 -0.01201429733071416 -0.02429604519028157 -0.06240014325359516 -0.04010871925025253 
0.004242602304076509 -0.0117125296369243 -0.002077697740940236 -0.01135852569274092 -0.008925603148834709 0.006979509541486906 -0.00944579590440498 0.01351972126507538 0.002912320477244546 -0.00716481417062391 0.07409544214037835 0.008709896373724714 -0.05582419620202511 -0.0009460164324781267 -0.02144844238790009 0.0190364995315548 -0.03356380404045527 -0.006380574469812427 0.0108893233649299 0.00491593505141124 0.008961371194865789 0.04518103260624558 -0.09032504904976041 0.1163804151717581 -0.0028903191818621 0.05227402490418404 
-0.0007093352278621174 -0.03263329680981203 0.0001559844340784714 -0.007027758362627626 0.003707294258972728 -0.001718773414873185 0.0061516284212316 0.01264542498736821 -0.0002630384249226132 -0.004713738210345976 0.01362422018428893 -0.01022424083150193 -0.002454628280364598 0.001153386131841139 0.09052215310938748 0.005601824039640348 0.005506519986260683 -0.001129866540912538 0.0005871029290761931 0.007464282265913451 -0.003723910194285666 -0.0008109666126675049 -0.04347481429924256 -0.05137832746669655 0.009154881835213197 -0.01479229829326179 
0.0004321399462131159 -0.001029663743011726 0.001343119022167344 0.002591250132676201 -0.002061811043890166 0.001261406150382003 0.003346283956438346 -0.05448406026801782 -0.002544426554244777 0.002706576303194763 -0.01184508839847086 0.005632518893291612 -0.06596260758425394 -0.0007765233557964056 -0.4574596660283013 -0.05618258768645597 -0.03339726979828759 0.002482252218841221 -0.01011387144561252 -0.005370593759758291 -0.0329303649565633 -0.02344112054845736 -0.008964098236724871 0.001970392134596476 -0.02904474008590908 -0.07184169780949884 
-0.000513938901253392 -0.07600921488028234 -0.001460051729064294 0.002725104994162429 -0.003234902033194676 0.002093386276120534 -0.001723283466320267 -0.02118611323915934 0.00145497095364261 -0.04347131153128075 -0.02782039697405519 0.01313785456696917 0.04465902758584035 -0.002625359812551018 0.1586051110143942 0.06629347295423171 0.09949103679573593 -0.003677958829730877 0.008373351954691948 0.008763290789385134 0.009844234562955662 -0.01357751135266785 -0.04759975832514238 0.01181857195477859 0.1198124945230879 -0.04954728544323413 
-0.1297539380974604 0.02731382937211056 -0.002641617551020044 -0.008725934811011941 -0.04996004978827186 0.0001098542474774465 -0.02855382626262323 -0.001425867320188788 -0.01536042651124378 0.007492642868459415 -0.34549192878137 -0.08887689878260951 -0.1739210114518075 -0.02562683016396526 -0.01671217719837793 -0.3567812322832327 -0.004063618327790987 -0.01811911094326197 -0.07858333916709645 0.01902108559368559 -0.1427285058064147 -0.2310911777825013 -0.02912134612603606 -0.123507628848873 -0.05062962877690749 -0.1676855392088867 
0.003166406378218471 -0.06206606925892322 -0.0009182876588993964 -0.001639492288017543 -0.00869141558816019 -0.003588840854153021 -0.01719870069971905 -0.03035644539193045 -0.005336712937369031 -0.001093558288293767 -0.09394786216881551 -0.03657939488947568 -0.01928591389327726 -0.004710326880074924 -0.01942674308903681 -0.3875484616518853 0.004522008885957191 -0.002574127368423022 -0.02288074198416231 -0.003508456923395683 -0.02876784826366995 -0.06482312868870173 -0.06918748667148264 0.02465908404003855 -0.0230044266006164 -0.121189309206181 
0.0007458788892587061 -0.001249907619626046 -0.0008241128893438482 -5.310796694771757e-05 0.02786584605537628 0.00141419628480866 -0.0007949236947968417 -0.0001180288717583723 -0.0007430880129587775 0.0008873705117154997 -0.04286369612914645 0.01658918425560337 0.02281567577446948 0.001839104799479118 0.001681172800824249 -0.3134937969214098 -0.008608999117256927 -0.02017386578280799 0.00225962051061375 0.005618127511010882 0.01041074099628127 0.005590273486491017 0.1584032244338676 -0.04636028358270744 -0.001307247841045183 -0.1130405571611591 
0.003889778595691567 -0.03955906735289656 0.0005407703841774624 0.002039702997928067 -0.2296680250945257 0.002020603314149081 -0.01045365486441911 -0.007029657582577754 0.0003396898071388425 -0.009731999516559691 -0.04020019622634088 -0.002888879301760067 -0.01231126221102877 0.002078176223763621 -0.007634378214640338 -0.1870218744086342 0.02341351251897381 -0.08947141142824858 -0.004187810908222196 -0.0008132894775408953 0.006877789145730457 -0.008474428510206964 -0.5174257815253609 -0.03091723486608334 -0.02368441230746928 -0.01749649445893783 
-0.01108334726527268 -0.009935648554603205 0.005715746362552652 0.02190226969623145 -0.01277084090947903 0.02616611931024427 0.01770958596804726 0.04628637713941106 0.02039802834056593 0.02893543280925689 -0.09255434099648241 -0.04675868713842547 -0.009174612684863036 0.02156241241434796 0.07429527727554466 -0.1787630153351687 0.03208832517255606 0.02030844563258096 0.04665631245810738 0.06725490245335704 -0.01003839142687144 0.02356740484522369 -0.1848276750078839 0.1354652575973184 0.08484831685075864 -0.05952094006640714 
-0.0003057347231660584 -0.0260348052214773 -0.00147236033302755 -0.007969391974114294 -0.0004745737748798955 -0.008299529917342438 -4.120630236167184e-05 -0.02866134117927225 -0.006831361203686785 -0.02769401427792091 -0.06388419571714395 0.04260270003096753 -0.01077381460457779 -0.005216020214085594 -0.06333798458774947 0.03637204749727469 -0.0812651652821164 -0.01179637575420079 -0.01012534328233042 -0.01314208160114434 -0.02766631964902755 -0.01834111666499351 0.01142821387443659 -0.05268522820593392 -0.03971860063396088 0.02476309227753364 
-0.0006198509052897298 -0.01942776293555981 0.0003252558701691914 0.002051134340144545 9.398277999541756e-05 0.001830242758237541 0.0005816221030011288 -0.001452876373682508 0.002977482619148307 0.00066067305330821 0.135291358665969 0.02721403694563564 -0.008125508482504793 0.001357145337027011 0.1224088702743833 -0.005935661728596675 -0.004196837050234888 -0.000702040170200133 -0.009815831378764966 -0.007448819411765112 0.02795630109141304 -0.002202501210639111 0.03800790876717154 -0.08935759687883807 0.01598781487346854 -0.0733393134023273 
0.0003421917477442275 0.1055285715641952 -0.00155669645148938 -0.008717705200676992 0.007738875569648223 -0.008844171763106983 -0.001245672633812984 -0.01834697507105533 -0.009399792747174892 -0.006878750301839433 -0.0410202499334274 -0.04804544617745591 -0.0224237005967325 -0.01409758830871854 -0.6415986719669157 0.08708525234879032 -0.0622828267218286 -0.002979535506430134 -0.02620082850123895 0.02746618118574481 -0.0428008591024774 -0.032444538146943 0.01424763208812166 0.012455501331245 -0.02262968395290199 -0.09331336087883008 
-0.007835105788490962 -0.06815169004830081 0.002864807399261053 0.02413221928395954 0.03396896320138534 0.03465457438187464 -0.02090139204976488 0.01327809115353427 0.01872372354289217 0.04657011077371123 -0.3178071687202386 0.02032741472737969 0.02537921457997044 0.03987368944864058 -0.0287707901397421 0.01135644273173254 -0.01485590434766942 0.02920748575545107 0.05568542252956683 -0.1531359667838041 0.01194171065414719 -0.03030250657051453 -0.07916550074131971 0.009093984326864648 -0.05129544032675032 -0.1800444828820396 
-0.000875430951951392 0.0377254511536582 -0.0007100012273554916 -0.005459040362636084 -0.0096382908487641 -0.005142976999601641 -0.0304050748858926 0.01077807119711984 -0.0024124147692626 -0.01559696511072386 -0.04649572366561708 0.04869793714910725 -0.04722901938238251 -0.01013824275882472 0.001193767268953221 -0.02488986758331447 0.009781345678949071 -0.003481162818605823 -0.01063440027181914 0.01829720347901157 0.05618882822678582 0.0137444094407258 0.07832204934522018 -0.1206211176469557 0.02244984307326783 -0.1299463371090084 
-0.002255532549937511 0.003971251781030217 0.0004035222860681762 0.0005860266292025034 -0.003205609927521468 -0.001393180092847436 -0.0160747939285445 -0.01234713289284983 -0.004742992081220893 0.01739617527105678 0.06570420502587891 -0.03126244585846261 0.01485100064519995 0.001339888019558487 -0.009797960877220502 -0.000844193408975901 -0.00951884898411352 -0.005270693124146734 0.004953816445433596 -0.03291349226879465 0.00289574654656177 -0.005652289206976279 0.02392195959719952 -0.02696813780509539 -0.006917524247808708 -0.1372877689649905 
-0.000222355270336752 -0.001938065771503564 -0.0004571505342725233 -0.001440806523992747 0.0138291996413852 0.004683574324705005 0.007331198942854066 0.01021330192324164 0.005771764421616092 -0.03477872293628382 0.1308451245141109 0.04699191098220484 -0.0797279946275776 -0.002666167468593235 0.01833009527801091 0.0780916066606016 0.008934086783840313 -0.003990859861604353 0.001114679838829504 0.03159444188931232 0.02371645900560351 0.02778013269324466 -0.003825689605589075 -0.06547851854699387 0.03313376932066672 -0.139771029226316 
-0.00498371561363799 0.02276676669704351 0.006775288499747044 -0.01078410372503675 0.01997656608266626 -0.01963496734889005 0.01773552168642591 -0.05576420613983341 -0.01114539259514735 0.0206091418122081 0.0387458647320504 -0.03191626490314382 -0.04731592681536127 -3.640876235280028e-05 -0.01445857801644506 -0.07801600158567687 0.001717458734842358 0.009429395709306954 -0.02505469556614694 -0.01460241344291617 -0.05581459300181255 -0.06585146637727846 -0.04289541657399416 0.04571503252080563 -0.008732143391127274 -0.1097089138431175 
0.0008277598895871485 0.02162599691618892 -0.006089870920332793 0.004666232776633871 0.002934975564444865 0.004807198512133083 -0.007345719966012378 0.03389169897184321 0.003879732012708662 -0.02077414243322761 -0.0009964244549314483 -0.03796407316682511 -0.007221878535881791 0.002183866314250225 0.02223100310944107 0.0191321794157722 -1.377303114430661e-05 -0.001601641006814351 -0.02201496949157665 -0.003294329174803631 0.02244717026000003 -0.009472064903117779 0.01121131414743727 -0.04493043933250496 -0.05723321091630558 -0.003856321246940789 
0.001370270609881289 -0.05571577107573027 0.002317030932792664 -0.006616415795112706 -0.009397951558345989 -0.003501779971767182 -0.0001550386059409502 -0.0126317783304996 -0.0002802698465193266 0.0005536097453526137 -0.1160341737971913 0.0201659061652864 -0.01740759661675664 -0.001627635736702808 0.01961668282459251 0.0204811282497731 0.006607014157585792 0.000176769861450102 -0.001412289766125601 -0.01231490816742071 -0.001231388603239179 -0.004126982464396382 -0.04346264377749452 0.05403341783014656 0.06386307050987725 0.01548787119468895 
-0.0003520424807158999 -0.06931098640005742 -0.004749052945802855 0.004007151509121961 0.00578204530802646 0.0005943039046550564 -0.0001961213421841548 0.008276701699845778 -0.003557730745854606 -0.01624152896243703 -0.0708769953427071 -0.1371404015481031 -0.04159713718611711 -0.003336832957687523 -0.04964117503609662 -0.07994621361455956 -0.06085757717685814 -0.0001387302405333008 -0.01657449691888989 0.01352300103536271 0.02527738934936063 -0.02913588952687122 0.0288726101721363 -0.2382121131781284 -0.1201601977815306 0.05629960756716164 
0.06383471276802317 -0.08181173925916017 -0.0002937589732354253 0.003058296841584906 0.01216933749836169 -0.004023288455028929 -0.07357625956580735 -0.06629714829469496 -0.001021860633334152 -0.002488412643588306 -0.3002630374116824 0.05115946801290581 0.004563045053727643 -0.01647092567595005 -0.05282872424038047 -0.02110948107708187 -0.01197530939925469 -0.001556500281857444 0.003812473773432537 -0.01417088992801325 0.05453954268911625 0.06454409000097824 -0.0448649043935599 -0.02222179948809367 0.02692167464024569 -0.2087365299374577 
-0.01661485428992648 0.04803259403113117 0.004049137855164699 0.004992296478580675 0.007255580785688326 0.006332845671729357 0.04930768104545206 0.02831837601428978 0.00749887071059375 0.0104867964494369 -0.06055703908939498 0.06632587818724435 0.002820534143360179 0.01111381037343709 0.01039164575934375 -0.1754447680181861 -0.02268086288393936 0.01113303662522891 0.01246834875019351 0.006365230352028807 -0.003280125428395875 0.01371684554426768 0.1063415176944198 0.1328529717539752 -0.02087229768133951 -0.1058742519178856 
0.003978655198132722 -0.06137315857585403 -0.001723522421237068 -0.002331118661420295 -0.02145779834495561 -0.005099593367836981 -0.03762153023873686 -0.02402089541497089 -0.002498096969777191 -0.01241739019451959 -0.0644276166398096 0.005476889817559572 0.005059180834642543 -0.002192194351862911 -0.01893322807007857 0.06780664653423514 0.01889144336592292 -0.01726134013799851 0.0009205277980174841 -0.01081637470467939 0.01683018989845135 0.01305076392162843 -0.2155061851156291 -0.09769456026449379 -0.006668847337037735 -0.06604395340147984 
-0.005581138111015124 0.0251692615748713 0.002215329396010731 0.008374063810430724 0.09201901952971835 0.01114300994130151 -0.005231715923066868 0.0120997471125518 0.00827156780737005 0.01972436307976199 0.1053987608898031 -0.05578799246054808 -0.03923776421632379 0.009650056019190285 0.03872696660309222 0.06095287701957769 -0.02266311726685892 0.03279736817732637 0.02555947573420733 0.03653599026521516 -0.01877697939369571 0.0004217648883250892 -0.04341932746888029 0.09183095483161986 0.01033928066137274 -0.07184520435974666 
0.01664312059810748 0.02483509260303793 -0.007597646865377487 -0.03454767295313489 0.01019058022255893 -0.04354710973282172 -0.0406887913586501 -0.07219283911820427 -0.02721118928469761 -0.05284031364448858 -0.07140623992402899 0.05901582337953483 0.04511545029701758 -0.03765174891588045 -0.1057932056704658 0.01464189657839303 -0.02444698295194759 -0.02614815412643224 -0.08201622652468434 -0.1147090480540471 0.04190867100883728 -0.04272142934036197 0.03561001562766787 -0.1032491749826547 -0.09802725314970237 0.04152948714050381 
-0.004590494484616363 -0.01848785185026182 0.004967322774226826 0.03172180323365156 0.01434777467462717 0.03244179041883322 0.01628918361780209 0.06354231847306493 0.02188755420135303 0.07568551642952719 0.02623270487902939 -0.07430047386739556 -0.005336022677762436 0.02869475794684303 0.1075567876995769 0.008389762764007463 0.03266261065721637 0.03201418176402226 0.09608754825410921 0.1017730063937859 -0.01165458176899898 0.08387680365579593 -0.01689766218507819 0.1111661522083297 0.01181067006613539 0.05178858353766707 
0.002844284356124598 0.06436960260926425 -0.003170825735039902 -0.03188043625128548 -0.01673577625322205 -0.03015841672600669 -0.02583863516337212 -0.04461627627923073 -0.02290237579031928 -0.04443419270885302 -0.02396837354396169 0.01775202610584476 0.0315938325868877 -0.02670686693811578 -0.1241039104802031 -0.06443000876327441 -0.01669238370623947 -0.03075172242041952 -0.06467173064158861 -0.1066005588825989 -0.01576616080853663 -0.1083859849302413 0.02042086507120438 -0.07234632430703428 -0.04680181991052786 -0.05644175569673292 
-0.005276586507650717 -0.05081250570021119 0.004596841321709009 0.04733098811317758 0.03237944782933146 0.04914890272330699 0.05933915366184173 0.001248309159279921 0.04326424477049543 0.05404132941666415 -0.1782395624958295 0.1282358889464022 -0.07019183597327244 0.04614807258858691 -0.2056207558774098 0.03514759156713858 -0.0135944444807345 0.04671341285028108 0.07033377451531353 0.1624880532412272 0.01960822487912022 0.09863407584433206 -0.02245886724895049 0.1291941864854889 0.06200114160374753 -0.09487894568433189 
0.00701168266900904 -0.1256913113615514 -0.005045606281667885 -0.06380000748928123 -0.08219521671661612 -0.08356077456255427 -0.09976935879328601 -0.08982776546373347 -0.07801145310252801 -0.08549136095266129 -0.2703371704350701 -0.2561671819619047 -0.03080584668532277 -0.09080091733204061 -0.1200128809769761 -0.0970934967059783 -0.1112256728025246 -0.07681105228504349 -0.2401928067166133 -0.1987442168223054 -0.1367253505451374 -0.1589969265563212 -0.07779951588299377 -0.303113841341432 -0.1792980300867211 -0.1532853895414953 
-0.002595120417098966 0.06291787533856982 0.003057295055641649 0.02299394091894308 0.06064707737823634 0.04141612210401836 0.03684191021092895 -0.01202993515158565 0.02681947801085223 0.04775632443047309 -0.0843616649250588 0.09557107719264162 0.1249958977469867 0.04316732702223099 0.03191401123609303 0.03075860807261617 0.0448511503203981 0.04230136064040563 0.06956524781672041 0.009273323716401379 -0.15178922688957 0.05341759889945445 0.04895983433639009 -0.08998098066191199 0.01197806056318076 -0.1184683337657962 
0.002094269494432748 -0.009473364482225986 -0.00221334337267302 -0.01287728866565862 -0.03470547881975838 -0.02418200255291233 -0.01318136130668337 0.02178224417828708 -0.01468933605263601 -0.02460948974815901 -0.08277139930858161 -0.05030281251516584 -0.07003895487214178 -0.02474865681396127 -0.02544901476215083 -0.04123996751324187 -0.01406057077157837 -0.02436263188784606 -0.01408293120407938 0.01148249341696857 -0.05708409601099624 0.01539415379009263 0.02829050315975185 0.04342435433513649 0.002811528188921705 -0.1641089462075447 
-0.003306794930605568 0.03769016018006292 0.0009317674118499679 0.007043978600239915 0.01942260024742781 0.02088989600378127 0.007840973843125456 -0.03158889828371761 0.003597770235153857 0.0344387729329432 -0.1047013378505191 0.07540428173562638 0.08179697356280161 0.02263350044693219 0.008853313458636528 0.02694202725365631 0.008904297613206104 0.01592717345282317 0.02373597581965901 -0.04583755144441348 -0.02168020177343978 -0.01423913514128862 -0.08582795328991727 0.04000601694496837 -0.02899374088393351 -0.09535328723140252 
0.01014670524916859 -0.06748200478151632 -0.007580783035762015 0.001803034268644381 -0.04015123864389088 -0.004915489345933337 -0.04453114279607914 0.06952681732386032 0.006507671373694301 -0.01656291370378299 0.08106211201016399 -0.06614054735743172 -0.01413379765152045 -0.01735268266201316 -0.005286099194701443 0.06486689058240713 -0.02012776083234442 -0.02625422575786448 0.0190023838807711 0.04669446720203223 -0.01427993091204571 0.1159321089802517 0.02942462403727845 -0.0101987268373991 0.07030088564092205 -0.1165514015254014 
-0.001297612602981332 0.03088414926034124 0.002120323863172516 -0.003936590407400423 0.006039432214528655 0.01523542422816767 0.01945266148372459 -0.02544105368216374 -0.00446189178648694 0.01773158589082927 -0.0241446422282953 -0.02377579122204121 0.01532731808980374 0.006230832274874528 -0.003737319728413198 -0.02167566333634803 0.01455024018361772 0.01368565900661778 0.002234198407470878 -0.02137202978923725 0.008012269730866248 -0.02461524386529372 -0.04078794248892721 0.03799882952139675 -0.03339292911563434 -0.06433222518307181 
-0.0008784786074029584 0.005103257581488134 -0.001226545237739046 0.004533114268785272 -0.003815223831416185 -0.005544943526567442 -0.007679560428942297 0.006793831556823303 0.002812517931955321 -0.02735153887483736 0.03219612658709237 -0.09518335098148492 0.003388109589480781 -0.001315373937899875 0.01440650857092284 0.02049474935474824 -0.00532585369092408 -0.002879318236960241 0.01005762729184089 0.00801918719167174 0.003442446242539836 0.005957451176476644 0.03078755649623283 -0.06462725188341142 -0.005104668736019595 0.1280871606673512 
0.001731378197948439 -0.01454192804037707 0.002338612002815801 -0.00498793050133947 -0.01329218438017579 0.003851990206863247 -0.003046181124537234 -0.02036864907214641 -0.001690404732183148 -0.7728221315734528 0.06014499866184723 -0.6811206446626012 -0.009428234295297253 -0.00266827769292254 -0.05161438937866712 0.01212879916823731 0.02574833700006544 -0.001194604786216653 -0.01195122274940754 -0.03446542205657743 -0.01266395139008157 -0.1223670995328422 -0.1089743842319529 0.0810800484871312 0.08295839652629637 0.07642190268286957 
-0.05324682562391856 0.08979278970243226 0.001998827078025566 0.002832178588877585 -0.006794413626841989 0.0052974327660378 0.02238753096280648 -0.02632574975051469 0.002850604947954609 -0.003665330855096515 0.1441365041397383 0.02365778362828657 -0.04148850081688739 -0.006582300304864079 -0.007613528329983497 0.09446826837213097 0.03800379857961342 -0.0006686134076108112 -0.01035675090410709 0.009563456918862939 -0.04864461114876389 -0.1509028010874045 0.00795316749614792 -0.05124234744606049 0.01251058906844919 -0.1257321444867308 
0.05416915613176152 -0.08458887650378186 -0.003605883567780705 -0.01181992502117443 0.008407667808426228 -0.007222747413990424 -0.01969684035068028 0.03527403438386777 -0.004649581881845291 0.007177170438349406 0.09811724250835452 -0.1925044556948671 -0.006093357190137452 0.005015477000026559 0.07285887592888043 -0.05325060745758688 -0.04721260929667732 0.003139060163167495 -0.00241170890811549 -0.0233262419901066 0.0784068182236804 0.09902300696367236 0.007655495846209919 0.1450265918316862 -0.03194806147694476 -0.1076070357694619 
-0.03465978785379899 -0.02503099219235222 0.001328667189013383 0.007290576150960513 -0.006607095498292783 0.003591540993938853 0.02867424497942359 -0.01837744972930171 0.004856999936451044 -0.00283519296437308 -0.0004442293692046457 0.08576422174368964 -0.00578340258482798 -0.006841305738042371 -0.04691744628893146 -0.01232729809124449 0.001580889100251155 -0.004620177311465871 -0.03083730128850427 0.009002333195398594 -0.05012666336712759 -0.1029171813661578 -0.02763367285522222 -0.02609614797631732 -0.04760636893855794 -0.1797499156281465 
0.02898789876500975 0.02851517966458753 -0.00172491871682593 -0.009893695898306366 -0.008499346446263413 -0.005714890977340614 -0.02780832203300485 0.0149800667641102 -0.007265026911739077 -0.008726307331533336 -0.03413128169647328 -0.03502553462502733 -0.04120395927142657 0.003240669870348409 0.02776733790307927 -0.034294145456289 0.009664470841151799 -0.01239701842461816 0.03269584564314364 -0.01206361907445452 0.0423781306088795 0.07249582736910409 -0.02218212312536218 -0.08237935925430055 0.02184311789796659 -0.1793622589569971 
-0.03236920063728163 -0.09410513977096896 0.005149551022890743 0.01607903299335679 -0.03290775518385849 0.02024345378791784 0.05307864872063541 0.003874912963686136 0.0121844007348245 0.02442487009828016 -0.0001735071948907526 0.0164036987816683 0.04733258858805896 0.01149810933478913 0.009008714410703392 0.05547689974474011 -0.002086751256734197 0.004288935915284476 -0.01237297481864682 0.04570598548119405 -0.07584247347283053 -0.05812264714675341 -0.02781361931589096 0.1814647547262833 0.1000279682931504 -0.06711608365969687 
0.01230255311543329 0.01029211480630811 -0.001990444288498629 -0.004140804160149213 0.005247690905956659 -0.01021403103237438 -0.01935398269756771 -0.002089220070566403 -0.003574548333084428 -0.0210123443211892 0.0761924625934798 -0.04453547778973788 -0.1790464099508144 -0.0006469838654940195 0.002269453291839226 0.006369030097535973 -0.001867318918815448 0.001428540263569685 0.03330794872118734 -0.005402494317579223 0.004509959515256986 -0.01507206568568527 0.05788717113200507 -0.2743532370444058 -0.02815219684358493 0.09901943535546606 
-0.003293014344098804 0.004595035832307581 0.001154594125127818 -0.001212236503755094 -0.001869756809331441 0.002065198665196871 0.007439107197878866 -0.01406912719962764 -0.0002017050676597986 -0.4661552663668167 -0.04037450146266808 -0.00814946554086339 0.03888882099175576 -0.000127067628413281 -0.01431403521409046 -0.01838016447914093 -0.01748511278699166 5.38199768215165e-05 -0.02514376756930161 0.001409739651133001 -0.01290616784026976 0.04429079069077065 -0.04666534989033425 0.09045373111715088 0.002504017402092586 -0.0001549130738347867 
0.003201065027042874 0.01686044728269292 -0.005171098447140642 -0.008240077653105993 0.002000699717325658 -0.008045281084793491 -0.01914627640953059 -0.03291918072986115 -0.002573839893518019 0.1587565781277274 0.06047149341869049 -0.06473748027562812 0.02652163506821367 -0.005383831076599771 -0.06633889967082388 -0.003625566715497353 0.02568652727363699 -0.01002269444815072 0.008569571121143461 -0.02189904296762033 0.02144742331197014 -0.07100643029102 -0.03291064350929321 -0.05986081146554853 -0.02331914972693089 -0.04509936050418586 
-0.005332281385128665 0.03484533207478564 0.0005108577852097573 0.02834162328020194 0.0381799960470036 0.03843132911470284 0.03957965691569458 0.125984269157811 0.03376424948014306 -0.02261113582536597 -0.01332157575652261 -0.3052125438136459 -0.02203703556744944 0.03928978529052244 0.03403628170003434 0.01201842439346191 0.04497786049017387 0.04010573425656191 0.07018407016766974 0.04298696167198168 0.07872133465581159 0.07862757577288586 -0.07844607326283294 0.14051306459551 0.08497912815008787 0.009310597386100501 
0.002089502865466408 -0.01782505373602177 4.55820817729549e-07 -0.006970374737653027 -0.05570219369171518 -0.01141611793227013 0.002101143023690421 -0.02156445429061084 -0.0112313502019013 -0.0008198836396696874 0.07877623240434016 0.06403283580125192 0.009041763143364473 -0.01340811774577077 -0.0003640512020627076 0.02012142737814088 -0.01043070475255393 -0.01091525349085344 -0.04566353433755865 -0.01511886471527091 -0.02325038844375884 -0.0673905024384741 -0.08940421446103508 -0.06076066119751099 -0.02846156429399076 -0.005776212470627649 
-0.0001912238787762347 0.01965399073737769 -0.001377787201023742 -0.0006856443487501939 0.0125376425684897 0.00167293319683182 -0.002665524309450883 0.009464695900389633 0.003108430147173752 0.003494214999596367 -0.01144093393477987 -0.018263988406096 -0.006042476141380508 0.002459633139188404 0.00210979876019104 -0.0008708588383467793 0.004162076367230542 -0.001550666700110225 0.008343144440288323 0.003518580630882591 0.002500562605294309 0.01615491948889314 0.04328485328889777 0.05081083074152559 0.0259740683801301 -0.007540027312393229 
-0.001419543045471132 -0.01447837186065985 0.0004543099018714829 -0.0002871991924700749 -0.01144788226164325 -0.006887125674865306 -0.005561739560296825 -0.00138031780688863 -0.005241289675483972 -0.01431827356665626 -0.2056205112827917 -0.04895584718396231 -0.01455209104277992 -0.004500945025345267 -0.007118001258146703 -0.02574519730738372 -0.0002454155088017614 -0.003627169915348134 -0.005445889170441314 -0.005955426574560197 0.01253611297227648 -0.01084107729635372 0.0250314546382843 -0.05236689718530851 0.002783385027596928 -0.1603361038200405 
-0.007770579515530701 0.06469302643173493 0.005244719009821525 -0.003737192891721353 0.008884135717861784 -0.006876154917389348 0.03065221307264229 -0.04544293994567548 -0.007348489211307757 -0.003477274125486228 -0.03003136412924381 0.03797741422197286 -0.02204107061834706 0.008191268883311901 0.002451231274143282 -0.05789963388500654 0.001845321095891102 0.008874736345159158 -0.0219380241353985 -0.02547970828904798 -0.0346771905335715 -0.05534028023417086 0.03563087146881146 -0.1800437761522843 -0.05099972795000321 -0.1356492881451107 
-0.0006549903693164468 -0.00576905490324397 -5.206305822371847e-05 -0.0002896440710205818 0.008103874159589191 -0.0410063638369935 -0.002651572434631341 0.00477079011356728 0.0002158545284025577 -0.008542072146984051 -0.173942993584239 -0.08045521511087042 -0.01642645698696255 -9.056340735567584e-05 -0.004486056298770111 -0.09035846400518183 -0.01009323222306264 0.0005848339067580253 -0.01149684562345546 -0.002287956132978017 0.0004596411348809686 -0.007524466871607441 -0.003010643488094827 -0.06288666031982328 0.0008539468730643467 -0.1782225080589083 
-0.001514473822965212 0.01640008442193698 -3.070538398007129e-06 0.0006847559540742128 0.0003589458988158326 0.003525782930718193 0.006364868643336418 -0.001880414871110878 0.0004467730129393159 -0.01664739639751649 0.09672587945261228 0.03065376199934967 0.007171309830682105 5.882424654093123e-05 -0.006041926622832413 -0.08844134990457468 0.01244583780745826 0.003886921531210715 0.01209260923703422 -0.004730285739916716 0.009795302332755966 -0.01073843813186875 -0.04125914773484785 -0.05058539832401888 0.008721169314250866 -0.09901240571590043 
-0.001114091483634417 -0.01825489284960898 0.0004507091866689451 -0.002096066408163648 0.004630958924721301 -0.004552195952545047 -0.007613462382370432 -0.005089329052332949 -0.001381445361724879 -0.6188290304706429 -0.1569270092111963 -0.4327616958202795 0.01563166702220429 -0.0006590254705878658 -0.01133818638246717 -0.1401599748127202 -0.01386264009756219 0.0006322375722043175 -0.006052183322462229 -0.003362084411185875 -0.0169344187839741 -0.01321013730240527 0.06258020825365822 -0.1396062713734334 -0.0107562614134178 0.04390110439094161 
-0.4488009069143652 -0.3899483518926487 -0.4520274704761486 -0.3171121715042317 -0.3994635582238161 -0.3005890085961465 -0.5023525210872288 -0.7028357539648675 -0.7282484175658126 -0.1925861907604037 -0.0477954460157319 -0.2776467209628143 -0.3377205904195477 -0.9412703245359106 -0.4574257411901285 -0.2065745095772131 -0.6688726791441398 -0.4604162319850286 -0.6717025949366369 -0.7234964413824955 -0.6566904510392017 -0.7231388518384321 -0.5614339238207466 -0.8543632677062176 -0.6122417342833804 -0.03550307408831104 
0.002849264110896799 0.06695676623924057 0.001601795564361501 0.007430762181018748 -0.001161692013893501 0.004411189105555794 0.002572368591376404 0.01351477328558262 0.004847986360751332 0.0101784905325465 -0.2552479246420941 0.1253060515954774 0.03894765995184532 0.004546988957156542 -0.02906353610894527 0.01288357540369654 0.01424331402499217 0.00599759798612556 0.04788870216802436 0.02306669016625679 0.04419418912424337 0.0751012678816787 0.05684845305250958 -0.1023308055284981 0.08385420709884707 -0.06903411080585843 
-0.002349071535063726 -0.04526715725097606 -4.724866549741042e-05 -0.005727068056645416 -0.001807592026679853 -0.001295455253621687 -0.009550402884070896 -0.01582916668996336 -0.009708508841302992 0.005554166879962074 -0.04607848420132719 -0.07325535941282678 -0.007293605266754342 -0.002361398534939147 -0.001747461912515993 -0.02484178153946651 -0.008015021204499803 -0.003907979078219275 -0.03841816041695523 -0.03398715226357362 -0.02598776918117054 -0.03713619713404995 -0.07611365707306382 0.1056153630392795 -0.04062631770661594 -0.120188970829377 
-0.003200329009426255 0.02772121199785254 0.0004488936644661475 0.0008937860443960947 -0.001200154328597681 0.002625094841316252 -0.001167158386489956 0.01012715429709734 0.003887541349674128 0.006493837120541601 0.1681536519181924 0.001380473398078238 -0.03750200540013556 0.0003298089897106961 -0.004441315380020385 0.009955969099998173 0.006495909846455507 -0.001065195859336347 -0.003947298739769599 0.01634826596503224 0.01315669477144048 -0.00220695725100936 0.02372294849067464 -0.05348579006069723 0.01865358632773672 -0.2302564674430549 
0.01200044617727436 0.05059534092448383 -0.002996096895810031 -0.01273705327093923 0.02171460569277018 -0.01306988565684528 -0.02273055306893199 -0.007367526595117424 -0.008048725544485063 -0.01052450453244387 0.04047549409043671 -0.0116125691930217 -0.04963002252302944 -0.006897708840811473 -0.01022876410954726 -0.008706141747816781 0.001398572946553607 -0.003217555199116964 -0.005983931225057549 -0.04657558161563441 -0.0007485135413277137 0.02792996548610917 0.08508667398482817 -0.1331412105120998 -0.07279418572702392 -0.2293751722797253 
-0.001237839903819805 -0.02449974349932002 0.0001675548451788556 0.005522809996074995 0.008776331436734437 0.002306690189123778 -0.001588294689760518 0.008540257259573421 0.001256768149944093 0.01451637665150962 0.09554538483599601 0.03265281529161534 0.004179155780187474 0.001394861578160656 -0.003948160429002407 -0.02420965470760538 -0.005675777553380099 0.002386840025028206 -0.01130429100772724 -0.002861929336421315 -0.01116715710505103 0.02457035559942766 -0.0001009183272306947 0.08516800425772901 0.02527024663967289 -0.0100405867004293 
0.001478361478227128 -0.003674703714563053 0.0001356031672450476 -0.0008985025181498723 -0.007274353776633115 -0.0004490762759635955 0.004646190941556848 -0.002015072884406503 -0.002117623219196413 -0.04135680674059306 -0.001700170750098139 -0.1015462541614768 -0.01113814218547482 -0.0002529576298069224 -0.007554568945394656 0.01022780431680089 -0.00299380091875622 -0.001304423182947706 0.007015928238993025 0.004034724076445079 0.01553365275060774 0.008731066595875874 0.01685569349398632 0.0317403937486654 0.005000161067668813 0.005181296456024132 
-0.0008292979763696391 0.0425294315612606 -0.0001135795645642814 0.001856360679736497 0.004490898762856333 0.003015848048641169 0.01106050771137177 -0.002999787622204708 0.001605450725125754 -0.2867789240660803 0.1220374720859721 -0.296703384053989 -6.582025189962428e-05 0.003666097840617115 -0.0217998032758991 -0.007751201395226379 0.003373836338891193 0.003259545453194396 0.01194958559095407 0.006727155517205258 0.007195929551560742 0.033902995737985 -0.005265399918137833 0.00682185418560772 0.00102316677849769 -0.07096580420089572 
0.004779427440133124 -0.1202919470706184 -1.519577856518705e-05 -0.01952461035177475 -0.03118943973915726 -0.02187010218590865 -0.02532668439887696 -0.05074989560078758 -0.01419953275457334 0.02262939794469286 -0.04288806982048304 -0.06371573855357669 -0.006799610227215246 -0.02806649679519448 -0.01210244189925086 -0.04040487248463819 -0.005851143956932917 -0.02426310393129251 -0.04835753163923587 -0.02515549893446818 -0.01739484674309409 -0.1100466604047459 0.1011823938376856 0.02615201483248188 -0.02031328008612262 0.02309172537995937 
-0.001954133208890616 0.07876179037077223 0.0004743600200200215 0.002315149916082449 0.1005670851350514 0.01438303003266038 0.008319676715298294 -0.008652621788210576 0.007077522964959448 0.00518845625260192 0.01679759786217531 0.001403460834716114 -0.005968504872359991 -0.005342285321457418 0.004625377194806482 -0.04428573171057161 0.01557890331434639 0.006787564718374897 0.02913051677828794 -0.002488706363612897 -0.0101273747065006 0.009130201525490007 0.05991275079164016 0.0148326034993982 0.02674793041573468 0.01470343487790629 
-0.0003644844588933217 0.02315986723180318 7.254281257253116e-05 0.0004805518676690293 -0.1344921684603676 -0.009698450885303685 0.01024348154285675 -0.001867918923554977 -0.001928859098132352 -0.005816711297102348 -0.09388675780367249 -0.01136331956634732 0.003886862560594589 0.003086776358750797 -0.003268829927836977 -0.06187638499492013 -0.01005678556625681 0.00118425876949849 0.02491439543488412 -0.003168603141332473 0.004390992914735987 -0.02875827485083914 -0.04334450684825036 -0.002624505593262952 -0.003054709705881722 -0.07502415697340663 
0.0001934614388395463 0.02464561024365779 0.0004048007091936206 -0.0002977014914431602 -0.1959997116395028 0.04467690005576305 0.004301306447193658 0.00143888011491041 0.002603081894408775 0.003879062302217379 -0.1679158747423611 0.01602025334309782 0.01228666246329591 -0.001757615720334876 0.00483000528019928 -0.1508883886973562 0.02069603705519387 -0.004170459357897283 0.006281568922336182 0.001907402487422941 0.004365280132597504 -0.02653645806018091 0.005149974543243543 -0.0190153453295584 0.004457541303382677 -0.07639002803225239 
0.007286498586450956 -0.05112412842929729 -0.005696603887163269 0.005500245631291055 -0.178789047936989 -0.4158519115997823 -0.02900905314344786 0.04970618499283296 0.008419164321617252 -0.01545119305926876 -0.07081018385151343 -0.07960668221282871 0.01526000215189608 -0.007890798618044698 -0.008754342365729702 -0.2637514558996851 -0.01167352074323224 -0.007683331890178925 0.02107655350531154 0.0188562326871045 0.03354003399195294 0.03904884895846195 0.01093288339399623 0.145035385988319 0.06740425444343404 -0.02793423735720172 
-0.008679281074984325 -0.01049102488671438 -0.0009761416062232512 -0.001061544905966848 0.01800315500737469 0.122157008968429 0.006051131377374535 0.002115124237087379 -0.001751657545465249 -0.02675295218454459 -0.1120970069849565 0.01215371751172303 0.008181657368107656 -0.002801651762946926 -0.002705701567256838 -0.1507037537628698 0.02729338869402508 -0.01275913345927862 -0.0004395653185864292 0.00606949039346058 -0.01423233970862285 -0.0256390589208406 0.06749989720870363 0.004538648612254697 -0.1050262149220089 0.02554410776842897 
0.00349977186086856 0.001000540892217298 0.0009865716545934464 0.0021536984859035 -0.0375575534469828 -0.3014615208145826 -0.006359406082047574 0.0001610279764218694 0.0018609249270491 0.07619327165241284 -0.1412437463430593 -0.06699837994442176 0.02370207830973971 0.0008354009252867049 0.002501962808205902 -0.08443164741718757 -0.001064455965151621 0.009918086121067657 0.003723719023382634 0.001282196544556312 -0.003688725838213794 -0.01141863754272641 -0.1060374685882902 -0.02434258057422806 0.03520620374541375 0.03814198635282234 
-0.01003480132646927 -0.02818030011866919 0.001310014673901242 -0.0001947553141929225 0.03369013474620701 0.006244828486889712 0.01084834860023851 0.007045427009061158 0.001927684602370399 -0.2560960177984823 -0.1700335503497878 0.0916133279831976 -0.01264402900354548 0.002511048244082532 0.009091516385447659 -0.09318630473643996 -0.0008939905849265205 0.001062167433363116 -0.02372799502756788 0.007898362843559147 -0.006515395893392153 0.007185565267429344 0.05618363111611453 -0.01931401280938009 0.02749447510982671 0.001162903269072547 
-0.03915510366453218 0.1788442315074571 -0.2621580219870838 -0.003209802032886692 -0.2031582542802442 0.0005741430755604564 0.3866102340900682 -0.1949049323511191 0.1059919545202624 -0.02337523411870683 -0.1156359796702043 0.05375152504730518 -0.1669230811852612 -0.4936050760666126 -0.09596435475521474 -0.08947802675993366 0.2730131879643382 -0.2246272938123811 -0.1869926249232891 0.03354948165224213 -0.0530341666493015 -0.2560652198599399 -0.2003507180331735 -0.3266370657555739 0.04035201729956748 -0.04262433845670487 
0.001648370476295094 -0.01284250997944605 0.0001876903617466448 0.006094758345017941 0.0008369194655195821 0.0003718801306368705 0.02007386632772874 0.007651120849231289 0.004929336901256913 0.007913490591387091 0.08626743591995735 -0.05457994298536722 0.01197019525511386 0.0003101675572796178 0.04132242963040494 -0.005721082597494717 0.01071345568943781 0.00095922815390836 0.0027443234100146 0.009846527084274371 0.006787529603380193 0.00231047082770168 0.03277969208781992 0.1258321810673364 0.0224507169896838 -0.01537851486737729 
-0.000605859827573309 0.005337499020966271 0.0004789728056896002 0.0006605965627910358 0.001136296408021255 0.001230294023886288 -0.0002131235596675541 -0.0001739481960625683 -0.001466652025565721 -0.008151911419773415 -0.03960036690310093 -0.03234472579489452 -0.006022627177317464 -0.001705558090590738 -0.005587506419574164 0.006644173096558322 0.001805610876745127 -0.0008033909551247835 -0.01586909855997662 -0.003864603346302569 0.02118150956212837 0.004828501377585242 -0.09096589654960222 -0.1071725594434926 -0.01134360419626589 0.02602295079422384 
0.001319928811002236 0.0177744863278456 -0.0002630794005515047 -0.001960250837939944 -0.01016792787096615 -0.0006968767532562678 0.003292680999345303 0.003071218809755946 0.001402919329295781 -0.00232355471260397 -0.1175828554602405 -0.01733415089145243 0.01129114167944535 -0.00100832377187669 0.01027963683258177 0.009192692861875486 0.005920600257643281 -0.001155072775387188 0.008098125084252214 0.009524620813208573 -0.02858591888562757 0.02105218855711322 0.01128091302230405 -0.09615932806731355 0.02199592323670475 -0.01178052067766123 
-0.008365015358847511 -0.01365006639441608 0.000553102229074605 0.004246161723601116 -0.005685813128285928 0.005270085102181649 0.01565021266351809 0.006267269461165494 -0.003293504912883851 0.01336287206655084 -0.03467903003705523 -0.04504548572157163 0.03560271954325256 0.002563145641019447 0.005239175369644825 0.01439399298517444 0.008150447196849092 0.001128807929076562 -0.004146688792723609 0.009713924748208888 -0.01503760419061817 -0.04205112504614824 0.007148245645877464 0.115243683541197 0.03377832124111519 -0.09483143154979186 
0.001350317234953188 0.01871976400665179 -0.001050330899998526 -0.0004453576499913215 -0.02074659295188527 -0.007549048619693501 -0.002297814963781127 0.0004395806975101658 0.0007790317503217011 -0.01034931293068713 -0.02803725996768425 0.003034191072963181 -0.005931299338859832 -0.0005447391334087035 0.01362899124018372 0.03237913141672158 0.009926549389050585 -0.004813137019638213 0.02001640936188099 -0.002638506196458554 0.03521926304256736 -0.01380532376140909 -0.03925153689108424 -0.08733730802724479 -0.02523703685323229 -0.04107075986694946 
-0.003219048262950599 -0.001598431941503885 0.0002220579589087702 -0.00194681622117536 0.01540850632271088 -0.001484503704612093 -0.002309293064296122 -0.0004543687288559465 -0.003531481757774799 -0.005296781460771643 -0.1855868711346937 0.03341470153242474 0.01599051307171344 0.000176969464366882 -0.006044107261054186 -0.0860411207258181 -0.01141221360135696 0.002384876348775744 -0.01864236575608413 -0.01442388470909828 -0.0332885136332766 -0.03470420386827322 0.02128225865026824 -0.00919920025631641 0.003299674872228194 0.03355353264793846 
0.003501587620527892 -0.01361123212545762 -0.0004059084843861028 -0.001234053544537677 -0.02693881786296216 -0.006931442222193707 0.01072591100654015 0.01409801728516201 -0.002740206022768784 0.06676606912886592 -0.01681540547992063 -0.1327398934134639 0.009128546922888543 -0.004748277950744457 -0.0004795722006196977 -0.003058234197648215 0.004195220624576241 -0.003554382534897396 0.003058386686612034 0.01199091643478484 0.02946382711444677 0.04661674002957297 0.01255085033368359 0.07444758707848423 0.006205759820906847 0.007378820169779559 
-0.004864939610154006 0.072104345922164 0.0001405946157058572 0.01287356572518352 0.06438218963263206 0.0300797604978706 -0.0005678569515595037 0.008458568111906652 0.01238129015272577 -0.0434190642554519 0.1486610294120511 -0.08959590949612044 -0.02031611554626235 0.01677227982292469 -0.01298351358511878 0.04360164638601384 0.04363744059177602 0.02466683629740193 0.07279723460363943 -0.003254052486945934 -0.007204618014832224 -0.02092471895468089 -0.09813389539170167 -0.05381381424504938 0.02784514519267445 -0.02345475297916029 
0.007331681416116002 -0.06092001856247567 -0.001354639392770159 -0.005673708357043702 -0.2142387827818327 -0.03460891703492909 0.01653292548128657 0.007056614843109922 -0.009622644508710478 -0.006831218768980072 -0.1957040794935607 -0.0576638645284793 0.04110132698199933 0.01340325864008651 -0.009921789644360132 -0.07200764540028808 -0.03887016640452354 -0.01077829727054786 -0.100822071725799 0.009288112864930965 0.02331788068885009 -0.1002807182327963 -0.353852180573662 -0.1115189545026815 0.01215710477261961 -0.02316371159208967 
-0.005295872935523869 0.0630930054260145 0.00143950024165524 0.003043415309057243 0.1000563404141812 0.05362326593424199 0.004909379289790003 -0.008084491024248694 0.002866196441457482 0.004180467019449832 -0.2744126036385287 0.001297801298112324 0.0003950985206714712 -0.07304705449301273 0.01456476719021133 -0.07788737247653291 0.02789895054663747 0.02654095554527858 -0.4660908342359922 -0.002997252235992758 0.02503721363925781 -0.01008657609264325 0.06202331641083333 -0.02592865545893398 0.005579531338045498 0.0352136025348465 
0.005026609703512951 -0.03306970121635312 -0.002902897847826441 0.0006354595581190877 -0.02283842208810694 -0.07769485961781268 -0.008896483977203587 0.01267725563748638 -0.001130860554232649 -0.01343379286013508 -0.1299963661347848 -0.05838093486284989 0.001974981411568179 -0.004232389484070522 -0.00487085265581934 -0.1281401621037938 -0.01846287215862588 -0.03110952670149343 -0.01033708889831189 0.0001903897674552923 -0.006555759818830738 -0.01210857121905822 -0.04255541762441623 0.01693230716062145 0.03022024090491926 0.1538740615494435 
-0.008738309905228099 0.04195089131552324 0.003721034322144927 -0.001442174997263094 -0.1977212734878361 0.1443693549775181 0.02212773907203174 -0.0364198749187114 -0.004706690142721343 0.0126643910393164 -0.1630076345991431 0.01927925558162157 0.003584218150235948 0.00487763084108034 0.006263316963906035 -0.1665054701408282 0.03366008633384746 0.02277258851235164 -0.01044184334123593 -0.01589040344206782 -0.01019251770556706 -0.04218758198802115 0.009159772648144535 -0.1314465538956874 -0.05155157385132379 0.1686098432573455 
-0.3434610604036462 -0.3499616306566669 -0.2119522277708907 -0.4416943431929923 -0.2820389260146727 -0.2879282793810424 -0.1712057847139742 -0.1579014697928817 -0.2539673139561321 -0.2732625570807579 -0.2057496041479383 -0.4519358380128182 -0.2551452863862922 -0.1960897189402349 -0.2162260469361773 -0.1005129317690883 -0.0960687485073918 -0.3867916365867317 -0.3299236551081176 -0.424051388740205 -0.3978554106897086 -0.3428004732299874 -0.2402460518102502 -0.3700706774894948 -0.3617651295010036 -0.07492889213689144 
-0.1554680887278606 -0.248628154004338 -0.220333446718868 -0.4439816550648087 -0.1331268191797076 -0.2790759743043439 -0.168802766780452 -0.1955345207823215 -0.1792255810419632 -0.2863039243365956 -0.1237426495485375 -0.3701000277629556 -0.2048998709206831 -0.1851833151622827 -0.1813739524759023 -0.07448283327478282 -0.2198321458519272 -0.3177552465179274 -0.2998337842297203 -0.3008824875557418 -0.3456123424807099 -0.3113413330645592 -0.2843559543043423 -0.2183025178214709 -0.2259874892729372 -0.1098381640682666 
0.06560528294908383 -0.1377780617006114 -0.1972948284560485 -0.4911893731401771 -0.0854826419511746 -0.2617905384495897 -0.04731206658342238 -0.1562346483556228 -0.3165466078492098 -0.2705128011417867 -0.1225692888605367 -0.2277499165612596 -0.1803309605365292 -0.2057557087069841 -0.1480150265216124 -0.04564039039920623 -0.42092880206983 -0.1470255407228687 -0.2603820289034988 -0.4291198782514211 -0.3433037620599823 -0.2914960938001091 -0.2763863881932385 -0.3320543305147747 -0.07930905070039561 -0.2376222213407166 
