solver_type L2R_L2LOSS_SVC
nr_class 26
label 1 11 5 15 13 14 4 9 7 18 24 16 3 20 12 23 2 21 26 25 19 6 22 17 8 10
nr_feature 128
bias -1
w
-0.2211173589474335 0.09440324412578183 -0.1267954574514792 -0.1064772808286779 -0.1694048613683431 -0.08435127132151564 -0.200330699636693 -0.01957847117260013 -0.2234211847445879 -0.08211464529309008 -0.150963286670573 -0.0760779483987309 -0.1436633011915281 -0.09220035016935148 -0.06258874776746955 -0.118755747911539 0.4082463987963276 -0.1581002315318317 -0.1338272033488632 0.08082889288944854 -0.2857438312390337 -0.2128082345926244 -0.1089516379988689 -0.2198904597074942 0.2399940636800076 -0.05657956003097667 
-0.3367411955423197 -0.096864443921448 -0.2019141056801767 -0.139326508699223 -0.3656453875804095 -0.1545791810246232 -0.3360477821948555 0.04894077875540303 -0.1556399849974489 -0.1606102904727915 -0.2615661820668646 0.04833132253965849 -0.2006177434164427 -0.1928002019897709 -0.1480463831959791 -0.2558020467957078 -0.008354963158010044 -0.26724910450028 -0.3364650356331842 -0.07785817020206247 -0.3105555147028063 -0.1920537499737767 -0.2161488653215726 -0.2353168448673512 -0.07467918068953887 -0.1417873186907486 
-0.3972982347565412 -0.2511014471952219 -0.2838916705253683 -0.2161334415289247 -0.4490972881167886 -0.2567544156847465 -0.3840735902939091 0.2245021861884441 -0.04422271352243658 -0.2306307288048013 -0.4027503917152038 -0.05771027392887422 -0.2831343034313425 -0.2941878848632684 -0.03925141336135168 -0.4168347345566274 -0.2460966606447599 -0.399640743238233 -0.4529418335538045 -0.2340657679819527 -0.2605791700082236 -0.1791587158559339 -0.3754125612862926 -0.02859243719258829 -0.2793639440753681 -0.2613090645069646 
-0.4941733041562672 -0.4227616037442053 -0.3414956970929506 -0.3059307610239225 -0.4901264430728329 -0.3545457826071807 -0.4283433209306363 0.1698562427979441 -0.1025200608007676 -0.30904787864334 -0.503294628894012 -0.08839933889229402 -0.3987839385435894 -0.3545969630896384 -0.09890302493603421 -0.4662843523042867 -0.3909891438351891 -0.5918932213396737 -0.5389059277356069 -0.4535719328492115 -0.2632324847541344 -0.235791045273602 -0.5039520838363797 -0.2597128936738756 -0.4180888904836133 -0.3301414614275234 
-0.6187757117688159 -0.8367054804622988 -0.359108819741234 -0.3772359472325711 -0.6072521933371517 -0.4171274364463023 -0.5435255193153583 0.02663815322721119 -0.2067979695783972 -0.3532154551560683 -0.7035094883064033 -0.2356809845679017 -0.4260290349089629 -0.4402087528808292 -0.2039622938919805 -0.4945106627207485 -0.6634271635985088 -0.6941170979064744 -0.7785870008964715 -0.6172362029945243 -0.4207772660678986 -0.3406809560822517 -0.5667837553139077 -0.4618866368803065 -0.7877615677158165 -0.2820087128289168 
-0.5195949463895989 -0.8870082570190551 -0.2393666550984208 -0.3243156976623903 -0.5062226186485707 -0.3198696862326505 -0.264776796333598 -0.09802035687268391 -0.0749101982520326 -0.1817521975400638 -0.4725327016630222 0.06793244398419758 -0.3169000826632197 -0.3517149885301719 -0.2150368793682944 -0.4834615278944558 -0.8017731305142098 -0.6434379933749648 -0.6743291252165203 -0.4571298194894546 -0.2678817718451821 -0.1367608017296904 -0.5490896770244 -0.3540730862496891 -0.698981163255022 -0.1807613013397452 
-0.377990953988135 -0.7100170592057481 -0.120937324991808 -0.2648251852132463 -0.3677366103501156 -0.2225193388010316 -0.2098201558915829 -0.1797663537453252 -0.002708039019990702 -0.01601659344465693 -0.3540619045329758 0.02345953919180708 -0.1680830688205691 -0.2477450748076213 -0.3053740915744435 -0.2961273280287898 -0.6484361847926382 -0.3617992317912864 -0.6083870308770557 -0.1443751287643616 -0.1423061070684968 0.001041403077582171 -0.31399545588706 -0.2996692997101024 -0.5163711724690861 -0.1494610512208298 
-0.2536548157416915 -0.6885784923813616 -0.0769989331743182 -0.2578173584535134 -0.2317249678030114 -0.1498279140175163 -0.1662299558095947 -0.1236947967714265 -0.1211574531780126 0.0648009108878939 -0.1526233295456393 -0.3160572461599765 -0.1005739214910002 -0.09850586449045466 -0.1716366841180184 -0.178628375728927 -0.6311794824901055 -0.2121652887087715 -0.4062026630491058 0.09165971905095303 -0.171428122099094 0.05997704983658867 -0.02026008777303115 -0.3114292533895796 -0.4597106887938877 -0.08434387217213456 
0.001236641095966269 0.001131241507522979 -0.0003035632681215333 -0.00064958157895457 -0.1812748950896518 -0.005565368493732046 0.004560540535773405 -4.267358046196139e-05 0.001668728371008254 -0.004697827557854913 -0.007982503612255401 -0.01040339636327405 -0.009614482818573239 -0.002436066408125242 -0.006804081458687108 -0.09573595178006261 0.002077612885948496 -0.02052092945463822 0.003939775391143597 0.01043753926716464 0.002626673233091429 -0.001258439266338056 -0.01385577123513515 0.002417905097376815 -0.004246800769952604 -0.05925310536447406 
-0.0006256791795484938 -0.009965210076952296 -0.0001207368761298439 0.000445867166861406 0.04663292796595896 0.00682116634849497 -0.006744999878265453 0.0005058520791935291 -0.0006378175954414756 0.004100509740875231 -0.03714701824999955 0.009033861073158492 0.01498963903891467 -0.0005032652071197221 0.001451739017144697 -0.1081879437512479 -0.001790204294991434 0.01627513278982869 -0.006106021593204409 -0.007673332874437615 -0.002395353890117735 0.004121841747293241 0.02568877389325889 -0.002018292761213123 3.826386565088303e-05 -0.03116873205981567 
1.136253971945403e-05 0.0121599822128942 -0.0003351811733927175 0.0003263086964485013 -0.05079964456523675 -0.009038357140113567 0.006654863777515042 0.001258576228181142 0.001417698841050655 -0.002021092791383261 0.1343790321340977 -0.00685196427551087 -0.01169495718439445 0.0002274403503587527 -0.0001846652827772197 -0.1571247671345937 -0.0008930372120023115 -0.01498866038841215 0.00525839964013898 0.009106699206363934 0.000400961999324138 -0.0001249563554261698 -0.1244868508115796 0.004651550010537309 -0.003119588713833913 0.004480291167954728 
-0.0009516575638452512 -0.01310056663544756 0.0006876511909572695 0.00103050351849182 -0.2710046344566169 0.004142974199700241 -0.00656511436608278 0.0002469548985862873 -0.001502873123890602 0.002399364925290661 -0.4000827437950422 0.0094112775997089 0.008178545521295112 -0.0005139954612566363 0.001123120843648061 -0.2042331696414593 -0.0008264506176603459 0.007515380122482084 -0.006211398412167691 -0.01355785651841935 -0.002729988957201722 0.0005350305459479775 -0.2088910074009951 0.0001101620240075727 0.003934103430356528 -0.04840852288241946 
0.001501497035205536 0.002882325491459581 -0.001383696650536435 -0.0006742811299784559 0.0904191806851168 -0.001305654045389361 0.004957931632451723 0.003045643620122524 0.0006291067579964976 -0.00328931490692753 0.2475267884437619 -0.005941362279880531 -0.01171375774210123 0.0001371720610649802 -0.004099561636192749 -0.1051042103698822 -0.001509077012895449 0.000281561134124439 0.004763919874470864 0.008869568598561285 0.004849327499228387 0.009332006685547871 -0.003677733389335466 -0.0009371423554136729 -0.004251400635208775 -0.1823113580991303 
-0.0006508909401294664 -0.001009861986757902 0.0008465096336833667 3.955806199735314e-05 -0.04156386986159342 7.61038362273796e-05 -0.001591502510136693 -0.00018216087940845 0.000512761256031873 0.002677883025003848 -0.1343645822665613 0.001566915673179885 0.003730409921956737 0.0004205413173168777 0.002238300368043918 0.04900134401523529 0.003652834714241084 -0.000308044597328902 -0.002591342359516363 -0.004044811169196575 -0.001218685509858352 -0.006976532153286662 0.009068565644178591 0.002468902837790434 0.003999899982692696 0.05299294849851711 
0.0007371085826961902 -0.000598076119588404 -0.001345518441505467 -1.013792678599571e-05 0.02921325552745914 -0.0003032034737241712 0.0003228514363190553 0.0002392311756727727 -0.0005451037185252114 -0.001639115191906319 0.07235253558032573 0.0006829408843634674 -0.003188527641964995 -0.001108338929080471 -0.005845319321835634 -0.03313387126390874 -0.003722125006416647 -8.678180427102475e-05 0.002330907187320272 0.003342726490765621 0.004461384338186068 0.00764294497260067 -0.005142454248106343 -0.00466562610666758 -0.006622925845745416 0.05927258668031771 
-0.0002389964729212172 -0.005570787569959833 0.001694824921613119 -0.00119095245433656 -0.016256300585211 0.001098417959511992 0.0007586336011956669 0.002513723292264802 0.001424002599692576 -0.0005482628888877173 -0.03039656953531941 0.002734783701171502 -6.651895286213555e-05 -0.001055116426867933 0.001559603898560631 0.01853733195829774 0.005611427135824421 0.001756744299435383 -0.002061831505777391 9.688022455492645e-05 -0.003083636795679437 -0.006109889293345321 0.006773731998454538 0.005660973492188573 0.008093274367265804 0.07311759973580376 
-0.2238733791686725 0.2612390248019064 -0.197583335099351 -0.09973830199837937 -0.2053265112737195 -0.08014698672460566 -0.233065714571746 -0.2267736373276365 0.1320213222724693 0.02668316768234374 -0.06387849319078752 0.2322439865735205 -0.1990816241482851 -0.2033972149439028 -0.177593811759493 -0.1129643268640582 0.2487375454296561 0.04316040964460323 -0.1699255125817543 0.02003800307326593 -0.07286660488692845 -0.06824592450836321 -0.01530530435937876 0.04496740114835156 0.3302826866381639 -0.06209651366595003 
-0.1123642962486647 -0.1766670044726671 -0.03154914696539932 0.003636371596583698 -0.1368142637053466 -0.1558143072692659 -0.4341470553797618 -0.4115129884714792 0.1715340847247199 -0.08319724760473748 -0.2465730559431963 0.07886782468719521 -0.1356625085940885 -0.2638637369985268 -0.2609803090736956 -0.09822967270136108 -0.2008964866000265 -0.2337698951441831 -0.05638393482645293 -0.03032377811641219 0.05152491278609392 -0.2197256465932672 -0.108862372452902 0.08284842614390811 -0.3074186374777159 -0.09099832550728092 
-0.1500456044395197 -0.3115158481609588 -0.01064561631674204 0.03021384428279178 -0.1871570699646276 -0.192297462171333 -0.4092464064018776 -0.4281102911102095 -0.01341251333254279 -0.1268782331209259 -0.2477341196412992 -0.02375305811481023 -0.08879629662163606 -0.1467043381032588 -0.09917930830299811 -0.1321309524360494 -0.2809787556639626 -0.3688337288931418 -0.1140649824265886 -0.05297510678396965 -0.004748166899982692 -0.1603740896563382 -0.2109635992634133 -0.2111363337826247 -0.323690615348783 -0.1417347368648803 
-0.2720715158933371 -0.6052436406069635 -0.1681380814377635 -0.1589937812058349 -0.1941599007405245 -0.2982996330466474 -0.4617277035163125 -0.5178116083459199 -0.2630860174706623 -0.2931250604008358 -0.2695864594912146 -0.3989806262388328 -0.203228916568037 -0.2058121169615969 -0.03447412790176359 -0.1434704098929461 -0.4919240732531411 -0.5423994334309272 -0.3548077024583547 -0.359274490856347 -0.2769688245369409 -0.3223310678817098 -0.3368906317819306 -0.4458086140797174 -0.5757246228165539 -0.2314485664034579 
0.004294566733368285 0.01790322956896158 0.003533873460340596 0.008736176237412394 -0.3897196553491949 0.006064642355504213 0.005707644758888303 0.01320798658554842 0.00476665152409639 0.01464245959326412 -0.3170765967105683 0.0139630591567429 -0.04899210672638933 0.005313648739303281 -0.002896265776960717 -0.1958553771669714 0.007942701482470262 -0.2017317555310115 0.009548792848497396 0.01787766406278144 0.01365772146142404 0.01899187048110828 -0.0540871666735821 0.02658681395837535 0.0303536359851193 -0.05829816011238242 
-0.002289806147267591 -0.01344604340105731 -0.001851728466195386 -0.005873635617986681 -0.3814285461305797 -0.0004707546580731621 -0.003629705695286589 -0.005091241024586252 -0.002429945003961333 -0.008279259347206129 0.2091009460349433 -0.004141123172123047 0.02446345162057315 -0.001741861465346362 0.0002751089880270814 -0.2881660733317882 -0.00758871924299898 0.1352198501966755 -0.00641461799107332 -0.01010671797878895 -0.007954834156030204 -0.007515057804719568 0.08347482933051341 -0.0103434678983468 -0.01996502910611756 -0.08538218766274618 
0.004377674189072207 0.00490925494722014 0.002207474701405702 0.005959098739340911 -0.2327706250039104 -0.001343417501104254 0.001233608101468471 0.005108756167750821 0.002040171471446136 0.005628853948592257 -0.05504994672899268 0.002718894888762672 -0.01282857034925742 0.003182894019858495 -0.002890443911609288 -0.2429505155288574 0.006065547944183733 -0.08731795992448919 0.004222812117686293 0.006655795456879917 0.004156662045057105 0.009748885007705 -0.05788392917166606 0.009766823664254546 0.003698522492252566 0.04975081094775145 
-0.004814539317815046 -0.01470597690793853 -0.0003630117423569664 -0.007902831050645525 0.09181292859117154 0.001296857849899122 -0.002876413813664854 -0.002891112183006233 -0.001621286669152708 -0.002347101949497507 0.002469157720724054 3.699848315160434e-05 0.00362389357835888 0.002303875467571272 0.0008426817044074762 -0.1525955978860756 -0.007814616181817207 0.05868254115704875 -0.004538329307611699 -0.007553231473721508 0.002937646192033182 0.002889572500442845 0.05323199265111213 -0.005153775151565993 -0.01065834937251367 0.02105402835462394 
0.001311234845965252 0.0153398795160594 0.000628062166491551 0.006084279107262719 0.001899473895498048 0.004055736321476475 0.001338774335112927 0.02174278262478135 0.001851914498092141 0.0115208324636361 -0.05581909032707708 0.02522105155621984 0.008788727191675373 0.00754434171335987 0.02831682972583838 0.07396034483638986 0.005481271226294331 -0.007508779241401366 0.007096654944770187 -0.008093608862406175 0.008129608646421356 0.01255488221361368 -0.01151372902943532 0.01508599464074682 0.0157355636233844 -0.07661900184726494 
-8.654773716095887e-06 -0.006515935923558639 0.0003035423541210605 -0.0005234744362921967 -0.003993530518427979 -0.0003988872698492711 -0.00265685257939817 -0.006795802144908967 -8.881901857317297e-05 -0.003958037539532375 0.03055490261617121 -0.005214376493772234 -0.007151949837695691 -0.00287010397707871 -0.005062788893498428 -0.1594688836852508 -0.002511778716960179 -0.0004418613005702771 -0.001501965552803562 0.003531177855522798 -0.005348958168257526 -0.005606801450129144 -0.0005148584181552548 -0.007022918769361823 -0.004613290210913168 -0.1035065892815167 
0.0004162518576630042 -0.001379452483035618 6.26576177143049e-05 0.0002111356349223355 0.007998500307305126 0.0003227805424870252 0.0008238770836720734 -0.001136688558527344 0.0004974639303865825 0.002701986915642792 -0.000250145045011065 0.005211064675376242 0.003864134210519051 0.0009487201783665168 0.002968405289199374 0.06459972271339105 -0.0004761841105851454 -0.001540264118757491 -4.263524989627627e-05 -0.001750913496219853 0.003593166299406348 0.001881012373171482 0.0177621718839471 0.005164356056269143 -0.001745974970997293 -0.1070560983320324 
0.0003603815639341386 0.006447631047627279 -8.585360092530796e-05 0.0004170862228206874 0.1238452635106585 -0.0005390448380086256 0.001057990999117533 -0.006040753675814029 0.0005104757933519874 -0.001740070989408834 0.07101989534283552 -0.007216499628761943 -0.003127390273010306 -0.0005333924830287489 0.001091019945672075 0.01897388360517879 0.002927467412055776 -0.003078448228292222 0.001184126761471898 0.008340611489849853 -8.734820811182492e-05 0.0001217366451745606 0.1291155998802122 -0.0004840409481055081 0.002802692718274543 0.06998339377036061 
-0.001184571736180106 -0.001168877759997549 7.686348169110436e-05 0.0003997800359640438 -0.007814057457434269 -0.001806823315419007 -0.001629105631185361 -0.002950576032523833 0.0004444208253916093 0.002481259135538028 0.01500363582678767 0.00963064608039905 0.01066576301853612 0.001858761582546356 0.005738858180228495 -0.01418358095427101 -0.003406966424598637 -0.002592586160337057 -0.002294429233714372 -0.003466639731950507 -0.004302948555445479 -0.007915289888154013 -0.01186584838715462 -0.0005199428185271649 -0.005303133700044599 0.07592053729909838 
-0.0005143282812179297 -0.001234934608407624 -0.0002836516525195827 0.0005005583267898579 0.0006636600843939556 0.0004098368718307623 0.0007489993585380919 -0.001444848832411236 0.001082597086743904 -0.001099257635440505 0.01430158071604907 -0.000606885852469621 -0.001600500400104366 -0.0003906152254618155 -0.001678451972083801 -0.001890869446512752 -9.659985370574903e-05 0.0006097371504725535 -0.0004122391012944018 0.001268586198214113 0.000505139892183098 -0.005087265359125652 -0.003935154264416609 0.001422888100398425 0.0002554128287723013 -0.04050164721351398 
0.0001354752722550419 0.001894393105162667 0.0003314592363612856 -0.0009573627639569133 -0.003701388520321679 -0.0007816108125597229 -0.0003677524664424172 -0.0009508011259855399 0.000426419273618055 0.0007024894442270675 -0.06140985140327096 0.001134829559760813 0.001213636641697812 0.000232155150807336 0.003099232995962787 0.00463570415062041 0.00362076932968071 -0.0004748843005638477 0.0002602759100750458 0.0007485641326530516 -0.005155767994202121 -0.002215176560954544 0.001119747206962708 -0.000719330695972725 3.108379283018399e-05 -0.04655597992062552 
-0.0006788789423025481 0.0002732549437570687 -0.0009913694668111301 0.0007592180399572997 0.008749719846102634 -0.0003505434982932924 -0.0001224473932719339 0.0004953637543765562 0.0003375357465352216 1.305318454624792e-05 -0.03220040308031395 0.001943447020441352 -0.003240247768800268 0.001220527418903445 -0.01485128557804417 -0.01061972660221945 -0.009220789388403081 -0.0002696701177699351 0.0008373286746506782 -0.001413421960782781 -0.006965396218644789 0.001840806193872395 0.004478426599664066 -0.00170965306403651 -0.009703785556726052 -0.03558326869940109 
-0.7247945028359898 -0.7827040106972776 -0.5153606981826351 -0.5638678724971123 -0.537034446763072 -0.2933609013718327 -0.9618785255513549 -0.8688148981975292 -0.7299969725203506 -0.4609555624879417 -0.5879807622504776 -0.5931132053348201 -0.630374463604233 -0.8556969312389291 -0.8546690596566314 -0.2014661712545225 -0.8202037072829992 -0.3498920165662269 -0.6945072581960247 -0.8604541738977074 -0.6577648242293084 -0.8582401365706649 -0.5087066215128584 -0.8601937645653784 -0.8001999009319501 -0.1340767277221177 
-0.0002773229051275272 -0.00200513178059246 -0.001441734417194097 0.001803249475008386 -0.2770870645292798 -0.001021788696207302 4.503862812312489e-05 0.004449521216577945 0.0001327075660936317 0.001096308596435 0.004224127091351548 -0.0002022468185087258 -0.01091745192985752 -0.0003720097028724253 0.000425022588628602 -0.2412223459796392 -0.0005853717976189945 -0.0006719216122129753 0.001916026379409536 0.0009970994543620532 0.002626867820834295 0.002381405964342015 -0.4012529412087743 0.002217998072681946 -0.002600878175877906 -0.004910677434360192 
0.001486217374801049 -0.003532951944505923 0.0004745755347355823 -0.0005289245277953603 -0.3830553103937079 -0.0002681089017808154 -0.002411536396279962 -0.0008202406937035199 -0.000143116283411648 -0.0001330017171964044 0.01489216214902089 0.00284106419550418 0.000665487049254428 -0.001209263439912611 -0.002306669289441224 -0.2666605378108901 -0.001220918512477045 -0.04085715488489385 -9.145451806813647e-05 -0.001129032611382764 0.001300572501213299 -0.001412633391024916 -0.5639204919785736 -5.660022530107731e-05 -0.002871736909103975 -0.07948218051585229 
0.001857380950006223 -0.005236981720384787 0.0008228515646622862 1.231817406996585e-05 -0.3775995007249615 0.002522751597773988 -0.001057364627336284 0.0004876039411323055 0.0006250567443207673 0.0006545073753243578 -0.3652602908215866 0.0009302370904429628 -0.002535624437951118 0.0003599858145270999 -0.0009025002420803515 -0.2747219562757554 -0.002453122252572345 -0.02720013168559619 0.0009690084031635301 -0.002229006531517564 -0.0009424011132389097 0.001718454037444516 -0.580688015970357 0.001516022283118159 -0.006000842333470233 -0.05619934147194321 
-0.001953143560083054 -0.02647285835271291 -0.003327597567992269 -0.009430306626627211 0.01826901692674697 -0.006302573318362509 -0.007151468064562676 -0.0174666100601975 -0.003900311247499577 -0.01886286896729002 0.04244397717040379 -0.01502280263955797 0.08007633582426366 -0.006585043391831623 0.003573730977637207 -0.3071968370141819 -0.01133242430852896 -0.02217885085483792 -0.008755539406966308 -0.02078686469804231 -0.01237818490972078 -0.022206903486124 -0.5620765962586221 -0.03287401064473265 -0.0369534473908018 -0.05435567435811349 
0.0008742451664992534 0.003761901662640512 0.0005329907017041206 0.002338099451998415 -0.00564444957480306 0.0008621521084103779 -0.0007637290407813522 0.001217830436587604 0.0004387301651289583 0.004780140285919732 -0.1025930640212817 0.005680310984195232 -0.003922726507289322 0.001414665640860584 -0.001958205506135491 0.01231625348313187 0.00134257196938908 0.0003924556124014901 0.002513084165492333 0.004079493185374571 0.004170864250330913 0.004945998999365393 0.06306267313291836 0.005762616505036012 0.003035443810014907 -0.01162849794070607 
-0.0005580684980345334 -0.007075828214630188 -0.0004018305721621971 -0.001445969861313692 0.0146494340515389 -0.001118087989724441 -0.001017191592668906 -0.001688906857048529 3.262020206641871e-06 -0.00191301450612088 0.04558956585803377 0.0006268876831038337 0.001197559421015161 -0.0001160564849861952 -0.001621188822895216 -0.001635503790330405 -0.001883208411670273 0.005558340344010498 0.0001615428238046411 -0.000855887735712874 -0.002312580271195042 0.001925472311288526 -0.001954922433506325 0.0007776292203384822 -0.004025171583338562 -0.0389989270885588 
0.001032536664442331 -0.006212301588862408 0.0003844541605732069 0.0009346633818852457 -0.03460138742331569 -0.000423298378023259 -0.001838187024943094 -0.002536533725775017 0.0004256864512100683 0.0003090457033032434 -0.06465352981334709 0.0007944173319939047 -0.001225482327955541 -0.001644820988191539 -0.002978718484303025 -0.1974473667312618 0.001612905826314291 -0.01966002673413814 -0.0008350918749517662 0.003748253418867536 0.001453420306521371 0.007828512178566515 -0.006081366849107769 -0.001911927842125378 0.000857707323738238 -0.194287498859594 
0.0006404899818141035 -0.004451971710840604 -0.0008213115147600442 -0.002633777836574199 -0.01438244395808749 -0.003951656082368552 0.0009295129496562231 0.002509500618027702 0.002957900424517828 -0.006747987976311523 0.1700536753635039 -0.02058439458927231 -0.002541797202572897 -0.005452646711428524 -0.02247399456571927 -0.01836045107112716 0.003337404055455927 -0.0006826851725646728 -0.002547682251444635 0.01905724795003945 -0.00107333869922346 0.007067489574230825 0.005983928659027153 0.002177586535406481 -0.005732965962097262 -0.1525589973864918 
-0.0002305436940476051 -0.0003786038658585713 0.0005339945136704591 1.173544990804489e-05 0.001313194080240329 1.975441166344498e-05 -8.625841564359863e-05 -0.008703240199336651 -0.001248299042687779 0.001243677983085608 -0.05373113605147968 0.0009220596164898164 -0.0008105068380444546 -0.0005242075753242216 0.002532120883736319 0.001489732340990994 -0.004210390633809622 -0.0003004229927268987 -0.0007784391624568096 -0.002663451096229743 -0.0005352328242175223 -0.00285671192301782 -0.001498432308708385 -0.0008598536096635486 -0.0008469555731207604 -0.1416067278192361 
6.75494848493986e-05 0.0006357216601677247 0.00027293924068341 -0.0005229084026583648 0.004268948263655898 -0.0002056131252320586 -4.550798005434161e-05 0.0008484892053198595 -0.0003688902264351381 -0.00078432256330469 -0.0105169255728894 -0.0001951466347123436 0.0007529888167085944 0.0002777896895460237 0.001077616488063727 -0.01063918000588621 -0.0003458323748550974 -0.004697986617129428 -0.0009714881603700261 0.001156000360686178 0.0004452047818112503 0.002170896195862301 -0.002285717194272834 0.0009619930423277561 6.494163797954651e-05 -0.1213956686740823 
-0.0003194283123273644 -0.005186285956823077 -0.000587319006941472 0.0008175399025047477 -0.06475873285067348 0.0003196032891748469 -0.001119854948010958 0.00177470366638588 -0.0008626268525361235 0.0007503568390736343 -0.07294105053278202 0.004358933693921763 0.001185713152093173 0.001102002885114065 0.000155802347097113 -0.01626162323865742 -0.0036573052244206 0.003015179679922398 -0.0004392242066669141 -0.006713127697360317 -0.001859278284044715 -0.003612536906081807 -0.07114745915988145 -0.001696176394265977 -0.004213222521279134 0.09548915747611124 
0.001921028143405602 -0.001921141415823584 -0.001201376746149296 -0.00122955002902822 -0.01130915117879664 0.001398943676820857 9.595516317153021e-05 0.005494330825038017 -0.000535070101367012 -0.00384860335221674 -0.007451103792662617 -0.01809366571839165 -0.01476718426043025 -0.001658990796890509 -0.006014830009366276 0.009953740557365844 0.000735397902823736 -0.0008832087693681474 0.002537203469126648 0.00492602605162443 0.002187979321057824 0.008381491953230184 -0.01426316877917575 -0.0004766623138644188 0.000215122967102258 0.01905779817683606 
6.02568425059706e-05 -0.002175576552248381 0.0005483024063277116 -0.002974201071741997 0.0006846275351439667 -0.0009695822067948196 0.0005946280465610571 -0.001542015305453631 0.0003194776706689207 0.0004873247349977025 0.005276622097544874 0.005389856819816899 -0.005536813987014948 0.000919224861987679 0.00323709603385158 0.0009447214253416616 0.000204366987443271 0.0002766462661910502 -0.0004301276715639406 -0.0008525818052407519 -0.0002908709302592441 0.0005589658535170648 0.0008589464692422464 -0.001726775368574203 -0.0001826432164658815 -0.04532414199639289 
0.0002370752431758604 0.001111375877711547 0.0007015769263920569 0.001289954935327261 0.001541761195395433 0.000690614118671133 9.779261811925432e-05 0.0003002889248250131 -0.001036375464699898 0.0004562674347041847 -0.09499777577606217 -7.724907377371452e-05 -0.00513074142944911 -0.000282471734652952 -0.03343863210347049 -0.006239971652566219 -0.004577380518400874 0.0007730227153220439 0.0006507039460977468 -0.001027122440754366 -0.006005663983611378 -0.002830236913361232 -0.003749458443111035 -0.003077145906008453 -0.001531307381423732 -0.006735705048063144 
-0.0003159890612386728 -0.003221486264576006 -0.0008774967968297194 0.002822897586725567 -0.003504092851531094 0.001830592094474441 -0.0006220235225098888 -0.008649381482775227 0.00132697269778783 -0.009593629571507016 -0.02748972066594093 0.001800982222491385 -0.00506417487015605 0.0002325528029240185 0.01801029282975453 0.01295317016938433 0.008843542204865027 -0.002241784789150943 -0.0001500223143869163 0.005256117893961691 0.003316104001352183 -0.004744289584228597 0.0006329367880464017 0.007953124285622833 0.006758776823790876 -0.01394707533085826 
-0.01237555672601937 -0.002504778752527783 -0.002030942173154689 -0.002031834464411558 -0.03122287154954327 0.002207155929049224 -0.002158670480581876 0.001973101003433913 -0.002021323996324992 0.001091799372506066 -0.1155763379692607 -0.004435419075861484 -0.1083637862238066 -0.003104781206099172 -0.001868494560871539 -0.3810826059825092 -0.00266376397563636 -0.008550358473402821 -0.005137936702337669 0.004364477678449498 -0.02968831459811044 -0.01872450490375119 0.008681755859216237 -0.01140699803991025 -0.004683814775899975 -0.1969102243844593 
0.0001334396122680127 0.0002848432319811806 0.0006310449989084997 -0.001266252155261683 0.009470014476665914 -0.000878461962887306 -0.0001888116948992813 -0.006029882965180177 -0.002245868039112509 0.000404471997969614 0.08504675049595031 -0.003077091240210425 0.006681690951547743 -0.0003866676020777746 -0.002396518362262026 -0.4640349336382124 -0.001092241472881032 0.002040953195437989 -0.002137962251685755 -0.0007761355929019602 -0.001822246425140491 -0.00382027434806511 -0.01762796531058281 -0.001459141245757611 -0.003061937003350757 -0.1269605738932196 
0.0004936095118246129 -0.0005673050394938333 9.767161939519363e-05 -8.883130755984365e-06 0.001294396215121383 0.001854538847079143 0.001580272871740643 0.001462797998595833 0.0001310959360661247 -0.0001794248901507299 -0.06163993998639413 5.421000452337789e-05 8.922216368931088e-05 0.0008780860008612893 -7.080036291754602e-06 -0.3637931589244321 0.001651938950644941 -0.004971600575784775 0.0005994472053255678 0.0007696209485322361 -0.0001816980860978105 0.00074427198308591 0.04733807219189697 -7.934007611375042e-05 0.0002506567629759143 -0.1742032696197686 
0.001155518106553079 0.0008643186434987114 -2.195967832460648e-05 0.001215056744716582 0.1067246960827784 0.000352801020422877 0.002665418017167128 -0.0004754929614555607 0.001158981871754203 -0.0003659683503606813 0.1401673200855201 0.001850637407291582 0.008872682536550991 0.001514993688995473 0.001390676698353095 -0.1371269441464544 0.001151121866164442 0.01025746691415977 0.0006035403120415916 0.001961012649637116 0.001508954688711744 -0.0004155187466588201 -0.5589550140833598 -0.002934671104175892 -0.001685667154771297 -0.1533271546315149 
0.001127573222070687 0.01780847041478052 0.002365652990468755 0.008109194128753872 0.01614746336655518 0.005219341963213931 0.005303000238644454 0.01320206983096854 0.003754828164975545 0.01951887255346598 -0.08769203799784898 0.01220733681070963 -0.081584215112265 0.005885944563342705 -0.003275715097859823 -0.02270258767807579 0.008924674212598023 0.005194455702956402 0.007519032950384167 0.01853972836987993 0.007855267574489788 0.01681268491812356 -0.03176420404559535 0.0337125488394583 0.02385875678470503 -0.02495776682698782 
-0.0002675307187208776 -0.007659950724777071 -0.0004914396588698274 -0.002427920679624555 -0.005193608307307439 -0.002184947505262682 -0.002488998319953821 -0.005160447808978294 -9.018721128815284e-05 -0.00718729185977473 0.0006360646367830917 -0.003405367583327619 -0.01110622240980489 -0.0004628372986360344 0.00047017679460438 0.01031483113598961 -0.007283424651442933 -0.002307481852948218 -0.002177349848657733 -0.003899368230284249 -0.003479237663399947 -0.003293003119956521 0.006271208833868209 -0.007852278262827512 -0.009754847707692383 0.06361996735900635 
-0.0005516679944360202 0.001715385917154656 9.327283421184283e-05 0.00014517850404713 -0.002798022128254283 0.000308167285234973 0.000396988533557449 -0.0002498563720096899 0.0002983477006238953 0.001192391155471913 0.006548762383432945 0.002991060384537679 -0.00235944559325365 0.0004994277997589527 0.005199184767118259 -0.01831770768611072 -0.00423153928327076 -0.002307449438647883 -0.000812146173059805 0.0008243581069907343 -7.529432925005306e-05 -0.004387436055814751 0.001395113536467659 0.0005356538882221021 -0.001272848326472501 -0.0202841901210661 
0.0005600961975224876 -0.01768211983170916 -0.0003805575326895522 -0.002211331252619372 0.0120612321170706 -0.002346654164444587 -0.001231718870330465 -0.003327649227114455 0.0002174397382034584 -0.00270141436425942 0.08078115122700581 -0.006019784846806976 0.0002615279645343069 -0.002503306638703842 -0.02707556929413373 0.09235570678007142 -0.005175566759480456 0.008841667292822666 -0.001599911312321628 -0.0003065826481408343 0.000668861618217099 -0.0008523853257684198 0.00393538743547526 -0.00679515451522864 -0.008568884776653362 -0.09403585108657653 
-0.004855217684679994 0.001521613994182185 0.001162441895455599 0.001923171749030081 0.02603717593951937 0.007040869885555684 -0.006066849399908524 -0.01455281766992274 -0.005047410466212615 0.01030927774696517 -0.2329031503886397 0.03057166868388491 0.0001620814146630621 0.007914185125593939 0.03546145026568557 0.03802830486189535 -0.006421640841961897 0.004075975265364417 0.004836777726744181 -0.02445242407890824 0.0003221270540362268 -0.01387470985349851 -0.00399840147780536 0.006260030536730897 0.00166433862948376 -0.2043089636175813 
-0.0003512486759032562 -0.001045741534920331 -0.0008193210424646408 -0.000680165329104741 -0.009722657653742575 -0.0007554952141237978 -0.001346906674523859 0.002720425928285513 -0.0003870760976975466 -0.002412128962527213 0.05394396766975034 -0.006232289885240344 -0.006534629644994367 -0.002956357945871695 -0.01409986461990768 -0.004792571862870344 0.001744904727040159 -0.0001657287749154819 -0.001638373063601786 -0.0004532431720727051 0.009689891017048029 0.004070285006313411 0.009908521513474332 -0.00757836836795555 0.002055720655627389 -0.1628387717009694 
-0.001505082767425236 -0.0003135635542835467 0.0007249039690562608 -0.0001247630304954582 -0.01029410135095881 -0.0004857800955231803 -0.002615979807797162 -0.001759367072856278 -0.001654095494867238 0.001804820248076127 -0.02663252169495355 0.003080679173086067 0.001487512367506928 0.0001788141820900103 0.001502484411822927 -0.00228499644201788 -0.003213824375767489 -0.002798847109084534 0.0003344436684434947 -0.005870045828575628 -0.0005680348291097695 -0.002163442384221301 -0.01784540050343335 0.002953399971269175 -0.001950574920352475 -0.1747690458450432 
-0.0007663676387245665 0.0003127906819409331 -0.0007030444567080649 -0.0001583457157389806 0.03782382412553034 0.002463275398676441 0.001437339702517756 3.276819207853699e-05 0.001268405403125901 -0.003893892790072233 0.05788207257619424 -0.0111073201059756 -0.009294217867293999 -0.00113446545976004 -0.003004540873945424 0.0132778960828957 0.004175861067372647 -0.004279529192171596 0.000243019579024779 0.009140763892840249 0.002792832620037859 0.007763453226987088 0.04949506079076203 -0.006824410013000912 0.003554145483836045 -0.01437092575802867 
-0.002397347191232751 0.005652011307831358 0.00388281528373365 -0.008134308378452412 0.02804158095577306 -0.009134583390166163 -0.001590741522232577 -0.00934843592983862 -0.002838152816748051 0.007502824650485544 0.07540703415634449 0.03284355219777711 -0.002828932046644804 0.002491805758386989 0.01169741520362742 -0.01139630089349972 -0.005959845056436396 0.0007154691571401922 -0.003505616059183942 -0.009587315019750632 -0.004292594094134291 -0.01213180173066628 0.002852118497861024 0.01396695413286095 -0.0001578449181034276 -0.1807185907414724 
0.001097649924860705 -0.005356509762087122 -0.003770653512549552 0.002548858211727476 -0.003350129931606296 0.003274657682355855 0.0003991365385191394 0.002905683149228384 0.001410945592059162 -0.01024104654606727 -0.03031549578114214 -0.02944836834062294 0.000582670179535161 -0.0005885875972660497 1.916226087043265e-05 -0.01262348454418554 0.002679498246987058 0.001190303476617262 0.001888634976850165 0.005499763005911686 -0.003402569458980538 -0.004568356987903161 0.001690239936095817 -0.01421944959473398 -0.001550829799339125 -0.07813151361785962 
0.00105649680685089 0.005690270471750065 -0.0001465599785154454 -0.00243772440509758 -0.004939702684496715 -0.001949299034893153 -0.0001263835881836319 -0.001540098291125454 0.0002731753888979835 0.01490303268032176 -0.004963405668532319 0.03702135094926342 -0.0006657136472435865 0.0009420747492562344 0.004569720339440461 0.004121832601038882 -0.001321942337903216 -0.001125296069655302 -0.002894861839886228 -0.006328020000411331 0.00415740788589325 0.007792979835529522 -0.0004278175198184784 0.01387765439284664 0.001125997205330406 0.01542724882126126 
-0.0005782560221365555 -0.01268787678665436 -0.003330329290584575 -0.0009378372593443235 0.003641160425018188 0.001609082230620909 -0.0004515126951668691 0.002112786347006755 -0.002863395173727235 -0.02038504539249076 0.002999826091695922 -0.08692994317531862 0.001255152773554618 -0.00299505340062822 -0.02111383114195784 -0.01439208170863906 -0.002380976207443696 0.003760094717134363 0.0001801293757591003 0.002456263534084321 -0.0001376302951718846 -0.01092343750660831 -0.003124597172171763 -0.01794828135455748 -0.006354860254110881 0.03812425154488222 
0.006648269954382502 -0.008342736529688061 0.0003584982815430756 -0.0002255755751694058 0.01634277642885493 -0.001003479060829703 -0.005151429245999883 -0.02316174663458546 -0.002564846213434299 -0.004765918080829694 -0.0641621862991666 -0.001179110804341206 0.07127276649748038 -0.003456965227442767 -0.00893523652942808 0.007815277652682121 -0.00509616256742907 0.0008800178401747105 -0.001829818028098138 -0.005207618575015142 0.00967054156196712 -0.003252922249026235 -0.02127331596700423 -0.008673845372259584 -0.00826581507246245 -0.1732073355271053 
0.0006968226843527065 0.008419850637038574 0.002293533468389013 0.003363691085057387 -0.01080135584594789 0.001955178216001567 0.00425297387440753 0.01119772631863447 0.00363823752172882 0.003384099907319413 -0.006496051562165898 0.005695980442915813 -0.01870969201087161 0.005098895855180947 0.004019816984670185 -0.15028647563488 0.007380697574919432 0.005039627554820449 0.005872782307707801 0.005861022912924936 0.00471505205003339 0.009941817768159909 0.03830437863135947 0.01872045088931236 0.008580565355217538 -0.03303983636892415 
0.0001389174119959423 -0.003742382190599108 -0.0005863354710560774 -0.0009361016589184432 0.01579069636559699 -0.0007755003296786157 -0.003631870420672786 -0.009541310718673212 -0.0004570889338577607 -0.003938336266134517 -0.04004702435665997 -0.003173436608980941 0.01146253476801158 -0.0009921618477931934 0.0009174122897057106 -0.01274560842910194 -0.001111657640422019 -0.003362291537991223 -0.001806884258281341 -0.004062886287322893 -0.001485697184335871 -0.003707125469851603 -0.05553896988093802 -0.008833788878595742 -0.003085225804047137 0.06015502051899503 
0.0001250060663763206 0.004044577376113466 0.0006614177849331028 0.002380172979541066 -0.03592889458145734 0.001727371680095562 -0.001669745485633153 0.006265004807089847 0.001759411383154993 0.008328709640477851 -0.03833896318201557 0.005454829677415192 -0.03024818718297679 0.002834809775089625 -0.003705601581316065 0.05730940645452152 -0.0005562076626609245 -0.006182815537510784 0.004674333477153022 0.009509230342193819 0.002189002110614889 0.00634252900581697 0.1621931106357755 0.01350088913414141 0.003734474515153463 -0.115599598637293 
0.0001858959592376361 -0.02293742735458445 -0.002933680013243013 -0.01188022040907197 -0.02958258183679641 -0.008979946921692048 -0.007957358424031778 -0.02236744233006847 -0.004168956532574773 -0.02738223796587406 0.08554783958521323 -0.02531597504168068 0.09612279061911475 -0.0100190306929412 0.01256539431695562 0.008201550799472612 -0.01128075636497112 -0.004993420432131994 -0.01314880273419849 -0.03016373881662894 -0.004714138354421396 -0.02376640075495489 0.02085712052628542 -0.03957957304459568 -0.03091168703549784 0.008178296567740002 
-0.001662919766100859 0.01276324133722466 0.001699241637712241 0.009744216642539796 0.02300414064695432 0.007614432716433478 0.005648003682844712 0.008558148544634547 0.001215009356170835 0.02025561774457055 -0.05476640302600184 0.01942876164744383 0.04466914032425262 0.005834132461794549 -0.01417828595041798 -0.01123262804972879 0.005532255958939112 0.005154578763618146 0.01117418514547353 0.02469540914396308 -9.640170766310897e-05 0.01536960488121522 -0.01354679240333411 0.02277551515281098 0.01662601540692104 0.02044059420984349 
0.001843253323604455 -0.009058591547235808 -0.0008571911503201354 -0.008762995832676963 -0.0209123824627406 -0.007433128007015533 -0.006161429759992824 -0.004314509449976636 -0.001083911137889555 -0.01732691561921412 0.1150094241829239 -0.0203448001615848 -0.006156130621311419 -0.005349555252621352 0.01810819240309048 -0.005898741506108254 -0.003668461673450084 -0.005780769475608415 -0.006733467396901917 -0.0227778913191771 -0.001809580927189317 -0.01894448750510211 0.007926754959392754 -0.01820625391644182 -0.01586719970798095 0.01196426430483432 
-0.003882015815267707 0.01742413242847057 0.001973564596554918 0.01303590945956538 0.03156762149599273 0.0124032802066496 0.01187008127321864 -0.0007093157769561762 0.003226141282349336 0.01607300869397282 -0.09856098300745796 0.03793998384031592 0.00273426251935885 0.009874088162617806 -0.02838500802990769 -0.009019652944587462 0.00118537369031763 0.008491995756325742 0.01017014253469759 0.0379484359855154 -0.004574300941170805 0.01621169436989265 -0.006278569034919584 0.02685868927533279 0.02385228578041123 -0.01798919655537498 
0.00583261627255258 -0.03132594239703598 -0.001510397985001768 -0.009354053614357323 -0.07508293036869197 -0.01835484688683464 -0.01453573329965501 0.000819150234751117 -0.004621374518006701 -0.02579912798200024 -0.3172186240890147 -0.0688720424864621 -0.008620374806038276 -0.01804554780967711 -0.09959175241036095 -0.06961640765536503 -0.01133185772075784 -0.01844485719253976 -0.01945503754341529 -0.04385998733882829 -0.01705538735754121 -0.0139643583808943 -0.009371604273084495 -0.05619018533651152 -0.0290376053607667 -0.1295569276396743 
-0.001362368894940419 0.01904212499936859 0.003345641162234073 0.001526012323225696 0.07398781938037943 0.008116382189879949 0.006062840997331166 -0.004571658128988777 0.001030302419292642 0.01771832196935692 0.01940643459997034 0.03252276879623778 0.01754112659594618 0.007115004831216182 0.05937269406771174 0.01798794099972568 0.004581186005707189 0.01025188768000205 0.007851374654605989 0.02139647955651377 -0.020544405907258 0.002495582000951759 0.008413628589288999 0.02360770752043602 0.008523966817583949 -0.1592169424132014 
0.0004034555924329319 -0.008344643271515509 -0.002741090790937985 -0.001718688426957439 -0.04181161076612987 -0.004951904317822413 -0.00210133702593712 0.005544801419392516 -0.004093868913503196 -0.009544076794668576 -0.0825303245594113 -0.01892080559365329 -0.008794872957037889 -0.004599370654801797 -0.03624701481855011 -0.01530092062413572 0.000632285773234267 -0.005584494198822088 -0.003264896042016487 -0.01309277171311546 0.001197572966743919 0.006350134636344573 -0.003564379684925357 -0.01831921212705931 -0.004198427233951569 -0.08644004904486932 
-0.000748055900470146 0.01082565304033298 0.001527649715832128 -0.001834839468284609 0.02760884527808663 0.003873423731564614 -0.000686103168799542 -0.007859717727039389 0.0008088464078918767 0.009253610496746332 -0.02102420610329845 0.01968592411916201 0.00861724575202411 0.004007103570196721 0.03503809709695539 0.01162278783899678 -0.002957127898474191 0.003097124122485271 0.002891004664568265 0.00246989681112383 -0.006823751805301559 -0.009616367154715876 -0.01119483967159199 0.01898915697535304 0.002355183640563244 0.03544999840518354 
0.004166187125443937 -0.01226252485457098 -0.006944990874123954 0.006199195020600002 -0.07367199458474057 0.001414347027566126 0.0006034867124776063 0.01750540988827326 0.000521184528373445 -0.008210889030107828 0.03339346823199143 -0.03339485479639241 -0.008052148144740404 -0.004925478466655248 -0.03820814641471085 -0.003364880014807894 0.007073906851112605 -0.004732664373995851 -0.0003324016979845707 0.00375023342983449 0.004022500838258447 0.02203907948486409 -0.0224286780844695 -0.01886548712478442 -0.0009804522132144074 -0.05533143250541332 
-0.001382608607254294 0.006787644002347099 0.002461102329489883 -0.004330309333457584 0.03412109305433059 -0.0033806350668419 0.0002840105974291943 -0.005744853260385986 -0.002408682351687007 0.001964831722879048 0.05631669487457256 0.01185186309856959 0.002146669900425254 0.002062198156935239 0.01125963775437129 0.06306621087275494 -0.00199928062332066 0.003249355781805392 -0.0003953570903790348 -0.003223274826985776 0.0007815225724269316 -0.005534386331148403 0.002792595454533763 0.009454894439951421 -0.0008243460850707143 0.05922189682048214 
-0.0001075062642503611 -0.005149816603515663 -0.0008624093336770853 0.003624095314346195 -0.01321326288276561 0.0006082040507414332 0.001285168677574011 0.001825217454065654 0.001076073646115387 -0.001941979401255262 -0.03540106842382721 -0.01128951300146601 -0.0007553665156381271 -0.001619217037889201 -0.0007502854703014773 -0.02139998170048514 0.0004429898661555181 -0.001265712627499057 -0.0002882628207860964 0.003551687940612559 -0.0009549211713535982 0.003796052351950722 0.002609563776832731 -0.007503652821624776 -6.156492634413398e-05 -0.04479964076923722 
0.001101026854778216 0.001602513728930188 0.001637719913907489 -0.002153293444848673 0.0005701966330551558 4.531038303493256e-05 -0.001534303985152721 -0.001521105621273949 0.0001998339412226087 0.001730633585047525 0.04902062668133801 -0.8407810332113247 -0.001850265867392926 -0.000527138466707225 0.0004622375308202733 0.01681797945846776 0.003860972243611113 -0.001389669899226768 0.0007341115825971386 -0.008025047146440343 0.002879830529238655 -0.01655254694559303 -0.008198277960275403 0.01145162443098568 0.00419396812054644 0.01051273276307887 
-0.002445528077099438 0.01283740796053024 0.002428092473952296 0.004466596395072748 -0.009399816351320037 0.003761067488470864 0.00897757483585605 0.01076811444541573 0.00713492555085404 0.007928370670341963 -0.02050035170290919 0.005249724504782595 -0.06217656966897248 0.005121916055962817 0.01396220458058655 0.05525815231164134 0.007066092275261443 0.002098072008098823 0.005235632501416182 0.008865222703428002 -0.006053219198915787 -0.008540946849880221 0.01224250443505897 0.009882172060984904 0.01368700811423415 -0.08095688915900655 
8.674507743775418e-05 -0.01323213987551485 -0.004150691313317315 -0.009222919084557217 0.01156141565127207 -0.004919395646309877 -0.00801732881898197 -0.01482401061705665 -0.008690147481923106 -0.005154932411406364 0.1526230413941242 -0.009821281728563672 0.06043761137305282 -0.006183331143198234 -0.01538537791085785 -0.05625368279169815 -0.0110616639320909 -0.006369946906716361 -0.009129581145429709 -0.01295402008538078 0.004390899708614074 -0.0002862956292292015 -0.01713423720012672 -0.01935000007797991 -0.02244384208020394 -0.09003250274399038 
-0.0008029818158019045 0.003519589129814514 0.00206560764524613 0.006014306190479832 -0.007813800276518627 0.002440609827905896 0.004724570993969817 0.009131090793393519 0.006243304851881167 0.003433102744542977 -0.05597695467337149 0.003573448545020195 -0.04034265029009941 0.004301400963807456 0.008265684262559641 0.03284415322999425 0.003601458135028933 0.002675693549129458 0.004028311299163069 0.003052065942642729 -0.003732791191505373 -0.005140138739137991 0.01085579193302058 0.009865185426623535 0.009651571236327454 -0.1761061270156093 
0.0007147380569420001 -0.002826131059756916 -0.002478018462156238 -0.006669848246178006 0.01137372294696287 -0.003045601511113549 -0.004978579136362544 -0.009578629442389526 -0.006502150714921941 -0.004538770437018481 0.04584878576452523 -0.002742047631707822 0.03118929566499819 -0.004412127615199979 -0.006852758421973898 -0.03148410346384273 -0.002562821292878737 -0.006216540233416216 -0.003932853647554219 -0.002174535502524806 0.004355656510834142 0.001632492294596466 -0.03424937326383214 -0.01403275985754012 -0.009174328597405551 -0.150090335767479 
-0.001008382212298689 0.01264623385506498 0.004282444944182603 0.007910869110952429 0.01476064556553422 0.005599302261374004 0.007339985079555271 0.01668748421684991 0.006635683642493789 0.01451378106934424 -0.0108088811200279 0.01104504069250679 -0.06128738364122053 0.007278572460951721 0.003487614101219986 0.007088765451715793 0.00644688900985354 0.005708130372807264 0.008350900921182472 0.01401525867290184 -0.004072841229590009 0.00644455905161885 -0.03216913008024504 0.03352526053461564 0.02399089179165742 0.03630139038054669 
0.000288308901761755 -0.004433457066230166 -0.002135705087934713 -0.004657660091804624 -0.005680027760476779 -0.005058508730907991 -0.003629986324841311 -0.005860142690606081 -0.002793205035451572 -0.0069431509752651 -0.04655385739229391 -0.001684433110423027 -0.1547689133077949 -0.002040834001163007 -0.0009444702456752561 0.0009395942632046699 -0.003630808454982941 -0.001541823615224616 -0.004507010934099415 -0.004157944492858985 -9.546444074290047e-05 -0.001911669400047928 0.009000951506788037 -0.0181221679654473 -0.01042339186052334 -0.0233089240770034 
0.0007601592056866227 0.002624427368896438 0.001066161957274027 -0.0001512383775103573 0.001390866621724492 0.000761526285233583 0.002392784190502244 0.001418342213530896 0.0007412450529661884 -0.0007366633002656338 0.06895568378016875 -0.005636424150933093 0.05146907383032421 0.0007821209258985709 -0.004576843529385009 -0.001091419303971582 -0.0008161017682336933 0.001047178619485466 0.001468392800320537 0.000511978661942748 -0.002119338556082056 0.003208904171225802 -0.005881456493605714 0.007037090982265471 0.003062663767090185 0.06618045860684701 
0.001091860284514074 -0.006169136366567582 -0.003401473385014247 -0.003757849966369392 -0.005263221700514565 -0.0006262513829555223 -0.004403670293306092 -0.00379524927469248 0.001494003208464444 -0.02096209951723373 -0.01662267061566929 -1.446760067997689e-06 -0.02568824279799566 -0.001514613535184799 0.0095442172499225 0.001360752345072464 0.0005473769759632894 -0.001951011743138942 -0.004245238445096137 -0.004791563022630389 0.002238857771476857 -0.008356770249697986 0.0002493517927795038 -0.01196560848264545 -0.005231866303521369 0.03935605447876721 
-0.003947926380193777 0.006533268760680122 -0.002519672731336629 0.005840069412682779 0.03827916932415819 0.006695114175759206 0.007772804450399503 0.0007264802960178544 0.001341972482124796 -0.01548651749195543 0.1491658576972472 0.02773564245700565 0.01322660426870589 0.007876755841749204 0.002496851879698401 0.04262453799787824 0.00370769272793206 0.01027143368795698 0.001953003035240015 0.004605958636822186 0.01852930197451977 -0.002673099888295105 -0.002963192021793994 0.03238382495881977 0.009269978633237499 -0.02921401335443826 
0.001482623279441249 -0.00341012138995067 0.0003291454604881585 -0.0006925474024972316 -0.07408518596959419 -0.0003353852002313714 -0.000378855960799707 -0.002063563901939093 -0.001980837768557024 0.0008794118053006174 -0.05280858866980666 -0.004910349789361193 -0.002631197379906761 -0.002839586394900413 0.0004791688094085133 0.01999524534555578 -0.002033455270356059 -0.00136529413242286 -0.002781101464658173 0.003934844253017025 -0.003363709200352203 -0.001774837395407253 -0.008242436276600779 -0.008221930131354398 -0.002465200008333915 -0.0006837377520372598 
-0.0007620639347944606 0.001483495714401598 -0.001174014641792722 -0.0006282858242400177 0.02045982178397729 -0.0006681264022012731 0.000680263275340148 0.001256060404552938 0.0008354379693085896 -0.0005912431809792981 0.02725980387163251 -3.377925196356385e-05 -0.0003405392968256087 4.70165488555225e-05 -0.0003939092223810825 -0.005436842460685909 0.0005365276989684491 -0.001867631525669118 0.001037068888920487 -0.001608216906430254 -0.0004757942681434032 -0.0007763384840235357 0.001507483231644846 -0.00117254954190207 0.002111287451297869 0.007885661584169253 
-0.0004996614934310509 -0.003230869291179599 -1.328980025673145e-05 0.0009552406765881332 -0.01497873974661732 -0.001302258776272707 -0.0006113647353685204 0.001471765329298825 -0.000579973620599682 -0.003591097889175427 -0.04936087091453601 -0.007671017793714545 -0.002151307788827851 -0.001303721997816281 -0.009763927168167378 -0.003061903113742879 0.0004734214888041489 0.0005819236260980419 -0.001074620080544307 -0.003932775168699805 -0.0001919023427973628 -4.350108803252207e-05 0.005273096673972656 -0.002933581630580458 -0.00109401726694487 0.03837967800411752 
-0.004844702842135919 0.007266307707184001 0.004159503992648579 -0.005146458396263492 0.04655732672753903 -0.005800540705563891 -0.0008767022204335068 -0.01118261131260388 -0.00325101879952933 0.004889537379781468 -0.006180496846861666 0.01881267681101233 0.004209017041785261 0.002150134787944599 0.02427675456667136 0.0001167109812280808 -0.005276779051964245 -0.0009739610837202891 -0.000617622540339367 -0.00420938077997451 -0.007427296515242485 -0.01048338164415163 0.02260441900615365 -6.150587982384215e-05 -6.086384099228057e-05 -0.1714810517228774 
0.0002721716983101119 0.0007418326282458412 1.031936239102735e-06 0.0002698282444969331 -0.02342343469889696 -0.001083534596812352 0.0006890030158575959 0.001755882340312 0.0003373362357230425 -0.0004828725594869321 -0.285187698026393 -0.01246679825895914 -0.0006782213248305533 0.000619482862608028 -0.003331062467766773 -0.1515670653915993 2.079821646655777e-05 0.0005236351226329857 -7.696529807692799e-05 1.679988198754372e-05 -0.0003064987607295488 -0.003654100600327578 -0.002466288475689488 -0.001311543582005824 0.0001566467687632621 -0.06421206169455479 
-0.00213571087749496 -0.000566399814599401 -0.0002192489702353446 -7.984805657611896e-05 0.003416022862265351 -0.001586080972998147 0.001140066429578456 6.25522022136041e-05 -0.0009084404114709076 -0.000640494070056778 0.08266875002943654 0.001330656053497344 0.0001203824568085154 0.0002967024932174361 -0.001112400722099589 -0.09492262637214877 0.001394653690292173 0.0002578250055657666 0.000278335741192652 -0.001958408558536985 0.0001175139761353572 -0.001379410992902705 -0.0008540637131922562 -0.0003815688989778685 -0.0006027154846436774 -0.1135309476357588 
-0.0007561932843624087 -0.001487779521072042 0.0003987159627809049 -0.001176585940136783 -0.02076814649140696 -0.001397450904018931 0.000212158938706998 -0.0002883604622078253 -0.0006609827622390631 -0.007341673992390154 -0.06035156747205662 -0.5487599345093533 0.0007612741029690525 0.0004313238831542683 -0.003080031440929011 -0.2078625222023641 -0.001547197437806244 -0.0005999250138343252 -0.0006625860079376311 -0.000805467541754217 -0.001685543283190238 -0.007235091121401954 0.001484017512120249 -0.006411255715605191 0.0008087896277300648 0.001072011659629152 
-0.4518790087371122 -0.7288006065659485 -0.4179109457153895 -0.2885395710513761 -0.4501172968850846 -0.3243362802824709 -0.5693399289740643 -0.7993863740045496 -0.6881420544590098 -0.4652711932542108 -0.3401217216524487 -0.5362809774421424 -0.4570906836287148 -0.9414629907230765 -0.7789367402687836 -0.3027618183433215 -0.8334022482807728 -0.5335685590073806 -0.8115688425843787 -0.7904259730446027 -0.7574547730538581 -0.8742856146312836 -0.5811669376723378 -0.9498913099148132 -0.7799084531503812 -0.1407184093571331 
0.0005456440129987588 0.004672043718055059 0.0008036733611257014 0.001383778482250824 -0.0005401881264871069 0.0006780951255915349 -0.001337855956436448 0.008245502480782733 -0.001523463038955873 0.0004731895994736956 -0.273671653209502 0.002259435261732806 0.005601900255769792 -0.0009982745029018924 0.002869072923607955 -0.003195410838114482 0.001181881808979762 0.004839683971918632 -0.0002800794392242906 0.00178233080702651 0.01004264381626218 0.01188861064023832 0.004188682482776519 0.006431397799728086 0.008643807013053386 -0.1338972134608093 
-0.001420416042633689 -0.002017576164443461 -1.574494416881799e-05 -0.002542098125297227 -0.0003466786001018819 0.000282447526792898 -0.001973938595141195 -0.007769951192244449 -0.001554896372037269 0.001217610229636926 0.02674662239722476 -0.002979297106025438 -0.003864742717492826 0.0005006458111639012 -0.001518380928528195 5.835778854492652e-05 -0.0009916008018850482 -0.001814138216331606 -0.001667290401697414 -0.007669199471974774 -0.006379974178215122 -0.006744929504304301 -0.002964887395043461 -0.001063211547080769 -0.005109776891284392 -0.1689167679802628 
4.702294013227839e-05 0.002313411832528606 0.0005911580249116078 -9.579705976738462e-05 -0.002993843560819973 0.0009588449978135679 0.001325186494156236 0.005390841089906661 0.001933095493983505 0.001086431232277625 0.065370413356414 0.001369491437442025 -0.01079587766711392 0.000985983594384573 -0.0003539976421811335 0.004808516934651737 0.001331440785415359 -0.001495938618197587 0.0001769065287961625 0.003248629769429637 -0.0005701874394922557 0.002170434230475313 0.006997903295433975 -0.0003920022468765141 0.003590541513829892 -0.2126188380188416 
0.0001541059823830515 -0.007050117659790019 -0.002147142200133695 -0.006329241036060894 -0.006053215316986786 -0.003743517091285394 -0.003432912771546778 -0.008646655458772357 -0.00420305918169073 -0.007521021159633279 0.02072779451089874 -0.006808469218124262 -0.013016482955835 -0.003577682011771984 -0.000114825785305225 0.002832076192206856 -0.003442916972009695 -0.003059236738033939 -0.003607239716130335 -0.01215106478125344 -0.00112735798953426 -0.004874328634684242 0.01903342922229459 -0.01790243081136609 -0.01309944071254201 0.1248360948649502 
0.00150305124431849 7.70332855302076e-05 0.0002404496416620264 0.001985179982702286 0.005776872314272979 0.0005779119601221855 0.0008374314774691301 0.002355619233680568 0.001096773201267721 0.004307700089400707 0.08286226259069628 0.00145576480909751 0.001839188483545761 0.0002070745494775819 -0.0003775095288235587 -0.001066297619763861 0.0008394698208781671 0.001628606257690596 0.001865035424835737 0.001247226988963751 5.61048747133323e-05 0.003138521646137613 -0.0009901134270634379 0.004749287411186995 0.003610541406477245 0.1099272958896498 
0.0005188562159600946 0.001124147632335851 -0.0001934213871144012 -0.0003323370785686148 -0.003914280609606951 -0.0004955437615042875 -0.0004175128922447252 -0.0004801877971381367 -0.001223305161250179 -0.001806771446875648 0.0163908023927396 -0.003660865811640581 -0.0008326053694323436 -1.885631650921394e-05 -0.00155860883509986 -0.001436861970482425 -0.001295760241883703 -0.0002986045717217637 -0.001270276385455482 -0.001855207803517861 0.002129811055114751 0.0007764890786274912 -0.0009459479745793884 0.001207399594706489 -0.0009466394303841265 0.1064814734650543 
-3.936024878288098e-05 2.731991721272939e-05 0.0003325205625334489 0.001194783549040269 0.001512136218339807 0.001200114253393646 0.002332040941481124 -0.000342936808441302 0.0001834678044200144 0.0038018731903965 0.005752967967251498 -0.3923647451305259 0.006453110713100943 0.000642247867511161 -0.00820189302901006 -0.0002828439498350163 -0.0001995040663411638 0.001387605027601255 0.001628197253177925 0.00222805218500337 0.001506138144840001 0.00229400096686127 -0.0001390672039831928 0.002719817128670909 0.002879115557636658 -0.05279930937150653 
0.003312499799587848 -0.01052858484214332 0.00126736115230439 -0.005604160593384078 -0.02987398908431069 -0.002370214459718455 -0.006287093349584444 -0.0004395234171630533 0.0002852165026512079 0.001277133770147229 -0.09239554970385123 -0.2305788817912845 -0.00718913137655923 -0.007738352868704083 -0.0002979020757877387 -0.02940036707738869 0.002928743309970086 -0.006371505243656692 -0.000726509476197 -0.003491714001002741 -0.005290380956824163 -0.01168410314447142 0.00237946875501567 -0.01673739198429057 -0.004403798372405881 0.002754657540883951 
-0.0004955432150283372 0.004500177666234011 0.0002294295818730331 0.001493046032481245 0.1407063312829175 0.003496268581726735 0.002910755196340742 0.001710798713139602 0.003502991209331532 0.003863371055392091 0.0108365659338715 -0.001071484475643808 6.40567235165661e-05 -0.002111018474631613 0.00533102520930415 -0.05608590296637156 0.001729472535716366 0.001516018194655713 0.003770244456148834 -0.00098395467089353 0.004406701311121991 -0.004057544091708238 0.008392644090349091 0.003973630323779507 0.004691224269827708 -0.05462184258387751 
0.0002089658878811605 0.001360014951664248 0.0001946986324368643 7.821929435917984e-05 -0.1582487147566292 -0.001342792570153765 0.001352033662675988 -0.0003887714714500973 -0.0009147909313903276 -0.00169647456839566 0.01584591133020376 -0.002041249771468155 0.0003322254467025227 0.0001536330491460808 -0.001818700262765838 0.05132092172070281 -0.000437568962070712 -0.00065411103620394 -0.001088604588115841 -0.0007568467553672274 -0.0006018008383194755 -0.004741805930178871 -0.003838235858303972 1.920246038661196e-05 0.002369590316699524 -0.109178221729925 
-0.0004818033748004855 0.002772476575825746 0.0002628284701663977 0.0001621189713975752 -0.2410325045538323 -0.001437406041538656 0.001072613397333553 -0.00077794650084987 -4.905485137908543e-05 0.001240087888601973 0.02848034424855536 0.004663133130743726 0.001128646556064327 -0.000336826583798139 0.005569754754430668 0.01337972372852806 0.001983650771114308 0.0004387741454782639 0.0005895180835189171 0.001672339090760719 0.001586637617195093 -0.005721664892357151 5.942075855562762e-06 -0.000833566892241838 0.0009945917994610173 -0.02063681479980873 
0.004100338837822155 -0.007455523769200296 -0.0049167925148314 0.004288424021852455 -0.1361930134540363 -0.001667474736701934 -0.0004862674970505317 0.01215599496948388 0.003157645478561822 -0.00801821668468857 -0.02163930798136161 -0.02463323661824154 -0.004604225174082124 -0.002879780470630256 -0.02469811226239653 -0.2576112994406956 0.003782420042500158 -0.001252124881260234 -0.002031685325376533 0.002250902837929664 0.009453092772990121 0.003856202530215797 -0.02023229666968668 -0.002441206027078955 0.002342844371793839 -0.045906645453197 
-0.003271739011192133 -0.002753462266527239 -0.0008513436857015515 -0.0006026257912405188 0.05278896340589288 -0.004631682855079001 -0.001037766397549661 0.0003908413884170349 -0.0006919143216478793 -0.002174460976916134 -0.1796552435043338 0.0231387484944451 0.001576569771151307 -0.002114092971935875 -0.001266530442798695 -0.06007329502205672 0.001540049329421841 -0.001636860469909657 -0.0006820300847492423 0.0005671480945957587 -0.001206413501459567 -0.003503256881588469 0.004662486151083466 -0.001922117068642166 -0.02150856856102313 0.03753168719694138 
0.001185424048381269 0.0006931657456904372 0.0005258322200866422 0.002054655138858285 -0.02178928125925621 -0.003043560277835858 -6.420352217883009e-05 0.0009200686266977696 0.0006822543235974 2.870526685057842e-05 -0.1579208736965712 -0.07023374904317552 -0.0005412014368414155 0.001120698185069055 0.003229795062434942 0.05133339132098531 0.0006272652360141023 0.005267213933464591 0.0008198000299773642 0.001699558321402283 0.0001058358734043116 -0.001746454019875649 -0.004050576321291739 0.001109402127652447 0.007097260212953533 0.1231086144012697 
-0.001041086211262796 0.0007954670841535515 0.002423951362539774 0.001420852269601298 0.0432081595739164 0.003602004916141095 0.001499943029783083 0.002320950000381975 0.002864558254521797 0.001913419672126644 -0.2112962694532454 0.2022531692768688 0.00851730496483075 0.001963301768006784 0.003247776108428017 -0.1385746778014893 0.001183994903688995 -0.001272658588650048 0.001596893967418066 0.002607455516275366 -0.001635184896282964 0.0002717025621536108 -0.0001375836861724121 0.002455271311388926 0.005599315913025487 0.01129944453785447 
-0.03163844326629558 0.3882808763302509 -0.2030481261076205 -0.01263517244309183 -0.212843109153705 -0.0845607886296266 0.5015087849230482 -0.1983693378365072 0.07062054865214983 -0.007432640807250701 -0.1422963069588121 0.2110786824384209 -0.1295713786159973 -0.2974673881624868 -0.1135292675396775 -0.1581409761664208 0.4131710200947567 -0.1892493334906878 -0.2267567917623399 0.08699468231706717 0.000643432182714905 -0.3154356744116483 -0.2395282905390676 -0.3612820036501191 0.2101128436136173 -0.09122150576345298 
0.0006893460920158579 -0.0001856214526803476 -0.0001067958857621468 0.001844272703366174 -0.000835925176538105 -0.0003574195860120002 0.001933246159591219 0.001306746484150544 0.0005458246503311911 0.002543272407129288 0.06431052834018339 -0.003417380873160991 0.002770361617878946 -0.0004145566306407108 0.001757509627507531 -0.000377750488284032 0.002448308753596955 0.0002148973292539186 0.0007114754677444383 -0.001473138699209662 -0.003672445350713266 0.001642247107163756 -0.001210331170374215 0.000149662849734452 0.001371697012586381 0.01072734219692112 
-0.0002242672099982249 0.001856976194591232 0.0004450093986093576 0.0004239734588980607 -0.0001326873401219151 0.0008250332083327974 0.000199421002376271 0.0003582625273436537 0.0003729376753107005 -0.0001480328417741802 -0.006517797105932819 -0.0004848528711272396 -0.001122270042422614 -0.0002061293770433755 -0.002134748684673117 0.0005557534568987339 -0.0007649143223751392 -0.0009392708065275961 -0.0008026810891917546 -3.055686711753597e-05 -0.0005211490690378639 1.145821227976118e-05 -0.003942430269011264 -0.002202595426671096 -0.0002248966350336688 0.04540650111654801 
-0.000437177863795998 0.0004832447262309386 -0.0003676430622399445 -0.000285738043194981 -0.004250047390596509 -0.0007888017244097503 -0.0001895273533160605 0.0003468871872508316 -0.001838817575881018 -1.871715860185828e-05 -0.05818892869210705 -0.001262108875237478 0.003375207799495162 -0.0008187092566459083 0.0007684815560169927 0.0006724358860498514 0.001054791196362651 -1.841987837378047e-05 0.0007360555963793835 0.001347870567252642 -0.004072469959848882 0.003372096765035005 0.0003379099298858351 -0.006092328025570487 0.00191949476993611 -0.09107347225140829 
-0.0006052782498162546 0.005788903424401365 0.001025097498467579 0.001188151202616542 0.006729128862104137 0.001594949606554024 0.0006785393463046464 0.004260451127234318 -0.0004875559103797063 0.002559715802029014 -0.0612727916832343 0.001240982118584709 0.00464794076940359 0.001813672308166817 -0.002238623259014216 -0.0014760220651467 0.001157847897125653 0.00175529522991407 0.001636083002235748 0.001006839589646378 -0.0006383903992014573 -0.002208402130647043 -0.008850393508650429 0.009846409991864657 0.0064582488063294 -0.1403466629914437 
-0.001792388640254769 0.0007360868517324987 -0.001416676259937583 0.0001935139900407266 -0.01026488492593008 -0.007168609215489097 5.302113052649763e-05 -1.675991195598202e-05 -0.001043463264258713 -0.002107412317390867 -0.1267529688825086 -0.001006490189846068 -0.001406069041192178 -0.001519866863348855 0.002771601035089606 0.00139232222009027 -0.001709549116489814 -0.003490587291434282 -0.001601366869355329 -0.001217514015217618 -0.0006290942168892643 0.00236880187177703 0.002279216085348651 -0.005140020277619668 -0.002930844527508085 -0.05525310033427362 
-0.001442396851377707 1.774913952315847e-05 0.0003237927200326003 -0.001852935347726058 0.007410464164453595 0.0004975526485538289 0.0002419284550834736 0.0004549238752907614 -0.001082712456643232 0.0002603640261571815 -0.009774082040349737 0.001872858365107745 0.002824321516842648 0.0003985791153637857 -0.003289036966703557 0.001275242819018073 -0.0001972160327246687 0.001016442115963931 -0.0003055115136063766 -0.00419644832530221 -0.0007922096601295958 -0.005700482107418237 -0.003003930290790934 0.0002809967194250194 -5.787200045340823e-05 -0.03283252449127422 
0.001297113648164008 -0.003155343737200163 3.604981265897045e-05 0.001001432815358107 -0.02524102148769829 -0.00193323695735854 -0.0006275915510509935 0.001675020244901103 -0.0007107813817799856 -0.00221051191658513 -0.02037784330494151 -0.0002122430126644055 -0.002968911240717539 -0.002077256270107133 -0.00280255387184198 -0.01405736363331949 0.0009096089643325884 -0.0006588267799898395 0.000721502002025671 0.002142376760000099 0.0009996648019257319 0.01402583811146597 0.001923242925888433 -0.006390046699590171 -0.0009807154872813154 -0.003459976370405569 
-0.002922167370051117 0.006078027669944599 -0.000831809923360496 0.002191329408145245 0.1013197781392456 0.004574338096228755 0.006495283155169166 -0.004391248267037573 0.001151718355755952 -0.00661694512016031 0.04232118861078441 -0.08324742962006171 0.004882614762173408 0.006186842086356364 0.001158177983722757 0.05004117370427694 -0.001393654540693655 0.006099776943338091 0.0005841991222130024 -0.003467870631093282 0.003528935756919187 -0.01334232320931187 -0.005683137765249219 0.009989559613506754 0.007029988187519942 0.0246698173997709 
0.005145395184664807 0.00321381190655907 -0.0002304338752916561 -0.003120227612354567 -0.3529662695723539 -0.004211892531716731 -0.0007911348287540366 0.006462657964986997 -0.002215361735841568 -0.004062592679441251 0.04795024532354546 0.0009057977280562558 0.0008382314425382105 0.001079989198135166 -0.007508572379513641 -0.07418240539337768 0.00110215978315912 -0.002463313063419541 0.0004376179819870806 0.002793981022978491 -0.001809505644723262 -0.007854305518159936 -0.02438011467608098 -0.007245002378163239 0.0007082250550103923 -0.05045889480976386 
-0.002755465254393858 0.006720753983280133 0.0001174810819095298 0.00170407667624356 0.2137735673158924 0.005379807089008457 0.001679546471751015 -0.002937385773957654 0.0002799467747943665 0.002431107466952511 -0.1969813560694322 0.0009893272102438619 -0.002030496405259825 -0.009353988480537452 0.01010390084517102 -0.07449913182544447 0.003780221539379556 0.002713377972334356 -0.001167270125204835 0.001838099146973917 0.004616063754869749 -0.004918656170839507 0.004827031607583225 -0.0009236100184310706 0.002134076328664406 -0.1381287067031512 
0.002012700177809379 -0.005349472084744341 -0.002219928679469798 0.0006740692449811586 -0.09655661192326176 -0.006960159368682189 -0.001627131667083849 0.003943851436706835 0.0002943519652548388 -0.004532967880464238 -0.1366871873032291 -0.008039630412891104 0.0006335363556134826 -0.003645400918149367 -0.009355878987790122 -0.1522003636165132 -0.001634389783247218 -0.007185055349640264 -0.001937680667966684 -0.002204700554129834 -0.0002214091961965901 0.0004659946654375718 -0.009997016859233846 -0.002459859271398314 0.002151302263911681 0.07234281152177194 
-0.004683937491527942 0.004306742884955216 0.003204599267083802 -0.002059143053434217 -0.1930975228841109 0.002833780521364823 0.002945357143890122 -0.009398278922971766 -0.001159741280955452 0.003977856400861244 0.04593381917725765 0.007394816610426161 0.001810870360887446 0.001999895442002338 0.01685049356353285 -0.06816409048528176 0.001390984848238051 0.007461979302335066 0.001778986432441012 -0.0003040267406373646 -0.006171329978500836 -0.006639126051081717 0.005995584407541638 -0.0006143574929075344 -0.002395562422325129 0.1581599177742461 
-0.3231245356536536 -0.4266691471333587 -0.257388672651167 -0.5668200040629418 -0.3718446857688018 -0.2957758821049528 -0.294544851331798 -0.3198242191676444 -0.3698239749817551 -0.3628216476863306 -0.1755799929370249 -0.4156142614295246 -0.4146036835075945 -0.3306714007262385 -0.4140470762020123 0.03394929562367591 -0.2008326308124355 -0.4979511773250479 -0.3578787888855587 -0.5116849133488014 -0.5683715229460238 -0.4668384743623802 -0.3542377793699375 -0.6240227531216386 -0.4578959669327823 -0.2221224107717786 
-0.1558416640991772 -0.3172428013015437 -0.3115695227895345 -0.5227569329104291 -0.07181172440105744 -0.3667487652374178 -0.3207294280953942 -0.2728517361040049 -0.3415567614325336 -0.4586570307248887 -0.1837718518881767 -0.4121049443271204 -0.4043597532093048 -0.264518399527815 -0.1767182476781939 -0.06619739941126133 -0.2905825709247736 -0.3402728912759131 -0.3193475092924723 -0.3654534034360868 -0.4373913317012388 -0.381551162048857 -0.3707648187839179 -0.3846379372027064 -0.3171812281240748 -0.1898467264085174 
-0.01376288622198812 -0.3986441663418487 -0.3511794512278288 -0.6113838710363749 -0.09417301850994184 -0.4036416592263419 -0.2413619799227552 -0.2572026753668299 -0.468738786543027 -0.5763820332745299 -0.2270940530343177 -0.5470351315826935 -0.455232158753697 -0.2898396348875427 -0.3535653054041709 -0.04536122030189778 -0.5332790021037641 -0.1949072253859204 -0.4980706331237313 -0.5440178352899635 -0.504103842920903 -0.5111748443382593 -0.4301747566456201 -0.5564749161389341 -0.3033545077037717 -0.2288080983778094 
