solver_type L2R_L2LOSS_SVC
nr_class 26
label 1 11 5 15 13 14 4 9 7 18 24 16 3 20 12 23 2 21 26 25 19 6 22 17 8 10
nr_feature 128
bias -1
w
-0.6626944681134695 -0.1589295723766407 -0.4671056793449196 -0.00430158687595825 -0.9737442728431384 -0.1016688076715265 -0.8353184238060031 0.06397856426148524 -0.3977155005377364 0.1024616431230833 -0.08925981181992816 -0.07403013230675864 -1.071357090931555 -0.2506867224531112 0.2507782413892833 -0.4667698523772748 0.08203894374575184 -0.1567595981678664 -0.2244364532527877 0.3333778495383944 -0.4901675655370019 -0.3991063354153277 -0.138286480507904 -0.1856661602903712 -0.2457174325950616 0.6252501442494783 
-0.4483782598303254 -0.2106068406026093 -0.4754565447695508 0.02792951823961146 -0.5385507536352475 -0.2864614539632567 -0.7112427070066334 0.4335059598324051 -0.1951935161565424 -0.003411070005894589 -0.01886085080382238 0.121240556633971 -0.7779566409628313 -0.3487161673864832 -0.1577956111266683 -0.2140330380376667 -0.2413612506529308 -0.3120763056572395 -0.1439754983199818 -0.00318462645260091 -0.2359449791032051 0.04514317684971761 -0.450111182890191 -0.1315451726068631 -0.3083110812853374 -0.6060383742122537 
-0.1076426849129573 -0.2619520556991955 -0.2946000763437123 -0.2722344588293833 -0.6139524588443792 -0.2950711539290686 -0.7910315722316738 0.2850933681191927 -0.03623084532753532 -0.03240875624329687 -0.1551820952723823 0.2959437794817837 -0.5533046812864219 -0.5232969339261494 -0.1301985282797518 -0.3953763194518978 -0.4187474243462142 -0.6302536281691384 -0.3038510045661307 -0.1300217646338695 -0.1906121519267933 -0.0001325357949018263 -1.20250360243849 0.01292575775621551 -0.3719370756104303 -0.5003679861335506 
-0.09177321170308729 -0.2403413350483874 -0.183094121606722 -0.1357848393771987 0.1294517251342633 0.1190834156361754 -0.581695863953848 0.1908989192399827 -0.01565759911454885 -0.0550510161633584 -0.2333543126672487 0.2147821453001728 -0.2442565818367733 -0.3099728232453798 -0.2682924130888575 -0.5753152251176562 -0.6868249978182684 -0.6610517014998138 -0.2477731281433977 -0.3108474794919256 -0.03989594394023696 -0.04236431086032849 -1.531752932092307 -0.0008111504861925774 -0.06774471106010208 -0.1275341291361435 
-0.03969347427280265 -0.3777453055599048 -0.1589956745789652 -0.0767069835245287 -0.9262029964212865 -0.07728077099305906 -0.4500476607689483 0.2197487540664586 0.04066622318496904 0.01550716035242164 -0.211757338625427 0.2151836499991214 -0.09480261012941461 -0.2992263259380013 -0.2999116020935645 -0.5720531974146924 -0.7055293351739054 -0.6077506298304105 -0.2592222811751309 -0.2631886944709434 -0.02711194071218159 0.1092168484621692 -1.244686719573023 -0.03293997301505867 -0.1780447505730918 -0.273636010482406 
-0.2549567573306476 -0.7806758224560036 -0.1735939665100202 -0.274841250111663 -0.1237361631876425 -0.1131228751314248 -0.46217792421277 0.1458440380179168 -0.02924959475812575 -0.09897203957394694 -0.1723649302400165 0.2716044105666316 -0.2586435947502126 -0.06875510648457468 -0.2059547958261124 -0.6495817100751241 -1.222917221999909 -0.3747021602166397 -0.5872930910410535 -0.2454947407452254 -0.05638610524579225 0.2352415227499322 -0.5797560996309578 0.02169774594775504 -0.7504818425526436 -0.4604075157014731 
-0.1451003310195874 -0.8444978570299435 0.04390976086993156 -0.1180673484324082 -0.8554679335155704 -0.2727142359183957 -0.3165163964005191 0.1215681804448264 -0.002557706196947511 0.05056196350672051 -0.07246716826037972 0.118700767187718 0.1088625789577209 -0.05534838389416399 -0.4214396697894352 -1.258080333198432 -0.8398344465079399 -0.08538693959507944 -0.6100790397211363 0.06480785628440583 0.03603399443077002 0.4200451143250275 0.03238304493506468 0.02856180873650739 -0.5256288997750294 -0.0637755061169889 
-0.1422878007713242 -0.9813858795946249 0.04219218753262267 -0.2842610701715633 -0.7985466448226834 -0.252917193797353 -0.3136793022233345 0.1502385061614014 -0.09659548575346759 0.2439675777537908 -0.0463931062840609 -0.2207071753056485 -0.01914730126517824 0.2898455696343985 -0.2132665592320709 -1.464521063169405 -0.7682707647594987 -0.1095965872148154 -0.357348973158642 -0.05228196997651213 0.01860034648900129 0.3682204518675971 0.2843097773018462 -0.007207957843867499 -0.0679726240102619 0.6399500052464226 
-0.1526255739657353 -0.09661976809781982 -0.2781593809315508 -0.1072109530002306 -0.2006224629717005 -0.144014426605945 -0.2369004629188576 0.1228914498895882 0.01159365310809616 0.01696653506657038 -0.01822198120597303 0.02093407466665974 -0.2089154872989177 -0.1159502090920168 -0.05572932955766416 0.9167045389277018 -0.0399329664972029 -0.2280433967754821 0.1051443220236214 0.1666588987494257 -0.006913851693881206 -0.006690426511027253 0.03601469344873681 0.01223648487402225 -0.02032924242279455 0.06401287000352629 
0.05991150150719941 -0.01586960589168192 -0.01152975888805521 0.007131589780065012 -0.4845342222085482 0.1182846384746566 -0.1603011081181271 -0.1271760658301603 0.1046643484591233 -0.07232874304046411 -0.1752881952972597 0.1333802133819206 0.2156178769262761 -0.1831585856381456 -0.07929174494150647 -0.4196112498469873 0.04130482869181305 0.07097538369898115 -6.137083790897467e-05 0.2239298097544438 0.05885146845331655 0.03206584604972403 -0.2315663332252335 0.07635004716613827 -0.03434783204223595 -0.08795591982626585 
0.02913714814089554 -0.02807428211427988 -0.01700588557444581 0.1620443746358046 0.08218693220816321 -0.2053503430246503 -0.08864053522697046 0.119613053675221 0.05660630436249479 -0.08528684297891953 -0.0978756046281872 0.126632700638527 0.06455672519675706 -0.03573426864478596 -0.02331326058173029 -0.3513566900943469 -0.2442993171682536 -0.329197625843151 -0.06025975348126404 0.08375038808876945 -0.04629211640709831 0.1383838892954988 -0.5296027424570646 0.06895639768366001 -0.01282152822984094 -0.1515794066745623 
0.05000725095654589 -0.07330675538243994 0.01277118842450071 0.03530275646265919 0.01462859041675196 -0.1330234122777218 -0.08323229018624308 0.06303959625891813 0.01182197214297323 0.03983279761444259 0.0261060560587477 0.1634182418406892 -0.1101058775469824 -0.02520085759300392 0.08766782152356467 -0.3900946039082862 -0.05967131321909919 -0.2653703025034065 -0.01845241688053533 -0.1071132816280303 -0.02321234723913455 0.04102642380892942 0.529263756876259 -0.006013928580452235 -0.1248180162241436 -0.4186315802134388 
-0.03256535869613943 -0.1783265445796461 -0.06371436617657222 -0.01559624994105769 -0.1615017550028794 0.08643972704408416 -0.1349196750655657 0.05075465221404363 -0.03260425976545611 -0.006591848362758838 0.1720925029611722 0.1138362405367106 -0.1127893737072151 -0.004330737528809156 -0.01691564156870915 -0.3101776646004777 -0.2797582889758511 -0.3826349440935812 -0.07651870933028992 -0.06475832107522707 -0.05191959406587808 0.04530810478032966 -1.789446034639173 0.02048934193325512 -0.2213791679076559 -0.6084811808408668 
0.04618649149446195 -0.2344403585304056 -0.04556110241202288 -0.07540564855319294 -0.9040591716608193 -0.1130314045491715 0.03991746379100112 0.07021252709633446 -0.05635700840068426 0.04421729478240105 -0.01501130370535086 0.09820546142131333 0.02390565587194533 -0.06425301185146791 -0.07304487578655287 -0.09776321733121086 -0.07534506530026822 -0.01583209761438735 0.1396525662379449 -5.235507435824859e-05 0.005808964984171621 0.220713231259039 0.1934707620347922 -0.01320962390640547 0.03890449942795463 -0.3990326707981991 
0.05932783584240381 -0.1365411049989132 -0.1235389589079218 -0.01745458408925529 -0.3235447691575928 -0.07055604542862051 -0.2127492509668996 0.0392292174222792 0.03051322447760554 -0.06159373715972252 -0.0182446125274959 0.1770913804372536 -0.007625971085783712 0.03362260567009141 -0.1423892881984312 -0.8899085107067246 -0.1810308358792606 0.03515565292300113 -0.055931335896616 -0.03674413014644522 -0.005298665308287455 0.267691519005813 -0.1802671454790385 0.07503692225522536 -0.2968236825020752 -0.6707892724876013 
-0.1045500577501553 -0.3271221927378323 0.0761460097222361 -0.27828104531926 -0.4276161256338556 -0.006590866691883182 -0.06759799067279598 -0.220801123641735 0.08753130275271886 -0.0858526409873477 -0.08270621179854458 0.06775498669692993 0.04288276621287237 0.03244876684701156 -0.2523564513697643 -0.6925487654663725 -0.2336751682586006 -0.04299287540626577 -0.2728525760494101 0.2014894145552892 0.1906070966657595 0.5347399532707825 0.1886314043387944 0.0422163027272633 -0.2239822948570231 -0.2937476383047067 
-0.2249012990592678 0.1638955903194347 -0.1314962360250024 0.01048585968385828 -0.2519679101791693 0.09673726217989713 0.07622643876498841 -0.1958826472359465 0.03750495154562804 0.1589026402418335 0.0460012598655542 0.2128144879833192 -0.2042886985528005 -0.06035125400178364 0.1413487227315858 -0.3598853088261589 -0.02473619550582195 -0.01029344369563937 -0.1035172798400963 0.1390276762495502 -0.07510961191582871 -0.1072539421082589 -0.008798684414723663 0.1257915808458919 0.02464955171710209 -3.932095998848816 
0.01622581271047109 0.01841171943467534 0.09928237981228516 0.01247797246118814 0.2507808346632014 -0.0950987027166776 -0.1528268504778452 -0.09416313846535626 0.09519468738105646 0.1910126387712696 -0.07221528288216054 0.0179824316382288 -0.03498776805118137 -0.06277693457970629 0.05435458643846752 -0.3923135890913358 -0.02906078925515551 0.0886612062722054 0.07155946796454044 0.1504964945254019 0.008040095566518319 -0.000548989800463074 0.09784193665533533 0.1883627351867893 0.1219037490796791 -2.328606667851563 
-0.01964357892677743 -0.08238051979039915 0.01173676721194351 0.060841550263852 -0.120140198386833 0.1255692242366794 0.02814219034237495 -0.148814733442931 0.08432868444756242 -0.0666933205617288 -0.0001319088414547236 0.112501710828387 0.1040482516691338 0.02900399083648219 0.1557591354470814 -0.4131115418829999 -0.04346657356265388 -0.2458479096325186 0.03074679349118472 0.1360541612753025 0.04470848438052501 0.04627902179344098 0.1787016245667608 0.02103129263749138 -0.168310525307064 -1.096652604400571 
0.01377562338798183 -0.1301570963668242 -0.005781154432144518 0.1286692842664931 -0.2592053348252854 -0.1249000768644142 0.01650630469931838 -0.266319512114214 0.03324515957042216 -0.01367616416997313 -0.3329784831102271 0.01529190223453094 0.05722184846938251 0.1228810527240584 0.1550797647108011 -0.5047075384473289 -0.2087968013959815 -0.3589152140429412 -0.01537716598786588 -0.03277830278448608 0.0599363019501846 0.06127845877832676 -1.413189121045517 0.03278798846963577 0.04388957624814352 -1.176784025455197 
0.01676754445791737 -0.1926766520341231 -0.03698811268003277 -0.07893963098625474 -0.1407917387728143 0.01460724780564187 -0.0624462000284709 -0.02959510272479858 0.007561769961801926 0.03945160719862581 0.05214439304988786 -0.0348592695317908 -0.06763118902122676 0.01335276397885467 0.1330439242216823 -0.5294371872670796 -0.01706806563810571 -0.2898429908525369 0.009120931093623552 -0.05380175522239346 -0.01632361615620613 0.0555497399808848 0.02112453206912211 0.001330183802649022 -0.2344760287983766 -0.2726558851230745 
0.0173241428397156 -0.1393064253254828 -0.05063913645809425 0.06397918824162657 -0.1746271658093607 -0.02883838646990667 -0.1001559465016104 -0.05783797062279127 0.08528307034176104 0.008198786175554479 0.09757158268299629 0.2121244952804557 0.1034676914142937 0.06834583265516081 -0.01767422922450755 0.4659705640280192 -0.06570982734515809 -0.04507569705349532 0.05800983738797984 0.04921202465496036 0.06245644665300237 0.07072595568762252 -0.115409856020831 0.06030418391933873 -0.08498108678678508 -0.4952480388378204 
-0.03985856135826101 -0.1173710500871891 0.01435012203310218 -0.07297195191600145 0.04594009152247439 -0.09570100875083795 -0.06736398697543508 -0.1296876813473145 0.01789686564409803 -0.04232372040454498 0.003079125285223405 0.1511667938795631 -0.04090830316978445 0.0302026363001055 -0.1486996997801593 -0.6107507559206146 -0.2531439818352623 -0.02052147470757025 -0.004212202262988597 0.0465286078084639 0.005679620201085 0.2918536021226044 0.1422151593020241 0.09301927215484755 -0.04535546148606261 -0.7941510378128911 
0.00991295469726342 -0.3254371022444525 0.02181311511136239 -0.1853776623436779 0.04139498674583825 -0.08473601338691937 -0.1485501837126097 -0.1614694090089295 -0.01305381410501421 -0.1206720247649434 -0.05580532441256525 0.02137996176402499 -0.002838259780128982 -0.1506393884794844 -0.3583799210592619 -0.06565511498770044 -0.06959342006394942 0.04628495780549618 -0.1501163097603998 0.03074085891375119 0.09773952533670832 0.1476338369660249 0.3137716446723072 -0.150741128932221 -0.1417654697654454 -0.5696948321297025 
-0.135540392686967 0.02346937153492309 -0.1043401548794946 0.04300358149317919 0.05040571139510176 -0.04143265378786055 -0.300439672379974 -0.1125675889272112 0.14661026006 -0.01270488897440881 0.06925776935053266 0.09195577863038033 -0.1902287398873174 -0.1805296809260815 -0.02818142643861341 0.1694877944007234 0.1287782773793897 0.01070822448938281 0.0253211440464737 0.1921137937077176 0.03466154964177809 0.01330851473180682 0.02208149768443235 0.1063442266871109 0.1220553563395248 1.431301460955505 
0.00960666866119295 -0.01853190897337767 0.04630036572245255 0.1184590506905009 -0.07064049573243153 0.04756572087332334 -0.01725901904969289 -0.1236586079034117 0.0669356821174633 0.04109809673650944 0.2137477562612757 0.2006882718419634 -0.03469063159959807 -0.05735741389215074 -0.01746945133058263 -1.408532446691498 -0.06278429742501968 -0.06467785415315692 0.06939154768971008 0.0175575188584162 0.09070946250264189 -0.04574890622427107 -0.06562104771327362 0.0853612209881944 -0.1078619054834928 -1.258454308251682 
0.0061129153991202 -0.02559234898474581 0.02350304522635328 0.004924533194110831 -0.1166403145100275 -0.0539323917546143 -0.1665489952546026 -0.531228686854707 0.0805999949788638 0.1367304917273612 -0.1585341117263102 0.05430545632735267 0.06992537591115028 0.03758511191355099 0.08476876625469557 0.1966345512998262 -0.15578414970876 -0.203083823301721 -0.01337585347413355 0.04552994198634003 0.04727670116087414 -0.00513209671390888 0.05575962208077245 0.09612971725400585 -0.0008255592556629665 -0.00551012574836428 
0.03028559193925073 -0.1612583095401043 -0.03994592029898521 0.07282145161493761 -0.1322669409169029 -0.02793400839704683 -0.1233634669352217 -0.6899576975644161 0.07521248436869342 -0.02768839158388232 0.008257045178331816 0.0345149710855343 -0.03192254563993054 -0.0489274265608553 0.1925977891648609 -0.4537077789241442 -0.01230647158572647 -0.4476726305998238 -0.041056013179297 0.1465256167840893 -0.07643409966450868 0.0349463639172031 -1.03681385570883 0.007725511052661157 -0.1403882827853279 0.3910854771650665 
0.02250692845507514 -0.1714051268408908 -0.03353756097415159 0.03829846630796543 -0.2383589341771749 -0.08369474978282017 -0.02944637753456287 -0.5794843164834693 0.03636825005717229 0.04690017586461965 -0.2642876851520681 -0.0280683752654536 0.06377739020902254 0.08971836312976797 0.1376785239225936 -0.4611798803120071 -0.2154267953769199 -0.08562687651302461 -0.02235685265895096 0.02163726762941281 0.05419735918419225 -0.08186085164646924 -0.2165609170653589 0.0101980215541589 -0.09600350715986725 -0.35383103115949 
0.008147668641257298 0.005608646820999612 0.0337888495639737 -0.0407274217625737 -0.2052674857370908 -0.00723992905818761 -0.01052039772501145 -0.3231443459653094 0.03731330456226521 0.0546312124048846 0.07483395206388933 -0.05213474731868886 -0.09268817851456988 0.05089793153438753 -0.02588175121408503 -0.07186564650688543 -0.0631151655471343 -0.1308680196932648 -0.02995592672737198 0.09016566354535618 -0.02201558689894406 0.05294070531474303 0.1006523777070289 0.03981729988545264 -0.004008915460851709 0.212568082482314 
0.02465414596409767 -0.1303995414523449 -0.05332773777495538 0.02534085816750983 0.1889300233367933 -0.1094861339270544 -0.03711618389432148 -0.214080507352704 -0.00444986060966867 -0.03464574757119312 0.08573925481362114 0.1981997557868766 -0.02991541977838786 -0.0009018671836823382 -0.2321088328388097 -0.02937953601576104 0.03904504765773521 -0.08665149581942252 0.01026854311352492 -0.001497055151585174 0.02088650233924791 0.09529436305775771 0.1597881582181891 -0.06076141478644602 -0.164649105130912 0.4156509248631044 
-0.1069874533422521 -0.3879111634566587 0.02897030891643824 -0.2296788604530533 -0.1161886218508624 0.1012158337133259 -0.1545480727921797 -0.2306617421221689 -0.02504417582535821 -0.1163770453146162 -0.1216014563115535 0.1880621550785598 -0.07919306578917094 -0.1797744479095419 -0.3260210094539926 -0.03626895798238132 -0.1598205220925752 0.1071786928342281 -0.1303576797866592 0.08200830478928745 0.1154228750735491 0.1331447415398994 0.17187097823641 -0.09650390042497278 -0.02479619772608762 -0.2640194299226784 
-0.349333289879479 0.06379071110734738 -0.1902469613374695 -0.1082809154925266 0.005378119181901358 0.03494589606454834 -0.1198011779787167 -0.1858620546486915 -0.01777503371449775 0.1979445195312085 0.07739836727926949 -0.03538884903174695 -0.2546792651860906 -0.09499277996514092 -0.02599061949618546 -0.002778503293205651 -0.1428935540398001 0.1033210004979974 0.06029992535695932 -0.05565151869015963 -0.006970075809288175 -0.1942326838894043 0.01486800895031781 -0.004192951546109418 -0.01673603630481335 -1.364379956986585 
0.06872581485585381 -0.03246188945376664 0.06293753501507142 0.06658329517060264 0.03722203798755355 -0.06279443876924312 -0.2471494869330157 -0.6169012409179457 0.05182089192153671 -0.02444423633293138 0.02013851787152451 0.001321005443653188 -0.0955820750946233 0.03298869811678308 -0.06016651806236811 -0.6970312762048533 -0.1166158299902662 -0.1439803044610539 0.08800561889677656 0.02123144501930407 0.05507178951111892 -0.04493416546993226 0.07157588281748566 0.1024261018931527 -0.07192979905845789 1.035931341835284 
0.01171149787446748 -0.2005663669168107 -0.02211224252395835 0.0578579384661718 0.095010283263002 -0.01781098480448687 -0.1841247820262259 -0.5217257400986113 0.06863971252321441 -0.06695963306374507 -0.1396395796706997 0.1208428834975699 0.05050441331904634 0.06358196796140757 0.04747912483691474 -0.02853750654081886 -0.07680062687475402 -0.2252954873327642 0.06027802577827586 -0.01913435575174472 0.05966627460252372 -0.02715324607157282 -0.05506121881435205 -0.01604715705168808 -0.08184239112616146 -0.7121007290680305 
0.02138319097965618 -0.1181711383676591 -0.01274569346294054 0.001491760584373172 -0.271185065079991 -0.05129397612685198 -0.1652028432440118 -0.156112659184305 0.05177125463053663 0.05691845988355877 -0.1054559458204259 -0.1045731641753982 0.0504189817239669 0.09963639915275786 0.03937227089077373 -0.1969787971836653 -0.08836280537094299 -0.4826902537873196 -0.03553286492519381 0.01566416742950038 0.0003891726298004073 -0.03572124453297458 -0.665592485868608 -0.01338765267451511 -0.2026349234550272 0.1299941371366417 
0.04578699159665672 -0.01165619054803828 -0.02222874810394094 0.01011154660338838 -0.1989800138636411 -0.03255948871906283 -0.1297014308876879 -0.3016400129411457 0.06561987557949001 0.05406057990807408 -0.06279940727326171 -0.1901039289185527 -0.01503501368962469 -0.07519083763998698 0.1319252021583351 -0.9625861450816429 -0.08084175243354673 -0.1348669617232771 -0.01152786550122227 0.04987864646538784 -0.05528243509987187 -0.04986668464908892 -0.1607155184181445 0.06167655331288038 -0.09842251202184708 0.2028887098032266 
-0.07942245683367193 -0.0698369417488762 -0.05558775195267472 0.001223325233770457 -0.03871133098010483 -0.03326550841584415 -0.06410685473853057 -0.3565085147567257 0.06897359834537516 0.03411242399356832 -0.02563712309229756 0.06433650647647017 -0.03509738161089433 0.06156112432183759 -0.05338746003710047 -0.2507086282771552 -0.3029390276237022 -0.06333697749720445 -0.0135118736144909 0.0918144272705038 -0.1748405901613184 -0.2811557026328781 -0.1521782947630714 -0.05236382053167499 -0.2345509154091339 0.255295606655928 
-0.06229353473312377 -0.114728145294524 -0.04686148987286738 -0.0800916543622798 -0.06518160647871292 -0.053402328557201 -0.09179690322312921 -0.1498928025889724 -0.04430062817905114 -0.05981029849143035 0.189151194613995 0.1437603222877278 -0.1494474379415074 0.02435647893681667 0.08347785975360515 -0.213629365861227 -0.1939719775508267 -0.07586598675958188 -0.1007494130354007 0.1051088667585247 0.09131558718859101 -0.02730867674753626 0.06224508927553878 -0.03496700562552636 -0.173475851396365 -0.03639867828834847 
-0.03400929801945422 -0.4974706549535606 0.0501585042692471 -0.1320261114431403 -0.05483061265150802 -0.07036622265352678 -0.206810434888571 0.1646279136370279 0.005740509217042935 -0.03519264286620166 -0.2067556486437189 0.1639276599526513 -0.06966671269611213 -0.1670807367021958 -0.8856210119175564 0.06202821974718073 -0.03216013156238742 0.02995047571262101 -0.1160767262665834 -0.1488045990330007 0.03317436792061917 0.0166595580250241 0.1673524092926028 -0.2163078295293164 -0.1104121241070031 -1.126790931852147 
-0.2680472069879757 -0.06645792541276759 -0.01656464605570048 -0.1914060027093477 -0.03576132496125818 0.04485791492164812 -0.2517852693418893 -0.9471084175954436 -0.1046582681524692 0.07793817458090574 -0.07922480845799003 -0.06423940461449172 -0.3295460628046589 -0.04227868870232887 -0.0447011101116845 -0.1328065449134632 -0.1005692403633572 0.1283480492049391 -0.07396874843869797 0.02038814371161686 0.03193916285387376 -0.04052069395958756 0.1435692252142392 0.05737992503411745 -0.1135384734159651 0.5061694142541283 
-0.00575616406577878 -0.04631796928367694 0.02351547778962454 -0.04662673448279927 0.0370866876754133 -0.02497072726170361 -0.0621596300380851 -0.6827104259221912 -0.04625191071707384 0.05795294998806827 0.03109874110531972 0.01264954810974675 -0.1043891663821492 -0.07977898159150616 -0.04187325681467858 -0.2377353296449738 -0.1479590312153778 -0.136048806759963 -0.0543432904403118 -0.06547766633239413 0.187134018666863 -0.03036994731487022 -0.06583135021710335 0.02919180042390932 -0.01962003278294278 -0.9504276299144884 
0.006988322586734206 -0.05028859800306024 0.01894908108681813 -0.01513167103424018 0.0319542304650297 -0.05125027284149327 -0.1582850090409912 -0.0220147265188871 -0.004390923553190992 -0.008668779701894622 -0.0267868072610275 -0.007450848863320224 -0.004767378636581065 0.03311385142750297 -0.04011248325316767 -0.5447691912091587 -0.155269064833012 -0.2618498963176597 -0.1305049483252498 0.06858543811055259 0.005860430975341347 -0.03840540501574682 -0.1431011476851948 -0.04297460729866255 -0.0638508833673984 0.06808127466235442 
0.0360436275288091 -0.1035704169263172 -0.07836799278191914 0.04993768132166373 -0.06860922612571188 -0.02097781264875334 -0.1050281610617651 -0.09622957712889071 -0.02419789961669165 -0.06698111590034822 -0.210699309423866 -0.03398925124879542 0.1032475241229614 0.02962590554042059 0.1817490786755879 -0.2003245559671273 -0.07070494562034321 -0.3376544585107515 -0.0004927539510440409 -0.03715304687755121 -0.1111765875562295 -0.08475436267739772 -0.2915401915689836 0.03156635185254258 -0.1602780137897437 -0.02560246733573783 
-0.02570472558627961 -0.1098793605804133 -0.06376811272187938 0.0003323444891589172 -0.08322480081198604 -0.03048977345792005 -0.1253903765512721 -0.05188505394115323 0.02913151083831366 -0.05440883902794447 -0.04331543089281626 -0.05639752900340166 -0.02419002000796248 0.09258518387811934 0.1010066615946859 -0.1141644517421551 -0.1855652948131054 -0.2016254400636843 -0.06658834643294001 -0.01285395877787878 -0.1917689059310079 -0.07914328105082606 -0.2941243979620273 -0.03914412119957268 -0.09696918707057861 0.0951034937775007 
-0.07434824391608012 -0.0573080222706922 -0.01455918300295521 0.0226295383369437 -0.1316454612031618 0.04323248428496251 -0.02784867927310693 -0.1800201840035775 0.0739554776084228 0.01413852547802134 -0.009173338009356262 0.002388474011201576 -0.1052806252556993 0.005107731214364226 -0.01870192742428793 -0.8437625654033049 -0.002739905627255815 0.005106957768722636 0.04579417694056319 0.1062404142523513 -0.1128595417650894 -0.393441138043595 -0.02986678526694278 0.01892469931780161 -0.08307043509631755 -0.3036997701633474 
-0.002765016725183587 -0.02333036266901801 0.03084096460143068 -0.06077333150738316 0.1470067852816347 -0.08945877716917715 0.02385052430563665 -0.2413650252013254 0.139417208022258 -0.002250782509278397 -0.07090032343254943 0.1975060531596029 -0.1341236709828963 0.04799122872533621 0.1499926497634125 -0.1201375976701686 -0.1075829071382696 -0.07131974809450217 0.03209679627889736 0.06365139297913133 -0.4187371233054945 -0.2579057293997967 -0.008026148240144056 -0.1335743173555628 -0.1483505347793499 -0.2132240693743812 
-0.08191192725150666 -0.2171325883606566 0.09474172283909968 0.07983895526373946 -0.05592448335062272 -0.01261831450676181 -0.04438940178327107 -0.2611402446767463 0.04725448035129207 -0.103600008051991 -0.3106903717158487 0.2023965164835172 -0.04814011151953242 -0.0969635710680254 -1.546162552141124 0.143138043121276 -0.5235044397370299 0.1593372942005175 -0.1038106482380272 -0.03413554389980109 -0.2706166265473117 -0.002252789888903289 0.1399131668276644 -0.06798659825757358 -0.168157643892739 0.2049752527017298 
-0.2389486062027799 -0.0705176566080775 -0.0632415513260051 -0.2318507226283459 0.03899520496619335 -0.04224279126838835 -0.2589467093179912 -0.04924246513052444 -0.1025678311378477 0.1937709208854884 -0.1809514775392889 -0.2621114240862484 -0.2374190390657449 -0.1715808417907331 -0.2283088810658015 -0.1617067759839425 -0.2180847368023537 -0.02134980600423009 -0.2099285040174214 -0.1566339736194086 0.1772945695070415 -0.1881489437997438 0.1273398508499708 -0.04068666629962753 -0.1539136882440508 -1.512543844251932 
-0.1048569271829966 -0.03806874113921405 0.0445524987834694 -0.06187375061183021 0.003855552345363742 -0.08547234387387592 -0.220631543812532 0.01060023124009692 0.01070883308894437 0.0223791907740005 0.02822389451552322 -0.04119590292216949 -0.2523163433282938 0.03803042554120387 -0.07775512763754808 -0.5234169288182596 -0.1313269558989808 -0.08048504799697859 -0.1966560524698014 -0.08050877753659799 0.009341386357089256 -0.1024467223026018 0.1409788827883484 -0.05185036121652841 -0.06659530590682725 -1.556441697148702 
-0.03827351288628027 0.004302991970167744 -0.04117848831527025 -0.05872248928047445 0.06804914561791259 -0.01499300492138412 -0.1510899068347002 -0.1129154688364807 -0.1025495724626059 -0.01361292812399748 -0.01944474670748801 0.01858696226085966 -0.1274531361245865 -0.02210581694964917 0.03426329796902414 -0.1586743638797556 -0.02274008215909439 -0.3064896964707253 -0.136114380990137 -0.08484134750787584 0.08053830344680483 -0.03817677753985437 -0.1502879124601528 -0.03754004406415954 -0.07183198581630555 0.1812119427558377 
-0.0271231260550894 0.01154569344211891 -0.0001291768670182297 -0.1065924436224591 -0.02719899001549814 -0.09528991151096296 -0.1030381818225673 -0.06014183208083664 -0.104399277857391 -0.09189802285728674 0.1261190120617541 -0.003224308203864107 -0.158825661787302 -0.02086467317042721 0.03316822890733492 0.0112519567165379 -0.1315905609207149 -0.2714555995079315 -0.03836181449780169 -0.04043477048553668 -0.09631320866173017 -0.0824497300611812 -0.2333929198493037 -0.01247789362040528 -0.02615889574462519 0.5172192331335691 
-0.06176070887292895 -0.002892761872433589 0.04510286680873668 -0.1650350102424369 0.07391125595646655 -0.01930825900752034 0.003605295358198158 -0.1342097200785981 -0.04792475324040339 -0.09474535428689276 -0.01283212156986253 -0.02552451464635175 -0.2306622261612238 -0.02111540906873771 0.1440315336762304 -0.04210180577945503 -0.01004634275771397 0.02817105327779121 0.09127044115274509 0.05514751860292554 -0.1061447601802525 -0.06907318335081017 -0.2765058924394988 0.01737442360466252 -0.1587135916216352 -0.04689324926343391 
-0.03710071347739484 0.01317515189484213 0.03218525504558889 -0.1067567285901591 0.1195722102574914 -0.05664141918967955 -0.07932677849349985 0.03679737531631223 0.06340542776920327 -0.1857767171334838 -0.02935469447385507 0.03916954198762612 -0.1707899057022522 0.04740855541798127 -0.1124468160266943 -0.7361832448238266 -0.1600380705524495 -0.02906389444916443 0.110501881198336 0.1135889608839673 -0.2570828218669486 -0.1957982466268875 -0.1130878014503742 -0.06675945870209746 -0.207634727954717 0.08911614545966426 
-0.0475617205486884 0.05533988981683624 0.03237312745902177 -0.0007845129810101921 0.03675436344575156 -0.03303171839499186 0.07827690801093201 -0.3084730920185777 0.07562454891719285 -0.3930728112922902 -0.05098971774702037 0.1250416272747779 -0.1133555771559347 0.07096582180372241 -0.09116327154896176 -0.01794366684392652 -0.1431528577188696 0.03037174831705839 0.00504880035991406 0.09207495456052496 -0.4001685651438048 -0.3323907884065677 0.1570125723948894 -0.1659062196366667 -0.1014843043725213 -0.05716379123872009 
-0.09484117739257418 -0.3120622675749513 0.1067068397940335 0.2241947530739589 0.02785779843437661 0.1097171472628112 0.03616222672965336 -0.2929258680899144 0.06525126229340467 0.05454945681246282 -0.5996682259770143 0.1585175539978508 -0.2535021412677355 0.0488931772487908 -1.10582284913504 0.5633285471454571 -0.5044461220183686 0.0819669952055737 -0.03330481466328784 0.1714981361529772 -1.180570232661856 -0.2111119920484733 -0.1615332250635892 0.001861994486390941 -0.1297420022688056 0.3694334277004664 
-0.09497554708819524 -0.1409289322949206 0.03837690575217943 -0.09734619884646127 -0.2046501507478568 -0.06675707759913468 -0.3672723059276287 -0.007735757355330716 -0.3115907858449944 0.1119150615077451 -0.5241707750819538 -0.1953134086314314 0.1568914800202584 -0.06238215632945863 -0.1514780818029374 0.04219218951675634 -0.1447363826327886 -0.01958853848509664 -0.1386935901305477 -0.360073897258291 -0.008110981223854627 -0.1905323758754572 0.08148111158739978 -0.179265748114088 -0.0259330462714881 -3.261583289625091 
-0.1755275787071444 -0.03372337879032056 0.02546388354072324 -0.1463330524121923 -0.04971282468371349 0.06456824350321938 -0.04907507475403163 0.005798390681372865 -0.1472833305377036 0.1699218976337516 -0.1605240529911835 -0.03581311084707971 -0.2610191134753349 -0.1456756255186197 -0.08305620796878795 -0.4210407049985573 -0.05274493134162837 -0.1265015213294035 -0.1254531639288308 -0.1411249412472765 -0.103360086251548 -0.05650148036956485 0.01130814008719151 -0.07551765026136617 -0.07200658797172597 -2.740668712386225 
-0.1272810508738256 0.006640085987342915 0.07027389134915628 -0.1714705706172115 0.07496130785959471 0.003102710557100382 -0.1734141438297755 -0.04625611386504436 -0.1255251440456834 0.01081099440228765 0.2342955066297908 0.1082400684159377 -0.3561969202033547 0.007261861672702635 -0.03838285226058275 0.02029435019253452 -0.01137265548266793 -0.2497995853962009 0.01882464025218333 -0.1152979510219295 0.1112763922168029 0.04442854574340768 -0.07591345791339707 0.03720692484977847 -0.01596959425040008 -0.1840817766553963 
-0.1113053231129849 -0.05489301250896528 0.02929188567632789 -0.1510306645725466 0.08765511260039158 -0.004031870834285961 -0.001536052051762442 -0.01680103336539444 -0.0566984211083203 -0.05845842001047336 0.05470585011215224 -0.01648579305695842 -0.3399893511126379 0.01331593452192251 0.03445289764210534 0.2617816969830475 -0.05342628563328171 -0.2524679839795166 0.001890511768479579 0.0668716328004279 0.03580131382155677 0.05547214977607311 -0.1593038343734963 -0.06481745080285324 -0.08467564481636169 -0.4782340554132641 
0.05234975834973941 -0.07241191559804032 0.07873082617549634 -0.255550712478757 0.288083750347364 -0.3433735817127921 -0.0477887125615202 0.06521749820427906 -0.1667807321901558 -0.124825382805939 0.01647343877847121 -0.09866304299598351 -0.03094585709422288 -0.02154588407470944 0.04962403142100433 0.1451891151904595 -0.1704811537085866 0.04669490781563776 0.005357860620052233 0.02174375565956093 -0.1368006808191129 -0.02196915008823555 -0.3511172280642087 0.004081149443940151 -0.0371356018644905 0.08830569805816924 
0.08227276536983723 -0.03843267803898121 0.04535135470414908 -0.09579360561612757 0.1009145898000541 -0.1244100021251267 0.08765936744097839 -0.09307130220388632 -0.04346895405033682 -0.1113810399376918 0.01851220489028629 0.01358902286367378 -0.1902868532824754 0.07239110670346526 -0.1546846614842565 -0.4915854660654078 0.0007797441003684936 0.06424614410290852 0.1274601428124405 0.01771674564961293 -0.08935727734264266 0.04222149660729303 0.00961624157465397 -0.1680847813692411 -0.05542304871565797 -0.02905343965147131 
0.05546661978920758 0.03160539513131593 0.04721942684265537 -0.04973332886081637 0.09850662076722504 0.1293161963830773 -0.01662437572073623 -0.1110441724983959 0.05539492134639501 -0.5183345906152671 -0.3078769842761933 0.08831291207176285 -0.1933209033907046 -0.00945693467037814 -0.3598722281205581 -0.3338783793584044 -0.1760302103020648 0.04547461265276342 0.01296688659710104 0.06009739303910525 -0.3853009301597805 -0.185946947850047 0.03743078041352495 -0.09254692721874448 -0.01375113432972104 0.4340928830818798 
-0.09104260508902527 -0.1318615011315645 -0.2757407131430254 0.3542279277193849 0.2261142622683681 0.2475578522296299 0.02200176740006268 -0.291385941061579 0.05503701849350881 -0.3503393976093297 -0.05881489577493335 0.1576924510430709 -0.8946454093124094 0.069467594645756 -0.3554296895372631 0.4291244192488186 -0.1048353139303541 -0.01721852262589082 -0.1162218458244771 0.07077390930297463 0.0006082931962748256 -0.0569074943557888 -0.004301860712782587 0.1478070103704309 -0.0821196499658232 0.2170236477765042 
0.07958806728861488 -0.1352598606875897 0.1327064928709387 -0.02111164239431745 -0.2003271672880649 -0.1373354194208116 -0.2891878498477198 -0.2094098589743467 -0.4460318255816532 -0.002213710092891073 -0.5396125785256843 -0.1549600244502065 0.2805761074102138 -0.154543968522068 -0.06768688489590426 -0.4193347491148633 -0.1625344533918662 0.1622337302852258 -0.2333900477980397 -0.6675069533699221 -0.6153948301504244 -0.02637295687827583 -0.1797466336357895 -0.3080748010663978 -0.1592490077856534 2.4984230041474 
-0.2416943948183201 0.03428763984512322 0.0325784821485561 -0.2496757214689681 -0.07434655485051785 0.1354084172400787 -0.1274308925503136 -0.1763984318649199 -0.2610419536023423 0.158017867503465 -0.1778786814802537 -0.1306511566092011 -0.1827268485450128 0.01167029824536743 -0.1031554754651823 -0.1683995573702316 -0.06642011172183868 -0.07520674158739163 -0.1747620848284357 -0.4442806717782191 -0.2052405377523631 0.06007111001740958 -0.1745336405218689 -0.1001822697314717 -0.05703253354216456 -2.998601306511007 
-0.1025190034784816 0.107766354106662 0.04688382286097195 -0.1781469378920504 -0.1946058820240859 0.08565621863868171 0.06567976966119013 0.0365302250002698 0.07810940624837773 0.1088900881098402 -0.004924774561226189 0.0141110538508216 -0.6046618056563998 0.02444080179128642 -0.09826390735440449 0.2106657050228286 0.01872101685975717 -0.4238679199901808 0.03603444061886731 -0.09192448555984573 -0.05066150508912685 0.01479590755430917 0.05797447461333671 -0.1055709500482671 -0.003841600916190126 -1.706694270451286 
-0.001093400336856091 -0.08253049116922664 -0.05851930658068544 -0.4218623903695632 0.2129555087234087 -0.1378723968973354 -0.1089660186518486 -0.02390678770928486 -0.1839496642546295 -0.06702176341500335 0.1465637341817878 -0.02858722998703715 -0.3968966500569446 -0.01928707651092228 0.09479251882938744 0.198315555108286 0.01280829910994082 -0.1389961476005282 -0.00990986421491488 -0.1845509464279372 -0.07837655292018411 -0.02378600931566099 -0.08256321578596548 -0.0426742415668719 -0.02620184901711015 0.1751315576326155 
0.09030215530396425 -0.04224557345724115 -0.05070456599620289 -0.2309086329426649 0.2169211358776281 -0.3484716961386532 -0.0223296058964444 0.002667908944425233 -0.0920353976383136 -0.03127759624228231 0.03765304093921545 -0.08828497326885119 -0.5072330028921211 -0.04844985154658734 -0.05611642855036737 0.1236685133104166 -0.1013441699905212 0.005505067875324041 -0.01913961351482247 -0.02607025228719477 0.02996184096459414 -0.006427179061286175 -0.1137117079822529 -0.1474170787335813 -0.07668485688456955 -0.00831600157145752 
0.1668640438888092 -0.0176649447987672 -0.00522097924014802 -0.2609386235363996 0.004270761614423618 -0.1444277856234371 0.09725845334325831 -0.07306164905835338 0.01898533074522531 -0.1593175952803704 0.03960275112219375 -0.2075742782804769 -0.3794822391289918 0.1033571346573993 -0.1904418494560965 -0.03907824709440674 -0.1042460136901187 0.1523771131865706 -0.05086697332356639 0.09302924635372342 -0.08549466352363827 0.01290762017570812 -0.2073608566984956 0.03532232010241161 -0.119660131896525 0.1026805049355055 
0.1122260779620134 -0.05133807600234139 -0.2789941486224996 -0.06344189020144267 0.02548100426502162 0.2162843790525205 -0.07187769181105517 -0.1253568561526556 0.07907219741303301 -0.4032723534102684 0.03702727847370943 0.05424217929454606 -0.4986707705245609 0.0790397168481517 -0.2868635015707905 -0.2087195952985134 -0.0993570114646832 7.019515075859691e-05 -0.1729878719447116 -0.02307430622598008 0.09987302229719509 0.05606367203546466 -0.128730323729682 0.06110032453674268 0.06408129235463225 0.1546250355492392 
-0.1578817553600679 -0.3902823845950776 -0.5318804165562167 0.4242330404431744 0.01137403040393533 0.02081722557705064 -0.02663844963864936 0.03995910937153967 0.05755577995553905 -0.5645355294363875 -0.3335006981372021 -0.1376121493415143 -0.1263662876876319 -0.1030016739037733 -0.2900059274826322 -0.2072511103665122 0.1852637250770954 -0.02458722491783061 -0.2007994941060988 -0.09110935061717419 0.3573216795842228 -0.2606458938886108 -0.1451379666322638 0.05860557087033788 -0.05999379736476164 -0.6672543699902278 
0.1601802343294019 -0.05510887240183786 0.1131557211199303 0.0377525248313928 0.01691196911523097 -0.05676098444272597 -0.09020308551347453 -0.119510715353038 -0.2665126153948436 -0.05662343720247093 -0.3463932920055275 -0.2942646829976927 0.750166773113439 -0.1838388000445802 -0.1058529924293204 0.01394246439127955 -0.1839365361066752 0.09447514467270748 -0.3323895984188929 -0.1395395041146818 -0.6302327702051626 -0.02122427250948766 -0.1255101086249452 -0.19033017544607 -0.06486009287168498 -2.849386209680355 
-0.1061504020164491 0.1013791841738788 -0.0420191356639399 -0.1731639852819792 -0.1703041189975385 -2.461682442722515e-05 0.01646425297208953 -0.1299327756970965 -0.2934909510068371 0.1293021394471551 -0.1005371879640412 0.03121638239775534 0.04327539677963428 -0.08976323040930936 -0.146512888956644 -0.1757585923221203 0.04627609125220372 -0.1001325925208737 -0.04166377161725317 -0.3114014043397093 -0.3766433336974763 0.002186444356290302 -0.02813858949644625 -0.1960490031019171 -0.05424123551085998 -0.4522235377975358 
-0.04467181640328672 0.02136501527727811 -0.1219337056265882 -0.2813597036230418 -0.4620185304375959 -0.005441117493818155 -0.08597433039175112 -0.02590334685551708 -0.1803743765676716 0.07736407211047244 -0.07672188264989531 -0.1552873111825935 -0.1313512204590783 0.04997799838664264 -0.122671289824405 0.1688701745501676 -0.01539741473245181 -0.1978124365579585 0.02505696728300075 -0.275697027896988 -0.3571912860590113 -0.02966871034261126 -0.1202262888551616 -0.063491686413343 0.04424755833518139 -0.9544214518688119 
0.03712892593936341 0.02850575469108138 -0.2131756621406317 -0.2617162850935496 -0.01439272086254885 -0.08057764862499597 0.009476748200030775 0.001335556427665706 -0.001189048849544579 0.005527084722296067 0.08312991605633807 -0.09124494225256662 -0.3539543774754162 -0.06684365930875308 -0.0193358985904067 0.3569527097400097 -0.02742507256507988 -0.218061542467035 -0.04704343449541253 -0.01681037083112768 -0.1199341775927007 0.08023477997258741 0.04957544337777711 -0.05217286370227807 -0.01372157036278584 -0.1882258665258781 
0.1090564277944695 -0.07188584012728867 -0.2513814403157179 -0.2017019284493194 0.1545173573089226 -0.4272550364178692 -0.03400577160423708 0.01299113432485586 -0.08558708601244643 -0.0639473394626623 0.1898127757588873 -0.1055928032996953 -0.2853280841595325 0.03666091150271646 0.005896849000702087 0.06049807935070854 0.05162799105865248 -0.01105391519664711 -0.07387160641908037 -0.09417138484687385 -0.1849751953479724 0.01184876442310394 -0.01224363072179198 -0.03762106831083324 -0.06921103786282885 0.0006368136713498333 
0.2069381089165026 -0.09324701416065244 -0.3479904318725714 -0.07417451578496123 -0.2656445676907284 -0.002974379603850028 0.03731649661803978 0.02789823251347511 0.05470378959853718 -0.1220435087920762 0.07899705766555212 -0.2046922352292705 -0.2319777899694261 -0.002355317290617868 -0.1039891163302044 -0.07523946770848507 -0.1242715527969503 0.07827765677169732 -0.2011640084726469 -0.09660065777440084 -0.07675304275094155 -0.001760053305709349 -0.1807765758272333 -0.1009339410119096 -0.0585195015542994 -0.1331705545293699 
0.03745629725711139 -0.136037987343132 -0.342224608837205 -0.09930469945179536 -0.390982015113086 0.1086650402152844 0.02020164010871925 -0.07944569279742092 0.02485826211990777 -0.1421958539183253 -0.06985933412456294 -0.275651156224186 0.02308324239069959 -0.0817953070565343 -0.4678439917230514 -0.2529129161683758 -0.07332682814390561 0.1173329626587488 -0.06258130130685689 -0.03523881540264426 0.1889455188474407 -0.1294898427153715 -0.158016680543879 0.07441507683284654 -0.04663950824589233 0.08559033062142211 
-0.0733387220500543 -0.3506145999178275 -0.1683529934355209 0.05674575711537608 0.03040939998997566 0.1545113236653212 -0.04065037355011418 -0.1529506754859458 0.00144575331561747 -0.7576024633725361 -0.1719431343869408 -0.3815104180126704 -0.071480187343887 -0.2512721854704287 0.09683022806187606 -0.2165782307243296 0.1748624573873674 -0.03172148579454924 -0.08920634813042658 0.02400304569771803 0.2193455296938487 -0.3271476553714673 -0.1859901053543745 -0.09205874425205891 -0.02218706974466654 -0.1367468671966967 
0.04948470175202131 0.08823013308914548 0.01304241927341209 0.03506902665267769 0.02482354128088268 0.006819364108345884 0.06426767641360924 -0.02558723753291684 0.04747928721079372 0.1381129189053333 0.2144311049457595 -0.2812663229990773 0.03185332447246375 -0.1571614169745287 -0.01198125355367459 -0.1494763488486159 0.06081045338356086 -0.03247573635324139 -0.0100806652217769 0.02118935180043801 -0.5603936380630827 -0.07883534617353596 -0.1679617064211745 0.01583320914426975 -0.1279791959559073 0.4786846701089519 
-0.06755235549349989 0.01806705576096645 0.005136653334161603 -0.03446656041605199 -0.1924246330588178 0.00656460169645417 -0.03449535406790693 0.03628117395597215 -0.1889461547545226 -0.03957524879136583 -0.06291519099242007 -0.1483157771043696 -0.1334225457073263 -0.1102421848368502 -0.1860635176244025 -0.02205220868498516 -0.009363909279141209 -0.02855730588200547 0.040544449306118 0.05293607755063444 -0.3333550795786364 0.03926902349625216 -0.1590527358871647 -0.1806235052403692 0.01152239277374215 -0.3756211833346055 
-0.1012134957265211 0.07235718664485186 -0.007670428559409278 -0.06021887166825873 -0.4792697273760103 -0.1290953727571422 -0.08639656855526549 0.06040207888656597 -0.215785030507746 0.002072505800484751 -0.1831007890497425 -0.1863316658701853 -0.04432837228909486 -0.1078265195312091 -0.1946405393009847 0.04126698248482397 0.09199454568272057 -0.05867876060041587 0.0114787923897509 -0.05160039559668864 -0.3925357269551096 0.06027011937149696 -0.01350179169212106 -0.210935339803041 0.0763798628807032 -0.2522037147458205 
-0.07448317168403559 0.02817646696113727 -0.07542922465919506 -0.03177738484601994 0.03033065299991197 -0.1947552859065109 -0.07108771004039788 0.03671269113837618 -0.2365160253354525 -0.0104000759720101 -0.1022298938855979 -0.161494694398356 0.007029972615500448 -0.05273186750506663 -0.0127795886087751 0.1843406666184827 -0.07204640224774381 0.01630746476663163 0.0565397670100149 -0.2164936955751121 -0.3255346075600022 -0.04064592488114292 0.130294827673186 -0.08982685303479175 -0.01177520718514341 -0.3985102404881985 
0.02679683769966473 0.003620194580548063 -0.1054829950054654 -0.08200869752739784 0.03274405223630954 -0.4227309176405671 0.07351222790204202 0.09058023854131401 -0.1050559059951669 0.0232171272595432 -0.115206255155226 -0.180961982485624 -0.04605584048473732 -0.06669773023728337 -0.06463455310260202 -0.1020433055602112 -0.1289328887035914 -0.1208757514644723 -0.08286199307154382 -0.1261135692249207 -0.1202640763356894 0.01803287876964991 -0.03817322196235463 -0.1404375043043634 -0.02923328210389382 -0.2597289235510888 
0.04117453986534322 -0.01311142317823498 -0.04522636115709865 0.03175474314689613 -0.5059236783449776 -0.007150105968366257 0.04957492298746768 -0.03131821757221837 -0.08643390974427413 -0.07181319039383696 0.005080149663794848 -0.330039852190754 0.0354524658933511 -0.006224637931982054 -0.219765253686383 -0.007879174398437078 -0.09761970767971064 0.03889885487972177 0.01193324733842894 -0.2170342134212687 0.2490368833471827 0.016824460593641 -0.0809075095106402 0.02097731142531723 -0.05617980148767233 0.09567324031708946 
0.05135393569221738 -0.2342919584731758 -0.03453970321396919 -0.08423486473164297 -0.07672842518476056 0.04975521041923657 0.09158584190768017 -0.2028811195023311 -0.03055331213703502 -0.1550483177960542 -0.0496105436342253 -0.7351812989316849 -0.001796746533154708 -0.1423992696200121 -0.0949846405246708 0.02502161588651335 0.07079372546816828 0.05572982616346017 -0.03385576310009338 -0.05089785705075349 0.2066186439036911 0.001314596837880328 -0.08462756381422117 -0.0544773713850368 0.03115967435546596 -0.5669600011573248 
0.08421891523853291 -0.2539810480725488 -0.08102414840989952 -0.1799318677382145 -0.1613038724389502 0.2481032820941728 -0.1183470378675303 -0.09575850576455143 -0.05198796570593791 -0.9600728135947547 0.09641626702464821 -0.6399623525456003 0.04776652216795711 -0.3660666311391439 -0.2221489307389217 -0.238864804673761 0.2274077348776815 0.049712226659436 0.003792957244238988 -0.2397552640384303 0.1622760219624182 -0.3522390604781725 -0.1932962543783287 -0.1743721417952437 0.01402360616124568 -0.08883774310425421 
0.006360015157918907 -0.06965895971977761 -0.1270622796749284 0.04522132706789427 0.1291571808570583 0.09774414232229071 0.1909565442187666 0.04678582315025789 0.004627677255359723 0.03097715075891149 0.07241560366528735 -0.05995079821768725 -0.05360038668194426 -0.1600831741827019 0.1173510974296201 -0.04300774433707492 -0.06454883607632686 0.04792235551452095 -0.07569391907217185 -0.09410303196622305 0.2038044041979273 0.002543316955699786 -0.1534666669809218 -0.1222881155672974 0.0162752268648073 0.9728122314888827 
-0.01294478001228467 0.1191667094325369 -0.07945401182428607 -0.01550594378642478 -0.1664817391483005 -0.05277211637098034 0.07565356586659772 0.09560606149512292 0.02295366539784499 0.04899232407319935 -0.007129171917898931 -0.1651584595552419 -0.09330538720341541 -0.09516901567115103 -0.08881358841540887 0.1419438644287529 0.05856515719862702 -0.1533193702655447 0.02224085718005169 -0.08612099348695296 -0.1209600007985997 -0.04662897485221697 -0.07485659492213172 0.01146952422655956 0.1425001689643283 -0.5244688930153244 
-0.1245434792655636 0.0689374076136556 0.0007615798552496371 0.02466566712666313 -0.5031648488155043 -0.09656560015399356 -0.02136031028756971 0.02461099088850281 -0.1924558226737655 -0.06170372454592037 -0.07977137263667275 -0.1678128642162329 0.029533057133664 -0.08422961677391409 -0.009727743672363278 -0.06755887762743869 0.03746934968669442 0.009662385875231862 0.04406464211483626 -0.07626606259312474 -0.117930052833787 0.04470338305785883 0.04807644222399535 -0.06729489324245594 0.04587031031065997 -0.5382902905976302 
-0.1294865189891585 0.03806845646865162 -0.02076984080460532 -0.07015693424497449 -0.1058100984794585 -0.4314574623750327 -0.04076997086783841 0.05738838012571418 -0.1959837816873819 -0.1114767531106583 -0.3509193980104591 -0.2765239754505218 -0.05646911656567321 -0.05519531462147054 -0.02989479745962872 -0.08486660840566247 -0.0202030954416773 -0.0960270382986166 -0.05211296880741836 -0.1968295661671751 -0.09475687252842074 -0.004304900683089316 -0.009524656394526682 -0.2038803591112483 0.02900815652608269 -0.3924019124797128 
-0.08166176819867466 0.03627935431096255 -0.01589398333796477 -0.0470133216585113 -0.2720728592989636 -0.4965569276444348 0.03126579716449635 0.04970363997476866 -0.1968202023315825 -0.08152939244242961 -0.0946177798069803 -0.3271116918494005 0.03162619559425778 -0.04593853126976249 -0.1224039649029136 -0.2499287755570186 -0.1078592691077208 0.04732821972234776 0.00897907687664309 -0.1627959505410427 0.01602771347360005 -0.1141948203680366 0.06501030153266063 -0.06851325971748798 -0.08095622152989129 -0.2149116259071982 
-0.06739574576022903 -0.005770484068502411 -0.007014376827581779 0.04560255833485112 -0.3325165626734595 -0.003660789414422499 0.1816476371057482 0.04286258009627798 -0.04649673098277776 -0.1806219438735659 -0.05063719975922101 -0.3318543602918308 0.01172602629152424 -0.07485362881353638 -0.137500140503736 -0.03371709244173653 -0.05347463225807302 -0.04630123445001041 -0.06434095130323547 -0.08988551442140648 0.009779079733789865 -0.08827698044438259 -0.019517200719394 -0.1122424986601744 -0.111088460399589 -0.3608017619866833 
0.02660699872993403 -0.1497046728784376 0.02117045214291628 0.099007821442764 -0.1864396376907318 0.04085801752720526 0.03879261770134979 -0.1081774215377019 0.02224132430592354 -0.02320008207565768 0.03655774911940698 -0.7966261340839479 0.02965419294287348 -0.1231592577561173 -0.284921192839496 -0.1099301968349962 0.1784203878440504 0.1064447570000056 0.0901332732881045 -0.105309595338956 0.08455313269836943 0.002891709494670977 -0.1834881011348572 0.09194342394340882 0.06168624254769273 -0.07925010408335627 
0.1222161772270618 -0.3247677819757864 -0.04155560604191513 -0.2607508392842378 0.02015814030912908 0.2470184792140546 -0.1349988616070374 -0.0513065784198331 -0.07464810452447383 -0.9351164853718781 -0.1221428292136531 -0.6184542786042443 -0.01446706962242849 -0.1797676164626466 -0.04015710378318794 0.1498593131589247 0.1977523766739128 0.04778826748639468 0.006409971702337276 -0.1234324211257717 0.3499099030678285 -0.2268505233639557 -0.1164589248850314 -0.1939197507870842 0.07021876049290306 0.2936960496814325 
-0.04577858180438366 0.1257717828822054 -0.1280042419343399 0.05728605625771935 -0.0124709780990619 0.06775522427352725 0.1288770737244389 0.115344653365357 -0.02569420476118562 -0.01045999727977182 0.07036406932787002 -0.1828203084086862 -0.1859846801284566 -0.2019426176608635 -0.08851304895925188 -0.131795491023622 -0.1401688993329303 -0.1016375408358152 0.01358378173474213 0.03469929572027391 0.06226202039807913 -0.4709282179421268 -0.2455914103182358 -0.03383085061678424 0.01649865427212535 -0.3477296740897864 
-0.1412312284931759 0.05078809132995876 -0.005361853441667295 -0.03945898812974621 -0.01993021965157328 -0.06922159342892299 0.09957881760066281 0.009964279008620541 -0.001206141250878626 -0.1163463996834032 -0.02721791319656961 -0.04276903326545523 0.02177950412143624 -0.08639310884690334 0.01380948863780099 -0.005418921237996586 0.06911122716114593 0.03116728921928518 -0.0105512460850221 -0.005700809080861803 0.05995692963913737 -0.1781853051586864 -0.07167421524070672 -0.1295439386932202 0.1111446925908403 0.1768894243794955 
-0.00997326298649711 0.03761881809431947 -0.03204338104158851 0.03311130379563364 -0.412182101318616 -0.1275478417803532 -0.07676386205787493 0.158383536798716 -0.0430352242971378 -0.1332055507588188 -0.2061825335696366 -0.2277558208612206 0.04702782603711748 -0.03099839554563353 -0.0504547708990766 -0.04461434749832253 0.02707866359671538 -0.01239739968552619 -0.0559048985912543 -0.1499903763296975 -0.0639772483010472 -0.2729952984567743 -0.07101611987926551 -0.06594520811345203 0.05333177558755799 0.01047881558673216 
-0.2027125576429017 0.01776462201823162 -0.03386013218137117 -0.04954655175147115 -0.5477298516663277 -0.526022443682384 -0.07014064636104869 0.1147774467918822 -0.1153774556142788 -0.1101637775806516 -0.1932994090016512 -0.1889154489623567 -0.04810257610387127 -0.06142086434244361 -0.02461620416294395 -0.1343029592898903 0.0494826043389118 -0.1234816580270025 -0.1243456119692445 -0.1558274983421146 -0.1945593174742195 -0.1197525715839503 0.008431128930806968 -0.08487447594505491 -0.04330425966279788 -1.186659515739848 
-0.1294090439260228 -0.03081383841999545 -0.05820586389450642 -0.03986757605591219 -0.5251428758337465 -0.3552317346863451 -0.002161498003502082 0.0948886460712655 -0.1615874178930758 -0.1497692981960511 -0.2472067774232457 -0.1154178357272508 -0.03671156154584854 -0.03320223072638719 -0.05615549441673794 -0.03148620367822062 -0.1463264571442825 -0.1234805454030059 -0.09066265197606692 -0.1880956759460118 -0.04509410115011067 -0.03670215258858445 -0.03537709942551544 -0.1376907424840622 -0.1016416588127773 -0.7406988626136417 
-0.1771777733832559 -0.007367219107209642 0.0477597708292009 -0.04126438898553834 -0.02386564362508716 -0.1608132198371689 0.04416888802075834 0.05699846497282078 -0.08712669050877564 -0.1389032430688085 -0.0795291747938921 -0.1491266850733767 0.123666600500503 -0.01729314235727865 -0.1169826557907367 -0.2307351217188709 0.05778801693505958 0.07849714230183655 0.05874603449492907 -0.1913687260390432 -0.04606298922330251 -0.05371911573612325 0.01203490855670232 -0.1188936925853372 -0.2317191860797747 0.0184430343125126 
0.04210238083757955 -0.1272601492151531 0.006401913990683487 0.02686782360703659 -0.008643679165858453 0.09023468767951637 0.0737985449612216 0.1308748041187183 -0.119063821115264 -0.3065599013993078 -0.09559697576590281 0.07989762009046245 0.02868962227731943 -0.1297040564640964 -0.1343968241753124 -0.0515568973158753 0.03677145364330453 0.01616322793930243 0.0100522190094985 -0.09251770229393513 0.08917266657937019 -0.381131377224514 -0.03523814513326815 -0.3000473756090464 0.04666702720317567 0.3810160139209161 
0.138541307895378 -0.05222575007815946 0.03351657911262031 -0.1858946507598628 -0.09703723056853791 0.141376144935205 0.07741089224957413 -0.07977364205086987 0.03901154801223242 -0.4905926772997193 -0.08477208812968737 -0.5710739441722723 -0.003755211084360967 0.01548896834801208 -0.2951473151487172 -0.3154018331048342 0.09755252408324983 0.1102156687621629 0.06682881367023595 -0.1042334473411982 -0.01866897388798962 -0.01621955166407633 -0.2138128100103713 0.07390241934748092 0.1156712247200237 -0.4714392046524121 
0.03556651674261421 0.05972670048109258 -0.1850936056199534 -0.05075343008978078 -0.06272491850479259 0.07888878366507561 0.1856780979314455 -0.07107235630420623 -0.0006255182446378701 -0.007828932800010634 0.05363557353941937 -0.2133079937517379 -0.1064728301170278 -0.282583727290509 0.03176420978046203 -0.4356478736174995 0.04045870457436498 -0.01196144828277173 -0.141308020725281 0.006295608985149529 0.07883296299996677 -0.2258307031162081 -0.04104584814834428 -0.1682622975950353 0.1498334084606269 0.1918443054807396 
0.03165799493495706 0.1523441916565118 0.03797027867064266 0.122204226305758 -0.086104974969142 -0.08764253780844203 0.07126582081466029 0.09654461597024078 -0.0147778137888897 -0.1109969822875884 -0.130924905329572 -0.1450531640183255 0.0007696945498619156 -0.1445597323826128 -0.009660206474861264 0.3854522400420107 0.05395437135596884 -0.03876522219636745 -0.005192436714609406 -0.08211469707732486 0.007791358384011084 -0.3722465560791363 -0.1271683921744892 -0.07491013102587168 0.09658741177369068 -0.1773776468341513 
-0.05934510496202757 0.004016635141138753 -0.09785333403063082 -0.04151543341668101 -1.022502176090543 -0.01977660418187626 0.007396287493510015 0.08272805219892389 -0.08358972375007231 -0.03278512547609734 -0.1596634108072696 -0.08552402138464119 0.03022438954393033 -0.05497528279012567 -0.1489825019968519 -0.1446327074943353 0.1695328937334264 -0.08490742929177338 -0.08862911375507702 -0.03100874340804238 -0.01873166664793175 -0.2111895610152612 -0.03501606368221555 -0.1801449824103729 0.08515657347379296 -0.06920977967372291 
-0.2119875284497618 -0.09123453748795385 -0.04436679019776084 0.009011029097628005 -0.2082422815794592 -1.148096661450925 -0.1253774375490123 0.09968717670451967 -0.09928713998918308 -0.1637486161588406 -0.0831597685112674 -0.1754738714020549 0.01664288716411732 -0.02567499585013183 -0.03537115225603073 -0.3098212287377484 -0.102372914793043 0.01944758042466822 -0.04842759722424073 -0.07183435263337262 0.003436776490358644 -0.1140830073284 -0.07192081837259467 -0.1071298344477378 0.02288510148100163 -0.3937424960829863 
-0.2073780817850087 0.07047599063199218 0.01441404917829426 -0.05899025912860571 -0.09987836486002713 -0.08925760078711154 0.0142828153673974 0.1127462977024124 -0.04351287489669024 -0.2229204476960212 -0.5000623317967041 -0.1712117995032627 -0.05955404815353407 -0.0279812596758803 -0.08649607512513446 -0.06740102443721316 0.03470319329324159 -0.1378693040912077 -0.04393572881901685 -0.1461904456181752 -0.2937698986938231 -0.138889868194879 0.02411264100949573 -0.1893618271288974 -0.3821058933091783 -0.7359994427410377 
-0.2656899373693489 -0.005011003869880187 -0.02372458772949484 -0.05449708432101696 0.09079507632327076 -0.09162389751484229 0.1875099586116399 0.08427222894208503 -0.1348105332658236 -0.1035286558684785 0.02187887373064798 -0.4834545523095026 0.01074440783690317 0.01846464620025172 -0.1687466878306712 -0.167573287355129 -9.584451716990183e-05 -0.1089733828133305 -0.05704767443051738 -0.2240817761593729 -0.009598816162673086 -0.2393131630355595 0.02398267974432024 0.002815896515622708 -0.2770857270431818 -0.4590905159728734 
0.05420197888704429 -0.07410178248783798 0.09674316445745623 -0.00797365598891331 -0.3653830489031021 -0.07176358969876166 0.03326223912253758 -0.0951423594478016 0.009507327426510372 -0.2556747941069038 0.05048630982360454 -0.04147421240921616 0.04690227112017275 0.01945501910117268 -0.1176063226022869 -0.1275453539550506 0.07563064249549872 0.1082426536548433 0.08281345195424837 -0.1991856625641725 -0.1627769589609178 -0.04918929217963668 0.03008650802874965 -0.0939446291135662 0.1457123740638988 -0.3226005501018951 
0.1244808122765234 -0.02969002611510654 0.01837852506698008 -0.2576227001772182 0.08054271843565197 0.1366751816696389 0.003202382373913337 0.1099939043899834 0.008828097194152704 -0.5428684830787864 -0.1285090916016753 -0.1748877593612772 0.1235406296556521 -0.06071789542991465 -0.2753197172534755 -1.374844299011554 -0.002453442371250336 -0.1751036729936845 -0.1199732592021591 -0.1465120334498034 -0.1542569909349338 -0.3548857977248921 -0.2260614124324814 -0.1106564299261194 0.0737334269180577 0.6088126364901135 
0.09515293190327824 0.4113631991302422 -0.1086794781243148 0.1645346021197481 0.2314510453022208 0.03003985962336092 0.1235957927442983 -0.04838017581764374 -0.03577132360947253 -0.1108964539086918 -0.4132910937922559 -0.03726161748410229 -0.0928792417333652 -0.2657370422797766 0.1361703457024278 1.205756266049698 0.1900942937868558 -0.1835622387025433 -0.01516670277671904 -0.02461821141936178 -0.0430521268148054 -0.461087922050598 -0.06583420847250804 -0.1461412386729646 0.1245454296163805 -0.490145990715942 
-0.1019291468576928 -0.06826620587561706 -0.01525131567826291 0.02828215115136679 0.09129989302804808 0.05778535102102939 0.1217063057416789 -0.08967391182347348 0.0322743194838099 -0.07799634352099873 0.02871330482501651 -0.1106714349373056 0.04509412324149097 -0.05127952438755119 -0.1249306245971051 -0.03840845453323932 0.01682943128624784 -0.07453756948087338 0.01458663421577638 -0.02897108120940375 -0.006836204784569623 -0.2282516719175715 -0.1727935017042789 -0.1625248764674579 0.07377909308235391 0.3184364609613654 
-0.06461888136404242 0.0002227919196686242 0.04642417899636699 0.06155953684553851 -0.6248181518651603 -0.0730021862714538 0.0280816440363927 -0.02813597161515293 -0.003213454909831579 -0.1071061089043683 -0.08055462750269783 -0.08497486979695577 -0.03179275431953035 -0.1235349131854755 0.1883446647383985 -0.637016741195173 0.1307665537054317 -0.08700845013540946 0.03632353799871359 -0.06871445382192787 0.01440618570946075 -0.4562327798656787 -0.06717004908409789 -0.09102520251573019 0.06997992026257238 -0.08298331692229041 
-0.1231943338380783 0.002396355552586984 -0.0833570684257007 -0.06484103695186581 -0.6405010501816384 -1.198520456726111 -0.003594057914840863 0.1025967056618287 -0.02998551368789469 -0.2338810221124837 -0.3084044570458392 -0.1420190350433596 0.01295350104553314 -0.02795160625363732 -0.07798945218733572 -0.5827971585743449 0.06894157302393251 -0.05256557949093611 -0.2457102289749861 -0.04351568787977196 -0.06295100082308266 -0.1914863878094254 0.03757463226685793 -0.1175335689181766 0.07558464680934623 0.7022886088559251 
-0.4265053432177889 -0.08042369853615103 -0.1456478196472631 -0.05591404485527057 0.09963459202277873 -0.4700243510043824 -0.03138516694775155 0.04806526261464752 -0.05145679631073542 -0.0738345375188785 -0.3197756425424938 -0.3246234490652884 -0.04002085785177709 0.0308458774932807 -0.04012705198763622 -0.6400258753864676 0.07340562613556453 -0.006836931454269092 -0.2621358528295662 -0.06267199154730371 -0.01955383783283377 -0.3061685846751594 0.0212146946984861 0.01505212376306823 -0.9259025667509784 0.5800519764467691 
-0.1826530403120155 -0.1719292904661589 0.05063281525356002 0.01682786674463957 -0.8059689573061308 0.0826318330522039 -0.0160350669396351 0.06944305914533241 -0.1322719715709737 -0.1554973123134164 -0.02805198945314846 0.07258361099159441 0.05426194830125355 -0.06389236912032201 -0.00759252955044914 -0.4467144982698729 0.05616437327408393 -0.1490440402639641 -0.100866724260852 -0.1041685246621119 -0.2138042214051775 -0.1290501836176983 -0.02039566004380368 -0.2745891964062919 -0.03461762447113233 -0.06130242145531326 
-0.2629313041450594 0.01368726587406668 0.02002808710860047 -0.1516683204505151 0.5591595279550887 0.03328247811110693 0.1488554648963559 -0.05103836422650295 -0.01045616436530557 -0.1745437138119865 -0.2455208785764318 -0.4730467965827692 0.07916625092584395 0.01331005030627077 -0.1181023583212486 -0.560943441608253 0.02027409170063937 -0.01842457358245774 -0.2409822480200596 -0.2493052863254634 -0.004751934126647213 -0.3369908379367126 0.06924989085054326 -0.04743201657638001 0.1362528314780374 0.08582002885111395 
0.02686736279264628 0.0999578269898074 0.1218938675424572 -0.09549364234331095 -0.3046013641902107 -0.08930103384189193 0.1350851872274176 0.06995803593067886 -0.05827483015405051 -0.4588879638725604 0.04136289022548365 -0.1367735380630998 -0.03469119846590547 0.3339955401231241 -0.08384388577583891 -0.4689856201133509 -0.1747359622407378 -0.1309694716427803 -0.1160020608520668 -0.2230589439735977 -0.05965246372849414 -0.6444455862272525 -0.01359599598230814 0.1269366674406637 0.1838567961547979 -0.173926455436348 
-0.05560890349412702 0.304594820013652 -0.1417224691148908 -0.01022049077360381 0.684228913160829 0.09370080942487317 0.1102963568992315 0.06833819719228273 -0.006009042060741391 -0.1996824879726258 -0.04470403528663393 -0.01881472440248437 -0.2570599448720073 -0.2288197035552251 0.1008428416150113 -1.422346370594612 0.2697582652568993 -0.107781848782839 0.02287977738220305 0.07295850920760347 0.221731576765035 -0.6795264096554363 -0.6928818806330747 -0.1490631822374504 -0.01946985589502436 -0.5227618721274999 
0.02984663696656631 0.365539467289952 -0.1888532231930949 0.1790227527899618 -0.3655319689126968 0.01167252247880203 0.1952101208898283 -0.02355579444243888 0.02483675553536248 -0.1971201496694169 -0.3136336274906001 -0.2184219991017501 -0.05995266460802276 -0.3619317894662361 0.3029920624309613 -1.112349709055501 0.414557621221824 -0.1868161577073794 -0.03914451429488161 0.01171590843482961 0.056297438971389 -0.5806256522019549 -0.1470625591837271 -0.09288731654739107 0.249848546997591 -0.2090949571763747 
-0.212623739578909 -0.02848256534816457 -0.1005932174946308 0.006420565504840419 -0.1449734207603 -0.1991203330326675 0.2021322056156122 0.01006409254614782 0.0621067047605037 -0.319986032997209 -0.2350367961872082 -0.2167212030421214 -0.04717942388355224 -0.2895064108744368 -0.02101600270604483 -0.4546827185558139 0.2630575438827063 -0.05609647010552675 -0.1701311472064028 -0.02576914909450449 0.04604094554440773 -0.2765618012875465 -0.2346436148649131 -0.108696855403931 -0.03329893954180014 0.7802126889433866 
-0.2915518823980011 -0.3014787044383847 -0.01605952266656428 0.0440944592873339 -0.3535479032864978 -0.6171627363435365 0.1498911264743864 -0.1106662114104283 0.09262716831453841 -0.1570108236120888 -0.1078422333418014 -0.2624764996988147 0.0005516191693259176 -0.06367109895257486 -0.02157459402063295 -0.4462499621052219 0.2786176773978136 0.06326874932506299 -0.01919960248957204 0.07871278029313936 0.01820729710633595 -0.4575312236532378 -0.1518195652983388 -0.1055357875342684 -0.655206201900462 0.4604846223289395 
-0.2809687741291372 -0.4337847633016989 -0.02536294952276683 0.007832095553941727 -1.081218683087622 -0.6662167181278409 -0.05363708577000819 0.03013779810478155 -0.02862353446636273 -0.2362422006570382 -0.4711578251070118 -0.21426128005314 0.05663964867485557 -0.2480626453765435 0.03823492980411607 -0.5403864023727264 0.1810275406008311 0.08526737949856897 -0.04102683307905403 0.044323788456819 -0.08157228563364095 -0.3099686818486279 0.07130833466823848 -0.2071138678646366 -1.230369031634124 0.3972880862183826 
-0.3300914986424071 -0.139445433341316 -0.03490347268275977 -0.137677383988375 0.2596810113866448 -0.3519678505084617 -0.08639982966111223 -0.03491424607662667 -0.08086432757961717 -0.0991510369438604 -0.9977654008458926 -0.3738902137734398 0.1308345695510888 0.08541847832584917 0.1151974531269364 -0.3302012355555797 0.01503787362895156 0.06221184939854277 -0.08142200100870914 -0.1083999005576046 -0.1745105849632947 -0.4113745554223917 -0.06081351317708963 -0.09461965627462418 0.5114107450157842 0.4405888907382459 
-0.1893427351542375 -0.08824574341058034 0.06923831938834445 -0.1612781204216692 -0.8522253889920477 -0.1575387049238085 0.004045945471277871 0.04986007525534294 -0.03091836737297338 -0.1983733739241923 -0.5122636524832076 -0.5791377647045092 0.2911937528784474 0.176495828880643 0.1604298145869425 -0.4467743632562625 -0.05302078835743187 -0.3908048839792451 -0.1801778923285327 -0.00941401693898998 -0.2273483580765124 -0.2068801061802987 -0.139860525495604 -0.06385415888588812 0.2660712273946699 0.3826556437556265 
0.1550824237531282 -0.02095697265024396 0.3900336753251856 -0.1970226050759562 -0.5091957647959521 -0.08985282128078466 0.4304619282016863 0.07097374895236792 -0.009257362990523377 -0.3716381622851734 -0.6408706042150385 -0.0706068745244371 0.3489752587832287 0.1791756721052277 -0.1504317326741409 -0.4683045126797637 -0.6197960190366287 -0.1339931548442312 0.0802756008963932 -0.2565856814625 -0.1999339857156112 -0.03323596100613931 -0.6922720267144062 -0.1334542604885237 0.3089947704889232 -1.154281514694521 
