solver_type L2R_L2LOSS_SVC
nr_class 26
label 1 11 5 15 13 14 4 9 7 18 24 16 3 20 12 23 2 21 26 25 19 6 22 17 8 10
nr_feature 128
bias -1
w
-0.1525671038452485 0.05811054372573216 -0.1393637914853898 -0.1007692207022993 -0.09462491457295158 -0.1046499922536369 -0.1359970147505964 -0.01609328029074384 -0.1272480340900179 -0.06522160417427129 -0.0796459557311974 -0.06168175512784838 -0.1426973264430863 -0.07709903663099241 -0.05669331122486843 -0.1038611590085052 0.2595551718417448 -0.1298154461411042 -0.1025155377138197 0.07406258890173685 -0.1230743924345459 -0.1801796774424921 -0.08456678316735208 -0.1462239518495075 0.1688483045730869 -0.04630754673121572 
-0.2387446085489564 -0.09814252535958301 -0.2131085052486693 -0.1349938217291632 -0.2132419057126605 -0.1873889669884203 -0.2309400439064612 0.03773671008356067 -0.1250633604649918 -0.14743301855393 -0.1714059235893762 0.0263642713941569 -0.2100285979325764 -0.1600608529806882 -0.1495394549195053 -0.2199077423008341 -0.03124849206179099 -0.2276289213262927 -0.2287056420768056 -0.07094361177063323 -0.1768059530854647 -0.1844449190190147 -0.1677434336311092 -0.1533396465868729 -0.07352826340991768 -0.1171501407325733 
-0.3062081185665284 -0.2508795701769871 -0.2892718487256296 -0.215097188320687 -0.3097344009286936 -0.2857500819488503 -0.330616954966089 0.1812462846124991 -0.08145273547527787 -0.2126675426761797 -0.2728881289549179 -0.04311482243562122 -0.2985522057136806 -0.2530822343605397 -0.06218784037803169 -0.3493233180651566 -0.2336658694594339 -0.3252583964121617 -0.3448488014270965 -0.2182553685478223 -0.2406609919548715 -0.2028796080799344 -0.2825556917110886 -0.1207850596191106 -0.2433837340424768 -0.2368673606135308 
-0.4224623558183689 -0.4031107047520425 -0.337745292165149 -0.3067252491547491 -0.3450978726306576 -0.3956448829751716 -0.3970955403727253 0.1396883539628861 -0.1260100666379552 -0.3009487007568878 -0.3850041487561622 -0.1130920292098706 -0.3887222070207547 -0.3307241211436351 -0.1068327674623607 -0.3732030574679456 -0.3921115899767088 -0.490858316993821 -0.4561796723710407 -0.4287584156726551 -0.2827086634288999 -0.259428432040464 -0.382603950619169 -0.2500319201777745 -0.3939427790968414 -0.268198557949272 
-0.5253258216386959 -0.6561453984792244 -0.3659348265479683 -0.3743425444764405 -0.3775826787818252 -0.4871162642878127 -0.4998443287923353 0.01361314938648558 -0.2089019284374768 -0.3502083382271378 -0.3933097218597393 -0.2296910325833705 -0.4294324958496691 -0.4151575403583378 -0.2170623685142771 -0.4002036549478231 -0.5384573546623623 -0.5770774195885974 -0.6143175330371534 -0.5833217486145837 -0.3847832405947138 -0.3480936855751011 -0.4153239082953553 -0.4569198030982587 -0.6611139314857635 -0.2154021930410457 
-0.4317872880866386 -0.5953254862274419 -0.2452569265814832 -0.319353570711376 -0.3358420562175906 -0.3807608786556164 -0.2592049808339719 -0.1076300785735617 -0.09449112443139947 -0.1848539665679351 -0.2778581819108025 0.009845986522689473 -0.3108220443276338 -0.3085212864134534 -0.2391428803380136 -0.3825504726336104 -0.5438967675973183 -0.5397122117437887 -0.5092152220739689 -0.4204471111035504 -0.2680883496230212 -0.1554677931095849 -0.4281941755550087 -0.3324336505590691 -0.5317443396643206 -0.1448694142139355 
-0.2988452066254713 -0.4331000479967113 -0.1177324492985898 -0.2524372460746505 -0.2372717761713172 -0.2662999062554113 -0.1816195409549324 -0.1812803255522746 -0.01896189072795005 -0.02640855764653825 -0.1924250429882386 -0.01756117619459296 -0.1707275381480356 -0.2129671410419208 -0.284472020449905 -0.222151873776439 -0.4123423123904304 -0.3129595350793197 -0.4181120898702959 -0.143020009645643 -0.1428459703633253 -0.02687324312039237 -0.232054562595654 -0.2628925741112579 -0.396558429474436 -0.0900513268010488 
-0.1923829137373058 -0.3540402445482286 -0.07685895071605719 -0.2307022578203141 -0.1529099501680487 -0.1924220222289969 -0.1063033161139594 -0.121382167338634 -0.08385698598769448 0.0369659945648438 -0.09218962165790766 -0.2352122509015342 -0.1015691504470325 -0.1029332372163928 -0.1637157015701432 -0.1290884737707178 -0.3379894771509434 -0.1665219794601848 -0.2572396270210021 0.06300062315745278 -0.09916295646496595 0.03680553708552059 -0.05059436651412919 -0.213322686270482 -0.2955755145572758 -0.04225518714462556 
0.007912488770226199 0.005285521830129423 -0.002295086475146862 -0.002851433343306561 -0.1259138359338902 -0.004440766504750945 0.01540086139350322 0.003258077286943788 5.08794452791971e-05 -0.01087977197508175 -0.01692033145547023 -0.01654463103781899 -0.001992699635739238 -0.006531779117689905 0.002783903288533682 -0.08388708980133816 0.002792557563294048 -0.02486294101021446 0.002573342793881004 0.02237722266136126 -0.001867625745154162 0.005049305300526265 -0.01213544464476116 0.0241925327121103 -0.002554404775282212 -0.001104108890174646 
-0.007402130561775759 -0.02197460078479908 0.002313252720790507 0.003133668162533113 0.002684006312516949 0.005034125792366766 -0.01663669619725117 -0.002092639910632669 -0.0001912784627861635 0.009794372498645747 0.06322125312040991 0.01223941700338347 0.01092008120210937 -0.0001070889584892685 -0.003630349368848714 -0.09401591749583872 0.002481510210067504 0.01646273572715089 -0.006444569060537766 -0.01321992533596594 -0.001325672983197342 0.003318968109664826 0.04644961474858154 -0.03943111078628525 -0.00735842531467946 -0.04176487359712506 
0.007528779052221348 0.0216779410273894 -0.001493851981255351 -0.002393516187573278 -0.01933186852473487 -0.005234006053813091 0.01451235844117786 0.005805678397692295 0.001684085562345073 -0.001240067328648242 -0.05842341168516867 -0.01081515418255847 -0.003443819079968128 0.0002932594240628235 0.006330824208366378 -0.1343274249625092 -0.004771103206762934 -0.01417939240036001 0.001779163316255943 0.01315418568468846 0.0004602577355839005 0.005081904894663324 -0.1207168571991579 0.05393391940283494 0.004002747315784064 0.007037866600240735 
-0.00875963090264878 -0.01525678344940906 0.0009279695996915244 0.003560515901046294 -0.09601540358381298 -0.0003864104084892315 -0.006244848879869242 -0.004211357490788399 -0.001317266274819348 0.001946489580399438 -0.05779688008436615 0.01615700706932143 -0.007638782352817932 -0.0008291884171132098 -0.005031043118558516 -0.1577080000188856 0.0009706751464352336 0.01171899732636175 -0.006873791390894239 -0.0149171456212117 -0.01083150379648609 0.00608688201041516 -0.16561748919379 -0.03803499105498321 0.003539799122262966 -0.03614293833856552 
0.006336655655051405 -0.00627234344103223 -0.001322719468413356 -0.003061239121777148 0.03774158358715351 0.001176441829675937 0.007595258951249313 0.008548010128434331 -9.766574539918132e-05 -0.004853100901156815 0.05721236208435534 -0.00643555518410564 -0.005088877362085384 0.0005839473694250657 0.001010226253692849 -0.0827530358461526 -0.01674788823303037 -0.001597394572874222 0.006469208799178771 0.01223808156475232 0.01731750448556293 0.0212003522061328 -0.09204231213072758 0.03405735679429175 0.0004057953914061855 -0.09682105148775637 
-0.002646904550529571 0.01585895359022934 0.0004800959788778024 0.0006669786338816478 -0.0180339865648591 -0.00175124909927039 -0.003961887807157234 7.88549954825852e-05 0.0004256305898121573 0.003839138797409466 0.01652783213664143 -0.0007923805887964671 -0.003573044434387093 -0.0005799520602893697 0.0002843197436462408 0.04498306236620842 0.005976117610547463 0.0002210603624697702 -0.00291190997803371 -0.005153259822721058 -0.002825129047812535 -0.009020551579663522 0.05046958380159969 -0.005670057571701735 0.004323949475570396 0.02763024906597081 
0.002249654234014877 -0.04616643884862175 -0.001008277020150036 8.161730822728937e-05 0.01318035019997804 0.001204855547553951 -0.002043324648632674 0.0004253799712364969 -7.84933851814538e-05 -0.001333304140049735 -0.001718250042591419 0.002732288380501949 0.003471825217777664 -0.0002092235663192162 -0.005688942575875407 -0.03266646827411586 0.01565582081873596 -0.0008149815489223777 0.004345376411437382 0.004562328476189021 0.003903673192734046 0.008103251149287932 -0.02977246828664642 -0.01064987490348536 -0.004700310947875283 0.007820104815533968 
-0.001185589238274894 0.01195771123017434 0.001615764709774865 -0.001396778612084856 -0.008572624086396934 9.72427608410654e-05 0.003675310614402523 0.005205886126771454 0.001350798888026428 -0.004873585298398126 -0.02499812671461471 0.002942052235878338 -0.005368793723783716 -0.00178961796772055 -0.003810310387601107 0.01890279490901131 0.0155499571957891 0.002618764306932139 -0.00290936289579502 -0.0004942125558531083 0.0006702199073440451 -0.007166491053280853 0.02214983909551735 0.01720232065034265 0.009668524202345577 0.0237338400765001 
-0.1971314202741673 0.1069995943774652 -0.1978367815982136 -0.1014353382574913 -0.1620469444131914 -0.05600231080332767 -0.2005116587204405 -0.2174255759625753 0.03147456318396191 -0.02218075881224742 -0.066744682535987 0.149911447624608 -0.1978934625864203 -0.1896877486291452 -0.1742954957374173 -0.07931288134981231 0.1544825913771598 -0.001067927336737866 -0.1653828609984708 0.001749788166903134 -0.1226628578066154 -0.1178631734553199 -0.07087777234288961 -0.05871120955830871 0.1855234157697838 -0.04612772875587011 
-0.1384606276691216 -0.1176588837948595 -0.01557392521835617 -0.0003983984491191119 -0.111410340287562 -0.1408109540272444 -0.2956288187633569 -0.3891560315437814 0.1225677254562589 -0.07263568570750224 -0.169244451107621 0.06059468355364925 -0.121468285750006 -0.2222182461571859 -0.2419492379830487 -0.06370758804443655 -0.1239676402894646 -0.2019553343135758 -0.0965977598721752 -0.04619231556152092 -0.02743029441607556 -0.1638366577701905 -0.1111769668610445 0.02650752903948229 -0.2247124119089903 -0.06921686070413145 
-0.1752494661657555 -0.295351877979773 -0.00067123330234547 0.008803319765870092 -0.1396021184651662 -0.1708345212340042 -0.3332071122848747 -0.4192369088537625 -0.02321792235208521 -0.1421946219063294 -0.1955133533573273 -0.04376431396643767 -0.09274812431202087 -0.1679058934302733 -0.09719240855233549 -0.09352264389966908 -0.2243812656662459 -0.3137226503070049 -0.1674829703080684 -0.08277174308584763 -0.07669731300949026 -0.1739560377146713 -0.1735273077228832 -0.2312079405324854 -0.2872498869401077 -0.112463109555545 
-0.2752307333957653 -0.4908398765266446 -0.1835166381891057 -0.1794899884203662 -0.1339136619710767 -0.3047361403404075 -0.4078979861965097 -0.4978758978668261 -0.2777655548724143 -0.2907158611653439 -0.2305904680483087 -0.381173370167847 -0.2032890586900709 -0.2386265077538043 -0.04478504222496181 -0.09713815999770872 -0.4086902192228734 -0.459548758429502 -0.3550809531658422 -0.3542789172044318 -0.2759164296263292 -0.2988174777093134 -0.2587090392845373 -0.392912496185067 -0.4949311441737092 -0.1624641032005531 
0.00182119388828153 0.05008569876025434 0.004594068686818803 0.01118984298160237 -0.161748839025353 0.01127698996184447 0.02144271171588075 0.02138414380045873 0.009206686640904693 0.02607529826114403 -0.2176434486362713 0.02359237141853785 -0.02342258999778453 0.01103609904507117 -0.008482369771920269 -0.1361767108715806 -0.008267784188365396 -0.190945401553555 0.01465559424086716 0.03198584573279233 0.02434256885914734 0.03414952305970267 -0.03363196159888961 0.05066473755223901 0.06300271576793055 -0.06213307656325488 
-0.002998917268194413 -0.03812258738569829 -0.002491788273340683 -0.008118355519981269 -0.2480050290404451 -0.003378712615913065 -0.01254654675818401 -0.009574183427179302 -0.005005343159766277 -0.01539372784751471 0.08777562710864294 -0.00585931123577519 0.005102929248998899 -0.00570134674576358 0.003482084363633762 -0.1537438822550829 -0.03456668467569102 0.1216990468239869 -0.01509333584931241 -0.0210527921881694 -0.01579499850041707 -0.009304149445351862 0.05451597099319503 -0.02409828906769364 -0.04735620541965745 -0.01323534823217388 
0.005416137647023881 0.009112514582643208 0.002576596894784187 0.007900888276008024 -0.1631786158914202 0.002205109514881564 0.005279440311025166 0.008391834399528189 0.003185116382749399 0.007165111256437359 0.1228290051986181 0.006191342362612942 -0.001590020449037033 0.005906155367441038 -0.009665892085085665 -0.1421273225743412 0.0002264531984677678 -0.08194125784926122 0.007552775983866637 0.01156369773513917 -0.0007666522796489074 0.02058685228360758 -0.052848163712685 0.02091728254809317 0.01507369590430661 -0.001216239966771659 
-0.006462702418808346 -0.06590447563176499 -0.0005301444451984132 -0.009562555803204172 0.02332909282029595 -0.003861577222595231 -0.005639445692398229 -0.003204563547013806 -0.001339850010441776 0.000246192370414335 -0.06913466762741546 -0.002791860547766 -0.01179018989982677 0.0008635904202861293 0.006116130196281349 -0.08878555734585543 0.005820581565081983 0.04908911542654149 -0.00992900816829826 -0.01081029526338968 0.009759437627860641 0.002574325442058528 0.0487395508279014 -0.02208966593543992 -0.03657760724146782 -0.0382707367963367 
0.001619682087517186 0.052294303159425 0.002232981478864556 0.01045912217240341 0.008445989899973666 0.007158433764123869 0.00343683122977918 0.03042817000439709 0.007874748410828596 0.02325010637190755 -0.1024128964039497 0.04660693555249446 0.02149063832106675 0.02072553940506421 0.03028992066989553 0.05384935524138335 0.00750696439906849 0.00396631304525114 0.02256273756835104 -0.03084582338320688 0.02931880079452963 0.0406727013123035 -0.01491443906290723 0.04177092230282873 0.03321508877485398 -0.04351200325611269 
0.0004371823700155411 -0.02512734005642338 -0.0002476364004266752 -0.001193592383922682 -0.001631043152555218 -0.001318952481812051 -0.01072256943976658 -0.005153048596551301 -0.001386530529416863 -0.007292823465150929 0.04759410034192246 -0.01170691654292779 -0.01174562908178546 -0.006229911424901329 -0.00603139905453534 -0.111776006346484 0.001933673527276558 -0.005997809336616935 -0.005133398643659213 0.01060538031551134 -0.02374481265199213 -0.01725321582816382 -0.005796250075198744 -0.02526498223771571 -0.009302953993563566 -0.05570581050373761 
-0.0007296385699778614 0.006202453694117661 0.000482281185297219 0.0007399767252975328 0.004025038695011663 0.0001276842438727568 -0.00274974433641458 -0.0003910215073866792 0.0008197751905607097 0.006060839795295528 0.0655354243396991 0.01016977659875028 0.004861224169768214 0.00212862554897206 0.001630321537008558 0.04216925942399293 -0.01322392010981562 -0.002796219031260843 0.001321701969330101 -0.007665877942519645 0.01152757738527958 -0.003660435769609068 0.03178272482241355 0.01837828846387251 -0.004545379666475182 -0.08164090328667024 
0.003419527592942397 0.009162327143544199 -0.0001427239372165451 -0.0003478031926572282 0.03649280446337066 0.0003130396705718441 0.00722453571894795 -0.009172718230295071 0.000330010933562161 -0.00384389558094491 -0.02361061953027578 -0.01201447299153843 0.001019381042492675 -0.001466689796235502 0.004952870029310163 0.04929827603541297 0.01506005170092192 -0.00183955347700979 0.002118210441874276 0.01380125746177255 0.001689102293448945 0.006449311091485785 0.1217122032999142 0.005186224842960481 0.01065805617608414 0.03052619528623389 
-0.002604090484150409 -0.004771163533702559 -0.0001108653504653834 0.002784405192648928 -0.00363083838941627 -0.001592115684855738 -0.002865777472129827 -0.004430723026588058 0.001352011082399454 0.006122884124738786 0.007812405199938435 0.01178962287907162 0.01247478795149221 0.002736093737908978 0.003667168856851466 -0.01587470273441833 -0.01990737713947543 -0.003361971427577515 -0.005334265574274534 -0.009746366153704106 -0.01095719625398381 -0.02285487846477811 -0.001846916958980086 -0.02347030584337978 -0.01700327278759742 0.04277742828145017 
-0.0005304566406807747 -0.004397315965922333 -0.0002077661098801385 0.0003811370973068966 0.0006031493573043779 0.0002514044468368631 0.001092217990769491 -0.003519548885490899 0.00110007333972884 -0.002709644292860269 0.05159913468714497 0.0008563330155999861 -0.001904525137407833 -0.0007251701990883106 -0.001754124151994804 -0.004202705517721157 0.001512604051102836 0.0009655494061568293 -0.001005159009149725 0.003392799426827485 -0.003871109168785014 -0.01109222253459755 -0.01571265139507715 0.01243521634665204 0.002015681244815553 -0.08602791377971734 
0.0003773986972448177 0.01192749009194125 0.0001289789706189477 -0.001229107289264159 -0.00173824902904099 -0.001228433740638199 -0.0002730640845076833 -0.000582077178088512 0.0006109378682398747 0.00173351865739126 -0.1527782042440903 0.002223093580861134 1.860237654632285e-05 0.0002931464084164488 0.009504494186663699 0.004326154286686245 0.006627514876202897 -0.00041705143489928 0.0007636315884279576 0.002172460739088941 -0.0138233891687341 0.000509685681224359 0.008261302016457932 -0.01185859385377073 0.0007840318842809544 -0.08018333376885235 
-0.0006838156888306748 -0.01357227017218178 -0.0007353311771911358 0.001256489651380313 0.005969765594872683 0.000756040550725703 -0.00258299029241263 0.0009016862788325658 0.0005763705377166612 0.002202026303324586 -0.125855486995978 0.004207539934007606 -0.002483265348919625 0.002836891899762292 -0.02863958978685232 -0.008290112016267415 -0.01397290331228949 -0.0002379466397828877 0.002914406230603901 0.0003746402152633197 -0.0008213993525641152 -0.002769663105062528 0.004267241132565106 0.01013175702126305 -0.02043327334692948 -0.05438522787689167 
-0.6788937442636367 -0.6804357925143267 -0.5162436532001196 -0.5520919859992082 -0.4584807827819321 -0.3102642840333121 -0.8644215544882081 -0.8144547665098562 -0.6757179921117064 -0.4396474279215439 -0.338195953157751 -0.5009187634164101 -0.5966751608910207 -0.7800467570986837 -0.7764876328724851 -0.1589056409545125 -0.6742679974506203 -0.3589642375969449 -0.6646968814322679 -0.790018466436457 -0.5638010496819197 -0.6964278168462025 -0.4762999116216192 -0.7472193052900225 -0.7057784961859144 -0.07696188639112449 
-0.001428975809166193 -0.005462298787392456 -0.001861304384033189 0.001479387513095233 -0.2473134348420459 -6.97412638163811e-05 0.003755666069066517 0.006638423018775082 0.0004186516740719225 0.005663991466629233 -0.005453298495232579 0.0005549791002548022 -0.01426691092038153 0.0003515326662977654 0.00173391462354602 -0.1873627454031765 -0.01410998715387084 -0.002958288040244271 0.001601879148616562 -0.0003660147252651022 0.007854866655089011 0.01331388274252783 -0.3690614288492531 0.006101627776200267 -0.007222720130605699 -0.01922781431360267 
0.001054037507615281 -0.01174616784612442 3.771961490880521e-05 -0.000278809299407152 -0.2360224567280755 -0.001903631862604834 -0.006694056658871528 -0.0001679050990317912 -0.0005830468100543121 -0.004084575698715761 -0.000951881432120297 0.005694006848251096 -0.001901481389474152 -0.002513821250795983 -0.005125397452109154 -0.2015581618396387 -0.01595732206855063 -0.04202831171989329 -0.0006698880569363226 -0.001423390572019289 -0.001103384583959736 -0.003226601406622218 -0.4738492863194824 0.004659723286381543 -0.007067126091512772 -0.08900919879295538 
0.0006392280866924643 -0.01070685261331868 0.0009491333168850476 -0.0008705886824942204 -0.3405337298907097 0.001214313031944278 -0.005375533519984647 0.0001976497798879364 0.0007943070830236812 -0.0007462934528822843 -0.2134935748466903 -0.0008675559268530287 -0.006772183149679757 0.0006472241362310283 -0.001350748101233423 -0.2145975748089812 -0.03635835877682698 -0.04760341568384974 0.0006309263931411445 -0.003405575293587844 -0.001342176527244724 -0.002268547294304247 -0.4771904835326586 0.001721582287736312 -0.01791518191437844 -0.08867973840704611 
0.0046844421833436 -0.08065768480601267 -0.004697200705420864 -0.01313141997323708 -0.4113335352266622 -0.010839570127466 -0.030563503913262 -0.02929393655963178 -0.00978680360205436 -0.033707919140242 -0.1541171281128431 -0.02888495909986978 0.05090726266466633 -0.01517891791689945 0.01169099563336489 -0.2336776104431463 -0.02230999510376917 -0.0376672744607439 -0.01879826234031282 -0.04259193714328983 -0.02432312707650489 -0.03710983001245426 -0.4446670422916032 -0.05879925972955644 -0.07904195665417814 -0.09746793618313314 
0.000262962540088758 0.004495621929554779 0.0006861475020170523 0.003330057421786106 0.03271434852267288 0.001819904670451681 -0.0003153833095523995 0.002043947493705637 0.001982467175292817 0.009878865259270529 -0.1889764863426603 0.009789446179632537 0.002957294530958216 0.003223730636444358 -0.005629127467952474 -0.2930026885916894 0.006815108205520949 0.002406078261609696 0.006910459316790206 0.007776395093593306 0.009216154304960282 0.008803878510591914 0.05329838910791134 0.009122883346361096 0.007509328245150991 -0.0360021652899938 
-0.0006444974824644454 -0.01113289553316383 -0.0005020406634135325 -0.001915308584850003 0.008354728155173498 -0.002006662972663253 -0.001387030323766277 -0.002707592532720716 -0.0002459376644875479 -0.004386249147142546 0.0244441711039806 0.0006235128340081279 -0.002615252225386707 -0.0003303457168222032 -0.003020471151639551 -0.2173021121874741 -0.05763259618190582 0.004597133437015503 -0.0008575251831443614 -0.0009525887226121503 -0.008131452248772453 0.002912222035782614 0.002596621083985329 0.009197238429867033 -0.01406473296400504 -0.04704744065393003 
0.001751827368930115 0.01137882332043608 0.0004821090866761668 0.002040553347847716 -0.01456681915818978 0.001886834456385729 -0.006017058641182695 -0.005970540778993286 0.0006897509051012029 0.0009095411794222927 0.002800280659829994 0.004629039178543693 0.006014910855728264 -0.0009285824408409612 -0.003556675210739028 -0.135046724094557 -0.01928469993597953 -0.01686419364009463 2.224972718428762e-05 0.005926831283734867 0.004987310549838138 0.02133744788623373 0.007323942730526121 -0.01973150326405846 0.008726656406829554 -0.1079881838408325 
0.0004811947707297985 -0.01494971030787193 -0.002134759873862484 -0.006428318898937226 -0.007664888214686728 -0.005445532436559816 0.01256331553737175 0.004309572102501551 -0.002091789183060414 -0.0106385039726561 0.1660970219147893 -0.03084563796227079 -0.006190417913395487 -0.01546486677959395 -0.01996075977870295 -0.01865556472919123 -0.00561887650688489 -0.007305997723606716 -0.01352145951832178 0.05169894124859618 -0.01095671427732152 0.009251630378217557 0.0117233347269911 0.01933237088164005 -0.01160918644130223 -0.1012247291314773 
-0.0004257637440198251 0.003438238608035346 0.0004737480667066171 -5.952861254177338e-05 0.001198814358725597 4.031130921356094e-05 -0.001132095815304405 -0.01583630811356099 -0.001360087894735448 0.0009502009259674404 -0.02572378066010665 -0.000373437386257404 -0.0006709063504556474 -0.0005894633503329668 0.005867088131056484 0.0007771703138990846 -0.01314839564278991 0.001483124657879034 -0.0008561958851326612 -0.005794879498936157 4.159457105721524e-05 -0.01340577912525466 0.003600552766807457 -0.0006741740828026722 -0.0003768654143862217 -0.09951921796396758 
0.0002096684860728064 -0.001069837923503224 0.0004375447401722664 -0.0007581497103691952 0.0008247848921597943 4.100544655286461e-05 0.003624035116016117 0.001095351549266244 -0.0003687622012346066 -0.001283362296586954 -0.004093455310621292 -0.001015678634497414 0.0002832616746573399 0.0007219401745491134 0.002701801733687072 -0.008779501938923852 -0.01774658307818886 -0.008396702457922818 -0.002853946827512474 0.003339781428777771 0.003405235559789645 0.007024874623737378 -0.006904483881079825 -0.001090637040903532 0.0008945197238456799 -0.1178959250047793 
-0.001928736283914462 -0.01099376345303291 -0.0008655809658937119 0.001640728232859084 -0.01932896125319251 -0.0003460020758055184 -0.006140556385561931 0.005624434302405352 -0.0005439467881957826 0.002652879080668957 -0.1132464651755043 0.005331435115632015 -0.0002462585744610881 0.001215762412303861 -0.003456368301206241 -0.030165012288934 -0.009898000361281108 0.00507746240393187 -0.0006003480052332297 -0.009046805467837257 -0.009629706636785697 -0.0130492821355241 -0.07128863949638849 -0.002369582887314163 -0.01404075689026544 0.1284186095025787 
0.003903448272835986 -0.002448845213185107 -0.001126026550258638 -0.004421972060363151 -0.002907027948760651 0.001118008678255235 -0.0003934411392829645 0.007112951517204124 -0.002083017563993114 -0.009097303463133314 0.03387272267466931 -0.02308478650733225 -0.01433008384071949 -0.002369208772885004 -0.0008082342879679706 0.006689932620008334 -0.009408575081387198 -0.001758364957602632 0.005076520840386102 0.01040472527718387 0.01315083851870057 0.02313327419903942 -0.03375821889645969 0.0248962349442728 0.002460204802788793 0.02025712677130469 
-0.0007770697221146254 -0.006903780750411387 0.0001530547164490787 -0.003984496378727753 0.001478878896455628 -0.001225352269682198 0.002515740314288466 0.0001399836576206777 0.000471360225844232 0.0008725648572181209 0.007398579499087833 0.004606986535355827 -0.007743208934096881 0.001125145713264094 0.002758766508040181 0.0003433850919211822 0.002024706293970411 8.151054073043215e-05 -0.001403210372857187 -0.0002247402175435115 0.0002487009611657565 0.003033120413174791 0.002731574406303862 -0.008432866935276114 0.00274355210417241 0.001389949104296357 
0.0006095838646873534 0.002081821517531079 0.001072595792209627 0.001981907945831929 -0.0003516634468980088 0.001398945042219484 0.001217258232899125 -0.005393054049487384 -0.001381805434964921 0.006592944827658557 -0.0488784247599262 0.001139263189348264 -0.005400003592166322 -0.0005345696819850296 -0.06325289965363147 -0.004929778445584029 -0.01131801475423703 0.0006452710723840228 0.001228664947745163 -0.001817366036223034 -0.01312122282293395 -0.0008319857459723858 -0.01285126206128326 -0.009940939022908563 -0.008142379848117625 -0.03902734533904424 
-0.0005916005083253751 -0.01096593016406083 -0.001657962272587331 0.001379433987188129 -0.0004015134074890082 0.0003169804527564928 0.0001246718728499415 -0.00325710118577581 0.001185909874011518 -0.02255121136326606 0.01765159098980012 0.003167783200606539 -0.008394081364143114 -0.0005578233675526563 0.03816722539121992 0.01190275402069171 0.02659931485710698 -0.00255188554441624 -8.752696054926192e-05 0.004735335537392213 0.004561572474199869 -0.0134577046532795 0.01075578121797902 0.009827363908256058 0.02511979995957006 -0.0307818479058978 
-0.07624774863727889 -0.0003493919035915133 -0.002964333634473944 -0.003657727542680196 -0.0337257812902172 0.001953188412875687 -0.004324879645521178 0.003024749883846088 -0.007955679323525382 0.0003249530127139714 -0.1341871417621505 -0.0143169278464761 -0.1324506878467428 -0.00641626913227992 -0.01015008588481088 -0.3773175638948869 -0.01641553367409574 -0.01414672976649738 -0.02110575753423537 0.006057844694822563 -0.05712007071952077 -0.2210228727083434 0.01343803588264765 -0.04390880549168509 -0.008798014208358429 -0.1456769468259489 
0.005248432309543513 -0.00587681654617404 0.0002488940865873007 -0.001127141098105473 -0.003819982180943832 -0.002140369342938394 -0.0130100632517572 -0.01266180129093229 -0.00250152202877901 -0.002261229256458192 0.005179160462738942 -0.00478017076971614 0.001957961023558024 -0.001890002640114049 -0.006637963561388498 -0.4047090135006713 0.003275214764474242 0.000627931530925109 -0.004339838632372374 -0.0006041812230063823 -0.01307710259859474 -0.01178318901812994 -0.009877319918545326 0.003127879883863767 -0.003704428589725951 -0.0972275331920066 
0.000505347765595535 0.0002133522234046849 -0.0002967057444692997 -1.657938979226297e-05 0.01757372555033987 0.001951897617638586 0.003377060195226223 0.0006095658337842948 -0.0003279448237017861 -0.00146325046941197 -0.05538522560572354 0.0002157197467056221 0.002560856319500402 0.00108549459185298 -8.82353125658525e-05 -0.318640452977593 -0.0003211918058350296 -0.007301332657740079 0.001480532302896497 0.002546217697984567 0.002732650634746492 0.002844132091588646 0.04743371214900204 -0.003887436112449159 -0.00103762780246359 -0.1211900410161588 
0.002566518712749602 -0.01260647988743032 0.0003693224595660237 0.001912231573200983 -0.1820925821236587 0.001239710388337352 -0.001844758396999492 -0.0008067856024341532 0.0009353608214931884 -0.001734901253347776 0.05642999851137337 0.001070970772923095 0.006453940803571007 0.001306353692009558 0.001161562137235005 -0.1383998222167865 0.008544261537295275 0.01337332494115755 -0.0004595230266329536 -0.0004069655501438929 0.003278085798575449 -0.002426296249295658 -0.4864698365121587 -0.01655226373151961 -0.009379400975823998 -0.1266730220044916 
-0.005543495053003896 0.05596543609354254 0.003330235938530894 0.01102321783612795 -0.01302231976349375 0.009549297912043528 0.01936155519674909 0.0224680981789824 0.009073516406525399 0.03576680620588749 -0.03370298223798506 0.02314743223924489 -0.05568592259724234 0.01412247039239929 -0.01260897500888778 -0.03433188786068438 0.02807186165793643 0.01564692472431126 0.01631259903743402 0.04008878333736431 0.01517727239546521 0.02667448950870711 -0.08239440320834708 0.06800772833658064 0.04979943180133179 -0.09228872820411751 
-0.0005449431395127529 -0.02451589506699933 -0.00075986614737101 -0.0039952873639466 -0.001896268033554413 -0.002970043392433438 -0.003930883003292644 -0.01079423140858449 -0.002082260921639995 -0.01496418873118954 -0.1403858992719594 -0.00522171178919995 -0.01261480636130004 -0.002809229623873427 0.006032800344671683 0.009643744760962141 -0.01874702754642217 -0.005796834724420297 -0.006033191688095936 -0.008557597984053854 -0.01078554378843812 -0.01323865200221864 0.01684585235428671 -0.02065537029062843 -0.02230617377120049 0.01091240399539119 
-0.0009260027508101269 0.002798114340583609 1.469468957208278e-05 0.0005571712709325539 0.0006176302189450306 0.0006939264164713603 3.2144828424477e-05 0.00204357740641483 0.0004421961448938763 0.001600396794231989 0.06660229464648407 0.005783269899959143 -0.002452041402031205 0.0009121952073999782 0.004580910900380031 -0.001623283646009766 -0.01762598412952785 -0.001599942280643521 -0.0004287583760916729 -0.001341110046211822 0.009972318121159115 -0.00820573763753921 0.004841011783452282 0.002208593704226186 -0.005143355542286613 -0.09268232410167697 
0.0006259916634228221 -0.04627237460145813 -0.0009755097666113716 -0.004519250175219297 0.002668047257659977 -0.004103071824599145 0.00139749772682723 -0.006076221081739332 -0.002107559478857789 -0.004248149898689976 -0.0213901631235047 -0.01162544764420397 -0.004977374221719877 -0.006419623026000589 -0.03174277215645247 0.06268515228243432 -0.01833216017581659 0.004654924381436922 -0.006694750999346759 0.008674230223994071 -0.01418728708853553 -0.01139120708292557 0.006178395064810993 -0.02248953407944406 -0.01007910578487232 -0.0907216137011863 
-0.004187703238692548 -0.0001592530898094237 0.002964599093794982 0.007474143878476603 0.01308264924738852 0.009537528940626976 -0.01987985907984442 -0.002499827407961896 0.002144733529748133 0.01585810432522586 -0.3885601216490068 0.04658102425986354 0.01067254682762617 0.02407483849466673 0.03413429256880168 0.03405758117538174 -0.007491168541330057 0.01531679206849966 0.02057111835865382 -0.07692479858679489 0.0106244888692141 0.0002584165669966386 -0.0220179706457943 0.007816837240467842 -0.002900040148391558 -0.1577553637883867 
-0.0006509800959259538 0.01166385535963827 -0.0009178221696585046 -0.0020486739735987 -0.006580721773350702 -0.00128969846479203 -0.008679158081696014 0.00178287433133918 -0.001830622081274832 -0.005169744329923434 0.01929880159477215 -0.007302808233296032 -0.02425391663342246 -0.007388641539181405 -0.01994776659065181 -0.003379064090409827 -0.001528517066103717 -0.001973665228870244 -0.002513506039025847 0.00328554048226851 0.0276738411653075 0.0005485262439125951 0.0298292429088169 -0.02574748592808268 0.008402204156386879 -0.1146143451508342 
-0.001718221866962156 -0.007013301012688388 0.0005846967464786905 -0.0003929927748079569 -0.00295073381907348 -3.27547708734928e-06 -0.005408890700338418 -0.004368032884828403 -0.001176481576466282 0.004106187433905371 0.05637169081718083 0.0009172288832251524 0.01685424158306409 0.0005148173253425765 -0.001716167979787157 -0.004393232137808489 -0.001222694136814237 -0.00263442753542855 -0.0002610519487599967 -0.01365302129496385 -0.002098744231347136 -0.002248211062443298 -0.03217375047720818 0.009359894685290407 -0.006716900582419531 -0.1319941156150151 
-8.533708352117413e-05 0.01192490659821833 -0.0003746993361190956 0.0008659585390942763 0.0110036325206278 0.001597973102333669 0.002767509212881604 -0.00210604813079547 0.0002717988298613999 -0.01001588972231444 0.1011286642621598 -0.008425442734872663 -0.04680333893877715 -0.001367132666425728 0.002706868341542039 0.02207264295031975 0.0006003694720755304 -0.006670900645798033 0.001818857520630857 0.01576352829841103 0.01470982821536094 0.01885187081823046 0.05802328604447019 -0.01311229842943743 0.01489949635632945 -0.01826458677345808 
-0.00384712386285453 0.001144678379384479 0.003965966793745007 -0.009729740285630206 0.01199755156235855 -0.007220163658499929 -0.000132511134613542 -0.01387177523531498 -0.0003135768297843203 0.02005478273318491 0.03824308496129501 0.03154272339386911 -0.01583089512332014 0.003698693975355473 -0.001909200920574679 -0.007633666073715456 -4.021504036547184e-05 0.002492001341453564 -0.01026619029828565 -0.01984801387990975 -0.03140845138356721 -0.03651090053767528 -0.01503884070152654 -0.01245308880036304 -0.01349900948243338 -0.1110665440259255 
0.001516725276311836 -0.01052604941968526 -0.003264118742395164 0.003481288441881151 0.0003560568014226612 0.00219011993177833 0.0003737088050005174 0.003808973202512916 -0.0006267854803831068 -0.0303849424198646 0.002882740331867641 -0.02614400755493964 0.003675204164104731 0.0006135295913656613 0.01780057629804738 -0.009163750218419026 0.006312491050009918 0.0007720917996902907 0.007264009317500146 0.006954763075496031 0.002779231477448301 0.005083732922351504 0.01090731405003698 -0.00801371148483389 -0.003826206509783744 -0.03496909434297069 
0.0007039154447427171 0.01656813784467904 -0.0002654999308962916 -0.00430516989716061 -0.005386734862749207 -0.001400355276911298 -0.001305388068920027 0.0006665239320846992 0.002138457133734662 0.04638767804153478 -0.05094267819524659 0.03816596137471411 -0.002986909822996642 -0.0004492019950465481 -0.006613499386363253 0.00371408783670985 -0.003934594762358972 -0.0009842474129237223 -0.007905456236273298 -0.0151438848566932 0.005167409653479055 -0.01351777285624389 -0.006499414543848623 0.01537338840799021 0.007365995206502546 0.04599900754437715 
0.0002016062890543477 -0.04010661936329096 -0.002849315460452089 0.001585362022950653 0.003008183717276423 0.001557498225995383 0.0001035554108699957 -0.004967546033636865 -0.005223710080311922 -0.07454250642147174 -0.07338283967009236 -0.1160886228469149 0.00176561189140708 -0.002675893473386548 -0.02471498493441189 -0.01362984458832695 -0.007067467761626256 0.003320934251361354 -0.0009380729479613349 0.008631763123099569 0.002390866388478684 -0.0008879292805831535 -0.009414309198774175 -0.03976820944084718 -0.02527701110823643 0.0541220965920548 
0.05056090065882964 -0.02697360137518011 0.000780028360644346 0.0005488076700483003 0.0134176956177431 -0.00155964550545641 -0.02046175766889934 -0.03659772786837114 0.001057263415934747 -0.00910549743355237 -0.09244984213538833 -0.0007825869169988922 0.07144908848756804 -0.008977179934227746 -0.02866209807030042 -0.0003626416203399273 -0.005769486629361313 0.003597952396479858 0.00235548961758126 -0.008268133581379858 0.006476508562012175 0.1132372185788819 -0.02550799614545619 -0.005255380667295259 -0.01496532595112544 -0.1781559454959908 
-0.01296697296779216 0.01646039596904891 0.002883348710588618 0.002538524891360921 0.005823646466051376 0.003461697590220257 0.01429366414161275 0.01651756676259706 0.004774953203372385 0.01149085528590581 0.0007269621869758097 0.01214636730823709 -0.01558870420676692 0.008235768851779084 0.002732170048328614 -0.1487603443838559 -0.006777885110131459 0.005918272735123188 0.007855559319027906 0.004783997058052793 0.02194734308400472 -0.004289616046244485 0.01929855677795439 0.04374696597628108 0.007628384776818569 -0.08246275434368264 
0.002986382424312041 -0.01660924031784735 -0.001217207536521982 -0.0009373137852914222 -0.01851337153112101 -0.001647110193870052 -0.01025880990249883 -0.01528374294398122 -0.0007595916995520983 -0.01114292522266286 -0.05649776325766603 -0.007829025820700997 0.007990316321576089 -0.003466419835265575 0.003117336837233692 -0.01009895033202024 0.01111056840182626 -0.004279367978549015 -0.003947413739319588 -0.008034899147776045 -0.01047795497799898 0.002700036618021191 -0.03362667713956876 -0.02286240876909768 -0.0065101266283822 -0.03431673654760582 
-0.003388327573186709 0.02111481115048505 0.00129323049239004 0.003371176005938625 0.07138216092803217 0.003639496528112227 -0.0005755981974182442 0.009249163998612473 0.003813691939354643 0.01997331773789457 -0.001631824582075354 0.01224609973788841 -0.02142974910069703 0.007559017451428301 -0.008544657365204081 0.05983803668567678 -0.01338716718953483 -0.007147231684987206 0.01093714825443702 0.02287858254078191 0.00943859528158842 0.003986299119942783 0.08850369761085747 0.02663744055444245 0.006398688799049946 -0.09893048491101142 
0.009226283922315792 -0.06368543049298833 -0.004723049430392486 -0.0166354261670168 0.01555748034161612 -0.01624010981251607 -0.02947514341198587 -0.03636284226008284 -0.01212405268850234 -0.05299548734107834 0.04549295335500426 -0.04542004851971357 0.06226068507029803 -0.02352990652350542 0.02989062223846276 0.006641819735128522 -0.02322515759852038 -0.01852387694065007 -0.02771518503338606 -0.06769701652869768 -0.01605457299325191 -0.03929259041032426 0.03558246180682104 -0.06799502340002953 -0.05579918280250405 0.00558166660048975 
-0.0009778603050021183 0.04017731311580389 0.00334483426830752 0.01532773422351276 0.006594165496463454 0.01141741068563519 0.01696997941747021 0.02204940614453793 0.009734018679337873 0.04234327234538115 -0.01244322424988175 0.0341644197864266 0.04748611535786123 0.01634168488314833 -0.03486591511600459 -0.002895674190419638 0.008819669997810297 0.01696051280378487 0.02977461745386505 0.05789312905099519 -0.002373890954461263 0.0578057294562471 -0.02012826419502251 0.04022253346967966 0.02798042911025357 0.048711029588608 
0.0004839493359367415 -0.02887509088478087 -0.002205144834565106 -0.01532427966446585 -0.009280787819273096 -0.01063126955463478 -0.01643584706419631 -0.01637869684001236 -0.00973555296981128 -0.03481466841302727 0.1079596004572011 -0.03463367190967026 -0.01003575833047993 -0.01583727588459576 0.04053043490677553 -0.01227936983377658 0.002415545376874959 -0.01584961123152067 -0.02234675324941432 -0.05724441934222929 -0.005174154564952418 -0.06711190597812908 0.01065183066527554 -0.02843765054415173 -0.02727023400061462 -0.03981231941733973 
-0.002806289006560747 0.05208914702063537 0.003884265912831357 0.0230952405601871 0.01767989734845693 0.0179081504040254 0.02709319120632219 0.00894470488422501 0.01687688320114687 0.02852929348028752 -0.06345412474100716 0.06311327913413622 0.005698951755383694 0.02790437852480861 -0.06032445167725618 0.004516425425546898 -0.02306129103457521 0.02436431634995681 0.03282779182394763 0.08895805284819899 0.006363616953969224 0.06705895686020105 0.0006441370533335127 0.05153242501961251 0.04221997310178054 -0.07567887594588554 
0.004147326495444093 -0.07760052278874381 -0.005117845218063414 -0.02420495956536016 -0.04062947179206802 -0.02528525479718644 -0.03432903244834134 -0.0484525718072089 -0.02813906642308136 -0.04342000492158123 -0.3698656289577764 -0.1091508019950232 -0.02159542817998703 -0.05316953884895997 -0.1666115090381854 -0.06923506201972818 -0.05801143172408735 -0.04424134049117977 -0.0664654161827368 -0.104297248743207 -0.06838822964519689 -0.08762717886851668 -0.03239068734308109 -0.1246453480868567 -0.07000636304497697 -0.1169358494965065 
-0.001706043588195694 0.03464115654119543 0.004132793864092591 0.008974155980379168 0.04195166364514658 0.01120563390739919 0.01831755551801371 0.01389324917764744 0.01180208455046079 0.03525601470890092 -0.005858588199937662 0.04737820871973848 0.03366534322012862 0.02664539330822125 0.1077222314261851 0.01401667859858103 0.02989471530497174 0.02313140207762386 0.02357635515498206 0.04282853495691802 -0.06954395703011149 0.03116187998818113 0.01598766933397803 0.02853002744320617 0.01586400097632046 -0.1057827701634658 
0.001317458201124715 -0.01165300794345872 -0.003267762228913198 -0.005608715534195894 -0.02425901539374293 -0.007111434311056442 -0.008009087672217211 -0.001466706926637909 -0.009023733029225014 -0.0198815835395963 -0.1152102493527766 -0.02716320114537318 -0.01522274822520466 -0.01512565561115127 -0.0666649511916322 -0.01295770165329468 -0.01090608125149315 -0.01333443933041182 -0.009450695122882231 -0.02179542002591681 -0.009110772222631121 -0.000898811403662998 -0.004381716915147605 -0.02818784180540013 -0.004104028854247332 -0.1200677449363129 
-0.002434597513388849 0.01295413015514165 0.00183183150694303 0.001451725564053162 0.01441740514684378 0.006581190533730603 0.003388509874321465 -0.004367473540024055 0.004914597286970277 0.01725793693395248 -0.04170902925986062 0.02838834045392064 0.01941708820781647 0.01410548910272971 0.06166202510321708 0.008648745610561774 0.01447436176725741 0.008470403402860172 0.008810073344991478 0.001968731165953071 -0.01638945549517367 -0.002414045710025715 -0.01625820277386933 0.02777196217701023 -0.002589738912299303 -0.05750905620794904 
0.006503702888648722 -0.007481598304482914 -0.006882069132648863 0.003403125594412306 -0.02886039169716479 -0.001460200843681164 -0.008495253887016567 0.02181270094676944 -0.003595526164188572 -0.01122342688368068 0.038023573932008 -0.04362130155728339 0.009482364795894505 -0.01516839063440951 -0.05507299388569221 -0.009802499769671489 -0.01946228781381123 -0.008771275639221438 -0.0001823773508289073 0.01352370388549419 0.02228155820495302 0.03675315793876299 -0.01373952281382249 -0.009010585278262762 0.01418366454806017 -0.08779839510937339 
-0.001595482537482891 0.009401252380041509 0.001805798096293885 -0.003655046773996801 0.009913790502841188 -0.001847365227383518 0.002750930571240692 -0.007431239358115177 -0.0009230494173088484 0.004113123985159566 0.007765774729818696 0.01677214948923332 -0.004355503187929521 0.004837627040253972 0.01571364268864155 0.04850685808385997 0.01357781323336807 0.006385367826216268 -0.002784959859319034 -0.007375245591436633 -0.008601952182809529 -0.0007450222948440996 -0.002331150088700189 0.01856976138657401 -0.004047527103613112 0.05658158868208066 
0.0003340875948596497 -0.009093424283885867 -0.0003993812460652014 0.004036437291728129 -0.007211347355729439 -0.0003356366917098004 -0.000393141956099975 0.00310255293612629 0.001071226016187686 -0.001665336014489046 0.06346159154147299 -0.01375544961540152 0.004076435807690212 -0.001744297740771193 0.00219873133491157 -0.01718532643923591 -0.002005698176464498 -0.002047751759972574 0.001177300894026058 0.006468819097924159 0.005322295130242489 0.005792051382958423 0.005112699175112569 -0.01666154648078153 -0.002335202437445936 0.0988184706597984 
0.0006042080869299456 0.007344513526828991 0.001433267261433578 -0.003763826968615323 -0.002399705787381362 0.000983121825815052 -0.002119482782830379 -0.005768407517660715 0.0004629347306588907 0.004432160576851746 -0.03144111275387734 -0.7944999623898226 -0.009137087939186822 -0.001540504632364899 -0.01041480305070862 0.01357178598851128 0.008341918417967562 -0.001345741180551833 -0.001621149417408837 -0.01655855697968236 -0.0001209073194413282 -0.07242082796091481 -0.01372808173906908 0.02230522742158615 0.01524887635010148 0.06430264746225731 
-0.04228280116437599 0.02333941958744842 0.001138671752626729 0.002883086913756318 -0.01314332361761711 0.004072286087250092 0.009939290094950266 -0.005484634176485951 0.003514691943943577 0.008483940054846963 0.0361318349462461 0.0008780357148478145 -0.06833464913467513 0.004150653180130866 0.03286459241437955 0.06245455736800908 0.01365318677154036 -0.001016314210744003 -0.0003806874750589605 0.008409107610339831 -0.007305752670920966 -0.1346275267436098 0.02556647050838149 -0.01793509661383636 0.01902360777337864 -0.1198737710384121 
0.04389863066478202 -0.0183483115006948 -0.00253776423778783 -0.006313379796735985 0.01573123742780028 -0.006565595643250408 -0.006228463183637985 -0.001593408546714226 -0.006820745536273586 -0.008607867862086409 0.142603447655976 -0.01393656039166229 0.05825169017766657 -0.00460758475816406 -0.01928181828344131 -0.05888101399825447 -0.023208733567886 -0.003837512383369531 -0.004319952302083562 -0.01216953795227067 0.009376887253834518 0.1171289206026816 -0.0304630507365397 0.003126849090980202 -0.0215650314866132 -0.08816754827417847 
-0.02758527037905559 -0.003737350710179565 0.0009293654208970049 0.004306542976581192 -0.01083255087455922 0.003463221703253374 0.009493602747390016 0.001575576134652367 0.004928620686032757 0.005371787981443991 -0.03996445976691362 0.006185905474373733 -0.03561968175787348 0.003000844212693133 0.01024341203000077 0.03209969266334062 0.004291172277021878 0.0002422122523434808 -0.00147430592138838 0.002024828291420163 -0.009273042145501065 -0.07952731358943378 0.01073495822620456 -0.003801125542963009 -0.00101743884856018 -0.1354671386252973 
0.02277555683362369 0.003518866919139662 -0.001463410192337676 -0.005847476485576761 -0.0005670196723552178 -0.004286068259458656 -0.01546404381721102 -0.002313473027160013 -0.0057642877541882 -0.009216630811758622 -0.0406209439083394 -0.004045639194912289 0.0194566780154948 -0.004000103149130524 -0.009734334907621019 -0.02947529178043598 -0.001303571542533304 -0.006917084511752385 0.00302465943456047 0.001500863448084698 0.006456070702658264 0.05660947713802618 -0.02173730344720012 -0.01061925377151288 -0.003868895217117108 -0.09638330720620961 
-0.02391006458000048 0.01649834394265762 0.004158655457730104 0.007758630665087076 -0.03468165499795446 0.009798820203740826 0.03008163472391369 0.01479185574447417 0.007498931470981558 0.02837004644568804 0.1129856478220386 0.0148843382648867 -0.03885077542915295 0.01164628673456244 0.001539587798889134 0.002574242503294621 0.0199246851110381 0.01137571676681834 0.005116574035229583 0.02115933684747792 -0.002062991972285543 -0.04166500261710022 -0.04585103823655323 0.05535790606217927 0.03940219276229472 0.00848041202375379 
0.008360999042988107 0.002720101073729941 -0.001883866692312332 -0.003233219196691507 0.007723231137316538 -0.006322910726843142 -0.01416348551429795 -0.005888286812482779 -0.003413397139537368 -0.01282866355802171 -0.1086763290668919 0.0006550214439075807 -0.1429113900027716 -0.002627337600213716 0.0008252774663729575 0.002379307817995077 -0.009694005239988613 -0.0032843086833361 -0.004477093288790829 -0.002793751117017894 -0.003079811937540452 0.001745529637274961 0.01822282905876184 -0.04524594896582104 -0.01432759003183583 -0.00135446487783014 
-0.001823661833321835 -0.001537276580598584 0.001146487180600797 -0.0006917105243518335 -0.003799397168583369 0.001296721420983375 0.006325507052146039 0.000295840324838806 0.001036050149927114 -0.006108053767085091 0.04406678013772888 -0.008322550676404885 0.04589306460891033 0.000938361757020995 -0.01383265742058516 -0.001810491800049653 -0.006179751621560862 0.00131381365299618 0.0001648098796463838 0.0009403151583873004 -0.00479555122709331 0.007527467080638239 -0.01975044164648233 0.01040457002101312 0.002740574711558512 0.02552086056247531 
0.002064845134991649 -0.006286692695802941 -0.004270793565265729 -0.004766466451404406 0.001521839516601158 -0.002672081866731625 -0.00942079053608714 -0.001237628873923571 -0.0006624313283824926 -0.0202897496841289 0.02400551137826246 -0.001791316177031464 -0.02049439659910798 -0.004191604220537504 0.0335043946253587 -0.001976700447970675 0.00867308299553254 -0.004878728969797128 -0.005212575550829299 -0.01216999315568838 0.005652298595147967 -0.03253234220939067 -0.003263625191273333 -0.00638521742105111 -0.00529464117582456 -0.03136638914943741 
-0.003946288775800043 0.005417198713638411 0.0001353251338980756 0.01202600950776898 0.01731971355985371 0.01066137515989198 0.01681237143839239 0.02455120161379065 0.01295255164225753 -0.04047147371113159 0.1077253809719619 0.03428774020027426 0.01572059641941286 0.02394772473828283 -0.01535975049365234 0.03997967301763306 0.03159147689544081 0.02238836161213316 0.01659675891952775 0.01730347273757383 0.04051252448680971 0.04514046632791246 -0.02123189605675383 0.05709410887274452 0.02014954798532019 -0.01280331347468873 
0.002331563845548021 -0.004410931630181802 0.0002467755845180693 -0.002472597349846355 -0.04329230606859522 -0.00142494992673099 -0.001618938120163009 -0.00993275973902237 -0.00473389485177269 0.0005453056310403444 -0.003937419086307729 -0.003317043590831172 -0.003579209593072718 -0.01023555452954459 0.005065379154542304 0.02724756720144207 -0.0178489545098727 -0.004993051265233312 -0.006262460156902655 0.0002943172159784805 -0.01032255814545465 -0.01670229682683561 -0.007945261058845486 -0.02098065035516666 -0.009298507722474869 -0.004333664330639819 
-0.0006941061714012285 0.002674990223970604 -0.001238536669397387 -0.0005253235532144241 0.01228824136650441 -0.0005924394108111701 0.0004972583785256721 0.004352221881748679 0.0009642438913299621 0.0006662798881549625 0.05582081932394239 -0.002382473591962573 1.919215562125692e-05 0.001555313873557964 0.0006416095259546622 -0.004257198960087949 0.002999755274343739 -0.001531154548546939 0.002515257130280502 -0.0003377724176049674 0.005209620434392998 -0.003921659764280432 0.0007404701602209539 0.006644290896825921 0.007316318554322523 0.03170019593924902 
-0.0008245397190476426 -0.004538015790495813 0.0001925828764689841 0.0004884117703893138 -0.009518942534316172 -0.002192948806974575 -0.002444539681440154 -0.001326164788242817 -0.001782038147270165 -0.006643392542980702 -0.05713137969284801 -0.01015423256703402 -0.004929290527671716 -0.003670424067183562 -0.01587153034480077 -0.002875851703350273 -0.002221095390466078 -0.001086797836872721 -0.001216388803173512 -0.009526578839704114 0.003808252463966503 -0.00158488912318376 0.01085897815865308 -0.00641314256977523 -0.001810817244539618 -0.133737783243935 
-0.005224130294624345 0.004775697345818236 0.004345225315295467 -0.00406857337609381 0.01388130892117235 -0.004657933046619833 0.00450172700977824 -0.01454734363584604 -0.0007005308635934719 0.001206056503357978 -0.1362331708533719 0.02257066781770981 -0.0106970616312125 0.007865563451483209 0.03315400487628376 0.005596837358575371 0.009760303073812782 -0.000730489984300471 -0.001847946811716649 -0.01123829034529775 -0.02294320452443292 -0.0183539891230571 0.02364499741213241 -0.03607203432421079 -0.01002806714569377 -0.1973967976081539 
-0.0004711296378007484 0.005987970440740139 0.0001037432700625222 0.0001856712163775297 -0.0006855155732011539 -0.0008979999053145096 0.002547060248130811 0.001797761813214445 5.333150820524904e-05 -0.001185091560237873 -0.2037451687898781 -0.01552117331235665 0.0005313792996575002 0.0004833181998284117 -0.005500521726428136 -0.1154997565286556 -0.006957294739492408 0.001298103115611094 1.898010947045282e-05 0.0001158612853433396 0.002060854520244859 -0.00979684898122276 -0.004899583383266609 -0.009413981316457591 6.010264455834287e-05 -0.07579574703772943 
-0.001854808523337966 -0.000520268156854695 -0.0003633879461099871 1.298511709508167e-05 0.00490664419706674 -0.001798854541251507 0.001157268156940492 -0.0001264586175330643 -0.000581565425753126 -0.002384809946501711 0.113020480829236 0.002992692992308 -0.0005930623902003637 0.0004140073078367959 -0.0007955139277884165 -0.05482125337436814 0.01013346680221951 0.0006623221854166406 0.0009661805445969705 -0.001757767885261045 0.0021477800758569 -0.008015955004868189 -0.003938552199155055 -0.00774302425140078 -0.0002222274422227556 -0.1292707889174765 
-0.0002841435366887848 -0.008039847113917104 0.0009902741844397712 -0.001300652205347707 -0.005293435404913022 -0.002628337126809256 -0.0002200645328667645 -0.004482591741005466 -0.00116435159302511 -0.01918267738907233 -0.06402719179893064 -0.5353766660646946 0.001695418789458296 -0.0002183955307367355 -0.005651172337276458 -0.1340124844412276 -0.006309132362082252 -0.0009432265609531425 -0.001518689790929524 -0.001266815641649073 -0.004184956231911461 -0.007109610923951089 0.01364461323450255 -0.03087976121850949 0.001539729562120715 0.01312459670387858 
-0.4240347623283062 -0.6123927168842249 -0.4286012250296062 -0.3001031198304455 -0.3328497401651044 -0.3456581866402862 -0.5155438869042591 -0.7382979941195708 -0.6546057306422699 -0.4163969497486511 -0.2029210237728643 -0.487919401769535 -0.4379762881760834 -0.8190672932750214 -0.6849753196294919 -0.2120479665775046 -0.674608110835053 -0.5119825520653789 -0.7474944011790502 -0.7171945429921064 -0.6546041907044429 -0.7097843585404557 -0.502974931721057 -0.7991424685103513 -0.6840595529601754 -0.06932813308265155 
0.00158636265207594 0.01905872823911008 0.001101239220728757 0.001080318803486242 -0.001031108955489725 0.002185528748354837 -0.0003745398223166112 0.01388063727320445 0.0015001629271289 0.004576844648667909 -0.3448011867221273 0.01007726604294848 0.009287259321684444 -0.001090274386101277 -0.001800308490966194 -0.002514053292210554 -0.0001612161213724604 0.007579806732108729 0.004964493128005456 0.002356945289088099 0.02273596116079013 0.02532356572219139 0.02588229441652182 0.007997692791753918 0.01671420244017032 -0.0805715008576568 
-0.00191692806947884 -0.01224190668849766 -0.0001700172875477223 -0.002908820924017781 -0.001061365536329245 -0.0001527317386104519 -0.004429459930520792 -0.01468111407516708 -0.004485859507968562 0.0007466903377028251 0.007997830195037773 -0.006044798795354914 -0.00387328187198173 0.000468322486234196 -0.00470097545976894 -0.0003538471582484611 -0.004146754402458029 -0.002871386280077462 -0.006901989261525954 -0.01539074855751404 -0.01089557176614498 -0.01310882979923788 -0.02012046475095444 0.009089201513981484 -0.01015085074039913 -0.1088727842003006 
-0.002937152022556643 0.008777173458161277 0.0006918237020988401 -0.0004879972503476444 -0.001226910832555517 0.001582424805809713 0.002043432619799823 0.008838847298551302 0.002391230266402047 0.005005018752227537 0.08601378356851529 0.00171234795342392 -0.01741347498734371 0.0008172310055891529 0.0006904562490558833 0.003688966480047462 0.002574048823596504 -0.001560808332101568 -0.0003589397914500955 0.007642434988587301 0.001571762267973242 -0.002659630784045951 0.009614860172494497 -0.007101766037127206 0.005067234436318542 -0.1442014742356771 
0.009367343580204619 -0.01750943097583348 -0.002356727866741932 -0.007930349900685033 0.02015098107351698 -0.006503573907534164 -0.01374130015145768 -0.01025316002374482 -0.004697168969793586 -0.01878451671165727 0.06064602419366268 -0.008991418760731659 -0.03408378860476677 -0.005767193396598517 0.0004145353480434777 0.005691132797076012 -0.005003038631039409 -0.005372166032957941 -0.0035288271801945 -0.02195443676407952 -0.01420300936565563 0.01813136985464396 0.03217141926568053 -0.03023334666082344 -0.02395746575746612 0.03975850672004892 
-0.0002783343825191024 0.001542740503789421 0.0003134809288322425 0.003564485447127746 0.005542266581013285 0.0007517469432705729 0.003392411746640083 0.004021565054837402 0.00117816775348981 0.01043777113065793 0.1090904294198764 -0.001095244168969834 0.005955934210310225 0.000558272701297988 -0.0002678267006665267 -0.002624728351831248 -0.005695371452860476 0.00241351870455266 0.004744309109540907 0.0001706743805279244 0.003294155279751415 0.008196083346146767 -0.001268039070286111 0.01874804617552088 0.009610674378417287 0.0409016514514647 
0.0008506647175866969 0.001195746318570597 -0.0004625150693104537 -0.000535290167301263 -0.00351976215737337 -0.0001842680805974679 -0.001174760624037417 -0.0005244243419240338 -0.00146547841874024 -0.00698262695318366 -0.02574618224345017 -0.01536426224644023 -0.0037077729491402 -0.0005048574760811574 -0.002110737686576015 -0.0008078958596811819 -0.001146165635605749 -0.001138143095583752 -0.002752402475570581 -0.001065393341273957 0.004425101378162211 0.004459854539843586 0.002180599292980536 0.005435063356574174 -0.0004173363553955903 0.03854727796277228 
-0.0003303000037892688 0.004893504880150889 0.000514780564300186 0.001492372609943004 0.0007224945194149682 0.001241609045119298 0.004765723399498931 0.001301749428801335 0.000274232146241879 0.01056024997719661 0.06983973502578064 -0.416758149635192 0.005555715308748688 0.001865741376115659 -0.01906155643187768 0.0008577592721817233 -0.002330001750569443 0.001800561489779222 0.003931282545802803 0.004975704396448957 0.003889933312335623 0.01133571582587456 -0.0002538566923873688 0.002869851725690996 0.001267660187692235 -0.05493328507526498 
0.003284717265289337 -0.02660152108981375 -0.0001952745984997232 -0.009277925020376316 -0.01551501054520793 -0.00411417571937904 -0.01142607572034883 -0.01461239970463006 -0.00479232452744729 -0.0006005926546178441 -0.05508589617533729 -0.1845455199372776 -0.009649791088963636 -0.01767655564745996 0.007850785875280828 -0.0283120871904341 -0.003047987340047896 -0.01297502948969818 -0.008441811310712113 -0.01183203767836514 -0.01218492933103235 -0.06218549333565325 0.01694863684611102 -0.0207062594451515 -0.004047901773787757 0.002765449265145103 
-0.002148015883383719 0.01048371214211993 0.0004485011658788406 0.002066626230275335 0.08520166042976636 0.004068317024082744 0.005432263458335486 0.004256242449163641 0.004538945403680802 0.009280483685114419 0.0289970819452511 -0.004225749067241752 -0.00431116222406531 0.0006724131218220763 0.005249776729109023 -0.06932670564835791 0.007552658409384015 0.00361558455118189 0.002729440391293597 -0.003428350774185722 0.001227425940016966 -0.01147310496241472 0.007386320093431123 0.003054870414435217 0.007476438277397676 -0.04152046919016832 
0.000296769008584201 0.007406318693091431 0.0001869533641372189 0.0004569242241143092 -0.1128497733029265 -0.001684649396111176 0.003463345339029801 -0.0005849572851007339 -0.001042773384026919 -0.004536475393848643 -0.01093514395913664 -0.003235827548874558 0.003224844448034535 0.0001879469971579968 -0.002206755700809224 0.003598390225821694 -0.004551184096834442 -0.0005336204997297304 -0.001758167990162068 -0.0001200712472560512 0.0007461064278992834 -0.006365261718609114 -0.005274023810826131 0.004220745065097857 0.002217602700596861 -0.1005717818180381 
-0.0002404443437144199 0.005120588613899817 0.0003427517420464569 -0.0003171403967811935 -0.172391509487364 -0.0008742722980491612 0.001780870177999701 0.001143198737505046 0.000699056498688832 0.002357868751631597 -0.004939448784864648 0.007634638204774749 -0.0002260582112436205 0.0009743586525868497 0.009901931171408212 -0.08678865722297689 0.01773663033704258 3.378015662394021e-05 0.00127703952202082 0.003910123901883036 0.004388563944564935 -0.01277466696607473 -0.003313913100342584 -0.00846871498861719 0.001102934110827196 -0.03872827002551488 
0.00520499395974177 -0.005811357724275353 -0.005139012275775987 0.004401992622792695 -0.1481524306964536 -0.004507617095807121 -0.005908485119577226 0.01685975361886337 0.001515777818498827 -0.009525892795192623 0.08691874693402418 -0.0300900020959067 0.008048628771675554 -0.00887895774081583 -0.03325402199395255 -0.2367278092400456 -0.01745327915613046 -0.001762038672153621 -0.0009449147693253519 0.009959357638356888 0.02279852580506023 0.009464484242735705 -0.01860902847887694 0.03496339759570534 0.01633335052308535 -0.05334074335952351 
-0.005546100293758989 -0.01191621783912429 -0.0011000226427346 -0.000860488520491457 0.006489628934890126 -0.003814673056051819 -6.554696638048669e-05 0.00138101616414216 -0.0007633363752160337 -0.004404803827318318 -0.1524491935053943 0.02338378216332154 0.004570701537881867 -0.002615700201749962 -0.001395155045147517 -0.1008794298414419 0.01695442041338408 -0.004593342407546136 -0.0002569525913795147 0.002939662739376579 -0.0008268322765093092 -0.008116386536245544 0.01896377512584187 0.001141166160855637 -0.03802983337227234 0.07799850848638276 
0.0004531780390747749 0.004769853172829911 0.0007553479348717648 0.002090458593970167 -0.01501310463028475 -0.003790263947470032 -0.0006976176996798493 -0.0003862370024493607 0.0007258482717451667 0.001902614209612334 -0.1605590455866762 -0.07490374195362906 -0.0003956168691870455 0.001257714963863761 0.004837631568788329 -0.02156003048802068 0.0006881720651123995 0.007070075935583635 0.0007095907340310193 0.000636880791942835 -0.00455692382795976 -0.008629067272228791 -0.0165110793935437 -0.01133138039767879 0.0136543543197014 0.07083174573960876 
-0.002753563303751571 -0.003852393622122785 0.001700847119784996 0.0004198038047981653 0.005938792781994969 0.003600607090784856 0.00230631204005692 0.005051313792527737 0.00252783627848015 0.0004454236755928971 -0.3091187383594934 0.1977179719268303 0.01053088419273285 0.001592713216109946 0.004287012362630693 -0.09637055564322398 0.001266182016449157 -0.0006238127546636305 0.002767021661557255 0.005014231174440573 -0.004493363503525109 -0.001466949353609257 0.002566001111914756 0.01354827604834917 0.009122262316620148 0.01902858973846518 
-0.08818093733939998 0.1986870288466654 -0.2082311931498867 -0.04237165926918147 -0.1609742807831565 -0.04261943975054979 0.2891971254937474 -0.1881840708614594 0.004409325486185502 -0.03712939676734962 -0.1156083376682037 0.1187356744773189 -0.1294272650891718 -0.2274024778208044 -0.1102635078508279 -0.1112471243085803 0.1971790365331523 -0.1715893458253183 -0.1920826752709021 0.02940984106953375 -0.08979161358655323 -0.249382728749383 -0.1834980930370256 -0.2523361401920238 0.05751853619825941 -0.04763266648410949 
0.0009839348758623678 -0.001230429541587189 -5.257017925162722e-05 0.003054668355853947 -0.000360981656032851 -0.0005114676439243519 0.004612297682599723 0.002715534133484823 0.001064007904131837 0.004276575153380071 0.118040197097064 -0.007024469865624737 0.007439751478081174 0.0006617573078745808 0.007575054487369096 -0.0001294603713710723 0.01257656426976136 0.0003089010784255601 0.002464515621660268 0.002646965057133861 0.007085151142003497 0.003605271081116968 -0.003631138794124819 0.01727147674540985 0.01184466139832486 -0.05437348874184095 
-0.0005328420340398911 0.004056496521277229 0.0005035711293390582 0.0004771321434983698 0.0003563706472160414 0.001201392656743381 0.0007697129112043294 0.0002756324072064831 0.0002790676728235394 -0.0004997730748242093 -0.05716865197495885 0.0004585892709996902 -0.004083362075173402 -0.001078825340556409 -0.002114263675323529 0.0002284034971206626 0.002668202196860695 -0.001720806392705934 -0.002569443625175399 -0.001425553386747372 0.001736219317295625 0.004049856881021597 -0.007508891528276244 -0.02170633356206286 -0.004468479378037307 -0.061257649646217 
0.0007964406618009044 0.0006625694459751559 -0.0004581974943900531 -0.0002562988169456439 -0.00509801160681199 -0.00121677775220189 0.0003415035081289864 0.0009183086406762774 -0.001213011195098651 -0.001368543310221724 -0.0955689464323649 -0.002826574443438592 0.006677443975448966 -0.001054256353678561 0.0006568015366718903 0.001475732949695517 0.003701796817386095 6.671496418706984e-05 0.001110635630069979 0.004658231413537326 -0.009161983620106156 0.00591931841968139 -0.0004492364079486864 -0.01203699796279111 0.006827223792085547 -0.09934540324979607 
-0.006313291632641607 0.01202519759941587 0.0006496909092534075 0.001921126615125243 -0.008961797924912893 0.00298457118623817 0.006613349651424069 0.004562081062617396 -0.001424589384565626 0.01035052836057785 -0.06913059851552381 0.003326672239792695 0.01306156275295394 0.003184099725389709 -0.00413196762725397 -0.003463255706177258 0.006545247558364673 0.003444002174465327 0.001142370043966577 0.00193407869048481 -0.002136330601501591 -0.01752847534978922 -0.00799317086745069 0.02024789838214218 0.01000003304287821 -0.01238777955857548 
0.0004611981765108271 0.002632405207789632 -0.001316714162378775 -0.0001108579365791491 -0.0137942397509174 -0.006392879694306957 -0.002918202837293407 0.001006520641605924 -0.0004210050288880069 -0.004057746985889209 -0.05801481238083708 -0.004444687541500049 -0.004352916585113907 -0.001269043247562298 0.007336770131472764 0.004508608040180826 0.008552607154506999 -0.004659835844623353 -0.001781312951089361 -0.0007391058435945611 0.004561866604902233 -0.00124901103528131 -0.004258144104575578 -0.01867711111396145 -0.007212213566786646 0.03127183413191793 
-0.002090474989308109 -0.003412491054528138 0.0005956584036738429 -0.00207478907159554 0.007916100117063805 -0.001043382840549266 0.002144938626976823 -0.002032132207277631 -0.001563030421997812 -0.00282073260441472 -0.04738696483528889 0.0180289593426063 0.003245222833409791 0.0007184149801605622 -0.008014411408157205 -0.002557563617921266 -0.01230812381935013 0.002272843687214068 -0.001120056367265256 -0.007043043953995077 -0.007570816213384867 -0.01220976826221457 0.002888363760480679 0.001893137405838094 -0.0009282793013346544 -0.02886364952556287 
0.002084811817749609 -0.004284496547283188 -0.0006581383035140946 0.000753351031309045 -0.01214681911049473 -0.001584324990844382 -0.0005642128732306212 0.004127632253135317 -0.001079508838631582 -0.00174328178226839 -0.05088885721849341 -0.04014827585771039 0.0002510010693695297 -0.004852403127027683 -0.003477170924419259 -0.01168593107905139 0.005765502604686993 -0.001738285244457297 0.0005315505416989417 0.003177931656275677 0.005617068593908873 0.02278005410135985 -0.001883628609351203 -0.001382560725245473 0.0009521256843758419 -0.003766128609159309 
-0.003461396291089862 0.008311116242012999 0.0003274308254374917 0.004885363701737777 0.04744887606114043 0.006204372828339254 0.008706508039377066 0.005902918432385775 0.005941328404163486 -0.01104886552281573 0.1653425051225742 -0.0416260086210439 0.002932683490275335 0.01814253130965924 -0.0007371900334200616 0.04095162624839625 0.019497863631207 0.0121329756413294 0.007230891003250005 -0.0005346274365733367 0.002997716710223247 -0.02486769610874306 -0.02357793463812258 -0.001195411639044237 0.007705453417660752 -0.02994961997173598 
0.007678426566645729 0.01351610114462512 -0.0008271272705142538 -0.00433090747686502 -0.1869254635193054 -0.005594237302901556 0.003058206928090749 0.004297793879351317 -0.00584876237544217 -0.0119066300324545 -0.067094416252998 0.002448813913882264 0.009547032983279739 -0.01122318457031862 -0.01275208784951668 -0.02917455632459892 -0.01622387020863028 -0.005505207629724063 0.001655287691173304 0.003092279877321511 0.01120315962867821 -0.0163345464409614 -0.04228068393958583 -0.009188862403484233 0.006630446978918389 -0.047548105639946 
-0.004168027308099301 0.007866527106519233 0.000266611768280553 0.001718222604244229 0.07819436474112249 0.006113923132429023 0.001758152099685437 -0.003888293418082011 0.002407325350058979 0.003288291564835971 -0.2453409878518212 0.0008124968451766097 -0.009273453082992997 -0.004933749374683646 0.01650628630822389 -0.03210403333839675 0.02311657563781091 0.00659804924490228 -0.004136017120415559 0.0009759833647204772 0.006836489381398672 -0.01812945583612923 0.01197075118181 -0.01080446011200651 0.0004359366439338923 -0.008364923260002488 
0.002671011296587113 -0.006310162144211053 -0.002344846641420245 0.001489736728723002 -0.05140952474655946 -0.008561779457979573 -0.002735661022401102 0.004065609613997578 -0.001119630194472799 -0.006403220422978586 -0.1775631412549109 -0.01301547743270511 0.009306123021717714 -0.006132848842223664 -0.01420965820356453 -0.08722425061938785 -0.02214916242686651 -0.0119693964597911 -0.003463772228740958 -0.0006190486926373286 -0.001699728052018162 -0.001100720061603686 -0.01244505060680683 0.007832506520745753 0.01025386661357505 0.07837272412729011 
-0.006808060602712721 0.003930555971384472 0.003290755142842144 -0.002042921225522266 -0.1699073067588594 0.005485337903556813 0.007507727805423256 -0.01255531555853488 0.0001366814147303447 0.003453794935965895 -0.03521136817010053 0.009693659920976006 -0.008457156552213761 0.005654890939985288 0.02277502626664449 -0.07687888000065585 0.03034292530064462 0.01331459061137762 0.001879924345887541 -0.005587122785634314 -0.01131476429687765 -0.01540646715874939 -0.0004731773166145795 -0.02975818523842785 -0.01420915591682725 0.09246086139117915 
-0.3111769026311056 -0.3650576541646147 -0.2387302366431178 -0.4590912239247206 -0.2522600690900825 -0.300083102915886 -0.2449725698794281 -0.2287650081507211 -0.2988952381921181 -0.3561261819302696 -0.2228131509725201 -0.4372689823186729 -0.3223335822176077 -0.2938371714262501 -0.320996814084443 0.005028973953678973 -0.1871293946474727 -0.4227300747651146 -0.334210944173452 -0.4356868979070811 -0.4050445936096736 -0.3663581088762185 -0.3071863857679002 -0.4543993407227964 -0.3937822180936283 -0.1774290369401464 
-0.1705616919232956 -0.2918736517186843 -0.2748780895012439 -0.4423045501771914 -0.1315395569892908 -0.3569617126303737 -0.2469533524810016 -0.2484210246962096 -0.2690819948707998 -0.3899149794539228 -0.1706397440004077 -0.3825103174883361 -0.2974990260116436 -0.2470661600532216 -0.1850416121040221 -0.05172664305907627 -0.2611024855573704 -0.3169263064576097 -0.3361915662660095 -0.3320049563700047 -0.3736545871061893 -0.3353343475969805 -0.2866709396373279 -0.3344587378089993 -0.2868146145674015 -0.1471152850242829 
-0.04656427501448833 -0.258497852387336 -0.269632255028328 -0.4688909494581525 -0.1073650776492988 -0.3602576792863737 -0.1756926686373122 -0.2124371766248523 -0.3392670987115585 -0.4266412643599274 -0.1434972774234124 -0.385687745423516 -0.3253514172623492 -0.228712794279268 -0.2790004576415108 -0.02580569715189267 -0.4009489757242776 -0.1853877641821203 -0.3819067635378813 -0.4339623344713361 -0.3570071738483896 -0.381512431998816 -0.3061722375205712 -0.3834005135359341 -0.1992851461031873 -0.1656568722997127 
