solver_type L2R_L2LOSS_SVC_DUAL
nr_class 26
label 1 11 5 15 13 14 4 9 7 18 24 16 3 20 12 23 2 21 26 25 19 6 22 17 8 10
nr_feature 128
bias -1
w
-0.8007829137461318 -0.1687235916038247 -0.6215882377305763 -0.009181570083509526 -1.97945180948144 -0.1080941442443176 -0.8957789010948334 0.04949241467570595 -0.4314241172561533 0.1024379744436344 -0.07576898036352493 -0.07386163408211069 -1.210597966063918 -0.2671993975463386 0.2662675599453826 -0.4161885208702935 0.06606574728243454 -0.2049396932610639 -0.2579663751321635 0.3473825775817662 -0.4919624573758064 -0.3892503707208641 -0.1486060413467877 -0.1969177764547105 -0.2483506906509004 0.5656161542567445 
-0.4282667759678979 -0.2304368982222014 -0.424655246712665 -0.01708716136991069 -1.118383569194694 -0.3147747153200229 -0.7613328325890457 0.4216775035893527 -0.2001537769862738 -0.01430008571047175 -0.01644857282282366 0.1160873722883122 -0.815628480846753 -0.3662815519901572 -0.1539694965206258 -0.049773445865396 -0.251001665571718 -0.3427296418736833 -0.1362151031880129 0.03265055138340368 -0.2577571877220266 0.09957197562879605 -0.4590174942206424 -0.1373451017800328 -0.3113605964878514 -0.5771716778602225 
-0.1215023577251441 -0.2954873967287475 -0.2845506533442009 -0.3191736322033317 -0.8011882792303778 -0.2823132039894009 -0.8318663518576166 0.2730241833474759 -0.02897600010815277 -0.05528618494727823 -0.1489156602011237 0.2673229075480071 -0.5841364109780809 -0.5259421758852281 -0.1569848019395483 -0.3510879175339305 -0.4449788126751804 -0.6727349525812413 -0.2972149124303907 -0.1396396534944639 -0.1815658935203612 0.01525619218398893 -1.50556086546191 -0.004083583492420597 -0.3915873521653386 -0.5005033556051923 
-0.08851771638277048 -0.2416854210362054 -0.1755998909057918 -0.1565195653496926 0.01090461670387373 0.1037279657434743 -0.5891141615800682 0.188039569051024 -0.07273602153735337 -0.04642279674181332 -0.2058282554116222 0.2262495517040519 -0.2615963230225344 -0.3057283735008651 -0.2774242883609497 -0.4533965100323545 -0.7214293803108407 -0.73483086737579 -0.2487200573287617 -0.2953048700664857 -0.04582485605513448 -0.04180592531259272 -1.824407464117744 -0.01999986451757377 -0.09163568956052962 -0.1308585396300596 
-0.06162647788347039 -0.4019993082074536 -0.1368896794328695 -0.1126635681148406 -1.614337507400321 -0.04771675593299977 -0.4444915134356621 0.2144196016421959 0.03795566966220888 -0.002883031655646424 -0.2040710285053244 0.2269288796128954 -0.08931771930662018 -0.3004938114868677 -0.3182791373914153 -0.4847768092640163 -0.7555346786544803 -0.7115179575698006 -0.2572687526408905 -0.2362963694478537 -0.02422453056736517 0.09855108967836997 -1.239066835684435 -0.02633717581674872 -0.1978636978520342 -0.2743671259214918 
-0.2424798953162852 -0.82482780005479 -0.1596973449984482 -0.2990265154375953 -0.4504210032215087 -0.1337013962046527 -0.5139857889530536 0.1483607960840688 -0.0119965402460263 -0.1047968884037937 -0.1582305224028606 0.2585038251678303 -0.2880652437844493 -0.0788274515767705 -0.2177072647356966 -0.2418722389501508 -1.282513739461589 -0.4096586953727693 -0.5877959295764522 -0.2304298152016017 -0.06087964483768872 0.2241833962416659 -0.6074237023711562 0.03262214907822846 -0.7583272239803415 -0.4313874498874979 
-0.2014767798265597 -0.8372482706826984 0.0663141135252069 -0.09630183466027314 -0.9825124137642122 -0.3130113890354506 -0.3477204287801159 0.1272381154510677 -0.02264533477061427 0.091254200251835 -0.0761194059812114 0.1052254266182362 0.1614757384449606 -0.04647086036020785 -0.4440168469519192 -1.234916778883072 -0.915934761012688 -0.1101464479492084 -0.6139914801405562 0.07599058891706903 0.04564640201458301 0.422813532657939 0.01390999220300849 0.0294167629599596 -0.5470031990825883 -0.07541723473352721 
-0.1595631502217573 -1.049122682270238 0.06147121741890539 -0.2426917667079698 -1.32863545740215 -0.2593068210620884 -0.3587931391482734 0.1567899558103719 -0.1190925594630106 0.2778731302311905 -0.02080948425717662 -0.1717351883223737 -0.01511247554581031 0.305246078177455 -0.2414202058947039 -1.501135912680575 -0.8028691459002323 -0.1582439277201196 -0.3908205121421806 0.005535014740424109 0.009562496435028824 0.3574267265784491 0.2607769639158922 -0.005850289218995462 -0.1029522126416453 0.5576364448795732 
-0.1683469348584838 -0.1012895012249273 -0.2537205463938494 -0.120423816514252 -0.215028136845912 -0.1549160971898014 -0.2833242613948923 0.1258125663477293 0.02834249840855751 0.0008839513828077031 -0.02952118728025859 0.04380167974432825 -0.1810714150010783 -0.1259985285802652 -0.0655751240878886 0.6453047078695193 -0.03872937452569478 -0.2182346305553669 0.1281170678419342 0.2008016204364218 -0.007689775544633303 0.02821203794768704 0.00536278149438299 0.002291731479564154 -0.002300417916811539 0.0003347511081173704 
0.03572709650968731 0.008200674455173404 -0.06123421729065703 0.03694683417683012 -0.5417001055723322 0.1271148993981591 -0.2046805228655324 -0.09839171523578485 0.1054424794520898 -0.09230947847027643 -0.1731778484324089 0.1458855643597775 0.2071265530500723 -0.2200861485786332 -0.05398169881899643 -0.2460673820391952 0.08183658540851887 0.069051988970565 -0.02039680172629804 0.2459247738024784 0.07946324535331006 0.05017689603753982 -0.2557929846586836 0.1041819841193817 -0.0331529969172932 -0.1350741885352656 
0.02820239224604197 -0.01408299998973633 -0.01288533632771157 0.1493826250599394 0.006698348105724811 -0.190527918079902 -0.05833594100955756 0.127431329774753 0.03237609520401613 -0.09264482621356013 -0.1048379723342646 0.1420687252379252 0.0627342471861968 -0.0263154291340774 -0.01053674893230668 -0.279875885757264 -0.2611187609570467 -0.3409147346362555 -0.09355053838166713 0.1115703660753534 -0.06232554365997568 0.1309805382243494 -0.641772622615696 0.09219987793926104 -0.02104561602519638 -0.1642730772345049 
0.04891481784647861 -0.07313205443326841 -0.0200079940043276 0.009420220758334473 -0.04658046090685572 -0.1124677842638301 -0.07966288450946807 0.05739503253912985 0.006130434034407242 0.03743772308878852 0.03109704062109363 0.1644113492400243 -0.09255872567664734 0.001522921348700561 0.07113491032591451 -0.246067382039195 -0.04303135330610589 -0.1517820712423016 -0.02773514253058294 -0.1065870537187905 -0.04542614120446933 0.01942900091953112 0.7347193774660916 0.001096349640371883 -0.1051027260425178 -0.4267286208326087 
-0.0180410477318051 -0.1950170590745522 -0.07847271633170549 -0.03394751910601843 -0.1507049903640415 0.07281059401629605 -0.1529009912225767 0.05792323648226268 0.01043157097299303 0.006820067615823173 0.1899880128212257 0.09982497867048377 -0.1146336382506094 0.01971420445341853 -0.0003468158214117723 -0.6246806323240438 -0.3032768517098579 -0.5474256988211564 -0.08340901726795126 -0.06248682765130793 -0.07036140645360481 0.04757892552645256 -2.167724206158184 0.01223260007811233 -0.2565081681459654 -0.561700995408188 
0.01357798241825391 -0.2482265692523299 -0.08084779817524099 -0.08472585495370034 -0.8183937471857229 -0.1050227544986033 0.01595874584670191 0.07405967574124506 -0.06629779167922212 0.07286336392087864 -0.01234923175486204 0.1002768797038452 0.03422997198003219 -0.06134524758501179 -0.04747448395543882 -0.406048142294138 -0.1039140261839976 0.006838368457365379 0.1004817756158618 0.01383546442202941 -0.02556631959290513 0.2321664296201269 0.2115764303994142 -0.008296151450679972 0.07291197354448418 -0.3898361547392347 
0.05046215890507499 -0.1414145491924435 -0.08824803853386468 -0.06950442983250973 -0.4913895192397397 -0.08991296925132231 -0.2312262245026906 0.04227746840357946 0.04135402323229064 -0.06380645830410338 -0.01028089998332186 0.2039429142255233 0.01301054246712441 0.0587616937146901 -0.1470716335669151 -0.9677595461631378 -0.2139887205600653 0.02735179422186686 -0.05735495184903432 -0.01244532520104332 -0.02099763053592817 0.2919838495221295 -0.1649090325402224 0.07133735626671781 -0.2981661901414841 -0.6123359583492853 
-0.1220025461180983 -0.3554169319301446 0.07064793930107638 -0.2520436548588638 -0.5013056165942401 -0.006195599927940591 -0.03587108949659672 -0.2365220180003166 0.08560128597726313 -0.07295353720689797 -0.0954282201836044 0.08733585723339603 0.05097058537281825 0.03472941792550381 -0.2995037396904198 -0.858260230735821 -0.28672396098959 -0.01267722447522822 -0.2570990515710563 0.2106263177787157 0.200478212283257 0.5752820660770461 0.2328613057965089 0.01319745958498621 -0.199853979699186 -0.2779211063390628 
-0.250490356509228 0.1415398083957518 -0.1376569350002212 0.0109232221535565 -0.2913571870138895 0.09562200078309696 0.05127309589782019 -0.197470548904522 0.07481705115197164 0.1580852789942017 0.02309989867541885 0.249888632781458 -0.2234668958147484 -0.04540534777856079 0.131228251376087 -0.3252427101540321 -0.003926858380112808 -0.0007100560125894023 -0.1101624534277983 0.1557155121329528 -0.06097783476683764 -0.07566772649509573 -0.0448302151339741 0.1352166754531662 0.01475152767579725 -3.001434283784054 
0.01109673350700443 0.05446386375696722 0.1129618909564328 -0.0117402577453217 0.2201965379186692 -0.09090308705956267 -0.1726830275761932 -0.1025484169082608 0.06335116451311454 0.1526211796231464 -0.04820211372671512 -0.01756749741616386 -0.02628968619953289 -0.1053762849193478 0.07786267878707306 -0.506322137468361 -0.0484739874789092 0.1060539385184523 0.06032357426974183 0.09327898470816751 0.01421988063879721 0.005565015790377246 0.1196612876172262 0.2158586682940882 0.1344675135094645 -2.014995418461238 
-0.01647701394517492 -0.09019819784816682 0.02970933519427119 0.1027008809252579 -0.1050587556909681 0.09815262277184389 0.05507742116405469 -0.158631959949277 0.08304478762534936 -0.07455871970080227 -0.006020225651044257 0.1038723401569527 0.09861008781085934 0.05609486624020887 0.1644763927708145 -0.5240605708246103 -0.02148915979340874 -0.2446080635937184 0.02961362637564157 0.1341682196104896 0.01147075558348178 0.05976793921691978 0.1881291556109243 0.01261215834291662 -0.1554175901532021 -1.016566902514605 
0.004695803167803229 -0.1559154003032954 -0.009926194983259395 0.140976704342137 -0.2361814693998653 -0.1238054953296272 0.04640958017708037 -0.2862475458425655 0.07429639747109834 -0.0009381757676103046 -0.3131643294089228 0.02802952113010576 0.08186501963507703 0.1120395353743726 0.1502531002025373 -0.6369074374476569 -0.1616828194414222 -0.3545146082021826 0.00362503588612673 -0.01497927945797534 0.06148941787224563 0.03137754936038106 -1.400556477844521 0.03670381048710833 0.06084827900492663 -1.06450020116698 
0.03229611952552844 -0.1877813182354068 -0.0364685800185407 -0.05900271818128688 -0.1515361736613512 -0.04111386945003874 -0.03658204424709161 -0.02190986181912648 0.0002584095123635763 0.05145237249665673 0.05322014650646843 -0.04443844378951959 -0.07010196590946551 0.008088385488416616 0.1327041618452226 -0.6246806323240438 -0.006180555277877604 -0.3141460840876356 0.01944396880119276 -0.06683940368781893 -0.03164354660593644 0.06095363260168592 -0.03378335666968563 0.001560908615478925 -0.2274792931818599 -0.2576550203859966 
0.04201501242734881 -0.1012453088230485 -0.06848780298197307 0.0743516581668142 -0.1972979998323232 -0.03104901985555515 -0.09723216311864839 -0.05433696767193527 0.0953351486370496 0.0161848014956439 0.1053657831543923 0.2050764934573136 0.1172390553765201 0.06612343932815989 -0.0186672203121387 0.4516907304329741 -0.03046568354783203 -0.0627152867737486 0.09078821742990079 0.04645026643382727 0.06395538700765697 0.04334800480252964 -0.0954780079337189 0.04396811069193386 -0.08909094980076453 -0.4852579286936929 
-0.05599323912179933 -0.07304941824820102 0.04325703499508032 -0.08569084494275833 0.06325090962913144 -0.1290681868479505 -0.07989369921681562 -0.1488009154195151 0.01431295540035001 -0.02289166895571673 0.01911640912133156 0.1796137569817777 -0.05039289301031188 0.0589197524696439 -0.1331480574470676 -0.6286563381694065 -0.251698527368232 -0.02656188942163842 -0.01824285816561289 0.04043446914639608 0.005797820007501928 0.2987669910647828 0.1433844400449353 0.1051236799513573 -0.0314966664461318 -0.7287870022480428 
-0.05682867557738502 -0.328264350423199 -0.05774894542710798 -0.182407910813726 0.01663442703604069 -0.05714465547825544 -0.1402649035729595 -0.1608045085551212 -0.007517908054570036 -0.07617295207786208 -0.071319110557528 0.04232005948659974 -0.02764263150727768 -0.1857790537155699 -0.4109055756463986 -0.04985012655334561 -0.09929578218796938 0.03752576413801646 -0.1531579371753891 0.06328216784835247 0.1180937336416441 0.1562462768886081 0.3343287682305586 -0.1326503562188911 -0.1452269247598298 -0.5144603538838013 
-0.1688255372144504 0.03637931162720166 -0.0990270863644071 0.06173237440105075 0.05357890791081203 -0.03901829523827956 -0.3445435549858687 -0.2522136895263783 0.1827976122061897 -0.01637992322130332 0.05017097096463635 0.1268424746376265 -0.184960780703698 -0.1890252287793643 -0.07563417847117859 0.1460933694291153 0.1358650725058761 0.020186311466052 0.01528594722355524 0.188933048436481 0.05961338909176989 -0.002006080959641825 0.01135652637620986 0.1547495908483033 0.1121136657185969 1.060649545893205 
0.02797821213282538 0.03462627007624308 0.05760835019826135 0.1627657829316799 -0.09212427729949636 0.02325160360719195 -0.06612052626115844 -0.09720419751915682 0.04266006602456083 0.05209809611040855 0.2007213961884101 0.1976339791519773 -0.04214991766027029 -0.06885409006606984 -0.02747993270618967 -1.290776139275668 -0.06927615077082624 -0.06357440676515094 0.1075762762785241 -0.000404964881601147 0.08262886346993864 -0.04488553686223985 -0.08275406357011598 0.1059566830219852 -0.1226355147989642 -0.9630089412200757 
0.02029285067480579 -0.03100858825603917 0.002414742356288403 0.02733883062532124 -0.123660914692933 -0.05701279272556152 -0.1486610187035546 -0.5682744953425017 0.1218395739860829 0.1272988254795205 -0.1746628291641812 0.05465776851561225 0.07992556896130265 0.0254316124899576 0.07171435860253442 0.1627510936769319 -0.1678992932224215 -0.1606506781793478 -0.02013601820647529 0.03407784126503675 0.0516822151077916 -0.0114422918731828 0.06288972707806127 0.07781363841665895 -0.009148748011455829 0.02563191891054785 
0.02427857975101295 -0.1834149772891966 -0.04835245575168068 0.04967576073395968 -0.1099871794654605 -0.05218360836474457 -0.09958520267695151 -0.6854553533191711 0.08896879977262642 -0.02436396161347709 0.02228944635864441 0.0625629548510773 -0.030950742638808 -0.03148421441039718 0.2048686011254888 -0.40559911765727 -0.03259605957864393 -0.4887097687086873 -0.03486182054340355 0.1155607016701728 -0.04061013319617297 0.0150298611195035 -1.103260278247563 0.01170920477044074 -0.1431877787345325 0.3478157820795009 
-0.004486028550745962 -0.1524678287262334 -0.07514350779892029 0.001882610472841502 -0.211631263276348 -0.09168858197726841 -0.009826584887458075 -0.5918231474312428 -0.00458348254604652 0.0422799293903448 -0.2708545185131772 -0.0578904338450822 0.04992548459525013 0.1057208879812005 0.1582104738217515 -0.5234094875738443 -0.2476425731721897 -0.1131781994502183 -0.024722720224635 0.03206301349096247 0.07832788613929041 -0.101444472345113 -0.180697440745147 -0.0005109924563354499 -0.1078452162010068 -0.3358700337099851 
0.003710495944101114 0.01151177560382491 0.01459037925682801 -0.03621619709809773 -0.1969907601102474 0.01133161703040293 0.02863746491512963 -0.3536862276290344 0.02678561168061871 0.06023383470172047 0.07390192018498074 -0.04495735405320659 -0.1031405138643188 0.0540985642120218 -0.0220502579555219 -0.07473275486450652 -0.07711087624694625 -0.1260570789881744 -0.02918947984061007 0.07963158587521604 -0.005032511135836769 0.05863932688510666 0.08493531006842869 0.04260078874845973 0.009339575315154829 0.2485229461706993 
0.01329340193141868 -0.1326129445958667 -0.1036522603673779 0.00305327190400102 0.1725920608534094 -0.1444081583933041 -0.04014026962294198 -0.2135603275732054 0.00370620614104774 -0.0263664388827573 0.0816456528593426 0.2430368777714723 -0.03107730226847887 -0.01867487984853126 -0.219507177981576 -0.01634088379691716 0.05255544174158472 -0.1378409837138773 0.0106309382904428 -0.002222194194247566 0.06187465806889242 0.1039982337578838 0.172897271837905 -0.07148627435913353 -0.141938943309201 0.3873295667255757 
-0.124377381976417 -0.3853943938195252 0.05856569939632168 -0.1922244052027665 -0.1045740516661895 0.1178625257979932 -0.1251534412080775 -0.2334826502392162 -0.006221945236947333 -0.1474438580862303 -0.1582229677843933 0.1937683940005705 -0.07494741024464528 -0.1778232917536674 -0.3662564100648892 -0.05692203643877314 -0.1509342058951978 0.08692015963567974 -0.1441717386464925 0.1038467983638295 0.1279810009786962 0.1225509102951046 0.2064736467440716 -0.09253416684135482 -0.05293365304868491 -0.2171453062903977 
-0.352182740864634 0.06434808105438147 -0.1977490420367935 -0.09425024054188573 0.006066862097076877 0.03637599976396184 -0.1325360956793581 0.1791000091497089 -0.02562117143935271 0.2078424693525104 0.09395344095274104 -0.002784085843418126 -0.2768304121933009 -0.09521203961952684 -0.02251388822935699 -0.03125757287187497 -0.1285897564327349 0.08207346047962191 0.07287768087913107 -0.04373376683632194 0.006706175710186862 -0.1851400234797405 0.01833100839480665 0.03006092477596579 -0.002474737330624604 -1.080024998756387 
0.03278563879782866 -0.03034758061486844 0.06466919494514628 0.05274860811496584 0.03923357973908469 -0.05616842493432446 -0.2850983054490508 -0.6393406523019143 0.02824208677925109 -0.02915987316696067 -0.0001326014251343058 -0.001763638469607878 -0.07616516671262653 0.04189508920806082 -0.02400158227204205 -0.6353852993000979 -0.1473636899536035 -0.1620925284159102 0.08175184412176478 0.02084893808638161 0.04959851347928521 -0.07686124462669164 0.0828610753840175 0.08176539621936896 -0.09218345165147619 0.7912802214754051 
0.01796539506954155 -0.2190219419849555 -0.04137830413994283 0.04982763699059331 0.07249347871504923 -0.02983290380211956 -0.2180503540221868 -0.5467928344768157 0.0356787551150804 -0.02515248335207764 -0.1201863631197045 0.1124893767297832 0.05979566824951403 0.06331345340255337 0.05439169204926932 -0.02248395804857791 -0.07772005851064435 -0.2060940202314701 0.03111009113352887 -0.03206520489111875 0.07250769448567534 -0.02101758964960495 -0.07436640378449709 -0.03859458714130639 -0.07799795407819057 -0.7099029874170617 
0.05680018731953097 -0.1199030770409769 -0.05462743969434301 0.002957925894706177 -0.2911253992761944 -0.08975394631939544 -0.1651314617930374 -0.163609576039688 -0.002057664588302706 0.0320045411255859 -0.08274467084717439 -0.1001454231557867 0.05216631230825457 0.08704697372235475 0.05360873551687845 -0.2477769626821535 -0.08861330887729395 -0.4907071003747236 -0.02288393180517766 -0.00130307123469141 0.02288676560594247 -0.02744576642290841 -0.6626343303548872 -0.003172093606518922 -0.1709868994627892 0.1197473454797556 
0.05637271800094332 -0.01770457716960657 -0.03215161898415442 -0.003294210618549681 -0.1918404425313432 -0.07472139125536778 -0.1202301325055628 -0.3005709045431861 0.0766277847419452 0.06538353000138711 -0.1008665543478711 -0.1815283231316452 -0.02425462364032533 -0.06623921816441977 0.1257159879987894 -0.9283714471452276 -0.0566665440117681 -0.1665116330008677 0.01848883049329422 0.04840130167600166 -0.06766237338426297 -0.03132843499956709 -0.1834925401161015 0.06003462272865464 -0.0886742294845705 0.1903644941548022 
-0.08694317019004162 -0.05362923089894438 -0.04198561121744857 -0.004733277920069109 -0.05023964782977069 -0.01279077433237152 -0.08337565537367853 -0.329059011325277 0.07826183886898933 0.04324409519449501 -0.02771912468757536 0.08149549063491221 -0.0509849963224575 0.02978435518488225 -0.04429185692971978 -0.2662500916480621 -0.3251030090301955 -0.07653756734074879 -0.01582184301536178 0.08368212679019807 -0.1686937976680887 -0.253245716678251 -0.1982386135654961 -0.06389460233023797 -0.2137395614122875 0.235768275588135 
-0.1040785962757735 -0.0965453554515041 -0.08697874646283292 -0.07112346616399831 -0.08131218703711469 -0.04362953243968386 -0.09655806430733482 -0.1594481718544676 0.01055057530674604 -0.05645232565701901 0.2093681476764601 0.09992680357333113 -0.1487525866870729 0.02145147648878349 0.09764201231782044 -0.1984813789015257 -0.2378447300257865 -0.0705111003695921 -0.1171444799593744 0.09255734402335819 0.08447361711846785 -0.00743162631839586 0.06828573676784644 -0.03832200035253309 -0.1601178887168568 -0.04062772657171268 
-0.05760447234361296 -0.4972435062615516 0.05836950581120957 -0.08452794696940674 -0.05039053701899857 -0.07726050057822871 -0.2130390635288708 0.1762104322056098 -0.01745602535875038 -0.05366501627589577 -0.2318050147060805 0.2124093184663168 -0.08487771102621666 -0.1297741896371068 -0.9013644079365618 0.06817216788018415 -0.006327767749785426 0.01625807257649699 -0.1188076584581132 -0.1727706574988473 0.05704174678269781 0.01286232719389184 0.1636797860801276 -0.1939491478911153 -0.1338466133662742 -1.019577482648149 
-0.265478249997224 -0.08022289379350808 -0.006111253991875116 -0.1744738955918325 -0.0174306232930958 0.06611259827405393 -0.2490697818376923 -1.302692686143326 -0.1051515054367465 0.06892093336575134 -0.06970978638972915 -0.07112979382059376 -0.3381306612534605 -0.05696543125148165 -0.07444613742808222 -0.1277207060394389 -0.1229632641489131 0.1533760908198309 -0.07460841979534527 0.006675523241632099 0.01673942702217515 -0.0743487696134959 0.1427481311960586 0.07014655178859168 -0.1154274811917487 0.3415855903037993 
-0.02196028780765923 -0.0651308211486506 0.04623446345182483 -0.02168588783558147 0.03541518741043735 -0.03060325805859226 -0.08429776122579374 -0.7361541836876392 -0.03530052253038186 0.06715966885536635 0.02961492106936404 -0.001979731324230329 -0.1245143387155746 -0.05321356527995413 -0.02099589011122573 -0.2686711038280676 -0.1571523174629728 -0.1636936102289841 -0.04780276675833803 -0.07291625329305296 0.1708729031992552 -0.05277335292072551 -0.09515196838021239 0.00792015856059235 -0.02715821329916727 -0.8008235751104261 
-0.003755611604323414 -0.05339594259734663 0.002866362070113394 -0.031791687770854 0.06416542211953359 -0.07743198175149975 -0.1477808296262307 -0.01031937824557793 -0.01258241157011607 -0.01410750057597493 -0.04457356075233426 -0.0004161825495606671 0.03396411143320555 0.06822897652996444 -0.03576169143686131 -0.5730615373365792 -0.1975487909569045 -0.239389532617962 -0.1203012138581932 0.09024715471113842 0.00636979555040398 -0.01991970623305846 -0.1394136693189601 -0.01737691113250017 -0.07306331774861681 0.08342431210140902 
0.02864845575015031 -0.08031218330683776 -0.09880025529462598 0.03998387004894718 -0.05332556891664328 -0.01638809810423891 -0.04134280870741482 -0.09821868198720363 -0.03321919140109503 -0.07134170662658751 -0.2146151897743573 -0.07917622302962768 0.1101566303615795 0.05018745078665653 0.1910773789250254 -0.2134857575978336 -0.09111066140891523 -0.3728333174866074 0.00761796657475175 -0.03985601464955731 -0.1235039663683095 -0.07808518871489864 -0.2926141570111936 0.04840194007729609 -0.1700186911758896 -0.004317420028664035 
-0.03929086305563236 -0.1266858583884072 -0.03551519018155437 -0.001619471604266144 -0.08614296898455434 -0.03146569734081812 -0.1181905701078375 -0.04399458771170606 0.0133086204726876 -0.03507614885049185 -0.04229975225593997 -0.07573778306388297 -0.02940928123940978 0.07704744483973948 0.09242445754302023 -0.1440913651375322 -0.2033609423260522 -0.1804804913800486 -0.07443423637329656 0.001232389088235808 -0.1671878032509976 -0.05753813313280881 -0.2881558252874414 -0.04867501573118382 -0.107442393194276 0.09336117772176639 
-0.09260667424518274 -0.06763661953251485 -0.03741351933016136 0.0361894136199316 -0.1347506149030522 0.05573683141674838 -0.03484796239874507 -0.1701616536083583 0.03773071829762393 0.03556453333206738 -0.01910752318329654 0.03636621816839287 -0.1379722008631771 0.02519004277570699 -0.03004109889256144 -0.8164370117233588 -0.05146035441149875 0.01055551440754141 0.03565224482397782 0.06391337819970778 -0.09021556568176792 -0.4081612638393976 -0.04840134597868173 -0.008006266876654707 -0.0892621484520697 -0.2524924165725511 
-0.00904564036446686 -0.04064368438363544 0.01245563935513069 -0.06871153971632532 0.1594832625051487 -0.05149033961052529 0.01889003391732419 -0.2468188005993929 0.1604975761825061 0.02640104376786372 -0.09192061085021284 0.1847834532603548 -0.1241786579136813 0.09458617769370065 0.1851537505207297 -0.1280929179813948 -0.09635503723047524 -0.08034579616647562 0.03672149691857017 0.05408550323328774 -0.425896468663027 -0.2667790015327261 0.01511340775414536 -0.1175769920461515 -0.1540201581566788 -0.219081278502586 
-0.05815710985866612 -0.2170182201142465 0.06195480519475036 0.08415750735926522 -0.07127011678599282 0.0008199311998716716 -0.04312691330413522 -0.2898041279028331 0.06124049058145689 -0.1409388270191239 -0.3093493665242149 0.1931199762905768 -0.06439544811406844 -0.1139064955167959 -1.900989858913607 0.1324045570626606 -0.5390164895866848 0.1848423894691411 -0.09492461784269261 -0.02843708518758126 -0.2604319563025054 -0.01265062975483137 0.1202543737548723 -0.05042790829424268 -0.1781871196342297 0.1487123664889038 
-0.2670567039971693 -0.1048536845415484 -0.07176757124404931 -0.2452484750321482 0.05757885754426444 -0.08504976419154363 -0.2713251299277813 -0.03890000612487955 -0.1094760442896708 0.2188868963708599 -0.1574460954295097 -0.26932424808827 -0.2278443720513277 -0.1550655819653127 -0.2231608598256746 -0.1462413756523785 -0.1910672665358653 -0.001758733462358077 -0.2339940794130152 -0.1782365170411627 0.2104029270948906 -0.1851839223633645 0.1283672998597605 -0.03022370358651542 -0.1751800452114108 -1.184243400153916 
-0.1318905123732994 -0.03772540168680594 0.03516881015308527 -0.06758546322848895 0.01183683265855979 -0.08072224783523747 -0.2114552727283809 -0.02476719407007004 0.03059497273358917 0.02468920167290896 0.02129863385539402 -0.03965462742719138 -0.2585755252516741 0.02384687184631946 -0.0426997765915853 -0.5733602275933718 -0.1394179979857872 -0.0857414501995576 -0.1974901964482826 -0.05008320961134092 0.02957111764530686 -0.134147040330404 0.1218325732335382 -0.03390052509886538 -0.0599633058070422 -1.327248563480308 
-0.009327567180575723 -0.003118925797642641 -0.0133957837042922 -0.01554511321862519 0.08793042750453219 -0.03500315491148052 -0.1784462080656803 -0.1122234160059399 -0.1199536752251818 0.01157641377493547 -0.01035688402344923 0.04034816590770753 -0.1228221293214288 -0.0199676911899395 0.03056619440023273 -0.1442266190999276 -0.04691043363353173 -0.3123477513386213 -0.1198912130787688 -0.1516605360544478 0.09600022249414067 -0.04484715587446467 -0.1461174559353559 -0.0169510466287162 -0.1156721158663503 0.1400867423938574 
-0.03699801297365952 0.03364151345782407 -0.02024000413950777 -0.09436553615342415 -0.01629286466236965 -0.1171739007110403 -0.09680716205032824 -0.0618663700327737 -0.1274421254378186 -0.08063045094755113 0.1316787373724083 -0.01588933277765068 -0.1579300854892943 -0.03097954240962676 0.020368199580122 -0.02073911050273399 -0.1244791683556668 -0.2811423381879259 -0.0249124920602687 -0.05543158187334388 -0.07360578000336859 -0.08621428792678751 -0.2129755321616367 -0.02934940188930942 -0.03811765115069701 0.4596108089462982 
-0.04769095828582436 -0.006487127210555808 0.01420274940127887 -0.1769752835674791 0.06388478546558225 -0.03173424224821716 -0.02405560375400281 -0.1329233214881839 -0.06551915522357699 -0.08848407096439373 -0.04628241432451193 0.005517770223907367 -0.2206947788459117 -0.03140581408596669 0.1625324209055436 -0.070967088319391 0.02701393789991077 0.01392653272652724 0.08160908421586072 0.02980006614495288 -0.1091582468040332 -0.05053471622432427 -0.2850292123553053 0.03988779528210334 -0.1493637007229018 -0.02123098256031565 
-0.09800279730808055 0.01405296452780522 0.04141596691019849 -0.08704763920726223 0.1106422410140901 -0.04031313136087568 -0.08191346010568087 0.03329043760158276 0.08428708719104724 -0.1966666492360978 -0.01436704684767712 0.03908075952992706 -0.1687974578426968 0.02542660821015039 -0.1465800178547187 -0.7426804898230852 -0.1374111636870344 -0.03662217625515448 0.1189094884579485 0.1525187472952479 -0.2820863799449488 -0.2187057758472999 -0.09152378866816299 -0.05756385623284938 -0.2130211883682316 0.07703945774300189 
-0.04524035290834866 0.06183218878730364 0.03653854436178298 0.06093608869960252 0.04606835860302484 -0.04495064560969275 0.114653634802815 -0.3404891401725035 0.08857705359877857 -0.3899014470146545 -0.06054548915951598 0.1199807134164795 -0.08788040826850155 0.07965695934767787 -0.05435818394134891 -0.008225199792525908 -0.1328434119416066 0.06100404862263442 0.001792036148989352 0.09512842861892269 -0.3940321772498295 -0.3661160081571396 0.171095514448511 -0.1688635562271715 -0.1135488098286522 -0.01881620124765979 
-0.1168214660291981 -0.3100801557267253 0.1105210416124413 0.185940540375809 0.0205623296556431 0.1286959001769336 0.02368223842918922 -0.3414380424631935 0.05742100191762137 0.06085861896827381 -0.6043715367613696 0.170389964451139 -0.2745498982584859 0.03505645561310754 -1.401581945741462 0.5579107671904467 -0.5393397965969515 0.0548685302144535 -0.02067944622851317 0.1706794816172595 -1.170143294872689 -0.1996261917990656 -0.1503419264485374 -0.03591682599459223 -0.1456430259134178 0.3283331114523182 
-0.08963520250395555 -0.1680336483246625 0.03526677020007369 -0.153437634674031 -0.1898188146119876 -0.107949258548999 -0.3938902642817538 -0.007118213100471788 -0.3203478031783188 0.1412899187090798 -0.5534048878530429 -0.1693042008505211 0.12168369614665 -0.07953184766638612 -0.1558607339582034 0.05024414823888548 -0.144167954453335 -0.009515325807722939 -0.1536075865852916 -0.3557502302719729 0.02702306643098099 -0.1885440168870696 0.1034844441577819 -0.186152762466785 -0.02915975388515855 -2.820998114880241 
-0.1709842818729284 -0.03603304804763695 0.003066229331067123 -0.1737306796261261 -0.04918131712934214 0.07841698347867297 -0.0311581778447134 0.01637757101117328 -0.1721420697100437 0.1655034567990595 -0.1366295989699512 -0.05681240377604976 -0.2749568464187619 -0.1702321524050714 -0.09005854563350138 -0.4619038726877457 -0.05015814112672935 -0.1151173852194026 -0.1235772299956996 -0.1427726040412626 -0.1045612751732888 -0.06823572403757944 0.009143149296183973 -0.05638013606679158 -0.08692025259830061 -2.053247374376982 
-0.1638613710485942 0.01865574120117127 0.09292113028417759 -0.1689205440715122 0.09256161610073182 0.004819604546100684 -0.2057150738120518 -0.06849881769764329 -0.1321204238118156 -0.004476931541713285 0.2194786800726351 0.1069543222627563 -0.3373318979221583 0.005699164512177061 -0.05327733702316302 0.0504564548077685 0.0008240088103321375 -0.2809329263463433 0.02319272346654762 -0.0966090359990881 0.09461447532128908 0.01203846826456985 -0.1100218880127281 0.04104691704180666 -0.01877715873642199 -0.2215117989370104 
-0.1022192815302685 -0.04888036715387993 0.05585426706041087 -0.1336735999430819 0.0815663840361896 -0.01430448676956188 -0.0461264684147703 -0.02039387089045717 -0.02309938661211432 -0.05312845703125162 0.06244615278669338 -0.007967634446898448 -0.3265510732636109 0.03425564097251216 0.03203845864205858 0.2752572680071376 -0.05781853435032824 -0.2498736547370433 -0.02764812831450047 0.08678973009530311 0.04285178462463138 0.08320371290027333 -0.166041667160192 -0.05904223506243816 -0.07703280525936314 -0.4265869873896868 
0.08319356152348746 -0.06823691149515296 0.08224842971867438 -0.2894269333055797 0.2924089192531836 -0.3196543770103428 -0.04866526996774996 0.05358216221888594 -0.1403901881719987 -0.114519143222564 0.0196559188104963 -0.09804857361200463 -0.0308043161598284 -0.02312043086679896 0.05945179275010432 0.1524593360883511 -0.1444310160531832 0.01676197591342548 0.0115854422074034 0.03733597950434404 -0.1347819078574207 -0.01570401655165272 -0.3347305120803524 0.02591257637336027 -0.05958999274501227 0.0526695229189128 
0.08532813556603307 -0.01683964977673669 0.05710802834315237 -0.08935520973312477 0.1099845346305709 -0.1208837993507882 0.1003009011814196 -0.0815107895460689 -0.03667184868488964 -0.1300928637068959 0.008782233828959513 0.01024336838158298 -0.1860959980041194 0.08351198837292054 -0.1456247156846171 -0.5128750321899873 -0.02481232052158414 0.06977141464954156 0.09965615264584729 0.01457309588632685 -0.09624599871763002 0.03570937630405519 0.04040073870004604 -0.1557718057229191 -0.02315956056646259 -0.004055279748761395 
0.08039853346219064 0.01630789046095927 0.06341241114350363 -0.06422224077362861 0.08478706369910186 0.1651613550860181 -0.01020984820970144 -0.1469053159670695 0.07658557099729436 -0.5186131518793538 -0.3099647874300298 0.1019087837674153 -0.1841132366221375 -0.003509318984132738 -0.3736998275793837 -0.2870196487458599 -0.1758254064641583 0.03961129695878934 0.007252139199672717 0.07465438155244644 -0.4233681556503839 -0.1569038442678765 0.0154687793107681 -0.1351391256982358 -0.03015471476380922 0.372635264269743 
-0.1570797553020177 -0.1410737501500721 -0.2842716680445191 0.3913914147466306 0.2161878154251686 0.2406844724726555 0.0158037571531776 -0.3151820108743938 0.03060214958673105 -0.3426027889385762 -0.0555641757277912 0.1382874660791223 -0.9072017215145598 0.07368059982507896 -0.3296366962066477 0.4358358286956374 -0.09435001775272535 -0.01855627418866659 -0.09923265723474037 0.07498478533745859 0.01397115777753358 -0.04019084088906127 -0.02497752138671457 0.1772485417458426 -0.06543749837264903 0.1934445206878199 
0.08588006678992684 -0.1392151407209659 0.151638311968001 -0.02814212810438197 -0.2187567035120279 -0.1833724486313051 -0.2951061128703283 -0.2288710350328103 -0.4906726672150363 0.02770752938518339 -0.5509289078035884 -0.1728446313411882 0.3156098492285799 -0.1446604978514412 -0.06574325847579444 -0.4379637699815213 -0.2007256683634163 0.1596402641197815 -0.2454472094529537 -0.6966081358979975 -0.6520288610312055 -0.03079630759184243 -0.1714471679701771 -0.3080739049739208 -0.1397621727607796 2.005938236474797 
-0.2783917919608452 0.03312783218736837 0.06782508632900947 -0.2235352423478499 -0.06678431042140712 0.1293594134015351 -0.1147653403423459 -0.1920084064537016 -0.2556599497679344 0.1487000378147014 -0.1740017723905545 -0.1398284701875053 -0.1772738547533023 0.0571503936729145 -0.1228605626299303 -0.1549067640143539 -0.05702942328808789 -0.1154082646094419 -0.1778525724227423 -0.4342368290965333 -0.1686053522650461 0.06920679655542775 -0.17784455667266 -0.1115878167233699 -0.06464456416272465 -2.432494195282187 
-0.111544977642691 0.09939498776249853 0.09376763355074422 -0.2115384719628985 -0.178062872064649 0.05327042393742309 0.0973430450055633 0.02432389674331449 0.07317204611559572 0.1282235674593834 -0.01242171098268249 0.01868464009228998 -0.6050006817668531 0.02275757730939425 -0.1163983570629023 0.2088319335629383 0.04926911639555481 -0.4809929580484782 0.01819350276919827 -0.07923113212049958 -0.0664997948285338 0.01398492248204002 0.06428039325779081 -0.1019930193353441 -0.005122373998713844 -1.37166884575894 
-0.001912787378757009 -0.07917402466921637 -0.06403901836762538 -0.4392803709794871 0.1812520688048309 -0.1809270516457664 -0.1208791056349896 -0.03758935551497736 -0.1567468274332646 -0.08510444970079274 0.1522012490713137 -0.02013635998999188 -0.4051587346720003 0.004578401397064315 0.08931536078735505 0.2201754573570091 -0.009227242147539859 -0.1000414965979711 -0.00881856499901522 -0.1815708303415676 -0.08837818505363773 -0.006506262431083222 -0.06931353169738592 -0.01955871997319376 -0.03563556358555695 0.1240221283237287 
0.06465646387223277 -0.04405445788808758 -0.06299493111588719 -0.2705913359234314 0.2451835090011517 -0.4044009910150411 -0.0488789013143633 -0.003445040144920541 -0.08445038187838413 -0.02732742430332592 0.03584463726075326 -0.05702464410178679 -0.4993201595365003 -0.0294398835485345 -0.03563721219092213 0.100730843910983 -0.1159097761652127 0.01569874534422172 -0.02274401033674998 0.002321444685526848 0.02599391967045964 -0.004836268558027481 -0.1518947515601764 -0.1363680029260949 -0.1004398759233121 0.01169827921781014 
0.1507506463688865 -0.01486320125794359 -0.02348355103193547 -0.2567655672484814 -0.02418499039061738 -0.1453300235178862 0.1041014500882589 -0.09324693705385925 -0.03027963113541735 -0.182858946819843 0.02644224160605754 -0.2137532829105748 -0.4147644159378123 0.1229754793552136 -0.1828638538473772 -0.02660893164216359 -0.07128247463283964 0.1392986983697522 -0.05300683199334631 0.08834713125842801 -0.1114321293856525 0.04758358875615612 -0.1928803049558321 0.01959384104984882 -0.1077524963341021 0.08671555371703753 
0.09670410147821176 -0.03712143188808572 -0.3205658873480616 -0.06512873857439416 -0.02945832442567009 0.2253943674212349 -0.06287293906882051 -0.1242369476581241 0.04334980146031438 -0.4117197906878897 0.02646109375677738 0.0443823155153406 -0.4911503973961646 0.1103465743451135 -0.2895090096698953 -0.2190971221498434 -0.1000217401647821 -0.002430080012511833 -0.1776320301221728 -0.01852178775541147 0.120828317625687 0.05875628019671882 -0.1584666229498183 0.05083318241869731 0.05425671729124575 0.158713123229359 
-0.1694003868266183 -0.4027601698837582 -0.5336974584686109 0.4106647486944675 -0.01822934653646925 0.04809957639227486 0.009289124841412304 0.01866230945877886 0.04532921255551001 -0.571609715654915 -0.3297786036896241 -0.115106334544626 -0.1332228425834628 -0.09345378804354509 -0.3008087392521142 -0.240425404793802 0.1798129581966809 -0.02160683653831411 -0.2036954602833456 -0.09233174119835776 0.369511151863833 -0.2747713277362631 -0.1479810205977705 0.06445597855386578 -0.0604366957516946 -0.5852742676121113 
0.1383202066563462 -0.05401785105374166 0.06426385050042076 -0.003146627374966403 0.01177460694772392 -0.06432051942655401 -0.08423791877538608 -0.1131286865678291 -0.2637086341828783 -0.01691246021740954 -0.3622321691535554 -0.3182241328803662 0.7294594834092695 -0.1659922199299555 -0.1116713309171367 0.01566278409984946 -0.1689418959079051 0.122766837446624 -0.3106127624496342 -0.159319751663332 -0.6334947722200196 -0.006608489534681534 -0.1263935914653019 -0.2073295221397644 -0.04743351014550836 -2.50043180245196 
-0.1082629411909779 0.1127437234363898 -0.0299029998675067 -0.1551353172961148 -0.1809357805037923 0.04655424314127286 0.01614941050865593 -0.1276844652823902 -0.2842890668167816 0.1077888836510369 -0.100894813839139 0.003723739629259809 0.0506298970672583 -0.06698810049904494 -0.1428295615299096 -0.1771051335374289 0.04288319416292349 -0.09435422991138032 -0.06251331838206393 -0.3182072235454042 -0.3780584849448715 -0.0009745461381791736 -0.02047350860254847 -0.2272382726283366 -0.0408142579525441 -0.5366051888516254 
-0.06008581123124925 0.02565432444951408 -0.1253539565120289 -0.3034921181455676 -0.4811104356412753 -0.01772699261881965 -0.06669188974909467 -0.003770466987611427 -0.1994742425673714 0.0745923578384397 -0.07001295639098419 -0.1893698843122769 -0.1363430639655791 0.04774049286763167 -0.09562714995489836 0.1837021819272026 -0.0299144730231679 -0.1971327398445197 0.02663843992663835 -0.2726555407624592 -0.3191457702992054 -0.02734578891695338 -0.10651005931316 -0.05485895305158669 0.05579456551695356 -0.9766688895471481 
0.09216422132780804 0.01694664062431977 -0.2108595626322652 -0.2441181747714558 -0.03263333551378608 -0.08544874856148466 0.02389817318601123 0.01647827191348076 -0.03515517601084732 0.01472024233752753 0.07508775803949133 -0.1215290512646165 -0.3288054895873988 -0.04944326129431716 -0.02120129642248368 0.3489821677490245 0.0005525754377584038 -0.2049922412693437 -0.05917132998485808 0.01637338786593021 -0.1191882604139822 0.07968372239006642 0.06561292911195289 -0.06492440227711158 -0.002081562251641702 -0.1273079548110531 
0.1246024750203057 -0.07943019403141507 -0.2235549540611638 -0.1699164399778861 0.1543748438511024 -0.5136654893417734 -0.04617113714948538 0.001558815019596396 -0.1117474305895632 -0.08420029357041674 0.1895180384021712 -0.1156849495643616 -0.3023333059094136 0.06807189286358459 -0.004337066912673479 0.08084483230890004 0.04928744136882359 0.03337330045766294 -0.07311662099399056 -0.0792973833177511 -0.1936964225023909 0.01714287970973997 -0.03973583346520314 -0.05706378489237798 -0.04053713308185697 -0.03112007042235682 
0.2034496201120802 -0.09368253724352971 -0.34150029083935 -0.04246947134881597 -0.2560543760895902 -0.004389432738574256 0.02087876390941382 0.03321359252701211 0.01539014958419839 -0.1650323608512247 0.09631445040965934 -0.2237367484681077 -0.2131804655734497 -0.04326559702534276 -0.08980919790322786 -0.07641620837534219 -0.1542741999235569 0.08400424737173398 -0.2155524917146879 -0.1056019475382666 -0.07119777263394073 0.01678483067876044 -0.1544550908033782 -0.1241457500909399 -0.05645002873516367 -0.1259844210666256 
0.02341687866767796 -0.1139457689764313 -0.3242230939240152 -0.1069460086157099 -0.4069030703527491 0.1348340662136819 0.05723406216821068 -0.07821514856356546 -0.03774673560738834 -0.109396406638373 -0.09333856970991306 -0.2971896348472218 0.0289166533764558 -0.08122402477918331 -0.4766704224260039 -0.2588762056500233 -0.1088676167396618 0.08834640484757411 -0.04180713614241607 -0.02980679107821561 0.1422620174248735 -0.113040275277635 -0.1492182874022629 0.08013537449528502 -0.04490199028157837 0.1022768183535878 
-0.08920033805875356 -0.3960167094787341 -0.1705262397592721 0.04005945533408615 0.05862214630687088 0.1797474329818172 -0.03851338831464583 -0.1792498765705291 0.04189247401413429 -0.7964532572013793 -0.1977864992674707 -0.3944862132132761 -0.05393847694333737 -0.2474698223693596 0.07759374970958396 -0.2551264129509233 0.18031946593252 -0.02703669833642758 -0.07428295179754024 0.03291174089703559 0.2087020362674269 -0.3314897794681976 -0.2084496414811242 -0.1062795825986839 -0.02167642296582133 -0.1222475566198589 
0.06937396097319173 0.1138761272360073 0.06251540013855668 -0.002880588309095724 0.000923247463720106 -0.03914617596323807 0.05719231484362836 -0.02117129825817713 0.06393530828874266 0.1419991435335188 0.2288739670212249 -0.2968034253141214 0.01970697187770434 -0.1798099515586203 -0.03133244049633183 -0.1301689059139023 0.05382756956752393 -0.02705393382352278 -0.02072876528197472 0.05496645175117512 -0.5635430566979284 -0.07233342526109519 -0.1773929525780051 -0.008469885014386523 -0.1554953513757988 0.495980192029069 
-0.07042048408335647 0.02983865700122594 0.002191843075274404 -0.04942048982041027 -0.1847691190820605 0.04344819967549847 -0.05022933697977715 0.03989164739066328 -0.1621585622796342 -0.04578719092822575 -0.06534487209556322 -0.1666980394625435 -0.1144032102240238 -0.1096812499939099 -0.1535813967512153 -0.0160780238102728 -0.02165008236620406 -0.003465224403866134 0.05424534066497093 0.04057256399472207 -0.3465878872402841 0.08678730902035729 -0.1442363731074894 -0.1837324938954771 0.005164686190168289 -0.2744000286247105 
-0.08971509717422357 0.06807592074477312 -0.004964652467902175 -0.02480316985799672 -0.448255312602481 -0.1496334039407953 -0.08225604900739315 0.04352172123993546 -0.1818964858887797 0.002534309184208453 -0.1759885330928566 -0.210032980105609 -0.03305966323834181 -0.09541961879764667 -0.2032893615180253 0.01396549472645039 0.08673566041404475 -0.06540786837525117 0.00830999961098524 -0.06345467512117757 -0.3734990155245271 0.07666519745421708 -0.02374188960166655 -0.2163381230782926 0.09832244074259745 -0.2775578058632176 
-0.1044033420939658 0.05373561778702919 -0.09474684152334713 -0.03920051671709345 0.009718712508608895 -0.232015721923669 -0.08250578543787947 0.0178646080582801 -0.231627139604218 0.004173469219498366 -0.09981278517806955 -0.1829179785937008 -0.01340229226335428 -0.04082710200245251 -0.009635828196097995 0.1826372382900598 -0.04953828753983899 0.001269237149733669 0.06686325412262825 -0.2278910051055689 -0.3100727175934366 -0.01576636231846949 0.1191825466388199 -0.1131806253785212 -0.03095626197700762 -0.4165490087238674 
0.03939282941086514 -0.01253342913127623 -0.1249708346034055 -0.07481946389168467 0.06334953691244018 -0.445221798600054 0.05129544050143363 0.1152045789799723 -0.1082766092590856 0.02275073314360639 -0.08755838946116631 -0.1921443767476325 -0.02468148504557788 -0.05112050856401984 -0.06449588179565428 -0.08910058485394985 -0.1245404559369371 -0.1110398617320866 -0.07986179853628297 -0.1236990703542492 -0.1023950673081464 0.01383463831826907 -0.02524323812716533 -0.165916492824646 -0.01383257926461826 -0.2404963673289359 
0.02852117599578565 -0.02527718448485488 -0.06209452283427699 0.06946668641812218 -0.5100707362072132 0.004141524645784732 0.01565233622368028 -0.03565467257092575 -0.07106875020368005 -0.0465944707591536 -0.0161748976046221 -0.3593493517289665 0.04019223657290817 0.006897433698753163 -0.2174746346646778 0.007990613036080233 -0.05077754620789438 0.05359161940142124 0.01507498106813713 -0.2243060007733104 0.2712693412777657 -0.006960636510491003 -0.07901857893340206 0.0004570110898009785 -0.0453299843450601 0.08124595879061249 
0.03387659365391744 -0.2618391331018455 -0.02115878982225496 -0.06065178046575084 -0.1509636727167755 0.07031242855544212 0.07516550763296635 -0.2050018682849654 -0.01113050935291349 -0.1195234456556327 -0.0283839976836717 -0.7170453982971957 0.006408693514487092 -0.1497648646071804 -0.09329487061608217 0.03446607787462154 0.05405731288471759 0.005721619875608298 -0.05721721838915748 -0.06195925088121007 0.2296758199118044 0.04484039717693505 -0.1097939194774953 -0.05592271837282607 0.02592462205535442 -0.517045440893397 
0.1104296981337538 -0.2697709026968475 -0.03222036010069726 -0.1633317648334315 -0.1812441676396811 0.2486146530766846 -0.1222086767507006 -0.102602340872513 -0.02796122094640243 -1.006589844331816 0.08692527523377865 -0.6001634942442904 0.05885612924667098 -0.3879175488922846 -0.2542428292851122 -0.2699778887410871 0.2131370936202057 0.05883478735558458 0.02343716948696675 -0.206390430591331 0.1491473867432416 -0.3694508937074624 -0.2048483954112481 -0.1934371808143158 0.01056334865779876 -0.1279679105308447 
-0.008174348071663572 -0.03967464223313882 -0.1187985306316648 0.06348056553452468 0.1528956065618318 0.09857736696153284 0.1803605135893542 0.05052749527093923 -0.01803195826607989 0.07932321964806578 0.08331273960041047 -0.052697369796307 -0.05750908403320343 -0.1389669613034089 0.1237754840982516 -0.02243497591197153 -0.09653044130553318 0.0295282239069059 -0.06454970075374127 -0.09033586906896275 0.2084970511028326 0.01576460921432355 -0.1483089120531024 -0.1352538998347535 0.004445148914432318 0.8593788804508242 
-0.001070658855275189 0.09757671172751603 -0.1049088511379643 -3.373219506977053e-05 -0.1592749798759601 -0.02625341193845834 0.1137628739220121 0.09124671058628095 0.02102369532191115 0.04685977699448813 0.02713068972006357 -0.1907760614398511 -0.06036687960122084 -0.0966996398179344 -0.09726313488083942 0.1513708932900612 0.09854981051756183 -0.118867329030976 0.009628371089984362 -0.08750307112253874 -0.1164620749377015 -0.04278218264083261 -0.1125322345440303 0.001322327197012764 0.1517097291494485 -0.4281774116714757 
-0.1380905794419686 0.06657765038009447 0.03777450057823527 0.01008477010407557 -0.5030028285786863 -0.07024773655328656 -0.02721992332847067 0.02873088456256091 -0.2425791824182013 -0.06582287306383833 -0.0723033307742173 -0.1545959500317713 0.02876037874110547 -0.08414440186979602 -0.01200997701421978 -0.07075525126347532 -0.0115887991029041 -0.00527194205789382 0.04631272713364133 -0.07626931879650839 -0.1540250597215374 0.0235589007850329 0.06487022319258343 -0.07531570315649855 0.04839790242103924 -0.5025488750264242 
-0.1570821256445808 0.04418093370934774 -0.04389733680288661 -0.05881853783319835 -0.1127729821640592 -0.4654983245436396 -0.1012564917882928 0.07118453486417281 -0.2150890546048733 -0.1304060821763174 -0.347227726024322 -0.2856003674877099 -0.06993581014069705 -0.03561278689859811 -0.01806722608006105 -0.1063116267223021 -0.04775527682987019 -0.09169514765213739 -0.05128401142711796 -0.1883087414837532 -0.07324066371718087 -0.01765083806040026 0.004441796711515683 -0.2075147622099676 0.07313660112895794 -0.4034038327297995 
-0.08661398158476186 0.03425444590044018 -0.02130822044217526 -0.02479403091590408 -0.249856819304131 -0.5539684857106554 0.03831461870987779 0.05527933296880025 -0.2326438843938078 -0.1207858631216902 -0.09696559960720584 -0.3522670056063807 0.02945955789667903 -0.06534438282035321 -0.1228295759957521 -0.2500427944593999 -0.1155687814940496 0.03656083493595147 0.02557447178235815 -0.1749634027984383 0.02788241325248755 -0.1206825923164001 0.05715986625044643 -0.05681736411362279 -0.08473172580177028 -0.2109638881964579 
-0.0721817764749403 -0.03362911267252123 0.01561148248480186 0.07373498562784152 -0.3806109888167553 0.04921814351251537 0.1829172031952448 0.03680929312471658 -0.06888767658780405 -0.1497952533364374 -0.02677779678976311 -0.3270916586486141 0.02160693044003806 -0.06665628596088996 -0.1468418892954098 -0.02924181259084008 -0.02784203124210023 -0.04013256518196733 -0.0695759100874031 -0.1335207524609212 0.01403113897616555 -0.08570145333174638 -0.02744541901794074 -0.09184889043703112 -0.1395888673128596 -0.3027311710549849 
0.01997203161090156 -0.1624570486962813 0.007281230400561552 0.06784657461385062 -0.1956764229062694 0.04252340786829375 0.06054142196893457 -0.1328617108459874 0.03229421422568457 -0.02859172626092637 0.01786718958848471 -0.8748993698058832 0.02563176525988426 -0.1225443917496455 -0.2811254515436619 -0.1049192591983308 0.2031382008314503 0.1147287306267074 0.09252969362084769 -0.1131567083275208 0.08472238265137333 0.01896825401360008 -0.1882649812860812 0.08649604385772633 0.06758048225995729 -0.04772930564684268 
0.1198063328724691 -0.3164881461057944 -0.06210572364489547 -0.2526689054679436 0.0590303606421958 0.2825387871982539 -0.158376390136448 -0.04527945235596866 -0.07453567143870406 -0.9815204231593049 -0.08955024751672445 -0.6246175719544812 0.01060526198489202 -0.1965647075839326 -0.06592860757652842 0.1286224219531221 0.2137945112412455 0.09149247998375795 -0.008331620648278526 -0.1028619161863831 0.3203320827158344 -0.247904739322468 -0.1309830712428516 -0.2212994953152371 0.06818261360036916 0.3212369360526806 
-0.05028389832807054 0.1321861600929989 -0.1269967679938881 0.0945182107084238 0.008677887483898115 0.03115230278978009 0.1034144201972982 0.146037287353853 -0.03985027220573206 -0.028040594085828 0.08485411369957009 -0.2031645274260916 -0.2092650445741031 -0.2045407395100219 -0.1215975244997845 -0.1419132409638846 -0.1436168812020135 -0.1129789105330883 -0.0109405788565852 0.03575635034768523 0.04777622293016583 -0.4740203410605545 -0.2548972601290593 -0.0507453055561001 0.03483725246911349 -0.3131560144133497 
-0.1590482929438513 0.04002008414627124 -0.03543637068960225 -0.08475227335265237 0.002349257270321557 -0.07011802488015197 0.1457110696647894 0.01280384455817747 0.04494767351633908 -0.09189831200357657 -0.03400467138205585 -0.01634881564576256 0.03903645203605032 -0.09588273372800415 0.001481100395567196 0.01306443265452548 0.09901983233887728 0.0475951044613976 0.0172005916012772 -0.003857914027002644 0.1035455201616535 -0.1753793642542357 -0.04328158907282431 -0.162023246160528 0.1197407744345061 0.1228557736039435 
0.0207928335574787 0.05199546769052315 0.0005663299936653141 0.02659296411779799 -0.3853499681820974 -0.1361904131597337 -0.07455956744221884 0.1234408300170157 -0.09201065712543509 -0.1094336249778756 -0.1958729421139391 -0.2142846816670932 0.03933824719554222 -0.009140308302881487 -0.04649951486656393 -0.04861647575995479 0.01663450700618222 -0.0196274631738405 -0.04078008564556016 -0.1473886652012718 -0.0609702141867882 -0.2690044491865244 -0.06335047538947537 -0.06464404503698495 0.06809754642050665 0.03653605406062574 
-0.1769471743359225 -0.000861251015970288 -0.03648343067652098 -0.05413009869304473 -0.5542521988916932 -0.5618152786500753 -0.04665392139728837 0.1324333593862892 -0.1284793484582299 -0.09040099938691142 -0.1975836434802632 -0.2120095165230033 -0.05284651523145293 -0.07843423732111791 -0.006358768610310719 -0.1488057553181408 0.02192828136907074 -0.1212317826697825 -0.146551630541764 -0.1609450165696794 -0.2335331945351584 -0.1124100084328519 -0.002367118987176176 -0.08603579077235902 -0.04530903067713207 -1.117482047821822 
-0.1696881726742936 -0.04012684034807021 -0.06754576522769179 -0.03058234795436779 -0.5585566268490526 -0.3851722921889605 0.00668118945985105 0.08806699087588792 -0.1715976050504067 -0.1498605876004045 -0.2681286656042462 -0.1001150475502865 -0.03970453508280717 -0.03373348168332044 -0.04484399952509714 -0.01732216228273871 -0.1448718033831075 -0.1160665763532068 -0.07232623957566987 -0.1901795059998527 -0.06066416390622348 -0.03817536648574231 -0.05009195075226848 -0.1432285941262347 -0.1302198551778168 -0.7108271270050294 
-0.1775187486007501 0.01091811273042451 0.06096647094024103 -0.02648850159187703 -0.03303746248025817 -0.1697412814843236 0.006022014736110148 0.04410418906267161 -0.1064126729667488 -0.1143331841193255 -0.0912773980239477 -0.1741242416373829 0.1113360441334671 -0.01559803727041925 -0.1254163245552829 -0.2325357942397321 0.0372296078015317 0.07683407134109266 0.06548793310632585 -0.1744762971960613 -0.01878577746166274 -0.065262211639426 0.007912421370193067 -0.1285464316972523 -0.2767995444338184 0.03287107011788155 
0.05009802912044269 -0.09664093590508745 0.04258456129215039 0.07714400002783786 -0.04261406158244178 0.1049052020858428 0.08568446769666969 0.1430800313919044 -0.08569093116056178 -0.35401062228775 -0.1016600277682069 0.1142525408155462 0.04113162689998307 -0.1507216937236442 -0.139649649200999 0.008676871144585926 0.05368900132861942 -0.003167780281136463 0.01924517435424441 -0.1015681311131046 0.118603840085677 -0.403989538146505 -0.03239649416872153 -0.3335635860675886 0.05310397751761291 0.3285247434474055 
0.158814385995431 -0.06648240047349789 0.05139658562800917 -0.1678036487704515 -0.03168710447662114 0.1135799379335349 0.08546013598439717 -0.08892211175400191 0.01715884874645217 -0.4772592153098318 -0.09096724809997342 -0.6256012716295762 0.01071491240061932 0.02999837967830812 -0.2954834679274503 -0.3082965991534106 0.08242041505704975 0.1050394153492396 0.07853330582239955 -0.104573747993723 -0.03635665462257756 -0.02761604259518756 -0.231441491108347 0.04352451569242323 0.1049545500489678 -0.3820228442617166 
0.04832544075913991 0.05899353742489855 -0.1558406524190166 0.008985912676954082 -0.04392686360239649 0.06114615435077723 0.2195717775004977 -0.1020129501723545 -0.04350566593245829 -0.04362302734016898 0.02938383556066539 -0.234671914547876 -0.103992468341973 -0.2925971699103095 0.04028987145120937 -0.4407408741304298 0.01929420705942927 0.005390929001463859 -0.1483979662549562 -0.02976956320416253 0.09147133022060949 -0.2177443383851511 -0.04226305305300179 -0.1729647772104512 0.1474720586702069 0.1462580869507816 
0.03768852791585377 0.1222733722103444 0.0002951192651864804 0.1281339422961727 -0.1193306155303702 -0.05823090592770031 0.05070860358411369 0.0969250495461276 -0.05010884557397519 -0.09426318997056787 -0.1326916539542212 -0.2016130734875922 0.00195233331576929 -0.1438313192697852 0.01159734274963784 0.3514521758927996 0.04200282238736649 -0.009671357448197734 -0.05532587562080919 -0.1113759040776257 -0.001078618676894412 -0.3382956683035715 -0.1018388895560782 -0.06485162646723874 0.07855849866688024 -0.1244800881272126 
-0.05811314787736035 0.02013564941760131 -0.08370873101160548 -0.04294793425445645 -1.240448253898088 -0.0537891653105925 0.03818611281895427 0.09617990040726596 -0.1112555859319385 -0.03078239334709202 -0.1912987011738413 -0.08762858441710429 0.0153110561140883 -0.05100615522266897 -0.1519863065380977 -0.1377566324764675 0.1469589860077564 -0.09220150101827998 -0.1042993437318144 -0.02273998595078652 -0.03347201303216868 -0.2281605844842971 -0.04499765932763156 -0.1760913575465908 0.1004606146491723 -0.08094030391641786 
-0.2248406182272918 -0.04933324244721278 0.01563851745557047 0.0239289715009944 -0.188622006781733 -1.215233957979061 -0.1149449984490682 0.1100007011938695 -0.1007265876745671 -0.1717507382955403 -0.05416331518646231 -0.1625997100860241 0.01882087899377148 -0.01441582595162966 -0.02952261199773791 -0.2966031751481779 -0.1040022348432414 -0.01450164034572024 -0.03455335653381254 -0.1095552656433496 -0.002509060252317959 -0.09672378852824259 -0.08807495657772602 -0.09851501938433489 0.03561593142528167 -0.3740542687660414 
-0.2083705046320251 0.07024561088380878 0.05339837376315176 -0.05111793855024879 -0.09236488550865422 -0.129816142635881 -0.02018457378902111 0.1118413202668498 -0.04576499133881463 -0.2168521776830274 -0.5052869388535404 -0.1846746964264379 -0.04534393973644399 -0.05293819566793676 -0.08742180160673661 -0.07262262409404679 0.006621210831148232 -0.1286389830141683 -0.07418148901485151 -0.1515384059703303 -0.2927438553750701 -0.1508024204709002 0.03665128801538123 -0.1977944527489231 -0.3917506457732547 -0.702975390672581 
-0.2565080860968507 -0.03814229975945219 -0.001352569249677748 -0.06097949009729611 0.06962241530714827 -0.1065887253853369 0.1807282433147042 0.05512487089258439 -0.09005947826898297 -0.08176179430913166 0.02437127603496798 -0.481384728402022 -0.0006974252930179031 0.01238890262738209 -0.1883180063377402 -0.2201406224582469 0.01456283459977211 -0.08778404359319698 -0.08231725020372678 -0.2306785166010877 -0.01033399318909154 -0.274625369144945 0.02624937554717112 -0.03375731374489076 -0.2664127192879128 -0.4519028566501737 
0.04353841556728893 -0.120367219568299 0.08420360025124671 -0.009153294108303473 -0.3537507963476739 -0.05522724807629836 0.04305336641772627 -0.1098679880682016 0.0606346646695029 -0.261642816492245 0.05773795067464098 -0.04741817490472357 0.02795306687154628 0.01400407376584537 -0.1411878593889773 -0.1863737638778291 0.05564280529615298 0.07927623966620487 0.08792055828561358 -0.2185931166189829 -0.1972670249169179 -0.08400923230228477 0.03414427812862029 -0.1017461175304049 0.1247616188823074 -0.2714696579817799 
0.1531863517112965 -0.0539862198338508 0.02347336072545349 -0.2659135796665775 0.1014220372062563 0.1207773273355189 0.03956920202352488 0.1050996650732616 0.0297613571803037 -0.5714925572485576 -0.1389251491574679 -0.1566458347250543 0.1320293835236681 -0.03376156397722095 -0.2697112939948537 -1.450178535015765 -0.03479241422791957 -0.1979941809586099 -0.1086171545469727 -0.1280436186038137 -0.1395857685524733 -0.3061987802052948 -0.2000334888911945 -0.1707392513612891 0.1114053720376891 0.4925995515101076 
0.1111302403613855 0.4497751047799706 -0.1041201453093242 0.2041539204973408 0.2823786251085443 0.0250035700559265 0.1283133797370112 -0.03576844371396649 -0.02610609330080394 -0.1127770167917994 -0.400438881825863 -0.05513883685642882 -0.1116662098768698 -0.2729616155010452 0.1126883477030734 1.378101417244602 0.1770976202638529 -0.1790252288891438 -0.02248421716191552 -0.02629075083269915 -0.05289159781054219 -0.4846209717514137 -0.1006456238629755 -0.1703122533314919 0.09465990030610114 -0.4667246166338931 
-0.1019361269893033 -0.07348236226311922 -0.04104198888532493 0.008274072410385171 0.1645708282867751 0.07824145688315552 0.1253558784553285 -0.1046944175614007 0.02895621156212799 -0.04890469912137956 -0.001259462029177524 -0.1316505051096582 0.02066188253425192 -0.04306984886778302 -0.1362369283683617 0.2310025806111926 0.0209150793509523 -0.09183118505197638 0.03704695879152376 -0.03978981676513171 -0.0004372574943027133 -0.2146430653470095 -0.197777196334757 -0.1991017583720919 0.06837415336820131 0.2617692587961631 
-0.05911399228354611 0.007930995946572959 0.03679651013081628 0.08136659202675978 -0.7860106680333115 -0.03633708615668373 0.051251466312595 -0.04834462562932484 0.03645618604681369 -0.1233232488373898 -0.07343029358261377 -0.09857728828758393 -0.02162574969513575 -0.1211611935954179 0.1827285783371457 -1.202598185980451 0.1323917662434231 -0.09682513529748545 0.02953407728386023 -0.05461216273746476 0.02372989699808085 -0.4745936285290396 -0.07804705648473083 -0.1348553474288229 0.09040140091464249 -0.08215430065671668 
-0.1208454288658272 0.01328001393160472 -0.04024023437986186 -0.09198256274406702 -0.6168230696953787 -1.394775397337686 0.008700793670395834 0.1070707143664093 0.02194145153985112 -0.2431568118683732 -0.3530235235473358 -0.1379079284958374 0.01636367915313232 -0.01164835731885915 -0.08108183373031755 -0.551350415119876 0.06067508255144789 -0.1014514906898349 -0.266830966096568 -0.06635179474628911 -0.04233938137461852 -0.1989808814579701 0.02629187805120936 -0.1317794064553947 0.07515852799835097 0.6623642646011826 
-0.4596358114584461 -0.04726524163521961 -0.1691225518075739 -0.05885044006193161 0.1306326053812256 -0.368665168786344 -0.02910018304302329 0.04228764073390991 -0.07501407444630434 -0.062829739770911 -0.2411119643398343 -0.3303679703855663 -0.05623858490525084 0.01011919931909031 -0.03785640189382231 -0.7028652626579753 0.05878823584919127 0.01950001542729519 -0.2843896232249977 -0.04224728741072031 -0.03217942486374787 -0.3271999696455132 0.02355147192310604 0.01259122541525269 -0.9304881142351571 0.5511705509328622 
-0.2132821989392351 -0.1573201084752932 0.04245208453645341 0.0001666710156020723 -0.7615159614559391 0.04165355580388243 -0.0301891603423526 0.07711373757353127 -0.1686447052520111 -0.1423532404436321 -0.03212394492570888 0.06772307147479453 0.05049821227942811 -0.06232083511617495 -0.007037360912117006 -0.3531065500618203 0.05546950293597358 -0.1011754496041862 -0.1037653585904733 -0.1147041460069587 -0.1986241548795667 -0.1311276079114116 0.004853443544867345 -0.2550103966447915 -0.09082872502093225 -0.03281846913179726 
-0.3120754909542504 0.02611938895133204 0.0172894840839296 -0.1547032292872056 0.603113241522616 0.07690310794426819 0.09536171347932763 -0.03967168056674442 -0.02120283601163483 -0.1004366519233352 -0.2592665490561522 -0.4482011395360856 0.08494154382519707 0.005573179573268238 -0.08610475748675095 -0.4612717798043638 0.03149598302046444 -0.02644517336521896 -0.2201591573035428 -0.2631473679364932 0.005756928635249091 -0.3472445286567384 0.07945497774908523 -0.0577770576124702 0.166211993467396 0.05076390418514828 
0.04115515874300395 0.07247729290541886 0.1324133155504655 -0.05983310807971522 -0.3230674634628304 -0.1068246608070784 0.09582904790784803 0.07587404264034331 -0.05494123647351489 -0.4901697416443451 0.05072995859359377 -0.1252252762462535 -0.05565189783546473 0.3315597500743409 -0.05557783765880706 -0.4598539229172756 -0.1708419581969346 -0.1372938254733076 -0.1308766793317813 -0.1793739575665063 -0.04115049650892304 -0.8741751446236604 0.01626959374911609 0.1529052998975838 0.2095083948765226 -0.1390076527949399 
-0.03963060750769531 0.3186298930944672 -0.1094045711273101 0.03725580438441103 1.14275271614387 0.09156209906076576 0.1380646429998547 0.06614451635490946 0.009760297655663223 -0.2038875509468915 -0.1018614468115247 -0.02876087536467541 -0.2723720018504164 -0.2446324432270989 0.1206017915381395 -1.689780085310387 0.2929520379529355 -0.08929094665557637 0.003377567929255129 0.08812331856895489 0.226659188855447 -0.7086477819879557 -0.6833181119806676 -0.1306012448469806 -0.04313189832822586 -0.4925344482931133 
0.00236329377962315 0.4118926587420424 -0.2233015496263051 0.1882888663426734 -0.4929725025412285 -0.02175234421789628 0.19723705680443 -0.02311523860235867 0.01277901725267004 -0.2140262317598185 -0.3445955010591787 -0.1897682323069268 -0.05851034809921864 -0.3744774547851805 0.3066450382584224 -1.42356095151288 0.4086945848430468 -0.1897806727942825 -0.0732628812252413 -0.01071429392034394 0.09477254494269371 -0.5786899711881385 -0.1671947383130808 -0.07926543976064543 0.2807048296227967 -0.2257308983234122 
-0.2249206966148052 -0.02882847484164107 -0.07743037402112078 0.02371864374981164 -0.02987504540266138 -0.2597868329342425 0.1820122579960594 0.02815590223433394 0.04869391952927871 -0.3207943919810795 -0.2736774661731941 -0.2552320310025653 -0.03696577861686423 -0.3001894726952005 -0.01737869720724166 -0.1901642768412505 0.276788139879764 -0.08208004838812361 -0.1816466149838609 -0.01618750556255871 0.05973431609657733 -0.2676862185776988 -0.2265601978815802 -0.1081101350876624 -0.03575883775195645 0.7471755908448667 
-0.2979261608894667 -0.3002586904130412 -0.009417086539020767 0.01483108429393152 -0.3888023222175165 -0.6730131387940964 0.1446541134297189 -0.1091041467863317 0.07360147872216158 -0.1834401131993517 -0.1045998380509468 -0.2871468916035055 -0.007770060078773389 -0.05556973649037072 -0.01419664306161046 -0.5513504151198774 0.2728065091153786 0.07627058015689493 -0.01606584902226971 0.07454519280899782 0.004688099271310852 -0.4898929284264636 -0.1525393940584926 -0.1111923954059858 -0.600581617055498 0.4513144578414748 
-0.2778062089145533 -0.4258358550239276 0.001223402903513282 -0.02116101684348697 -1.09036369642836 -0.6626044459523334 -0.04463543934321411 0.03838393658051379 -0.01208210283779497 -0.2079269455122811 -0.8321744678692099 -0.2178327861012369 0.04910585209894941 -0.2518405367155502 0.04437743011130232 -0.4385308662853947 0.1887368208967092 0.1066928721371215 -0.04695968366102248 0.051492186608788 -0.07223099778456721 -0.2936319593544471 0.05132044867426276 -0.1803634397685162 -1.279799861714524 0.3968053608708421 
-0.3427206523521568 -0.1188691035966966 -0.04648402225098151 -0.1527135310464131 0.4489886750882308 -0.3544132060437116 -0.08907800067434818 -0.05882393338976391 -0.07753747636255415 -0.1385631189395467 -1.215706035408879 -0.3636338289870212 0.1407908297265516 0.09438525045900761 0.1268825258125637 -0.3510879175339304 0.03163659070240762 0.07597173136614241 -0.06438959474623997 -0.1130528278361429 -0.1675181245544386 -0.3892960462865392 -0.07441357810084839 -0.07799303978226436 0.5197077490481754 0.4204565458783058 
-0.2215767425846717 -0.08753255233353839 0.05976349621196935 -0.2036826107422012 -0.6838727822787982 -0.178292332748621 0.03971236009768086 0.06195681236028476 -0.02469003671354918 -0.18584411065924 -0.542747464725833 -0.5720270782092672 0.3030960996177759 0.1716761905975495 0.1707417707568333 -0.4320134499131448 -0.1047672681843903 -0.38978050225995 -0.1964733699520803 -0.00628463564183545 -0.2433314569907957 -0.2216969882886729 -0.1622671825221917 -0.06408052315511339 0.2604200972308203 0.3693726297984913 
0.09509510314768654 -0.03217004057566825 0.4048879546747068 -0.2600633102049175 -0.4345107869158934 -0.1572254373352302 0.4502786406630884 0.07646212847857684 0.04590635656058143 -0.4012950527962049 -0.6645385334813754 -0.07114159692266953 0.3564550956456538 0.1856365878658235 -0.1339249482039374 -0.4161885208702932 -0.6355126970046791 -0.1289592795125919 0.1248608456062813 -0.2244420340788886 -0.1949718191555358 0.01356810409587786 -0.7311184197749755 -0.1248269098248898 0.3231300612791133 -1.061225674801018 
