solver_type L2R_L2LOSS_SVC_DUAL
nr_class 26
label 1 11 5 15 13 14 4 9 7 18 24 16 3 20 12 23 2 21 26 25 19 6 22 17 8 10
nr_feature 128
bias -1
w
-0.5761933784935961 0.006095529875440271 -0.9231530218804549 0.228305907777382 -2.42050804703916 -0.02322128693094522 -0.9767748685142834 0.1653107082766937 -0.3233525954257017 0.1035581213512764 0.03959791356999876 -0.01310889516164579 -1.341148378546431 -0.3007959510298368 0.2972406733904263 -0.2831236645131492 0.1275753924474621 -0.2131295396014043 -0.1625163103878323 0.1767303255732957 -0.5160488476471716 -0.5113129953555224 -0.08285625309949955 0.006894666503444985 -0.3257421622589475 0.6010547898382994 
-0.4210859057292625 -0.1695358015042954 -0.6609683617715438 -0.1302544342918942 -1.35392514600312 -0.5478939602277786 -0.8607806261926203 0.7087581729168693 -0.2561665088674223 0.006517365393086495 -0.009732449540442917 0.1369408396588875 -1.130236609621602 -0.4140825715738913 -0.2711646100060784 -0.1134932591728683 -0.3935526923818359 -0.2431909692749213 -0.221719398751822 0.04590351016630634 -0.4921353211314218 0.09207988039725085 -0.6844180411017312 -0.06134062891767124 -0.501410235429997 -0.7815753492124016 
-0.2998921864422388 -0.145269004962067 -0.2264946520989375 -0.2694519149373416 -1.179212870793073 -0.3601761902419482 -1.108983463807747 0.3607429957645233 -0.2191522050024838 -0.278819109943566 -0.04892981529843585 0.2573476593732419 -0.7798000382498772 -0.5578906976772056 0.04395921608733672 -0.3448996752796685 -0.5261944829921095 -0.8246314471256859 -0.3704626202775703 -0.08457576513670834 -0.2098867598073251 -0.156092562637969 -1.60770746106532 0.02658013036915565 -0.4349809508636777 -0.5232199275158574 
0.009088673142482337 -0.3957529317306344 -0.1825565206134658 -0.1187235728634199 -0.3563424685599219 0.08708107276113815 -0.7807208933474489 0.2891121066237998 -0.08382662363910055 -0.01196179713125342 -0.2443693424103721 0.2025527809770021 -0.1881712724667224 -0.4422653528021929 -0.4217314735943203 -0.5508649462506465 -0.9889355480297417 -1.044074073745243 -0.3639685445897224 -0.4757679493234435 -0.1419721379306547 0.1160479571465537 -2.049252806042593 0.03246922216666831 -0.0540497335887582 -0.2001633098116038 
-0.07930607964446149 -0.564864890964053 -0.245196578666555 -0.1201936800688951 -1.921617397928335 0.04502528732216833 -0.6686835849704866 0.2690012789283497 -0.07071561374603433 0.2060668263580303 -0.1695514716963466 0.2510817086037063 -0.04796066422935674 -0.432705630191388 -0.182034490797914 -0.5517084030572108 -0.8959132187179756 -0.8383901368159078 -0.4581511130946752 -0.1738892918753836 -0.1280957203747848 0.05179198888485011 -1.315424443401925 -0.02372863837800274 -0.2133811810513526 -0.5079505341539636 
-0.2837491531262167 -1.029027402115726 -0.2093809288062303 -0.4974615704447591 -0.7487090533970205 -0.2564846551788437 -0.7401095917961242 0.1378453955385964 -0.175120106426396 -0.1954225464207394 -0.2710162467123942 0.2828334190893533 -0.4117173799860009 0.04741429002174221 -0.300720583011128 -0.3388264123040794 -1.278623688306984 -0.6701628709402524 -0.7397434258605111 -0.4008911801946333 -0.06055672865745122 0.1833889250552911 -0.6768510461992376 -0.07921633049501234 -1.024527203632593 -0.7267473718950535 
-0.2715209536049822 -1.006196788773193 0.100624693455568 -0.2737132395409897 -1.159609077192022 -0.2480530802196723 -0.7065434600567156 0.09382558906138122 -0.1035801624788923 -0.1100208219161083 -0.08403275183680081 0.1263019129146493 -0.1923642480797396 -0.005752898634044589 -0.6614248804514039 -1.365502776821146 -1.221595790819268 -0.287620553812292 -0.7705994704669968 0.1688847711628798 0.04572470113891807 0.4830540389849124 -0.1060414558616194 -0.01074129029007874 -0.6374222544570431 -0.09136457715235227 
-0.215713485093664 -1.424176660182466 0.08636653098665564 -0.2895190322295115 -1.527589708476914 -0.3077187207317463 -0.4451486868210581 0.3265383055347461 -0.1924577324754902 -0.01438279499865966 -0.004267994511155518 -0.1888126565666616 0.11278055578017 0.4243296133273792 -0.3709458696645203 -1.867456949663675 -1.335041984628582 -0.1072658038804264 -0.5282552931463135 0.1102123595860093 -0.1273964804405235 0.4762424390388998 0.4415644410933661 -0.141144979080519 0.07256365926558771 0.6342509947485436 
-0.4468351657145938 -0.1242874075354392 -0.03021747976646937 0.02158677717168964 -0.1204902831364594 -0.612367179141275 -0.4666204590261106 0.2408708609646852 0.1046068019527944 0.03928773577559887 -0.175402567050894 0.1756738063806491 -0.128337174096972 -0.2751917333222283 -0.136962294278579 0.366048663856625 -0.150595751211322 -0.4786415677753412 0.06458261559582501 0.1784767526571168 -0.1272466492683683 -0.09165105657324248 -0.1030015154462284 -0.08573245510502628 -0.1805498272610158 -0.2421445153205353 
-0.08782845758745525 -0.1075528382568038 0.002280343329940634 0.07918706604078994 -0.4995382868630162 -0.08392209816896026 -0.4032578409439835 -0.04668826292919606 0.2148059794098218 -0.2098205290963066 -0.09597582212978363 0.4006239302039971 0.2125944849772249 -0.3411316684664132 0.12150095000847 -0.01202228965717354 -0.1299508682164528 0.08687637274001103 -0.0803431365622032 0.3039687587557006 -0.03366545035256718 0.0420320002593424 -0.05292482536686639 0.06751092225338814 0.01165919778327257 -0.2359097088289663 
0.08505459660348125 0.05278602304478078 -0.09705232236430007 0.2637946801977836 0.02685232071651547 -0.12517809411543 -0.1105270775999776 0.3284167178065429 0.005985739523062486 -0.1108839700075578 -0.1591158887750955 0.01913922195880359 0.1206971098787038 0.08734302828718656 -0.01372382277832387 -0.2684238975986729 -0.3385410916534483 -0.08808590719235904 -0.06689409184143119 0.1440080779818264 0.04457540423309377 0.004926658247729154 -0.8914508177974818 0.1107631142292915 -0.3428209114298219 -0.2060213759392908 
-0.1681843375060601 -0.188525986660226 0.09616731429357291 -0.05507144428968103 -0.08267685935043181 -0.1073577218199747 -0.06729497932594264 0.2093151583393712 0.002527782260679026 -0.0780016869402656 0.1413208565354394 0.2291140715419098 -0.1580509598230491 -0.1113560327787724 0.1929086694238793 -0.01202228965717287 -0.1442777539288134 -0.02601961179907731 0.04580233861528127 -0.08292411807330075 -0.04903561335598883 -0.03957307280784286 0.8563377196266628 0.01117390484032665 -0.05161327466602946 -0.4119839825057782 
-0.1560856769190365 -0.380581181212572 -0.1001975659024569 0.136703249160945 -0.1051384364630185 -0.00020105030268254 -0.2992250634605402 0.1433479464638233 -0.1680367279879132 0.07037616618704873 0.2082351479346884 -0.04384756104927612 0.01007422640905505 0.1439766600025747 -0.0990926369835009 -0.7798626165220044 -0.3933881866372996 -0.6432885438561302 0.1010735612099609 0.07303002253142706 -0.1418422100385354 0.03925032974708095 -2.428169765501711 0.0863256627917274 -0.1934456176487014 -0.574162652683025 
0.06409736638717591 -0.04020986655589787 0.02592073797522274 -0.04777832810505873 -0.9009189596424255 -0.1702666437719942 -0.03030616631350491 0.04076437765397606 -0.1623209789904016 0.04801357459893339 -0.1176763582279924 0.2492705304162122 -0.1546988930310113 0.008170676972569971 0.04469764956538015 -0.5480240804047389 -0.09425526460439929 -0.02711082836275789 0.2485538668972814 0.04298919624754671 -0.140964942656161 0.2336418631705994 0.1579269659631259 0.1797229120377887 -0.1795863912214381 -0.1981551248897415 
0.3510772618166547 0.03795870808089998 -0.3588051522513316 -0.03676536015182244 -0.6058407285966645 -0.03051627671841584 -0.2334827177591491 0.04458221852326634 0.1118745427099407 0.1775035828631659 0.1393663588081885 0.3843966535459286 0.07826125635041023 0.2569341665220669 -0.2617215376001723 -1.071464992770624 -0.1259722519479556 0.05540701959528224 0.04020955227382997 0.1372657605559238 0.04343719287236682 0.291997994485921 -0.3632046882944654 -0.0007455417319881461 -0.1483555554807803 -1.029562194487975 
-0.1547989678907628 -0.5532570947952536 0.1626415304369375 -0.3914421840013802 -0.5128744306015917 0.1791321731321471 -0.1134118588323314 -0.1738666957692216 0.1512485407370717 0.06393055114865955 -0.04080022138747613 0.05676074209953513 0.1479935964045774 0.005723746057317475 -0.534967456761931 -1.046123203176466 -0.5959569419487657 0.050061632264436 -0.507734347983951 0.1684698457839007 0.01534582773797644 0.7473415378103967 0.200057994168045 -0.06552006071370188 -0.2028278046451218 0.02906300080145321 
-0.4850603014895856 0.1171713449568504 0.1326086182114574 0.067948583914681 -0.2795266800522187 0.07631521631458457 0.1360132394755116 -0.2297931791634816 0.09143237245295519 0.1568486395887513 0.1016724992359832 0.469111591013431 -0.08541661221284737 0.03661869738796791 0.3354954652292811 -0.3025388247409639 -0.05742018360765937 -0.127127832313067 -0.2387465651967832 0.133321571150967 -0.158170972123621 -0.1886643114909419 -0.1858079274067648 0.2619303734172721 0.1547275136648554 -3.292152558680357 
-0.05146713598690478 0.09705383806713974 -0.1061332499913316 0.05607856719353715 0.02503734684085213 -0.2473146194721531 0.1161641848452685 -0.06540765504458596 0.3059567318517931 0.1735071609610828 -0.003779705322902421 -0.08211177867644384 0.1080203089054381 0.0508562522556425 0.287282145642176 -0.5633304259734616 -0.0795016720291965 0.06971997416459305 0.08373210793812823 0.2179294360254185 0.06055261408447679 0.08664498091473591 -0.03873870075068475 0.258514561298082 0.1860123714517554 -2.413042983718774 
0.007669431131175769 0.04795055900959964 0.106248247256212 0.1358319844062255 -0.2949406609294534 0.06407663577223878 0.02928560836141746 -0.1486776158115632 0.233378527331995 0.09632202516720767 -0.002807688954375623 0.1953830411537079 0.06586229962857357 0.07815593150656341 0.3233142197410027 -0.4902645777164821 -0.09038127202788515 -0.3293983028124021 0.1066457961983312 0.1607946734028131 0.1834758374723446 0.01788146590973655 0.2389981616250154 0.1230417325424545 -0.2894636525899791 -1.012307586465986 
0.09210582806256495 -0.2193558900220316 -0.08457858678236209 0.1514744447733579 -0.2256472818460618 -0.159613451439542 0.07810185770560168 -0.3288459604113342 0.09231689451714178 0.06259770714717217 -0.3227836537316107 0.0446688132382568 0.1588951794340708 -0.0064198647028334 -0.226247151988954 -0.7678403268648296 -0.3647779875551367 -0.3617565050789881 -0.1130331385485956 -0.03756043722409379 -0.02820056219763565 0.2430173362312648 -1.508184002861471 -0.04930508988882026 -0.005970909731137775 -1.175113664588932 
-0.1257315918473659 -0.3820118318075677 0.1545367303476612 0.08746064199392128 -0.1384256940024048 -0.1788250852858574 -0.1508365647439085 0.06058625803275185 0.03478433367525591 -0.1636136149194835 -0.0975892084066565 -0.2382116118255899 -0.2032185355751587 0.1228679576580031 -0.1062401724210159 -0.7798626165220044 -0.1351632356017752 -0.4373763438601456 -0.05049604043675347 0.09432975497949955 -0.01794118420069895 0.1321954762041561 -0.02348192923858284 -0.003067334717364228 -0.2074990235734248 -0.3037892269495294 
-0.1366320643496113 0.08075652969786862 0.03463098554370054 0.09964636725095884 -0.1511696415139278 -0.1121778425150145 -0.06841780468636388 0.1378918644780874 -0.1223583450762185 -0.149432430143452 0.08155000063433299 0.2319439823838806 0.04394564879856322 0.2295399133366932 -0.07497835572030573 0.423317048879958 -0.02739637546964907 -0.1162745000854341 0.002875854059693015 -0.01305621222127163 0.04650535172861872 -0.05183047152485966 0.01992881917119083 0.1574303436440649 -0.2718433752700815 -0.509655882088348 
-0.09794531320540673 -0.03063313581014072 -0.1463453664611194 -0.3011487645515447 -0.06644155490427775 -0.1826059176519642 -0.04488631371092851 -0.2365708362231241 0.1603081265046099 -0.01543284861108002 0.1356984968927254 0.23949841535081 -0.05155826268177272 -0.01703819232756279 -0.1307515378473341 -0.8782496817043296 -0.1967077170459808 -0.0197249962692328 0.09852151103847501 0.1221119713277115 -0.0993652423952751 0.1926022138234134 0.03620349527552243 0.01992173886499058 -0.02579792166291477 -0.8177430724089325 
-0.001670461183725953 -0.5895209628722623 0.0005723117484598139 -0.2674162658341223 -0.07730947826571058 0.02817207797543841 -0.2282582034057992 -0.3578052532915345 0.01694250396128449 -0.2142987552724902 -0.08048562882765332 -0.04920531785907993 -0.2235171286171952 -0.2049465752105804 -0.5053741551392124 -0.1661780735839003 -0.06556266934682589 -0.1678616840214388 -0.2652566495514013 0.1586774119298645 0.2130027357804993 0.265608382238677 0.5010512899167554 -0.1457674023652298 -0.127164685995807 -0.6413508961207708 
0.0006482745271724488 0.1248926000888181 -0.2101939801424594 0.07818716492229751 -0.08694679486965828 0.1241566465885501 -0.1807864729926818 -0.3332099795427429 0.2631216954378713 -0.114069809368005 0.258964882471603 0.0158078394366582 -0.2196799877007189 -0.3326466708773584 0.03768961915327792 -0.04763103820322333 0.1406490603144664 -0.04545846122575065 0.01482026992981975 0.2456021570327155 0.1320971428376561 -0.08839080030113204 0.05647834276204657 0.003682922575325071 0.2700249189020633 1.1748402938321 
0.1643821434366152 0.1037364064087879 -0.06579683355359288 0.1477488501807168 0.05164599698879976 -0.04473166601562234 0.04282267116154197 0.09904284142547393 -0.1661835210501257 -0.06877857240877105 0.04027174965662218 0.1036729229300019 0.2420454027653904 -0.1430143187659835 -0.04191926087403554 -1.208086546868927 -0.259207708255236 0.1788678854435909 0.1596095940599764 0.134794371680929 0.4288762430648423 -0.2304548149869378 0.0766975796138288 0.009914273847136529 -0.07268533801551252 -1.265773240341456 
0.02807538697932929 -0.01278965136209251 -0.1120182332374654 0.1345509684676202 -0.2384723717543357 -0.03136057628949765 -0.2668110665550865 -0.6084583042166012 0.07970018263382288 0.05655471858871067 -0.1043621923663154 0.1034074863075548 0.07346303073265273 0.1216972791013094 -0.1474604198050788 -0.01245959534167752 -0.2357092071692512 -0.1828283303273894 0.05906398400975171 -0.0912738468946392 0.2436445576594049 -0.0301306384101856 -0.0006595545899897512 -0.02123251576665841 0.01275974230783844 0.0185070283604061 
0.1587777881990386 -0.228872486164966 0.09548639375010938 0.3230962754539586 -0.179448538768144 0.0985642596012319 -0.08827748918848297 -0.7049053742875903 0.1036239459215802 0.006357141592430299 0.00943966824940401 -0.02621149313151246 -0.004988961702502834 -0.2217341742423743 0.6178580695830627 -0.3520547516097386 0.1017486475883328 -0.6179231482064428 0.07643280946992873 0.2576592189655301 -0.09797889132155889 0.07749248881411172 -1.185275009784155 -0.03640118810699799 -0.1575246761131322 0.4053926766081336 
0.1852913774370361 -0.1373478187866975 -0.1528562198432552 0.02176284239991695 -0.247089916420496 0.02805154255401082 -0.152064501043895 -0.5875955016805676 0.1147395256553696 0.1710317380916188 -0.08721154968184364 -0.09646330247977299 0.132826204036013 0.1706946747941032 0.2235543688517594 -0.5115005069942643 -0.2194760329230397 -0.2226996599491028 -0.004305943080326508 0.006669388296834194 0.2753902795663644 0.06237367274786364 -0.2002893038354362 -0.06754019025647476 0.02492791515027378 -0.2280840991683415 
-0.01679273461905619 0.2595863137378928 -0.0007823491566825158 0.02537653791004998 -0.3155679626087322 0.05777545965769356 -0.08898660671435829 -0.4645021010315489 -0.03951262696362224 -0.09273062192844531 0.03048451980523299 -0.07203840870816744 -0.1092022248766754 0.2805391503179295 7.42684463889802e-05 -0.05026649669646617 -0.05374185666490455 -0.08984085473462193 -0.0474404458405797 -0.0685014296271704 -0.1462159010813676 -0.02553936697472865 0.219450693455602 0.05550762605526345 0.03167076645778324 0.04638921353355355 
-0.02435162361742372 -0.109982309759466 -0.08834876453430335 0.08683526496836616 0.1849721409277972 -0.04636435106141656 0.07198737301986795 -0.1163515196378893 -0.0386503177548983 -0.2927691300920326 0.1246384025837335 0.4149217567573561 -0.05064081595318595 0.1770497466668523 -0.3327967016318467 0.1925110633691855 0.002676219201028007 0.169859166603804 0.02847393635844604 -0.06350915767438067 0.0366775318136314 0.03783433986972567 0.2795990434152765 0.04493646513791585 -0.2469179178015332 0.4261428603842536 
-0.08562926831700855 -0.7104955139733191 0.176536693327163 -0.4851104010063501 -0.1511056890656076 0.05508988439716141 -0.2466090899644746 -0.1626761603662829 0.1610319610393005 -0.1329247725112601 -0.3346198836645788 0.1815041298412857 -0.2112766713553593 -0.02967951506674562 -0.511419120114471 -0.02060617886801697 -0.2435670330208841 0.005785982114720936 -0.1310985843081087 0.2048237188967367 0.2126267904817109 0.1009146619185725 0.1278907441922411 -0.1304031799158849 0.007642891348151722 -0.3037634207687339 
-0.383927449441282 -0.03598605130600419 -0.08881009801352685 -0.01001938707361054 -0.1211798070296031 0.1634061311832213 -0.1911561190840259 0.3817076467427077 0.2687636112506319 0.1105248971873386 0.2535903453575002 -0.05574754993682927 -0.1804600050155004 -0.04066042440774104 -0.124090560908568 0.03705070739328192 -0.3140050600093909 0.04261543155805259 -0.008759541165523833 0.0439357290449898 -0.06369054578552609 -0.1327480320219785 -0.007051321280324603 0.01313285420149478 0.05068979195547714 -1.696935259635115 
0.1481726915651693 -0.03904938660476896 -0.07004173452862096 0.1902148434908656 0.1777985408521622 -0.172391885949479 -0.1759373642926422 -0.4628919852584585 0.1065884897585151 0.1067370875268024 -0.08765752359265905 -0.02603341451383663 -0.01591181711024902 0.05604852278178489 0.1081088532130723 -0.6603365239770281 -0.145804002654065 -0.2345500529120197 0.08039737636972136 0.2062044727338437 -0.04051192193166273 -0.1836335590688891 0.0336463344846431 0.01437022911143546 -0.087128405530028 1.175896825392521 
-0.1936931874549043 -0.04611748076202836 -0.1319519179183201 0.0423229840288698 0.1782690257093066 -0.07859365368957516 -0.04762630525703634 -0.6499181950802599 0.0967876379757599 -0.05309168552270141 -0.0232307832056893 0.1672407339350113 0.07233864841784379 0.2347526697801799 0.04715743822287172 0.11991741292475 -0.06968090373645262 -0.3768567478589659 0.05086715070989017 0.1233345472908774 0.1811779600084053 -0.0113946856469373 -0.1905306895201822 -0.103662433013179 -0.06156812503906425 -0.7424521887930385 
0.003771307209701697 -0.2041965089734076 0.09197342183844032 0.05276642506586832 -0.2885230226237864 -0.04970585910663944 -0.3126069007203542 -0.1927922650821221 -0.1736850664568513 -0.008602289092848697 -0.2030474064233068 -0.1001186405219339 0.06201843286352411 0.3296771598562099 -0.03161679603566943 -0.3314606771421583 0.02801496567357743 -0.5315034051723277 -0.04673158295539155 -0.0416259784346709 0.09020014926690668 -0.1088593676447602 -0.5653369157451166 -0.05276561902264976 -0.164583368220491 0.06491373585246805 
0.08947280275610314 0.01863068197920275 -0.06318193235800953 -0.06411729677281527 -0.1831952127816738 0.0671967821407394 -0.08668430184795831 -0.631144527481454 0.1612926162579502 0.07441026980289177 0.03970018176059784 -0.3586975044550398 0.01786404150742639 -0.1952891405679312 0.1057385038993512 -0.8590351849037475 -0.06233335542440924 -0.2190465441790412 0.03253788556762478 0.02946091280966767 0.05157055085708806 0.1578770617674161 -0.1616579093632292 0.05185375209755633 -0.04757615836586063 0.3462367639034115 
-0.1527041822477026 0.07566969898048168 -0.09792180841142026 -0.1117410078775943 0.05532676099790244 -0.02234404042518934 -0.06164464954274068 -0.378466977056828 0.06636021029499661 -0.09505650860316209 0.131462714196954 -0.0249998253070287 -0.06539922339862222 0.1477309499887368 -0.1484447366333671 -0.2959019438179079 -0.3394953219921939 -0.01151386824322942 -0.1676099241049963 0.008484585438724379 -0.2413231830813612 -0.3545354977946619 0.03168063346511132 -0.04510330615246718 -0.2986366081065274 0.4364775615344139 
-0.04838164588392156 0.01158522352295507 -0.03867827974129098 0.02735891209523825 -0.005289709624997349 -0.1232345750118326 -0.04408261232762839 -0.2729087008199025 -0.04410193840206302 -0.04171565846004996 0.181476062918624 0.2031355243060801 0.003022794042447957 0.1265601870333208 -0.07868587090893497 -0.3777585114319781 -0.4374568920709153 -0.0432846831411927 -0.1830445446934991 0.34760996712043 0.1683536512297533 -0.08322229751292713 0.03920769120610446 0.001146862545793997 -0.2309885010355236 -0.1244582275258631 
-0.06160342236137722 -0.6537971042361 -0.04450312606933923 -0.1511001001094923 -0.1350633945742431 -0.113484313620878 -0.1777837852981209 0.1359911416668684 0.1826728693877323 -0.3137689764001922 -0.1713764034958586 0.3321041236182016 -0.1085363072213558 -0.354428308592771 -1.227942427043286 0.0938254026212057 -0.1199763165592567 -0.1412832046784681 -0.320815806086383 0.09522845774350466 -0.02324075712612467 0.04897781622556854 0.09534144985298063 -0.3845322125000744 -0.1235215707918766 -0.9481133326509267 
-0.185605294405567 -0.1470161772705428 -0.1139365660296928 0.05349127654166917 -0.08385136183941089 -0.08986687049758461 -0.2304753662109336 -1.528256303372031 -0.2022820955728106 0.2500559641605925 -0.1019985899349377 -0.1091558516461469 -0.3397220369524919 -0.03847802551326515 0.3460613231989743 0.00920844683949338 -0.1876892587326476 0.288814839436904 0.001357688552631846 -0.00321768655221754 0.003217072992589453 -0.1397415161763166 0.4274032768983171 0.01365970565596997 0.03050850430225666 0.6952037017997076 
-0.09572563977323291 -0.1655768267392904 0.1533405867143842 0.04200120786768573 -0.04055159435667294 0.2873169795157842 0.0832254320813569 -0.686156431555679 -0.1081400198773223 -0.002950740065530463 -0.1510541548457449 0.1801274287259192 -0.04518815622547843 0.07329161008795101 -0.08814423343612177 -0.1361227111812253 -0.2462949324980939 -0.05430192518707602 0.1418228440840744 -0.1070633165724837 0.2409407712318321 0.01045116866004954 -0.1995650886301061 0.1773194348904867 -0.1173734542802291 -0.9457607207467537 
0.2057772419069119 0.02197990162894626 0.2055057673623772 -0.08157168364221368 0.082226746036465 0.2445218023896311 0.02404613143743902 0.06552526512586804 0.02716371726951127 0.1379363910127652 -0.05673536130124493 0.1487316234403581 0.2205467081861167 -0.09433667829108307 0.05637004522117494 -0.5002466049434131 -0.1419258991766746 -0.2035224204112391 -0.07118243626843025 -0.01458538521062955 0.0637342394898989 -0.2347165754740895 -0.3122480158612557 0.09611022565040425 -0.08654383515283279 0.1556785815833145 
0.1087257654731586 -0.1729315625298829 -0.02586158002048819 -0.02113010340584639 -0.07790475083966142 0.04847534913464078 -0.05780858109415565 0.07711899014851908 0.2441611290056753 0.007095617219955965 -0.3020024521369408 -0.02339560153719496 -0.05437235692749623 0.3861428088136801 0.422525514382414 -0.2959144332491794 -0.1044811637094627 -0.3324537250680996 -0.04988341040228912 -0.04365430806953344 -0.1397907271903382 0.05730759139689933 -0.2918740633242327 0.04264024357596553 -0.03802883425070544 0.1631213825283926 
-0.1346170570453655 -0.1462121903313216 0.1089868861319753 -0.1129410352363817 -0.2418638508958174 -0.214950174350739 -0.1521215845134729 -0.1430600596778404 -0.1804536221830675 -0.2145675639152177 -0.04539941209022764 -0.06376217568424175 0.07275117967260172 0.2102448464625085 0.2263888602096752 -0.06859487314074221 -0.256181067034655 -0.4832228580729424 -0.1286419797532523 0.2202137785940676 -0.2629698575354661 -0.05691769155457913 -0.3582516078740133 -0.0493868719600319 -0.218158587743651 0.1071723574531953 
-0.2737286463537197 -0.1130769851184385 0.05208077710974703 0.15224727215282 -0.01654390913247872 -0.1137493298235352 0.07894718684679258 -0.07365443894864343 0.115955580514253 -0.04548332030603355 0.006149896912739676 0.01307528220017992 -0.2873567750389462 -0.01313381469754306 -0.0110039864499775 -0.8649302620749465 -0.1676927868652019 0.06400207768614771 0.01602790712427599 0.06023162236725092 -0.1313005301079753 -0.3367290357612256 -0.0545445315305968 0.009706452615889566 -0.12129759842646 -0.3036699877462677 
0.06879086023284728 -0.1436426101280233 -0.1083772926982239 0.1075789135017831 0.2136079594692324 -0.04619324666138049 0.01578827506453438 -0.3871875862381995 0.06292002057142697 0.0802287569943997 0.02161069063105042 0.1513769351250368 -0.2344032924953572 -0.1225425198887276 0.3029503198949189 -0.2552641149077323 -0.08495927013559637 -0.1549829299712379 0.05024069388614623 0.06109778274190539 -0.3727423365603199 -0.3362692702364417 0.1692832159660401 -0.02962954625421554 -0.1854367866965206 -0.3667995482302618 
-0.2424973150532011 -0.3624799021284184 -0.03204161252739768 -0.05212053884252346 -0.1371489377107847 0.04380224593067096 -0.05950592077642192 -0.2833329232977383 0.1666776171069423 -0.04116046876108975 -0.4349455514884796 0.1062961530188899 -0.005508770610388042 -0.02658834456255695 -2.164500355405135 -0.1451404206441687 -0.1858465529030484 0.06981735718298274 -0.1492862890147547 0.07480004282620634 -0.2787530406387704 -0.1070261016823959 0.09768357867673585 -0.1734125825541071 -0.1059348563502366 0.2665637936993948 
-0.006989978835888292 0.2994117802306643 -0.01374380821719164 -0.1509742728306151 0.1274446246250033 -0.0851745054988805 -0.2144255195312817 -0.2282532594756301 -0.1927807798343904 0.23284737709387 -0.1523481755313194 -0.2953779084911458 -0.3602270487725178 -0.3053296966834955 -0.2223816299457514 -0.2077824606447154 -0.2571693110479252 -0.004434806333387505 -0.2261391329524103 -0.08282334019603985 -0.1256567569603877 -0.3909537538064908 0.135897879099265 -0.1870093167094047 -0.1899272804999965 -2.075063062120192 
-0.0540586583645582 -0.3173331964829356 0.2430313574940705 0.003973199256110838 0.1479168362537646 -0.08548287779916644 -0.2801536848070205 -0.1348124730719638 0.03519067667421632 0.1607877642732461 0.06844932395047096 -0.008230171911501577 -0.1055476836323101 -0.03013275325721651 0.06877048106876874 -0.5792834459381239 -0.1466308277720194 -0.09366212083945943 -0.3390743253212625 0.007604153721310982 0.07112562484376511 -0.252106395426413 0.06373060696525898 0.04828873296435291 0.04102136115972373 -1.630228429479839 
-0.1315212954966186 -0.04672988442131889 0.02061672046456024 -0.03457805167219429 -0.064235827543491 -0.04098626621089421 -0.1630856790496603 0.05313556853516437 -0.2673279121232414 -0.02937193751877315 -0.0447164303509347 0.1651032907245047 -0.2129278691773303 -0.1535841330951885 -0.07948124091882246 -0.02461389562138941 -0.1615484343610215 -0.3625340840085469 -0.3091163419261477 -0.09441320324043553 0.1528528412557713 0.002750226286376677 -0.2247509203393011 -0.06733248437700499 -0.3507999197271116 0.1343825206277306 
-0.1621760979539711 -0.02167641466700989 0.0444806344297889 0.0376721184279756 0.1502598387609442 -0.1920338372002286 -0.05247872596735605 -0.3229466170440921 -0.2454776174744528 -0.2679017473768298 0.1221635744818192 -0.03361620444390487 -0.1285991026309597 -0.07758978784649551 0.04776576782352247 0.3560245009909216 -0.1424932980560228 -0.2662261420267381 0.1209174634202677 -0.04123974774674956 -0.126062294031505 0.01371428977440537 -0.09898631080002293 -0.08499521681832184 -0.2338938354758749 0.4917981899604841 
-0.1445598246554679 0.05370961300492892 0.1319911627552526 -0.2608468365812662 -0.1241380813495596 0.1108852203776677 -0.1124691842482209 0.01729452497359699 0.05947245261968112 -0.2000554734200199 0.06175356454843083 0.06825273943827684 -0.1915702095746281 -0.1187935907598113 0.05545418858235449 0.07094227121109992 -0.0008114723465714188 -0.1164218810721622 0.1793577205424202 0.1187355636700683 -0.06595329875632987 -0.1933909832310295 -0.2548834515609772 -0.09134667407499016 -0.168570369191991 0.01499958450481428 
-0.1927429881911968 -0.08253268729648164 0.1761092363724299 -0.03175985858573639 0.2429676051761984 -0.1119912906410779 -0.09903766962354454 0.04634063718990361 0.2154929859378223 -0.3872024803771843 0.1079528788623978 0.02350604492643904 -0.1703004032180899 0.2831468950803158 -0.3496067566649743 -0.7707472022932222 -0.2037055480695307 0.00593740439225258 0.132889953050229 0.1936418671014029 -0.07310855852583793 -0.2530258045203568 0.002855859222083354 -0.1013247415486365 -0.3287546956262636 0.1677041640280415 
-0.02121672161139657 -0.02139153219429683 -0.06891735896286845 0.2043719953673356 -0.08791996119249089 -0.192695302818093 0.1224692084719327 -0.4471212772687603 0.284098543642725 -0.39607243582912 -0.1224863282507253 0.1874833242173427 -0.1488445042020737 0.2857359135262331 -0.3509783343839748 0.004789592260035579 -0.1039852261474544 -0.02790390525063731 -0.03313309230922447 -0.00647736674049873 -0.4603440922720157 -0.2111715605790427 0.1503873388145075 -0.1344885319326775 -0.1387132889356275 -0.1205675067354443 
-0.02996847660668114 -0.4970717317512395 -0.05361748462683442 0.2349128877354655 -0.07995159627604037 0.167624026771678 0.03546728935337829 -0.5218808155516567 0.2151622284158012 -0.2235919647827102 -0.700471876957532 0.1110005215411106 -0.1740668360435303 -0.05020459907108117 -1.700937563499154 0.4756936822987473 -0.4742646989004787 0.09749536416423571 -0.1091931999736971 0.3573323961398099 -1.216636912697203 -0.003917432139987551 -0.1281267465038721 0.01399746291530577 -0.1016176529979204 0.2703691703621445 
-0.2989180962010634 -0.2537709416020801 -0.2257849575928041 -0.06754806027153884 -0.3620556159420533 -0.2021691034072623 -0.2405765210325774 -0.03982882227257589 -0.4167245686515714 -0.04266485215738414 -0.6848311545950835 -0.1217454038965434 0.1668109811779922 -0.02920988512308048 -0.1644685764077602 0.1321706508851692 -0.1657644150724403 0.1523684790677928 -0.3776798628428329 -0.3033458023098101 -0.008063048166775218 -0.2191936721818548 0.1000791725872068 -0.2415133469715479 -0.1611553740134996 -2.970894521741435 
-0.1864656568479124 -0.09062898347123702 -0.08044733667645332 -0.1053092028362806 -0.02953684988655494 0.1836037767264324 -0.01317202582676347 -0.0716240486357394 -0.2815292620862956 0.2398633862760697 -0.1321498812696476 0.01130379247040939 -0.02416302650417301 -0.225326457867794 0.1215940447614327 -0.5282738206217212 -0.04212023362893015 -0.1987253953026427 -0.4021883082536153 -0.1853528951026966 -0.10286472341393 -0.03399685957393578 0.1759276277608594 -0.1839474213640359 0.004079192042107071 -2.80741916648019 
-0.1672653539659075 0.04592881377598666 0.2367179695514057 -0.1310130986469676 -0.06933584825257991 0.09377815345722196 -0.2079320514382897 -0.1076374751495344 -0.1021613887995848 0.1059700855223753 -0.01205790064022558 -0.08679235797499232 -0.3637238810508507 -0.1029034247295013 0.02175136233512955 -0.009961594389735595 -0.06806797631581463 -0.09584490578646226 0.1139365973253862 -0.09721413677895949 0.1210975011865118 0.09800977310161538 -0.08677176298251277 0.05435684463793994 0.02898745476644417 0.07738626216086497 
-0.1247611803044037 -0.07427640644147879 -0.08857120785739123 -0.09288639808311819 0.09887924913905458 -0.1558302566743071 0.04385497228493539 0.06753947069496233 -0.04236413350011465 -0.1680220175810142 -0.006199048634617996 0.1510662157508462 -0.3893173058490799 0.1072438760819421 0.129840633051844 0.6426993393028022 -0.1121084216105915 -0.4156498889761858 0.06307567244633376 0.1720992779558561 0.1220218140285266 0.04451001287774965 -0.06551898508866419 -0.003884584468890381 0.0007602298004475982 -0.3589185496397891 
-0.1236985806954337 -0.1551466395719369 -0.1339251966896282 -0.3768751766851486 0.2359010309152204 -0.1947682245071053 -0.1654087616752274 0.0470920964247698 -0.06670902693945999 0.06885873401331141 0.008405870260068574 -0.04709255432245921 0.1924664740170765 -0.2180786025362595 0.1005536533941367 0.2298134666803339 -0.1869562274486924 -0.04691762645606549 -0.08993461687098527 -0.09067267630373735 -0.3436904418726406 -0.003958045202280602 -0.2307134377714532 0.04141854620388754 -0.1003312580373482 0.09008254390146279 
-0.0684651446184126 -0.01851070948368749 -0.2026436065941849 -0.2374059797655202 -0.1195243971390699 -0.185460312957597 0.1685362681283753 -0.2150896066187434 -0.1156288756919445 -0.2136340393304993 0.04952286352336135 -0.05787843652773167 -0.3342562858207299 0.1676056683054258 -0.1633302827972245 -0.5401618414086061 0.08576402098364624 0.2557998993482237 0.2214025285393525 -0.05608934778560408 0.03806535677357173 0.08247670528708484 0.08539387019689179 -0.1333261773287176 -0.080114095201557 0.1019804201590802 
0.02480692753698393 0.06088770179576167 -0.1103989132717367 0.03120395647881906 0.3154003627519433 0.08562286027467196 0.0021656935439724 -0.1407030829071901 0.08347810645319804 -0.3763316224649578 -0.4583754680349512 0.00303860662425141 -0.2080887221384584 -0.1110520145967717 -0.7189329341281006 -0.2296108060404922 -0.2855158595976369 -0.03608415141315219 0.03226318479365807 0.06350334805366563 -0.45522770048602 -0.034023343780491 0.1805896476965357 -0.06963083472485129 -0.007505917814394279 0.4832949019131284 
-0.267448574967008 -0.4558337960819411 0.1441561421291124 0.3405445427739017 0.4175568814792214 0.3998642939873625 0.03886042115533282 -0.3752374225717536 0.1215653500601301 -0.3043003349636232 0.0536317498464625 0.1044611537728599 -0.7135081739356943 0.1296928210557459 -0.3291827990516298 0.6140457153808054 -0.2155923977859305 -0.0477246013171047 -0.06216608310949867 0.0502696810403658 -0.07760438950799634 -0.2017746968654074 0.0181844031304083 0.06246368817896233 -0.1127526726810308 0.4402930455202969 
0.2829067762255585 -0.06994407674552003 0.1871682955780134 -0.3341292778325713 0.07447704361507593 -0.201276530706218 -0.267726755662261 -0.140826653550453 -0.3697136239429639 0.1680919183356886 -0.51997215623085 -0.04724559221839295 0.05481235261990516 -0.1985071106959481 0.1205054549130764 -0.3305872520694643 -0.2029932523508027 0.2127290850021671 -0.2906124280509735 -0.7834726740147995 -0.6950836288721162 0.1587405038712025 -0.1897632882377456 -0.3465061102947042 -0.007113493957087359 2.164450705136547 
-0.3349484819180633 0.1636175536566134 0.3404514523843618 -0.2487196574097921 -0.07701224040503811 0.2694077699910601 -0.170942282566498 -0.03301628804787703 -0.1616067980306554 0.226350893940761 -0.1968471240488099 -0.004069568797427765 -0.1782752857920909 0.08173050673933989 -0.09719767814858857 -0.0296675530383268 -0.0940583931940714 -0.4114773506922161 -0.1806247152662977 -0.3924322111127861 0.007726878486510387 -0.09812392553929296 -0.204874802806953 -0.03299288740306414 -0.01841063239337565 -2.894068453300668 
-0.001868686271696646 0.01980767059074024 -0.06353664867484127 0.09727976514173248 -0.2295523157879612 0.1283520826675131 0.06180722732100388 -0.1377210936260152 0.1601900033551294 0.1703919639770667 0.2383994934564345 -0.04538143880039392 -0.6129177006606866 0.01070333581909289 -0.1525021395310621 0.3546588578807144 -0.09311440514237394 -0.5831786533886478 0.1353149028931882 -0.239547938364014 0.00391085183274742 -0.006724168628718094 0.0257659056322634 -0.09421320180524471 -0.01317802031124114 -1.458830878539884 
0.1636676732300711 -0.251981093450014 -0.03281359498747893 -0.534244985909776 0.2911026954473271 -0.2568898953900687 -0.04003121550401027 -0.2644342580905925 -0.1144399617572442 -0.1792125670986109 0.2157645918073867 -0.05828113106179035 -0.409183011827433 -0.1624279165960947 0.07956134267741366 0.4721238664792737 -0.1452816198056253 -0.2731072445595547 -0.006750287722586686 -0.3274809976491685 0.004402100215822598 -0.04376280198915836 0.01853819360580558 -0.09345025030049897 0.1023577306145054 0.07479909508756831 
0.03487095499595116 -0.1015621722550604 -0.3247146185280259 -0.306686668316616 0.2325582325913755 -0.4404974910131745 0.1820316781551171 0.296520572252705 -0.1154340530605177 0.1624406141800418 -0.04840498230936606 -0.1077905502938164 -0.5878420076716647 -0.1263861820622036 -0.1196538528810036 0.1296511803771505 -0.2260612644143501 -0.03364621890539959 -0.1734542614450835 -0.07179578749201507 0.09577645059445536 -0.1565253149926808 -0.2272526531081603 -0.1357783969155207 -0.02435827146463593 0.1795006528122458 
0.06962019413194098 -0.05563277249683952 -0.06033381396163955 -0.3431457258453465 -0.09892212119021168 -0.3505817650373907 0.2046294737772307 0.1210138155479064 -0.2167485504393808 -0.1829975650036068 0.1886092490964902 -0.2468233844117999 -0.3266652954772671 0.0750035773570453 -0.2653001545807007 -0.2606694109887874 -0.05993334935809599 0.09123705615656663 -0.04061331228790405 0.1398734293465506 -0.1832037253912377 -0.05040348127344615 -0.2818588445561983 -0.1362394912169769 -0.09636644807241541 0.148911167613596 
0.04850951789328839 -0.1576745447410092 -0.2642532781373305 0.07866944121041455 0.06564395227868751 0.260000348711617 -0.103104359313553 -0.2567086259881474 0.1740786257495132 -0.4653199453319916 0.03598559311924326 0.09560185241901925 -0.4442307524796357 -0.1199691971759641 -0.4100184147190467 -0.001621178257049882 -0.1298926656864509 -0.04150776017097901 -0.06348323627480115 -0.1477256166057429 0.08121146684268873 0.02528690033830131 -0.2866441596979028 0.1123322647720613 0.06496940785682703 0.2009627942373373 
-0.1908417597092532 -0.5077833057866858 -0.3312086451802031 0.4813828156082759 0.03476646001207831 0.1319786621889708 0.08295380996888509 -0.03889601172301722 0.2165909738434359 -0.6341463135492855 -0.1675922320495979 -0.2606066105549765 -0.05493330234418668 -0.1642966460614446 -0.3092712816373357 -0.05479104305493931 0.07431580646688435 0.03994174260946783 -0.06391914140012228 -0.005863213135908353 0.5722761644427437 -0.3834332595154619 -0.1633124968066816 0.1161331776992489 -0.03040243633182581 -0.6115807026122226 
0.06930883021327379 -0.06658341128145798 0.1233036049946067 -0.05905086654272904 -0.02348582834635697 -0.001298997163153987 -0.2873100002984814 -0.1566453327625175 -0.344970313918093 -0.01970665716882375 -0.2130300581040292 -0.2184797895736809 0.7216284907758057 -0.270210255585189 -0.208773745925114 0.1219694918073095 -0.1138991325091031 0.0457894402860402 -0.2390741302789618 -0.3502436208106796 -0.5047660211573584 0.07405057654593679 -0.008589919590848843 -0.1255888348754143 -0.0083549745162333 -3.006930346275434 
-0.1590801639183871 0.2570258011216824 0.1290068677068377 -0.2537445136604672 -0.3872066288278171 -0.01071579164927022 0.1085366532301204 -0.06747015365787894 -0.1484017303273927 0.1720221436193043 -0.1552942503950815 0.03223175340646166 0.02543425001475788 -0.04231877161591165 -0.1281664935440954 0.04839755947581127 0.09036439032812518 0.05062762831763725 -0.06288159612902153 -0.3975999724655458 -0.3100512698713234 -0.0685474270789881 0.0526706429250267 -0.2075622434749222 -0.003850083225736175 -0.511271477779887 
-0.08029289771312616 -0.1424441843456083 -0.1361149679177757 -0.324263833470896 -0.3922393873570256 -0.1044552780262523 -0.1273886761693578 -0.03337872647043577 -0.3917996539220338 0.1580310701385363 -0.1744056440325399 -0.21887183354977 -0.2357674884349429 -0.1119585369558236 -0.1633628542969608 0.2114513471146623 0.0544867736523957 -0.01148871330027838 0.1156551771726101 -0.3656032174737814 -0.09330467884325687 -0.1290511528544541 0.1133724996791772 -0.06041265212473938 0.04546599574937785 -0.9782635814413134 
0.1377603278290759 0.1272432868953619 -0.1057863647505916 -0.378831806236727 -0.02246742833203619 0.1122227898060959 -0.02907147550933769 -0.003655488765163889 0.02183489058492466 0.02895187317334128 0.09178048388679991 -0.1540870663875383 -0.2153773907508562 -0.002506811599585934 -0.20283996963743 0.2290605660486194 -0.01278086030018666 -0.2458561267646603 -0.03910300793203492 -0.02822365380046971 -0.01797159697099142 0.02655689616820517 0.1207430789006916 0.006446906964360268 -0.1218334073831064 -0.1199913890498681 
0.05675467826253511 -0.1900720662277706 -0.2104118375195297 -0.2856288018816487 0.214750941819923 -0.5225109361667428 -0.05754254101826997 -0.285350736161919 -0.06638726199641112 -0.3439297794523419 0.1786493087150398 -0.1002976987230573 -0.2672540711299971 -0.02047161790274912 -0.1041473424572293 0.0394620681211575 0.05818914958752847 -0.1011035207124644 -0.0696603329647901 0.02870891297650329 -0.07657802145969916 0.002245697539626553 0.05237124578106369 -0.07625541350174828 0.0108977426774937 -0.1059681105762189 
0.03124537894833468 -0.07461546861466326 -0.1433968997646325 0.08595119724642618 -0.312480595412131 -0.441890315345264 0.2116285538192209 0.04967088919051482 0.05491452367942434 -0.4431217019122515 0.02762062034726848 -0.2014848063147652 -0.08968718220544307 0.1294624580140495 -0.001602786440069873 -0.1344922391687883 -0.1628582850670631 -0.1203033569784353 -0.1805131897772659 -0.166359168484381 -0.2140206888493627 -0.01378546950209462 -0.1153618798988622 -0.06376860904212954 -0.1300804237393418 0.04677278847288888 
0.05929719765622518 -0.01215823327106558 -0.3741801645019133 -0.1014394400375712 -0.4936952593795198 0.2551537186286739 0.03350585535010454 0.1573485171536456 0.003554427795299513 -0.2725775207861946 -0.1169826714735353 -0.202314340734272 -0.09758784590738008 -0.01730893797293169 -0.6427748775933558 -0.08072966609856214 0.1687023494901579 0.08875542478387487 -0.07979057249003958 0.1371263742948582 0.1661363491630155 -0.1497159844217323 -0.1530716070818462 0.04223219520792104 -0.06450296722414284 -0.01540485421291805 
-0.1890949700155922 -0.5260579286371481 -0.2996619306244536 0.3627443628859069 0.2118542667288159 0.002154263236113785 -0.1075603769248307 -0.03779140238283567 0.0565344787480308 -0.7998343177567533 -0.1452308867516743 -0.3714103727787441 -0.1665343705953835 -0.4051551617499471 0.3354738103103468 -0.1914733647869491 0.01391057547201663 0.06663203968233909 -0.09025005208799133 0.08886168863788052 0.2030137887085736 -0.3393144367918666 -0.1199525552248917 -0.0859238451876187 -0.01533619607318502 -0.3223979497834913 
-0.1411622433031392 0.04069243072922601 0.06849673898208244 -0.1263538359478734 0.1826672759386707 -0.006291682974771923 0.04641654436610772 0.09115082112906692 -0.07195928031266748 0.3165313220145272 0.1475435632865326 -0.3043759947606576 -0.2653737115853643 -0.3762836176176887 -0.003131062745905458 -0.1360284106555359 -0.1009022421193631 0.1102562298824028 0.06237888979710548 -0.150123809704215 -0.7817231109311267 -0.1786272881070184 -0.2244422082504107 -0.05464420995228732 -0.1605401936474042 0.3764198173311817 
-0.1624128877929898 0.004490888722649094 -0.2194277909207618 -0.1050020694501215 -0.3561039102343584 0.369377122669426 -0.01569856472969042 -0.1883738732372143 -0.03297139939660491 -0.1258187753227741 -0.1959582650815427 -0.2857185899204858 -0.01761307071540777 -0.1787850663873313 -0.3793275554864257 0.07223775925822681 0.1248162061031727 -0.1703392406559786 0.07008352096449064 0.2881050096889383 -0.4365675310946897 0.1455902542961686 -0.05496018025770721 -0.2187046650706472 -0.1358439355959078 -0.5784950419114175 
0.02659352824514372 -0.1187240501152697 0.007861683013730881 -0.1168467157207249 -0.4437460377411983 -0.07199370938954824 -0.156673043857154 0.03447703601689833 -0.1814335774955798 -0.09646878169530768 -0.1638065146392625 -0.1890006938053652 0.07627218267584118 -0.2059131781262953 -0.07755587680121395 0.2660554796031794 0.1448927809366871 -0.1548533452265943 0.02135650341560456 -0.02405601502715542 -0.428005959233223 -0.05338212217761983 0.09906140639259331 -0.2544733096350296 0.1246854824422723 -0.1230395736990087 
-0.009140105330341833 0.2485260902762795 0.01721387112593578 0.1257724906397426 0.01137690879745526 -0.1359057719208884 -0.1679180012740062 -0.1624862701333971 -0.2927075309841696 0.2329969802537072 -0.1880123428807864 -0.1074353897610428 0.02686823170681401 -0.1230767104233394 0.230201659467332 0.007995423628469452 -0.06295784993927551 0.04508676391639086 0.01734847746160365 -0.1101097667254297 -0.3930446103555213 0.1646194085517513 -0.1012887543101108 -0.03883183053768487 -0.08937686616651538 -0.8096140518453792 
0.1097052230084331 0.1766953473330184 0.07832790033181225 -0.1496438037256716 -0.1020261226028221 -0.3786541326480115 0.1462421649872254 -0.003836461351092765 -0.08014699009596163 -0.05638800147560642 -0.2341717025500802 -0.2251269062170713 -0.05077708815253371 -0.03063406754837966 -0.1095241279403941 -0.009613733618849103 -0.238991026031783 -0.09875663874080914 0.05096779268560235 -0.1008651139891451 0.09776067131093102 -0.06284837885989399 0.01235816225496444 -0.1981325457548548 -0.01254949647995454 -0.02088527015749772 
0.09287639816455098 -0.02135420867323884 -0.107660109372243 0.1246418955147016 -0.7242405781341634 0.06155464106894651 0.1471103548157233 -0.04591972093504609 -0.253313613249899 -0.02676261349247582 0.2135481448168239 -0.4689880875613024 0.06488889220474688 0.02199058147720503 -0.3159622371599164 -0.1041986006329653 -0.0395558815189283 0.1397503448039774 -0.06852898130171603 -0.2797133940475079 0.1288645184533122 0.05730167512023744 0.0342622937667753 -0.03926865320255296 0.1096671490054798 0.3122413390421823 
-0.1525779917221401 -0.2309786667547934 0.03174308638191561 -0.08094996587401883 -0.01296304104079763 0.1440719467382583 0.06681652084991167 -0.2466207174302241 0.004517604057978693 -0.4143331835199878 0.0561062037131753 -0.8437450879646823 -0.009078441377567581 -0.2457309807896272 -0.04995750193569973 0.3321473393857991 0.03713049926570211 0.1156069933762453 0.02818386046703198 -0.03873064110114972 0.1424492117132587 0.1289976020174497 -0.08953957964450678 -0.2137576688617899 -0.04914315834517757 -0.5469798027889935 
0.1832055091791927 -0.3733574895635717 -0.2390467076901909 -0.1965408451223029 -0.188454871911189 0.2581782348125096 -0.09932646055423794 -0.05574904235220947 -0.1227393266273848 -1.031335537587404 0.1796950833326118 -0.704538584665299 0.2012345717382819 -0.3354355119146645 -0.4924513235592398 -0.2765666830000601 0.1895477939947031 0.2925613848715233 -0.1822644611122895 -0.1665215663266337 0.2526667590174485 -0.3619392047641544 -0.2975192322884703 -0.2457892579547132 0.01131905597053285 -0.3280250886490118 
0.05239945104088684 -0.07669323362285782 -0.1415414941955291 -0.03746795255945164 0.008825087980148999 0.2931157769336985 0.05271826189886626 0.09766721849925999 0.1935651112853036 0.2534591390547428 0.03233404628495155 -0.1166846879064536 0.1789934154605541 -0.02725108807132798 0.1560561072975558 0.1500746750267499 -0.1931811696311079 0.2052684134874896 -0.2196055785983608 -0.07668918036288667 0.297701363315718 0.04878466462931273 -0.07854033559109153 -0.192640826965044 -0.01600434990323376 1.134288193184274 
-0.1803888868783004 0.1016717243210841 -0.1343737055118572 0.04702270292577877 -0.2122524031629006 -0.1794327215961354 -0.08583174819159733 0.1845289910782419 -0.05156366271036848 0.04046680704856861 -0.04863075584260028 -0.1475902377687985 -0.1169163975819461 0.02404356943797351 0.09460976791096294 0.2175902952678281 0.2274186893116913 -0.1962677485477633 0.1810097233293171 -0.09002861269120971 -0.07374101435660504 -0.09051024509158413 -0.01287868033007672 -0.0676611399357033 0.1331180691120413 -0.6465627334607377 
-0.009719969485348888 0.202285940619077 -0.07120784983267156 -0.04027108467242667 -0.5050384383054038 -0.1868087502188076 -0.1049461500557857 -0.1052349986413779 -0.06983625158105489 0.06988811690358238 -0.234268314238773 -0.2034417763704281 0.040966165504611 -0.1285089349151179 0.003039465519859903 -0.1224955546268966 0.02905703248398021 0.04841864512922378 0.01880650747740198 -0.1431397849146888 -0.1416112465563301 0.0857750399282682 0.09396738830089579 -0.1046219992964487 -0.05559108242316903 -0.2836670392056667 
-0.07260272630207701 0.07540585129407906 -0.03342458566045965 -0.08608431397121208 -0.09219460372409405 -0.3587138279919335 -0.04808849567974756 0.3035688572663435 -0.2625235311903256 -0.01936816340550221 -0.5031429891021382 -0.1364726050819365 -0.1803431155367428 -0.005616294351362086 0.09588108469333131 0.03510242656718588 -0.2107599072298322 0.009399061261480157 -0.0609927353693382 -0.1605210276054386 -0.006647011538653293 -0.06260260962774139 -0.03928392589060956 -0.04120232967432915 -0.001313770857230612 -0.2956702155073102 
-0.2226178379817811 -0.001144045500997301 -0.044140884253691 -0.01861949238340677 -0.3227629145170265 -0.553181709032329 -0.01430903700517856 -0.04659346399452956 -0.07245684340084278 0.002151228184739194 -0.05006938420440128 -0.3585523865119923 -0.008947889022263025 0.04203496733987312 -0.1181263531759608 -0.3128108574734457 -0.1773729039298847 -0.02627420282135516 0.1224329264271011 -0.1674126710596333 0.06433273564695383 -0.0776345130430032 -0.02779857753475296 -0.0108484575104159 -0.08288277876044141 -0.1173444524893147 
0.1338105310253331 -0.02592302650883965 -0.06814997032569164 0.5154733595641512 -0.4578117974894351 -0.05324986645861564 0.1961955702473958 0.1134171934253055 0.03293767344003172 -0.01669979198440817 -0.06412189270178535 -0.2592262462679328 0.007327440609261035 -0.1003984179409368 -0.1540683431879163 0.1923568630913449 -0.1625094821914801 -0.1408213669134071 -0.03057645390105601 -0.2109473929592191 0.1903050932836549 -0.1538248428892172 -0.06824503199072229 -0.1957677356995579 -0.07007203145368186 -0.2900912418946636 
-0.004573394975787399 -0.1260948549497569 0.08059432962681592 0.2724297804605281 -0.1395238186168737 0.1143211367714866 0.1697733423644124 -0.138299774346469 0.0828232816053512 -0.1536144738966662 -0.1137417771243327 -0.9680935292235764 0.2040062725906452 -0.1062772648026182 -0.1367052231687808 -0.1458717762217796 0.156072708484866 0.1272300090548282 0.2002976560913314 -0.2278829249795121 0.127666104282456 0.02196456459163425 0.03063683337967184 -0.04857098442462907 0.2235883379464117 -0.06705582685370162 
0.04560154186159598 -0.3735988612155338 0.2773952230063819 -0.2178818657913147 0.1036715416561483 0.2116077712845402 -0.0166024618978435 0.1799387156916969 -0.1253368124271801 -1.157420507791963 -0.1446114356138425 -0.7274259040744716 0.08701882306190457 -0.245916428971541 0.1497116577314277 0.0539518034972639 0.05774020269880727 -0.05220955976395958 0.01553331760173332 -0.2128597368800281 0.5609170911668866 -0.2890153729878799 0.05117006304965575 -0.2351943226261163 0.1093588790361061 0.4936765228406566 
0.1498620705332493 -0.00920909880591271 -0.1923039805615208 0.1252054960569411 -0.1014159755316952 0.2834593457611067 -0.02345850515824491 0.01512313805811663 0.01000412549232173 -0.04428703243707602 0.03988759872835825 -0.2095896645544138 -0.1997512658742531 -0.3319680080247004 -0.1658623658347489 -0.1412686994435798 -0.04355937506680926 -0.02180195712371129 -0.04911816577794031 0.003724779425584177 0.06847340709796781 -0.4250675674510677 -0.1720847790076712 -0.07471051970486778 0.2216935510088094 -0.2536530154562686 
-0.0267109667079414 0.1716014857369764 0.115048120432966 -0.07337369060075231 -0.1514476134636554 -0.2935521594650783 0.06998773451436646 0.08077966529474637 0.00312360693515918 -0.3196941391090708 -0.02167500287603856 -0.1317191661590487 0.5482072789600024 -0.181980810998124 -0.159264325586059 -0.00773150801773706 0.1965300081835795 0.07231635739023391 0.05330849225341281 0.09313564707033861 0.02871059273280297 -0.2547629313824937 0.003453128707850896 -0.05362207139447563 0.1160893253671108 0.0517403018579812 
-0.09314668301063836 0.02646531230710075 0.1775703852920518 0.06031913953606165 -0.4201789454763836 -0.07360244521607628 -0.002923662956042086 0.08920813400581173 -0.193381889814786 -0.1355258908130889 -0.1303914361184691 -0.3530037627038584 0.01758411662070947 -0.009636385908994719 -0.3952325106425784 -0.0857443337845189 0.1026448342446546 -0.08918597652381006 0.06232496340376985 -0.1596894175681753 -0.1764830007084884 -0.2692468162461085 -0.1287970962443205 -0.1499952560234151 -0.01092911611828877 -0.1880181103044274 
-0.3644729994395121 -0.001861912967380789 -0.1193783515782076 0.1177104952218232 -0.7319399073519701 -0.5034819325461529 -0.090076977525869 0.04466001379757961 -0.0770866576642779 0.06382039442512175 -0.1497344523388212 -0.109992629938762 0.2337601334480648 -0.1918170469444253 -0.06002493991928734 -0.2579366571423459 0.008451927863063039 -0.01261191720569232 0.05847599795588863 -0.1779728043920311 -0.3869469051102343 -0.08865579638671957 0.06653396559483141 -0.1299930805411081 -0.3332077715475518 -1.494100802096695 
-0.1250323462428824 0.07655455221313992 -0.16791769239557 -0.01237182497047182 -0.6442617583376088 -0.4521923471013888 0.0962909241986116 0.1293857259120014 -0.3429798405725565 0.01229298547396895 -0.2864545587762514 -0.1241248289116155 0.01247679386659661 -0.0477659871205473 -0.1772618332850047 -0.1019586187126222 -0.1554232745136217 0.08974204734398702 -0.1858858366529205 -0.1105612596773415 -0.0001933395541826796 -0.0786727610374429 -0.08143826562292844 -0.3029203994563326 -0.004403451888870792 -1.188406836253015 
-0.1209627482333342 -0.1293124625481457 -0.01533888993649724 -0.06857523578263881 0.01214444225388128 -0.05426809809119611 0.0302051069041465 0.3899490885751554 -0.07532118935488066 -0.1487658040231427 -0.1130187073011573 -0.07226255779108709 0.1133720773059797 0.1825457745192609 -0.2409519317176706 -0.3425710322887803 0.05267486067577179 0.05003115547477906 0.06242699829285329 -0.1302004202966106 0.03552081361237283 -0.06322318706858542 -0.1639379730708314 -0.2079477207363848 -0.1966183863953905 -0.1274276106213995 
0.158591503471544 -0.01110122947778502 0.1727889325032332 -0.04274379850599229 -0.007148345827197942 -0.09496597185464922 0.08336680776306524 0.1375616067974262 -0.3440587300789719 -0.4421837687468033 -0.2738220594596886 0.1441065722161264 0.1505491642117726 -0.1067113598646843 -0.06981015434568447 -0.1727860379244457 0.1114164398575595 0.03402013308344512 -0.189621308764912 -0.109778246280002 0.03079280755146835 -0.4454347876470253 0.00191040337565377 -0.4343911960573603 0.2133033753937496 0.4188422257383826 
0.3981392949852355 0.04519272571944436 0.1538976716150935 -0.1667766560161431 -0.2709461458765008 0.1459661747630621 -0.02237260598389345 -0.2882921016784365 0.1365866805703639 -0.7769477270237736 -0.002498869404057885 -0.4971578297326325 0.2406798497771869 -0.09874297664778733 -0.2937984042678801 -0.2500670310783484 -0.04195414136351379 0.0268038435254334 0.03879810551850151 -0.2772395964831782 0.06110675419486322 -0.1289716533288733 -0.2448126130892428 0.07406395799363033 0.09221116954175038 -0.6912453552679241 
0.2051198590892226 0.06218745822908817 -0.3300008863905864 0.1110393023962107 0.1083253757580137 0.2917574251165377 0.08920514953485814 -0.279953851804892 0.05850660018505669 0.05854299790965418 0.06292894459422213 -0.1639389744846886 -0.2438873962105777 -0.3019391021197175 -0.152719628439166 -0.2421771764511316 -0.001350134009456126 -0.1148272199540776 -0.188325845655835 -0.05657478523740998 0.05462361671222053 -0.310339595059034 0.01773371264931822 -0.2249229501954654 0.2268066026018542 0.215593113265669 
-0.1224773207659101 0.30783187630694 0.1403326612514396 0.2372476033453783 -0.223847200508267 -0.1322792932079069 0.2197306979214557 0.1685540192719696 -0.1586314785767051 0.005765214495407581 -0.2862191144679013 -0.2442781263205076 0.1653009463857886 -0.1507170285633282 -0.0864386884034295 0.3983538710949096 0.007660185232243252 -0.05318513267796476 -0.178686499104629 -0.1132333145774351 -0.2237842973242392 -0.4193299369101601 -0.1011563445864602 -0.08490999257681417 -0.0678905200306919 0.07975435985856549 
-0.006730893576373135 -0.1717885246981095 0.01866936659321924 -0.1242895980097811 -1.351671844118618 0.01510267009254564 0.07810255240554538 0.09994250733273941 0.08867024728567321 -0.09845196755089308 -0.07043805221560821 -0.2924474842201343 0.1059193537214444 -0.05309139979043324 -0.1817590232361329 -0.1324358619129867 0.1397663744126666 0.007094447211425021 -0.06477224706916943 0.02999987104458149 0.01206787259258055 -0.07310409190531075 0.05829643641715543 -0.2943686164415235 0.07142871985546126 -0.1257612147754186 
-0.06587376255974607 -0.09191003380099658 0.0007088511509203508 0.1045129646230324 -0.2306084659661421 -1.145172807341952 -0.1878434907831123 0.2038033915030185 -0.2352803644426998 -0.1452937963766379 0.04553959443741955 -0.2900364483553789 -0.1124680826178907 -0.1949039449113762 -0.1889198095517405 -0.4257597312027795 -0.194518885210666 0.01205832525693691 -0.07285213577760509 -0.2125588158491541 -0.09473543112611341 -0.2775133787910427 -0.1144416353233075 -0.1135173360626793 0.05204598346326846 -0.3325297857245504 
-0.1256538415520313 0.1819528531520161 0.04285267716610719 -0.06413445037809326 -0.2605550382839529 -0.06558690742499713 -0.08606987403647601 0.2869088421889603 -0.05757188628887512 -0.1033983910982231 -0.4545315598426832 -0.3044090489585335 -0.1125272670196526 -0.1006606340342076 -0.36729279649957 0.03496590487184267 0.1291425612392755 -0.1575427552229491 -0.1312988679415798 -0.03554445369335932 -0.3494225282366818 -0.2503426695512404 0.03324572799308267 -0.3532807222731248 -0.4697443215647732 -0.5744066321532899 
-0.4673502259752712 -0.1666736824113864 -0.07501492040120493 -0.1341089567393505 0.02908060272979495 0.0149942029290507 0.3208544591691808 0.3256833330211678 -0.1280376634101382 -0.08622471670289132 -0.03507274305723086 -0.5714022431193055 -0.07942461267676854 0.01087579627991297 0.02454249086926517 -0.2239900455601311 -0.1219108622141681 -0.324928176601292 0.09298843920965631 -0.2130407939333763 0.053287336583137 -0.3361164187817463 -0.02269282782982913 -0.09564981295490814 -0.5123688673284358 -0.5952124437290733 
-0.04861119517555854 -0.1245938857213372 0.1588004544563495 0.09902985699508768 -0.410893414456138 0.1501766291911133 0.1134151211396154 -0.1864087838870409 -0.1185723156002447 -0.1258577839886497 -0.001242093064732316 -0.08104609252331459 0.1887489966075305 -0.2549696064737575 -0.3320210402395981 -0.1674350816396868 0.1805062258450557 -0.0632773389462393 0.09842824152337558 -0.1452791065055385 -0.1838737684725125 0.0775364332375188 -0.03726183059292195 -0.007097179607426493 0.4398693998599333 -0.0929134806690719 
0.2711030904904775 -0.09019600266036676 -0.1667844729998242 -0.3446779835408112 -0.04609204315655472 0.07083232031072673 -0.05464046485653078 0.03039319478021957 0.01042141117960169 -0.5420301281395841 -0.02128922695658332 -0.4562220669096797 0.01081091426070011 -0.128351418209466 -0.4403690366521557 -1.419988902517599 0.04056368945463507 -0.2204787963972815 -0.164770469023327 -0.2992422018970491 -0.06144181593015613 -0.4261240610432673 -0.4380733581233983 -0.2334412473905257 -0.0007727682304115024 0.5663380522051678 
0.2128301133879976 0.5262720436361961 -0.2459456027974546 0.2339108762687051 0.4450541051494066 0.2564025944924426 0.3046614356881057 -0.06780282479483896 -0.1095708132402445 -0.1666877241916199 -0.614126016071122 0.09444195080907443 -0.02705894205247934 -0.2042176087375754 0.1904483510920432 1.667433806195134 0.07716798078379834 -0.09150025607013945 0.09504144435685832 -0.2482310911538034 0.1173531495026349 -0.5634297793942638 -0.1513395208225649 -0.2637118234677028 0.3377699899189621 -0.5075280433241095 
-0.3273748032150801 -0.08066124511354877 0.006392745469775325 0.03841887768390417 0.1119714054499463 0.009269421183941751 0.01912775581139961 0.0423045421084014 0.0273031350404523 0.08044501446616475 -0.05122567939730449 -0.09649229849850088 -0.02181321133972111 -0.2134499957385627 -0.1754845155001803 0.3924616630021586 -0.04640532835072953 -0.05370935508560844 0.0007488905012179754 -0.03718374753220414 -0.3278509856826279 -0.1711607268135714 -0.247091422953266 -0.3348264876381076 0.2716510490292804 0.1837850063233258 
-0.1277768604368371 -0.009773517488977514 -0.1460709270995634 -0.09828778846116561 -0.870388088194307 -0.08436514526554906 0.3426796253708672 -0.1831069892146306 0.1607465743842945 0.05218739062904447 0.02630817285093676 -0.143877078766034 -0.06606818044762069 -0.2286444143739369 0.5288008002796505 -1.265064064982481 0.160763784656332 -0.1985230938041289 0.089427602718314 -0.2099426872973547 -0.1117192926671372 -0.4320602594550457 -0.1839742828739973 -0.2516521233740496 0.2481494303699106 -0.01899824369861156 
0.1617356573378353 0.02019951077060852 0.01431411385464665 -0.2895027020706958 -0.8443729782956789 -1.432956991397257 0.03889785783015506 0.09725074360264235 -0.1265773896033765 -0.1850238077293175 -0.3098172154697822 -0.3378273043340296 -0.1500404465770554 5.790102174266232e-05 0.01911088609982409 -0.5853121517533291 0.1587279767407058 -0.1502238653137335 -0.4119394538747566 -0.1023905085087595 0.05009286499062349 -0.2903130948880289 0.04091869875615348 -0.06066413319167467 0.1093133224650411 0.703500336264312 
-0.5634974925198002 0.003622177686580449 -0.1357778143498275 -0.1214444747967129 0.1182592681681882 -0.3804876979184684 0.02344824961311806 0.1742646677562679 -0.08710746737943062 -0.1482028806514457 -0.2056039042623523 -0.2948437172632615 -0.1958691670007677 -0.06194952346019564 -0.3682289602145711 -0.7225973246503348 0.04921524597146737 -0.01375947107881356 -0.3851466443901662 0.0288759200479317 -0.08129048056670829 -0.3133103534126288 0.1510669202646833 0.02924187016478709 -0.958815467131832 0.5034525992368201 
-0.1835064012803328 -0.1551659438997292 0.007198579232231456 0.01149111654796614 -0.5567352382768302 -0.05595348008717256 0.1369392512399532 0.1792442685541945 -0.1932951142642789 -0.05055452653673216 -0.1209579669964604 0.08105842605346258 0.2742840567888274 -0.01506073881795261 -0.01393456989067901 -0.3569492994841278 0.3523652238697638 -0.1485270405154991 -0.3176608719723788 -0.1997292692945032 -0.1467470297507338 -0.03182280232154519 0.0193282038971458 -0.3754572438209421 -0.07684163166943185 0.04761976016140078 
-0.1618516392783219 -0.1810766481162285 0.05416215078126665 -0.116323751037741 0.7510987158136171 0.06255361558046116 0.1339774762875117 -0.05305373981526656 -0.09060420449940401 -0.1754289953215277 -0.2980908483336639 -0.4474745329963239 0.1959103933819664 0.02024275053950324 -0.1497673730660146 -0.3966169236860177 -0.01356651620827007 -0.1199994700925421 -0.4671044049660537 -0.421914272542821 -0.08103423600268354 -0.1810062673459861 0.199377395450633 -0.04429774697595338 0.2577353789239262 -0.1167839940602553 
-0.04674473239355909 0.1102922571443078 0.08183767821102403 0.06664069123962701 -0.3462395283793237 -0.1820831372798129 0.1267197647510521 0.3029062802135478 -0.1275217854458235 -0.6988941129433298 0.0665399688359154 -0.2614917447313102 0.07768533837049363 0.4086946896790744 -0.08275240044187529 -0.679140193526787 -0.3224921758061883 -0.1172731885859976 -0.4535874332056382 -0.3307355447546039 -0.199491244661964 -1.104094562570959 -0.05560836985660095 0.08280299375610423 0.2181849331532869 -0.4198931343677804 
-0.2100760998362871 0.463891847875724 -0.2995184837418129 0.05628787894016312 1.281113480035991 0.2018180599200537 0.04788401699433079 0.05409020566899769 -0.1427371075002125 -0.2876445237854124 -0.2898755109108991 -0.1780153055166874 -0.07661934613638745 -0.1932512046453704 -0.0922447382020261 -1.963673931746992 0.440828356740115 0.002172588397212884 0.1462788417598898 -0.09182084187800996 0.2020423092358697 -0.543929178913124 -0.6784917958400407 -0.07502556901689385 0.03182959270544308 -0.4659164694301251 
0.09832368288181506 0.3978751829416778 -0.1866331907201316 0.1648209880080783 -0.5001812073430377 -0.01387980662451535 0.2492763514606527 -0.07480304531257632 0.08886335928040889 0.02576051196690547 -0.3723990022736626 -0.1666454536885119 0.0976885100583022 -0.4487764451896541 0.2289029457514811 -1.508011097125855 0.5413918402102509 -0.2014566532740086 -0.01650549866385638 0.1859050129338689 0.08008738321296627 -0.6824672910466281 -0.05370065137537954 -0.1170015188424216 0.4348607555974358 -0.4039934564692916 
-0.1001846844506658 0.01991749953087339 0.01215790561195573 0.1753171810857067 -0.3966078413071668 -0.447030029196103 0.3006487857554004 -0.07423200240545655 0.09408625299931089 -0.3968313521610493 -0.2274244866374611 -0.28281888856097 -0.288653741287543 -0.575829442069038 0.02650378688137649 -0.1983871471115873 0.2987645887055624 0.03056580675353952 -0.2232022949515043 0.2199584997018235 0.232853283711326 -0.4031123354930572 -0.2810152144797152 -0.07925489958618553 0.09076067672225824 0.5635467609588163 
-0.4230374611157597 -0.4424447899357751 -0.2448350250128561 0.01964092302742304 -0.4284481163023385 -0.7106822064213034 0.1857824576945772 -0.3436522103226837 0.07898405715784859 -0.1505040329818233 -0.2706978491869878 -0.3338329101768084 0.0296447058208805 -0.009146275338035734 0.183470505476736 -0.5853121517533333 0.1982583323703477 0.1173244762206678 0.05236237129399736 0.08284242210837582 0.1224093185056685 -0.6460227646923324 -0.1333419313900943 -0.2329620878106962 -0.5220030134376644 0.4991880232861707 
-0.3408666287005633 -0.5754248078574782 -0.06079111741321359 -0.2190295972541381 -0.8871330916964908 -0.7079797606896616 0.001454502486405412 0.03796991672094377 0.02317386758850713 -0.1724188551479539 -0.9244713471053325 -0.1192654731721437 0.09300423749857928 -0.3311417434265684 -0.1445457890973522 -0.5356740517931704 -0.0512658207911272 0.1757770157683998 -0.009929133767013151 -0.04495041667767666 -0.005025706926109725 -0.4183719333369734 0.1130812024211096 -0.303604277621459 -1.122596011452501 0.162237898145386 
-0.3757444270191522 -0.08636458117683202 0.02567955774520482 -0.2742641749494868 0.6033974032272065 -0.6082485466706966 -0.05041224994623125 0.08008199996329898 -0.09683481438152866 0.1057498654236993 -1.304458020949445 -0.4484099409592499 0.3783680725016298 0.2304116856671621 0.3482281824695728 -0.3560082340237559 -0.02124332743751975 0.1611711720071971 -0.03238431257092816 -0.05214735419830927 -0.182479965602843 -0.4072980457275532 -0.07311742802234387 -0.03723159840259745 0.4831674820202719 0.3977343553684937 
-0.2123317125577764 -0.2305155315539235 0.1410577889570499 -0.2095713308457458 -1.032494505666446 0.1526006624184847 -0.002478839929218987 0.1061166890445363 -0.1173062724806773 -0.2259531376574566 -0.5174363262844809 -0.6663197809651988 0.3691041993476841 0.2843656991350841 -0.07127578523365281 -0.3845672994815562 -0.2025062065052707 -0.4277284279692999 -0.2175567583060647 -0.2869546085318251 -0.2387595657318039 -0.2711463301042913 -0.0417543577450549 -0.02027360288579157 0.1210980591600846 0.1940763816740041 
0.3743487043566237 0.1046138596620953 0.4053683317920502 -0.1197149277464002 -0.132562322272311 -0.06583617482372139 0.4500483229359961 -0.1362071738188276 -0.07728655466075428 -0.425046148707745 -0.6865701285271126 -0.3252940174520876 0.695748394260263 0.3109114939740136 -0.2051026741637139 -0.2831236645131486 -0.6340813990349246 -0.144444882560524 0.2688062490490554 -0.4637333907084613 -0.193402509799059 0.2281146618661175 -0.8339490018631722 -0.3759807198428978 0.4170654362274714 -1.271436869998802 
