solver_type L2R_L2LOSS_SVC
nr_class 26
label 1 11 5 15 13 14 4 9 7 18 24 16 3 20 12 23 2 21 26 25 19 6 22 17 8 10
nr_feature 128
bias -1
w
-0.3937455982178706 -0.05377272589719263 -0.4086532261566918 -0.1560853824741867 -0.1300462938980055 -0.1377667168850292 -0.2853384811351563 -0.05596177829099082 -0.2237614350362128 -0.0921489063775577 -0.1108265873677864 -0.08167578055857219 -0.1854264354270528 -0.09512213624258732 -0.06364050741901518 -0.1078338998721551 0.1640715548535814 -0.1654966262313291 -0.1143518000468716 0.04013879942677884 -0.1945219391636326 -0.2586756010720184 -0.1149653388341405 -0.1640164173038626 -0.003267165736148041 -0.1153921668580642 
-0.4042029381097416 -0.1734245408244509 -0.4941993744554303 -0.204410464069605 -0.2639762159679656 -0.2388383148720351 -0.2526485359579367 0.01976286971171464 -0.2519726907850462 -0.1270685632956843 -0.2036792459959703 0.02581729937772377 -0.2822243797268953 -0.2594829213849979 -0.1474730273380589 -0.2050161603304201 -0.09290645471214667 -0.1787172208059999 -0.2353338891279948 -0.07022796273042754 -0.2622796829087173 -0.1920088830357786 -0.2122814248614664 -0.2256247313019696 -0.1178246450139469 -0.2820169710618586 
-0.3272754225193473 -0.3387993333763467 -0.4117948333422602 -0.2577515033488481 -0.3408386764712193 -0.301437389406599 -0.4541054176998314 0.1359158318409234 -0.1084269677233403 -0.2436203220558923 -0.3364090151175571 0.07496133990984917 -0.3041310246504227 -0.3897699241173578 -0.1289587652543051 -0.3417414659357749 -0.32811120189182 -0.3426500069472571 -0.344668978363897 -0.183051482817335 -0.2328999262917932 -0.149454936050863 -0.3432396758162182 -0.1329602306570994 -0.2594657391120902 -0.3398893721312912 
-0.4874077018163739 -0.5565019363378391 -0.3751969518129341 -0.3487827680154662 -0.3481276953695605 -0.2883237616622571 -0.5790397963853827 0.1248492837971352 -0.1409930073497895 -0.3810350779955353 -0.3549492298622106 -0.06628087182847012 -0.355444616956438 -0.4334790827455379 -0.1502663396419124 -0.3825206166660815 -0.5293451846133569 -0.5066861449481123 -0.4582256981991092 -0.5503895950600716 -0.2843553022460553 -0.2815903035100998 -0.4093538680199689 -0.2177648426226133 -0.4264863682277518 -0.2035300759111543 
-0.7161184339861915 -0.7461323223465037 -0.4454338205967723 -0.3976442550842358 -0.397414863126471 -0.492970834912773 -0.4892341896349495 0.02635189711807779 -0.2232444064896101 -0.3200325322321423 -0.3182078096035846 -0.1049229350432417 -0.2911009230003133 -0.479929030978185 -0.2510115392907493 -0.3831774852863042 -0.450006070236115 -0.4455360646758995 -0.4987607718240237 -0.5094142260575637 -0.2813583677934118 -0.2569031012072415 -0.3810232302351513 -0.1873053574525108 -0.5903723021018659 -0.2577010343611411 
-0.5591276160023141 -0.6002383563233598 -0.3061852011745642 -0.3306190563641987 -0.326142297500658 -0.4658821857962808 -0.2963733265585228 -0.09615136434802017 -0.09809173289563662 -0.1741955638693828 -0.2974828470504785 0.05063341046176761 -0.1958900027630116 -0.2076385302076126 -0.2576699596527367 -0.3266639491124218 -0.479573427511436 -0.3580857693609731 -0.3165542860302484 -0.4623496535005762 -0.2844160406470853 0.004892387192570704 -0.3047550359681431 -0.3150351224613869 -0.4332061493717388 -0.2530593604688203 
-0.4083987920207565 -0.3224787557100885 -0.1306728967687622 -0.2903203200362168 -0.2490017679072249 -0.3002506878985306 -0.2662674829258612 -0.1691208307759358 -0.01398767593737709 0.02553934265035224 -0.2283887137756189 -0.08645412532157702 -0.1335561846260697 -0.2085004415730905 -0.2032647947268878 -0.2352623013035903 -0.3051238972198758 -0.2110120128664397 -0.2634309271680605 -0.06697623854545066 -0.07460686051236685 0.1971377113558081 -0.12442965649347 -0.3891308374687826 -0.2869452561291988 -0.1391310956652549 
-0.3694737250765409 -0.2159866504976454 -0.05215257443326209 -0.341852990817387 -0.1168563022107938 -0.2648787520302082 -0.06152639463501938 -0.1381578503871184 -0.1242451641479043 0.07052912552846255 -0.1497584506684246 -0.2562216581456775 -0.07331481975553879 -0.08554266102059735 -0.0846527231046862 -0.1383753190379687 -0.1998566789550521 -0.1092636536009723 -0.1627297608857418 0.1344713471865795 -0.001181227135101106 0.06322503628144538 0.01450643426457289 -0.1472874009771596 -0.1370338809651277 -0.04989796473350225 
0.04481486300553708 -0.01981232934771717 -0.005258888898842195 -0.02673639867767093 -0.1388397091049164 -0.0226859750268452 0.3306955109506743 0.06962498092100027 -0.03664272146418325 0.05666786796652814 -0.07065572887262812 0.03323356976648194 0.1102258918602386 -0.01573423676262112 -0.01336363226286826 -0.1117719037857834 -0.0191050230388273 -0.002784325523165413 0.0003307217202777822 -0.06309812002532734 -0.05769492090008131 0.2965539119812771 0.04002319653486761 -0.05375124484131926 -0.02100228019550007 -0.06713933893050768 
-0.01151766057881715 -0.02631874736365484 0.008126589281005785 0.03329980350628895 -0.1871420012473821 0.02442458887322485 -0.2165327531215978 -0.03030769509369367 0.06671876873114509 -0.08514481230465432 -0.05634135399245842 0.01648994918238915 0.1589265421325483 -0.0007278273204233828 0.01612547712391334 -0.1016607747181727 0.1200715236310165 -0.1889328525101447 0.01656135563779636 0.1805605475624903 0.2166027729351659 0.1364324742565192 -0.1226158638137112 0.04051898685470393 0.02153295286510445 -0.139893799751122 
0.01212157335957097 0.05379503703203294 -0.004910648167102086 -0.01045628942355833 -0.1769916136074628 -0.02216219149329964 -0.04903516163928611 0.02925979995921901 -0.0493494489713642 -0.02357786018440512 -0.09762525217329455 -0.07459782199111233 -0.1185799449123785 -0.01282337621720251 -0.007993048859648451 -0.1610630742281216 -0.02046328898374137 0.1467212960550327 -0.01192336307642899 -0.1196172898613695 -0.1342730612008716 -0.01337916388036952 -0.1247617221173393 0.1627746062883012 0.01793846299778593 -0.1802102964247442 
-0.008237911280895361 -0.2384580996688596 -5.406226055227633e-06 0.01917181841756039 -0.1836674677021249 -0.001649497431797951 0.2203144398153718 0.01296259337529985 0.04566815699629294 0.1377008059396735 -0.05927313431613174 0.2223327380253342 -0.05252554592469109 0.02083460542195556 -0.03377244096565964 -0.1630403399661853 -0.04808514635976024 -0.005683288925270223 -0.008238185284241971 0.1261743513477227 0.177608953981146 0.2951832998713532 -0.134945861134909 0.1599487765612367 -0.06735020259278403 -0.1952782838774149 
0.007306712522920904 0.07072956912214665 -0.002972960561564675 -0.02301262309872229 0.09882270084386191 0.01879759016830732 0.01195697163555379 0.02430493553302997 -0.01262175885086825 -0.04524937200611309 -0.04608791839556655 0.08101160829123601 -0.1474995074406426 -0.01886961777618231 -0.004966786342010708 -0.175073969365049 -0.09872948268044095 0.06538520438193168 0.1436238133747825 -0.1598613221245766 -0.002359580849137418 -0.02205193098645829 -0.1021329287960963 0.11543127997476 0.03725074620599456 -0.165674589038611 
-0.002530978310973078 0.06034103679296762 0.0015029649628279 0.01177920695543165 -0.07145036450416949 -0.01868029093523171 0.009036805510573041 0.004642936020317265 0.008051094740408948 0.01364512397102773 0.01887355530720044 0.06303228374188753 -0.02210806924920468 0.0005796409022545522 0.06204322555334267 -0.1560281976541363 0.1762459747578785 0.03363074081205424 0.02934626270622544 0.1115434831389805 -0.1385880759782549 -0.000810660780906472 0.05198596601497282 0.009009651602568256 -0.232353195556124 -0.1279182250010877 
0.003925902687976609 -0.1817802726501893 -0.003230561650859307 -0.01970209776700576 0.09721457947613121 0.01660706416349004 -0.02773633987841716 -0.007115387083609182 -0.009316138650886135 -0.157099656351656 0.1105454606069182 0.1366627729333098 0.0659231249234204 0.02761028708300077 -0.002907416044046316 -0.02660565050463829 0.1113311250492136 -0.06517167062670967 0.04831155936014806 -0.07180770527552897 0.1452748733404657 -0.03072109008193655 -0.09995909736585955 0.3599211065462188 0.09968522202609631 -0.1682197060725683 
0.0007155682412230473 -0.1042990064210127 0.003913332812044827 0.01092137650053399 -0.09685333529131265 -0.00724467048329238 0.03998351178148885 0.1007941433276893 0.02494360702513427 0.07307272338562612 -0.05199442654849556 0.1790125624202031 -0.1368209920205792 -0.01644951347487195 -0.1555213479429601 -0.003554127055357191 0.1701423594543666 0.05117709578780474 -0.1251546244724999 -0.04551550254206938 -0.1040274801967217 0.08741595430363935 0.210129325159894 -0.2933291180770545 -0.07867124584437837 -0.1056430556175188 
-0.294634952697507 0.05687271787700616 -0.2689071745859656 -0.1722741416749839 -0.1598575249145552 -0.01498724304524162 -0.4101222716641854 -0.2539529401448447 -0.04639369897642598 -0.04348811474014962 0.03984526118250068 0.1077561116823096 -0.2236167673243351 -0.2874540102068628 -0.144744692677128 -0.1330328934405879 0.06694499797082981 -0.1569535928444185 -0.206255584527035 -0.06164924829176758 -0.1589884751424314 -0.2398448261586985 -0.044365967807614 -0.08682598773747188 -0.001030716886731213 -0.1340215085281661 
-0.03478904643013041 -0.01864470328370864 0.09819163942886977 0.01646762613562852 -0.08966827767311752 -0.1042719026146998 -0.2431048277298488 -0.3614124519687253 0.1469040564957434 -0.03613956777293065 -0.0746659658406247 0.00638475532562224 -0.08453215784421914 -0.2577031259420833 -0.1776163360094752 -0.07037267268148419 -0.04715564753735247 -0.08507793386340208 -0.1240871428393677 -0.04244352510280158 -0.05826105481603588 -0.1081996546272645 -0.08092628193892761 0.0962164999324122 -0.1530398976019869 -0.1614655392579507 
-0.07156092945777359 -0.2044108294248874 0.04548997273897518 0.03078461790091702 -0.1441873656499199 -0.07795016861431658 -0.2247270410796928 -0.4065183350619533 -0.01366239054116434 -0.1592005760622187 -0.1082189023974471 -0.102509492781306 -0.008289481648997198 -0.1136930653233103 -0.08654628024014234 -0.09865672872209739 -0.1519415408667426 -0.1908188483360817 -0.1226588009286647 0.03980561498024012 0.03870485157576633 -0.02098141364319989 -0.1690764893928472 -0.1111475600524001 -0.1913196966148348 -0.1229375477381259 
-0.1402534512743265 -0.167794437076215 -0.2129399986603732 -0.1889390566439552 -0.1181487182038967 -0.2000922839974604 -0.3532747539863029 -0.4814224069096165 -0.3036719656397138 -0.2567506694787761 -0.1426795780544541 -0.3936054838386618 -0.06859352734536482 -0.2028820746751894 0.04517419757923637 -0.1069795538398394 -0.2823709734624417 -0.3429376396693415 -0.2557039556019782 -0.3605648613256642 -0.1244613331961749 -0.22541346154429 -0.2413768375327793 -0.3395553078156555 -0.2356597507222439 -0.1657256108253439 
0.02049690069469071 -0.3151772419156457 0.01480120139895368 0.03687139401015307 -0.1835435263704896 0.0927681155330085 -0.06538565825271392 0.04817145612054139 0.03147474114171024 0.01803032246407246 -0.1065035872688405 0.05876345373666691 0.01042763037286741 0.01569262510474299 -0.006339423281791251 -0.1240818067412734 -0.2704088718760409 -0.3106335403465773 -0.1102402103946544 0.06906948716026973 -0.004447011536672389 0.2585213828629858 -0.05780320872032282 0.02373089979422038 0.01392626410161158 -0.1941915839233705 
-0.03545765009291247 -0.4091456374019126 -0.007657848506659052 -0.05304524315474003 -0.1719314479660435 -0.0781184879561108 0.05938677867838459 -0.03269381215188272 0.02914824126342481 -0.03108698775316341 -0.1022552298530063 0.080014578463732 -0.164781085557121 -0.009504853544669914 -0.05908711999021612 -0.0999758312384096 -0.3239202285596394 -0.07902000428810348 -0.148443188570676 -0.1529266833218519 -0.2074924895821923 0.001986703194822777 -0.03136056795223383 0.07802177347052278 0.003763905639001122 -0.1427654944131968 
0.03995342870224493 -0.2457253783686704 0.006792086550737664 0.06410220672647556 -0.136168030364257 0.02124897136459653 -0.02428294185432178 0.005943249740346699 -0.005351194784473715 0.0122488791431046 -0.1075059386316968 0.243445924396215 0.02005422042448744 0.007123274907753293 0.02258762760927741 -0.1154288487845934 -0.2988260160995085 0.03199158561237741 -0.2056483741557341 0.057636664138799 0.02828374044223891 0.1248047492412856 -0.00695484252376672 -0.05278241219291547 -0.5137181678543592 -0.08772123331183149 
-0.001881456626700194 -0.4179549851262537 -0.005310029451743559 -0.04320270414306841 -0.07823595969604859 -0.01877352190806432 -0.3805017198583997 0.06647847648773557 -0.04379698570984346 -0.04414073633045525 -0.07668757441235874 -0.03562734345868866 0.0848193998450523 0.03266579721655144 -0.05873119681864779 -0.0001723372715318416 -0.4158535558579368 -0.1079653440166176 -0.2321354449297868 -0.1380846902526879 0.0993223452744102 0.2482016874444963 0.2840776047109763 -0.1504715716846058 -0.317399020467177 -0.0812350601347047 
-0.0289476022822697 0.2879172143650356 0.005689684504807508 0.06856155107700347 0.05129284741251318 0.05153935072075347 0.1511399400796426 0.08673616965677865 0.1238050927845668 0.1524824624707251 0.07572660598560375 0.0920140968132392 0.04357970395486865 0.1185369335045448 0.1177059485363295 0.2564441637767496 0.04433856127720784 0.1364297444489834 0.1278361893144315 0.2844568065950093 0.1535214653300979 0.02639350721245071 0.02466865897012544 0.3429944649149663 0.1916730540001695 -0.07857466187324659 
0.01259893796503133 -0.1136796896303134 -0.0006482877457918647 -0.002220066339188784 0.03824887312411127 -0.01861808616110887 -0.1414536099574527 -0.01102148287523673 -0.05124246716727264 0.0522989324168501 0.06518974113882438 0.1075871384905905 -0.06126025973496167 -0.04411073278712437 -0.04262459574764228 -0.1896817163750366 -0.03136428525845653 -0.02873572407561183 0.0365185387288249 -0.04107681726429806 -0.05261830941882376 -0.03102241823829813 0.07478862396806964 -0.02258558535968283 0.04017523894023288 -0.09576241710489859 
-0.007897967986737127 0.01731875120760824 0.001177502333307453 -0.005518775651006165 0.09866681457996371 0.004175985113881921 -0.07454709982714487 -0.01114699848946025 0.0383829612557963 0.07589440866913028 -0.1392715639041679 0.1551201587316758 0.05421479229667221 0.008484941828598639 0.05970940821748097 -0.08981074929339151 -0.07600895812760697 -0.3326266320053657 -0.03991004685826561 -0.04661745564594652 -0.008701419339689362 0.02453087428315834 -0.03047520496081567 -0.0889802186134277 -0.004754025902557441 -0.1089640385365647 
0.01095292424333169 -0.1820513128161304 0.002016149661759387 0.0009595485594254256 -0.1062465051771 0.001580328146287225 0.1397528543180791 0.004388735460630896 -0.03050112123520543 -0.0004083688525986071 -0.02034117266947826 -0.03551196286477487 0.05981830405722841 -0.008818925582127973 0.01006428405382496 -0.04997676180321264 0.1769415735168964 0.1209982246922214 0.1476509725131908 0.1577150430327224 -0.05617581730602813 -0.005537768134801153 -0.007768790239027894 0.1485286828627388 -0.1245620003815663 -0.01643192552976301 
-0.005199128559964434 0.1057291007849925 0.001492851963495943 0.01304631734930143 0.03636431473716667 -0.02157287176563049 -0.06626404350831057 -0.02711744451802885 -0.01025902481269729 -0.1672292421544934 -0.05085811248056375 -0.1332586601946136 0.1278690420646942 0.00168896363237607 0.04297534222016411 -0.06347248973981177 -0.08379542830623428 -0.02449293599277027 -0.1916070696439992 -0.1459648392073671 0.02609697697438668 0.01356421606406075 -0.1891596423506188 -0.3061270813568439 -0.1462622252114039 0.0805131000844215 
-0.001669951206706713 -0.009871671806043345 -0.001111163879422822 0.006407951163489915 0.002230551711098894 0.00241209817853381 -0.02668090809975379 -0.0370561420341244 0.02043426759847409 -0.003749427771186204 0.1144651932052122 0.1478343068082287 0.02117060799599236 0.001739115690121706 0.02244298606223386 -0.01632886992834363 -0.3861683928121697 0.0003103657152158876 -0.1262068473052147 0.04798393598633011 0.03618715079259512 -0.2917390169303595 0.05240770786463066 0.1925352858657327 0.001594914603930511 -0.02082594465011492 
0.000602732184367637 -0.05621086836288846 0.0003725010045744616 -0.007063556568585843 -0.006260669085441933 -0.00635508378819588 -0.0514997758296866 0.02666297773328599 -0.008238622098751184 -0.09300973424786597 -0.05739098946431714 0.1286212062752251 0.01137709265295105 -0.005094009479912414 -0.247559069060433 0.03820686321177397 0.0003983033669116053 -0.005943841515257036 0.1210071075635239 0.1666981908896486 -0.2675265121433285 -0.002989442721234655 -0.005813748604015123 -0.07431700210098681 0.05935503615269756 0.00189853130184266 
-0.001430010244172588 0.1213396592176551 0.0005661830852121418 -0.02488393525983674 0.05946905542951979 0.00940701856276518 -0.09114511457183563 -0.01566625990333013 0.01845800064699616 0.01722537813711753 -0.03695463669606637 0.115486645277483 0.04001534843721421 0.03983651741150849 -0.2195011652769495 -0.05652660831508436 0.1418529480880999 -0.007219284205434141 0.1015786143785968 0.07365585695557399 -0.037154186017133 0.02951427373321989 0.01992125163577138 -0.05968711351198758 -0.09521292363125805 -0.09468672622875017 
-0.530979244562959 -0.3283549923207058 -0.5597906324902419 -0.494396615061652 -0.2985594428319941 -0.2511287852855184 -0.7339235919785598 -0.6304425161052026 -0.5936286926066698 0.0841493664229811 -0.07803695497786867 -0.3019688774337617 -0.1957026441705567 -0.7896157575765287 -0.3243747685077097 -0.1607545608234985 -0.3199868672226073 -0.008678186124522898 -0.4287472233502764 -0.797422188653311 -0.2572039778141755 -0.3507799219054234 -0.1244088948534679 -0.3646846810834897 -0.343927181484747 -0.1157559232684902 
-0.08280712901304552 0.1167571719333122 0.0008497878292393885 0.004053440528473505 -0.2028295729561404 0.001413916982272556 0.009169432330734176 0.02631389248521465 0.008156813509721646 -0.07877879538726167 0.0443999216441497 0.1957723478145084 0.05956781997418649 -0.0002180791306003802 0.06788810083168154 -0.2066153908592248 -0.1205337521157062 -0.269587041808183 0.1906364802887141 -0.06211090503187963 0.1467266135835029 0.05080380786627864 -0.2397041174940498 0.02235403029258803 -0.1144920546836229 -0.1137045686849072 
-0.2450112358184816 -0.1643533029559131 -0.003081034754419929 -0.005066453441741673 -0.1320218207448674 -0.06832389311710994 -0.003087657781571288 0.01196708833082639 -0.01274205113858409 0.06242725971745545 -0.1289077681618474 0.1123740798484273 -0.09450367334982646 -0.01190033133692891 -0.05007777210342167 -0.1925318675207505 -0.1004704605695827 -0.3802381518228203 -0.07091716786195867 -0.08675001156538227 -0.1186825514076679 -0.08208112163567294 -0.2033905720441147 0.07678638063982124 -0.07778135416796367 -0.0851759997109337 
-0.1409541879366221 -0.02821942562900762 0.0005731315062524819 -0.003327760719424245 -0.247775938432066 0.0002591527476821483 -0.1101837298763911 -0.004186305541807861 0.02480010565961802 -0.08501389763132167 -0.1624024890158066 0.01143117553468797 -0.02638908146570025 -0.00188651029710378 0.01220994860278724 -0.1788897178980449 -0.2535833500671099 -0.03863725623158759 -0.03956273524682668 -0.03137103944845525 0.02751020597198706 -0.02737211914435706 -0.3161039139966905 -0.01787084284810493 0.002502321178915118 -0.008146023953706687 
0.03767837258482616 -0.397415193056188 -0.01790294651754087 -0.05531804346643852 -0.3006479579478327 -0.05478831633124447 0.02069654361479737 -0.08781304826513156 -0.03419399534317932 0.01676799968320766 -0.1894268157246539 -0.1249660653087701 0.02978960619010595 -0.02288520704476344 -0.01546519921823985 -0.2139468081798822 -0.01280105314731881 -0.1975143409307327 0.03107945956298624 -0.09262918570241216 -0.09499767980958242 -0.04444831163533355 -0.243764261023784 0.008752287824914761 -0.228541082747394 -0.02692495963719383 
-0.005616585583982735 0.1277962874195371 0.0005495088731337238 0.01777026715599494 -0.1973942818638584 0.01699163469497958 -0.2129095770910392 0.03129088960613333 -0.02332948584235979 -0.01835814706217253 -0.08775463001691554 -0.02741649555428993 -0.01697814078100134 0.02330901867334164 -0.0731715054369364 -0.265442056916718 0.1557996459818721 -0.0889161409291207 0.0680322361176233 0.02054525917175021 0.1810346426481962 -0.05279521905111464 -0.04090207307689947 -0.07899510010312613 -0.3867164854264322 0.05087453599454481 
-0.006935998946343269 -0.06965108703245652 -0.001418236958605842 -0.005729119034721008 -0.1250416953091575 -0.007419542144578125 0.1568912311093361 -0.02231087696451352 0.005271029335859707 0.05255306124942766 0.1359383065827334 0.07092193249111062 0.01693115405345651 -0.01203580251047981 -0.08239277265946138 -0.160289389218162 -0.4308243091873026 0.05711441590336058 0.02306634381344721 -0.03575996011414687 -0.1895290265975464 0.05037295548445304 0.08864039014891534 0.06712838762421815 -0.05752664680245733 -0.04075602965459731 
0.0006013101463436591 -0.4365316426772428 0.001865016256978241 -0.006635915391764976 -0.2412600382702662 0.003635667161396146 -0.05558036999146093 -0.3166071011136224 0.01455498661734111 -0.0934601146197744 -0.09804760469325152 0.2059128249616085 -0.01500523534431866 -0.03554950556498596 -0.05959693273362593 -0.1002138677258383 -0.2139226629511216 0.01705350345650598 -0.2060624717881726 -0.008824870118646575 0.2164761369313718 0.05891016127724966 0.1778142875767184 -0.4613188883758489 0.1395768623758717 -0.1786076929340844 
0.02404061198899746 -0.02188387037914867 0.0003531643285565059 -0.03428598145656372 -0.03025145233910967 -0.03877512090951755 0.1151780331987304 0.02371055688154632 -0.0713136481171019 -0.06386941466576589 0.08556849943696598 0.03810922461969731 -0.1045357886512429 -0.08473693633541909 0.06476531777494185 -0.02119758369286079 0.09546040867812747 0.03953378858447464 0.1359861643967817 0.1055077090825911 0.1724092876845177 -0.001305771836691198 0.1885589156449269 -0.007944037657276347 0.0679952110591031 -0.1237802786766984 
0.0007245461211004042 -0.07137748649920027 0.0002277154649844739 -0.0006154917474782359 0.01631924635145011 0.001995508944216217 0.02887274298826317 -0.04632077084072333 -0.002008548766068433 0.02044012708178836 -0.01057082506369046 -0.05123732827810809 0.02407689013495642 -0.01279682416091065 0.08474312399002787 -0.1086246230637558 -0.1386874295342513 0.05082687493303203 -0.06405704879808739 -0.04146931552774624 0.02439395797114246 -0.01898955012067852 0.1783939954132615 0.0736546276958715 0.02136622753964212 -0.1202602181306208 
0.0002716383276235808 -0.07452448475238281 0.0008009848852080262 -0.007254630290554958 -0.02932549436551866 -0.001801572594402311 0.04578146399026475 0.01282502040318793 -0.01296686926104145 -0.0514553547589005 -0.06091916909862082 0.03091501029940602 0.04981769540064138 0.006861219981835525 -0.02451870775961754 -0.009397827701173717 0.009935883129970999 -0.08262910468033847 -0.07216343080835826 0.05581941119335561 0.0948503694573964 -0.005077404788148158 -0.3502582134414584 -0.01117676707985064 -0.2261597891942835 -0.08778106959507131 
-0.006216202541965556 -0.001785428960228587 -0.004256670002830957 0.01373723472506741 0.03223770328608355 0.0002292539279629159 -0.05125522580153803 -0.002612414057229193 -0.005800679736477249 0.1036703955190605 -0.07619537363812212 -0.1333460718122772 -0.04677629209685072 0.01008498806237999 0.02221282981719039 -0.1437479464291289 -0.08363384837208399 -0.03077966019989395 0.05786184412012821 -0.1803704559065983 -0.168510508662075 0.03162898916671118 0.06741641397891279 0.1850523133647342 0.1546608979314844 0.01482729314833638 
0.006311111277583496 0.03799824186461734 -0.004729319432675616 -0.02268421589344375 -0.006617549399373202 0.02219301598106988 -0.04520941559294733 -0.04807032531148196 0.02958394804421004 -0.05945688606010407 0.1644933560333841 0.04479735552790593 -0.1049442407797093 0.001904970124337952 0.01754272359619977 0.009866027836774278 -0.1432237219387373 -0.04142334406860752 -0.1191881607578096 0.0973417188151277 -0.1419420884723291 -0.1359441440706192 -0.2673502405565388 0.08262204759629325 -0.2114638402632071 0.02153965935883605 
-0.003073127947793766 -0.09214625645939246 0.0001345903933219418 -0.05762609823890784 0.006218407511766997 -0.001816183253985281 0.1080648605800669 0.0271361389817422 0.004178416245031645 0.06970860418001087 0.03911166686279931 -0.02796998716106013 0.04917594483036205 0.01125649852226235 -0.01039373737031842 -0.06393535529071763 0.009587751002890771 -0.0467341565738787 0.1488148191512964 0.01050864446916894 -0.08198019409519754 -0.01702732352096433 0.02642147175663374 0.04120753741614907 0.08542259784736796 0.01003700233781459 
0.002006907263321379 -0.2014638901201516 0.002230209812053003 0.01255008634263968 4.447802735648253e-05 -0.0006994600934802715 -0.0005998814809244196 -0.03230671835185896 -0.02778786454579265 -0.03680749802478801 -0.08775180852292182 -0.01024964748619812 -0.316607988940564 0.006549492430378371 -0.1880970554166132 -0.1347128413197855 0.07534153994957835 0.04361493068726016 -0.1460189628266067 -0.02518383442145971 -0.143449942593297 0.01744381248393892 -0.0390303399849831 -0.0894077022465093 -0.02175009900016781 -0.07176087377829735 
-0.00160891512987819 -0.05136381610672826 -0.004583147130679385 0.02122663323905303 -0.04962731037856704 0.002555872505897966 0.1238792465604288 -0.02530287497619895 0.02767876021930516 -0.1387933131046242 -0.1574678803082606 0.07695634879561139 -0.1803740783162755 -0.02814686557421878 0.009454416556460657 0.1414536015687789 -0.06498415756126938 -0.0383844957022233 -0.06774494802315978 -0.009593185632459554 -0.001475253726404166 -0.008451372826523031 -0.02611141013727139 -0.06165513032030013 0.1393127202687905 -0.07474145858571583 
-0.2075750547622934 -0.1103058309717927 -0.0158244719059808 -0.1235597110128214 -0.1064097070121768 -0.04013636402675783 -0.1308881830077719 -0.02496882441388832 -0.04208332995877213 -0.07986616306553833 -0.3364507782635312 -0.2194115272575319 -0.3261007284691843 -0.070749442160858 -0.2800104604445611 -0.2172617432512534 -0.03249307632391354 -0.2014559349169719 -0.1674288606601085 0.01523091460562213 -0.2417291249877222 -0.2467981969746413 -0.172972002397082 -0.1072077671234537 -0.18744928093773 -0.2012095052848408 
-0.01733242237154489 -0.1408403991162855 -0.004285050063656973 0.0004454979082097287 -0.1303466316438069 -0.01508622168654315 -0.1193418856149894 -0.007061972119083473 -0.02602762406904185 0.00367956545984745 -0.0423179971010848 -0.1035076803293751 -0.1085233419689504 -0.01071959273181758 -0.06535085540572874 -0.4047209679462617 0.003679797728362853 -0.04019608770430948 -0.01256893877908183 0.1516129624894495 -0.1665590356976044 -0.279766313706631 -0.1603527093373146 -0.000871180464894831 -0.1004038919092876 -0.1752145362465256 
0.001592271073628035 -0.0991491375989874 -0.0009391280553351212 -0.005641947133206666 0.1352311362375368 0.002685501279195107 -0.01109252251624855 0.01347960581377225 0.008415950434154299 -0.0750681189256702 -0.01822138870019855 -0.0686519468544899 0.0295237581333686 0.006256698395066171 -0.000569121078895335 -0.2760204152718758 -0.1092391330170559 -0.6386793994296155 -0.07356479827653001 0.03673330967951347 0.03394849054070895 0.05498931455540531 0.1946272725241457 0.005642118696414603 -0.1139265839786247 -0.1106651318777426 
0.04327363458828483 0.05151018334513065 0.0013908354368564 0.01100093296579204 -0.166699388378294 -0.0002440026653185883 -0.2412513958281532 -0.04419601168292094 -0.003169661300556268 -0.1436996623569191 0.03217045906201728 0.0872844495041073 0.008794359304784853 0.007741765537214517 0.01573897132650829 -0.08781150336315639 0.09492491792193918 0.03656460058607056 -0.09504416860760755 0.0800544466963523 0.1080875456810334 -0.08949794203650785 -0.3567230588805471 -0.234688572696364 -0.1814531816999803 -0.008859445372081843 
-0.02332496996204846 -0.1335924594689949 0.01089581715005288 0.04695592405329179 -0.03933825998013038 0.03457821251604966 -0.1589965302166606 0.05944968765020155 0.0128465483203759 0.0345638258734099 -0.1066528733375806 -0.1658500002859847 0.001917112868546793 0.0380996982420501 0.01345310584105862 -0.283224113417371 -0.07567792505245417 -0.05691017649679306 0.04663878284743584 0.04734205647391599 -0.004926383166640097 0.04358936050296622 -0.3774857565506137 0.135158614822814 0.06260086707292307 0.02954749816177775 
0.00751522159738648 -0.08794285326052809 0.0002230636640419611 -0.02988256323592485 0.00461361915075807 -0.01323076709661756 0.003153286989563672 -0.0521716961720578 0.01348227306262986 -0.09657348274958832 -0.08136707771679408 0.1987493683198202 -0.1021312367303676 -0.01829711606390122 0.03123664400236702 -0.06237110862920255 -0.04750114825009663 0.02322449634987833 0.1335612154569791 0.01580184738639482 -0.07314186272222939 -0.06606027363329336 0.0855592259038957 -0.1153739993212911 -0.2105380312593661 -0.001054753007026802 
-0.00325939888598815 -0.09939054891717283 2.964592258397564e-05 0.009689769335328564 -0.0038026846295593 0.004011156002410939 -0.02819240035031284 -0.04849776978084219 0.003053531621692781 0.04275997102292271 0.06871376402097731 0.08548313355958791 0.005069172895746188 -0.001840415822572623 -0.181745169584152 -0.02190701618830727 -0.2862624776266542 0.002775774293431383 -0.1317904184121261 -0.04207875770310981 0.0596092961464794 0.1766769305020951 0.02858548270045218 -0.1512536407930046 -0.0490176507119177 -0.06427101162569843 
0.00558275831979254 0.05141794807712085 -0.002038785793390928 -0.01094090240589588 0.08628657420021299 -0.02044969468678926 -0.0366146596222095 0.134132335554463 -0.0309735214814002 -0.05006741066416459 -0.08800084467317162 -0.199933490683821 -0.09886051305303782 -0.01386242484336168 -0.3250539948141164 0.1798591840277518 -0.156341513208909 -0.0186773767649787 0.08273943857069176 0.128425321164313 -0.2528021266565909 -0.1051970356967166 -0.05388933817324597 3.126293760602776e-05 -0.1498274292724572 -0.03811367476709982 
-0.04812410951313293 -0.2433246090744669 -0.0005773838234234156 0.03674628813753054 0.04940085087463937 0.06645996085468339 -0.1487925722508013 -0.0708770806408946 -0.01708003254548232 0.1074811211278539 -0.2622800409649271 -0.2114355673542188 0.08099708301507393 0.1087812095809824 -0.1621315433694721 -0.07605724620457142 -0.2540358679877774 -0.002397288979185515 -0.2273284746466678 -0.1196855238216366 -0.02350956789973523 -0.2187871280999073 -0.005094754812863847 -0.3576603118052853 -0.284596704489967 -0.213365356609465 
0.006020521853015043 -0.06810528584831611 0.0009036007831705873 -0.009368974983263549 0.01462730852238343 -0.007976441425288231 -0.2801909343908788 0.08316236326018143 0.01326398646534604 -0.0172670293147887 -0.1235769081412654 0.1811551465268733 -0.2369489965514178 -0.02470514998451086 0.06757457355373389 0.04542682558669632 0.09105175099843041 -0.01565008757346586 -0.03188697772600934 -0.02987875709408219 0.1127568624960127 -0.01989401873243248 0.0683026663851234 -0.01931367687813521 0.04618895982980452 -0.1597326008900972 
-0.003911575982109648 0.2024400481531274 0.0005880744542991123 -0.007987750884028888 -0.01399732580006942 -0.005227158482882227 -0.1027677264806453 -0.04994774141418124 -0.01350767690377959 0.06562163480496758 0.1485931921542085 0.007707980458022659 -0.004677512708667959 0.005388274005660141 0.03019055773738149 -0.05901147844019462 -0.02757776486677571 -0.03205531428422518 0.1517320859733479 -0.114511087511976 0.172375689450646 0.1043126189473573 -0.0401996890469969 -0.2002336742573088 0.08678081181345162 -0.132300474663926 
-0.001767164978478791 -0.1353287188745313 0.001057680379224148 0.01518348205119697 0.009651083104980493 0.01624647712495145 0.08728726297396289 0.03771363268234888 0.03077776110325714 -0.006379068652430869 0.07229574221251867 -0.03361522489255753 -0.2528608792957927 -0.007134922006435731 0.004810882607110166 0.1086653010515305 0.04289002178967535 -0.02881957188906204 -0.05977866685455394 0.1858721922609721 -0.02191767969384895 0.04498029064213171 -0.01134624643479417 0.04949911569634988 -0.1162843582378405 -0.06914973780951429 
0.002593051894215825 0.05657217948053603 0.01380975870452971 -0.1024174031329098 -0.0008711685005272336 -0.06248549667593453 -0.01542597822615438 -0.06800980753344847 -0.09691589424408974 -0.06335020207372091 0.01199059119009933 -0.06988058528320493 -0.2503330332912535 -0.01258848044805614 0.01849445145865788 0.02662564006499857 0.009885602713975761 0.03107723605352751 0.02991886479142696 -0.0280722336276853 -0.02354398426660738 -0.1792222690116468 -0.01973346655389213 -0.1466920440230116 -0.02486067567479883 -0.1241965846056996 
-0.007268863544470977 -0.09956043158915559 -0.008858420531987387 0.02053282206818702 0.06301911021377071 0.01805143932759484 0.01934126121116026 0.06420787904649208 0.01671315633943169 -0.090980998750221 -0.04400058218105878 -0.0473941150962388 0.04496588768684912 0.0194016183035179 0.04274845609065488 -0.08622029073975609 0.002884235206600035 0.009093601903918462 -0.05692071077089527 -0.03318424765871299 0.0009032708809866782 0.09772297729418043 -0.01678341856819604 0.1346045140832316 -0.170432179220143 0.05084150927421768 
0.006877026665612681 -0.02395371244250356 0.004054742438784592 -0.01560106201949463 -0.08860491817281657 -0.01141711938720562 0.02733973049376092 -0.04022875007015109 0.01918277029483657 -0.4450957310540452 -0.1500484969382715 0.03582983378412508 -0.02644364449132524 -0.0182011822542362 -0.07951738110353691 0.02118014721170962 -0.07066395823235946 -0.01737186764762283 -0.3295572635423333 -0.004151153771134015 0.06815583953988384 -0.115105773076631 -0.04162072015492028 -0.04651683258403048 0.1442510223791624 0.007142924597703008 
-0.003625091539678342 -0.1568806428822483 -0.007877234339299474 0.006495464949329741 0.06554458413654216 0.009667947770456922 -0.2078549791670268 0.05225506044445279 -0.02151380737807146 -0.356517670076166 -0.03517583347515417 -0.2032114668991804 -0.003864085605239788 0.008020110152182668 0.1511640171048025 -0.01739775427652114 -0.127632425070471 0.02725496935198637 0.04107553693366375 -0.008945986548919396 0.1023011712834207 -0.08971215610195832 -0.1023709504224287 -0.2204550309020388 -0.105793979510194 -0.04077475629979485 
0.02963178261593459 -0.1063216039106018 -0.00590322087012355 0.06807036885215038 -0.0274206008132876 0.01480796882808469 -0.3112221191483076 -0.05845890940322816 -0.003401793575358697 -0.01482492335843505 -0.3606868769057365 0.05145720118873005 -0.04597577765893502 -0.05316303947713705 0.03772332189634643 -0.08312735086851469 -0.02816601693474395 -0.05370553411872608 -0.0805867935356042 -0.1281467322075077 -0.1857723295249903 -0.03599189363026713 -0.1583516373820812 -0.1122140928338168 0.1137654842516975 -0.2409060456835037 
-0.01035439977174088 -0.01468706671313399 0.007119547411191769 -0.01948255677799054 -0.006846107576554048 0.01237633068816149 0.0740445181003075 -0.07601113508133904 0.01408110785671647 0.1066641300207289 -0.1717532604218985 -0.02273717911235921 -0.09676502681905264 0.03035584358896342 -0.02998510563944921 -0.3314153824285809 -0.1451239251522861 0.01905094227428149 -0.1581642427134044 -0.07300990196531661 0.01024961151984471 0.037906276206715 -0.01385087977171113 0.01554916230615509 -0.09911295821966203 -0.1987235345359672 
0.01238742195329368 -0.1890153643733123 -0.002646374196828293 0.006763779006317667 -0.005212292700919266 -0.005312039635484828 -0.137480115165946 -0.1153387224396835 0.00111065878667844 -0.01943977999854461 -0.04267079227999464 0.03580668169255267 0.0168047816267237 0.001332042817246821 0.0132986286581072 0.1672185193999298 0.0424633114796456 -0.1061433015254931 0.1483627974952721 0.0609000721282102 0.008247955278440947 0.09737325242802108 -0.1012809655530858 0.1672274819578093 -0.07335071920596653 -0.2028626085673364 
-0.02837372608822036 0.1204779771438939 0.003926094705716646 0.01799623362219357 0.06147305224434857 0.008767753779797095 -0.1914589273688124 0.003876388522992101 0.002141863193681431 -0.009571396003932951 0.1317687826103948 -0.1367053123189255 -0.04644826148588498 0.007998187303295025 0.01441968152576014 0.05856782404444361 -0.2494001274748093 -0.08738759960536722 -0.05827752101455742 -0.08610975635208661 0.04159175108391787 -0.09505063062290681 -0.1707703353963769 -0.09478902211256529 -0.06202863843882774 -0.1433304117185796 
0.03800269029749291 -0.1026606301541331 -0.01372946146825645 -0.08201368736614718 0.02083781062682763 -0.05501423445408651 0.07338741512239295 -0.05821895922155449 -0.004203320902923318 0.05931430145188579 0.04917277069134835 -0.1537642168117659 0.061026347441101 -0.06761113909779051 -0.04729926395059325 -0.01278080129700974 -0.05300062332817851 0.01933832813352976 0.05193966025374742 0.03911396788719541 0.1515669106494748 -0.02867920583005491 -0.2419444526720031 0.08697538360207903 0.09187616801132492 0.05777278040614753 
-0.02615091273962141 0.0466385290829029 0.005584260492519861 0.09483097639230402 0.04208247456003242 0.04898261853597605 -0.02171813755045379 0.05506847440633918 0.0001186031624806239 0.08616682439994336 0.1031093135713787 -0.109316798026224 -0.1171580900780614 0.05361766119055354 -0.0143147817053322 0.0128334739158293 0.0889360102298251 -0.06846390268744273 0.1783022702499456 0.1282002597706553 -0.0141811777319658 -0.124445096832116 -0.06638572704006038 -0.03396267307694661 -0.04943097369043827 0.02122942642568857 
0.02953907347595191 0.1155792812610961 -0.002629406341469128 -0.09271639147746297 -0.03189320433226526 -0.05690278173792515 -0.02610423627199078 -0.06413263615786782 -0.03372867729786804 -0.1837839761317295 0.01569014803429058 -0.01064305484782857 -0.0008125802519961566 -0.05483694494999462 -0.1045262101396842 -0.1474209848494939 0.01324763421028324 0.05959668941884936 -0.005733808087465315 -0.1542709477964417 -0.09409517954074056 -0.2036033565947848 0.09267946751412072 -0.02493738349086487 -0.01289463959279689 -0.01672459584720508 
-0.04866633152197651 -0.09737916644546721 0.002503504609837677 0.1195554601741864 0.02711834157372491 0.102131288384678 0.1555607422320879 -0.1035371244489787 0.1049249046253596 -0.05075065642154142 -0.1905005860426957 0.3844513722797129 -0.1788971207018777 0.08760863678472106 -0.2250878062165157 0.09974007986298448 -0.122648214660705 -0.05191004172831353 -0.2367758321663829 0.2006308604529527 0.04350212834759091 0.005796039952241525 0.07495843224451507 0.1329655588162521 0.01480813719538083 -0.1127081780355074 
0.09015890980163682 -0.1840361531801056 -0.002024880985985796 -0.1230570591799168 -0.1271826498466405 -0.1775901992359248 -0.191267979021663 -0.1900185517661306 -0.2604064148137608 -0.00736639908523767 -0.2702501218575011 -0.2024460918770424 0.1489874426770007 -0.2543177387110246 -0.2701272181504131 -0.1106606093047058 -0.2337646072223493 0.0563138019535922 -0.4213569311584288 -0.3464602570867232 -0.3742175735191959 -0.1331536356048439 -0.1622733626197206 -0.405164096259592 -0.2254159148711181 -0.2000221323984352 
-0.04615806071491704 0.1447818249261186 -0.0006158792518281759 0.03670763724212425 0.0419370742150664 0.08846986809761979 0.04726459066387935 -0.1187032300373537 0.05532557114075876 -0.03348409277420437 -0.1052007300932133 -0.03506875097905135 0.1099759164138141 0.0987853024491996 -0.1276278882602465 0.003280819790412409 0.1043495301433394 0.01624037082825956 0.1171143444881946 -0.2335675327616368 -0.6437907109684473 0.04914079937921669 -0.01653994974451092 -0.2492873017430786 -0.08491841468290717 -0.1359777068644986 
0.02826546379115382 0.1505145956617867 0.0017134368547995 -0.00970981711242107 -0.05115092634418566 -0.04601874674378204 0.01139468416524586 0.07733644015376209 -0.0622414612592303 0.08100228204972255 -0.05552401917695079 -0.006642786929477124 0.04969265962246928 -0.04956460536939084 -0.1413011871935446 -0.02817575167006767 -0.0939835192175706 -0.07096021423516805 0.0541266890961516 0.2465115964835238 -0.4188361890225052 0.1174800916172426 0.06282529453783496 -0.01296203603904477 0.02086377445087298 -0.2237208975163303 
-0.02629614276188708 -0.1732808161439041 -0.005783878435392964 0.002863941678705677 -0.005137950489302354 0.03308175942886322 -0.03463749937490916 -0.04545251389236888 0.07482227021783275 -0.009648152743867145 -0.03591743699426229 0.06218912833024513 0.04113225231435833 0.03614467367208611 0.1055314119389042 0.09435572892297912 0.05004490020562874 0.01454431306880328 0.0988930989973828 -0.258468805482454 -0.2209158425306292 0.09240723003968584 -0.02580705286257362 0.02351672194368311 0.1073336417454906 -0.03480521259527489 
0.03069109469135421 0.08714968716920043 -0.009204518763779033 0.03065814817984362 0.01376180437163975 0.02453352308592907 -0.01509977655563651 0.04536435131210426 0.03219616352363805 0.04015219270926583 0.02687679834849597 -0.02473088015334355 -0.113981591393406 -0.01158351922585544 -0.03673806022524848 0.006351107907416869 -0.06998382945229319 -0.06401271393496573 -0.0753634949765364 -0.07658646273060378 -0.1118338276965158 0.1224503212335182 -0.005743717428471426 -0.1536961186901465 -0.03062665120946731 -0.06067388719907161 
-0.01072821755614903 -0.004981290529946384 0.001792504881129168 -0.00917969952682831 -0.06782674568555043 0.005206491729600019 0.03833569057859608 -0.01391701706347716 0.003572834015986678 -0.02597626887653378 -0.063429559425827 -0.1614221048030217 0.08578025339062614 -0.003839627940778085 0.0426654472964076 0.005094009324796357 -0.0006323890278048532 0.08223903730858599 -0.1187693235387052 0.08407161804083153 0.05073011305292917 0.06946572774249175 -0.08397014455846508 0.03933516763848417 -0.07177226379224767 -0.06514842141342567 
0.001166974086826683 -0.07727916008218641 -0.0002305659025031892 0.01148357912517385 -0.07466936514493375 -0.0079935156299806 0.02015736127234707 0.02992294777958058 0.002625012795347131 -0.1344067497768996 0.05447615047613087 -0.3965789981454954 -0.05077448905801537 0.009556261324384802 -0.005242660839906072 0.08217034294442162 -0.07691069535609721 -0.04590824638956301 0.09741601447268805 -0.03496342911724664 0.1090662979681016 -0.01770670695083056 0.02147346301840498 -0.05833212116139899 0.01679814194405763 0.07241816428694796 
0.001960327578516772 0.08504733468244643 0.0003287477645284873 -0.009825675184008797 -0.06623626210042535 0.001070765932909186 0.05105962627551378 -0.07186773408215506 0.0213935881399262 -0.3903464145292882 -0.09996768003984947 -0.5646389353633575 0.01763524662499302 -0.01934267427076754 -0.1274903560772514 -0.08177062361825752 0.04683005649113613 -0.001101659272114693 -0.08208906466539113 -0.1960128512994459 -0.1270419094668445 -0.3915966321281614 -0.06939849418554002 0.0772491436398305 0.06311234295655396 0.09404566175402751 
-0.01743820482215632 0.3010924427893187 0.003500590520769621 -0.06003872945801996 0.05729736084662792 -0.01664781473488499 0.005580731474432809 -0.1231706853140185 0.03450712128656391 -0.01381637172312119 0.08978557321053265 -0.02869055622015863 -0.002591794700048958 0.004984954558201419 0.1737615448419256 0.1031164844624241 0.03757608592194566 -0.01475202218115691 -0.03441642510289598 -0.01720899241745816 -0.1288728689732255 -0.1570029370931465 0.02627736894600969 0.151218370606161 -0.1097076132801738 -0.09274650708116904 
0.006870211096884965 -0.1558144677785714 -0.007344146946692113 0.04480406841569939 -0.08222960509523482 0.009246577895282338 -0.065480369247886 0.04302818344602323 -0.01137859037789371 0.02528452697766556 0.02194077761606812 -0.1498806201627209 -0.2581014146283388 0.002079864644324872 -0.0996504535010953 -0.05028959804112009 -0.09056669622262609 0.1041889967589972 -0.09678909762535363 -0.0269029118566016 0.09732698488833397 -0.05520048542687338 -0.002739133042042412 0.1678043274824785 -0.01562257357583236 -0.1411802698101789 
-0.00938334653706065 -0.04313557720864046 0.004040004300832357 -0.02727125447030646 0.02954951274238224 -0.005420456688741248 0.1619682881603984 -0.02737438308410806 -0.01404122133833489 0.02375734278134605 -0.0644518181661884 0.051057785944894 0.0245352070494425 -0.02844713201736539 -0.02427659436990022 -0.08577035128272398 -0.03734008807370309 -0.03905270275674112 -0.06443828642366736 -0.08868993265834989 0.07624618852160446 -0.1450336109391351 -0.07855199180736683 -0.2116525534662515 -0.04914126636403037 -0.2139290794592429 
0.01371932915246305 0.07476118084703692 -0.00648689950866711 0.003520015937513935 -0.02083569576235374 -7.609290636231196e-05 -0.08113523544467437 0.0330190675546304 -0.01528922096538606 -0.07178046343133679 -0.1013906188712048 0.1292424854427406 -0.01547826288343244 0.01482364639638329 -0.00472152212303859 -0.003249619944211984 -0.01905675464908301 -0.08256955532156657 0.01259382413382957 -0.01334176878476435 0.02875422215329164 0.01354515302645583 -0.002106063199497171 -0.1393154221499225 -0.07828319979716687 -0.2225693908421682 
-0.02163563132415685 -0.2219201180724148 0.01248065083723914 0.0134636251352569 -0.02350660093910022 0.01653394309133602 0.1002913908116429 -0.03279689381975095 0.01237452983113656 0.04607786817206318 0.0001464456333761837 -0.07220032038269321 0.1033563236571108 0.02271718396919895 -0.007403531723849577 0.04504886428949004 -0.03883865822004787 0.07551523263404339 -0.06298345886208795 -0.02027197127921588 -0.1693839644730881 -0.1394939784586696 0.007034589517128736 -0.01512477153024481 0.1277231821334336 -0.1402387594520477 
0.00240438564913342 0.05791571346163842 -0.003559420898916383 -0.02216665941063197 -0.03882038517940171 -0.01011575674341065 -0.02560346699708445 0.05200965027153845 0.004123926527580688 0.02243526033217726 0.171945678729825 0.03267247465241733 -0.1491239974487725 -0.01056040748053232 0.04587100202898057 0.04858272439929912 -0.05303974083442277 0.01769824604330776 0.1785863548166899 -0.04567099926038352 0.01534499916794389 -0.0194885016008527 -0.07559696451553401 -0.1649449315870715 0.1012612294176562 0.05829311783123966 
0.002514947233612597 -0.08256222418759444 0.001714442223554397 0.003064122039834818 0.02383794431776879 -0.002241211773897048 0.02878248859969738 -0.04503478370688335 -0.0220388810570341 -0.3324752490109695 -0.06072373407797555 -0.2947648289106606 0.01130429451079248 0.002558864901335239 -0.3385995560913111 0.009308998389131337 0.03970528358575259 0.03374073105295237 -0.07953303573580307 0.01114987767128289 -0.05883327845292116 0.08319905062893326 -0.1024895611179541 -0.09430972393486529 -0.1772567250955069 0.04047926971081119 
0.006594637552906312 -0.05449636286399612 -0.004974401824184082 -0.02357990679638476 0.02254403186752543 -0.00964066511682795 0.0002321467222346326 -0.03993499672383569 0.01305577945030125 -0.1349631178438159 -0.03453076188451957 -0.1276943270036051 0.1259681031803871 -0.009968004673489713 -0.1920991685462229 -0.004202237295285041 0.06940106227711852 -0.0388789552880564 -0.01422525856462134 0.08251123333093999 0.1968554054846103 -0.283076843901895 -0.2106205110324929 -0.1590253269884616 -0.07419823654218491 -0.1271382744366278 
-0.04084963880470335 -0.04942922721216986 0.001093269387425341 0.07096210953845158 0.0644278227201236 0.07416426498406727 -0.002747490527010846 0.2729557041154975 0.1040175758680947 0.05907185702192667 0.05498693429574751 -0.3307719409908951 -0.1270751820913496 0.1309981210707389 -0.1526745374829872 -0.03898659682523457 0.1298884658006434 0.09704218652852903 0.09370693405944082 -0.09184267771036862 0.2359828001975887 -0.001799268737572876 -0.05016302165271797 0.261784865875097 0.1705444357457103 0.01957519277259444 
0.01385933382239632 0.05582115373686231 -0.0019550943370497 -0.02346995123216818 -0.03963766267268602 -0.0353038367433287 0.0724509936229816 -0.06098760600759227 -0.06220615137556845 -0.03973248440604322 0.06288560474216229 -0.1541980092766661 0.05271058483894391 -0.05948714849829895 0.1720082036304291 -0.009191221380675522 -0.1890731397077708 0.03011278722408983 -0.04744071332822132 -0.08386939678584775 -0.1078241217258965 -0.2105525331600201 -0.1483553481577187 -0.1248049861762948 -0.007134878131388508 -0.0691836591367849 
-0.003380529120563553 0.02750267670955633 -0.001159246705668476 0.004099295398141347 -0.005660594222628462 0.006052758998379247 -0.09127589404079216 0.02596737732731283 0.01344518137995775 0.02893875411710787 -0.07891954856364787 0.01894222426529636 -0.1184728907403408 -0.001122500858632146 -0.08198336928480643 0.025468586169995 0.08836515908719368 -0.002215332199111914 0.01449991216376548 0.03851273202567741 0.05443204488335692 0.008340730445396564 0.05617278541552129 0.06797693732548625 0.05658329722970125 -0.1167293750695694 
0.006050971847496594 0.07787250586451344 0.002025132112357519 -0.003612054531536731 -0.03633070128817956 -0.01203864129883585 0.06543233114432684 -0.03004326098655196 -0.07720460462944288 -0.04336666053227674 -0.2279887615774791 -0.1631214946229217 0.1777596964237701 0.006741662730314233 -0.03432756756697042 -0.115440689774475 -0.01469322642156324 -0.02916201563519796 -0.004469008194996404 -0.005751270118097178 -0.08927460069628447 -0.1888954300277484 -0.05785644432763493 -0.03814217607832658 0.06003111865935647 -0.2443209010183522 
-0.02107816717675353 -0.01311410834547356 0.007508649935262783 -0.0361063867833849 -0.05457244282476891 -0.04132815154590402 0.06249602731259329 -0.01636952722798004 -0.02636233658741561 -0.03099789694066867 -0.2276287454953062 0.01610789931147097 -0.06339129751957291 0.0005077492981442808 -0.02430949457901179 -0.1758290026247894 -0.0720524029481943 -0.004460154622066809 -0.04171518743458742 0.003397322583001019 -0.02538118397286195 -0.001260573503495642 0.02732945514652237 -0.0263877156656274 -0.1821472046944005 -0.1303683101574345 
0.01404519207654027 0.02613621158381548 -0.0003549522951433839 -0.01510154231916318 0.1922263506706234 -0.03347661130706504 -0.07451300657456367 -0.0194114451946847 -0.002042162585988081 -0.02698756003154812 -0.177338991208963 -0.3703205298807027 -0.01005487232733182 0.009020190109114657 -0.04510225795474188 -0.05391526573586816 -0.02900492150917506 0.02930537814804873 -0.05901131527292336 -0.00930532953287596 -0.1419297514599605 -0.07275136562229691 -0.02634501230701469 -0.1748239190995865 0.00896677774116743 -0.1194630906632278 
-0.0003021770811029088 0.02606051927322298 0.001014770763422745 0.007821571406391925 -0.09268391757751288 0.009136207835496776 0.02088799540807473 0.01801474783332121 0.01345107774221339 -0.2937853472858567 -0.07298036890299504 0.2204289468506206 0.04465889393611357 -0.006257922194079875 -0.01950641288896737 -0.05250323742617391 0.02775774498468895 0.01939458864542376 0.04185314135069749 -0.09000205734065229 0.04617875931620653 -0.1474372112612385 -0.06342113176597269 -0.1154102278927359 0.09448750167260948 -0.06446267992941891 
-0.001300015848785577 -0.04823868540405244 0.002308338191269281 -0.005356933228776127 -0.1510174422360624 -0.01932311370751077 -0.1399384137564463 -0.009598512481525125 -0.01916632191792977 -0.3405678939678741 -0.1195539244779353 -0.3974181734560815 -0.05389278278550094 -0.004563076472475517 -0.1994203326287924 -0.0861846626572737 0.0573510601812286 0.07384300137831237 -0.04967170286946491 0.02183092135281519 0.02327625106232317 0.1394923267551561 -0.1450917141912572 -0.4625507070382218 0.1017139368776756 0.159055363922759 
-0.3261180592150009 -0.07735958716377898 -0.4635267537140762 -0.2687875624209989 -0.2598824526299573 -0.2534167999452537 0.1138266700158723 -0.5611407137277606 -0.662268497376836 -0.007224633957205358 -0.05418681223437892 -0.2343007342315119 -0.06851148723280953 -0.987057306578609 -0.2107393140783672 -0.2211279112801985 -0.3076460860781491 -0.1609462299767837 -0.4654126011332712 -0.5386591386448059 -0.3574580252000827 -0.4874836725151366 -0.3642474966056119 -0.6736567568320686 -0.2873640125151165 0.02348356598342696 
0.005099265013738106 0.0913660804238207 0.004507430093511779 0.01528615477053047 -0.001019515220791521 0.01526090723741956 -0.09492771249051278 0.1710664251363897 0.04412224038742951 0.06621339897021249 -0.1420599859057033 0.08029127912294223 0.1622713290835639 0.02188682380456334 -0.04752949264730021 -0.001303450724401786 0.1291315394838648 -0.001671919459819977 0.3409944955996291 0.1301944974692636 0.1395427956451345 0.186700633772763 0.06815643731520693 -0.06257964802231622 0.1183741329971408 -0.05448961047794888 
-0.001536850936807883 -0.09315872923368913 -0.00127049361720565 -0.002559545775324651 -0.0179827422352127 -0.006198210196322642 -0.05054346183315667 -0.09501825102350447 -0.03385115731181271 0.0600819922641939 -0.121581995491286 -0.08152562044949622 -0.1140427719231419 -0.01520862691586389 -0.004398951885668635 -0.01963200613195742 -0.00112535506668319 0.0123492798163062 -0.1791099222579597 -0.2094678173270548 -0.180505247535021 -0.06571784569416179 -0.1435020785920211 0.2678644553707585 -0.1352100578563548 -0.1182344851202592 
-0.002503331570414285 0.02661100990805113 0.001149592727839441 -0.007454266952848242 -0.005467459682033699 0.005753338794181911 0.01053072047901776 0.03954520459500009 -0.01336395816970877 0.03229366809078005 -0.04990484093058914 -0.2219975300228224 -0.3771819942108708 0.002424969263704059 0.01979961531123659 -0.01055693824702511 -0.03177906566632678 -0.01749593535058456 -0.06320047789855998 -0.0169877002440748 0.02009311561813761 0.01741064375982527 0.04825307224534783 -0.06494561222180148 -0.008966692199077607 -0.3039722829305984 
0.008555330384092136 0.2101570254858555 -0.005001257707999507 -0.008398592227757719 0.0426253801309216 -0.01708504995908447 -0.06552059125991787 -0.005921749903477318 -0.04659093849289583 -0.1284223448181386 0.09793069613009941 0.01002430855344986 -0.04507643764524045 -0.02237128348075643 -0.03523992877927006 0.06439718570803363 0.04878834556292939 -0.07111941962446057 0.1715373102059908 -0.04410199219925809 -0.140611129188709 0.1301084862913274 0.1158516891276156 -0.1658871293619399 -0.006029026699489274 -0.2967053186134236 
0.001792355914304734 -0.05922446907806696 -0.001650427132163428 0.01687870263515772 0.1006157261687081 -0.002353349574158635 -0.05060330864250448 0.009262525535841554 -0.01253327755199506 0.05510903660313841 0.03997951211682817 0.01693555799646998 0.0002527647277218038 0.01604688660688771 -0.06479392156039224 -0.09182015645937328 -0.004688278528528122 -0.0121997163074403 -0.04603017236003457 0.05569762618795138 0.02218052250564602 -0.02089365477144968 0.04340170928156278 0.1059681040408251 -0.04678480332937089 -0.04729622228384894 
0.003857155901749973 -0.05354842323773398 0.0008084262533690677 -0.006253595544194952 -0.05138345251328368 -0.0005722760079860241 -0.007238378272148635 -0.01046428990218642 -0.01942279933292067 -0.278685694662951 -0.02865074038315294 -0.3836839017670641 -0.1037673702557173 -0.003414866175374068 -0.01143405240491669 0.07882953894940634 0.0525167086447431 0.002290024180069471 -0.08584072242045622 -0.005745053459790007 0.07540254563351768 0.1082495373997327 0.08684316487159409 0.07364327743995092 0.04678543742178665 -0.01905615301740949 
-0.003748897528438127 0.008247478222789208 -0.0004650439476006449 0.006762527605105968 0.02807487885542144 0.006885923557224866 0.124188390368553 0.01906292444274877 -0.002445325535734033 -0.2601594574245926 0.1225489599357355 -0.2532433545465117 0.02938877170660641 0.01848025940917018 -0.04394590058912872 -0.04580374285579783 -0.02738750569713494 0.01903998906870219 0.2222911157518036 -0.05863991230491476 0.04890695953835694 -0.1082395368535234 -0.07026999381818005 0.08566667708172902 0.01133963177371777 -0.100925974219364 
0.02908986929932748 -0.1172184400626529 0.0005617989081505453 -0.04937665614989057 -0.05378219004360673 -0.04637061156515191 -0.06860959306425266 -0.1486881469614853 -0.02055910489281963 -0.04001581855423202 0.06894325427455134 -0.1388865168505339 -0.005303186447799797 -0.1075896811276282 0.02607555197469968 -0.08863112965551551 0.1489436368998431 -0.07154208242373594 -0.003012897367179374 0.1382862739833004 0.1250495599258399 -0.0690053183856363 -0.08900840424111797 0.160635212294401 0.0451986596695135 -0.02978589122350379 
-0.01006707112020317 0.01384470486302434 0.001594574034028882 0.001770636221659361 0.08331795603323947 0.04820877214883676 0.127521261542605 -0.06889013337879515 0.04514354912318159 0.07663159407025576 -0.04616594712025239 -0.004400397789482365 0.02767631124158257 0.05441146456276986 -0.03296791130544133 -0.1130062412931995 0.1686907946523178 -0.00363049346740825 -0.05096885297272226 -0.1234986611365994 -0.08656152779865675 -0.1700356344361761 -0.09393328613998504 -0.02927573812555644 0.1787503749023001 0.02630160747734943 
0.002902777691700215 0.1601578873821196 0.002421507448517202 0.0002470019141050205 -0.1521882518209605 -0.01934120458921512 0.07634294257040894 -0.03189981299865451 -0.01090558030513512 -0.05533981570681921 0.03714061914694927 -0.08731116658445891 -0.02577842333637055 0.0338021541580518 0.02091487684628664 -0.1024157666822588 0.02061873885541619 0.0007142366797102439 0.007050191994158502 -0.06569868601477358 -0.06225455590769486 -0.3632098613846726 -0.127309851007627 -0.05542284444994977 0.002208530056086059 -0.06805105016694417 
-0.001200285201514307 -0.01980138427087742 0.0002060139988982909 -0.003204520410334649 -0.205850254331179 0.04012403052179205 -0.05633009760447248 0.03800177319613809 0.02532218329034396 0.01602617941839083 -0.1974590215370393 0.07609636797685737 0.04116493319187595 -0.003341266272718981 0.03840983324803815 -0.1742339028404905 0.1291038015900767 0.01831544850088857 0.07443168542373486 0.01641652104236304 0.08182128951482767 -0.2023124769161805 -0.04287066068775855 -0.1762724378560905 -0.009786721664231734 -0.1359576262717452 
0.01601674500313563 0.006255073879226148 -0.007799700678516227 0.05144398237620549 -0.2537305914385194 -0.4554093151803139 0.01295271289373486 0.02210838886120045 0.02071627162470777 -0.1877548355225925 -0.2526356414940082 -0.1054094201870694 -0.1089244632893203 0.004555882521821766 0.0001067349885951443 -0.3422833406742052 0.0656981974569584 -0.1892747518836484 -0.01212289007862803 0.0572372680656426 -0.03169104939944528 -0.1277414188333013 -0.003214295997581839 -0.08165418150613918 0.02252968451864909 -0.1312613377665452 
-0.03712546157733295 -0.02586189480515754 -0.0007609929019051362 0.01729447127925009 0.07183094603977898 0.0784704923467167 0.02321182053007419 0.01292808532613718 -1.195045212140812e-06 -0.03682480104240296 -0.1441751619404729 0.05641747687842964 0.1076406609137572 -0.01515670662533905 -0.01399792933008094 -0.1474052275641643 0.08351611466995044 0.04358316482575442 0.02780292376251757 -0.1199750541305311 -0.02653384410586372 -0.125845213493905 0.1238452590973955 0.0651474407811513 -0.2390315901148729 -0.04393835170002719 
-0.02134774788162556 -0.06450477497718038 0.002102665034200434 -0.01277881360651606 -0.1145256939399125 -0.2690734899968662 -0.08611475626647641 -0.01230736102183188 -0.01378918687848428 0.02047355215201808 -0.03049268207028506 -0.01267784623486649 0.03167411776057924 0.0101337768649715 -0.003179236321606823 -0.1729832146737798 -0.001035992727108359 -0.01384193910015691 0.05930255105481682 0.1431166459800769 -0.0062865754902575 -0.07269834794273605 -0.009456469568486833 -0.136886604831924 0.1605612948236395 0.1173468936801359 
-0.0149069203972473 -0.0606762954284929 0.0008110139473531004 0.004222861097073888 0.03138100198615229 0.01868259537460676 0.05721706495537952 0.006492754220671135 0.02631040896526634 -0.1771463039871342 -0.1179029708593078 -0.3248243619093162 -0.007640169124636657 -0.004836421612069492 0.06089320129626701 -0.1771797103917174 0.04496297105347322 -0.01726221053433839 -0.2197244346477078 -0.05505504835721638 -0.2423410815434947 -0.1507286860599736 -0.1571503752635218 0.1868976035603545 0.05565406785486426 0.1041823520467403 
-0.04666570894235977 0.404069166028339 -0.2835341956769409 -0.002006217034676015 -0.09005071493186786 0.008538297082972286 0.2809875668217449 -0.204936043571093 0.02503393910765078 0.03811607519102771 -0.1855059083435868 0.02816476666099055 -0.1773077599294246 -0.430133892022414 -0.06885504218651597 -0.1094677760627413 0.207171459792276 -0.1675538443829942 -0.1777380051364535 0.02577882677877133 -0.006589229446800483 -0.3274103372532892 -0.1514368056748761 -0.3223310899619123 0.01077181627906592 -0.03266882244585625 
0.0009007554771886855 0.05064278221275917 0.001360398179914385 0.02495818090731192 0.009758990549331001 0.00409281066657865 0.1763043242427572 -0.02061043444760119 0.02446679169976556 0.02550692242519481 0.04521343624720108 -0.07247196511284575 0.1598113500264455 -0.0008585005212281789 0.09582654916205359 0.06161491953886844 0.0330111277592018 -0.05038901066268873 -0.2738451131644919 -0.06607691890870458 -0.05309498956012845 0.07069916827284252 0.01502594774109761 0.2539181820702751 0.1110404527481097 0.006089952117111827 
0.0003616519153430999 -0.05148377217698194 -2.999689561349309e-05 -0.005552542182982801 0.02104076420532796 0.002418704011950336 -0.06714725073401448 0.04116728891094024 0.01121435848756088 0.01053208369581094 0.04681113037964048 -0.1030410293391005 -0.03647800809916522 0.003336731614982822 0.08290192791888354 0.01024860457435292 -0.05835242357534053 0.01784004618457481 -0.07002545383701471 0.02492689238692947 -0.002573401467816935 0.1026605715752198 -0.05628743652845102 -0.2085100484248716 -0.005015012354037748 0.1230242124828928 
-0.0006796966855120577 0.1763675898845188 2.033220265315445e-05 0.0006753260832488663 -0.06271643834643251 -0.001686126452557241 0.05774002413124989 -0.02946279564311084 -0.0007993096681447793 -0.06939825877335484 -0.01006765082365737 0.02207162280461153 -0.08948205203513283 -0.0106708557812702 -0.01577742854529628 0.001208029223015072 0.06107430332532052 0.006430496219339095 -0.004565052449761226 0.1038980709611841 -0.01809663026049445 0.1385629454269034 0.01485974098814598 -0.2844905785808586 0.03801751860111874 0.08548293037871033 
-0.004738516176171975 -0.06606642904297751 0.000682918864066807 -0.007111704889251192 0.01019857987015945 0.01068215275113579 -0.06875395429589184 0.03761569536693208 -0.01872919308163072 0.1580945645215364 -0.06964683364518821 -0.1477712845601533 0.1656745939666203 0.01149767841814086 0.0171590364903025 0.09453995212078234 0.04919916172813695 0.02123035274775764 -0.04737966320027925 -0.04364939489439635 -0.03247556375905369 -0.1613520088561141 0.03373141535541792 0.2022421977741832 0.1925567041588382 -0.02326228905456291 
-0.002723252301547529 0.05338032558283395 -0.0002019523023069137 0.007888472949552637 -0.2424125481268599 -0.01059361624777518 0.06643815222126315 0.03078294264882082 0.02225415727821498 0.01653374692871208 -0.08618804520552747 0.06694175724666923 -0.08061983245589693 -0.01162196962938483 0.06659834609031136 0.08114955774706183 0.05206824327885603 -0.07236081526263942 -0.04979689624553635 -0.2006107204272952 0.201878101816263 -0.1580455949231354 -0.07368553941825941 -0.1666302520933544 -0.09499089258847847 -0.05335701897778666 
-0.007739652417077484 0.1545783955755659 -0.001342566108913142 -0.01031440044943139 0.1631530242691299 0.0007104125712194943 -0.09807794392663709 0.01712074699574218 -0.02594739738496263 -0.04969059657576018 -0.1423509848697109 -0.05144031175319992 0.03328203414981479 0.009861488177470156 -0.02028460681974668 -0.2185426328169731 -0.01032286329146755 0.03250229943757921 -0.02325526431391403 -0.06230087358656115 -0.2446366217407646 0.01178120644157187 0.1325475815286113 -0.02691260825772505 -0.2513666474591849 -0.02569443557986939 
0.01716323903851411 -0.1830991937026936 0.0003824984411080451 0.004000243107992734 -0.02845935415592166 -0.02454264114331691 0.1328268925303231 -0.01056185767056628 -0.00427589712469813 -0.271254596388348 0.08493306134020932 -0.2026183442613149 -0.04171879560452799 -0.04835679493219937 -0.08476368825987068 0.1035344002649894 0.07013895308561931 -0.01759130956090997 0.02003320930707972 0.1995533265366982 0.2959164087690095 0.02175202049949242 0.04872572401330772 0.07057070208024527 0.2857558910960841 0.003823733906200638 
-0.04150679167278296 0.009048246468128743 -0.0004169075406536131 0.01908454815653884 -0.03574904089057469 0.08130137960542394 -0.1327395524632289 0.08185609639546006 0.03345065864080496 -0.2241139855941072 0.1300606775298807 -0.1404992732163397 0.04889214208660837 0.1700788777663768 -0.0252689928770121 0.1022289026137119 -0.06449937933470955 0.02430785968020376 0.01933762061089058 -0.3320388061040883 -0.3885587365219143 -0.1668572560023112 -0.1839329623804406 -0.1174746897834505 -0.1451187669010538 -0.08974443575513111 
0.04363327881491851 -6.796039029648566e-06 -0.002993913366593221 -0.00425934900446198 -0.1259603732001862 -0.1121497900590795 0.1849059391103874 -0.002018613847462243 -0.05832627056680909 -0.08258246109313905 -0.2098699900356358 0.01852218419510748 -0.08173827481798311 -0.233822134946242 -0.02183101020584729 -0.1239804321502431 0.006062882362375326 0.02866520067772822 -0.04292110577521199 0.08877328574649611 0.07067909608379444 -0.2812429161207738 -0.1572934057607235 -0.2856921083755547 0.02626491216390513 -0.03926124695829807 
-0.09551557698774212 -0.09641605928079372 0.0007336107979631816 -0.0130421171778379 0.003177718057225622 0.1734149764517564 0.04279657895595072 0.03217339184433413 -0.01331098987264405 -0.08594835104514924 -0.271888322484384 -0.1172165600153937 0.06340842690723072 -0.4919978487122468 0.02592678603680745 -0.1275841824615009 -0.05738561402228684 -0.07104442783053548 -0.2843137150355662 0.1754917805204791 0.470563170050184 0.04170802057919717 -0.1279317501039393 -0.04798489190320314 0.2595141564300423 0.1294045658628455 
0.1297770345598826 0.1427865883925507 -0.003437234312800544 0.02611247685705289 -0.03278253159941697 -0.255162542187308 0.0170671891926377 -0.008044175966249562 0.02095547365025664 -0.04709085486681724 -0.1528108313042221 -0.09903245925615599 -0.008648539239816341 -0.01929051245477076 0.01163839606816934 -0.1412152515117321 0.06163794141954589 -0.08893435669997206 -0.1459378446649304 -0.1137603346286664 -0.1984112230618767 -0.1386201474967486 -0.09282888128858176 0.1421271749579361 0.05047202485459545 0.2722674830548132 
-0.2004659633666371 -0.009667834443499661 0.00560484537147865 -0.04577577197351621 -0.1773515865473823 -0.1418686119176193 0.000389002767045631 -0.03287182386067775 -0.03464180811273224 0.06213604500516543 -0.1434215245221341 -0.05814818902145386 -0.004241299631867772 -0.008630782057738012 0.005810274300380771 -0.2494624297955198 0.1121585618187116 0.1209246388551698 -0.195578319967429 -0.01186007928921314 -0.0978670045865591 -0.1149638679721844 -0.1637129425222743 -0.2595898295529485 -0.3555088579213685 0.1980105911181027 
-0.2854733970793505 -0.3278265543485376 -0.1874138098974275 -0.3613055022494424 -0.2405467147815031 -0.2325472038639577 -0.1003420983128454 -0.1049465145979125 -0.1936526498869151 -0.3094231676015135 -0.1542600970846424 -0.492291763860856 -0.1689272285785268 -0.1115147090044553 -0.1229930876016549 -0.1386932980213616 -0.02285404184074556 -0.2644099321043056 -0.2712384043955025 -0.2484354905328342 -0.3594513445122051 -0.2281035815945167 -0.2102916636969805 -0.2265891428362284 -0.2082106214588629 0.0319703859133363 
-0.1106769294138543 -0.2200102512853918 -0.1138260013064347 -0.3644526709352631 -0.1879230306328426 -0.2122779499188552 0.0421314528999275 -0.1297895575540974 -0.08103191623053518 -0.2143938800037009 -0.1302544588666044 -0.3071493639950422 -0.1005186429408599 -0.133459521749401 -0.08820967747433303 -0.105755251065418 -0.09240768649639315 -0.19973930186872 -0.2271625772866063 -0.2458600123826373 -0.1900909177779009 -0.2570268867614162 -0.2491841933535883 -0.02544315883941655 0.0321148782855087 -0.02376120593209645 
0.2226713740718028 0.08519527046532124 -0.03341135691637535 -0.3963119710536078 -0.07864018847108678 -0.1001923038370161 0.03661268740222995 -0.07564580973706804 -0.1483221778414806 -0.1276342539743902 -0.1769412026639099 -0.1733698819508184 -0.05891858213614882 -0.09784300859561333 -0.06086725699834673 -0.07270257985116731 -0.340764357131611 -0.1048587505340163 -0.1358670018332782 -0.3105014733871012 -0.260759101924509 -0.1814209264055757 -0.1929872810128092 -0.1910435578911653 0.01551642393631129 -0.3337667048769595 
